{"learner":{"attributes":{},"feature_names":[],"feature_types":[],"gradient_booster":{"model":{"cats":{"enc":[],"feature_segments":[],"sorted_idx":[]},"gbtree_model_param":{"num_parallel_tree":"1","num_trees":"300"},"iteration_indptr":[0,1,2,3,4,5,6,7,8,9,10,11,12,13,14,15,16,17,18,19,20,21,22,23,24,25,26,27,28,29,30,31,32,33,34,35,36,37,38,39,40,41,42,43,44,45,46,47,48,49,50,51,52,53,54,55,56,57,58,59,60,61,62,63,64,65,66,67,68,69,70,71,72,73,74,75,76,77,78,79,80,81,82,83,84,85,86,87,88,89,90,91,92,93,94,95,96,97,98,99,100,101,102,103,104,105,106,107,108,109,110,111,112,113,114,115,116,117,118,119,120,121,122,123,124,125,126,127,128,129,130,131,132,133,134,135,136,137,138,139,140,141,142,143,144,145,146,147,148,149,150,151,152,153,154,155,156,157,158,159,160,161,162,163,164,165,166,167,168,169,170,171,172,173,174,175,176,177,178,179,180,181,182,183,184,185,186,187,188,189,190,191,192,193,194,195,196,197,198,199,200,201,202,203,204,205,206,207,208,209,210,211,212,213,214,215,216,217,218,219,220,221,222,223,224,225,226,227,228,229,230,231,232,233,234,235,236,237,238,239,240,241,242,243,244,245,246,247,248,249,250,251,252,253,254,255,256,257,258,259,260,261,262,263,264,265,266,267,268,269,270,271,272,273,274,275,276,277,278,279,280,281,282,283,284,285,286,287,288,289,290,291,292,293,294,295,296,297,298,299,300],"tree_info":[0,0,0,0,0,0,0,0,0,0,0,0,0,0,0,0,0,0,0,0,0,0,0,0,0,0,0,0,0,0,0,0,0,0,0,0,0,0,0,0,0,0,0,0,0,0,0,0,0,0,0,0,0,0,0,0,0,0,0,0,0,0,0,0,0,0,0,0,0,0,0,0,0,0,0,0,0,0,0,0,0,0,0,0,0,0,0,0,0,0,0,0,0,0,0,0,0,0,0,0,0,0,0,0,0,0,0,0,0,0,0,0,0,0,0,0,0,0,0,0,0,0,0,0,0,0,0,0,0,0,0,0,0,0,0,0,0,0,0,0,0,0,0,0,0,0,0,0,0,0,0,0,0,0,0,0,0,0,0,0,0,0,0,0,0,0,0,0,0,0,0,0,0,0,0,0,0,0,0,0,0,0,0,0,0,0,0,0,0,0,0,0,0,0,0,0,0,0,0,0,0,0,0,0,0,0,0,0,0,0,0,0,0,0,0,0,0,0,0,0,0,0,0,0,0,0,0,0,0,0,0,0,0,0,0,0,0,0,0,0,0,0,0,0,0,0,0,0,0,0,0,0,0,0,0,0,0,0,0,0,0,0,0,0,0,0,0,0,0,0,0,0,0,0,0,0,0,0,0,0,0,0,0,0,0,0,0,0,0,0,0,0,0,0,0,0,0,0,0,0],"trees":[{"base_weights":[1.3023942E-4,1.6316421E-2,-3.8698204E-3,2.3801882E-2,9.592952E-3,-6.536837E-3,2.6906041E-2,3.2859918E-2,1.7360527E-2,2.1011487E-3,5.6270324E-3,-8.700274E-3,-0E0,1.0251984E-2,1.8152877E-3,1.8256776E-3,4.4342695E-4,2.7697494E-2,7.136834E-3,-5.1446105E-3,1.6261114E-2,1.0276993E-3,-9.26816E-3,6.5252264E-3,-5.1620975E-3,1.7071176E-2,-1.079163E-4,2.854549E-4,1.7818187E-3,-2.772517E-4,8.4613677E-4,5.6862255E-4,-8.1383897E-4,1.1422093E-3,2.2500399E-5,-3.3261918E-4,-7.4702984E-4,-1.1518503E-3,5.1699294E-4,-7.6581776E-4,1.682758E-4,1.7164813E-4,1.7295837E-3],"categories":[],"categories_nodes":[],"categories_segments":[],"categories_sizes":[],"default_left":[0,0,0,0,0,0,0,0,0,0,0,0,0,0,0,0,0,0,0,0,0,0,0,0,0,0,0,0,0,0,0,0,0,0,0,0,0,0,0,0,0,0,0],"id":0,"left_children":[1,3,5,7,9,11,13,15,17,-1,19,21,23,25,-1,-1,-1,27,29,31,33,-1,35,37,39,41,-1,-1,-1,-1,-1,-1,-1,-1,-1,-1,-1,-1,-1,-1,-1,-1,-1],"loss_changes":[1.1888599E-1,1.4801994E-2,1.1731874E-1,4.034579E-3,2.0850126E-2,1.8436242E-2,1.2661427E-2,4.849732E-4,7.4154995E-3,0E0,2.215732E-2,1.5675E-2,1.1439334E-2,5.4210327E-3,0E0,0E0,0E0,3.866475E-3,8.5537145E-3,1.6672289E-2,7.756604E-3,0E0,1.2356572E-2,1.5432762E-2,1.8218582E-2,4.4419747E-3,0E0,0E0,0E0,0E0,0E0,0E0,0E0,0E0,0E0,0E0,0E0,0E0,0E0,0E0,0E0,0E0,0E0],"parents":[2147483647,0,0,1,1,2,2,3,3,4,4,5,5,6,6,7,7,8,8,10,10,11,11,12,12,13,13,17,17,18,18,19,19,20,20,22,22,23,23,24,24,25,25],"right_children":[2,4,6,8,10,12,14,16,18,-1,20,22,24,26,-1,-1,-1,28,30,32,34,-1,36,38,40,42,-1,-1,-1,-1,-1,-1,-1,-1,-1,-1,-1,-1,-1,-1,-1,-1,-1],"split_conditions":[-8.01827E0,5.9902E0,-5.093671E0,-8.622716E0,-1.0064848E1,2.03327E0,5.48014E0,2.13275E0,5.59903E0,2.1011487E-3,8.234476E1,-3.10309E0,3.90044E0,2.1092E0,1.8152877E-3,1.8256776E-3,4.4342695E-4,2.2372341E3,5.76185E0,8.7307E-1,2.11452E0,1.0276993E-3,-8.4516E-1,-2.48739E0,5.70969E0,1.66895E0,-1.079163E-4,2.854549E-4,1.7818187E-3,-2.772517E-4,8.4613677E-4,5.6862255E-4,-8.1383897E-4,1.1422093E-3,2.2500399E-5,-3.3261918E-4,-7.4702984E-4,-1.1518503E-3,5.1699294E-4,-7.6581776E-4,1.682758E-4,1.7164813E-4,1.7295837E-3],"split_indices":[7,5,7,7,7,3,5,6,5,0,0,6,3,6,0,0,0,1,5,6,6,0,3,6,5,6,0,0,0,0,0,0,0,0,0,0,0,0,0,0,0,0,0],"split_type":[0,0,0,0,0,0,0,0,0,0,0,0,0,0,0,0,0,0,0,0,0,0,0,0,0,0,0,0,0,0,0,0,0,0,0,0,0,0,0,0,0,0,0],"sum_hessian":[1.815E3,3.64E2,1.451E3,1.64E2,2E2,1.339E3,1.12E2,6E1,1.04E2,1.8E1,1.82E2,9.99E2,3.4E2,4.5E1,6.7E1,4.8E1,1.2E1,4.6E1,5.8E1,8.6E1,9.6E1,1.5E1,9.84E2,1.45E2,1.95E2,3.4E1,1.1E1,1.6E1,3E1,2.1E1,3.7E1,3.1E1,5.5E1,6.3E1,3.3E1,6.87E2,2.97E2,1.3E1,1.32E2,9.4E1,1.01E2,2.3E1,1.1E1],"tree_param":{"num_deleted":"0","num_feature":"8","num_nodes":"43","size_leaf_vector":"1"}},{"base_weights":[1.4753401E-4,1.655005E-2,-4.1073705E-3,1.8783385E-3,1.3920142E-2,-6.5941326E-3,2.4233699E-2,2.192505E-2,4.794967E-3,-8.636179E-3,-0E0,6.6088894E-3,3.0549528E-2,1.275383E-2,2.8137434E-2,-7.90449E-5,2.2650082E-2,-1.1098753E-2,-3.0519078E-3,1.9959396E-2,-1.6757271E-3,1.4784535E-3,-3.5448498E-4,1.6905199E-3,-0E0,-0E0,1.1406874E-3,-0E0,1.570285E-3,5.3410465E-4,-5.364364E-4,1.557065E-3,-0E0,-9.444064E-5,-6.633869E-4,-6.068714E-4,1.3422195E-4,1.8669965E-3,-0E0,-4.0997635E-4,2.1200611E-4],"categories":[],"categories_nodes":[],"categories_segments":[],"categories_sizes":[],"default_left":[0,0,0,0,0,0,0,0,0,0,0,0,0,0,0,0,0,0,0,0,0,0,0,0,0,0,0,0,0,0,0,0,0,0,0,0,0,0,0,0,0],"id":1,"left_children":[1,3,5,-1,7,9,11,13,15,17,19,21,23,25,27,29,31,33,35,37,39,-1,-1,-1,-1,-1,-1,-1,-1,-1,-1,-1,-1,-1,-1,-1,-1,-1,-1,-1,-1],"loss_changes":[1.2700607E-1,1.51106715E-2,9.8896764E-2,0E0,2.2058569E-2,1.6956497E-2,8.549571E-3,5.522676E-3,1.6705217E-2,1.2220226E-2,9.213962E-3,1.3465846E-2,4.938364E-3,1.1091328E-2,6.0543194E-3,1.4673812E-2,6.6328086E-3,1.1983186E-2,1.7551307E-2,6.971048E-3,1.208604E-2,0E0,0E0,0E0,0E0,0E0,0E0,0E0,0E0,0E0,0E0,0E0,0E0,0E0,0E0,0E0,0E0,0E0,0E0,0E0,0E0],"parents":[2147483647,0,0,1,1,2,2,4,4,5,5,6,6,7,7,8,8,9,9,10,10,11,11,12,12,13,13,14,14,15,15,16,16,17,17,18,18,19,19,20,20],"right_children":[2,4,6,-1,8,10,12,14,16,18,20,22,24,26,28,30,32,34,36,38,40,-1,-1,-1,-1,-1,-1,-1,-1,-1,-1,-1,-1,-1,-1,-1,-1,-1,-1,-1,-1],"split_conditions":[-8.000742E0,-9.832176E0,-5.093671E0,1.8783385E-3,6.00164E0,2.14087E0,5.3797E0,2.304366E3,6.43209E0,-6.274997E0,2.3076E0,9.6856E0,1.656088E1,4.12591E0,-2.07213E0,1.52295E0,-8.217459E0,2.1707488E3,5.5423E0,5.69611E0,5.75542E0,1.4784535E-3,-3.5448498E-4,1.6905199E-3,-0E0,-0E0,1.1406874E-3,-0E0,1.570285E-3,5.3410465E-4,-5.364364E-4,1.557065E-3,-0E0,-9.444064E-5,-6.633869E-4,-6.068714E-4,1.3422195E-4,1.8669965E-3,-0E0,-4.0997635E-4,2.1200611E-4],"split_indices":[7,7,7,0,5,3,5,1,2,7,3,2,2,2,2,2,7,1,5,4,5,0,0,0,0,0,0,0,0,0,0,0,0,0,0,0,0,0,0,0,0],"split_type":[0,0,0,0,0,0,0,0,0,0,0,0,0,0,0,0,0,0,0,0,0,0,0,0,0,0,0,0,0,0,0,0,0,0,0,0,0,0,0,0,0],"sum_hessian":[1.8E3,3.75E2,1.425E3,3.6E1,3.39E2,1.314E3,1.11E2,1.74E2,1.65E2,9.93E2,3.21E2,3.4E1,7.7E1,7.8E1,9.6E1,1.26E2,3.9E1,6.76E2,3.17E2,2E1,3.01E2,1.5E1,1.9E1,6.7E1,1E1,3.3E1,4.5E1,1.3E1,8.3E1,5.8E1,6.8E1,2.7E1,1.2E1,1.38E2,5.38E2,1.29E2,1.88E2,1E1,1E1,1.51E2,1.5E2],"tree_param":{"num_deleted":"0","num_feature":"8","num_nodes":"41","size_leaf_vector":"1"}},{"base_weights":[4.6574327E-4,1.504647E-2,-3.4124763E-3,1.1650201E-2,1.7855018E-3,-5.620572E-3,2.1935198E-2,-4.75469E-3,1.4256196E-2,-7.6872404E-3,2.6359918E-4,1.546146E-3,8.711228E-3,1.03131286E-4,-8.7506056E-4,1.4507299E-3,1.0286884E-2,1.7101848E-2,-8.684194E-3,1.4221429E-2,-2.080828E-3,1.826314E-2,-0E0,-0E0,3.6966565E-4,1.1822233E-3,2.4773716E-4,-5.498425E-4,1.6717255E-3,-8.9347E-4,-3.503361E-4,1.1639064E-3,-0E0,-2.9167359E-5,-1.1299847E-3,-0E0,1.2933948E-3,2.4019099E-4,-3.3172933E-4],"categories":[],"categories_nodes":[],"categories_segments":[],"categories_sizes":[],"default_left":[0,0,0,0,0,0,0,0,0,0,0,0,0,0,0,0,0,0,0,0,0,0,0,0,0,0,0,0,0,0,0,0,0,0,0,0,0,0,0],"id":2,"left_children":[1,3,5,7,-1,9,11,13,15,17,19,-1,21,23,-1,-1,25,27,29,31,33,35,37,-1,-1,-1,-1,-1,-1,-1,-1,-1,-1,-1,-1,-1,-1,-1,-1],"loss_changes":[1.0198196E-1,2.1515988E-2,7.701786E-2,1.521128E-2,0E0,1.6492408E-2,8.722227E-3,4.2803455E-3,1.2876943E-2,2.330361E-2,1.1878665E-2,0E0,4.2107394E-3,7.1032817E-4,0E0,0E0,1.3903137E-2,1.8214941E-2,1.18398145E-2,8.246294E-3,6.0568764E-3,1.3630576E-3,8.9743966E-4,0E0,0E0,0E0,0E0,0E0,0E0,0E0,0E0,0E0,0E0,0E0,0E0,0E0,0E0,0E0,0E0],"parents":[2147483647,0,0,1,1,2,2,3,3,5,5,6,6,7,7,8,8,9,9,10,10,12,12,13,13,16,16,17,17,18,18,19,19,20,20,21,21,22,22],"right_children":[2,4,6,8,-1,10,12,14,16,18,20,-1,22,24,-1,-1,26,28,30,32,34,36,38,-1,-1,-1,-1,-1,-1,-1,-1,-1,-1,-1,-1,-1,-1,-1,-1],"split_conditions":[-8.01827E0,8.568254E1,-5.093671E0,4.93637E0,1.7855018E-3,1.88961E0,1.096394E1,-2.2783E-1,-9.277236E0,-3.576E-1,2.50154E0,1.546146E-3,8.572552E1,-2.40225E0,-8.7506056E-4,1.4507299E-3,1.56854E0,-7.651475E0,3.0626E0,5.95757E0,1.55604E1,1.336402E1,2.2585159E3,-0E0,3.6966565E-4,1.1822233E-3,2.4773716E-4,-5.498425E-4,1.6717255E-3,-8.9347E-4,-3.503361E-4,1.1639064E-3,-0E0,-2.9167359E-5,-1.1299847E-3,-0E0,1.2933948E-3,2.4019099E-4,-3.3172933E-4],"split_indices":[7,0,7,4,0,3,2,3,7,2,3,0,0,2,0,0,2,7,2,4,2,2,1,0,0,0,0,0,0,0,0,0,0,0,0,0,0,0,0],"split_type":[0,0,0,0,0,0,0,0,0,0,0,0,0,0,0,0,0,0,0,0,0,0,0,0,0,0,0,0,0,0,0,0,0,0,0,0,0,0,0],"sum_hessian":[1.781E3,3.79E2,1.402E3,3.31E2,4.8E1,1.294E3,1.08E2,4E1,2.91E2,9.7E2,3.24E2,5.9E1,4.9E1,2.4E1,1.6E1,5.5E1,2.36E2,3.3E1,9.37E2,5.2E1,2.72E2,2.3E1,2.6E1,1.2E1,1.2E1,6.1E1,1.75E2,1E1,2.3E1,1.34E2,8.03E2,3.4E1,1.8E1,2.59E2,1.3E1,1E1,1.3E1,1.5E1,1.1E1],"tree_param":{"num_deleted":"0","num_feature":"8","num_nodes":"39","size_leaf_vector":"1"}},{"base_weights":[3.3923305E-5,-1.6690469E-3,2.4722818E-2,1.2363518E-2,-5.92787E-3,1.2675241E-2,1.5385149E-3,9.20134E-3,1.4721513E-3,-4.973911E-3,-1.8373257E-2,1.6544022E-3,-0E0,1.6625951E-3,6.2507857E-3,-6.117964E-3,3.49324E-3,-1.539956E-3,-5.2794735E-3,2.2967104E-4,-2.4948127E-4,8.036002E-4,-1.3877549E-4,-2.6286725E-4,-1.0542276E-3,6.8239524E-4,-1.7605012E-4,-5.6006707E-4,-0E0],"categories":[],"categories_nodes":[],"categories_segments":[],"categories_sizes":[],"default_left":[0,0,0,0,0,0,0,0,0,0,0,0,0,0,0,0,0,0,0,0,0,0,0,0,0,0,0,0,0],"id":3,"left_children":[1,3,5,7,9,11,-1,13,-1,15,17,-1,19,-1,21,23,25,-1,27,-1,-1,-1,-1,-1,-1,-1,-1,-1,-1],"loss_changes":[7.9330035E-2,1.016231E-1,4.1540265E-3,1.708996E-2,1.32217E-2,1.1994971E-2,0E0,1.9827208E-2,0E0,1.2227751E-2,1.02218725E-2,0E0,7.2834035E-4,0E0,2.8500915E-2,1.1384901E-2,1.0818882E-2,0E0,1.5757872E-3,0E0,0E0,0E0,0E0,0E0,0E0,0E0,0E0,0E0,0E0],"parents":[2147483647,0,0,1,1,2,2,3,3,4,4,5,5,7,7,9,9,10,10,12,12,14,14,15,15,16,16,18,18],"right_children":[2,4,6,8,10,12,-1,14,-1,16,18,-1,20,-1,22,24,26,-1,28,-1,-1,-1,-1,-1,-1,-1,-1,-1,-1],"split_conditions":[-5.093671E0,-7.948138E0,5.48569E0,8.562513E1,2.66905E3,5.54872E0,1.5385149E-3,-9.832176E0,1.4721513E-3,2.5149126E3,-7.102818E0,1.6544022E-3,2.3077593E3,1.6625951E-3,6.00566E0,2.4793264E3,1.82688E0,-1.539956E-3,8.52392E1,2.2967104E-4,-2.4948127E-4,8.036002E-4,-1.3877549E-4,-2.6286725E-4,-1.0542276E-3,6.8239524E-4,-1.7605012E-4,-5.6006707E-4,-0E0],"split_indices":[7,7,5,0,1,4,0,7,0,1,7,0,1,0,5,1,6,0,0,0,0,0,0,0,0,0,0,0,0],"split_type":[0,0,0,0,0,0,0,0,0,0,0,0,0,0,0,0,0,0,0,0,0,0,0,0,0,0,0,0,0],"sum_hessian":[1.83E3,1.709E3,1.21E2,3.92E2,1.317E3,4.7E1,7.4E1,3.37E2,5.5E1,1.232E3,8.5E1,1.7E1,3E1,3.2E1,3.05E2,1.096E3,1.36E2,3.9E1,4.6E1,1.7E1,1.3E1,1.51E2,1.54E2,1.044E3,5.2E1,6.1E1,7.5E1,2.2E1,2.4E1],"tree_param":{"num_deleted":"0","num_feature":"8","num_nodes":"29","size_leaf_vector":"1"}},{"base_weights":[1.4295205E-4,-1.7810117E-3,6.6967173E-3,1.5366554E-3,-2.231117E-3,-2.43574E-2,8.793223E-3,-1.2049282E-3,-1.1932623E-2,-0E0,-1.9477856E-3,1.1769209E-2,-1.1192535E-2,4.8669544E-3,-2.9554956E-3,4.3972066E-4,-1.5182794E-2,2.0890664E-3,9.733389E-3,-1.1909482E-3,-1.412709E-3,-1.7846705E-4,6.1498815E-4,-3.9311484E-4,1.0685791E-6,-8.618478E-4,-0E0,7.285774E-5,8.1896986E-4,-5.745733E-4,3.321253E-4],"categories":[],"categories_nodes":[],"categories_segments":[],"categories_sizes":[],"default_left":[0,0,0,0,0,0,0,0,0,0,0,0,0,0,0,0,0,0,0,0,0,0,0,0,0,0,0,0,0,0,0],"id":4,"left_children":[1,3,5,-1,7,9,11,13,15,-1,-1,17,19,21,23,-1,25,-1,27,29,-1,-1,-1,-1,-1,-1,-1,-1,-1,-1,-1],"loss_changes":[2.333877E-2,1.754608E-2,2.6197232E-2,0E0,1.2350831E-2,7.0068715E-3,2.398033E-2,1.3141677E-2,8.9910645E-3,0E0,0E0,1.6009893E-2,5.2127265E-3,1.7721983E-2,1.5186663E-2,0E0,3.7601423E-3,0E0,1.6618792E-2,3.3853299E-3,0E0,0E0,0E0,0E0,0E0,0E0,0E0,0E0,0E0,0E0,0E0],"parents":[2147483647,0,0,1,1,2,2,4,4,5,5,6,6,7,7,8,8,11,11,12,12,13,13,14,14,16,16,18,18,19,19],"right_children":[2,4,6,-1,8,10,12,14,16,-1,-1,18,20,22,24,-1,26,-1,28,30,-1,-1,-1,-1,-1,-1,-1,-1,-1,-1,-1],"split_conditions":[2.19138E0,-3.10309E0,-2.82969E0,1.5366554E-3,1.180646E1,4.51268E0,2.2975E0,2.1739421E3,-1.50103E0,-0E0,-1.9477856E-3,2.40851E0,8.21272E0,8.208118E1,2.354082E3,4.3972066E-4,8.828525E1,2.0890664E-3,8.2495E-1,8.47912E1,-1.412709E-3,-1.7846705E-4,6.1498815E-4,-3.9311484E-4,1.0685791E-6,-8.618478E-4,-0E0,7.285774E-5,8.1896986E-4,-5.745733E-4,3.321253E-4],"split_indices":[3,6,6,0,2,2,6,1,6,0,0,3,2,0,1,0,0,0,6,0,0,0,0,0,0,0,0,0,0,0,0],"split_type":[0,0,0,0,0,0,0,0,0,0,0,0,0,0,0,0,0,0,0,0,0,0,0,0,0,0,0,0,0,0,0],"sum_hessian":[1.81E3,1.388E3,4.22E2,1.5E1,1.373E3,2.3E1,3.99E2,1.252E3,1.21E2,1E1,1.3E1,3.52E2,4.7E1,2.67E2,9.85E2,1.2E1,1.09E2,1.8E1,3.34E2,3.4E1,1.3E1,1.19E2,1.48E2,3.84E2,6.01E2,9.7E1,1.2E1,1.56E2,1.78E2,2E1,1.4E1],"tree_param":{"num_deleted":"0","num_feature":"8","num_nodes":"31","size_leaf_vector":"1"}},{"base_weights":[-0E0,1.7938048E-2,-3.2326605E-3,-7.872646E-3,2.141125E-2,-5.2731503E-3,2.2119993E-2,6.548742E-5,-1.7069487E-2,2.3730315E-2,-0E0,-3.4236375E-3,-9.587553E-3,-0E0,2.435116E-2,-1.4189946E-3,-0E0,1.419055E-3,1.6221736E-2,5.8446964E-4,-3.986578E-4,-5.9905266E-3,1.7208774E-3,3.269751E-3,-1.1672697E-2,2.6134178E-2,-0E0,2.2826844E-4,1.2543708E-3,-3.57327E-4,2.907528E-4,8.2506426E-4,-2.5337062E-5,-2.1453842E-4,1.0945083E-3,-6.405665E-4,1.7761768E-4,1.6435424E-3,6.872504E-4],"categories":[],"categories_nodes":[],"categories_segments":[],"categories_sizes":[],"default_left":[0,0,0,0,0,0,0,0,0,0,0,0,0,0,0,0,0,0,0,0,0,0,0,0,0,0,0,0,0,0,0,0,0,0,0,0,0,0,0],"id":5,"left_children":[1,3,5,7,9,11,13,-1,15,17,19,21,23,-1,25,-1,-1,-1,27,-1,-1,29,31,33,35,37,-1,-1,-1,-1,-1,-1,-1,-1,-1,-1,-1,-1,-1],"loss_changes":[1.0758133E-1,2.6981816E-2,7.861629E-2,4.216251E-3,1.0822728E-2,1.0148618E-2,5.089935E-3,0E0,2.7408851E-3,2.9714257E-3,3.0762674E-3,1.397281E-2,1.20043345E-2,0E0,2.2616945E-3,0E0,0E0,0E0,6.944323E-3,0E0,0E0,9.686947E-3,1.2440178E-2,9.174426E-3,7.2816163E-3,2.4816208E-3,0E0,0E0,0E0,0E0,0E0,0E0,0E0,0E0,0E0,0E0,0E0,0E0,0E0],"parents":[2147483647,0,0,1,1,2,2,3,3,4,4,5,5,6,6,8,8,9,9,10,10,11,11,12,12,14,14,18,18,21,21,22,22,23,23,24,24,25,25],"right_children":[2,4,6,8,10,12,14,-1,16,18,20,22,24,-1,26,-1,-1,-1,28,-1,-1,30,32,34,36,38,-1,-1,-1,-1,-1,-1,-1,-1,-1,-1,-1,-1,-1],"split_conditions":[-8.217459E0,-3.61536E0,-5.093671E0,-9.243338E0,2.3809E0,2.04403E0,-1.92464E0,6.548742E-5,8.9233E-1,-8.741558E0,-2.73323E0,8.546931E1,-6.16154E0,-0E0,2.45423E0,-1.4189946E-3,-0E0,1.419055E-3,4.80398E0,5.8446964E-4,-3.986578E-4,-5.684803E0,-7.551237E0,-6.443497E0,6.75069E0,8.611616E1,-0E0,2.2826844E-4,1.2543708E-3,-3.57327E-4,2.907528E-4,8.2506426E-4,-2.5337062E-5,-2.1453842E-4,1.0945083E-3,-6.405665E-4,1.7761768E-4,1.6435424E-3,6.872504E-4],"split_indices":[7,2,7,7,6,6,6,0,6,7,3,0,3,0,6,0,0,0,2,0,0,7,7,7,5,0,0,0,0,0,0,0,0,0,0,0,0,0,0],"split_type":[0,0,0,0,0,0,0,0,0,0,0,0,0,0,0,0,0,0,0,0,0,0,0,0,0,0,0,0,0,0,0,0,0,0,0,0,0,0,0],"sum_hessian":[1.832E3,2.83E2,1.549E3,3E1,2.53E2,1.438E3,1.11E2,1E1,2E1,2.25E2,2.8E1,1.024E3,4.14E2,1.1E1,1E2,1E1,1E1,1.29E2,9.6E1,1.5E1,1.3E1,6.96E2,3.28E2,5.1E1,3.63E2,9E1,1E1,4.7E1,4.9E1,6.42E2,5.4E1,4.8E1,2.8E2,3.3E1,1.8E1,3.44E2,1.9E1,5.2E1,3.8E1],"tree_param":{"num_deleted":"0","num_feature":"8","num_nodes":"39","size_leaf_vector":"1"}},{"base_weights":[1.3200507E-4,1.1688489E-2,-2.9073926E-3,1.9129617E-2,4.783636E-3,-4.828023E-3,1.8446099E-2,-4.366565E-5,2.1183282E-2,-4.798012E-3,1.4100914E-2,-5.886648E-3,2.3485043E-3,4.616033E-3,2.6919238E-2,1.2379926E-2,2.7885413E-2,7.363425E-4,-1.0946103E-2,2.347336E-2,-0E0,-4.8303963E-3,-1.8342173E-2,-7.4879276E-3,1.76885E-2,1.1472288E-3,-5.367257E-3,1.6718302E-3,6.5993336E-3,1.2810042E-3,4.6803467E-5,2.3560377E-3,1.1423074E-3,-8.2072086E-4,4.23605E-4,-0E0,1.4003486E-3,-1.0510187E-3,5.374828E-4,-2.8641004E-4,3.3820336E-4,-1.3750772E-3,-2.9248037E-4,5.191635E-6,-8.524015E-4,1.3021097E-3,-0E0,-0E0,-9.0140844E-4,5.0263124E-4,-0E0],"categories":[],"categories_nodes":[],"categories_segments":[],"categories_sizes":[],"default_left":[0,0,0,0,0,0,0,0,0,0,0,0,0,0,0,0,0,0,0,0,0,0,0,0,0,0,0,0,0,0,0,0,0,0,0,0,0,0,0,0,0,0,0,0,0,0,0,0,0,0,0],"id":6,"left_children":[1,3,5,7,9,11,13,-1,15,17,19,21,23,25,27,29,31,-1,33,35,37,39,41,43,45,-1,47,-1,49,-1,-1,-1,-1,-1,-1,-1,-1,-1,-1,-1,-1,-1,-1,-1,-1,-1,-1,-1,-1,-1,-1],"loss_changes":[6.4663514E-2,1.7298426E-2,5.7415657E-2,9.361617E-3,1.956712E-2,1.0380816E-2,1.0081198E-2,0E0,5.4224506E-3,1.154711E-2,1.3744138E-2,1.2868445E-2,2.4993258E-2,1.0846859E-2,4.5162737E-3,9.44188E-3,3.5986304E-4,0E0,9.321899E-3,4.973389E-3,1.0441159E-2,1.116707E-2,6.00121E-3,8.445945E-3,7.155748E-3,0E0,3.7147924E-3,0E0,1.9703252E-4,0E0,0E0,0E0,0E0,0E0,0E0,0E0,0E0,0E0,0E0,0E0,0E0,0E0,0E0,0E0,0E0,0E0,0E0,0E0,0E0,0E0,0E0],"parents":[2147483647,0,0,1,1,2,2,3,3,4,4,5,5,6,6,8,8,9,9,10,10,11,11,12,12,13,13,14,14,15,15,16,16,18,18,19,19,20,20,21,21,22,22,23,23,24,24,26,26,28,28],"right_children":[2,4,6,8,10,12,14,-1,16,18,20,22,24,26,28,30,32,-1,34,36,38,40,42,44,46,-1,48,-1,50,-1,-1,-1,-1,-1,-1,-1,-1,-1,-1,-1,-1,-1,-1,-1,-1,-1,-1,-1,-1,-1,-1],"split_conditions":[-8.01827E0,5.9902E0,-5.093671E0,-3.61536E0,8.234476E1,-5.668842E0,5.48569E0,-4.366565E-5,2.304366E3,-9.706545E0,-8.608499E0,2.66905E3,5.63253E0,9.6856E0,8.670623E1,-8.622716E0,8.190986E1,7.363425E-4,6.40607E0,6.06844E0,5.49907E0,2.5679622E3,2.762888E3,9.30319E0,8.723531E1,1.1472288E-3,2.2972766E3,1.6718302E-3,1.096394E1,1.2810042E-3,4.6803467E-5,2.3560377E-3,1.1423074E-3,-8.2072086E-4,4.23605E-4,-0E0,1.4003486E-3,-1.0510187E-3,5.374828E-4,-2.8641004E-4,3.3820336E-4,-1.3750772E-3,-2.9248037E-4,5.191635E-6,-8.524015E-4,1.3021097E-3,-0E0,-0E0,-9.0140844E-4,5.0263124E-4,-0E0],"split_indices":[7,5,7,2,0,7,5,0,1,7,7,1,5,2,0,7,0,0,2,5,4,1,1,2,0,0,1,0,2,0,0,0,0,0,0,0,0,0,0,0,0,0,0,0,0,0,0,0,0,0,0],"split_type":[0,0,0,0,0,0,0,0,0,0,0,0,0,0,0,0,0,0,0,0,0,0,0,0,0,0,0,0,0,0,0,0,0,0,0,0,0,0,0,0,0,0,0,0,0,0,0,0,0,0,0],"sum_hessian":[1.814E3,3.84E2,1.43E3,1.77E2,2.07E2,1.317E3,1.13E2,1.2E1,1.65E2,9.7E1,1.1E2,1.16E3,1.57E2,4.8E1,6.5E1,7.9E1,8.6E1,1.9E1,7.8E1,6.4E1,4.6E1,1.078E3,8.2E1,9.2E1,6.5E1,2E1,2.8E1,4.5E1,2E1,3.2E1,4.7E1,1.2E1,7.4E1,6.5E1,1.3E1,1.3E1,5.1E1,1.4E1,3.2E1,1.009E3,6.9E1,4.2E1,4E1,4.6E1,4.6E1,4E1,2.5E1,1.5E1,1.3E1,1E1,1E1],"tree_param":{"num_deleted":"0","num_feature":"8","num_nodes":"51","size_leaf_vector":"1"}},{"base_weights":[-1.21597644E-4,1.1154371E-2,-3.0536407E-3,8.005357E-3,1.3115866E-3,-5.226621E-3,2.0582277E-2,1.5235829E-2,8.2144374E-4,-7.668009E-3,1.9583136E-3,6.593321E-3,1.2797225E-3,1.6088855E-3,8.245116E-3,8.312217E-3,-8.271693E-3,-1.0141762E-2,-1.9642317E-3,-2.3310788E-2,4.1636094E-3,1.1820972E-3,-0E0,1.4025271E-4,1.4587839E-3,8.1220875E-4,7.0777483E-6,-7.085047E-4,4.3849437E-4,-5.589829E-4,-0E0,6.861306E-4,-3.2131543E-4,-1.9579914E-3,-0E0,1.4368922E-3,8.643569E-5,3.630554E-5,-2.0245717E-4],"categories":[],"categories_nodes":[],"categories_segments":[],"categories_sizes":[],"default_left":[0,0,0,0,0,0,0,0,0,0,0,0,0,0,0,0,0,0,0,0,0,0,0,0,0,0,0,0,0,0,0,0,0,0,0,0,0,0,0],"id":7,"left_children":[1,3,5,7,-1,9,11,13,15,17,19,21,-1,-1,23,25,27,29,31,33,35,-1,37,-1,-1,-1,-1,-1,-1,-1,-1,-1,-1,-1,-1,-1,-1,-1,-1],"loss_changes":[5.9594512E-2,1.3933465E-2,7.340409E-2,1.4639944E-2,0E0,2.4073672E-2,4.956167E-3,1.3339348E-2,1.1311722E-2,1.3020311E-2,1.6571866E-2,5.6143086E-3,0E0,0E0,9.358941E-3,4.6456335E-3,7.6000374E-3,8.064441E-3,2.1687245E-2,5.903867E-3,1.5333056E-2,0E0,2.681286E-4,0E0,0E0,0E0,0E0,0E0,0E0,0E0,0E0,0E0,0E0,0E0,0E0,0E0,0E0,0E0,0E0],"parents":[2147483647,0,0,1,1,2,2,3,3,5,5,6,6,7,7,8,8,9,9,10,10,11,11,14,14,15,15,16,16,17,17,18,18,19,19,20,20,22,22],"right_children":[2,4,6,8,-1,10,12,14,16,18,20,22,-1,-1,24,26,28,30,32,34,36,-1,38,-1,-1,-1,-1,-1,-1,-1,-1,-1,-1,-1,-1,-1,-1,-1,-1],"split_conditions":[-8.01827E0,8.551906E1,-5.093671E0,-8.741558E0,1.3115866E-3,2.14087E0,5.40798E0,5.3308E-1,6.04764E0,8.57543E1,-2.9663E0,8.397337E1,1.2797225E-3,1.6088855E-3,-8.82986E0,-1.39366E0,6.57684E0,6.19858E0,1.08251E0,2.3754707E3,2.40851E0,1.1820972E-3,2.2907683E3,1.4025271E-4,1.4587839E-3,8.1220875E-4,7.0777483E-6,-7.085047E-4,4.3849437E-4,-5.589829E-4,-0E0,6.861306E-4,-3.2131543E-4,-1.9579914E-3,-0E0,1.4368922E-3,8.643569E-5,3.630554E-5,-2.0245717E-4],"split_indices":[7,0,7,7,0,3,5,6,5,0,6,0,0,0,7,3,5,5,6,1,3,0,1,0,0,0,0,0,0,0,0,0,0,0,0,0,0,0,0],"split_type":[0,0,0,0,0,0,0,0,0,0,0,0,0,0,0,0,0,0,0,0,0,0,0,0,0,0,0,0,0,0,0,0,0,0,0,0,0,0,0],"sum_hessian":[1.825E3,3.69E2,1.456E3,3.12E2,5.7E1,1.338E3,1.18E2,1.48E2,1.64E2,1.009E3,3.29E2,3.7E1,8.1E1,3.8E1,1.1E2,9.6E1,6.8E1,6.91E2,3.18E2,2.2E1,3.07E2,1.2E1,2.5E1,9.2E1,1.8E1,4.2E1,5.4E1,5.5E1,1.3E1,6.33E2,5.8E1,6.5E1,2.53E2,1.1E1,1.1E1,2.3E1,2.84E2,1E1,1.5E1],"tree_param":{"num_deleted":"0","num_feature":"8","num_nodes":"39","size_leaf_vector":"1"}},{"base_weights":[3.6655727E-4,1.2959338E-2,-2.66548E-3,3.0561779E-3,1.57583E-2,-5.2640648E-3,1.2360848E-2,1.660223E-3,-3.8324491E-4,1.895513E-2,4.675476E-3,-7.694685E-3,1.3399222E-3,1.7657325E-2,1.6273983E-4,-1.0610262E-3,2.618398E-3,-0E0,2.0029506E-2,-5.919983E-4,1.050656E-2,1.3628565E-3,-8.256406E-3,-1.6208686E-3,4.227968E-3,2.8788889E-2,6.877097E-3,-9.749077E-3,6.322448E-3,5.0703774E-4,-3.442048E-4,1.1827765E-3,5.632779E-4,-0E0,7.509542E-4,-0E0,-4.570827E-4,9.78462E-4,-1.4575987E-5,5.7141285E-4,1.6821375E-3,9.570533E-4,-2.3541024E-6,-9.184734E-4,-0E0,-3.496712E-4,6.163126E-4],"categories":[],"categories_nodes":[],"categories_segments":[],"categories_sizes":[],"default_left":[0,0,0,0,0,0,0,0,0,0,0,0,0,0,0,0,0,0,0,0,0,0,0,0,0,0,0,0,0,0,0,0,0,0,0,0,0,0,0,0,0,0,0,0,0,0,0],"id":8,"left_children":[1,3,5,7,9,11,13,-1,15,17,19,21,23,25,27,-1,29,-1,31,-1,33,-1,35,-1,37,39,41,43,45,-1,-1,-1,-1,-1,-1,-1,-1,-1,-1,-1,-1,-1,-1,-1,-1,-1,-1],"loss_changes":[7.021112E-2,7.993642E-3,5.6130003E-2,1.2419804E-2,7.149823E-3,2.0646311E-2,1.1717983E-2,0E0,6.731824E-3,2.4847612E-3,6.635959E-3,1.642673E-2,2.9003214E-2,1.3035528E-2,3.992748E-3,0E0,4.970269E-3,0E0,2.2157207E-3,0E0,3.5179174E-3,0E0,7.0109963E-3,0E0,2.294189E-2,5.014539E-4,8.448978E-3,1.7158762E-3,4.6167793E-3,0E0,0E0,0E0,0E0,0E0,0E0,0E0,0E0,0E0,0E0,0E0,0E0,0E0,0E0,0E0,0E0,0E0,0E0],"parents":[2147483647,0,0,1,1,2,2,3,3,4,4,5,5,6,6,8,8,9,9,10,10,11,11,12,12,13,13,14,14,16,16,18,18,20,20,22,22,24,24,25,25,26,26,27,27,28,28],"right_children":[2,4,6,8,10,12,14,-1,16,18,20,22,24,26,28,-1,30,-1,32,-1,34,-1,36,-1,38,40,42,44,46,-1,-1,-1,-1,-1,-1,-1,-1,-1,-1,-1,-1,-1,-1,-1,-1,-1,-1],"split_conditions":[-8.01827E0,5.28122E0,-5.468697E0,2.0874358E3,2.13275E0,1.88961E0,6.02308E0,1.660223E-3,2.2654922E3,1.864313E3,2.1216265E3,-3.1938E0,-2.9663E0,2.2991912E3,6.20361E0,-1.0610262E-3,-8.608499E0,-0E0,5.98613E0,-5.919983E-4,5.74242E0,1.3628565E-3,5.15147E0,-1.6208686E-3,5.53914E0,5.5783E-1,8.456031E1,-5.093671E0,8.362265E1,5.0703774E-4,-3.442048E-4,1.1827765E-3,5.632779E-4,-0E0,7.509542E-4,-0E0,-4.570827E-4,9.78462E-4,-1.4575987E-5,5.7141285E-4,1.6821375E-3,9.570533E-4,-2.3541024E-6,-9.184734E-4,-0E0,-3.496712E-4,6.163126E-4],"split_indices":[7,4,7,1,6,3,4,0,1,1,1,6,6,1,4,0,7,0,4,0,4,0,4,0,4,6,0,7,0,0,0,0,0,0,0,0,0,0,0,0,0,0,0,0,0,0,0],"split_type":[0,0,0,0,0,0,0,0,0,0,0,0,0,0,0,0,0,0,0,0,0,0,0,0,0,0,0,0,0,0,0,0,0,0,0,0,0,0,0,0,0,0,0,0,0,0,0],"sum_hessian":[1.81E3,3.57E2,1.453E3,8.7E1,2.7E2,1.245E3,2.08E2,1.1E1,7.6E1,2.02E2,6.8E1,9.21E2,3.24E2,1.39E2,6.9E1,1.3E1,6.3E1,1.5E1,1.87E2,1.3E1,5.5E1,1.1E1,9.1E2,2.2E1,3.02E2,6.3E1,7.6E1,2E1,4.9E1,4.1E1,2.2E1,1.23E2,6.4E1,1.3E1,4.2E1,8.4E1,8.26E2,7.3E1,2.29E2,1.9E1,4.4E1,3.2E1,4.4E1,1E1,1E1,1E1,3.9E1],"tree_param":{"num_deleted":"0","num_feature":"8","num_nodes":"47","size_leaf_vector":"1"}},{"base_weights":[-5.5632583E-4,1.4796962E-3,-6.5207537E-3,2.2885436E-3,-7.8826845E-3,8.634584E-3,-9.581142E-3,-1.9201424E-4,7.4010626E-3,6.784468E-4,-1.3936438E-2,-4.487439E-4,1.4958598E-2,-5.1078177E-3,-1.7042117E-2,1.501968E-2,-1.4608785E-3,-1.5213138E-4,1.0306839E-2,-2.2554833E-2,-1.9546247E-3,1.8373748E-2,-0E0,-1.3089832E-2,-2.7868452E-6,-2.0527594E-2,-0E0,1.4955479E-4,1.1206184E-3,1.06827545E-4,-2.2456846E-4,3.3729707E-4,-4.750488E-4,-3.586985E-4,6.211286E-4,-0E0,-1.3776014E-3,5.44559E-4,-7.8560965E-4,1.3155093E-3,4.736147E-5,-9.3771156E-4,2.9990874E-4,3.555585E-4,-5.644615E-4,-3.381154E-4,-1.3324704E-3],"categories":[],"categories_nodes":[],"categories_segments":[],"categories_sizes":[],"default_left":[0,0,0,0,0,0,0,0,0,0,0,0,0,0,0,0,0,0,0,0,0,0,0,0,0,0,0,0,0,0,0,0,0,0,0,0,0,0,0,0,0,0,0,0,0,0,0],"id":9,"left_children":[1,3,5,7,9,11,13,15,17,-1,19,-1,21,23,25,27,29,31,33,35,37,39,-1,41,43,45,-1,-1,-1,-1,-1,-1,-1,-1,-1,-1,-1,-1,-1,-1,-1,-1,-1,-1,-1,-1,-1],"loss_changes":[2.2335997E-2,9.515221E-3,2.1976555E-2,1.635911E-2,1.2692682E-2,8.973446E-3,1.094798E-2,1.445475E-2,1.0147359E-2,0E0,5.662826E-3,0E0,3.0027227E-3,9.203795E-3,9.48374E-3,2.4612602E-3,8.552384E-3,7.23992E-3,1.2079243E-2,1.9158833E-3,7.545579E-3,3.8879514E-3,0E0,1.1443451E-2,1.3826436E-2,6.5065734E-3,0E0,0E0,0E0,0E0,0E0,0E0,0E0,0E0,0E0,0E0,0E0,0E0,0E0,0E0,0E0,0E0,0E0,0E0,0E0,0E0,0E0],"parents":[2147483647,0,0,1,1,2,2,3,3,4,4,5,5,6,6,7,7,8,8,10,10,12,12,13,13,14,14,15,15,16,16,17,17,18,18,19,19,20,20,21,21,23,23,24,24,25,25],"right_children":[2,4,6,8,10,12,14,16,18,-1,20,-1,22,24,26,28,30,32,34,36,38,40,-1,42,44,46,-1,-1,-1,-1,-1,-1,-1,-1,-1,-1,-1,-1,-1,-1,-1,-1,-1,-1,-1,-1,-1],"split_conditions":[2.07003E0,6.33806E0,1.52295E0,5.90372E0,2.0014075E3,5.20958E0,5.84385E0,5.11479E0,5.26643E0,6.784468E-4,5.84344E0,-4.487439E-4,2.7429973E3,5.70179E0,6.75069E0,4.96791E0,6.33048E0,-1.09839E0,-2.26393E0,4.94437E0,6.05413E0,5.6055E-1,-0E0,1.72343E0,2.52567E0,5.20122E0,-0E0,1.4955479E-4,1.1206184E-3,1.06827545E-4,-2.2456846E-4,3.3729707E-4,-4.750488E-4,-3.586985E-4,6.211286E-4,-0E0,-1.3776014E-3,5.44559E-4,-7.8560965E-4,1.3155093E-3,4.736147E-5,-9.3771156E-4,2.9990874E-4,3.555585E-4,-5.644615E-4,-3.381154E-4,-1.3324704E-3],"split_indices":[6,5,2,5,1,5,5,4,4,0,4,0,1,4,5,4,2,3,6,4,4,2,0,3,6,2,0,0,0,0,0,0,0,0,0,0,0,0,0,0,0,0,0,0,0,0,0],"split_type":[0,0,0,0,0,0,0,0,0,0,0,0,0,0,0,0,0,0,0,0,0,0,0,0,0,0,0,0,0,0,0,0,0,0,0,0,0,0,0,0,0,0,0,0,0,0,0],"sum_hessian":[1.796E3,1.327E3,4.69E2,1.232E3,9.5E1,7.3E1,3.96E2,8.17E2,4.15E2,1.7E1,7.8E1,1.5E1,5.8E1,2.57E2,1.39E2,5.6E1,7.61E2,1.06E2,3.09E2,4E1,3.8E1,4.7E1,1.1E1,9.2E1,1.65E2,1.18E2,2.1E1,2.7E1,2.9E1,3.33E2,4.28E2,5.5E1,5.1E1,2.8E1,2.81E2,1.1E1,2.9E1,1.6E1,2.2E1,2.8E1,1.9E1,7.5E1,1.7E1,9.6E1,6.9E1,4.2E1,7.6E1],"tree_param":{"num_deleted":"0","num_feature":"8","num_nodes":"47","size_leaf_vector":"1"}},{"base_weights":[1.1045901E-4,1.0982998E-2,-2.5911606E-3,-6.5409113E-3,1.3391453E-2,-5.143619E-3,1.2238342E-2,-0E0,-1.1342341E-3,2.361857E-3,1.1752526E-2,-1.2064049E-3,-4.3712165E-3,-0E0,2.0203762E-2,5.270354E-4,-4.091706E-4,-6.0290727E-4,1.3306229E-2,-3.0339595E-3,-1.2189259E-2,1.1066349E-3,-4.4701817E-3,1.202206E-3,2.0580487E-3,5.0983106E-4,1.3387358E-3,-2.5223117E-4,1.5815033E-4,-0E0,-9.835981E-4,4.3140433E-5,-8.9453784E-4,-5.8598345E-4,8.772394E-4],"categories":[],"categories_nodes":[],"categories_segments":[],"categories_sizes":[],"default_left":[0,0,0,0,0,0,0,0,0,0,0,0,0,0,0,0,0,0,0,0,0,0,0,0,0,0,0,0,0,0,0,0,0,0,0],"id":10,"left_children":[1,3,5,7,9,11,13,15,-1,-1,17,-1,19,21,23,-1,-1,-1,25,27,29,-1,31,-1,33,-1,-1,-1,-1,-1,-1,-1,-1,-1,-1],"loss_changes":[5.3916115E-2,1.6262088E-2,5.385992E-2,6.007582E-3,1.1740226E-2,1.5154216E-2,2.1394508E-2,2.514355E-3,0E0,0E0,1.2012579E-2,0E0,1.0913193E-2,6.7672124E-3,6.260108E-3,0E0,0E0,0E0,8.678127E-3,1.3050392E-2,1.602833E-2,0E0,6.656686E-3,0E0,6.7625437E-3,0E0,0E0,0E0,0E0,0E0,0E0,0E0,0E0,0E0,0E0],"parents":[2147483647,0,0,1,1,2,2,3,3,4,4,5,5,6,6,7,7,10,10,12,12,13,13,14,14,18,18,19,19,20,20,22,22,24,24],"right_children":[2,4,6,8,10,12,14,16,-1,-1,18,-1,20,22,24,-1,-1,-1,26,28,30,-1,32,-1,34,-1,-1,-1,-1,-1,-1,-1,-1,-1,-1],"split_conditions":[-8.000742E0,4.93637E0,-5.468697E0,-7.1972E-1,5.02202E0,-8.0628E0,5.46985E0,8.130148E1,-1.1342341E-3,2.361857E-3,5.11479E0,-1.2064049E-3,6.34725E0,5.29362E0,1.304942E1,5.270354E-4,-4.091706E-4,-6.0290727E-4,8.551906E1,8.644263E1,-7.008978E0,1.1066349E-3,5.97728E0,1.202206E-3,-5.093671E0,5.0983106E-4,1.3387358E-3,-2.5223117E-4,1.5815033E-4,-0E0,-9.835981E-4,4.3140433E-5,-8.9453784E-4,-5.8598345E-4,8.772394E-4],"split_indices":[7,4,7,3,4,3,5,0,0,0,4,0,4,2,2,0,0,0,0,0,7,0,4,0,7,0,0,0,0,0,0,0,0,0,0],"split_type":[0,0,0,0,0,0,0,0,0,0,0,0,0,0,0,0,0,0,0,0,0,0,0,0,0,0,0,0,0,0,0,0,0,0,0],"sum_hessian":[1.805E3,3.66E2,1.439E3,3.9E1,3.27E2,1.234E3,2.05E2,2.5E1,1.4E1,1.1E1,3.16E2,4.2E1,1.192E3,7.8E1,1.27E2,1.5E1,1E1,1.5E1,3.01E2,1.03E3,1.62E2,1E1,6.8E1,1E2,2.7E1,2.52E2,4.9E1,7.9E2,2.4E2,5.9E1,1.03E2,4.4E1,2.4E1,1.1E1,1.6E1],"tree_param":{"num_deleted":"0","num_feature":"8","num_nodes":"35","size_leaf_vector":"1"}},{"base_weights":[2.329359E-4,1.0391289E-2,-2.2408054E-3,7.87442E-3,1.3218588E-3,-5.0184466E-3,9.531055E-3,1.9328179E-2,3.719783E-3,-6.4156987E-3,1.4147486E-3,1.9098299E-2,1.6754429E-3,-0E0,1.3819729E-3,1.1567146E-2,-3.5822797E-3,-8.211657E-3,-1.0051795E-3,-0E0,1.2770224E-3,2.8684705E-2,9.143094E-3,5.9767077E-3,-1.124667E-2,5.985486E-4,-7.0081203E-4,1.542513E-3,2.5247523E-4,-1.125938E-3,-0E0,5.062165E-4,-4.4884562E-4,5.9967017E-5,-1.279964E-3,6.685678E-4,-1.3920487E-4,2.3784417E-4,1.5906555E-3,-8.5126085E-5,7.8706973E-4,4.904543E-4,-1.3847782E-4,-1.0402257E-3,-0E0],"categories":[],"categories_nodes":[],"categories_segments":[],"categories_sizes":[],"default_left":[0,0,0,0,0,0,0,0,0,0,0,0,0,0,0,0,0,0,0,0,0,0,0,0,0,0,0,0,0,0,0,0,0,0,0,0,0,0,0,0,0,0,0,0,0],"id":11,"left_children":[1,3,5,7,-1,9,11,13,15,17,19,21,23,25,-1,27,29,31,33,35,-1,37,39,41,43,-1,-1,-1,-1,-1,-1,-1,-1,-1,-1,-1,-1,-1,-1,-1,-1,-1,-1,-1,-1],"loss_changes":[4.59954E-2,1.0899406E-2,4.6616293E-2,1.2755724E-2,0E0,1.1035053E-2,1.8032584E-2,1.2877559E-2,1.4649692E-2,8.544207E-3,8.738103E-3,6.9299378E-3,8.099762E-3,4.2204144E-3,0E0,1.1712937E-2,8.107701E-3,1.00509E-2,1.6458986E-2,6.0521043E-3,0E0,1.5902892E-4,5.939135E-3,4.820437E-3,2.3183264E-3,0E0,0E0,0E0,0E0,0E0,0E0,0E0,0E0,0E0,0E0,0E0,0E0,0E0,0E0,0E0,0E0,0E0,0E0,0E0,0E0],"parents":[2147483647,0,0,1,1,2,2,3,3,5,5,6,6,7,7,8,8,9,9,10,10,11,11,12,12,13,13,15,15,16,16,17,17,18,18,19,19,21,21,22,22,23,23,24,24],"right_children":[2,4,6,8,-1,10,12,14,16,18,20,22,24,26,-1,28,30,32,34,36,-1,38,40,42,44,-1,-1,-1,-1,-1,-1,-1,-1,-1,-1,-1,-1,-1,-1,-1,-1,-1,-1,-1,-1],"split_conditions":[-8.01827E0,8.338E0,-5.668842E0,-9.243338E0,1.3218588E-3,1.029445E1,8.87193E0,5.11479E0,-1.16772E0,8.581742E1,1.11239E1,8.48226E1,6.25634E0,4.79065E0,1.3819729E-3,5.17301E0,5.10595E0,-2.07213E0,9.35977E0,-7.315244E0,1.2770224E-3,8.088327E1,5.56646E0,2.07003E0,6.41686E0,5.985486E-4,-7.0081203E-4,1.542513E-3,2.5247523E-4,-1.125938E-3,-0E0,5.062165E-4,-4.4884562E-4,5.9967017E-5,-1.279964E-3,6.685678E-4,-1.3920487E-4,2.3784417E-4,1.5906555E-3,-8.5126085E-5,7.8706973E-4,4.904543E-4,-1.3847782E-4,-1.0402257E-3,-0E0],"split_indices":[7,2,7,7,0,2,2,4,3,0,3,0,4,4,0,4,4,2,2,7,0,0,4,6,4,0,0,0,0,0,0,0,0,0,0,0,0,0,0,0,0,0,0,0,0],"split_type":[0,0,0,0,0,0,0,0,0,0,0,0,0,0,0,0,0,0,0,0,0,0,0,0,0,0,0,0,0,0,0,0,0,0,0,0,0,0,0,0,0,0,0,0,0],"sum_hessian":[1.796E3,3.59E2,1.437E3,3.17E2,4.2E1,1.17E3,2.67E2,7.7E1,2.4E2,9.74E2,1.96E2,1.14E2,1.53E2,2.3E1,5.4E1,1.22E2,1.18E2,7.17E2,2.57E2,1.83E2,1.3E1,5.2E1,6.2E1,1.21E2,3.2E1,1.2E1,1.1E1,2.6E1,9.6E1,1.8E1,1E2,2.3E1,6.94E2,2.33E2,2.4E1,2.6E1,1.57E2,1E1,4.2E1,1.8E1,4.4E1,9.2E1,2.9E1,1.4E1,1.8E1],"tree_param":{"num_deleted":"0","num_feature":"8","num_nodes":"45","size_leaf_vector":"1"}},{"base_weights":[7.067378E-4,1.2268302E-2,-1.4560896E-3,6.2757093E-3,2.287734E-2,-4.857572E-3,3.7300393E-3,1.1257915E-3,-0E0,2.4664944E-2,-0E0,-8.024255E-3,1.4859119E-3,1.5322557E-2,-2.5091975E-4,1.1616076E-2,-1.5484765E-2,1.3125233E-3,9.724186E-5,2.7509287E-4,-9.725969E-3,1.1485965E-2,-3.0944464E-3,1.8593244E-2,-0E0,-9.090668E-3,6.1611747E-3,-6.476626E-4,8.8527886E-4,-3.0209499E-6,-1.3786881E-3,1.4019966E-3,-1.9378302E-4,-5.748201E-5,-6.069226E-4,9.930644E-4,-1.3306613E-4,-5.4413086E-4,3.5755345E-4,6.699595E-5,1.1860533E-3,-8.957685E-4,5.275871E-4,-6.221666E-4,-0E0,-0E0,7.5796695E-4],"categories":[],"categories_nodes":[],"categories_segments":[],"categories_sizes":[],"default_left":[0,0,0,0,0,0,0,0,0,0,0,0,0,0,0,0,0,0,0,0,0,0,0,0,0,0,0,0,0,0,0,0,0,0,0,0,0,0,0,0,0,0,0,0,0,0,0],"id":12,"left_children":[1,3,5,7,9,11,13,-1,15,17,-1,19,21,23,25,27,29,-1,-1,31,33,35,37,39,41,43,45,-1,-1,-1,-1,-1,-1,-1,-1,-1,-1,-1,-1,-1,-1,-1,-1,-1,-1,-1,-1],"loss_changes":[4.625932E-2,1.5505213E-2,2.6856266E-2,1.8721452E-2,2.3300983E-3,1.9287154E-2,2.8692968E-2,0E0,2.572107E-2,3.3548474E-4,0E0,9.831205E-3,1.4570038E-2,9.118684E-3,2.4891961E-2,1.3272231E-2,8.42281E-3,0E0,0E0,1.3819111E-2,9.664446E-3,1.374015E-2,1.632995E-2,9.228889E-3,5.410275E-3,6.5226164E-3,1.4599557E-2,0E0,0E0,0E0,0E0,0E0,0E0,0E0,0E0,0E0,0E0,0E0,0E0,0E0,0E0,0E0,0E0,0E0,0E0,0E0,0E0],"parents":[2147483647,0,0,1,1,2,2,3,3,4,4,5,5,6,6,8,8,9,9,11,11,12,12,13,13,14,14,15,15,16,16,19,19,20,20,21,21,22,22,23,23,24,24,25,25,26,26],"right_children":[2,4,6,8,10,12,14,-1,16,18,-1,20,22,24,26,28,30,-1,-1,32,34,36,38,40,42,44,46,-1,-1,-1,-1,-1,-1,-1,-1,-1,-1,-1,-1,-1,-1,-1,-1,-1,-1,-1,-1],"split_conditions":[-8.217459E0,4.43213E0,-6.385889E0,-9.405575E0,6.68289E0,7.66378E0,6.30292E0,1.1257915E-3,6.06035E0,2.09837E0,-0E0,5.28548E0,-7.328687E0,2.5948809E3,5.56857E0,-3.44043E0,1.19784E0,1.3125233E-3,9.724186E-5,2.221331E3,-7.807442E0,1.85414E0,2.354082E3,5.29823E0,5.51099E0,-5.093671E0,-5.668842E0,-6.476626E-4,8.8527886E-4,-3.0209499E-6,-1.3786881E-3,1.4019966E-3,-1.9378302E-4,-5.748201E-5,-6.069226E-4,9.930644E-4,-1.3306613E-4,-5.4413086E-4,3.5755345E-4,6.699595E-5,1.1860533E-3,-8.957685E-4,5.275871E-4,-6.221666E-4,-0E0,-0E0,7.5796695E-4],"split_indices":[7,2,7,7,5,2,2,0,5,6,0,5,7,1,5,2,2,0,0,1,7,6,1,5,4,7,7,0,0,0,0,0,0,0,0,0,0,0,0,0,0,0,0,0,0,0,0],"split_type":[0,0,0,0,0,0,0,0,0,0,0,0,0,0,0,0,0,0,0,0,0,0,0,0,0,0,0,0,0,0,0,0,0,0,0,0,0,0,0,0,0,0,0,0,0,0,0],"sum_hessian":[1.805E3,2.91E2,1.514E3,1.93E2,9.8E1,9.26E2,5.88E2,5.1E1,1.42E2,8.8E1,1E1,6.28E2,2.98E2,1.56E2,4.32E2,8.3E1,5.9E1,7.8E1,1E1,9.7E1,5.31E2,1E2,1.98E2,1.32E2,2.4E1,1.88E2,2.44E2,1.3E1,7E1,3E1,2.9E1,1.5E1,8.2E1,1.26E2,4.05E2,6.7E1,3.3E1,1.18E2,8E1,3.5E1,9.7E1,1.1E1,1.3E1,1.42E2,4.6E1,1.41E2,1.03E2],"tree_param":{"num_deleted":"0","num_feature":"8","num_nodes":"47","size_leaf_vector":"1"}},{"base_weights":[5.715616E-4,-1.0884746E-3,5.9272083E-3,-2.9491337E-3,1.6397102E-3,-1.1200652E-3,6.992516E-3,-8.619131E-3,-0E0,9.672277E-3,-1.5510472E-3,9.776383E-3,-8.709943E-4,5.866568E-4,-9.813465E-3,-5.6279763E-3,4.1853315E-3,1.2569225E-2,-1.5742885E-3,-6.9076554E-3,3.7351567E-3,3.6909077E-3,1.6646799E-2,1.2517457E-3,-6.5779225E-3,-0E0,-6.130423E-4,2.9424974E-4,-5.2731665E-4,2.7816978E-4,-1.165763E-3,6.874552E-5,8.9493854E-4,3.1058714E-4,-6.78271E-4,5.7269477E-5,-5.052623E-4,5.684816E-4,-1.4045293E-5,-2.2837054E-4,3.9151424E-4,1.7818933E-3,5.6217465E-4,-2.6997162E-5,-9.4966E-4],"categories":[],"categories_nodes":[],"categories_segments":[],"categories_sizes":[],"default_left":[0,0,0,0,0,0,0,0,0,0,0,0,0,0,0,0,0,0,0,0,0,0,0,0,0,0,0,0,0,0,0,0,0,0,0,0,0,0,0,0,0,0,0,0,0],"id":13,"left_children":[1,3,5,7,9,-1,11,13,15,17,19,21,23,-1,25,27,29,31,33,35,37,39,41,-1,43,-1,-1,-1,-1,-1,-1,-1,-1,-1,-1,-1,-1,-1,-1,-1,-1,-1,-1,-1,-1],"loss_changes":[1.6706722E-2,7.135889E-3,1.2075407E-2,1.4369306E-2,1.4616049E-2,0E0,1.0399735E-2,7.020941E-3,1.2953835E-2,6.397357E-3,1.101823E-2,1.1702001E-2,1.384251E-2,0E0,6.461771E-3,1.3665174E-2,1.048175E-2,6.161865E-3,3.340442E-3,5.980376E-3,6.6616233E-3,6.6519612E-3,9.995509E-3,0E0,4.7831177E-3,0E0,0E0,0E0,0E0,0E0,0E0,0E0,0E0,0E0,0E0,0E0,0E0,0E0,0E0,0E0,0E0,0E0,0E0,0E0,0E0],"parents":[2147483647,0,0,1,1,2,2,3,3,4,4,6,6,7,7,8,8,9,9,10,10,11,11,12,12,14,14,15,15,16,16,17,17,18,18,19,19,20,20,21,21,22,22,24,24],"right_children":[2,4,6,8,10,-1,12,14,16,18,20,22,24,-1,26,28,30,32,34,36,38,40,42,-1,44,-1,-1,-1,-1,-1,-1,-1,-1,-1,-1,-1,-1,-1,-1,-1,-1,-1,-1,-1,-1],"split_conditions":[1.92973E0,5.89454E0,-3.14694E0,2.2830417E3,2.1847717E3,-1.1200652E-3,1.92225E0,-2.9663E0,5.61735E0,2.14336E0,2.4100283E3,7.0951E-1,2.3076E0,5.866568E-4,5.47642E0,5.22184E0,2.89308E0,1.14496E0,2.1661E0,5.98805E0,1.612E0,2.2009294E3,5.37342E0,1.2517457E-3,8.673E0,-0E0,-6.130423E-4,2.9424974E-4,-5.2731665E-4,2.7816978E-4,-1.165763E-3,6.874552E-5,8.9493854E-4,3.1058714E-4,-6.78271E-4,5.7269477E-5,-5.052623E-4,5.684816E-4,-1.4045293E-5,-2.2837054E-4,3.9151424E-4,1.7818933E-3,5.6217465E-4,-2.6997162E-5,-9.4966E-4],"split_indices":[3,5,6,1,1,0,6,6,4,6,1,6,3,0,4,4,6,6,2,5,6,1,4,0,2,0,0,0,0,0,0,0,0,0,0,0,0,0,0,0,0,0,0,0,0],"split_type":[0,0,0,0,0,0,0,0,0,0,0,0,0,0,0,0,0,0,0,0,0,0,0,0,0,0,0,0,0,0,0,0,0,0,0,0,0,0,0,0,0,0,0,0,0],"sum_hessian":[1.823E3,1.378E3,4.45E2,8.41E2,5.37E2,1.2E1,4.33E2,2.91E2,5.5E2,1.61E2,3.76E2,3.29E2,1.04E2,1.1E1,2.8E2,2.31E2,3.19E2,1.35E2,2.6E1,1.96E2,1.8E2,1.83E2,1.46E2,1.5E1,8.9E1,5.8E1,2.22E2,6.3E1,1.68E2,3.08E2,1.1E1,5E1,8.5E1,1.1E1,1.5E1,4.7E1,1.49E2,7E1,1.1E2,5.3E1,1.3E2,2.7E1,1.19E2,6.6E1,2.3E1],"tree_param":{"num_deleted":"0","num_feature":"8","num_nodes":"45","size_leaf_vector":"1"}},{"base_weights":[1.3331222E-4,9.556602E-3,-2.9828367E-3,6.5038535E-3,1.1903661E-3,-4.6534254E-3,1.53005505E-2,8.864827E-3,-2.6872933E-3,-3.7606955E-5,-5.960729E-3,2.755873E-3,2.1353139E-2,1.9379051E-2,4.856377E-3,-1.0514806E-3,1.624726E-3,-6.799207E-3,4.683882E-3,-6.95993E-3,-0E0,8.482287E-4,-7.5025414E-4,1.1666053E-3,-0E0,1.6654175E-4,1.3016633E-3,6.052008E-4,-5.1974464E-5,-1.2484713E-3,5.254533E-4,-5.485736E-4,4.3700458E-4,-2.2493814E-4,6.8496924E-4,-5.1864603E-4,-1.9338242E-4,-2.4169171E-4,1.0103442E-3,4.6988775E-5,-3.4761816E-4],"categories":[],"categories_nodes":[],"categories_segments":[],"categories_sizes":[],"default_left":[0,0,0,0,0,0,0,0,0,0,0,0,0,0,0,0,0,0,0,0,0,0,0,0,0,0,0,0,0,0,0,0,0,0,0,0,0,0,0,0,0],"id":14,"left_children":[1,3,5,7,-1,9,11,13,15,17,19,21,23,25,27,-1,29,31,33,35,37,-1,39,-1,-1,-1,-1,-1,-1,-1,-1,-1,-1,-1,-1,-1,-1,-1,-1,-1,-1],"loss_changes":[5.4070313E-2,1.6825814E-2,4.051581E-2,9.017797E-3,0E0,6.948825E-3,5.806377E-3,1.0800401E-2,7.590219E-3,9.6292775E-3,6.313022E-3,3.7264954E-3,5.6940876E-4,5.5199414E-3,1.1246311E-2,0E0,1.1575029E-2,8.74746E-3,1.4641409E-2,7.3272437E-3,1.374614E-2,0E0,9.117631E-4,0E0,0E0,0E0,0E0,0E0,0E0,0E0,0E0,0E0,0E0,0E0,0E0,0E0,0E0,0E0,0E0,0E0,0E0],"parents":[2147483647,0,0,1,1,2,2,3,3,5,5,6,6,7,7,8,8,9,9,10,10,11,11,12,12,13,13,14,14,16,16,17,17,18,18,19,19,20,20,22,22],"right_children":[2,4,6,8,-1,10,12,14,16,18,20,22,24,26,28,-1,30,32,34,36,38,-1,40,-1,-1,-1,-1,-1,-1,-1,-1,-1,-1,-1,-1,-1,-1,-1,-1,-1,-1],"split_conditions":[-7.807442E0,8.534754E1,-5.093671E0,2.13275E0,1.1903661E-3,2.1707488E3,5.46385E0,2.1216265E3,2.1216265E3,2.0547239E3,-5.668842E0,5.48945E0,8.861567E1,1.9509215E3,5.9902E0,-1.0514806E-3,5.58465E0,-5.925745E0,5.80104E0,2.3578787E3,5.94312E0,8.482287E-4,5.07894E0,1.1666053E-3,-0E0,1.6654175E-4,1.3016633E-3,6.052008E-4,-5.1974464E-5,-1.2484713E-3,5.254533E-4,-5.485736E-4,4.3700458E-4,-2.2493814E-4,6.8496924E-4,-5.1864603E-4,-1.9338242E-4,-2.4169171E-4,1.0103442E-3,4.6988775E-5,-3.4761816E-4],"split_indices":[7,0,7,6,0,1,5,1,1,1,7,4,0,1,5,0,4,7,5,1,5,0,5,0,0,0,0,0,0,0,0,0,0,0,0,0,0,0,0,0,0],"split_type":[0,0,0,0,0,0,0,0,0,0,0,0,0,0,0,0,0,0,0,0,0,0,0,0,0,0,0,0,0,0,0,0,0,0,0,0,0,0,0,0,0],"sum_hessian":[1.817E3,4.59E2,1.358E3,3.85E2,7.4E1,1.25E3,1.08E2,3.15E2,7E1,2.93E2,9.57E2,4.1E1,6.7E1,7.9E1,2.36E2,1.7E1,5.3E1,1.29E2,1.64E2,8.32E2,1.25E2,1.3E1,2.8E1,5.7E1,1E1,2.8E1,5.1E1,1.13E2,1.23E2,1E1,4.3E1,1.07E2,2.2E1,7.6E1,8.8E1,3.79E2,4.53E2,9.8E1,2.7E1,1E1,1.8E1],"tree_param":{"num_deleted":"0","num_feature":"8","num_nodes":"41","size_leaf_vector":"1"}},{"base_weights":[1.8358204E-4,8.706315E-3,-2.5926235E-3,5.9667933E-3,1.0522837E-3,-4.235169E-3,1.4295821E-2,1.8523496E-2,2.8700442E-3,-3.3063383E-3,-1.7067242E-2,1.9996101E-2,4.052662E-3,4.599344E-3,2.2815665E-2,2.9039776E-2,3.582105E-4,-5.9321006E-3,5.621046E-4,-2.8934252E-2,-5.763274E-3,1.1240871E-3,-0E0,7.32964E-3,-0E0,6.063384E-4,-0E0,3.8984336E-4,1.4974112E-3,2.049164E-3,2.6738338E-4,-1.0018506E-4,8.6240034E-4,2.1367124E-4,-4.2856703E-4,4.4065388E-4,-1.3050175E-4,-4.039264E-4,-2.015483E-3,-5.949351E-4,1.8836888E-4,5.9641525E-4,-0E0],"categories":[],"categories_nodes":[],"categories_segments":[],"categories_sizes":[],"default_left":[0,0,0,0,0,0,0,0,0,0,0,0,0,0,0,0,0,0,0,0,0,0,0,0,0,0,0,0,0,0,0,0,0,0,0,0,0,0,0,0,0,0,0],"id":15,"left_children":[1,3,5,7,-1,9,11,13,15,17,19,21,23,25,27,29,31,33,35,37,39,-1,-1,41,-1,-1,-1,-1,-1,-1,-1,-1,-1,-1,-1,-1,-1,-1,-1,-1,-1,-1,-1],"loss_changes":[4.3767687E-2,1.2621585E-2,3.697511E-2,1.2661537E-2,0E0,1.2828579E-2,4.2871945E-3,1.277335E-3,1.7690282E-2,1.2485686E-2,6.692603E-3,2.1254718E-3,1.2904417E-3,1.2781606E-3,1.026744E-3,1.938941E-3,1.3167621E-2,1.975176E-2,1.2709171E-2,2.6645362E-3,3.4893174E-3,0E0,0E0,2.0310283E-3,0E0,0E0,0E0,0E0,0E0,0E0,0E0,0E0,0E0,0E0,0E0,0E0,0E0,0E0,0E0,0E0,0E0,0E0,0E0],"parents":[2147483647,0,0,1,1,2,2,3,3,5,5,6,6,7,7,8,8,9,9,10,10,11,11,12,12,13,13,14,14,15,15,16,16,17,17,18,18,19,19,20,20,23,23],"right_children":[2,4,6,8,-1,10,12,14,16,18,20,22,24,26,28,30,32,34,36,38,40,-1,-1,42,-1,-1,-1,-1,-1,-1,-1,-1,-1,-1,-1,-1,-1,-1,-1,-1,-1,-1,-1],"split_conditions":[-7.807442E0,8.534754E1,-5.093671E0,-9.333649E0,1.0522837E-3,2.66905E3,8.58997E1,5.24169E0,-7.8517E0,2.354082E3,-7.102818E0,6.21673E0,2.69225E0,-9.922471E0,8.24904E1,1.86302E0,4.34536E0,-7.243171E0,1.19292E0,1.78631E0,2.53923E0,1.1240871E-3,-0E0,-4.395485E0,-0E0,6.063384E-4,-0E0,3.8984336E-4,1.4974112E-3,2.049164E-3,2.6738338E-4,-1.0018506E-4,8.6240034E-4,2.1367124E-4,-4.2856703E-4,4.4065388E-4,-1.3050175E-4,-4.039264E-4,-2.015483E-3,-5.949351E-4,1.8836888E-4,5.9641525E-4,-0E0],"split_indices":[7,0,7,7,0,1,0,4,3,1,7,4,3,7,0,6,3,7,6,6,6,0,0,7,0,0,0,0,0,0,0,0,0,0,0,0,0,0,0,0,0,0,0],"split_type":[0,0,0,0,0,0,0,0,0,0,0,0,0,0,0,0,0,0,0,0,0,0,0,0,0,0,0,0,0,0,0,0,0,0,0,0,0,0,0,0,0,0,0],"sum_hessian":[1.822E3,4.56E2,1.366E3,3.81E2,7.5E1,1.251E3,1.15E2,6.8E1,3.13E2,1.175E3,7.6E1,6.7E1,4.8E1,2.2E1,4.6E1,2.3E1,2.9E2,7.15E2,4.6E2,3.2E1,4.4E1,5.7E1,1E1,3.8E1,1E1,1.1E1,1.1E1,2E1,2.6E1,1.2E1,1.1E1,2.5E2,4E1,1.39E2,5.76E2,1.36E2,3.24E2,1.5E1,1.7E1,3.3E1,1.1E1,2.8E1,1E1],"tree_param":{"num_deleted":"0","num_feature":"8","num_nodes":"43","size_leaf_vector":"1"}},{"base_weights":[4.5568726E-4,-6.8296987E-4,1.4586606E-2,7.842127E-3,-3.2056142E-3,1.7177822E-2,-0E0,5.190348E-3,1.2058918E-3,-4.934889E-3,1.6601239E-3,1.285277E-3,8.166761E-3,-0E0,1.077717E-2,-9.832604E-3,-1.8368586E-3,1.4264417E-2,-1.819983E-3,1.6256375E-2,-0E0,1.8621878E-4,-5.855446E-4,-0E0,7.321914E-4,-3.035669E-4,-1.0645329E-3,-8.0341724E-4,-1.4156389E-5,1.3851939E-4,1.3428567E-3,-3.0135803E-4,2.9686984E-4,1.1569662E-3,8.3860905E-5,-2.503001E-4,5.7894294E-4],"categories":[],"categories_nodes":[],"categories_segments":[],"categories_sizes":[],"default_left":[0,0,0,0,0,0,0,0,0,0,0,0,0,0,0,0,0,0,0,0,0,0,0,0,0,0,0,0,0,0,0,0,0,0,0,0,0],"id":16,"left_children":[1,3,5,7,9,11,-1,13,-1,15,17,-1,19,21,23,25,27,29,31,33,35,-1,-1,-1,-1,-1,-1,-1,-1,-1,-1,-1,-1,-1,-1,-1,-1],"loss_changes":[3.018582E-2,3.504604E-2,5.9167165E-3,1.2826731E-2,1.1131083E-2,5.7009347E-3,0E0,9.649763E-3,0E0,1.34116765E-2,1.53947035E-2,0E0,4.0546963E-3,7.493961E-3,7.381713E-3,1.264938E-2,1.16937775E-2,7.963163E-3,8.10602E-3,6.906586E-4,2.2102809E-3,0E0,0E0,0E0,0E0,0E0,0E0,0E0,0E0,0E0,0E0,0E0,0E0,0E0,0E0,0E0,0E0],"parents":[2147483647,0,0,1,1,2,2,3,3,4,4,5,5,7,7,9,9,10,10,12,12,13,13,14,14,15,15,16,16,17,17,18,18,19,19,20,20],"right_children":[2,4,6,8,10,12,-1,14,-1,16,18,-1,20,22,24,26,28,30,32,34,36,-1,-1,-1,-1,-1,-1,-1,-1,-1,-1,-1,-1,-1,-1,-1,-1],"split_conditions":[-5.232304E0,-8.01827E0,6.28055E0,8.37465E0,2.03327E0,2.2991912E3,-0E0,2.3175098E3,1.2058918E-3,5.61735E0,5.53914E0,1.285277E-3,8.58997E1,8.329146E1,5.14014E0,5.48316E0,8.123645E1,-6.377985E0,9.50292E0,-1.42126E0,8.84639E1,1.8621878E-4,-5.855446E-4,-0E0,7.321914E-4,-3.035669E-4,-1.0645329E-3,-8.0341724E-4,-1.4156389E-5,1.3851939E-4,1.3428567E-3,-3.0135803E-4,2.9686984E-4,1.1569662E-3,8.3860905E-5,-2.503001E-4,5.7894294E-4],"split_indices":[7,7,4,2,3,1,0,1,0,4,4,0,0,0,4,4,0,7,2,3,0,0,0,0,0,0,0,0,0,0,0,0,0,0,0,0,0],"split_type":[0,0,0,0,0,0,0,0,0,0,0,0,0,0,0,0,0,0,0,0,0,0,0,0,0,0,0,0,0,0,0,0,0,0,0,0,0],"sum_hessian":[1.788E3,1.649E3,1.39E2,3.67E2,1.282E3,1.2E2,1.9E1,3.22E2,4.5E1,9.61E2,3.21E2,5.5E1,6.5E1,1.65E2,1.57E2,3.59E2,6.02E2,7.5E1,2.46E2,3.1E1,3.4E1,1.24E2,4.1E1,3.8E1,1.19E2,2.78E2,8.1E1,5.2E1,5.5E2,4.4E1,3.1E1,1.68E2,7.8E1,1.6E1,1.5E1,2.3E1,1.1E1],"tree_param":{"num_deleted":"0","num_feature":"8","num_nodes":"37","size_leaf_vector":"1"}},{"base_weights":[3.976758E-4,-9.823085E-4,5.1268246E-3,-2.8210066E-3,2.90822E-3,-1.5562526E-2,6.947572E-3,-7.4563944E-4,-9.971888E-3,1.3972107E-2,6.984599E-4,-1.2565965E-3,-0E0,1.2646645E-2,1.3397314E-4,6.988892E-4,-7.8093903E-3,-1.1530767E-2,3.733915E-4,-0E0,1.959115E-2,-4.678833E-3,3.90384E-3,2.0026378E-2,3.623864E-3,4.127968E-3,-1.5136709E-2,8.079353E-4,-0E0,5.8378588E-5,-6.668716E-4,-2.4290451E-4,-8.5555867E-4,6.9804693E-4,-4.749394E-4,1.3257273E-3,-0E0,-0E0,-9.426662E-4,4.5759292E-4,-0E0,2.219457E-4,1.2241378E-3,3.9057832E-4,-1.0938843E-3,-1.17488264E-4,4.971776E-4,-1.0764357E-3,-0E0],"categories":[],"categories_nodes":[],"categories_segments":[],"categories_sizes":[],"default_left":[0,0,0,0,0,0,0,0,0,0,0,0,0,0,0,0,0,0,0,0,0,0,0,0,0,0,0,0,0,0,0,0,0,0,0,0,0,0,0,0,0,0,0,0,0,0,0,0,0],"id":17,"left_children":[1,3,5,7,9,11,13,15,17,19,21,-1,-1,23,25,27,29,31,-1,33,35,37,39,41,43,45,47,-1,-1,-1,-1,-1,-1,-1,-1,-1,-1,-1,-1,-1,-1,-1,-1,-1,-1,-1,-1,-1,-1],"loss_changes":[1.2133931E-2,9.828402E-3,1.51434E-2,1.3034323E-2,8.889362E-3,4.7348966E-3,1.3980906E-2,8.359146E-3,6.011244E-3,3.4374958E-3,6.180295E-3,0E0,0E0,1.1279061E-2,1.0427924E-2,7.2735697E-3,8.130436E-3,4.8693046E-3,0E0,3.5262983E-3,4.6512727E-3,6.882549E-3,5.7383757E-3,4.431762E-3,9.443577E-3,6.621873E-3,1.9431165E-3,0E0,0E0,0E0,0E0,0E0,0E0,0E0,0E0,0E0,0E0,0E0,0E0,0E0,0E0,0E0,0E0,0E0,0E0,0E0,0E0,0E0,0E0],"parents":[2147483647,0,0,1,1,2,2,3,3,4,4,5,5,6,6,7,7,8,8,9,9,10,10,13,13,14,14,15,15,16,16,17,17,19,19,20,20,21,21,22,22,23,23,24,24,25,25,26,26],"right_children":[2,4,6,8,10,12,14,16,18,20,22,-1,-1,24,26,28,30,32,-1,34,36,38,40,42,44,46,48,-1,-1,-1,-1,-1,-1,-1,-1,-1,-1,-1,-1,-1,-1,-1,-1,-1,-1,-1,-1,-1,-1],"split_conditions":[2.14087E0,8.544339E1,-2.82969E0,6.06494E0,6.574E-1,2.3754707E3,5.90426E0,3.4516E-1,6.11289E0,5.78835E0,5.66578E0,-1.2565965E-3,-0E0,8.431289E1,2.22506E0,7.858094E1,2.1707488E3,5.68159E0,3.733915E-4,5.68159E0,6.02224E0,5.49907E0,2.4164497E3,5.22184E0,6.1892E0,2.1869758E3,6.53009E0,8.079353E-4,-0E0,5.8378588E-5,-6.668716E-4,-2.4290451E-4,-8.5555867E-4,6.9804693E-4,-4.749394E-4,1.3257273E-3,-0E0,-0E0,-9.426662E-4,4.5759292E-4,-0E0,2.219457E-4,1.2241378E-3,3.9057832E-4,-1.0938843E-3,-1.17488264E-4,4.971776E-4,-1.0764357E-3,-0E0],"split_indices":[3,0,6,4,6,1,4,3,5,5,4,0,0,0,6,0,1,5,0,5,5,4,1,4,5,1,4,0,0,0,0,0,0,0,0,0,0,0,0,0,0,0,0,0,0,0,0,0,0],"split_type":[0,0,0,0,0,0,0,0,0,0,0,0,0,0,0,0,0,0,0,0,0,0,0,0,0,0,0,0,0,0,0,0,0,0,0,0,0,0,0,0,0,0,0,0,0,0,0,0,0],"sum_hessian":[1.794E3,1.373E3,4.21E2,9.5E2,4.23E2,2.9E1,3.92E2,7.48E2,2.02E2,6.2E1,3.61E2,1.8E1,1.1E1,2.05E2,1.87E2,6.1E2,1.38E2,1.91E2,1.1E1,2.2E1,4E1,1.23E2,2.38E2,1.06E2,9.9E1,1.54E2,3.3E1,2.8E1,5.82E2,4.6E1,9.2E1,9.6E1,9.5E1,1.2E1,1E1,2.8E1,1.2E1,9.7E1,2.6E1,1.11E2,1.27E2,2.9E1,7.7E1,8.9E1,1E1,6.5E1,8.9E1,2E1,1.3E1],"tree_param":{"num_deleted":"0","num_feature":"8","num_nodes":"49","size_leaf_vector":"1"}},{"base_weights":[7.5411604E-5,8.148494E-3,-1.9784616E-3,1.2844558E-3,6.1743874E-3,-3.4242722E-3,1.2908683E-2,3.3252141E-3,1.947407E-2,-5.5622226E-3,1.3821179E-4,-0E0,1.426463E-2,-3.630285E-3,1.0231309E-2,1.2781407E-3,-0E0,-7.992286E-3,1.3412415E-5,1.5394698E-2,-2.1744962E-3,1.729887E-2,3.6799026E-4,-3.8481204E-4,6.9912E-4,1.5489271E-4,8.3231676E-4,-1.6522963E-5,-5.2607356E-4,4.557415E-4,-1.9638111E-4,9.152344E-4,-0E0,-0E0,-4.7360474E-4,9.634644E-4,1.6144992E-4,6.5265567E-4,-5.0894165E-4],"categories":[],"categories_nodes":[],"categories_segments":[],"categories_sizes":[],"default_left":[0,0,0,0,0,0,0,0,0,0,0,0,0,0,0,0,0,0,0,0,0,0,0,0,0,0,0,0,0,0,0,0,0,0,0,0,0,0,0],"id":18,"left_children":[1,3,5,-1,7,9,11,13,15,17,19,-1,21,23,25,-1,-1,27,29,31,33,35,37,-1,-1,-1,-1,-1,-1,-1,-1,-1,-1,-1,-1,-1,-1,-1,-1],"loss_changes":[3.0877026E-2,9.813314E-3,3.0197931E-2,0E0,1.0842116E-2,1.0627302E-2,2.4603605E-3,1.4819635E-2,7.893957E-3,1.2247024E-2,1.8291717E-2,0E0,2.9495116E-3,9.504732E-3,5.067015E-3,0E0,0E0,1.0557618E-2,9.3424255E-3,3.415862E-3,6.57534E-3,7.217564E-5,4.0325625E-3,0E0,0E0,0E0,0E0,0E0,0E0,0E0,0E0,0E0,0E0,0E0,0E0,0E0,0E0,0E0,0E0],"parents":[2147483647,0,0,1,1,2,2,4,4,5,5,6,6,7,7,8,8,9,9,10,10,12,12,13,13,14,14,17,17,18,18,19,19,20,20,21,21,22,22],"right_children":[2,4,6,-1,8,10,12,14,16,18,20,-1,22,24,26,-1,-1,28,30,32,34,36,38,-1,-1,-1,-1,-1,-1,-1,-1,-1,-1,-1,-1,-1,-1,-1,-1],"split_conditions":[-8.01827E0,-9.832176E0,-5.093671E0,1.2844558E-3,7.62004E0,-6.385889E0,-1.92464E0,2.327259E3,1.85414E0,8.07587E0,4.70394E0,-0E0,2.14336E0,6.25634E0,5.5885E0,1.2781407E-3,-0E0,5.44048E0,-7.243171E0,6.23793E0,1.180646E1,6.21673E0,1.092579E1,-3.8481204E-4,6.9912E-4,1.5489271E-4,8.3231676E-4,-1.6522963E-5,-5.2607356E-4,4.557415E-4,-1.9638111E-4,9.152344E-4,-0E0,-0E0,-4.7360474E-4,9.634644E-4,1.6144992E-4,6.5265567E-4,-5.0894165E-4],"split_indices":[7,7,7,0,2,7,6,1,6,2,2,0,6,4,4,0,0,4,7,4,2,4,2,0,0,0,0,0,0,0,0,0,0,0,0,0,0,0,0],"split_type":[0,0,0,0,0,0,0,0,0,0,0,0,0,0,0,0,0,0,0,0,0,0,0,0,0,0,0,0,0,0,0,0,0,0,0,0,0,0,0],"sum_hessian":[1.823E3,3.79E2,1.444E3,3.2E1,3.47E2,1.323E3,1.21E2,2.93E2,5.4E1,8.44E2,4.79E2,1E1,1.11E2,1.39E2,1.54E2,4.3E1,1.1E1,6E2,2.44E2,6.8E1,4.11E2,8.5E1,2.6E1,1.18E2,2.1E1,8.1E1,7.3E1,1.59E2,4.41E2,8.1E1,1.63E2,5.8E1,1E1,3.17E2,9.4E1,6.8E1,1.7E1,1.6E1,1E1],"tree_param":{"num_deleted":"0","num_feature":"8","num_nodes":"39","size_leaf_vector":"1"}},{"base_weights":[-2.4526072E-4,7.966735E-3,-2.4451334E-3,1.3741925E-2,2.141348E-3,-4.269599E-3,5.387694E-3,1.6902773E-2,2.1303045E-3,1.2187222E-3,-8.3163957E-4,-3.264234E-3,-1.6240554E-2,-2.8775325E-3,1.0988122E-2,1.473371E-3,9.006448E-3,-3.3710775E-4,8.860127E-3,3.6159004E-3,-8.779029E-3,-4.254435E-3,1.0455332E-2,-2.1022387E-2,-0E0,1.15676895E-2,-9.844042E-3,5.9833196E-3,9.950479E-4,1.3002857E-3,8.9881876E-5,-0E0,6.170276E-4,-2.5589747E-4,3.388235E-4,-1.0705745E-3,1.685681E-4,-3.9510848E-4,-1.254672E-4,1.5096155E-3,2.3543146E-4,-9.00323E-5,-1.4001168E-3,-0E0,1.157588E-3,-1.06825624E-4,-1.2388397E-3,6.7062594E-4,-7.236556E-4],"categories":[],"categories_nodes":[],"categories_segments":[],"categories_sizes":[],"default_left":[0,0,0,0,0,0,0,0,0,0,0,0,0,0,0,0,0,0,0,0,0,0,0,0,0,0,0,0,0,0,0,0,0,0,0,0,0,0,0,0,0,0,0,0,0,0,0,0,0],"id":19,"left_children":[1,3,5,7,9,11,13,15,17,-1,19,21,23,25,27,-1,29,-1,31,33,35,37,39,41,-1,43,45,47,-1,-1,-1,-1,-1,-1,-1,-1,-1,-1,-1,-1,-1,-1,-1,-1,-1,-1,-1,-1,-1],"loss_changes":[3.2075267E-2,1.08973365E-2,2.0404097E-2,4.593741E-3,1.5263801E-2,1.2125814E-2,1.29240565E-2,9.0827495E-3,3.018197E-3,0E0,6.5215873E-3,1.4259358E-2,8.160254E-3,9.904154E-3,4.563436E-3,0E0,7.956829E-3,0E0,9.1209123E-4,2.9885313E-3,1.2466964E-2,5.470155E-3,3.967053E-3,6.092621E-3,0E0,2.6853266E-3,5.5425474E-3,1.7261228E-2,0E0,0E0,0E0,0E0,0E0,0E0,0E0,0E0,0E0,0E0,0E0,0E0,0E0,0E0,0E0,0E0,0E0,0E0,0E0,0E0,0E0],"parents":[2147483647,0,0,1,1,2,2,3,3,4,4,5,5,6,6,7,7,8,8,10,10,11,11,12,12,13,13,14,14,16,16,18,18,19,19,20,20,21,21,22,22,23,23,25,25,26,26,27,27],"right_children":[2,4,6,8,10,12,14,16,18,-1,20,22,24,26,28,-1,30,-1,32,34,36,38,40,42,-1,44,46,48,-1,-1,-1,-1,-1,-1,-1,-1,-1,-1,-1,-1,-1,-1,-1,-1,-1,-1,-1,-1,-1],"split_conditions":[-8.01827E0,6.00566E0,-5.668842E0,1.98545E0,-9.922471E0,2.66905E3,5.48014E0,-1.96158E0,5.6126E0,1.2187222E-3,-5.1161E-1,2.5724019E3,2.53923E0,5.53196E0,2.389099E3,1.473371E-3,-9.082665E0,-3.3710775E-4,2.358729E3,-9.200413E0,2.84075E0,-2.52225E0,1.32875E0,1.53471E0,-0E0,5.36661E0,2.4100283E3,2.3234172E3,9.950479E-4,1.3002857E-3,8.9881876E-5,-0E0,6.170276E-4,-2.5589747E-4,3.388235E-4,-1.0705745E-3,1.685681E-4,-3.9510848E-4,-1.254672E-4,1.5096155E-3,2.3543146E-4,-9.00323E-5,-1.4001168E-3,-0E0,1.157588E-3,-1.06825624E-4,-1.2388397E-3,6.7062594E-4,-7.236556E-4],"split_indices":[7,5,7,6,7,1,5,3,4,0,3,1,6,4,1,0,7,0,1,7,3,3,6,6,0,4,1,1,0,0,0,0,0,0,0,0,0,0,0,0,0,0,0,0,0,0,0,0,0],"split_type":[0,0,0,0,0,0,0,0,0,0,0,0,0,0,0,0,0,0,0,0,0,0,0,0,0,0,0,0,0,0,0,0,0,0,0,0,0,0,0,0,0,0,0,0,0,0,0,0,0],"sum_hessian":[1.804E3,3.71E2,1.433E3,1.77E2,1.94E2,1.173E3,2.6E2,1.32E2,4.5E1,2.6E1,1.68E2,1.091E3,8.2E1,9.8E1,1.62E2,4.5E1,8.7E1,1.3E1,3.2E1,1E2,6.8E1,1.025E3,6.6E1,6.7E1,1.5E1,2.7E1,7.1E1,1.12E2,5E1,2.1E1,6.6E1,1E1,2.2E1,1.8E1,8.2E1,3.7E1,3.1E1,3.12E2,7.13E2,1E1,5.6E1,2.2E1,4.5E1,1.6E1,1.1E1,5.2E1,1.9E1,8.6E1,2.6E1],"tree_param":{"num_deleted":"0","num_feature":"8","num_nodes":"49","size_leaf_vector":"1"}},{"base_weights":[4.880992E-4,2.3371305E-3,-3.5599333E-3,9.680065E-3,1.391708E-3,-2.3249788E-3,-1.2097385E-3,2.2715334E-2,3.241987E-3,-7.424398E-3,2.9791896E-3,-8.564744E-3,-3.2964206E-5,1.1097257E-2,2.1094435E-3,-1.6177191E-3,1.2239586E-2,-1.717528E-3,-1.8298369E-2,2.5489936E-3,1.196663E-3,-1.3593221E-2,2.0108921E-3,3.513932E-3,-1.1549401E-2,1.1130408E-3,-0E0,1.07610475E-4,-8.1376656E-4,1.0165164E-3,-0E0,3.6491852E-4,-2.9780713E-4,-1.280435E-3,-1.476269E-4,1.7438373E-4,-4.5177672E-4,-0E0,-9.477773E-4,6.3155097E-4,-6.2939325E-5,7.389187E-4,-0E0,-7.489479E-4,3.543597E-4],"categories":[],"categories_nodes":[],"categories_segments":[],"categories_sizes":[],"default_left":[0,0,0,0,0,0,0,0,0,0,0,0,0,0,0,0,0,0,0,0,0,0,0,0,0,0,0,0,0,0,0,0,0,0,0,0,0,0,0,0,0,0,0,0,0],"id":20,"left_children":[1,3,5,7,9,11,-1,13,15,17,19,21,23,25,-1,27,29,31,33,35,-1,37,39,41,43,-1,-1,-1,-1,-1,-1,-1,-1,-1,-1,-1,-1,-1,-1,-1,-1,-1,-1,-1,-1],"loss_changes":[1.3673297E-2,7.7792197E-3,1.1587784E-2,8.576184E-3,1.5658319E-2,6.7913206E-3,0E0,3.026761E-3,5.279653E-3,8.268334E-3,6.1609E-3,8.2052415E-3,1.7346563E-2,4.3573794E-3,0E0,4.541796E-3,4.6042698E-3,4.342177E-3,2.7896035E-3,1.0024684E-2,0E0,7.772738E-3,2.437926E-3,1.1983468E-2,7.414692E-3,0E0,0E0,0E0,0E0,0E0,0E0,0E0,0E0,0E0,0E0,0E0,0E0,0E0,0E0,0E0,0E0,0E0,0E0,0E0,0E0],"parents":[2147483647,0,0,1,1,2,2,3,3,4,4,5,5,7,7,8,8,9,9,10,10,11,11,12,12,13,13,15,15,16,16,17,17,18,18,19,19,21,21,22,22,23,23,24,24],"right_children":[2,4,6,8,10,12,-1,14,16,18,20,22,24,26,-1,28,30,32,34,36,-1,38,40,42,44,-1,-1,-1,-1,-1,-1,-1,-1,-1,-1,-1,-1,-1,-1,-1,-1,-1,-1,-1,-1],"split_conditions":[1.99632E0,5.28548E0,1.285642E1,2.2535679E3,5.47584E0,5.58465E0,-1.2097385E-3,5.21786E0,1.15265E0,6.05413E0,9.066127E1,2.67949E0,2.66327E0,1.4248E0,2.1094435E-3,5.71955E0,1.70219E0,8.318841E1,8.6441E0,8.84639E1,1.196663E-3,2.06242E0,5.33698E0,5.43775E0,3.35676E0,1.1130408E-3,-0E0,1.07610475E-4,-8.1376656E-4,1.0165164E-3,-0E0,3.6491852E-4,-2.9780713E-4,-1.280435E-3,-1.476269E-4,1.7438373E-4,-4.5177672E-4,-0E0,-9.477773E-4,6.3155097E-4,-6.2939325E-5,7.389187E-4,-0E0,-7.489479E-4,3.543597E-4],"split_indices":[6,5,2,1,5,4,0,5,6,4,0,6,6,6,0,4,6,0,2,0,0,6,4,5,6,0,0,0,0,0,0,0,0,0,0,0,0,0,0,0,0,0,0,0,0],"split_type":[0,0,0,0,0,0,0,0,0,0,0,0,0,0,0,0,0,0,0,0,0,0,0,0,0,0,0,0,0,0,0,0,0,0,0,0,0,0,0,0,0,0,0,0,0],"sum_hessian":[1.841E3,1.281E3,5.6E2,1.33E2,1.148E3,5.34E2,2.6E1,3.8E1,9.5E1,1.65E2,9.83E2,1.31E2,4.03E2,2.8E1,1E1,5.5E1,4E1,1.15E2,5E1,9.69E2,1.4E1,9.5E1,3.6E1,3.02E2,1.01E2,1.5E1,1.3E1,3.9E1,1.6E1,2.5E1,1.5E1,2.9E1,8.6E1,2.9E1,2.1E1,9.05E2,6.4E1,2.5E1,7E1,1.5E1,2.1E1,7.1E1,2.31E2,9E1,1.1E1],"tree_param":{"num_deleted":"0","num_feature":"8","num_nodes":"45","size_leaf_vector":"1"}},{"base_weights":[8.5503975E-4,4.915385E-4,1.8485384E-2,1.415456E-2,-0E0,-0E0,1.6569272E-3,1.4207164E-3,5.47304E-3,9.843092E-4,-3.1879495E-3,8.356403E-4,-6.368748E-4,-3.0965474E-3,2.213621E-3,5.8297324E-3,-4.9145166E-3,-2.7973784E-4,-0E0,-4.2316178E-4,-0E0,-1.1219315E-4,1.9325216E-4,7.281147E-4,-0E0,1.0686069E-5,-3.3108352E-4],"categories":[],"categories_nodes":[],"categories_segments":[],"categories_sizes":[],"default_left":[0,0,0,0,0,0,0,0,0,0,0,0,0,0,0,0,0,0,0,0,0,0,0,0,0,0,0],"id":21,"left_children":[1,3,5,7,9,-1,-1,-1,11,13,15,-1,17,19,21,23,25,-1,-1,-1,-1,-1,-1,-1,-1,-1,-1],"loss_changes":[9.699292E-3,1.2592545E-2,1.0272104E-2,4.502519E-3,5.4892786E-3,0E0,0E0,0E0,4.7772415E-3,6.450235E-3,6.414097E-3,0E0,4.5937925E-4,5.093698E-3,7.679202E-3,3.542394E-3,3.7851436E-3,0E0,0E0,0E0,0E0,0E0,0E0,0E0,0E0,0E0,0E0],"parents":[2147483647,0,0,1,1,2,2,3,3,4,4,8,8,9,9,10,10,12,12,13,13,14,14,15,15,16,16],"right_children":[2,4,6,8,10,-1,-1,-1,12,14,16,-1,18,20,22,24,26,-1,-1,-1,-1,-1,-1,-1,-1,-1,-1],"split_conditions":[1.437391E1,7.858094E1,7.62004E0,2.1661E0,2.14336E0,-0E0,1.6569272E-3,1.4207164E-3,2.129391E3,8.187789E1,-6.08028E0,8.356403E-4,2.2972766E3,-2.06284E0,5.47584E0,3.40583E0,8.266716E1,-2.7973784E-4,-0E0,-4.2316178E-4,-0E0,-1.1219315E-4,1.9325216E-4,7.281147E-4,-0E0,1.0686069E-5,-3.3108352E-4],"split_indices":[3,0,2,2,6,0,0,0,1,0,3,0,1,3,5,2,0,0,0,0,0,0,0,0,0,0,0],"split_type":[0,0,0,0,0,0,0,0,0,0,0,0,0,0,0,0,0,0,0,0,0,0,0,0,0,0,0],"sum_hessian":[1.81E3,1.78E3,3E1,6.4E1,1.716E3,1.2E1,1.8E1,1.9E1,4.5E1,1.301E3,4.15E2,2.1E1,2.4E1,2.82E2,1.019E3,5.7E1,3.58E2,1.4E1,1E1,1.08E2,1.74E2,2.59E2,7.6E2,2.5E1,3.2E1,7.5E1,2.83E2],"tree_param":{"num_deleted":"0","num_feature":"8","num_nodes":"27","size_leaf_vector":"1"}},{"base_weights":[5.0857605E-4,8.4004635E-3,-7.856792E-4,3.166366E-3,1.8634673E-2,-1.9343585E-3,1.2097169E-2,1.2243846E-3,-0E0,2.0851623E-2,-0E0,-6.128195E-4,-7.5553744E-3,9.4321696E-4,2.6510477E-3,-5.968728E-3,4.700939E-3,3.626041E-5,1.1236611E-3,-2.8990353E-3,3.6203219E-3,-2.0377861E-2,-2.926915E-3,-1.9652834E-3,1.2638563E-2,1.1805631E-6,-7.4514694E-4,4.3481626E-4,-6.7386817E-4,-2.5917043E-4,1.20603145E-4,7.116568E-4,2.5445644E-5,-1.2637748E-4,-1.3816173E-3,1.1254469E-3,-2.4820183E-4,1.3843704E-4,-4.7820946E-4,1.1867676E-3,-0E0],"categories":[],"categories_nodes":[],"categories_segments":[],"categories_sizes":[],"default_left":[0,0,0,0,0,0,0,0,0,0,0,0,0,0,0,0,0,0,0,0,0,0,0,0,0,0,0,0,0,0,0,0,0,0,0,0,0,0,0,0,0],"id":22,"left_children":[1,3,5,7,9,11,13,-1,15,17,-1,19,21,-1,23,25,27,-1,-1,29,31,33,35,37,39,-1,-1,-1,-1,-1,-1,-1,-1,-1,-1,-1,-1,-1,-1,-1,-1],"loss_changes":[1.9184133E-2,1.1956105E-2,2.1781642E-2,1.1357501E-2,2.4830606E-3,9.734295E-3,5.405348E-3,0E0,4.521937E-3,1.3720244E-5,0E0,1.12227695E-2,1.2803058E-2,0E0,3.72019E-3,5.1287888E-3,6.538885E-3,0E0,0E0,9.668082E-3,1.1528749E-2,4.9428437E-3,8.46135E-3,1.8931482E-3,3.330438E-3,0E0,0E0,0E0,0E0,0E0,0E0,0E0,0E0,0E0,0E0,0E0,0E0,0E0,0E0,0E0,0E0],"parents":[2147483647,0,0,1,1,2,2,3,3,4,4,5,5,6,6,8,8,9,9,11,11,12,12,14,14,15,15,16,16,19,19,20,20,21,21,22,22,23,23,24,24],"right_children":[2,4,6,8,10,12,14,-1,16,18,-1,20,22,-1,24,26,28,-1,-1,30,32,34,36,38,40,-1,-1,-1,-1,-1,-1,-1,-1,-1,-1,-1,-1,-1,-1,-1,-1],"split_conditions":[-8.278074E0,4.57488E0,-5.093671E0,-9.922471E0,1.94176E0,6.23793E0,1.092579E1,1.2243846E-3,8.20534E1,-9.706545E0,-0E0,-6.385889E0,8.260015E1,9.4321696E-4,-4.520581E0,9.7181E-1,6.16752E0,3.626041E-5,1.1236611E-3,8.530929E1,5.13055E0,-7.342447E0,-6.08028E0,-4.914613E0,8.611616E1,1.1805631E-6,-7.4514694E-4,4.3481626E-4,-6.7386817E-4,-2.5917043E-4,1.20603145E-4,7.116568E-4,2.5445644E-5,-1.2637748E-4,-1.3816173E-3,1.1254469E-3,-2.4820183E-4,1.3843704E-4,-4.7820946E-4,1.1867676E-3,-0E0],"split_indices":[7,2,7,7,6,4,2,0,0,7,0,7,0,0,7,6,4,0,0,0,2,7,3,7,0,0,0,0,0,0,0,0,0,0,0,0,0,0,0,0,0],"split_type":[0,0,0,0,0,0,0,0,0,0,0,0,0,0,0,0,0,0,0,0,0,0,0,0,0,0,0,0,0,0,0,0,0,0,0,0,0,0,0,0,0],"sum_hessian":[1.802E3,2.64E2,1.538E3,1.82E2,8.2E1,1.42E3,1.18E2,2.1E1,1.61E2,7.1E1,1.1E1,1.165E3,2.55E2,6.2E1,5.6E1,6.7E1,9.4E1,1E1,6.1E1,7.72E2,3.93E2,6.1E1,1.94E2,3.2E1,2.4E1,3.4E1,3.3E1,8.2E1,1.2E1,5.53E2,2.19E2,8.1E1,3.12E2,2.2E1,3.9E1,1E1,1.84E2,1.2E1,2E1,1.2E1,1.2E1],"tree_param":{"num_deleted":"0","num_feature":"8","num_nodes":"41","size_leaf_vector":"1"}},{"base_weights":[-2.2603098E-4,8.95999E-3,-2.1336644E-3,-7.2126235E-3,1.1663256E-2,-3.3807126E-3,1.0906121E-2,-0E0,-1.3363193E-2,1.35807805E-2,-0E0,-4.9273944E-3,7.0414775E-5,8.4845343E-4,1.7811295E-3,-0E0,-1.3094519E-3,1.838624E-2,8.273497E-3,-8.3458435E-4,8.96774E-3,-5.7503995E-3,1.1287392E-2,-4.1202414E-3,5.961414E-3,-6.365706E-3,1.2307912E-2,1.2159899E-3,4.688637E-4,6.7224546E-4,-1.7366128E-6,7.39584E-4,-0E0,4.9040484E-4,-3.3445397E-4,9.505555E-4,-1.5584101E-4,-5.97046E-5,-7.817953E-4,-0E0,7.9947256E-4,-0E0,-8.522559E-4,9.2644553E-4,6.150151E-5],"categories":[],"categories_nodes":[],"categories_segments":[],"categories_sizes":[],"default_left":[0,0,0,0,0,0,0,0,0,0,0,0,0,0,0,0,0,0,0,0,0,0,0,0,0,0,0,0,0,0,0,0,0,0,0,0,0,0,0,0,0,0,0,0,0],"id":23,"left_children":[1,3,5,7,9,11,13,-1,15,17,19,21,23,-1,25,-1,-1,27,29,-1,31,33,35,37,39,41,43,-1,-1,-1,-1,-1,-1,-1,-1,-1,-1,-1,-1,-1,-1,-1,-1,-1,-1],"loss_changes":[3.1316984E-2,1.38634425E-2,2.4017679E-2,2.9712426E-3,6.1002225E-3,7.937606E-3,5.0656246E-3,0E0,3.916155E-3,3.0478127E-3,5.911083E-3,1.264254E-2,1.0404472E-2,0E0,5.6466474E-3,0E0,0E0,2.282314E-3,6.5402826E-3,0E0,1.2713973E-3,1.35257E-2,6.3213534E-3,6.115929E-3,1.21953655E-2,2.9328824E-3,1.3769511E-4,0E0,0E0,0E0,0E0,0E0,0E0,0E0,0E0,0E0,0E0,0E0,0E0,0E0,0E0,0E0,0E0,0E0,0E0],"parents":[2147483647,0,0,1,1,2,2,3,3,4,4,5,5,6,6,8,8,9,9,10,10,11,11,12,12,14,14,17,17,18,18,20,20,21,21,22,22,23,23,24,24,25,25,26,26],"right_children":[2,4,6,8,10,12,14,-1,16,18,20,22,24,-1,26,-1,-1,28,30,-1,32,34,36,38,40,42,44,-1,-1,-1,-1,-1,-1,-1,-1,-1,-1,-1,-1,-1,-1,-1,-1,-1,-1],"split_conditions":[-8.217459E0,-3.61536E0,-5.121965E0,-9.277236E0,2.35293E0,-6.292788E0,1.096394E1,-0E0,-5.53382E0,6.00566E0,2.2169954E3,1.324796E1,5.74769E0,8.4845343E-4,5.48014E0,-0E0,-1.3094519E-3,-8.622716E0,2.3378247E3,-8.3458435E-4,6.16752E0,5.13826E0,6.06298E0,1.166036E1,5.9535E0,2.2972766E3,5.60211E0,1.2159899E-3,4.688637E-4,6.7224546E-4,-1.7366128E-6,7.39584E-4,-0E0,4.9040484E-4,-3.3445397E-4,9.505555E-4,-1.5584101E-4,-5.97046E-5,-7.817953E-4,-0E0,7.9947256E-4,-0E0,-8.522559E-4,9.2644553E-4,6.150151E-5],"split_indices":[7,2,7,7,6,7,2,0,2,5,1,2,5,0,5,0,0,7,1,0,4,5,5,2,4,1,5,0,0,0,0,0,0,0,0,0,0,0,0,0,0,0,0,0,0],"split_type":[0,0,0,0,0,0,0,0,0,0,0,0,0,0,0,0,0,0,0,0,0,0,0,0,0,0,0,0,0,0,0,0,0,0,0,0,0,0,0,0,0,0,0,0,0],"sum_hessian":[1.824E3,3.04E2,1.52E3,3.8E1,2.66E2,1.395E3,1.25E2,1.1E1,2.7E1,2.29E2,3.7E1,9.83E2,4.12E2,6.8E1,5.7E1,1.5E1,1.2E1,1.09E2,1.2E2,1.3E1,2.4E1,9.42E2,4.1E1,2.31E2,1.81E2,2.7E1,3E1,5.8E1,5.1E1,8.1E1,3.9E1,1.4E1,1E1,4.7E1,8.95E2,3.1E1,1E1,1.92E2,3.9E1,1.09E2,7.2E1,1.4E1,1.3E1,1.3E1,1.7E1],"tree_param":{"num_deleted":"0","num_feature":"8","num_nodes":"45","size_leaf_vector":"1"}},{"base_weights":[-6.1600626E-4,6.648897E-3,-3.0784262E-3,3.8773348E-3,1.1967841E-3,-4.3212906E-3,9.050042E-3,9.037082E-3,3.2985627E-4,-1.9907087E-2,-3.666153E-3,-0E0,1.5606783E-2,-0E0,9.971191E-3,3.7403337E-3,-1.1732954E-2,-2.9376501E-2,-0E0,1.1105116E-2,-4.1894703E-3,9.639782E-4,-7.891634E-3,-0E0,9.3441823E-4,7.557648E-4,1.628035E-4,-1.5120841E-4,4.1932706E-4,-1.6048782E-3,-0E0,-1.8082958E-3,-2.3266951E-4,9.0160745E-4,-0E0,-2.96426E-4,1.8152405E-5,-0E0,-5.9233676E-4],"categories":[],"categories_nodes":[],"categories_segments":[],"categories_sizes":[],"default_left":[0,0,0,0,0,0,0,0,0,0,0,0,0,0,0,0,0,0,0,0,0,0,0,0,0,0,0,0,0,0,0,0,0,0,0,0,0,0,0],"id":24,"left_children":[1,3,5,7,-1,9,11,13,15,17,19,21,23,-1,25,27,29,31,-1,33,35,-1,37,-1,-1,-1,-1,-1,-1,-1,-1,-1,-1,-1,-1,-1,-1,-1,-1],"loss_changes":[3.216818E-2,1.8686024E-2,2.0187523E-2,6.2721376E-3,0E0,1.032304E-2,7.4651977E-3,1.6513681E-3,9.365048E-3,9.315491E-3,8.677419E-3,7.5081033E-3,3.661709E-3,0E0,2.9151617E-3,6.816027E-3,8.846018E-3,9.5329434E-4,0E0,1.5365249E-3,9.837488E-3,0E0,1.4850372E-3,0E0,0E0,0E0,0E0,0E0,0E0,0E0,0E0,0E0,0E0,0E0,0E0,0E0,0E0,0E0,0E0],"parents":[2147483647,0,0,1,1,2,2,3,3,5,5,6,6,7,7,8,8,9,9,10,10,11,11,12,12,14,14,15,15,16,16,17,17,19,19,20,20,22,22],"right_children":[2,4,6,8,-1,10,12,14,16,18,20,22,24,-1,26,28,30,32,-1,34,36,-1,38,-1,-1,-1,-1,-1,-1,-1,-1,-1,-1,-1,-1,-1,-1,-1,-1],"split_conditions":[-7.807442E0,8.54768E0,-5.093671E0,5.82425E0,1.1967841E-3,-8.0628E0,5.48569E0,5.16104E0,-8.088774E0,7.15445E0,-2.0327E-1,8.47969E0,-4.9547E0,-0E0,-8.7898E-1,5.26643E0,1.11219E0,-6.596962E0,-0E0,-4.43433E0,1.88961E0,9.639782E-4,5.55562E0,-0E0,9.3441823E-4,7.557648E-4,1.628035E-4,-1.5120841E-4,4.1932706E-4,-1.6048782E-3,-0E0,-1.8082958E-3,-2.3266951E-4,9.0160745E-4,-0E0,-2.96426E-4,1.8152405E-5,-0E0,-5.9233676E-4],"split_indices":[7,2,7,5,0,3,5,5,7,2,2,2,7,0,3,4,6,7,0,3,3,0,4,0,0,0,0,0,0,0,0,0,0,0,0,0,0,0,0],"split_type":[0,0,0,0,0,0,0,0,0,0,0,0,0,0,0,0,0,0,0,0,0,0,0,0,0,0,0,0,0,0,0,0,0,0,0,0,0,0,0],"sum_hessian":[1.816E3,4.49E2,1.367E3,3.93E2,5.6E1,1.248E3,1.19E2,1.48E2,2.45E2,4.3E1,1.205E3,4.9E1,7E1,1E1,1.38E2,1.98E2,4.7E1,3E1,1.3E1,3.4E1,1.171E3,1.3E1,3.6E1,1.1E1,5.9E1,6.9E1,6.9E1,7.2E1,1.26E2,1.4E1,3.3E1,2E1,1E1,1.7E1,1.7E1,8.63E2,3.08E2,1E1,2.6E1],"tree_param":{"num_deleted":"0","num_feature":"8","num_nodes":"39","size_leaf_vector":"1"}},{"base_weights":[-1.3700487E-4,6.188689E-3,-1.8116765E-3,4.195186E-3,1.0458047E-3,-7.720819E-4,-1.539142E-2,8.6498115E-4,1.802445E-3,-1.716364E-3,9.308279E-3,-2.0208476E-2,3.7337278E-4,1.1948889E-2,-1.5153451E-3,-3.8412572E-3,2.994172E-3,1.2054085E-2,-0E0,-3.0299705E-2,-7.556383E-3,-0E0,8.7972975E-4,1.6196065E-4,-3.936421E-4,3.7413908E-4,-2.521193E-4,-1.0745866E-5,6.935776E-4,3.4823356E-4,1.200493E-3,1.9107609E-4,-4.4319135E-4,-1.7478088E-3,-2.4540888E-4,-7.441924E-4,2.2357095E-5],"categories":[],"categories_nodes":[],"categories_segments":[],"categories_sizes":[],"default_left":[0,0,0,0,0,0,0,0,0,0,0,0,0,0,0,0,0,0,0,0,0,0,0,0,0,0,0,0,0,0,0,0,0,0,0,0,0],"id":25,"left_children":[1,3,5,7,-1,9,11,-1,13,15,17,19,-1,21,23,25,27,29,31,33,35,-1,-1,-1,-1,-1,-1,-1,-1,-1,-1,-1,-1,-1,-1,-1,-1],"loss_changes":[1.8970137E-2,8.293361E-3,1.8997328E-2,8.531354E-3,0E0,1.2249816E-2,1.2105923E-2,0E0,1.0823955E-2,1.26880165E-2,3.4289258E-3,6.7101456E-3,0E0,3.5800477E-3,6.8970085E-3,1.1790326E-2,1.4528389E-2,2.08994E-3,1.0248862E-3,8.07859E-4,3.9720843E-3,0E0,0E0,0E0,0E0,0E0,0E0,0E0,0E0,0E0,0E0,0E0,0E0,0E0,0E0,0E0,0E0],"parents":[2147483647,0,0,1,1,2,2,3,3,5,5,6,6,8,8,9,9,10,10,11,11,13,13,14,14,15,15,16,16,17,17,18,18,19,19,20,20],"right_children":[2,4,6,8,-1,10,12,-1,14,16,18,20,-1,22,24,26,28,30,32,34,36,-1,-1,-1,-1,-1,-1,-1,-1,-1,-1,-1,-1,-1,-1,-1,-1],"split_conditions":[-8.01827E0,8.77205E0,2.66905E3,5.50975E0,1.0458047E-3,-5.093671E0,-5.810172E0,8.6498115E-4,-9.277236E0,2.395814E3,2.14336E0,2.762888E3,3.7337278E-4,1.11219E0,-1.05358E0,2.26492E0,7.5169E-1,1.87867E0,9.86745E0,-6.460569E0,-6.964409E0,-0E0,8.7972975E-4,1.6196065E-4,-3.936421E-4,3.7413908E-4,-2.521193E-4,-1.0745866E-5,6.935776E-4,3.4823356E-4,1.200493E-3,1.9107609E-4,-4.4319135E-4,-1.7478088E-3,-2.4540888E-4,-7.441924E-4,2.2357095E-5],"split_indices":[7,2,1,5,0,7,7,0,7,1,6,1,0,6,3,2,3,6,2,7,7,0,0,0,0,0,0,0,0,0,0,0,0,0,0,0,0],"split_type":[0,0,0,0,0,0,0,0,0,0,0,0,0,0,0,0,0,0,0,0,0,0,0,0,0,0,0,0,0,0,0,0,0,0,0,0,0],"sum_hessian":[1.83E3,3.7E2,1.46E3,3.33E2,3.7E1,1.364E3,9.6E1,4.4E1,2.89E2,1.257E3,1.07E2,8.3E1,1.3E1,7.8E1,2.11E2,8.81E2,3.76E2,8.7E1,2E1,4.1E1,4.2E1,3.1E1,4.7E1,1.12E2,9.9E1,7.6E1,8.05E2,2.84E2,9.2E1,6.8E1,1.9E1,1E1,1E1,3.1E1,1E1,2.8E1,1.4E1],"tree_param":{"num_deleted":"0","num_feature":"8","num_nodes":"37","size_leaf_vector":"1"}},{"base_weights":[-1.499234E-4,6.8484875E-3,-1.976263E-3,1.0294036E-3,5.0034765E-3,-3.2852949E-3,1.2242297E-2,1.0402421E-2,-1.7009927E-4,-1.9355221E-3,-1.0577386E-2,1.7935146E-3,8.7525893E-4,-2.2261035E-4,1.2203107E-2,1.0071658E-2,-5.088599E-3,-7.4604305E-4,-1.281755E-2,1.5535377E-3,-1.4466487E-2,7.359273E-4,-1.7095183E-3,8.929153E-4,3.0819175E-4,-0E0,1.0725075E-3,-9.943012E-4,-0E0,-1.3969054E-4,2.7862177E-4,-8.400147E-4,-0E0,-6.057062E-4,5.773212E-4,4.590388E-5,-8.426361E-4,-4.3862071E-4,-0E0],"categories":[],"categories_nodes":[],"categories_segments":[],"categories_sizes":[],"default_left":[0,0,0,0,0,0,0,0,0,0,0,0,0,0,0,0,0,0,0,0,0,0,0,0,0,0,0,0,0,0,0,0,0,0,0,0,0,0,0],"id":26,"left_children":[1,3,5,-1,7,9,11,13,15,17,19,21,-1,-1,23,25,27,29,31,33,35,-1,37,-1,-1,-1,-1,-1,-1,-1,-1,-1,-1,-1,-1,-1,-1,-1,-1],"loss_changes":[2.2507405E-2,6.4890664E-3,2.5909362E-2,0E0,1.0130784E-2,1.17599275E-2,4.362665E-3,5.349919E-3,7.5120484E-3,1.3260735E-2,1.05135515E-2,3.4087976E-3,0E0,0E0,2.8497782E-3,6.0177813E-3,7.725358E-3,1.3038768E-2,3.9646607E-3,5.819439E-3,7.262461E-3,0E0,1.0637328E-3,0E0,0E0,0E0,0E0,0E0,0E0,0E0,0E0,0E0,0E0,0E0,0E0,0E0,0E0,0E0,0E0],"parents":[2147483647,0,0,1,1,2,2,4,4,5,5,6,6,7,7,8,8,9,9,10,10,11,11,14,14,15,15,16,16,17,17,18,18,19,19,20,20,22,22],"right_children":[2,4,6,-1,8,10,12,14,16,18,20,22,-1,-1,24,26,28,30,32,34,36,-1,38,-1,-1,-1,-1,-1,-1,-1,-1,-1,-1,-1,-1,-1,-1,-1,-1],"split_conditions":[-8.01827E0,-9.832176E0,-5.093671E0,1.0294036E-3,6.00566E0,6.31925E0,5.48014E0,4.97717E0,8.7307E-1,2.66327E0,-7.381637E0,8.397337E1,8.7525893E-4,-2.2261035E-4,8.329146E1,-1.95514E0,1.12021E0,8.644263E1,3.25916E0,6.40767E0,5.22994E0,7.359273E-4,5.67546E0,8.929153E-4,3.0819175E-4,-0E0,1.0725075E-3,-9.943012E-4,-0E0,-1.3969054E-4,2.7862177E-4,-8.400147E-4,-0E0,-6.057062E-4,5.773212E-4,4.590388E-5,-8.426361E-4,-4.3862071E-4,-0E0],"split_indices":[7,7,7,0,5,4,5,4,6,6,7,0,0,0,0,6,6,0,6,4,5,0,4,0,0,0,0,0,0,0,0,0,0,0,0,0,0,0,0],"split_type":[0,0,0,0,0,0,0,0,0,0,0,0,0,0,0,0,0,0,0,0,0,0,0,0,0,0,0,0,0,0,0,0,0,0,0,0,0,0,0],"sum_hessian":[1.797E3,3.6E2,1.437E3,3.5E1,3.25E2,1.323E3,1.14E2,1.68E2,1.57E2,1.129E3,1.94E2,4.5E1,6.9E1,1.2E1,1.56E2,4.4E1,1.13E2,1.027E3,1.02E2,4.1E1,1.53E2,1.5E1,3E1,7.1E1,8.5E1,2.2E1,2.2E1,2.6E1,8.7E1,7.88E2,2.39E2,7.3E1,2.9E1,1.3E1,2.8E1,1.5E1,1.38E2,1.4E1,1.6E1],"tree_param":{"num_deleted":"0","num_feature":"8","num_nodes":"39","size_leaf_vector":"1"}},{"base_weights":[1.1716264E-4,1.4161275E-2,-3.6270087E-4,-3.1850647E-4,1.9535141E-2,-5.8161626E-3,5.1117793E-4,2.0031063E-3,1.1135446E-2,1.0588796E-4,-1.1130052E-2,5.251227E-3,-7.732148E-4,1.7831175E-2,-0E0,1.2383505E-2,-3.5282457E-3,-1.3082481E-2,1.1545099E-4,-5.2914848E-3,7.692221E-3,1.03488965E-2,-1.6488954E-3,9.3529256E-5,1.5537732E-3,8.619058E-4,-0E0,-3.732742E-4,4.2070416E-4,-8.4442645E-4,-3.5830155E-5,-0E0,-7.65703E-4,1.0091135E-3,1.2453509E-4,1.5633214E-3,-0E0,-2.7221534E-4,2.8487926E-5],"categories":[],"categories_nodes":[],"categories_segments":[],"categories_sizes":[],"default_left":[0,0,0,0,0,0,0,0,0,0,0,0,0,0,0,0,0,0,0,0,0,0,0,0,0,0,0,0,0,0,0,0,0,0,0,0,0,0,0],"id":27,"left_children":[1,3,5,-1,7,9,11,-1,13,15,17,19,21,23,-1,25,27,29,-1,31,33,35,37,-1,-1,-1,-1,-1,-1,-1,-1,-1,-1,-1,-1,-1,-1,-1,-1],"loss_changes":[1.38458805E-2,8.9435885E-3,9.025887E-3,0E0,4.434513E-3,9.348503E-3,9.711837E-3,0E0,4.4705104E-3,6.1049643E-3,4.9646627E-3,9.056308E-3,1.0649316E-2,3.4116395E-3,0E0,1.7739208E-3,3.917618E-3,4.5811776E-3,0E0,3.7979803E-3,1.6198099E-2,1.7063558E-2,9.787016E-3,0E0,0E0,0E0,0E0,0E0,0E0,0E0,0E0,0E0,0E0,0E0,0E0,0E0,0E0,0E0,0E0],"parents":[2147483647,0,0,1,1,2,2,4,4,5,5,6,6,8,8,9,9,10,10,11,11,12,12,13,13,15,15,16,16,17,17,19,19,20,20,21,21,22,22],"right_children":[2,4,6,-1,8,10,12,-1,14,16,18,20,22,24,-1,26,28,30,-1,32,34,36,38,-1,-1,-1,-1,-1,-1,-1,-1,-1,-1,-1,-1,-1,-1,-1,-1],"split_conditions":[7.858094E1,5.23564E0,8.145524E1,-3.1850647E-4,4.97717E0,5.52088E0,2.1739421E3,2.0031063E-3,6.05669E0,7.971578E1,5.94788E0,8.219049E1,8.212805E1,7.757379E1,-0E0,2.3077593E3,2.00613E0,2.3200793E3,1.1545099E-4,1.44309E0,8.306594E1,5.60211E0,2.3559866E3,9.3529256E-5,1.5537732E-3,8.619058E-4,-0E0,-3.732742E-4,4.2070416E-4,-8.4442645E-4,-3.5830155E-5,-0E0,-7.65703E-4,1.0091135E-3,1.2453509E-4,1.5633214E-3,-0E0,-2.7221534E-4,2.8487926E-5],"split_indices":[0,5,0,0,4,4,1,0,5,0,3,0,0,0,0,1,6,1,0,6,0,5,1,0,0,0,0,0,0,0,0,0,0,0,0,0,0,0,0],"split_type":[0,0,0,0,0,0,0,0,0,0,0,0,0,0,0,0,0,0,0,0,0,0,0,0,0,0,0,0,0,0,0,0,0,0,0,0,0,0,0],"sum_hessian":[1.848E3,6.7E1,1.781E3,1E1,5.7E1,2.61E2,1.52E3,1.2E1,4.5E1,1.15E2,1.46E2,3.4E2,1.18E3,3.1E1,1.4E1,3.2E1,8.3E1,1.34E2,1.2E1,5.6E1,2.84E2,7.7E1,1.103E3,1.8E1,1.3E1,2.2E1,1E1,6.9E1,1.4E1,9.6E1,3.8E1,3.4E1,2.2E1,7.7E1,2.07E2,2.5E1,5.2E1,4.23E2,6.8E2],"tree_param":{"num_deleted":"0","num_feature":"8","num_nodes":"39","size_leaf_vector":"1"}},{"base_weights":[-1.5843765E-5,8.053519E-3,-1.4296261E-3,3.0638962E-3,1.5990507E-2,-3.8956334E-3,3.1302925E-3,7.5628697E-3,-1.1391141E-2,-0E0,8.544369E-4,1.356149E-2,-4.448387E-3,8.911346E-3,-2.746967E-3,-4.0729805E-3,1.1327731E-2,-0E0,-1.1327318E-3,-0E0,1.3968279E-3,-7.1863625E-3,-6.168209E-4,1.6679551E-2,9.802167E-4,-9.381483E-3,1.894454E-3,-6.354997E-4,-0E0,6.8448135E-4,-0E0,7.25861E-4,-4.2016135E-4,2.6870807E-4,-3.2851138E-4,5.882831E-4,1.6718466E-3,-1.8605076E-4,8.6894707E-4,-0E0,-7.7053433E-4,-7.399568E-5,8.9373783E-4],"categories":[],"categories_nodes":[],"categories_segments":[],"categories_sizes":[],"default_left":[0,0,0,0,0,0,0,0,0,0,0,0,0,0,0,0,0,0,0,0,0,0,0,0,0,0,0,0,0,0,0,0,0,0,0,0,0,0,0,0,0,0,0],"id":28,"left_children":[1,3,5,7,9,11,13,15,17,-1,-1,19,21,23,25,27,29,-1,-1,-1,-1,31,33,35,37,39,41,-1,-1,-1,-1,-1,-1,-1,-1,-1,-1,-1,-1,-1,-1,-1,-1],"loss_changes":[1.9963961E-2,8.302633E-3,1.7506912E-2,1.0628837E-2,4.2198412E-4,8.99149E-3,1.8648598E-2,6.6417996E-3,4.696652E-3,0E0,0E0,5.364102E-3,9.653529E-3,1.522221E-2,8.618839E-3,1.49062E-3,3.0082418E-3,0E0,0E0,0E0,0E0,1.4432421E-2,1.5527286E-2,6.038077E-3,1.2532026E-2,4.9284287E-3,9.323061E-3,0E0,0E0,0E0,0E0,0E0,0E0,0E0,0E0,0E0,0E0,0E0,0E0,0E0,0E0,0E0,0E0],"parents":[2147483647,0,0,1,1,2,2,3,3,4,4,5,5,6,6,7,7,8,8,11,11,12,12,13,13,14,14,15,15,16,16,21,21,22,22,23,23,24,24,25,25,26,26],"right_children":[2,4,6,8,10,12,14,16,18,-1,-1,20,22,24,26,28,30,-1,-1,-1,-1,32,34,36,38,40,42,-1,-1,-1,-1,-1,-1,-1,-1,-1,-1,-1,-1,-1,-1,-1,-1],"split_conditions":[-8.304332E0,4.57488E0,-6.274997E0,6.28614E0,-5.36681E0,-2.07213E0,9.0313E0,-3.61536E0,2.22284E0,-0E0,8.544369E-4,-7.704286E0,6.6715E0,8.484734E1,5.56857E0,2.389099E3,3.40583E0,-0E0,-1.1327318E-3,-0E0,1.3968279E-3,7.858094E1,-7.021037E0,2.444208E3,7.70993E0,2.3077593E3,3.94827E0,-6.354997E-4,-0E0,6.8448135E-4,-0E0,7.25861E-4,-4.2016135E-4,2.6870807E-4,-3.2851138E-4,5.882831E-4,1.6718466E-3,-1.8605076E-4,8.6894707E-4,-0E0,-7.7053433E-4,-7.399568E-5,8.9373783E-4],"split_indices":[7,2,7,5,3,2,2,2,2,0,0,7,2,0,5,1,2,0,0,0,0,0,7,1,2,1,3,0,0,0,0,0,0,0,0,0,0,0,0,0,0,0,0],"split_type":[0,0,0,0,0,0,0,0,0,0,0,0,0,0,0,0,0,0,0,0,0,0,0,0,0,0,0,0,0,0,0,0,0,0,0,0,0,0,0,0,0,0,0],"sum_hessian":[1.806E3,2.58E2,1.548E3,1.67E2,9.1E1,1.019E3,5.29E2,1.33E2,3.4E1,1E1,8.1E1,2.5E1,9.94E2,2.75E2,2.54E2,2.6E1,1.07E2,1.7E1,1.7E1,1.3E1,1.2E1,5.64E2,4.3E2,1.32E2,1.43E2,1.13E2,1.41E2,1.1E1,1.5E1,8.9E1,1.8E1,2.5E1,5.39E2,2.06E2,2.24E2,1.08E2,2.4E1,1.07E2,3.6E1,5.1E1,6.2E1,1.12E2,2.9E1],"tree_param":{"num_deleted":"0","num_feature":"8","num_nodes":"43","size_leaf_vector":"1"}},{"base_weights":[8.720055E-4,2.3308143E-3,-2.197804E-3,1.8829408E-3,2.0362524E-2,-7.025402E-3,4.0965684E-4,1.0454698E-3,1.4862204E-3,1.6232396E-3,-0E0,-1.0962806E-2,8.15751E-3,4.711628E-3,-8.425174E-3,-2.0657212E-3,3.229161E-3,-2.6172383E-3,-1.4998077E-2,1.2428442E-2,-0E0,1.0190813E-2,-0E0,-1.9843848E-2,-1.4049378E-3,7.331961E-4,-1.7284675E-4,8.3998387E-4,1.1633148E-4,-8.396691E-4,1.2913779E-3,-8.676082E-4,-0E0,-0E0,9.886979E-4,-9.033017E-5,6.918872E-4,-4.3747207E-4,3.6501564E-4,-0E0,-1.2320189E-3,-2.6534786E-4,4.277106E-4],"categories":[],"categories_nodes":[],"categories_segments":[],"categories_sizes":[],"default_left":[0,0,0,0,0,0,0,0,0,0,0,0,0,0,0,0,0,0,0,0,0,0,0,0,0,0,0,0,0,0,0,0,0,0,0,0,0,0,0,0,0,0,0],"id":29,"left_children":[1,3,5,7,9,11,13,-1,15,-1,-1,17,19,21,23,25,27,29,31,33,-1,35,37,39,41,-1,-1,-1,-1,-1,-1,-1,-1,-1,-1,-1,-1,-1,-1,-1,-1,-1,-1],"loss_changes":[8.18678E-3,7.904697E-3,7.789132E-3,7.0513682E-3,3.335705E-3,1.3043582E-2,1.3160893E-2,0E0,7.651056E-3,0E0,0E0,4.0589496E-3,1.729799E-3,6.771354E-3,6.5848785E-3,7.820856E-3,8.275212E-3,2.6143989E-2,3.7844554E-3,1.9310974E-3,0E0,6.391055E-3,8.423594E-3,1.609833E-3,2.59637E-3,0E0,0E0,0E0,0E0,0E0,0E0,0E0,0E0,0E0,0E0,0E0,0E0,0E0,0E0,0E0,0E0,0E0,0E0],"parents":[2147483647,0,0,1,1,2,2,3,3,4,4,5,5,6,6,8,8,11,11,12,12,13,13,14,14,15,15,16,16,17,17,18,18,19,19,21,21,22,22,23,23,24,24],"right_children":[2,4,6,8,10,12,14,-1,16,-1,-1,18,20,22,24,26,28,30,32,34,-1,36,38,40,42,-1,-1,-1,-1,-1,-1,-1,-1,-1,-1,-1,-1,-1,-1,-1,-1,-1,-1],"split_conditions":[1.99632E0,1.437391E1,5.73671E0,5.00012E0,1.668544E1,2.99121E0,2.58032E0,1.0454698E-3,5.56857E0,1.6232396E-3,-0E0,5.51089E0,8.629239E1,6.04709E0,5.48014E0,5.06496E0,5.60211E0,5.3797E0,2.6502083E3,5.03227E0,-0E0,5.79376E0,8.63913E1,2.67949E0,8.49023E1,7.331961E-4,-1.7284675E-4,8.3998387E-4,1.1633148E-4,-8.396691E-4,1.2913779E-3,-8.676082E-4,-0E0,-0E0,9.886979E-4,-9.033017E-5,6.918872E-4,-4.3747207E-4,3.6501564E-4,-0E0,-1.2320189E-3,-2.6534786E-4,4.277106E-4],"split_indices":[6,3,4,5,3,6,6,0,5,0,0,5,0,4,5,4,5,5,1,5,0,4,0,6,0,0,0,0,0,0,0,0,0,0,0,0,0,0,0,0,0,0,0],"split_type":[0,0,0,0,0,0,0,0,0,0,0,0,0,0,0,0,0,0,0,0,0,0,0,0,0,0,0,0,0,0,0,0,0,0,0,0,0,0,0,0,0,0,0],"sum_hessian":[1.823E3,1.258E3,5.65E2,1.234E3,2.4E1,2.11E2,3.54E2,1.9E1,1.215E3,1.2E1,1.2E1,1.73E2,3.8E1,2.46E2,1.08E2,3.81E2,8.34E2,6.5E1,1.08E2,2.7E1,1.1E1,1.17E2,1.29E2,3.5E1,7.3E1,2.3E1,3.58E2,4.4E1,7.9E2,4.6E1,1.9E1,9.3E1,1.5E1,1.2E1,1.5E1,2.1E1,9.6E1,6.1E1,6.8E1,1E1,2.5E1,6E1,1.3E1],"tree_param":{"num_deleted":"0","num_feature":"8","num_nodes":"43","size_leaf_vector":"1"}},{"base_weights":[2.8284188E-4,7.473632E-3,-8.6206675E-4,-7.860386E-3,9.900474E-3,-2.55392E-3,6.430134E-3,-1.4993798E-2,-0E0,1.2910365E-2,-3.3323953E-3,1.1331055E-3,-4.1118455E-3,-2.8856476E-3,1.3242326E-2,-1.3753808E-3,-0E0,9.3701266E-4,7.006657E-3,1.0707473E-3,-9.787325E-4,1.102426E-2,-4.2427164E-3,-1.1260922E-2,-1.220552E-3,3.2890607E-3,-1.3310541E-2,1.5928436E-2,-3.8692539E-4,1.1797507E-3,1.5010686E-4,-0E0,4.0680447E-4,1.0513894E-3,-0E0,-3.2975042E-4,7.3601666E-4,-6.2687707E-4,1.709622E-4,7.552901E-4,-1.1930869E-4,-1.5766114E-4,1.0049175E-3,-1.056115E-3,-0E0,5.280756E-4,1.4347995E-3,3.6302247E-4,-7.2601624E-4],"categories":[],"categories_nodes":[],"categories_segments":[],"categories_sizes":[],"default_left":[0,0,0,0,0,0,0,0,0,0,0,0,0,0,0,0,0,0,0,0,0,0,0,0,0,0,0,0,0,0,0,0,0,0,0,0,0,0,0,0,0,0,0,0,0,0,0,0,0],"id":30,"left_children":[1,3,5,7,9,11,13,15,-1,17,19,21,23,25,27,-1,-1,-1,29,31,-1,33,35,37,39,41,43,45,47,-1,-1,-1,-1,-1,-1,-1,-1,-1,-1,-1,-1,-1,-1,-1,-1,-1,-1,-1,-1],"loss_changes":[1.576655E-2,1.0106124E-2,1.9010752E-2,2.8057385E-3,1.0320924E-2,7.6952046E-3,1.9160233E-2,3.6022626E-3,0E0,4.0743425E-3,4.588994E-3,2.0079931E-2,1.7837264E-2,8.448556E-3,7.820571E-3,0E0,0E0,0E0,4.443717E-3,9.631302E-4,0E0,1.5428945E-2,9.544073E-3,5.7523847E-3,1.1495386E-2,9.013332E-3,3.810889E-3,5.9810244E-3,3.31733E-3,0E0,0E0,0E0,0E0,0E0,0E0,0E0,0E0,0E0,0E0,0E0,0E0,0E0,0E0,0E0,0E0,0E0,0E0,0E0,0E0],"parents":[2147483647,0,0,1,1,2,2,3,3,4,4,5,5,6,6,7,7,9,9,10,10,11,11,12,12,13,13,14,14,18,18,19,19,21,21,22,22,23,23,24,24,25,25,26,26,27,27,28,28],"right_children":[2,4,6,8,10,12,14,16,-1,18,20,22,24,26,28,-1,-1,-1,30,32,-1,34,36,38,40,42,44,46,48,-1,-1,-1,-1,-1,-1,-1,-1,-1,-1,-1,-1,-1,-1,-1,-1,-1,-1,-1,-1],"split_conditions":[-8.304332E0,-3.61536E0,-5.684803E0,6.19858E0,2.35293E0,5.50472E0,5.48014E0,1.23428E0,-0E0,6.00164E0,-3.2472E-1,-7.037277E0,-2.98193E0,1.105257E1,1.492379E1,-1.3753808E-3,-0E0,9.3701266E-4,-1.0064848E1,-5.06111E0,-9.787325E-4,8.387994E1,5.47584E0,2.99121E0,2.1661E0,7.9721E-1,8.594402E1,6.03616E0,6.7929E-1,1.1797507E-3,1.5010686E-4,-0E0,4.0680447E-4,1.0513894E-3,-0E0,-3.2975042E-4,7.3601666E-4,-6.2687707E-4,1.709622E-4,7.552901E-4,-1.1930869E-4,-1.5766114E-4,1.0049175E-3,-1.056115E-3,-0E0,5.280756E-4,1.4347995E-3,3.6302247E-4,-7.2601624E-4],"split_indices":[7,2,7,5,6,5,5,6,0,5,3,7,3,2,2,0,0,0,7,3,0,0,5,6,2,3,0,5,3,0,0,0,0,0,0,0,0,0,0,0,0,0,0,0,0,0,0,0,0],"split_type":[0,0,0,0,0,0,0,0,0,0,0,0,0,0,0,0,0,0,0,0,0,0,0,0,0,0,0,0,0,0,0,0,0,0,0,0,0,0,0,0,0,0,0,0,0,0,0,0,0],"sum_hessian":[1.833E3,2.63E2,1.57E3,3E1,2.33E2,1.286E3,2.84E2,2E1,1E1,1.96E2,3.7E1,3.63E2,9.23E2,1.14E2,1.7E2,1E1,1E1,8.9E1,1.07E2,2.5E1,1.2E1,1.34E2,2.29E2,2.55E2,6.68E2,6.6E1,4.8E1,1.48E2,2.2E1,1.5E1,9.2E1,1.1E1,1.4E1,7.1E1,6.3E1,2.09E2,2E1,2.41E2,1.4E1,3.8E1,6.3E2,4.4E1,2.2E1,2.7E1,2.1E1,1.11E2,3.7E1,1E1,1.2E1],"tree_param":{"num_deleted":"0","num_feature":"8","num_nodes":"49","size_leaf_vector":"1"}},{"base_weights":[-2.5571432E-4,4.8256507E-3,-1.9933924E-3,2.1743702E-3,2.116587E-2,-3.069809E-3,9.05112E-3,-0E0,1.5020827E-2,1.2754095E-3,2.8234953E-4,-4.818931E-3,1.4031552E-3,7.238453E-4,8.0204796E-4,9.091531E-3,-2.6816116E-3,-0E0,1.8043362E-2,-1.9655856E-3,-1.111127E-2,7.927929E-3,-4.5831855E-3,9.447987E-3,-4.490113E-3,-0E0,9.4341807E-4,9.1733746E-5,-5.282749E-4,1.0456532E-3,-0E0,-1.5921453E-4,4.751307E-4,-1.8282425E-4,-7.7450945E-4,5.748302E-4,-7.384417E-4,3.7510946E-4,-4.1835816E-4,7.0589123E-4,-0E0,-8.2213694E-4,-0E0],"categories":[],"categories_nodes":[],"categories_segments":[],"categories_sizes":[],"default_left":[0,0,0,0,0,0,0,0,0,0,0,0,0,0,0,0,0,0,0,0,0,0,0,0,0,0,0,0,0,0,0,0,0,0,0,0,0,0,0,0,0,0,0],"id":31,"left_children":[1,3,5,7,9,11,13,15,17,-1,-1,19,21,-1,23,25,27,-1,29,31,33,35,37,39,41,-1,-1,-1,-1,-1,-1,-1,-1,-1,-1,-1,-1,-1,-1,-1,-1,-1,-1],"loss_changes":[1.595552E-2,1.7288372E-2,1.5895221E-2,1.0758043E-2,6.489381E-4,1.0292338E-2,3.6076298E-3,8.503718E-3,1.0386277E-3,0E0,0E0,1.5367895E-2,1.3729165E-2,0E0,3.0090178E-3,5.4920367E-3,1.0256817E-2,0E0,3.217589E-4,8.511005E-3,7.136341E-3,1.3774117E-2,7.969233E-3,6.896029E-4,2.7000133E-3,0E0,0E0,0E0,0E0,0E0,0E0,0E0,0E0,0E0,0E0,0E0,0E0,0E0,0E0,0E0,0E0,0E0,0E0],"parents":[2147483647,0,0,1,1,2,2,3,3,4,4,5,5,6,6,7,7,8,8,11,11,12,12,14,14,15,15,16,16,18,18,19,19,20,20,21,21,22,22,23,23,24,24],"right_children":[2,4,6,8,10,12,14,16,18,-1,-1,20,22,-1,24,26,28,-1,30,32,34,36,38,40,42,-1,-1,-1,-1,-1,-1,-1,-1,-1,-1,-1,-1,-1,-1,-1,-1,-1,-1],"split_conditions":[-7.807442E0,8.42E0,-5.093671E0,8.534754E1,1.75716E0,8.634859E1,8.58997E1,-9.243338E0,2.07122E0,1.2754095E-3,2.8234953E-4,8.456031E1,8.789083E1,7.238453E-4,2.3234172E3,8.24904E1,-4.2736E-1,-0E0,6.30292E0,-5.639309E0,-2.00339E0,2.41307E0,5.79937E0,1.24403E0,8.760857E1,-0E0,9.4341807E-4,9.1733746E-5,-5.282749E-4,1.0456532E-3,-0E0,-1.5921453E-4,4.751307E-4,-1.8282425E-4,-7.7450945E-4,5.748302E-4,-7.384417E-4,3.7510946E-4,-4.1835816E-4,7.0589123E-4,-0E0,-8.2213694E-4,-0E0],"split_indices":[7,2,7,0,6,0,0,7,2,0,0,0,0,0,1,0,3,0,2,7,3,6,2,6,0,0,0,0,0,0,0,0,0,0,0,0,0,0,0,0,0,0,0],"split_type":[0,0,0,0,0,0,0,0,0,0,0,0,0,0,0,0,0,0,0,0,0,0,0,0,0,0,0,0,0,0,0,0,0,0,0,0,0,0,0,0,0,0,0],"sum_hessian":[1.837E3,4.53E2,1.384E3,3.96E2,5.7E1,1.27E3,1.14E2,3.41E2,5.5E1,3.9E1,1.8E1,9.29E2,3.41E2,6.1E1,5.3E1,7.9E1,2.62E2,1.4E1,4.1E1,6.51E2,2.78E2,1.71E2,1.7E2,2.7E1,2.6E1,4.6E1,3.3E1,1.59E2,1.03E2,3.1E1,1E1,5.97E2,5.4E1,1.12E2,1.66E2,1.52E2,1.9E1,3.4E1,1.36E2,1.5E1,1.2E1,1.1E1,1.5E1],"tree_param":{"num_deleted":"0","num_feature":"8","num_nodes":"43","size_leaf_vector":"1"}},{"base_weights":[1.4653892E-4,9.626283E-3,-7.949082E-4,-0E0,1.1224294E-2,-2.1869647E-3,6.0593206E-3,-4.8230882E-4,3.5264448E-4,2.5101671E-2,7.7802525E-3,-3.7298498E-3,1.0797343E-3,9.44617E-3,-6.137448E-3,1.9423746E-3,-0E0,2.3948292E-4,8.673857E-4,-1.4142193E-3,-8.647242E-3,8.6541084E-4,-7.7699986E-4,-2.0029517E-4,1.6785568E-2,1.579412E-4,-1.4171635E-3,5.634568E-4,-2.1915491E-4,-1.2560352E-4,6.48517E-4,-2.5387187E-4,-7.543374E-4,-3.1005483E-4,2.74354E-4,1.7982988E-4,-6.3076854E-4,1.8925003E-4,9.252347E-4,-6.1243714E-4,4.298892E-4],"categories":[],"categories_nodes":[],"categories_segments":[],"categories_sizes":[],"default_left":[0,0,0,0,0,0,0,0,0,0,0,0,0,0,0,0,0,0,0,0,0,0,0,0,0,0,0,0,0,0,0,0,0,0,0,0,0,0,0,0,0],"id":32,"left_children":[1,3,5,7,9,11,13,-1,-1,15,17,19,21,23,25,-1,-1,27,-1,29,31,-1,33,35,37,39,-1,-1,-1,-1,-1,-1,-1,-1,-1,-1,-1,-1,-1,-1,-1],"loss_changes":[1.712478E-2,3.0259192E-3,1.5331281E-2,1.7135036E-3,3.7812386E-3,7.2294734E-3,1.137694E-2,0E0,0E0,6.005531E-3,7.5439643E-3,9.901627E-3,1.4412396E-2,1.6883727E-2,1.0092313E-2,0E0,0E0,4.7658486E-3,0E0,9.520088E-3,4.642397E-3,0E0,1.2846795E-2,5.0954563E-3,5.61744E-4,3.7192137E-3,0E0,0E0,0E0,0E0,0E0,0E0,0E0,0E0,0E0,0E0,0E0,0E0,0E0,0E0,0E0],"parents":[2147483647,0,0,1,1,2,2,3,3,4,4,5,5,6,6,9,9,10,10,11,11,12,12,13,13,14,14,17,17,19,19,20,20,22,22,23,23,24,24,25,25],"right_children":[2,4,6,8,10,12,14,-1,-1,16,18,20,22,24,26,-1,-1,28,-1,30,32,-1,34,36,38,40,-1,-1,-1,-1,-1,-1,-1,-1,-1,-1,-1,-1,-1,-1,-1],"split_conditions":[-8.653636E0,-3.44043E0,-5.639309E0,8.094593E1,7.902339E1,8.544339E1,1.336402E1,-4.8230882E-4,3.5264448E-4,3.99839E0,3.84477E0,8.387994E1,-7.857646E0,5.47584E0,5.77324E0,1.9423746E-3,-0E0,6.00164E0,8.673857E-4,8.367684E1,-6.618197E0,8.6541084E-4,5.96174E0,6.06494E0,5.4059E0,8.347576E1,-1.4171635E-3,5.634568E-4,-2.1915491E-4,-1.2560352E-4,6.48517E-4,-2.5387187E-4,-7.543374E-4,-3.1005483E-4,2.74354E-4,1.7982988E-4,-6.3076854E-4,1.8925003E-4,9.252347E-4,-6.1243714E-4,4.298892E-4],"split_indices":[7,2,7,0,0,0,2,0,0,2,2,0,7,5,5,0,0,5,0,0,7,0,4,4,4,0,0,0,0,0,0,0,0,0,0,0,0,0,0,0,0],"split_type":[0,0,0,0,0,0,0,0,0,0,0,0,0,0,0,0,0,0,0,0,0,0,0,0,0,0,0,0,0,0,0,0,0,0,0,0,0,0,0,0,0],"sum_hessian":[1.818E3,1.73E2,1.645E3,2.2E1,1.51E2,1.38E3,2.65E2,1.1E1,1.1E1,2.3E1,1.28E2,9.58E2,4.22E2,2.14E2,5.1E1,1.3E1,1E1,7.8E1,5E1,6.66E2,2.92E2,4.8E1,3.74E2,8.7E1,1.27E2,3.7E1,1.4E1,2.9E1,4.9E1,6.26E2,4E1,1.99E2,9.3E1,2.09E2,1.65E2,6.1E1,2.6E1,2.2E1,1.05E2,1E1,2.7E1],"tree_param":{"num_deleted":"0","num_feature":"8","num_nodes":"41","size_leaf_vector":"1"}},{"base_weights":[-2.0777619E-4,-9.0331427E-4,9.327295E-3,3.596981E-3,-2.6783028E-3,7.760054E-4,4.18184E-3,3.0192093E-4,1.0821279E-2,-1.2515249E-3,-7.2594564E-3,5.7823135E-4,-0E0,1.9835614E-2,-7.5253006E-4,1.9415475E-2,4.0576565E-3,-2.8943764E-3,4.63378E-3,4.2601386E-3,-9.730394E-3,-8.911837E-5,3.2768094E-3,1.6369779E-3,-0E0,-1.6526724E-4,5.3706905E-4,-0E0,1.1338685E-3,-1.2786406E-4,7.031697E-4,5.9604477E-5,-2.909364E-4,9.38047E-4,3.370572E-5,-3.8696333E-5,8.4252236E-4,-7.2719203E-4,-7.763324E-5,6.469713E-4,-0E0],"categories":[],"categories_nodes":[],"categories_segments":[],"categories_sizes":[],"default_left":[0,0,0,0,0,0,0,0,0,0,0,0,0,0,0,0,0,0,0,0,0,0,0,0,0,0,0,0,0,0,0,0,0,0,0,0,0,0,0,0,0],"id":33,"left_children":[1,3,5,7,9,-1,11,13,15,17,19,-1,21,23,25,27,29,31,33,35,37,-1,39,-1,-1,-1,-1,-1,-1,-1,-1,-1,-1,-1,-1,-1,-1,-1,-1,-1,-1],"loss_changes":[1.1329126E-2,1.365708E-2,1.6293582E-3,1.009633E-2,7.310177E-3,0E0,1.3982032E-3,8.802741E-3,5.5955574E-3,9.227761E-3,8.558455E-3,0E0,4.3178783E-4,4.206609E-3,8.475891E-3,2.2716988E-3,6.812498E-3,9.707157E-3,9.175674E-3,4.346052E-3,7.7361763E-3,0E0,1.4766417E-3,0E0,0E0,0E0,0E0,0E0,0E0,0E0,0E0,0E0,0E0,0E0,0E0,0E0,0E0,0E0,0E0,0E0,0E0],"parents":[2147483647,0,0,1,1,2,2,3,3,4,4,6,6,7,7,8,8,9,9,10,10,12,12,13,13,14,14,15,15,16,16,17,17,18,18,19,19,20,20,22,22],"right_children":[2,4,6,8,10,-1,12,14,16,18,20,-1,22,24,26,28,30,32,34,36,38,-1,40,-1,-1,-1,-1,-1,-1,-1,-1,-1,-1,-1,-1,-1,-1,-1,-1,-1,-1],"split_conditions":[-5.093671E0,-7.807442E0,9.0313E0,5.94528E0,6.16752E0,7.760054E-4,5.45195E0,-8.18473E0,-1.16772E0,5.94981E0,-7.342447E0,5.7823135E-4,1.144737E1,8.173063E1,8.534754E1,-5.50111E0,8.37465E0,5.45195E0,8.301724E1,8.42E0,8.608866E1,-8.911837E-5,-9.6256E-1,1.6369779E-3,-0E0,-1.6526724E-4,5.3706905E-4,-0E0,1.1338685E-3,-1.2786406E-4,7.031697E-4,5.9604477E-5,-2.909364E-4,9.38047E-4,3.370572E-5,-3.8696333E-5,8.4252236E-4,-7.2719203E-4,-7.763324E-5,6.469713E-4,-0E0],"split_indices":[7,7,2,2,4,0,4,3,3,4,7,0,2,0,0,3,2,4,0,2,0,0,3,0,0,0,0,0,0,0,0,0,0,0,0,0,0,0,0,0,0],"split_type":[0,0,0,0,0,0,0,0,0,0,0,0,0,0,0,0,0,0,0,0,0,0,0,0,0,0,0,0,0,0,0,0,0,0,0,0,0,0,0,0,0],"sum_hessian":[1.833E3,1.719E3,1.14E2,4.7E2,1.249E3,4.2E1,7.2E1,3.33E2,1.37E2,9.7E2,2.79E2,1.9E1,5.3E1,2.1E1,3.12E2,5.3E1,8.4E1,7.72E2,1.98E2,4.2E1,2.37E2,2E1,3.3E1,1.1E1,1E1,2.63E2,4.9E1,1E1,4.3E1,4.5E1,3.9E1,3.08E2,4.64E2,3.7E1,1.61E2,2.5E1,1.7E1,1.41E2,9.6E1,1E1,2.3E1],"tree_param":{"num_deleted":"0","num_feature":"8","num_nodes":"41","size_leaf_vector":"1"}},{"base_weights":[4.665595E-4,6.1606746E-3,-4.3673068E-4,-6.2484224E-3,8.521228E-3,-2.5837054E-3,3.3053537E-3,-0E0,-1.2296821E-2,1.421001E-2,3.942321E-3,2.3302074E-4,-6.0032406E-3,5.777077E-3,-5.9379674E-3,-1.0745052E-3,-0E0,1.9601736E-2,-3.1878985E-4,-6.81946E-3,8.058533E-3,1.9353173E-3,-1.3145539E-2,5.8771167E-3,-8.382645E-3,3.1175506E-3,1.2980417E-2,-0E0,-1.6707983E-2,-0E0,1.092825E-3,-0E0,-8.1685575E-4,-0E0,5.38213E-4,-1.050929E-4,3.449197E-4,2.5248446E-4,-1.0121575E-3,6.159733E-4,-5.5756373E-5,-7.0092257E-4,-2.0034947E-4,3.75347E-4,-7.204015E-5,9.353021E-4,6.8031813E-6,2.5918023E-4,-4.5176386E-4,-0E0,-1.2775682E-3],"categories":[],"categories_nodes":[],"categories_segments":[],"categories_sizes":[],"default_left":[0,0,0,0,0,0,0,0,0,0,0,0,0,0,0,0,0,0,0,0,0,0,0,0,0,0,0,0,0,0,0,0,0,0,0,0,0,0,0,0,0,0,0,0,0,0,0,0,0,0,0],"id":34,"left_children":[1,3,5,7,9,11,13,-1,15,17,19,21,23,25,27,-1,-1,29,-1,31,33,35,37,39,41,43,45,47,49,-1,-1,-1,-1,-1,-1,-1,-1,-1,-1,-1,-1,-1,-1,-1,-1,-1,-1,-1,-1,-1,-1],"loss_changes":[9.920712E-3,8.013704E-3,1.2421461E-2,2.5259666E-3,4.0938295E-3,1.0258474E-2,1.2584027E-2,0E0,3.457685E-3,1.1658929E-2,6.291955E-3,1.1111432E-2,1.3585864E-2,6.8364954E-3,8.195716E-3,0E0,0E0,1.9430742E-3,0E0,2.5153586E-3,2.205099E-3,1.0171932E-2,8.595267E-3,4.377519E-3,7.980762E-3,7.32024E-3,6.129317E-3,2.8408365E-3,6.929553E-3,0E0,0E0,0E0,0E0,0E0,0E0,0E0,0E0,0E0,0E0,0E0,0E0,0E0,0E0,0E0,0E0,0E0,0E0,0E0,0E0,0E0,0E0],"parents":[2147483647,0,0,1,1,2,2,3,3,4,4,5,5,6,6,8,8,9,9,10,10,11,11,12,12,13,13,14,14,17,17,19,19,20,20,21,21,22,22,23,23,24,24,25,25,26,26,27,27,28,28],"right_children":[2,4,6,8,10,12,14,-1,16,18,20,22,24,26,28,-1,-1,30,-1,32,34,36,38,40,42,44,46,48,50,-1,-1,-1,-1,-1,-1,-1,-1,-1,-1,-1,-1,-1,-1,-1,-1,-1,-1,-1,-1,-1,-1],"split_conditions":[-8.278074E0,-3.44043E0,-6.274997E0,-9.333649E0,2.2321418E3,-7.073676E0,6.23793E0,-0E0,1.11219E0,2.19272E0,2.3175098E3,2.66905E3,3.40583E0,5.96174E0,1.173556E1,-1.0745052E-3,-0E0,-2.32522E0,-3.1878985E-4,8.264849E1,8.246395E1,5.85893E0,-7.948138E0,5.83641E0,1.41412E0,8.673E0,-5.55972E0,8.806493E1,1.08251E0,-0E0,1.092825E-3,-0E0,-8.1685575E-4,-0E0,5.38213E-4,-1.050929E-4,3.449197E-4,2.5248446E-4,-1.0121575E-3,6.159733E-4,-5.5756373E-5,-7.0092257E-4,-2.0034947E-4,3.75347E-4,-7.204015E-5,9.353021E-4,6.8031813E-6,2.5918023E-4,-4.5176386E-4,-0E0,-1.2775682E-3],"split_indices":[7,2,7,7,1,7,4,0,6,6,1,1,2,4,2,0,0,6,0,0,0,4,7,4,6,2,7,0,6,0,0,0,0,0,0,0,0,0,0,0,0,0,0,0,0,0,0,0,0,0,0],"split_type":[0,0,0,0,0,0,0,0,0,0,0,0,0,0,0,0,0,0,0,0,0,0,0,0,0,0,0,0,0,0,0,0,0,0,0,0,0,0,0,0,0,0,0,0,0,0,0,0,0,0,0],"sum_hessian":[1.816E3,2.63E2,1.553E3,3.5E1,2.28E2,1.004E3,5.49E2,1E1,2.5E1,9.1E1,1.37E2,5.35E2,4.69E2,4.42E2,1.07E2,1.5E1,1E1,7.6E1,1.5E1,3.1E1,1.06E2,4.82E2,5.3E1,7.1E1,3.98E2,3.34E2,1.08E2,6.5E1,4.2E1,1.1E1,6.5E1,1.7E1,1.4E1,2.8E1,7.8E1,2.55E2,2.27E2,1.1E1,4.2E1,4.4E1,2.7E1,1.63E2,2.35E2,1.81E2,1.53E2,6.9E1,3.9E1,4.7E1,1.8E1,1.4E1,2.8E1],"tree_param":{"num_deleted":"0","num_feature":"8","num_nodes":"51","size_leaf_vector":"1"}},{"base_weights":[4.862351E-4,6.4392197E-3,-4.341172E-4,-0E0,8.7308E-3,-1.2371578E-3,8.7669175E-3,8.659557E-3,-1.117513E-2,-0E0,9.858276E-3,5.8751204E-4,-2.7744619E-3,1.2299508E-2,-0E0,1.7087083E-2,-0E0,-0E0,-1.0809146E-3,1.0939614E-2,-0E0,6.9859526E-3,-2.4985042E-3,-6.456608E-3,9.222974E-4,-0E0,7.720745E-4,-1.9486749E-4,3.3541466E-3,1.5197558E-3,-0E0,3.631154E-4,1.0346508E-3,-1.1340847E-4,3.097086E-4,4.232865E-5,7.2491367E-4,-1.8486884E-4,9.6628955E-4,-2.3774852E-4,-1.0626815E-3,1.6855836E-4,-7.759275E-4,4.374959E-4,-0E0],"categories":[],"categories_nodes":[],"categories_segments":[],"categories_sizes":[],"default_left":[0,0,0,0,0,0,0,0,0,0,0,0,0,0,0,0,0,0,0,0,0,0,0,0,0,0,0,0,0,0,0,0,0,0,0,0,0,0,0,0,0,0,0,0,0],"id":35,"left_children":[1,3,5,7,9,11,13,15,17,-1,19,21,23,25,27,29,-1,-1,-1,31,33,35,37,39,41,-1,-1,-1,43,-1,-1,-1,-1,-1,-1,-1,-1,-1,-1,-1,-1,-1,-1,-1,-1],"loss_changes":[1.0766559E-2,3.6544185E-3,1.1028237E-2,7.0958706E-3,2.8368905E-3,4.3606116E-3,3.3354443E-3,4.07473E-3,2.2041684E-3,0E0,1.3927761E-3,1.3221917E-2,1.18709635E-2,3.0937856E-3,4.8265787E-4,5.6348722E-3,0E0,0E0,0E0,2.685191E-3,5.221482E-4,8.64598E-3,9.654708E-3,8.125121E-3,1.5022694E-2,0E0,0E0,0E0,7.252868E-4,0E0,0E0,0E0,0E0,0E0,0E0,0E0,0E0,0E0,0E0,0E0,0E0,0E0,0E0,0E0,0E0],"parents":[2147483647,0,0,1,1,2,2,3,3,4,4,5,5,6,6,7,7,8,8,10,10,11,11,12,12,13,13,14,14,15,15,19,19,20,20,21,21,22,22,23,23,24,24,28,28],"right_children":[2,4,6,8,10,12,14,16,18,-1,20,22,24,26,28,30,-1,-1,-1,32,34,36,38,40,42,-1,-1,-1,44,-1,-1,-1,-1,-1,-1,-1,-1,-1,-1,-1,-1,-1,-1,-1,-1],"split_conditions":[-8.304332E0,5.25959E0,-5.093671E0,-2.2783E-1,1.864313E3,5.68159E0,8.709742E1,5.02202E0,-9.126386E0,-0E0,6.53012E0,-7.008978E0,-6.840143E0,5.20958E0,-4.6E-1,8.199045E1,-0E0,-0E0,-1.0809146E-3,1.92973E0,2.2169954E3,5.82316E0,5.66067E0,-7.008978E0,6.31925E0,-0E0,7.720745E-4,-1.9486749E-4,5.79376E0,1.5197558E-3,-0E0,3.631154E-4,1.0346508E-3,-1.1340847E-4,3.097086E-4,4.232865E-5,7.2491367E-4,-1.8486884E-4,9.6628955E-4,-2.3774852E-4,-1.0626815E-3,1.6855836E-4,-7.759275E-4,4.374959E-4,-0E0],"split_indices":[7,4,7,3,1,5,0,4,7,0,5,7,7,5,3,0,0,0,0,3,1,4,5,7,4,0,0,0,4,0,0,0,0,0,0,0,0,0,0,0,0,0,0,0,0],"split_type":[0,0,0,0,0,0,0,0,0,0,0,0,0,0,0,0,0,0,0,0,0,0,0,0,0,0,0,0,0,0,0,0,0,0,0,0,0,0,0,0,0,0,0,0,0],"sum_hessian":[1.854E3,2.62E2,1.592E3,7.2E1,1.9E2,1.475E3,1.17E2,4.2E1,3E1,1.2E1,1.78E2,6.45E2,8.3E2,8.1E1,3.6E1,2.4E1,1.8E1,1.8E1,1.2E1,1.56E2,2.2E1,2.2E2,4.25E2,4.29E2,4.01E2,1.7E1,6.4E1,1.3E1,2.3E1,1.3E1,1.1E1,1.22E2,3.4E1,1.1E1,1.1E1,1.29E2,9.1E1,4.08E2,1.7E1,3.92E2,3.7E1,3.55E2,4.6E1,1.2E1,1.1E1],"tree_param":{"num_deleted":"0","num_feature":"8","num_nodes":"45","size_leaf_vector":"1"}},{"base_weights":[-7.7063026E-4,3.6774727E-3,-1.9821785E-3,1.51892835E-2,1.3530973E-3,-3.4999812E-3,4.347237E-3,-0E0,8.9780096E-4,-4.661388E-3,5.9801633E-3,-2.587252E-3,-1.4448323E-2,-1.472552E-3,1.1163755E-2,-0E0,-9.260312E-4,7.546633E-3,-3.4984475E-4,-7.6687317E-3,-6.9688883E-4,-2.4338963E-2,-2.0682162E-3,-4.5289886E-3,2.2056112E-3,4.1012643E-3,1.2314195E-3,6.57392E-4,-1.1385153E-4,8.305477E-4,2.0116114E-4,-1.6531277E-4,-7.801359E-4,4.5056423E-4,-1.2566944E-4,-1.7075631E-3,-0E0,-6.9100846E-4,3.2749705E-4,-3.4341417E-4,-0E0,6.7132374E-4,-0E0,4.910208E-4,-7.9128006E-4],"categories":[],"categories_nodes":[],"categories_segments":[],"categories_sizes":[],"default_left":[0,0,0,0,0,0,0,0,0,0,0,0,0,0,0,0,0,0,0,0,0,0,0,0,0,0,0,0,0,0,0,0,0,0,0,0,0,0,0,0,0,0,0,0,0],"id":36,"left_children":[1,3,5,7,9,11,13,-1,-1,15,17,19,21,23,25,27,-1,29,-1,31,33,35,37,39,41,43,-1,-1,-1,-1,-1,-1,-1,-1,-1,-1,-1,-1,-1,-1,-1,-1,-1,-1,-1],"loss_changes":[9.613571E-3,8.252342E-3,1.3802715E-2,8.5229333E-4,8.9816805E-3,1.00306645E-2,1.1577636E-2,0E0,0E0,7.830435E-3,3.9498E-3,9.695703E-3,7.349612E-3,1.7824909E-3,9.483321E-3,2.6983374E-3,0E0,3.4907209E-3,0E0,7.852662E-3,1.3745298E-2,9.535158E-3,5.0713117E-3,1.503249E-3,1.7494656E-3,1.0039652E-2,0E0,0E0,0E0,0E0,0E0,0E0,0E0,0E0,0E0,0E0,0E0,0E0,0E0,0E0,0E0,0E0,0E0,0E0,0E0],"parents":[2147483647,0,0,1,1,2,2,3,3,4,4,5,5,6,6,9,9,10,10,11,11,12,12,13,13,14,14,15,15,17,17,19,19,20,20,21,21,22,22,23,23,24,24,25,25],"right_children":[2,4,6,8,10,12,14,-1,-1,16,18,20,22,24,26,28,-1,30,-1,32,34,36,38,40,42,44,-1,-1,-1,-1,-1,-1,-1,-1,-1,-1,-1,-1,-1,-1,-1,-1,-1,-1,-1],"split_conditions":[-8.01827E0,5.5959E0,-5.639309E0,2.2191106E3,8.199045E1,2.678464E3,5.56857E0,-0E0,8.9780096E-4,-8.278074E0,2.755526E3,-2.98193E0,2.762888E3,1.72343E0,2.389099E3,-1.0064848E1,-9.260312E-4,-9.277236E0,-3.4984475E-4,-4.19425E0,-1.96158E0,2.38484E0,-7.073676E0,5.4604E0,8.365053E1,2.3378247E3,1.2314195E-3,6.57392E-4,-1.1385153E-4,8.305477E-4,2.0116114E-4,-1.6531277E-4,-7.801359E-4,4.5056423E-4,-1.2566944E-4,-1.7075631E-3,-0E0,-6.9100846E-4,3.2749705E-4,-3.4341417E-4,-0E0,6.7132374E-4,-0E0,4.910208E-4,-7.9128006E-4],"split_indices":[7,5,7,1,0,1,5,0,0,7,1,3,1,3,1,7,0,7,0,3,3,6,7,5,0,1,0,0,0,0,0,0,0,0,0,0,0,0,0,0,0,0,0,0,0],"split_type":[0,0,0,0,0,0,0,0,0,0,0,0,0,0,0,0,0,0,0,0,0,0,0,0,0,0,0,0,0,0,0,0,0,0,0,0,0,0,0,0,0,0,0,0,0],"sum_hessian":[1.813E3,3.7E2,1.443E3,5.4E1,3.16E2,1.177E3,2.66E2,1.3E1,4.1E1,1.28E2,1.88E2,1.096E3,8.1E1,1.36E2,1.3E2,9.8E1,3E1,1.75E2,1.3E1,2.82E2,8.14E2,4E1,4.1E1,8.9E1,4.7E1,9.1E1,3.9E1,1.2E1,8.6E1,4E1,1.35E2,1.91E2,9.1E1,1.19E2,6.95E2,2.8E1,1.2E1,2.2E1,1.9E1,7E1,1.9E1,1E1,3.7E1,7.5E1,1.6E1],"tree_param":{"num_deleted":"0","num_feature":"8","num_nodes":"45","size_leaf_vector":"1"}},{"base_weights":[3.769397E-4,-4.298515E-4,5.1643252E-3,2.6140276E-3,-2.8286346E-3,8.416277E-3,-7.0358505E-3,-5.351327E-5,1.3936189E-2,-6.572377E-3,2.0690337E-3,4.380055E-3,1.1255345E-3,-1.3065704E-2,3.1608125E-4,3.0030888E-3,-4.836587E-3,1.7340451E-2,-6.750915E-4,1.6981787E-3,-9.820972E-3,-4.8284857E-3,7.945123E-3,9.5892465E-3,-7.450451E-4,-2.1361269E-2,-0E0,8.4966235E-4,3.3922006E-5,3.9482777E-4,-4.0529785E-4,3.6207782E-4,1.0396824E-3,1.0388767E-3,-2.0645488E-4,-8.8218006E-4,-3.2336515E-4,-4.930914E-4,5.1906078E-5,2.099335E-3,2.473774E-4,1.6902351E-5,7.2371E-4,2.2833813E-4,-2.7235152E-4,-0E0,-1.5578176E-3,-2.4490568E-4,-0E0],"categories":[],"categories_nodes":[],"categories_segments":[],"categories_sizes":[],"default_left":[0,0,0,0,0,0,0,0,0,0,0,0,0,0,0,0,0,0,0,0,0,0,0,0,0,0,0,0,0,0,0,0,0,0,0,0,0,0,0,0,0,0,0,0,0,0,0,0,0],"id":37,"left_children":[1,3,5,7,9,11,13,15,17,19,21,23,-1,25,-1,27,29,31,-1,33,35,37,39,41,43,45,47,-1,-1,-1,-1,-1,-1,-1,-1,-1,-1,-1,-1,-1,-1,-1,-1,-1,-1,-1,-1,-1,-1],"loss_changes":[7.493685E-3,1.1258723E-2,1.1306087E-2,2.132255E-2,1.6580932E-2,1.0182835E-2,5.0258166E-3,7.917209E-3,1.3041019E-2,1.4531478E-2,1.534629E-2,5.803928E-3,0E0,2.8687534E-3,0E0,8.303186E-3,9.201777E-3,1.300469E-3,0E0,1.6871205E-2,7.312741E-3,5.705777E-3,1.632362E-2,3.0782418E-3,2.2108892E-3,1.6099336E-3,2.6390667E-4,0E0,0E0,0E0,0E0,0E0,0E0,0E0,0E0,0E0,0E0,0E0,0E0,0E0,0E0,0E0,0E0,0E0,0E0,0E0,0E0,0E0,0E0],"parents":[2147483647,0,0,1,1,2,2,3,3,4,4,5,5,6,6,7,7,8,8,9,9,10,10,11,11,13,13,15,15,16,16,17,17,19,19,20,20,21,21,22,22,23,23,24,24,25,25,26,26],"right_children":[2,4,6,8,10,12,14,16,18,20,22,24,-1,26,-1,28,30,32,-1,34,36,38,40,42,44,46,48,-1,-1,-1,-1,-1,-1,-1,-1,-1,-1,-1,-1,-1,-1,-1,-1,-1,-1,-1,-1,-1,-1],"split_conditions":[-5.684803E0,-7.355244E0,1.336402E1,7.66378E0,2.354082E3,5.92889E0,-4.520581E0,-5.1161E-1,2.5460269E3,5.13055E0,5.74969E0,8.87193E0,1.1255345E-3,6.17631E0,3.1608125E-4,2.1330703E3,-9.243338E0,8.42E0,-6.750915E-4,5.50382E0,6.77992E0,-6.596962E0,6.14524E0,-2.03276E0,2.2654922E3,-5.329753E0,2.352237E3,8.4966235E-4,3.3922006E-5,3.9482777E-4,-4.0529785E-4,3.6207782E-4,1.0396824E-3,1.0388767E-3,-2.0645488E-4,-8.8218006E-4,-3.2336515E-4,-4.930914E-4,5.1906078E-5,2.099335E-3,2.473774E-4,1.6902351E-5,7.2371E-4,2.2833813E-4,-2.7235152E-4,-0E0,-1.5578176E-3,-2.4490568E-4,-0E0],"split_indices":[7,7,2,2,1,5,7,3,1,2,2,2,0,4,0,1,7,2,0,4,2,7,2,3,1,7,1,0,0,0,0,0,0,0,0,0,0,0,0,0,0,0,0,0,0,0,0,0,0],"split_type":[0,0,0,0,0,0,0,0,0,0,0,0,0,0,0,0,0,0,0,0,0,0,0,0,0,0,0,0,0,0,0,0,0,0,0,0,0,0,0,0,0,0,0,0,0,0,0,0,0],"sum_hessian":[1.816E3,1.537E3,2.79E2,6.59E2,8.78E2,2.27E2,5.2E1,5.27E2,1.32E2,5.09E2,3.69E2,1.83E2,4.4E1,4.1E1,1.1E1,3.09E2,2.18E2,1.21E2,1.1E1,1.35E2,3.74E2,1.62E2,2.07E2,1E2,8.3E1,2.1E1,2E1,3.7E1,2.72E2,3.8E1,1.8E2,3.9E1,8.2E1,3.5E1,1E2,1.02E2,2.72E2,9.6E1,6.6E1,1.3E1,1.94E2,4.2E1,5.8E1,2.9E1,5.4E1,1E1,1.1E1,1E1,1E1],"tree_param":{"num_deleted":"0","num_feature":"8","num_nodes":"49","size_leaf_vector":"1"}},{"base_weights":[-1.4800389E-4,1.3817357E-2,-7.068571E-4,2.3332367E-2,3.2551992E-3,-1.8218243E-3,2.6192267E-3,1.9648648E-3,-0E0,7.528052E-4,-1.4163868E-4,-8.634261E-3,-5.764748E-4,9.657618E-3,-2.2742024E-3,-0E0,-1.246023E-2,1.0019833E-3,-9.7567437E-4,1.6142671E-3,2.112425E-2,-3.27381E-4,-1.2329122E-3,-2.3748488E-4,2.8652872E-4,-1.8811329E-4,-7.935224E-4,1.7976545E-4,-1.0771232E-4,-3.8424815E-4,4.8635696E-4,1.2407573E-3,-0E0,-4.7369493E-4,1.6096325E-4],"categories":[],"categories_nodes":[],