{"learner":{"attributes":{"scikit_learn":"{\"_estimator_type\": \"regressor\"}"},"feature_names":[],"feature_types":[],"gradient_booster":{"model":{"cats":{"enc":[],"feature_segments":[],"sorted_idx":[]},"gbtree_model_param":{"num_parallel_tree":"1","num_trees":"300"},"iteration_indptr":[0,1,2,3,4,5,6,7,8,9,10,11,12,13,14,15,16,17,18,19,20,21,22,23,24,25,26,27,28,29,30,31,32,33,34,35,36,37,38,39,40,41,42,43,44,45,46,47,48,49,50,51,52,53,54,55,56,57,58,59,60,61,62,63,64,65,66,67,68,69,70,71,72,73,74,75,76,77,78,79,80,81,82,83,84,85,86,87,88,89,90,91,92,93,94,95,96,97,98,99,100,101,102,103,104,105,106,107,108,109,110,111,112,113,114,115,116,117,118,119,120,121,122,123,124,125,126,127,128,129,130,131,132,133,134,135,136,137,138,139,140,141,142,143,144,145,146,147,148,149,150,151,152,153,154,155,156,157,158,159,160,161,162,163,164,165,166,167,168,169,170,171,172,173,174,175,176,177,178,179,180,181,182,183,184,185,186,187,188,189,190,191,192,193,194,195,196,197,198,199,200,201,202,203,204,205,206,207,208,209,210,211,212,213,214,215,216,217,218,219,220,221,222,223,224,225,226,227,228,229,230,231,232,233,234,235,236,237,238,239,240,241,242,243,244,245,246,247,248,249,250,251,252,253,254,255,256,257,258,259,260,261,262,263,264,265,266,267,268,269,270,271,272,273,274,275,276,277,278,279,280,281,282,283,284,285,286,287,288,289,290,291,292,293,294,295,296,297,298,299,300],"tree_info":[0,0,0,0,0,0,0,0,0,0,0,0,0,0,0,0,0,0,0,0,0,0,0,0,0,0,0,0,0,0,0,0,0,0,0,0,0,0,0,0,0,0,0,0,0,0,0,0,0,0,0,0,0,0,0,0,0,0,0,0,0,0,0,0,0,0,0,0,0,0,0,0,0,0,0,0,0,0,0,0,0,0,0,0,0,0,0,0,0,0,0,0,0,0,0,0,0,0,0,0,0,0,0,0,0,0,0,0,0,0,0,0,0,0,0,0,0,0,0,0,0,0,0,0,0,0,0,0,0,0,0,0,0,0,0,0,0,0,0,0,0,0,0,0,0,0,0,0,0,0,0,0,0,0,0,0,0,0,0,0,0,0,0,0,0,0,0,0,0,0,0,0,0,0,0,0,0,0,0,0,0,0,0,0,0,0,0,0,0,0,0,0,0,0,0,0,0,0,0,0,0,0,0,0,0,0,0,0,0,0,0,0,0,0,0,0,0,0,0,0,0,0,0,0,0,0,0,0,0,0,0,0,0,0,0,0,0,0,0,0,0,0,0,0,0,0,0,0,0,0,0,0,0,0,0,0,0,0,0,0,0,0,0,0,0,0,0,0,0,0,0,0,0,0,0,0,0,0,0,0,0,0,0,0,0,0,0,0,0,0,0,0,0,0,0,0,0,0,0,0],"trees":[{"base_weights":[-6.475685E-5,-3.4155352E-3,2.174912E-2,1.7653987E-2,-6.579032E-3,1.4676244E-2,3.179715E-2,2.6057888E-2,1.1649459E-2,-8.020835E-3,1.601315E-3,7.5002746E-3,2.2250751E-2,2.6542058E-2,3.7328098E-2,1.811134E-2,2.940302E-2,1.5364046E-2,-5.664409E-4,-2.2046205E-3,-9.116755E-3,-1.5543521E-3,1.4107746E-2,1.3886473E-2,2.9806215E-3,2.8651213E-2,1.6404347E-2,2.1459278E-2,3.5278574E-2,3.3364676E-2,2.0133818E-3,1.2568312E-3,6.1789894E-4,1.8897447E-3,1.3620956E-3,2.354761E-4,9.891292E-4,-3.2904913E-4,5.893313E-4,2.935638E-4,-3.7161165E-4,-4.8338962E-4,-2.464296E-4,2.2470593E-4,-2.2981284E-4,1.0965719E-3,4.8176578E-4,3.5078588E-4,9.974659E-4,-2.8258652E-4,2.694237E-4,1.1595122E-3,1.6180149E-3,5.773438E-4,1.1155299E-3,1.1840764E-3,4.9104186E-4,1.0873713E-3,1.8854812E-3,1.867928E-3,1.4970427E-3],"categories":[],"categories_nodes":[],"categories_segments":[],"categories_sizes":[],"default_left":[0,0,0,0,0,0,0,0,0,0,0,0,0,0,0,0,0,0,0,0,0,0,0,0,0,0,0,0,0,0,0,0,0,0,0,0,0,0,0,0,0,0,0,0,0,0,0,0,0,0,0,0,0,0,0,0,0,0,0,0,0],"id":0,"left_children":[1,3,5,7,9,11,13,15,17,19,21,23,25,27,29,31,33,35,37,39,41,43,45,47,49,51,53,55,57,59,-1,-1,-1,-1,-1,-1,-1,-1,-1,-1,-1,-1,-1,-1,-1,-1,-1,-1,-1,-1,-1,-1,-1,-1,-1,-1,-1,-1,-1,-1,-1],"loss_changes":[9.908691E0,7.8332458E0,1.2776718E0,7.700043E-1,1.2060237E0,5.730691E-1,2.0916128E-1,1.644435E-1,4.0788507E-1,5.527258E-1,6.052669E-1,1.5563518E-1,1.877358E-1,1.6377664E-1,3.344536E-2,7.285732E-2,7.376933E-2,3.210677E-1,1.543198E-1,5.8250785E-1,1.67202E-1,2.2477305E-1,1.0475397E-1,9.089029E-2,6.657987E-2,4.3299437E-2,7.387555E-2,5.93431E-2,3.9319992E-2,1.3497114E-2,0E0,0E0,0E0,0E0,0E0,0E0,0E0,0E0,0E0,0E0,0E0,0E0,0E0,0E0,0E0,0E0,0E0,0E0,0E0,0E0,0E0,0E0,0E0,0E0,0E0,0E0,0E0,0E0,0E0,0E0,0E0],"parents":[2147483647,0,0,1,1,2,2,3,3,4,4,5,5,6,6,7,7,8,8,9,9,10,10,11,11,12,12,13,13,14,14,15,15,16,16,17,17,18,18,19,19,20,20,21,21,22,22,23,23,24,24,25,25,26,26,27,27,28,28,29,29],"right_children":[2,4,6,8,10,12,14,16,18,20,22,24,26,28,30,32,34,36,38,40,42,44,46,48,50,52,54,56,58,60,-1,-1,-1,-1,-1,-1,-1,-1,-1,-1,-1,-1,-1,-1,-1,-1,-1,-1,-1,-1,-1,-1,-1,-1,-1,-1,-1,-1,-1,-1,-1],"split_conditions":[-4.005864E0,-6.671936E0,-3.443254E0,-7.243389E0,-4.492558E0,5.74731E0,5.70635E0,8.58482E1,6.28947E0,-6.176527E0,6.10281E0,8.972291E1,9.064255E1,-2.891417E0,-3.138115E0,-7.859601E0,-8.018691E0,8.67508E1,9.082019E1,5.81232E0,-4.709446E0,8.896089E1,8.980939E1,5.37729E0,5.1879E0,5.94275E0,6.0588E0,9.298645E1,4.97179E0,9.052674E1,2.0133818E-3,1.2568312E-3,6.1789894E-4,1.8897447E-3,1.3620956E-3,2.354761E-4,9.891292E-4,-3.2904913E-4,5.893313E-4,2.935638E-4,-3.7161165E-4,-4.8338962E-4,-2.464296E-4,2.2470593E-4,-2.2981284E-4,1.0965719E-3,4.8176578E-4,3.5078588E-4,9.974659E-4,-2.8258652E-4,2.694237E-4,1.1595122E-3,1.6180149E-3,5.773438E-4,1.1155299E-3,1.1840764E-3,4.9104186E-4,1.0873713E-3,1.8854812E-3,1.867928E-3,1.4970427E-3],"split_indices":[7,7,7,7,7,5,5,0,5,7,5,0,0,7,7,7,7,0,0,5,7,0,0,5,5,5,5,0,5,0,0,0,0,0,0,0,0,0,0,0,0,0,0,0,0,0,0,0,0,0,0,0,0,0,0,0,0,0,0,0,0],"split_type":[0,0,0,0,0,0,0,0,0,0,0,0,0,0,0,0,0,0,0,0,0,0,0,0,0,0,0,0,0,0,0,0,0,0,0,0,0,0,0,0,0,0,0,0,0,0,0,0,0,0,0,0,0,0,0,0,0,0,0,0,0],"sum_hessian":[1.35585E5,1.17536E5,1.8049E4,1.5339E4,1.02197E5,1.06E4,7.449E3,6.384E3,8.955E3,8.6894E4,1.5303E4,5.451E3,5.149E3,3.832E3,3.617E3,1.902E3,4.482E3,6.873E3,2.082E3,1.3792E4,7.3102E4,1.2214E4,3.089E3,2.249E3,3.202E3,2.448E3,2.701E3,2.432E3,1.4E3,1.56E3,2.057E3,8.47E2,1.055E3,9.05E2,3.577E3,2.022E3,4.851E3,1.406E3,6.76E2,5.412E3,8.38E3,6.458E4,8.522E3,4.076E3,8.138E3,1.114E3,1.975E3,1.063E3,1.186E3,6.89E2,2.513E3,1.004E3,1.444E3,1.493E3,1.208E3,2.034E3,3.98E2,2.21E2,1.179E3,7.02E2,8.58E2],"tree_param":{"num_deleted":"0","num_feature":"8","num_nodes":"61","size_leaf_vector":"1"}},{"base_weights":[1.099266E-4,-3.0871863E-3,2.1003775E-2,1.652659E-2,-6.0433247E-3,1.3496065E-2,2.9361678E-2,2.431164E-2,1.0159441E-2,-7.4386857E-3,1.549075E-3,8.535274E-3,2.2005508E-2,2.4246834E-2,3.5034344E-2,1.7973853E-2,3.1893257E-2,1.3918404E-2,-4.1593127E-3,-9.1602677E-4,-8.351647E-3,-2.0486866E-3,1.2361658E-2,1.7709792E-2,1.9238994E-3,2.8498793E-2,1.300558E-2,1.7917493E-2,3.1898014E-2,3.8344003E-2,3.004893E-2,1.1205297E-3,4.6872935E-4,1.766934E-3,1.0539107E-3,3.2775066E-4,1.326617E-3,-7.346684E-4,1.0400163E-4,2.4252711E-4,-4.2357724E-4,-2.3244717E-4,-4.981147E-4,3.274569E-4,-4.0331492E-4,1.4052021E-3,3.5206738E-4,2.2027122E-4,1.218756E-3,-4.035759E-4,2.4585193E-4,1.8770518E-3,1.2367548E-3,1.9193832E-4,1.0811024E-3,1.1766783E-3,2.4266161E-4,8.6063537E-4,1.7221812E-3,1.9812675E-3,1.7494513E-3,1.1934427E-3,1.7953478E-3],"categories":[],"categories_nodes":[],"categories_segments":[],"categories_sizes":[],"default_left":[0,0,0,0,0,0,0,0,0,0,0,0,0,0,0,0,0,0,0,0,0,0,0,0,0,0,0,0,0,0,0,0,0,0,0,0,0,0,0,0,0,0,0,0,0,0,0,0,0,0,0,0,0,0,0,0,0,0,0,0,0,0,0],"id":1,"left_children":[1,3,5,7,9,11,13,15,17,19,21,23,25,27,29,31,33,35,37,39,41,43,45,47,49,51,53,55,57,59,61,-1,-1,-1,-1,-1,-1,-1,-1,-1,-1,-1,-1,-1,-1,-1,-1,-1,-1,-1,-1,-1,-1,-1,-1,-1,-1,-1,-1,-1,-1,-1,-1],"loss_changes":[9.098813E0,6.846959E0,1.1296263E0,7.6288414E-1,1.0880041E0,3.990959E-1,2.4121141E-1,3.2839203E-1,4.5939606E-1,5.154662E-1,6.2055653E-1,3.6375934E-1,2.0013261E-1,2.1270728E-1,5.8685303E-2,1.4140093E-1,1.11213446E-1,6.2355924E-1,1.17363304E-1,4.649403E-1,4.5207644E-1,6.181159E-1,3.2988125E-1,2.2039425E-1,1.0479512E-1,6.1827302E-2,1.1395362E-1,1.7871082E-1,7.020378E-2,1.5251637E-3,5.2140236E-2,0E0,0E0,0E0,0E0,0E0,0E0,0E0,0E0,0E0,0E0,0E0,0E0,0E0,0E0,0E0,0E0,0E0,0E0,0E0,0E0,0E0,0E0,0E0,0E0,0E0,0E0,0E0,0E0,0E0,0E0,0E0,0E0],"parents":[2147483647,0,0,1,1,2,2,3,3,4,4,5,5,6,6,7,7,8,8,9,9,10,10,11,11,12,12,13,13,14,14,15,15,16,16,17,17,18,18,19,19,20,20,21,21,22,22,23,23,24,24,25,25,26,26,27,27,28,28,29,29,30,30],"right_children":[2,4,6,8,10,12,14,16,18,20,22,24,26,28,30,32,34,36,38,40,42,44,46,48,50,52,54,56,58,60,62,-1,-1,-1,-1,-1,-1,-1,-1,-1,-1,-1,-1,-1,-1,-1,-1,-1,-1,-1,-1,-1,-1,-1,-1,-1,-1,-1,-1,-1,-1,-1,-1],"split_conditions":[-4.005864E0,-6.671936E0,-3.52358E0,-7.19541E0,-4.506168E0,5.875E0,5.72456E0,1.405993E1,6.33873E0,-6.271653E0,6.0402E0,1.646977E1,2.003722E1,-3.069023E0,2.038454E1,-7.478252E0,6.49059E0,1.572643E1,1.630206E1,6.01313E0,1.464257E1,1.63891E1,1.732308E1,5.1879E0,5.37729E0,1.650902E1,6.12348E0,1.890174E1,4.94473E0,2.3359683E3,-3.138115E0,1.1205297E-3,4.6872935E-4,1.766934E-3,1.0539107E-3,3.2775066E-4,1.326617E-3,-7.346684E-4,1.0400163E-4,2.4252711E-4,-4.2357724E-4,-2.3244717E-4,-4.981147E-4,3.274569E-4,-4.0331492E-4,1.4052021E-3,3.5206738E-4,2.2027122E-4,1.218756E-3,-4.035759E-4,2.4585193E-4,1.8770518E-3,1.2367548E-3,1.9193832E-4,1.0811024E-3,1.1766783E-3,2.4266161E-4,8.6063537E-4,1.7221812E-3,1.9812675E-3,1.7494513E-3,1.1934427E-3,1.7953478E-3],"split_indices":[7,7,7,7,7,5,5,2,5,7,5,2,2,7,2,7,5,2,2,5,2,2,2,5,5,2,5,2,5,1,7,0,0,0,0,0,0,0,0,0,0,0,0,0,0,0,0,0,0,0,0,0,0,0,0,0,0,0,0,0,0,0,0],"split_type":[0,0,0,0,0,0,0,0,0,0,0,0,0,0,0,0,0,0,0,0,0,0,0,0,0,0,0,0,0,0,0,0,0,0,0,0,0,0,0,0,0,0,0,0,0,0,0,0,0,0,0,0,0,0,0,0,0,0,0,0,0,0,0],"sum_hessian":[1.36181E5,1.18105E5,1.8076E4,1.5464E4,1.02641E5,9.53E3,8.546E3,6.949E3,8.515E3,8.6717E4,1.5924E4,6.029E3,3.501E3,4.506E3,4.04E3,3.794E3,3.155E3,6.75E3,1.765E3,1.0661E4,7.6056E4,1.1942E4,3.982E3,2.518E3,3.511E3,2.026E3,1.475E3,2.475E3,2.031E3,2.412E3,1.628E3,2.494E3,1.3E3,2.384E3,7.71E2,4.268E3,2.482E3,6.62E2,1.103E3,6.039E3,4.622E3,2.3075E4,5.2981E4,4.91E3,7.032E3,1E3,2.982E3,8.46E2,1.672E3,8.01E2,2.71E3,5.85E2,1.441E3,7.21E2,7.54E2,1.725E3,7.5E2,3.07E2,1.724E3,1.716E3,6.96E2,8.03E2,8.25E2],"tree_param":{"num_deleted":"0","num_feature":"8","num_nodes":"63","size_leaf_vector":"1"}},{"base_weights":[-5.709507E-5,-3.0539418E-3,1.9425575E-2,1.5799996E-2,-5.886528E-3,1.4117805E-2,3.0628787E-2,2.3736939E-2,1.0916703E-2,-7.198173E-3,1.5212027E-3,1.9797716E-2,1.02171665E-2,2.828659E-2,3.682366E-2,1.4363975E-2,2.8848063E-2,3.7778632E-3,1.7718159E-2,-1.0659444E-3,-8.048198E-3,5.920508E-3,-5.6465482E-3,2.2873249E-2,1.4535144E-2,1.4853281E-2,5.26905E-3,3.0325452E-2,2.1863442E-2,1.3262344E-2,3.7129227E-2,1.1812606E-3,5.5168086E-4,3.741676E-4,1.4844415E-3,-8.9983834E-5,3.2804158E-4,4.824004E-4,1.1974558E-3,-2.4263386E-4,2.722876E-4,-2.343809E-4,-4.8453407E-4,5.5043114E-4,1.5047939E-4,2.3577863E-5,-4.0878757E-4,-2.8675256E-4,1.1813227E-3,8.951006E-4,2.9236823E-4,5.9744174E-4,1.1361609E-3,9.592882E-5,6.2066445E-4,-4.1660757E-4,1.5368639E-3,1.2197858E-3,7.08566E-4,-0E0,1.0201745E-3,1.9519828E-3,1.7091141E-3],"categories":[],"categories_nodes":[],"categories_segments":[],"categories_sizes":[],"default_left":[0,0,0,0,0,0,0,0,0,0,0,0,0,0,0,0,0,0,0,0,0,0,0,0,0,0,0,0,0,0,0,0,0,0,0,0,0,0,0,0,0,0,0,0,0,0,0,0,0,0,0,0,0,0,0,0,0,0,0,0,0,0,0],"id":2,"left_children":[1,3,5,7,9,11,13,15,17,19,21,23,25,27,29,31,33,35,37,39,41,43,45,47,49,51,53,55,57,59,61,-1,-1,-1,-1,-1,-1,-1,-1,-1,-1,-1,-1,-1,-1,-1,-1,-1,-1,-1,-1,-1,-1,-1,-1,-1,-1,-1,-1,-1,-1,-1,-1],"loss_changes":[7.9401054E0,6.295119E0,1.0731168E0,5.929222E-1,9.964812E-1,2.6950574E-1,7.6907635E-2,2.7575636E-1,4.609934E-1,4.5304585E-1,4.859232E-1,7.685292E-2,1.656012E-1,4.9644947E-2,5.858183E-3,6.027311E-2,6.397748E-2,7.286755E-2,2.4169838E-1,2.617863E-1,4.2062998E-1,1.4011467E-1,9.132774E-2,6.962824E-2,5.1897198E-2,8.227521E-2,8.3469994E-2,5.3504705E-2,1.5996844E-2,1.2550997E-3,1.0919571E-4,0E0,0E0,0E0,0E0,0E0,0E0,0E0,0E0,0E0,0E0,0E0,0E0,0E0,0E0,0E0,0E0,0E0,0E0,0E0,0E0,0E0,0E0,0E0,0E0,0E0,0E0,0E0,0E0,0E0,0E0,0E0,0E0],"parents":[2147483647,0,0,1,1,2,2,3,3,4,4,5,5,6,6,7,7,8,8,9,9,10,10,11,11,12,12,13,13,14,14,15,15,16,16,17,17,18,18,19,19,20,20,21,21,22,22,23,23,24,24,25,25,26,26,27,27,28,28,29,29,30,30],"right_children":[2,4,6,8,10,12,14,16,18,20,22,24,26,28,30,32,34,36,38,40,42,44,46,48,50,52,54,56,58,60,62,-1,-1,-1,-1,-1,-1,-1,-1,-1,-1,-1,-1,-1,-1,-1,-1,-1,-1,-1,-1,-1,-1,-1,-1,-1,-1,-1,-1,-1,-1,-1,-1],"split_conditions":[-4.005864E0,-6.671936E0,-3.31091E0,-7.295807E0,-4.492558E0,1.732308E1,-2.651668E0,1.057725E1,1.464257E1,-6.271653E0,1.886135E1,9.125605E1,9.082019E1,2.059737E1,4.29004E0,-8.237862E0,8.100116E1,8.669436E1,8.878091E1,9.000131E1,1.495639E1,8.916103E1,8.896089E1,4.89111E0,6.40654E0,-3.558728E0,-3.594426E0,3.50012E0,9.225166E1,-2.13921E0,2.2969375E3,1.1812606E-3,5.5168086E-4,3.741676E-4,1.4844415E-3,-8.9983834E-5,3.2804158E-4,4.824004E-4,1.1974558E-3,-2.4263386E-4,2.722876E-4,-2.343809E-4,-4.8453407E-4,5.5043114E-4,1.5047939E-4,2.3577863E-5,-4.0878757E-4,-2.8675256E-4,1.1813227E-3,8.951006E-4,2.9236823E-4,5.9744174E-4,1.1361609E-3,9.592882E-5,6.2066445E-4,-4.1660757E-4,1.5368639E-3,1.2197858E-3,7.08566E-4,-0E0,1.0201745E-3,1.9519828E-3,1.7091141E-3],"split_indices":[7,7,7,7,7,2,7,2,2,7,2,0,0,2,2,7,0,0,0,0,2,0,0,2,4,7,7,2,0,7,1,0,0,0,0,0,0,0,0,0,0,0,0,0,0,0,0,0,0,0,0,0,0,0,0,0,0,0,0,0,0,0,0],"split_type":[0,0,0,0,0,0,0,0,0,0,0,0,0,0,0,0,0,0,0,0,0,0,0,0,0,0,0,0,0,0,0,0,0,0,0,0,0,0,0,0,0,0,0,0,0,0,0,0,0,0,0,0,0,0,0,0,0,0,0,0,0,0,0],"sum_hessian":[1.36018E5,1.1789E5,1.8128E4,1.5393E4,1.02497E5,1.2308E4,5.82E3,5.854E3,9.539E3,8.709E4,1.5407E4,4.999E3,7.309E3,4.239E3,1.581E3,2.074E3,3.78E3,4.662E3,4.877E3,1.0617E4,7.6473E4,9.556E3,5.851E3,3.141E3,1.858E3,3.762E3,3.547E3,3.203E3,1.036E3,2.5E1,1.556E3,5.39E2,1.535E3,1.48E2,3.632E3,1.54E3,3.122E3,2.133E3,2.744E3,6.723E3,3.894E3,2.5127E4,5.1346E4,3.464E3,6.092E3,1.7E3,4.151E3,7.7E1,3.064E3,1.33E3,5.28E2,2.759E3,1.003E3,2.425E3,1.122E3,3.1E1,3.172E3,7.68E2,2.68E2,1.2E1,1.3E1,9.16E2,6.4E2],"tree_param":{"num_deleted":"0","num_feature":"8","num_nodes":"63","size_leaf_vector":"1"}},{"base_weights":[9.285298E-6,-2.8726803E-3,1.8845793E-2,1.5776679E-2,-5.436223E-3,1.21178115E-2,2.6440112E-2,2.2448575E-2,1.0431602E-2,-6.361442E-3,4.106733E-3,7.618423E-3,2.223428E-2,2.1602327E-2,3.1980984E-2,1.25981225E-2,2.4601826E-2,1.4142271E-2,-8.9865515E-4,1.2148987E-3,-7.103976E-3,-5.716923E-4,1.3260398E-2,1.5398208E-2,3.8900317E-3,2.8772578E-2,1.7553834E-2,1.7135875E-2,3.081427E-2,2.9011572E-2,1.751592E-3,8.613292E-4,1.7158967E-4,1.3804463E-3,9.404823E-4,2.317443E-4,9.136756E-4,-3.5400875E-4,6.4464746E-4,-1.8955143E-4,4.4417684E-4,-3.9828895E-4,-1.4964472E-4,2.2639908E-4,-2.1479822E-4,1.074396E-3,4.3879217E-4,4.364259E-4,1.1184124E-3,-5.8555423E-5,3.900401E-4,1.6706614E-3,1.319005E-3,7.5743475E-4,1.4816256E-3,1.1383573E-3,5.1960064E-4,8.8702806E-4,1.6474876E-3,1.5078478E-3,9.223151E-4],"categories":[],"categories_nodes":[],"categories_segments":[],"categories_sizes":[],"default_left":[0,0,0,0,0,0,0,0,0,0,0,0,0,0,0,0,0,0,0,0,0,0,0,0,0,0,0,0,0,0,0,0,0,0,0,0,0,0,0,0,0,0,0,0,0,0,0,0,0,0,0,0,0,0,0,0,0,0,0,0,0],"id":3,"left_children":[1,3,5,7,9,11,13,15,17,19,21,23,25,27,29,31,33,35,37,39,41,43,45,47,49,51,53,55,57,59,-1,-1,-1,-1,-1,-1,-1,-1,-1,-1,-1,-1,-1,-1,-1,-1,-1,-1,-1,-1,-1,-1,-1,-1,-1,-1,-1,-1,-1,-1,-1],"loss_changes":[7.3671985E0,5.6247644E0,9.159832E-1,5.0344586E-1,9.137075E-1,4.3190563E-1,2.2051144E-1,1.2989306E-1,3.336016E-1,5.31229E-1,3.9248046E-1,1.9014752E-1,8.4679484E-2,1.808567E-1,2.816391E-2,4.6367973E-2,8.492279E-2,2.3171711E-1,1.65242E-1,3.233146E-1,3.0327654E-1,1.146924E-1,1.110543E-1,9.603995E-2,8.950291E-2,6.6177845E-3,4.5098662E-2,1.12541795E-1,3.5359025E-2,1.894331E-2,0E0,0E0,0E0,0E0,0E0,0E0,0E0,0E0,0E0,0E0,0E0,0E0,0E0,0E0,0E0,0E0,0E0,0E0,0E0,0E0,0E0,0E0,0E0,0E0,0E0,0E0,0E0,0E0,0E0,0E0,0E0],"parents":[2147483647,0,0,1,1,2,2,3,3,4,4,5,5,6,6,7,7,8,8,9,9,10,10,11,11,12,12,13,13,14,14,15,15,16,16,17,17,18,18,19,19,20,20,21,21,22,22,23,23,24,24,25,25,26,26,27,27,28,28,29,29],"right_children":[2,4,6,8,10,12,14,16,18,20,22,24,26,28,30,32,34,36,38,40,42,44,46,48,50,52,54,56,58,60,-1,-1,-1,-1,-1,-1,-1,-1,-1,-1,-1,-1,-1,-1,-1,-1,-1,-1,-1,-1,-1,-1,-1,-1,-1,-1,-1,-1,-1,-1,-1],"split_conditions":[-4.005864E0,-6.721981E0,-3.52358E0,-7.243389E0,-4.314365E0,5.9387E0,5.72932E0,8.40602E1,6.2817E0,-6.374446E0,5.92971E0,8.907433E1,9.034761E1,-2.891417E0,-3.138115E0,-7.632742E0,6.23307E0,8.680353E1,9.094359E1,8.975341E1,-4.709446E0,8.961257E1,8.972291E1,5.51879E0,5.51268E0,5.75329E0,6.40726E0,9.064255E1,4.97179E0,9.433831E1,1.751592E-3,8.613292E-4,1.7158967E-4,1.3804463E-3,9.404823E-4,2.317443E-4,9.136756E-4,-3.5400875E-4,6.4464746E-4,-1.8955143E-4,4.4417684E-4,-3.9828895E-4,-1.4964472E-4,2.2639908E-4,-2.1479822E-4,1.074396E-3,4.3879217E-4,4.364259E-4,1.1184124E-3,-5.8555423E-5,3.900401E-4,1.6706614E-3,1.319005E-3,7.5743475E-4,1.4816256E-3,1.1383573E-3,5.1960064E-4,8.8702806E-4,1.6474876E-3,1.5078478E-3,9.223151E-4],"split_indices":[7,7,7,7,7,5,5,0,5,7,5,0,0,7,7,7,5,0,0,0,7,0,0,5,5,4,5,0,5,0,0,0,0,0,0,0,0,0,0,0,0,0,0,0,0,0,0,0,0,0,0,0,0,0,0,0,0,0,0,0,0],"split_type":[0,0,0,0,0,0,0,0,0,0,0,0,0,0,0,0,0,0,0,0,0,0,0,0,0,0,0,0,0,0,0,0,0,0,0,0,0,0,0,0,0,0,0,0,0,0,0,0,0,0,0,0,0,0,0,0,0,0,0,0,0],"sum_hessian":[1.35679E5,1.17671E5,1.8008E4,1.4215E4,1.03456E5,9.557E3,8.451E3,6.313E3,7.902E3,9.4322E4,9.134E3,6.623E3,2.934E3,4.524E3,3.927E3,1.142E3,5.171E3,5.959E3,1.943E3,8.407E3,8.5915E4,6.038E3,3.096E3,2.136E3,4.487E3,1.213E3,1.721E3,3.056E3,1.468E3,2.012E3,1.915E3,7.51E2,3.91E2,3.39E3,1.781E3,1.813E3,4.146E3,1.347E3,5.96E2,5.079E3,3.328E3,7.1005E4,1.491E4,2.537E3,3.501E3,1.083E3,2.013E3,1.1E3,1.036E3,1.945E3,2.542E3,3.94E2,8.19E2,1.444E3,2.77E2,1.656E3,1.4E3,2.14E2,1.254E3,1.805E3,2.07E2],"tree_param":{"num_deleted":"0","num_feature":"8","num_nodes":"61","size_leaf_vector":"1"}},{"base_weights":[2.3573051E-5,9.4250776E-4,-2.000085E-3,7.635093E-3,8.343164E-4,-1.8275734E-3,-8.667335E-3,1.110549E-2,3.321585E-3,3.516914E-4,1.8092963E-3,-1.3333153E-3,-3.351735E-3,-9.668961E-3,7.2851568E-3,1.2723619E-2,-3.2248183E-3,-1.5548224E-3,6.309103E-3,1.7196717E-3,-1.306834E-5,2.256151E-3,-3.1016194E-4,-3.40419E-3,-8.3440176E-4,-2.7861642E-3,-8.012683E-3,-1.0456495E-2,-1.3938427E-3,-3.6851648E-4,1.5075696E-2,6.955161E-4,-0E0,5.2598555E-4,-7.028484E-4,-4.259279E-4,2.3552099E-4,5.5555505E-4,-0E0,2.816475E-4,7.06356E-5,2.234377E-5,-5.6627505E-5,1.03162914E-4,3.3669104E-4,5.8436405E-4,-3.9596496E-5,-1.3036917E-4,-3.965525E-4,3.0407706E-5,-8.827154E-5,3.634578E-5,-1.7198797E-4,-5.3919875E-4,-4.2612028E-5,-8.016907E-4,-4.2198627E-4,6.766754E-4,-5.474332E-4,1.3952638E-3,-0E0],"categories":[],"categories_nodes":[],"categories_segments":[],"categories_sizes":[],"default_left":[0,0,0,0,0,0,0,0,0,0,0,0,0,0,0,0,0,0,0,0,0,0,0,0,0,0,0,0,0,0,0,0,0,0,0,0,0,0,0,0,0,0,0,0,0,0,0,0,0,0,0,0,0,0,0,0,0,0,0,0,0],"id":4,"left_children":[1,3,5,7,9,11,13,15,17,19,21,23,25,27,29,31,33,35,37,39,41,43,45,47,49,51,53,55,57,-1,59,-1,-1,-1,-1,-1,-1,-1,-1,-1,-1,-1,-1,-1,-1,-1,-1,-1,-1,-1,-1,-1,-1,-1,-1,-1,-1,-1,-1,-1,-1],"loss_changes":[2.5269333E-1,6.6864796E-2,4.7724113E-2,2.0570599E-2,4.309784E-2,3.0688494E-2,1.716607E-2,1.9611105E-2,1.0260606E-2,3.092906E-2,2.8996311E-2,3.189864E-2,2.5467008E-2,5.3108037E-3,7.3895752E-3,1.1012793E-2,1.1816694E-2,1.1022906E-2,1.280023E-2,1.49441585E-2,2.5097778E-2,2.0832166E-2,2.9305093E-2,2.0693913E-2,3.4033127E-2,2.095963E-2,2.007977E-2,7.5519234E-3,1.4009878E-2,0E0,1.0700699E-2,0E0,0E0,0E0,0E0,0E0,0E0,0E0,0E0,0E0,0E0,0E0,0E0,0E0,0E0,0E0,0E0,0E0,0E0,0E0,0E0,0E0,0E0,0E0,0E0,0E0,0E0,0E0,0E0,0E0,0E0],"parents":[2147483647,0,0,1,1,2,2,3,3,4,4,5,5,6,6,7,7,8,8,9,9,10,10,11,11,12,12,13,13,14,14,15,15,16,16,17,17,18,18,19,19,20,20,21,21,22,22,23,23,24,24,25,25,26,26,27,27,28,28,30,30],"right_children":[2,4,6,8,10,12,14,16,18,20,22,24,26,28,30,32,34,36,38,40,42,44,46,48,50,52,54,56,58,-1,60,-1,-1,-1,-1,-1,-1,-1,-1,-1,-1,-1,-1,-1,-1,-1,-1,-1,-1,-1,-1,-1,-1,-1,-1,-1,-1,-1,-1,-1,-1],"split_conditions":[1.877891E1,1.7228706E3,2.499706E1,8.599652E1,9.085147E1,1.56399E0,6.57854E0,1.668253E1,8.761426E1,1.106638E1,2.19658E0,-1.19137E0,6.65811E0,2.4317961E3,5.5965E-1,1.740477E1,8.212698E1,5.97007E0,1.207276E1,5.0942E0,1.63151E0,9.601108E1,1.9666287E3,2.219395E1,7.941E-1,6.13272E0,2.3527522E3,5.60046E0,5.70093E0,-3.6851648E-4,2.2913684E3,6.955161E-4,-0E0,5.2598555E-4,-7.028484E-4,-4.259279E-4,2.3552099E-4,5.5555505E-4,-0E0,2.816475E-4,7.06356E-5,2.234377E-5,-5.6627505E-5,1.03162914E-4,3.3669104E-4,5.8436405E-4,-3.9596496E-5,-1.3036917E-4,-3.965525E-4,3.0407706E-5,-8.827154E-5,3.634578E-5,-1.7198797E-4,-5.3919875E-4,-4.2612028E-5,-8.016907E-4,-4.2198627E-4,6.766754E-4,-5.474332E-4,1.3952638E-3,-0E0],"split_indices":[2,1,2,0,0,6,4,2,0,2,6,6,4,1,6,3,0,4,3,4,6,0,1,2,6,3,1,4,4,0,1,0,0,0,0,0,0,0,0,0,0,0,0,0,0,0,0,0,0,0,0,0,0,0,0,0,0,0,0,0,0],"split_type":[0,0,0,0,0,0,0,0,0,0,0,0,0,0,0,0,0,0,0,0,0,0,0,0,0,0,0,0,0,0,0,0,0,0,0,0,0,0,0,0,0,0,0,0,0,0,0,0,0,0,0,0,0,0,0,0,0,0,0,0,0],"sum_hessian":[1.3594E5,9.3522E4,4.2418E4,1.472E3,9.205E4,4.1364E4,1.054E3,8.02E2,6.7E2,6.1641E4,3.0409E4,3.1286E4,1.0078E4,9.98E2,5.6E1,7.27E2,7.5E1,2.42E2,4.28E2,1.3033E4,4.8608E4,2.5153E4,5.256E3,6.034E3,2.5252E4,9.008E3,1.07E3,9E2,9.8E1,1.5E1,4.1E1,6.65E2,6.2E1,2.9E1,4.6E1,1.22E2,1.2E2,2.41E2,1.87E2,9.23E2,1.211E4,3.439E4,1.4218E4,2.4137E4,1.016E3,1.94E2,5.062E3,5.151E3,8.83E2,9.863E3,1.5389E4,1.389E3,7.619E3,7.61E2,3.09E2,2.24E2,6.76E2,3.4E1,6.4E1,2.5E1,1.6E1],"tree_param":{"num_deleted":"0","num_feature":"8","num_nodes":"61","size_leaf_vector":"1"}},{"base_weights":[-3.9274142E-5,-2.706104E-3,1.8030027E-2,1.48188695E-2,-5.1328638E-3,1.1308743E-2,2.5218142E-2,2.1335907E-2,9.548939E-3,-5.975806E-3,5.0191274E-3,6.0108593E-3,1.7994914E-2,2.0441746E-2,3.0655434E-2,1.55657735E-2,2.7673168E-2,2.6347598E-3,1.6235877E-2,-4.90118E-4,-6.7313896E-3,2.2451987E-4,1.3676691E-2,1.3119729E-2,-2.4007754E-3,2.507188E-2,8.962832E-3,1.3440535E-2,2.5603268E-2,3.344115E-2,2.6107397E-2,1.069967E-3,4.528217E-4,1.4629004E-3,5.0046045E-4,6.3641666E-4,-2.8631915E-4,1.2116926E-3,1.0637749E-4,3.305253E-4,-3.3195407E-4,-1.9747627E-4,-4.4427492E-4,3.8391183E-4,-3.0689468E-4,1.2096615E-3,3.473996E-4,3.8779817E-5,9.734194E-4,1.4231532E-4,-4.650411E-4,1.6042795E-3,9.84137E-4,1.1845889E-4,8.864586E-4,1.0055095E-3,7.020932E-5,7.5016613E-4,1.3837349E-3,1.7563915E-3,1.5524797E-3,1.133891E-3,1.6565577E-3],"categories":[],"categories_nodes":[],"categories_segments":[],"categories_sizes":[],"default_left":[0,0,0,0,0,0,0,0,0,0,0,0,0,0,0,0,0,0,0,0,0,0,0,0,0,0,0,0,0,0,0,0,0,0,0,0,0,0,0,0,0,0,0,0,0,0,0,0,0,0,0,0,0,0,0,0,0,0,0,0,0,0,0],"id":5,"left_children":[1,3,5,7,9,11,13,15,17,19,21,23,25,27,29,31,33,35,37,39,41,43,45,47,49,51,53,55,57,59,61,-1,-1,-1,-1,-1,-1,-1,-1,-1,-1,-1,-1,-1,-1,-1,-1,-1,-1,-1,-1,-1,-1,-1,-1,-1,-1,-1,-1,-1,-1,-1,-1],"loss_changes":[6.542317E0,5.031935E0,8.3961344E-1,4.908886E-1,8.896909E-1,3.1742775E-1,2.1317005E-1,2.301507E-1,3.6637568E-1,3.9714718E-1,3.290649E-1,3.0301952E-1,2.5102794E-1,1.583674E-1,4.2963266E-2,1.24842405E-1,8.121967E-2,3.3201873E-1,4.534036E-1,5.08179E-1,5.0416756E-1,2.4357921E-1,1.96976E-1,2.1292582E-1,8.4197104E-2,7.836747E-2,9.956448E-2,1.5195465E-1,5.1988244E-2,2.0532608E-3,3.0065536E-2,0E0,0E0,0E0,0E0,0E0,0E0,0E0,0E0,0E0,0E0,0E0,0E0,0E0,0E0,0E0,0E0,0E0,0E0,0E0,0E0,0E0,0E0,0E0,0E0,0E0,0E0,0E0,0E0,0E0,0E0,0E0,0E0],"parents":[2147483647,0,0,1,1,2,2,3,3,4,4,5,5,6,6,7,7,8,8,9,9,10,10,11,11,12,12,13,13,14,14,15,15,16,16,17,17,18,18,19,19,20,20,21,21,22,22,23,23,24,24,25,25,26,26,27,27,28,28,29,29,30,30],"right_children":[2,4,6,8,10,12,14,16,18,20,22,24,26,28,30,32,34,36,38,40,42,44,46,48,50,52,54,56,58,60,62,-1,-1,-1,-1,-1,-1,-1,-1,-1,-1,-1,-1,-1,-1,-1,-1,-1,-1,-1,-1,-1,-1,-1,-1,-1,-1,-1,-1,-1,-1,-1,-1],"split_conditions":[-3.984716E0,-6.721981E0,-3.52358E0,-7.243389E0,-4.265376E0,5.79555E0,5.72456E0,1.36104E1,1.464257E1,-6.271653E0,5.9126E0,1.732308E1,1.980151E1,-3.20061E0,2.054556E1,5.90434E0,6.76511E0,5.75163E0,6.2817E0,5.9084E0,1.630206E1,1.672261E1,1.849387E1,5.2018E0,9.085147E1,9.040777E1,6.12348E0,1.837178E1,4.99681E0,1.857714E1,-2.891417E0,1.069967E-3,4.528217E-4,1.4629004E-3,5.0046045E-4,6.3641666E-4,-2.8631915E-4,1.2116926E-3,1.0637749E-4,3.305253E-4,-3.3195407E-4,-1.9747627E-4,-4.4427492E-4,3.8391183E-4,-3.0689468E-4,1.2096615E-3,3.473996E-4,3.8779817E-5,9.734194E-4,1.4231532E-4,-4.650411E-4,1.6042795E-3,9.84137E-4,1.1845889E-4,8.864586E-4,1.0055095E-3,7.020932E-5,7.5016613E-4,1.3837349E-3,1.7563915E-3,1.5524797E-3,1.133891E-3,1.6565577E-3],"split_indices":[7,7,7,7,7,5,5,2,2,7,5,2,2,7,2,5,5,5,5,5,2,2,2,5,0,0,5,2,5,2,7,0,0,0,0,0,0,0,0,0,0,0,0,0,0,0,0,0,0,0,0,0,0,0,0,0,0,0,0,0,0,0,0],"split_type":[0,0,0,0,0,0,0,0,0,0,0,0,0,0,0,0,0,0,0,0,0,0,0,0,0,0,0,0,0,0,0,0,0,0,0,0,0,0,0,0,0,0,0,0,0,0,0,0,0,0,0,0,0,0,0,0,0,0,0,0,0,0,0],"sum_hessian":[1.35797E5,1.18338E5,1.7459E4,1.4388E4,1.0395E5,9.031E3,8.428E3,6.423E3,7.965E3,9.599E4,7.96E3,5.048E3,3.983E3,4.499E3,3.929E3,3.372E3,3.051E3,3.924E3,4.041E3,1.1637E4,8.4353E4,5.131E3,2.829E3,2.742E3,2.306E3,2.226E3,1.757E3,1.919E3,2.58E3,2.419E3,1.51E3,1.769E3,1.603E3,2.794E3,2.57E2,1.783E3,2.141E3,2.574E3,1.467E3,5.393E3,6.244E3,3.6834E4,4.7519E4,2.37E3,2.761E3,1.097E3,1.732E3,9.37E2,1.805E3,1.302E3,1.004E3,9.57E2,1.269E3,1.01E3,7.47E2,1.229E3,6.9E2,4.31E2,2.149E3,1.386E3,1.033E3,1.027E3,4.83E2],"tree_param":{"num_deleted":"0","num_feature":"8","num_nodes":"63","size_leaf_vector":"1"}},{"base_weights":[1.00477584E-4,-2.2402667E-3,1.8358931E-2,1.345301E-2,-4.5311865E-3,1.3474572E-2,2.6326858E-2,1.8135127E-2,6.838467E-3,-6.0871923E-3,2.4242247E-3,5.6128195E-3,1.8465452E-2,1.9328667E-2,2.9408526E-2,9.564292E-3,2.2235574E-2,1.230193E-2,-3.5662167E-3,-1.2598146E-3,-7.012298E-3,-2.0101203E-3,1.0363707E-2,1.3026289E-2,-1.6595965E-3,3.0363502E-2,1.376689E-2,1.5183323E-2,2.9771762E-2,2.4076585E-2,3.146681E-2,8.090936E-4,1.617908E-4,1.267862E-3,5.199179E-4,3.1551605E-4,1.302486E-3,-5.428611E-4,3.2360267E-4,2.3844458E-4,-3.3957258E-4,-2.3830011E-4,-4.5574034E-4,3.3072146E-4,-3.2383756E-4,1.2288484E-3,2.864291E-4,-4.0697685E-4,7.606016E-4,5.159327E-4,-2.2620363E-4,1.5306085E-3,-0E0,4.146845E-4,1.0198612E-3,9.6911995E-4,5.096554E-5,1.605755E-3,9.852363E-4,1.4623979E-3,9.236782E-4,1.6251783E-3,1.3082267E-3],"categories":[],"categories_nodes":[],"categories_segments":[],"categories_sizes":[],"default_left":[0,0,0,0,0,0,0,0,0,0,0,0,0,0,0,0,0,0,0,0,0,0,0,0,0,0,0,0,0,0,0,0,0,0,0,0,0,0,0,0,0,0,0,0,0,0,0,0,0,0,0,0,0,0,0,0,0,0,0,0,0,0,0],"id":6,"left_children":[1,3,5,7,9,11,13,15,17,19,21,23,25,27,29,31,33,35,37,39,41,43,45,47,49,51,53,55,57,59,61,-1,-1,-1,-1,-1,-1,-1,-1,-1,-1,-1,-1,-1,-1,-1,-1,-1,-1,-1,-1,-1,-1,-1,-1,-1,-1,-1,-1,-1,-1,-1,-1],"loss_changes":[5.8099256E0,4.329808E0,5.9687376E-1,4.7242856E-1,1.1380372E0,3.7365425E-1,1.20978355E-1,3.119216E-1,3.6291024E-1,3.828373E-1,6.770304E-1,2.0236468E-1,3.22541E-1,7.3191285E-2,3.822303E-2,1.19999975E-1,2.2008896E-1,3.4107667E-1,1.6057332E-1,4.616127E-1,3.389871E-1,4.744744E-1,4.508093E-1,8.664909E-2,6.3904054E-2,1.2851477E-2,1.4959389E-1,7.531801E-2,6.0983896E-3,2.7951181E-2,9.284973E-3,0E0,0E0,0E0,0E0,0E0,0E0,0E0,0E0,0E0,0E0,0E0,0E0,0E0,0E0,0E0,0E0,0E0,0E0,0E0,0E0,0E0,0E0,0E0,0E0,0E0,0E0,0E0,0E0,0E0,0E0,0E0,0E0],"parents":[2147483647,0,0,1,1,2,2,3,3,4,4,5,5,6,6,7,7,8,8,9,9,10,10,11,11,12,12,13,13,14,14,15,15,16,16,17,17,18,18,19,19,20,20,21,21,22,22,23,23,24,24,25,25,26,26,27,27,28,28,29,29,30,30],"right_children":[2,4,6,8,10,12,14,16,18,20,22,24,26,28,30,32,34,36,38,40,42,44,46,48,50,52,54,56,58,60,62,-1,-1,-1,-1,-1,-1,-1,-1,-1,-1,-1,-1,-1,-1,-1,-1,-1,-1,-1,-1,-1,-1,-1,-1,-1,-1,-1,-1,-1,-1,-1,-1],"split_conditions":[-3.895585E0,-6.671936E0,-3.31091E0,-7.026265E0,-4.520764E0,5.58783E0,5.44972E0,1.057725E1,6.15091E0,-6.176527E0,5.9126E0,1.646977E1,1.73982E1,-2.651668E0,-3.138115E0,5.75163E0,6.46444E0,1.60815E1,1.817273E1,5.9126E0,1.672261E1,1.534989E1,1.712631E1,4.51663E0,8.798965E1,9.743708E1,5.98619E0,1.902395E1,1.96708E1,1.914596E1,2.210068E1,8.090936E-4,1.617908E-4,1.267862E-3,5.199179E-4,3.1551605E-4,1.302486E-3,-5.428611E-4,3.2360267E-4,2.3844458E-4,-3.3957258E-4,-2.3830011E-4,-4.5574034E-4,3.3072146E-4,-3.2383756E-4,1.2288484E-3,2.864291E-4,-4.0697685E-4,7.606016E-4,5.159327E-4,-2.2620363E-4,1.5306085E-3,-0E0,4.146845E-4,1.0198612E-3,9.6911995E-4,5.096554E-5,1.605755E-3,9.852363E-4,1.4623979E-3,9.236782E-4,1.6251783E-3,1.3082267E-3],"split_indices":[7,7,7,7,7,5,5,2,5,7,5,2,2,7,7,5,5,2,2,5,2,2,2,5,0,0,5,2,2,2,2,0,0,0,0,0,0,0,0,0,0,0,0,0,0,0,0,0,0,0,0,0,0,0,0,0,0,0,0,0,0,0,0],"split_type":[0,0,0,0,0,0,0,0,0,0,0,0,0,0,0,0,0,0,0,0,0,0,0,0,0,0,0,0,0,0,0,0,0,0,0,0,0,0,0,0,0,0,0,0,0,0,0,0,0,0,0,0,0,0,0,0,0,0,0,0,0,0,0],"sum_hessian":[1.35902E5,1.20455E5,1.5447E4,1.5338E4,1.05117E5,9.586E3,5.861E3,8.971E3,6.367E3,8.5912E4,1.9205E4,3.731E3,5.855E3,1.804E3,4.057E3,2.912E3,6.059E3,4.181E3,2.186E3,1.3834E4,7.2078E4,1.2315E4,6.89E3,1.854E3,1.877E3,1.65E3,4.205E3,1.3E3,5.04E2,1.147E3,2.91E3,1.415E3,1.497E3,4.787E3,1.272E3,2.918E3,1.263E3,1.272E3,9.14E2,6.611E3,7.223E3,3.4872E4,3.7206E4,4.194E3,8.121E3,1.688E3,5.202E3,1.69E2,1.685E3,3.55E2,1.522E3,1.637E3,1.3E1,2.313E3,1.892E3,9.97E2,3.03E2,3.99E2,1.05E2,5.85E2,5.62E2,2.414E3,4.96E2],"tree_param":{"num_deleted":"0","num_feature":"8","num_nodes":"63","size_leaf_vector":"1"}},{"base_weights":[-7.784383E-5,-2.3551956E-3,1.7669765E-2,1.2629031E-2,-4.5518177E-3,1.3094332E-2,2.5139445E-2,1.8752065E-2,7.68405E-3,-5.8079874E-3,3.4505187E-3,6.0767196E-3,1.756573E-2,1.4288965E-2,2.6650323E-2,9.403388E-3,2.1359324E-2,1.1058856E-2,-3.2053976E-3,-1.5856534E-3,-6.566843E-3,4.6282186E-4,1.6577292E-2,1.3132288E-2,1.9757166E-3,2.1974491E-2,1.3461804E-2,9.3487995E-3,2.6228465E-2,2.3301246E-2,2.9319167E-2,8.7726174E-4,1.3727922E-4,1.1426321E-3,5.5478525E-4,2.8617555E-4,8.90772E-4,-4.1839105E-4,3.888961E-4,2.0580416E-4,-3.5515625E-4,-3.772976E-4,-1.9562377E-4,4.201634E-4,-9.2544935E-5,1.0180188E-3,3.734395E-4,-1.434519E-4,7.7233964E-4,9.1964565E-4,3.6846646E-5,1.0421587E-3,1.5543229E-3,4.7037416E-4,1.0074497E-3,7.125697E-4,2.12477E-5,1.0613586E-4,1.3661518E-3,1.2827195E-3,8.8539004E-4,1.5159982E-3,1.2365653E-3],"categories":[],"categories_nodes":[],"categories_segments":[],"categories_sizes":[],"default_left":[0,0,0,0,0,0,0,0,0,0,0,0,0,0,0,0,0,0,0,0,0,0,0,0,0,0,0,0,0,0,0,0,0,0,0,0,0,0,0,0,0,0,0,0,0,0,0,0,0,0,0,0,0,0,0,0,0,0,0,0,0,0,0],"id":7,"left_children":[1,3,5,7,9,11,13,15,17,19,21,23,25,27,29,31,33,35,37,39,41,43,45,47,49,51,53,55,57,59,61,-1,-1,-1,-1,-1,-1,-1,-1,-1,-1,-1,-1,-1,-1,-1,-1,-1,-1,-1,-1,-1,-1,-1,-1,-1,-1,-1,-1,-1,-1,-1,-1],"loss_changes":[5.4879003E0,3.961421E0,5.235748E-1,4.6304393E-1,1.055676E0,2.9832363E-1,9.1526985E-2,1.6402888E-1,3.1400228E-1,2.8997898E-1,5.5656826E-1,1.06708735E-1,1.019336E-1,3.901881E-2,3.9916754E-2,7.9612404E-2,7.847285E-2,2.3232937E-1,1.1409217E-1,4.3597454E-1,1.9871235E-1,2.138408E-1,8.779359E-2,5.1892072E-2,4.639502E-2,2.3074389E-2,7.932955E-2,2.1320056E-2,2.4328083E-3,2.5442958E-2,6.7617893E-3,0E0,0E0,0E0,0E0,0E0,0E0,0E0,0E0,0E0,0E0,0E0,0E0,0E0,0E0,0E0,0E0,0E0,0E0,0E0,0E0,0E0,0E0,0E0,0E0,0E0,0E0,0E0,0E0,0E0,0E0,0E0,0E0],"parents":[2147483647,0,0,1,1,2,2,3,3,4,4,5,5,6,6,7,7,8,8,9,9,10,10,11,11,12,12,13,13,14,14,15,15,16,16,17,17,18,18,19,19,20,20,21,21,22,22,23,23,24,24,25,25,26,26,27,27,28,28,29,29,30,30],"right_children":[2,4,6,8,10,12,14,16,18,20,22,24,26,28,30,32,34,36,38,40,42,44,46,48,50,52,54,56,58,60,62,-1,-1,-1,-1,-1,-1,-1,-1,-1,-1,-1,-1,-1,-1,-1,-1,-1,-1,-1,-1,-1,-1,-1,-1,-1,-1,-1,-1,-1,-1,-1,-1],"split_conditions":[-3.895585E0,-6.671936E0,-3.31091E0,-7.19541E0,-4.392491E0,5.58783E0,5.12951E0,8.481515E1,6.28947E0,-6.176527E0,6.11821E0,8.924429E1,9.064255E1,-2.651668E0,-2.988241E0,-7.859601E0,6.58887E0,8.907433E1,9.094359E1,5.9211E0,-4.902586E0,8.816336E1,9.246377E1,4.65335E0,2.0258071E3,1.353174E1,6.03552E0,2.2913684E3,8.289901E1,2.3340466E3,9.322179E1,8.7726174E-4,1.3727922E-4,1.1426321E-3,5.5478525E-4,2.8617555E-4,8.90772E-4,-4.1839105E-4,3.888961E-4,2.0580416E-4,-3.5515625E-4,-3.772976E-4,-1.9562377E-4,4.201634E-4,-9.2544935E-5,1.0180188E-3,3.734395E-4,-1.434519E-4,7.7233964E-4,9.1964565E-4,3.6846646E-5,1.0421587E-3,1.5543229E-3,4.7037416E-4,1.0074497E-3,7.125697E-4,2.12477E-5,1.0613586E-4,1.3661518E-3,1.2827195E-3,8.8539004E-4,1.5159982E-3,1.2365653E-3],"split_indices":[7,7,7,7,7,5,5,0,5,7,5,0,0,7,7,7,5,0,0,5,7,0,0,5,1,3,5,1,0,1,0,0,0,0,0,0,0,0,0,0,0,0,0,0,0,0,0,0,0,0,0,0,0,0,0,0,0,0,0,0,0,0,0],"split_type":[0,0,0,0,0,0,0,0,0,0,0,0,0,0,0,0,0,0,0,0,0,0,0,0,0,0,0,0,0,0,0,0,0,0,0,0,0,0,0,0,0,0,0,0,0,0,0,0,0,0,0,0,0,0,0,0,0,0,0,0,0,0,0],"sum_hessian":[1.35816E5,1.20376E5,1.544E4,1.5384E4,1.04992E5,9.585E3,5.855E3,6.863E3,8.521E3,9.0758E4,1.4234E4,3.74E3,5.845E3,7.25E2,5.13E3,1.506E3,5.357E3,6.512E3,2.009E3,1.3847E4,7.6911E4,1.1602E4,2.632E3,1.365E3,2.375E3,2.804E3,3.041E3,5.2E2,2.05E2,2.296E3,2.834E3,6.7E2,8.36E2,4.667E3,6.9E2,3.648E3,2.864E3,1.373E3,6.36E2,6.801E3,7.046E3,5.6157E4,2.0754E4,2.627E3,8.975E3,1.851E3,7.81E2,1.67E2,1.198E3,1.6E2,2.215E3,2.507E3,2.97E2,1.904E3,1.137E3,3.28E2,1.92E2,1.3E1,1.92E2,1.601E3,6.95E2,2.304E3,5.3E2],"tree_param":{"num_deleted":"0","num_feature":"8","num_nodes":"63","size_leaf_vector":"1"}},{"base_weights":[6.481147E-5,-2.5040957E-3,1.4372551E-2,1.2459307E-2,-4.827344E-3,9.368184E-3,2.1627696E-2,1.6885325E-2,6.176356E-3,-5.796664E-3,-5.8674265E-4,1.4840931E-2,5.7048304E-3,1.9066693E-2,2.7246816E-2,1.25708245E-2,2.1756673E-2,7.7174784E-4,1.134355E-2,-1.5777352E-3,-6.7819194E-3,3.452367E-3,-2.8613016E-3,1.889858E-2,1.2404628E-2,8.060891E-3,1.608625E-3,2.1148311E-2,1.2804522E-2,-0E0,2.744098E-2,8.771522E-4,4.0699655E-4,1.442343E-3,9.791523E-4,-5.0499275E-5,2.6372666E-4,4.004015E-4,8.757158E-4,-3.0229392E-4,2.3833216E-4,7.79395E-5,-3.447126E-4,4.7523488E-4,3.7375627E-5,-2.1990405E-4,9.971775E-5,1.2234941E-3,8.27554E-4,5.1257625E-4,8.1498706E-4,1.1532041E-3,3.6000306E-4,2.6269178E-4,-9.2419075E-5,1.1711161E-3,7.943416E-4,4.7822698E-4,9.1108604E-4,1.4626487E-3,1.2392028E-3],"categories":[],"categories_nodes":[],"categories_segments":[],"categories_sizes":[],"default_left":[0,0,0,0,0,0,0,0,0,0,0,0,0,0,0,0,0,0,0,0,0,0,0,0,0,0,0,0,0,0,0,0,0,0,0,0,0,0,0,0,0,0,0,0,0,0,0,0,0,0,0,0,0,0,0,0,0,0,0,0,0],"id":8,"left_children":[1,3,5,7,9,11,13,15,17,19,21,23,25,27,29,31,33,35,37,39,41,43,45,47,49,51,53,55,57,-1,59,-1,-1,-1,-1,-1,-1,-1,-1,-1,-1,-1,-1,-1,-1,-1,-1,-1,-1,-1,-1,-1,-1,-1,-1,-1,-1,-1,-1,-1,-1],"loss_changes":[5.0017385E0,4.008768E0,7.488055E-1,4.2848134E-1,4.0975475E-1,2.4383712E-1,1.1640644E-1,1.8715334E-1,1.7792921E-1,3.368702E-1,1.7079583E-1,4.5154095E-2,7.007009E-2,7.217431E-2,1.437223E-2,1.03678405E-1,6.0137033E-2,2.5671393E-2,6.4613014E-2,4.367663E-1,6.2236786E-2,1.08389236E-1,8.9144796E-2,1.9348264E-2,2.3050368E-2,5.6966543E-2,3.4437362E-2,4.7778964E-2,2.277778E-2,0E0,6.4464808E-3,0E0,0E0,0E0,0E0,0E0,0E0,0E0,0E0,0E0,0E0,0E0,0E0,0E0,0E0,0E0,0E0,0E0,0E0,0E0,0E0,0E0,0E0,0E0,0E0,0E0,0E0,0E0,0E0,0E0,0E0],"parents":[2147483647,0,0,1,1,2,2,3,3,4,4,5,5,6,6,7,7,8,8,9,9,10,10,11,11,12,12,13,13,14,14,15,15,16,16,17,17,18,18,19,19,20,20,21,21,22,22,23,23,24,24,25,25,26,26,27,27,28,28,30,30],"right_children":[2,4,6,8,10,12,14,16,18,20,22,24,26,28,30,32,34,36,38,40,42,44,46,48,50,52,54,56,58,-1,60,-1,-1,-1,-1,-1,-1,-1,-1,-1,-1,-1,-1,-1,-1,-1,-1,-1,-1,-1,-1,-1,-1,-1,-1,-1,-1,-1,-1,-1,-1],"split_conditions":[-4.106086E0,-6.671936E0,-3.52358E0,-7.026265E0,-4.644108E0,8.980939E1,-2.891417E0,8.83996E1,8.881115E1,-6.130597E0,8.927258E1,5.86451E0,9.259647E1,9.246377E1,8.212698E1,-7.555953E0,-7.736686E0,2.1929407E3,2.2880989E3,8.975341E1,1.7555807E3,5.76428E0,-4.248661E0,2.0782073E3,-3.772598E0,2.0000681E3,6.12127E0,6.31684E0,-3.20061E0,-0E0,2.295039E3,8.771522E-4,4.0699655E-4,1.442343E-3,9.791523E-4,-5.0499275E-5,2.6372666E-4,4.004015E-4,8.757158E-4,-3.0229392E-4,2.3833216E-4,7.79395E-5,-3.447126E-4,4.7523488E-4,3.7375627E-5,-2.1990405E-4,9.971775E-5,1.2234941E-3,8.27554E-4,5.1257625E-4,8.1498706E-4,1.1532041E-3,3.6000306E-4,2.6269178E-4,-9.2419075E-5,1.1711161E-3,7.943416E-4,4.7822698E-4,9.1108604E-4,1.4626487E-3,1.2392028E-3],"split_indices":[7,7,7,7,7,0,7,0,0,7,0,4,0,0,0,7,7,1,1,0,1,4,7,1,7,1,4,4,7,0,1,0,0,0,0,0,0,0,0,0,0,0,0,0,0,0,0,0,0,0,0,0,0,0,0,0,0,0,0,0,0],"split_type":[0,0,0,0,0,0,0,0,0,0,0,0,0,0,0,0,0,0,0,0,0,0,0,0,0,0,0,0,0,0,0,0,0,0,0,0,0,0,0,0,0,0,0,0,0,0,0,0,0,0,0,0,0,0,0,0,0,0,0,0,0],"sum_hessian":[1.36048E5,1.15334E5,2.0714E4,1.5494E4,9.984E4,1.2268E4,8.446E3,9.08E3,6.414E3,8.1245E4,1.8595E4,4.907E3,7.361E3,5.817E3,2.629E3,4.828E3,4.252E3,3.145E3,3.269E3,1.5401E4,6.5844E4,6.683E3,1.1912E4,1.823E3,3.084E3,4.657E3,2.704E3,4.352E3,1.465E3,1.8E1,2.611E3,2.263E3,2.565E3,9.84E2,3.268E3,2.238E3,9.07E2,2.134E3,1.135E3,9.046E3,6.355E3,8.63E2,6.4981E4,2.052E3,4.631E3,9.064E3,2.848E3,5.25E2,1.298E3,2.005E3,1.079E3,2.45E2,4.412E3,1.33E3,1.374E3,3.023E3,1.329E3,9.3E2,5.35E2,1.524E3,1.087E3],"tree_param":{"num_deleted":"0","num_feature":"8","num_nodes":"61","size_leaf_vector":"1"}},{"base_weights":[8.5626625E-6,7.7489077E-4,-1.6167696E-3,4.3297608E-4,2.0014492E-3,-1.4449789E-3,-8.505574E-3,5.284043E-3,3.250549E-4,2.469801E-3,1.066616E-4,-6.962124E-4,-2.9030505E-3,-9.35416E-3,4.372145E-3,6.041248E-3,-1.3658665E-2,1.3023549E-3,-2.117801E-5,5.0554244E-4,3.112862E-3,1.419673E-3,-3.1670674E-3,1.6836505E-4,-1.776167E-3,7.090434E-5,-3.5195358E-3,-1.0417138E-3,-1.0698446E-2,-4.4655725E-3,1.8388249E-2,-1.1112684E-4,3.2676404E-4,-0E0,-2.014115E-3,8.392024E-5,-2.8750641E-5,1.1641153E-5,-5.093113E-5,1.17137904E-4,-7.066534E-5,3.3594674E-4,1.3954476E-4,6.800373E-6,2.6592353E-4,-1.2708435E-4,-1.3870087E-3,-5.344699E-4,1.3667503E-5,-2.8185608E-4,-5.307579E-5,7.8696955E-4,-2.2587416E-5,-1.8392589E-4,2.9501328E-4,-1.280556E-3,1.6559426E-4,-8.894787E-4,-4.8506213E-4,2.716097E-4,-9.0105896E-4,1.5566787E-3,-0E0],"categories":[],"categories_nodes":[],"categories_segments":[],"categories_sizes":[],"default_left":[0,0,0,0,0,0,0,0,0,0,0,0,0,0,0,0,0,0,0,0,0,0,0,0,0,0,0,0,0,0,0,0,0,0,0,0,0,0,0,0,0,0,0,0,0,0,0,0,0,0,0,0,0,0,0,0,0,0,0,0,0,0,0],"id":9,"left_children":[1,3,5,7,9,11,13,15,17,19,21,23,25,27,29,31,33,35,37,39,41,43,45,47,49,51,53,55,57,59,61,-1,-1,-1,-1,-1,-1,-1,-1,-1,-1,-1,-1,-1,-1,-1,-1,-1,-1,-1,-1,-1,-1,-1,-1,-1,-1,-1,-1,-1,-1,-1,-1],"loss_changes":[1.6932888E-1,3.8538117E-2,5.051931E-2,3.733173E-2,1.7574944E-2,4.6033278E-2,1.1958703E-2,2.1624941E-2,2.4094459E-2,1.9935213E-2,1.713529E-2,2.642058E-2,2.6696563E-2,9.855054E-3,8.658864E-3,6.573759E-3,2.0569853E-2,1.324543E-2,1.3310123E-2,1.420819E-2,1.304163E-2,1.3947589E-2,1.4281996E-2,1.670845E-2,3.396912E-2,2.1525653E-2,1.7670155E-2,1.8252578E-2,3.0182302E-3,5.65024E-3,7.348641E-3,0E0,0E0,0E0,0E0,0E0,0E0,0E0,0E0,0E0,0E0,0E0,0E0,0E0,0E0,0E0,0E0,0E0,0E0,0E0,0E0,0E0,0E0,0E0,0E0,0E0,0E0,0E0,0E0,0E0,0E0,0E0,0E0],"parents":[2147483647,0,0,1,1,2,2,3,3,4,4,5,5,6,6,7,7,8,8,9,9,10,10,11,11,12,12,13,13,14,14,15,15,16,16,17,17,18,18,19,19,20,20,21,21,22,22,23,23,24,24,25,25,26,26,27,27,28,28,29,29,30,30],"right_children":[2,4,6,8,10,12,14,16,18,20,22,24,26,28,30,32,34,36,38,40,42,44,46,48,50,52,54,56,58,60,62,-1,-1,-1,-1,-1,-1,-1,-1,-1,-1,-1,-1,-1,-1,-1,-1,-1,-1,-1,-1,-1,-1,-1,-1,-1,-1,-1,-1,-1,-1,-1,-1],"split_conditions":[1.870052E1,6.08792E0,2.499706E1,1.7555807E3,1.289607E1,1.3684E0,6.57854E0,6.0402E0,5.68942E0,-4.79559E0,6.08959E0,2.081745E1,6.03138E0,5.87042E0,6.01313E0,5.06904E0,1.436469E1,1.755828E1,2.13338E0,1.617162E1,1.106638E1,2.2849448E3,2.85285E0,-2.99178E0,-1.34237E0,5.3445E0,2.5886987E3,5.59381E0,-1.01285E0,5.73829E0,2.577785E1,-1.1112684E-4,3.2676404E-4,-0E0,-2.014115E-3,8.392024E-5,-2.8750641E-5,1.1641153E-5,-5.093113E-5,1.17137904E-4,-7.066534E-5,3.3594674E-4,1.3954476E-4,6.800373E-6,2.6592353E-4,-1.2708435E-4,-1.3870087E-3,-5.344699E-4,1.3667503E-5,-2.8185608E-4,-5.307579E-5,7.8696955E-4,-2.2587416E-5,-1.8392589E-4,2.9501328E-4,-1.280556E-3,1.6559426E-4,-8.894787E-4,-4.8506213E-4,2.716097E-4,-9.0105896E-4,1.5566787E-3,-0E0],"split_indices":[2,5,2,1,3,6,4,5,4,3,4,2,3,5,5,4,2,3,6,2,2,1,6,6,6,4,1,4,6,5,2,0,0,0,0,0,0,0,0,0,0,0,0,0,0,0,0,0,0,0,0,0,0,0,0,0,0,0,0,0,0,0,0],"split_type":[0,0,0,0,0,0,0,0,0,0,0,0,0,0,0,0,0,0,0,0,0,0,0,0,0,0,0,0,0,0,0,0,0,0,0,0,0,0,0,0,0,0,0,0,0,0,0,0,0,0,0,0,0,0,0,0,0,0,0,0,0,0,0],"sum_hessian":[1.36014E5,9.2475E4,4.3539E4,7.2381E4,2.0094E4,4.2495E4,1.044E3,1.554E3,7.0827E4,1.6069E4,4.025E3,2.8123E4,1.4372E4,9.87E2,5.7E1,1.5E3,5.4E1,1.8603E4,5.2224E4,4.002E3,1.2067E4,2.895E3,1.13E3,1.5568E4,1.2555E4,2.44E3,1.1932E4,1.48E2,8.39E2,3.1E1,2.6E1,7.3E1,1.427E3,3.6E1,1.8E1,1.5543E4,3.06E3,4.1545E4,1.0679E4,2.071E3,1.931E3,9.62E2,1.1105E4,2.198E3,6.97E2,1.107E3,2.3E1,1.39E2,1.5429E4,1.938E3,1.0617E4,8.4E1,2.356E3,1.1745E4,1.87E2,2.5E1,1.23E2,8.9E1,7.5E2,1.4E1,1.7E1,1.6E1,1E1],"tree_param":{"num_deleted":"0","num_feature":"8","num_nodes":"63","size_leaf_vector":"1"}},{"base_weights":[6.7895904E-5,-1.956308E-3,1.5869359E-2,1.4387076E-2,-3.6286153E-3,1.0782275E-2,2.1297917E-2,8.285172E-3,2.0859146E-2,-4.4460567E-3,4.4497424E-3,3.5696386E-3,1.5277879E-2,1.2822382E-2,2.3286592E-2,1.4716799E-2,2.3506125E-3,2.4277326E-2,8.564207E-3,1.9084733E-3,-5.2933204E-3,3.5468832E-4,1.2282584E-2,1.18377935E-2,-4.9026893E-3,2.7046686E-2,1.0382533E-2,1.7433554E-2,4.1091274E-3,1.9937532E-2,2.6666196E-2,3.6125147E-4,1.0649047E-3,7.062846E-4,-2.5258673E-4,4.007E-4,1.2706248E-3,1.0687372E-3,-8.056738E-5,2.9135548E-4,-3.5586877E-4,-1.5740775E-4,-3.6936064E-4,3.3713385E-4,-2.526523E-4,1.0051619E-3,1.8843233E-4,2.6159777E-4,8.605697E-4,-1.4496235E-4,-8.3512877E-4,1.3744889E-3,2.1860453E-4,3.0482674E-4,9.659996E-4,-3.004728E-4,9.57557E-4,-1.4679527E-4,9.0713176E-4,1.2183378E-3,7.325652E-4,1.4295013E-3,1.1993785E-3],"categories":[],"categories_nodes":[],"categories_segments":[],"categories_sizes":[],"default_left":[0,0,0,0,0,0,0,0,0,0,0,0,0,0,0,0,0,0,0,0,0,0,0,0,0,0,0,0,0,0,0,0,0,0,0,0,0,0,0,0,0,0,0,0,0,0,0,0,0,0,0,0,0,0,0,0,0,0,0,0,0,0,0],"id":10,"left_children":[1,3,5,7,9,11,13,15,17,19,21,23,25,27,29,31,33,35,37,39,41,43,45,47,49,51,53,55,57,59,61,-1,-1,-1,-1,-1,-1,-1,-1,-1,-1,-1,-1,-1,-1,-1,-1,-1,-1,-1,-1,-1,-1,-1,-1,-1,-1,-1,-1,-1,-1,-1,-1],"loss_changes":[4.3448772E0,3.288828E0,4.2255974E-1,4.3795896E-1,7.211505E-1,2.5665128E-1,1.216948E-1,2.1803507E-1,2.2391248E-1,5.343299E-1,3.2026082E-1,2.1594675E-1,2.7850723E-1,5.514872E-2,6.300163E-2,1.3283056E-1,2.6281708E-1,7.4491024E-2,1.5648066E-1,4.1213828E-1,3.920679E-1,2.2792065E-1,2.2612184E-1,5.3076625E-2,3.3735666E-2,1.1101007E-2,1.3030046E-1,3.8715035E-2,5.1303796E-2,6.703651E-2,9.418249E-3,0E0,0E0,0E0,0E0,0E0,0E0,0E0,0E0,0E0,0E0,0E0,0E0,0E0,0E0,0E0,0E0,0E0,0E0,0E0,0E0,0E0,0E0,0E0,0E0,0E0,0E0,0E0,0E0,0E0,0E0,0E0,0E0],"parents":[2147483647,0,0,1,1,2,2,3,3,4,4,5,5,6,6,7,7,8,8,9,9,10,10,11,11,12,12,13,13,14,14,15,15,16,16,17,17,18,18,19,19,20,20,21,21,22,22,23,23,24,24,25,25,26,26,27,27,28,28,29,29,30,30],"right_children":[2,4,6,8,10,12,14,16,18,20,22,24,26,28,30,32,34,36,38,40,42,44,46,48,50,52,54,56,58,60,62,-1,-1,-1,-1,-1,-1,-1,-1,-1,-1,-1,-1,-1,-1,-1,-1,-1,-1,-1,-1,-1,-1,-1,-1,-1,-1,-1,-1,-1,-1,-1,-1],"split_conditions":[-3.895585E0,-6.891137E0,-3.443254E0,1.405993E1,-4.265376E0,5.58783E0,5.28625E0,5.82469E0,6.49059E0,-6.374446E0,5.9211E0,1.646977E1,1.73982E1,1.716607E1,-3.069023E0,8.652875E1,-7.632742E0,8.320069E1,-7.411436E0,6.18503E0,1.684068E1,1.672261E1,1.953836E1,5.1879E0,2.112257E1,9.633821E1,6.09267E0,3.50012E0,-2.7813E0,1.914596E1,1.989426E1,3.6125147E-4,1.0649047E-3,7.062846E-4,-2.5258673E-4,4.007E-4,1.2706248E-3,1.0687372E-3,-8.056738E-5,2.9135548E-4,-3.5586877E-4,-1.5740775E-4,-3.6936064E-4,3.3713385E-4,-2.526523E-4,1.0051619E-3,1.8843233E-4,2.6159777E-4,8.605697E-4,-1.4496235E-4,-8.3512877E-4,1.3744889E-3,2.1860453E-4,3.0482674E-4,9.659996E-4,-3.004728E-4,9.57557E-4,-1.4679527E-4,9.0713176E-4,1.2183378E-3,7.325652E-4,1.4295013E-3,1.1993785E-3],"split_indices":[7,7,7,2,7,5,5,5,5,7,5,2,2,2,7,0,7,0,7,5,2,2,2,5,2,0,5,2,7,2,2,0,0,0,0,0,0,0,0,0,0,0,0,0,0,0,0,0,0,0,0,0,0,0,0,0,0,0,0,0,0,0,0],"split_type":[0,0,0,0,0,0,0,0,0,0,0,0,0,0,0,0,0,0,0,0,0,0,0,0,0,0,0,0,0,0,0,0,0,0,0,0,0,0,0,0,0,0,0,0,0,0,0,0,0,0,0,0,0,0,0,0,0,0,0,0,0,0,0],"sum_hessian":[1.35794E5,1.20369E5,1.5425E4,1.1167E4,1.09202E5,7.974E3,7.451E3,5.757E3,5.41E3,9.9179E4,1.0023E4,3.071E3,4.903E3,1.427E3,6.024E3,2.754E3,3.003E3,4.226E3,1.184E3,1.1654E4,8.7525E4,6.591E3,3.432E3,1.56E3,1.511E3,1.433E3,3.47E3,9.25E2,5.02E2,3.044E3,2.98E3,1.296E3,1.458E3,1.164E3,1.839E3,2.82E2,3.944E3,5.28E2,6.56E2,8.134E3,3.52E3,4.3258E4,4.4267E4,3.03E3,3.561E3,1.782E3,1.65E3,7.09E2,8.51E2,1.3E3,2.11E2,1.401E3,3.2E1,2.354E3,1.116E3,5.9E1,8.66E2,3.3E2,1.72E2,1.644E3,1.4E3,1.707E3,1.273E3],"tree_param":{"num_deleted":"0","num_feature":"8","num_nodes":"63","size_leaf_vector":"1"}},{"base_weights":[-4.112706E-5,-2.2116383E-3,1.3678061E-2,1.0253367E-2,-4.3195365E-3,8.4185945E-3,1.9196728E-2,4.8994697E-3,1.5237288E-2,-5.622443E-3,-6.7066765E-7,1.4692438E-2,5.4663816E-3,1.560881E-2,2.2317793E-2,1.440401E-2,7.5713085E-4,2.1064643E-2,9.815558E-3,-2.8546322E-3,-6.644637E-3,3.65801E-3,-6.138945E-3,1.6748857E-2,3.581908E-3,1.0730979E-2,2.2924792E-3,1.8060755E-2,8.386579E-3,-0E0,2.2603132E-2,4.4919105E-4,9.347284E-4,-1.5199621E-4,1.5645451E-4,1.2282692E-3,8.8683964E-4,1.3304254E-4,8.380289E-4,-3.440991E-4,6.013479E-5,-1.7939896E-4,-4.0413905E-4,6.378083E-4,1.1415512E-4,2.2216413E-4,-3.4000425E-4,1.000326E-3,5.680088E-4,-2.1850223E-4,4.0321602E-4,6.816311E-4,3.1028708E-4,2.1498503E-4,-2.1674285E-4,1.0796331E-3,6.407866E-4,8.337288E-4,2.8149306E-4,-1.5789791E-3,5.197755E-4,1.0346669E-3,1.3180381E-3],"categories":[],"categories_nodes":[],"categories_segments":[],"categories_sizes":[],"default_left":[0,0,0,0,0,0,0,0,0,0,0,0,0,0,0,0,0,0,0,0,0,0,0,0,0,0,0,0,0,0,0,0,0,0,0,0,0,0,0,0,0,0,0,0,0,0,0,0,0,0,0,0,0,0,0,0,0,0,0,0,0,0,0],"id":11,"left_children":[1,3,5,7,9,11,13,15,17,19,21,23,25,27,29,31,33,35,37,39,41,43,45,47,49,51,53,55,57,59,61,-1,-1,-1,-1,-1,-1,-1,-1,-1,-1,-1,-1,-1,-1,-1,-1,-1,-1,-1,-1,-1,-1,-1,-1,-1,-1,-1,-1,-1,-1,-1,-1],"loss_changes":[4.0328913E0,3.0729122E0,5.3401494E-1,4.492079E-1,5.624887E-1,1.7354524E-1,9.6832514E-2,3.1993747E-1,2.7312422E-1,2.164669E-1,5.214979E-1,6.697619E-2,1.0663195E-1,7.180989E-2,3.144622E-2,5.4528892E-2,5.1310226E-2,4.434526E-2,2.2375304E-1,3.3973497E-1,2.4540567E-1,1.802495E-1,6.098005E-2,4.127723E-2,1.7549397E-2,2.9681444E-2,5.3810563E-2,5.4339528E-2,2.2351176E-2,2.0819318E-2,2.8807878E-2,0E0,0E0,0E0,0E0,0E0,0E0,0E0,0E0,0E0,0E0,0E0,0E0,0E0,0E0,0E0,0E0,0E0,0E0,0E0,0E0,0E0,0E0,0E0,0E0,0E0,0E0,0E0,0E0,0E0,0E0,0E0,0E0],"parents":[2147483647,0,0,1,1,2,2,3,3,4,4,5,5,6,6,7,7,8,8,9,9,10,10,11,11,12,12,13,13,14,14,15,15,16,16,17,17,18,18,19,19,20,20,21,21,22,22,23,23,24,24,25,25,26,26,27,27,28,28,29,29,30,30],"right_children":[2,4,6,8,10,12,14,16,18,20,22,24,26,28,30,32,34,36,38,40,42,44,46,48,50,52,54,56,58,60,62,-1,-1,-1,-1,-1,-1,-1,-1,-1,-1,-1,-1,-1,-1,-1,-1,-1,-1,-1,-1,-1,-1,-1,-1,-1,-1,-1,-1,-1,-1,-1,-1],"split_conditions":[-4.025874E0,-6.602498E0,-3.558728E0,1.405993E1,-4.709446E0,1.63891E1,-3.20061E0,-7.478252E0,-7.026265E0,-5.947896E0,1.881914E1,2.43536E0,8.978481E1,9.246377E1,4.29004E0,8.33804E0,8.97721E0,-7.411436E0,8.913114E1,8.921573E1,1.495639E1,1.173749E1,8.614044E1,9.112932E1,2.67506E0,6.14214E0,2.12534E1,1.918859E1,1.58593E1,8.212698E1,-2.651668E0,4.4919105E-4,9.347284E-4,-1.5199621E-4,1.5645451E-4,1.2282692E-3,8.8683964E-4,1.3304254E-4,8.380289E-4,-3.440991E-4,6.013479E-5,-1.7939896E-4,-4.0413905E-4,6.378083E-4,1.1415512E-4,2.2216413E-4,-3.4000425E-4,1.000326E-3,5.680088E-4,-2.1850223E-4,4.0321602E-4,6.816311E-4,3.1028708E-4,2.1498503E-4,-2.1674285E-4,1.0796331E-3,6.407866E-4,8.337288E-4,2.8149306E-4,-1.5789791E-3,5.197755E-4,1.0346669E-3,1.3180381E-3],"split_indices":[7,7,7,2,7,2,7,7,7,7,2,6,0,0,2,2,2,7,0,0,2,2,0,0,6,4,2,2,2,0,7,0,0,0,0,0,0,0,0,0,0,0,0,0,0,0,0,0,0,0,0,0,0,0,0,0,0,0,0,0,0,0,0],"split_type":[0,0,0,0,0,0,0,0,0,0,0,0,0,0,0,0,0,0,0,0,0,0,0,0,0,0,0,0,0,0,0,0,0,0,0,0,0,0,0,0,0,0,0,0,0,0,0,0,0,0,0,0,0,0,0,0,0,0,0,0,0,0,0],"sum_hessian":[1.3547E5,1.16972E5,1.8498E4,1.6912E4,1.0006E5,9.482E3,9.016E3,8.164E3,8.748E3,7.6852E4,2.3208E4,3.022E3,6.46E3,4.212E3,4.804E3,2.47E3,5.694E3,4.206E3,4.542E3,2.0755E4,5.6097E4,1.4531E4,8.677E3,2.542E3,4.8E2,2.417E3,4.043E3,3.133E3,1.079E3,5.9E1,4.745E3,1.103E3,1.367E3,2.173E3,3.521E3,2.032E3,2.174E3,2.245E3,2.297E3,1.0428E4,1.0327E4,1.7972E4,3.8125E4,1.897E3,1.2634E4,5.01E2,8.176E3,1.571E3,9.71E2,1.65E2,3.15E2,1.458E3,9.59E2,3.115E3,9.28E2,1.859E3,1.274E3,2.59E2,8.2E2,1.5E1,4.4E1,3.168E3,1.577E3],"tree_param":{"num_deleted":"0","num_feature":"8","num_nodes":"63","size_leaf_vector":"1"}},{"base_weights":[-6.253155E-5,-1.8425649E-3,1.497008E-2,1.2798546E-2,-3.4009577E-3,1.1135878E-2,2.056675E-2,8.203141E-3,1.8991202E-2,-4.3149353E-3,3.92537E-3,3.2894076E-3,1.5289332E-2,1.4966758E-2,2.3029957E-2,1.4285559E-2,1.496946E-3,2.2623328E-2,7.7385684E-3,2.294908E-3,-4.985027E-3,-1.1540959E-3,1.017087E-2,1.0112666E-2,-3.936909E-3,2.2659065E-2,9.005327E-3,2.0508641E-2,9.196583E-3,2.5766477E-2,1.9371942E-2,3.483429E-4,1.0268211E-3,7.223067E-4,-2.0953189E-4,3.952058E-4,1.1661146E-3,1.0307729E-3,-8.025677E-5,4.221336E-4,-2.0176475E-4,-1.8648959E-4,-3.678355E-4,4.6162828E-4,-2.1143265E-4,1.1136377E-3,2.705813E-4,1.4673696E-4,8.5459574E-4,2.073745E-4,-4.5067855E-4,1.2617814E-3,8.830431E-4,1.7445767E-4,8.486604E-4,4.998303E-4,1.2681473E-3,2.899109E-4,1.0892396E-3,1.130045E-3,1.3498869E-3,7.8628905E-4,1.2577808E-3],"categories":[],"categories_nodes":[],"categories_segments":[],"categories_sizes":[],"default_left":[0,0,0,0,0,0,0,0,0,0,0,0,0,0,0,0,0,0,0,0,0,0,0,0,0,0,0,0,0,0,0,0,0,0,0,0,0,0,0,0,0,0,0,0,0,0,0,0,0,0,0,0,0,0,0,0,0,0,0,0,0,0,0],"id":12,"left_children":[1,3,5,7,9,11,13,15,17,19,21,23,25,27,29,31,33,35,37,39,41,43,45,47,49,51,53,55,57,59,61,-1,-1,-1,-1,-1,-1,-1,-1,-1,-1,-1,-1,-1,-1,-1,-1,-1,-1,-1,-1,-1,-1,-1,-1,-1,-1,-1,-1,-1,-1,-1,-1],"loss_changes":[3.6373427E0,2.7733743E0,3.0541348E-1,3.298247E-1,7.359569E-1,2.7683365E-1,7.639837E-2,2.725899E-1,1.9991755E-1,4.3311548E-1,3.8724595E-1,1.4709926E-1,2.5523257E-1,5.4368615E-2,3.5438538E-2,1.5800297E-1,2.3720668E-1,3.527367E-2,1.4884222E-1,3.5002363E-1,2.630508E-1,2.1375452E-1,3.122177E-1,7.484536E-2,5.945997E-2,2.8258562E-2,1.307621E-1,4.2544454E-2,3.527455E-2,3.3670664E-3,3.2399595E-2,0E0,0E0,0E0,0E0,0E0,0E0,0E0,0E0,0E0,0E0,0E0,0E0,0E0,0E0,0E0,0E0,0E0,0E0,0E0,0E0,0E0,0E0,0E0,0E0,0E0,0E0,0E0,0E0,0E0,0E0,0E0,0E0],"parents":[2147483647,0,0,1,1,2,2,3,3,4,4,5,5,6,6,7,7,8,8,9,9,10,10,11,11,12,12,13,13,14,14,15,15,16,16,17,17,18,18,19,19,20,20,21,21,22,22,23,23,24,24,25,25,26,26,27,27,28,28,29,29,30,30],"right_children":[2,4,6,8,10,12,14,16,18,20,22,24,26,28,30,32,34,36,38,40,42,44,46,48,50,52,54,56,58,60,62,-1,-1,-1,-1,-1,-1,-1,-1,-1,-1,-1,-1,-1,-1,-1,-1,-1,-1,-1,-1,-1,-1,-1,-1,-1,-1,-1,-1,-1,-1,-1,-1],"split_conditions":[-3.848952E0,-6.859964E0,-3.31091E0,1.495639E1,-4.297781E0,5.53691E0,5.44972E0,5.89151E0,6.46444E0,-6.451654E0,5.80752E0,1.646977E1,1.870052E1,1.688706E1,1.989426E1,8.33804E0,-7.736686E0,1.8540615E3,-7.411436E0,5.97319E0,1.837178E1,1.380438E1,1.73982E1,5.17247E0,5.97007E0,1.743922E1,6.01313E0,4.87844E0,-2.461413E0,-3.138115E0,-2.7813E0,3.483429E-4,1.0268211E-3,7.223067E-4,-2.0953189E-4,3.952058E-4,1.1661146E-3,1.0307729E-3,-8.025677E-5,4.221336E-4,-2.0176475E-4,-1.8648959E-4,-3.678355E-4,4.6162828E-4,-2.1143265E-4,1.1136377E-3,2.705813E-4,1.4673696E-4,8.5459574E-4,2.073745E-4,-4.5067855E-4,1.2617814E-3,8.830431E-4,1.7445767E-4,8.486604E-4,4.998303E-4,1.2681473E-3,2.899109E-4,1.0892396E-3,1.130045E-3,1.3498869E-3,7.8628905E-4,1.2577808E-3],"split_indices":[7,7,7,2,7,5,5,5,5,7,5,2,2,2,2,2,7,1,7,5,2,2,2,5,4,2,5,5,7,7,7,0,0,0,0,0,0,0,0,0,0,0,0,0,0,0,0,0,0,0,0,0,0,0,0,0,0,0,0,0,0,0,0],"split_type":[0,0,0,0,0,0,0,0,0,0,0,0,0,0,0,0,0,0,0,0,0,0,0,0,0,0,0,0,0,0,0,0,0,0,0,0,0,0,0,0,0,0,0,0,0,0,0,0,0,0,0,0,0,0,0,0,0,0,0,0,0,0,0],"sum_hessian":[1.35979E5,1.21589E5,1.439E4,1.169E4,1.09899E5,8.552E3,5.838E3,6.721E3,4.969E3,9.7722E4,1.2177E4,2.969E3,5.583E3,1.798E3,4.04E3,3.516E3,3.205E3,3.749E3,1.22E3,8.981E3,8.8741E4,6.707E3,5.47E3,1.534E3,1.435E3,2.561E3,3.022E3,9.07E2,8.91E2,2.292E3,1.748E3,1.628E3,1.888E3,9.83E2,2.222E3,1.77E2,3.572E3,5.17E2,7.03E2,4.564E3,4.417E3,5.8058E4,3.0683E4,1.524E3,5.183E3,1.537E3,3.933E3,7.64E2,7.7E2,5.46E2,8.89E2,1.674E3,8.87E2,1.794E3,1.228E3,2.94E2,6.13E2,7.09E2,1.82E2,6.7E2,1.622E3,1.085E3,6.63E2],"tree_param":{"num_deleted":"0","num_feature":"8","num_nodes":"63","size_leaf_vector":"1"}},{"base_weights":[8.529182E-5,6.903722E-4,-1.4585201E-3,9.332645E-4,-5.013065E-4,-8.607285E-4,-3.2355292E-3,-3.0630795E-4,1.2026011E-3,4.468007E-4,-1.5092328E-3,-1.5978856E-3,1.3718785E-3,-2.7491176E-3,-6.9402196E-3,2.9850838E-4,-2.2832286E-3,1.6072523E-3,-6.077786E-5,2.412316E-3,-2.0202553E-4,-2.0943778E-3,6.917786E-4,-1.1031289E-3,-3.2205575E-3,1.0276352E-2,9.770794E-4,-4.3107118E-3,-1.5948355E-3,-1.2179944E-3,-6.46271E-3,-5.206244E-7,3.1494506E-4,3.2886452E-4,-1.4413311E-4,1.1909246E-4,4.9125294E-5,1.4347242E-5,-1.5793214E-4,7.808091E-5,6.971836E-4,-9.82047E-5,4.698236E-5,-1.8744811E-4,-2.194584E-5,-1.8691104E-5,3.0157604E-4,-1.9450186E-4,-2.9959787E-5,-3.6273294E-4,-1.242397E-4,-9.069425E-4,6.07627E-4,5.512677E-4,3.6251946E-5,-4.585573E-4,-1.8010603E-4,1.7904193E-4,-1.1517767E-4,-3.4841764E-4,1.9361448E-4],"categories":[],"categories_nodes":[],"categories_segments":[],"categories_sizes":[],"default_left":[0,0,0,0,0,0,0,0,0,0,0,0,0,0,0,0,0,0,0,0,0,0,0,0,0,0,0,0,0,0,0,0,0,0,0,0,0,0,0,0,0,0,0,0,0,0,0,0,0,0,0,0,0,0,0,0,0,0,0,0,0],"id":13,"left_children":[1,3,5,7,9,11,13,15,17,19,21,23,25,27,29,31,33,35,37,39,41,43,45,47,49,51,53,55,57,-1,59,-1,-1,-1,-1,-1,-1,-1,-1,-1,-1,-1,-1,-1,-1,-1,-1,-1,-1,-1,-1,-1,-1,-1,-1,-1,-1,-1,-1,-1,-1],"loss_changes":[1.2662964E-1,2.8263263E-2,4.0110417E-2,2.7151868E-2,1.5815435E-2,4.7074415E-2,1.6239151E-2,1.7420443E-2,3.4230635E-2,1.0959356E-2,1.0469466E-2,1.6845748E-2,2.3694443E-2,1.4680728E-2,5.785398E-3,2.1002345E-2,1.7776946E-2,2.4121284E-2,1.7642811E-2,1.9302735E-2,1.2763952E-2,1.703037E-2,9.950889E-3,2.27848E-2,1.3795331E-2,1.5029045E-2,1.5975138E-2,1.0967724E-2,1.789819E-2,0E0,5.8916323E-3,0E0,0E0,0E0,0E0,0E0,0E0,0E0,0E0,0E0,0E0,0E0,0E0,0E0,0E0,0E0,0E0,0E0,0E0,0E0,0E0,0E0,0E0,0E0,0E0,0E0,0E0,0E0,0E0,0E0,0E0],"parents":[2147483647,0,0,1,1,2,2,3,3,4,4,5,5,6,6,7,7,8,8,9,9,10,10,11,11,12,12,13,13,14,14,15,15,16,16,17,17,18,18,19,19,20,20,21,21,22,22,23,23,24,24,25,25,26,26,27,27,28,28,30,30],"right_children":[2,4,6,8,10,12,14,16,18,20,22,24,26,28,30,32,34,36,38,40,42,44,46,48,50,52,54,56,58,-1,60,-1,-1,-1,-1,-1,-1,-1,-1,-1,-1,-1,-1,-1,-1,-1,-1,-1,-1,-1,-1,-1,-1,-1,-1,-1,-1,-1,-1,-1,-1],"split_conditions":[1.910403E1,2.13338E0,2.210068E1,-1.087493E1,6.08959E0,6.25983E0,2.499706E1,6.22413E0,1.410898E1,2.0782073E3,6.73414E0,1.67457E0,5.0942E0,6.00873E0,1.96176E3,2.4218843E3,1.8431349E3,1.572643E1,2.3958625E3,2.0672126E3,5.5061E0,2.2309844E3,3.05731E0,-1.56858E0,5.46908E0,1.8723003E3,6.26694E0,-1.39869E0,6.07301E0,-1.2179944E-3,6.65811E0,-5.206244E-7,3.1494506E-4,3.2886452E-4,-1.4413311E-4,1.1909246E-4,4.9125294E-5,1.4347242E-5,-1.5793214E-4,7.808091E-5,6.971836E-4,-9.82047E-5,4.698236E-5,-1.8744811E-4,-2.194584E-5,-1.8691104E-5,3.0157604E-4,-1.9450186E-4,-2.9959787E-5,-3.6273294E-4,-1.242397E-4,-9.069425E-4,6.07627E-4,5.512677E-4,3.6251946E-5,-4.585573E-4,-1.8010603E-4,1.7904193E-4,-1.1517767E-4,-3.4841764E-4,1.9361448E-4],"split_indices":[2,6,2,3,4,5,2,4,3,1,4,6,4,5,1,1,1,2,1,1,5,1,6,6,5,1,5,6,5,0,4,0,0,0,0,0,0,0,0,0,0,0,0,0,0,0,0,0,0,0,0,0,0,0,0,0,0,0,0,0,0],"split_type":[0,0,0,0,0,0,0,0,0,0,0,0,0,0,0,0,0,0,0,0,0,0,0,0,0,0,0,0,0,0,0,0,0,0,0,0,0,0,0,0,0,0,0,0,0,0,0,0,0,0,0,0,0,0,0,0,0,0,0,0,0],"sum_hessian":[1.35639E5,9.7493E4,3.8146E4,8.1056E4,1.6437E4,2.8587E4,9.559E3,1.4402E4,6.6654E4,8.419E3,8.018E3,2.1525E4,7.062E3,8.475E3,1.084E3,1.099E4,3.412E3,5.0544E4,1.611E4,2.127E3,6.292E3,6.37E3,1.648E3,1.6544E4,4.981E3,2.88E2,6.774E3,3.564E3,4.911E3,2.2E1,1.062E3,1.0437E4,5.53E2,2.05E2,3.207E3,2.2493E4,2.8051E4,1.4456E4,1.654E3,1.99E3,1.37E2,2.508E3,3.784E3,3.155E3,3.215E3,1.359E3,2.89E2,2.502E3,1.4042E4,7.46E2,4.235E3,1.4E1,2.74E2,1.55E2,6.619E3,4.34E2,3.13E3,5.74E2,4.337E3,1.022E3,4E1],"tree_param":{"num_deleted":"0","num_feature":"8","num_nodes":"61","size_leaf_vector":"1"}},{"base_weights":[4.018763E-5,-1.7971332E-3,1.3396405E-2,1.16601E-2,-3.3338466E-3,8.467955E-3,1.8034324E-2,8.625334E-3,1.7575847E-2,-4.3687588E-3,2.1304556E-3,1.0214747E-3,1.2193203E-2,1.4036504E-2,2.2466274E-2,1.4093976E-2,4.042331E-3,1.982782E-2,7.5001465E-3,1.1599187E-3,-5.1079225E-3,-1.979464E-3,9.723822E-3,7.1498184E-3,-2.6542374E-3,1.738341E-2,7.2597256E-3,1.0183135E-2,2.0036222E-2,2.343786E-2,1.8843643E-2,1.8433455E-4,8.2281197E-4,7.129372E-4,-2.7720418E-5,1.4012011E-3,9.1956835E-4,8.8895066E-4,5.3031097E-5,2.5499144E-4,-3.6036776E-4,-2.8431884E-4,-1.4902963E-4,2.0759697E-4,-2.086981E-4,6.510492E-4,6.202011E-5,-3.6380324E-4,4.7259993E-4,-4.5207512E-4,2.1582644E-5,7.696246E-4,1.1687641E-3,1.7774994E-4,6.611932E-4,6.1907887E-4,3.4343935E-5,4.0507127E-4,1.077355E-3,1.1903241E-3,6.3500984E-4,7.7455945E-4,1.2030964E-3],"categories":[],"categories_nodes":[],"categories_segments":[],"categories_sizes":[],"default_left":[0,0,0,0,0,0,0,0,0,0,0,0,0,0,0,0,0,0,0,0,0,0,0,0,0,0,0,0,0,0,0,0,0,0,0,0,0,0,0,0,0,0,0,0,0,0,0,0,0,0,0,0,0,0,0,0,0,0,0,0,0,0,0],"id":14,"left_children":[1,3,5,7,9,11,13,15,17,19,21,23,25,27,29,31,33,35,37,39,41,43,45,47,49,51,53,55,57,59,61,-1,-1,-1,-1,-1,-1,-1,-1,-1,-1,-1,-1,-1,-1,-1,-1,-1,-1,-1,-1,-1,-1,-1,-1,-1,-1,-1,-1,-1,-1,-1,-1],"loss_changes":[3.3386018E0,2.471469E0,3.7327576E-1,2.1707952E-1,6.0704505E-1,2.2028077E-1,1.4601803E-1,2.0131356E-1,9.105587E-2,3.6914682E-1,5.3357875E-1,6.0703136E-2,1.3352978E-1,1.0000098E-1,9.412527E-3,8.854437E-2,2.0904517E-1,3.4578443E-2,4.87995E-2,3.501259E-1,9.707904E-2,1.489568E-1,1.6649687E-1,3.3929087E-2,3.3623572E-2,2.6541054E-2,5.875051E-2,5.5699676E-2,2.8146148E-2,8.43215E-3,1.0944277E-2,0E0,0E0,0E0,0E0,0E0,0E0,0E0,0E0,0E0,0E0,0E0,0E0,0E0,0E0,0E0,0E0,0E0,0E0,0E0,0E0,0E0,0E0,0E0,0E0,0E0,0E0,0E0,0E0,0E0,0E0,0E0,0E0],"parents":[2147483647,0,0,1,1,2,2,3,3,4,4,5,5,6,6,7,7,8,8,9,9,10,10,11,11,12,12,13,13,14,14,15,15,16,16,17,17,18,18,19,19,20,20,21,21,22,22,23,23,24,24,25,25,26,26,27,27,28,28,29,29,30,30],"right_children":[2,4,6,8,10,12,14,16,18,20,22,24,26,28,30,32,34,36,38,40,42,44,46,48,50,52,54,56,58,60,62,-1,-1,-1,-1,-1,-1,-1,-1,-1,-1,-1,-1,-1,-1,-1,-1,-1,-1,-1,-1,-1,-1,-1,-1,-1,-1,-1,-1,-1,-1,-1,-1],"split_conditions":[-3.940929E0,-6.830852E0,-3.52358E0,8.963977E1,-4.492558E0,5.5304E0,5.72456E0,5.9084E0,6.49059E0,-6.374446E0,5.9211E0,8.924429E1,9.064255E1,-2.988241E0,9.304355E1,8.289901E1,-7.632742E0,-7.736686E0,-7.411436E0,6.16207E0,-4.902586E0,2.1218284E3,9.225166E1,4.65335E0,5.17247E0,6.09267E0,6.01761E0,9.277878E1,4.83587E0,6.86987E0,-2.988241E0,1.8433455E-4,8.2281197E-4,7.129372E-4,-2.7720418E-5,1.4012011E-3,9.1956835E-4,8.8895066E-4,5.3031097E-5,2.5499144E-4,-3.6036776E-4,-2.8431884E-4,-1.4902963E-4,2.0759697E-4,-2.086981E-4,6.510492E-4,6.202011E-5,-3.6380324E-4,4.7259993E-4,-4.5207512E-4,2.1582644E-5,7.696246E-4,1.1687641E-3,1.7774994E-4,6.611932E-4,6.1907887E-4,3.4343935E-5,4.0507127E-4,1.077355E-3,1.1903241E-3,6.3500984E-4,7.7455945E-4,1.2030964E-3],"split_indices":[7,7,7,0,7,5,5,5,5,7,5,0,0,7,0,0,7,7,7,5,7,1,0,5,5,5,5,0,5,4,7,0,0,0,0,0,0,0,0,0,0,0,0,0,0,0,0,0,0,0,0,0,0,0,0,0,0,0,0,0,0,0,0],"split_type":[0,0,0,0,0,0,0,0,0,0,0,0,0,0,0,0,0,0,0,0,0,0,0,0,0,0,0,0,0,0,0,0,0,0,0,0,0,0,0,0,0,0,0,0,0,0,0,0,0,0,0,0,0,0,0,0,0,0,0,0,0,0,0],"sum_hessian":[1.36E5,1.19548E5,1.6452E4,1.2245E4,1.07303E5,7.988E3,8.464E3,8.106E3,4.139E3,9.0232E4,1.7071E4,2.673E3,5.315E3,4.464E3,4E3,3.685E3,4.421E3,3.374E3,7.65E2,1.0625E4,7.9607E4,1.1068E4,6.003E3,1.012E3,1.661E3,2.579E3,2.736E3,2.73E3,1.734E3,3.128E3,8.72E2,6.9E2,2.995E3,1.378E3,3.043E3,4.9E2,2.884E3,2.88E2,4.77E2,7.232E3,3.393E3,6.255E4,1.7057E4,2.905E3,8.163E3,4.314E3,1.689E3,1.33E2,8.79E2,5.51E2,1.11E3,1.951E3,6.28E2,1.699E3,1.037E3,2.208E3,5.22E2,2.03E2,1.531E3,3.014E3,1.14E2,5.45E2,3.27E2],"tree_param":{"num_deleted":"0","num_feature":"8","num_nodes":"63","size_leaf_vector":"1"}},{"base_weights":[9.977112E-6,-1.5602564E-3,1.4537619E-2,9.267037E-3,-3.1160999E-3,1.1286826E-2,1.9393735E-2,1.6183486E-2,6.658348E-3,-4.3940675E-3,2.352394E-3,1.4827436E-2,7.312997E-3,2.1492865E-2,1.605332E-2,1.2306664E-2,2.1766542E-2,-1.110181E-3,9.493696E-3,-1.1189025E-3,-5.216887E-3,7.339803E-3,-1.0400459E-4,1.7346527E-2,1.1361449E-2,1.0307379E-2,1.2770862E-3,-0E0,2.1729102E-2,1.3422061E-2,1.0765842E-3,1.500435E-4,6.9757074E-4,1.8373298E-4,1.1129961E-3,-3.258504E-4,3.3358425E-5,2.7320514E-4,6.791334E-4,-2.2100638E-4,2.751174E-4,-2.9626262E-4,-1.4662072E-4,5.304843E-4,1.9504636E-4,1.5455642E-4,-1.1625926E-4,8.897992E-4,-1.9777914E-5,6.776208E-4,5.690502E-5,2.9856642E-4,6.198904E-4,1.6842059E-4,-3.956769E-4,1.1087385E-3,-1.061872E-3,9.918073E-4,1.1785814E-3,7.551291E-4,4.1337108E-4],"categories":[],"categories_nodes":[],"categories_segments":[],"categories_sizes":[],"default_left":[0,0,0,0,0,0,0,0,0,0,0,0,0,0,0,0,0,0,0,0,0,0,0,0,0,0,0,0,0,0,0,0,0,0,0,0,0,0,0,0,0,0,0,0,0,0,0,0,0,0,0,0,0,0,0,0,0,0,0,0,0],"id":15,"left_children":[1,3,5,7,9,11,13,15,17,19,21,23,25,27,29,31,33,35,37,39,41,43,45,47,49,51,53,55,57,59,-1,-1,-1,-1,-1,-1,-1,-1,-1,-1,-1,-1,-1,-1,-1,-1,-1,-1,-1,-1,-1,-1,-1,-1,-1,-1,-1,-1,-1,-1,-1],"loss_changes":[3.0994809E0,2.0640242E0,2.0594358E-1,2.7530575E-1,7.491853E-1,1.09588504E-1,3.3070922E-2,8.731842E-2,2.4728113E-1,2.335043E-1,2.4926169E-1,3.3533037E-2,6.684019E-2,1.5551567E-2,2.6025832E-2,3.6435336E-2,1.2597382E-2,2.9255427E-2,1.332305E-1,3.8180137E-1,1.1142695E-1,7.393715E-2,9.63074E-2,2.0957172E-2,3.847538E-2,2.0785809E-2,2.3790084E-2,1.8403959E-2,6.3421726E-3,9.769559E-3,0E0,0E0,0E0,0E0,0E0,0E0,0E0,0E0,0E0,0E0,0E0,0E0,0E0,0E0,0E0,0E0,0E0,0E0,0E0,0E0,0E0,0E0,0E0,0E0,0E0,0E0,0E0,0E0,0E0,0E0,0E0],"parents":[2147483647,0,0,1,1,2,2,3,3,4,4,5,5,6,6,7,7,8,8,9,9,10,10,11,11,12,12,13,13,14,14,15,15,16,16,17,17,18,18,19,19,20,20,21,21,22,22,23,23,24,24,25,25,26,26,27,27,28,28,29,29],"right_children":[2,4,6,8,10,12,14,16,18,20,22,24,26,28,30,32,34,36,38,40,42,44,46,48,50,52,54,56,58,60,-1,-1,-1,-1,-1,-1,-1,-1,-1,-1,-1,-1,-1,-1,-1,-1,-1,-1,-1,-1,-1,-1,-1,-1,-1,-1,-1,-1,-1,-1,-1],"split_conditions":[-3.798884E0,-6.671936E0,-3.258867E0,-7.478252E0,-4.492558E0,9.082019E1,2.300785E3,8.83996E1,8.669436E1,-6.07139E0,8.910254E1,2.2364077E3,6.32313E0,8.212698E1,-2.651668E0,8.100116E1,1.8146956E3,8.320069E1,2.1929407E3,9.037767E1,-4.890557E0,6.03914E0,5.93962E0,3.28395E0,6.53423E0,-3.658909E0,9.433831E1,2.14928E0,-2.891417E0,9.341624E1,1.0765842E-3,1.500435E-4,6.9757074E-4,1.8373298E-4,1.1129961E-3,-3.258504E-4,3.3358425E-5,2.7320514E-4,6.791334E-4,-2.2100638E-4,2.751174E-4,-2.9626262E-4,-1.4662072E-4,5.304843E-4,1.9504636E-4,1.5455642E-4,-1.1625926E-4,8.897992E-4,-1.9777914E-5,6.776208E-4,5.690502E-5,2.9856642E-4,6.198904E-4,1.6842059E-4,-3.956769E-4,1.1087385E-3,-1.061872E-3,9.918073E-4,1.1785814E-3,7.551291E-4,4.1337108E-4],"split_indices":[7,7,7,7,7,0,1,0,0,7,0,1,4,0,7,0,1,0,1,0,7,4,4,6,4,7,0,6,7,0,0,0,0,0,0,0,0,0,0,0,0,0,0,0,0,0,0,0,0,0,0,0,0,0,0,0,0,0,0,0,0],"split_type":[0,0,0,0,0,0,0,0,0,0,0,0,0,0,0,0,0,0,0,0,0,0,0,0,0,0,0,0,0,0,0,0,0,0,0,0,0,0,0,0,0,0,0,0,0,0,0,0,0,0,0,0,0,0,0,0,0,0,0,0,0],"sum_hessian":[1.35813E5,1.2256E5,1.3253E4,1.539E4,1.0717E5,7.953E3,5.3E3,4.203E3,1.1187E4,8.6884E4,2.0286E4,4.191E3,3.762E3,3.233E3,2.067E3,2.493E3,1.71E3,2.982E3,8.205E3,1.747E4,6.9414E4,6.707E3,1.3579E4,2.408E3,1.783E3,2.503E3,1.259E3,3.7E1,3.196E3,1.411E3,6.56E2,3.84E2,2.109E3,5.1E1,1.659E3,7.51E2,2.231E3,4.146E3,4.059E3,1.1668E4,5.802E3,5.295E4,1.6464E4,3.422E3,3.285E3,5.55E3,8.029E3,2.354E3,5.4E1,1.46E3,3.23E2,8.31E2,1.672E3,1.035E3,2.24E2,1.9E1,1.8E1,1.609E3,1.587E3,1.048E3,3.63E2],"tree_param":{"num_deleted":"0","num_feature":"8","num_nodes":"61","size_leaf_vector":"1"}},{"base_weights":[-6.4668086E-5,-1.9707158E-3,1.05750095E-2,9.361323E-3,-3.5771409E-3,6.2156413E-3,1.565565E-2,4.0491386E-3,1.4539204E-2,-4.374674E-3,-5.684346E-5,1.247876E-2,3.140794E-3,1.3401399E-2,1.9199347E-2,1.2872137E-2,7.125032E-4,9.747207E-3,1.814498E-2,-1.47514E-3,-5.3448137E-3,6.1683017E-3,-3.5287975E-3,1.4589348E-2,6.9646602E-3,6.497074E-3,-6.045742E-4,1.7155372E-2,9.850321E-3,-4.70676E-3,1.941154E-2,1.342291E-4,8.134893E-4,-6.3861524E-5,3.0028363E-4,8.0291193E-4,1.9219785E-4,1.0094135E-3,6.272762E-4,-2.190534E-4,2.1652054E-4,3.2285603E-5,-3.0323182E-4,4.927512E-4,1.4947087E-4,2.637436E-5,-2.9801446E-4,9.6498645E-4,6.250214E-4,4.2904253E-4,-3.3740804E-4,4.5197477E-4,7.167042E-5,4.177941E-5,-3.6569973E-4,9.142117E-4,1.6066204E-4,6.70216E-4,2.3749415E-4,-1.2773237E-3,2.8120034E-4,8.726689E-4,1.0965669E-3],"categories":[],"categories_nodes":[],"categories_segments":[],"categories_sizes":[],"default_left":[0,0,0,0,0,0,0,0,0,0,0,0,0,0,0,0,0,0,0,0,0,0,0,0,0,0,0,0,0,0,0,0,0,0,0,0,0,0,0,0,0,0,0,0,0,0,0,0,0,0,0,0,0,0,0,0,0,0,0,0,0,0,0],"id":16,"left_children":[1,3,5,7,9,11,13,15,17,19,21,23,25,27,29,31,33,35,37,39,41,43,45,47,49,51,53,55,57,59,61,-1,-1,-1,-1,-1,-1,-1,-1,-1,-1,-1,-1,-1,-1,-1,-1,-1,-1,-1,-1,-1,-1,-1,-1,-1,-1,-1,-1,-1,-1,-1,-1],"loss_changes":[2.750877E0,2.094416E0,4.541273E-1,3.9089346E-1,2.8256357E-1,2.1222198E-1,7.241225E-2,2.064726E-1,1.2182188E-1,2.3042238E-1,4.0269676E-1,4.0163398E-2,9.435658E-2,7.4848056E-2,2.0209193E-2,6.483081E-2,5.4530725E-2,1.1399925E-1,4.3474436E-2,3.4797835E-1,2.658962E-1,7.6797634E-2,1.1869319E-1,2.2378206E-2,2.2935595E-2,4.9766198E-2,3.4589194E-2,4.215914E-2,5.2719235E-2,8.379336E-3,1.3678551E-2,0E0,0E0,0E0,0E0,0E0,0E0,0E0,0E0,0E0,0E0,0E0,0E0,0E0,0E0,0E0,0E0,0E0,0E0,0E0,0E0,0E0,0E0,0E0,0E0,0E0,0E0,0E0,0E0,0E0,0E0,0E0,0E0],"parents":[2147483647,0,0,1,1,2,2,3,3,4,4,5,5,6,6,7,7,8,8,9,9,10,10,11,11,12,12,13,13,14,14,15,15,16,16,17,17,18,18,19,19,20,20,21,21,22,22,23,23,24,24,25,25,26,26,27,27,28,28,29,29,30,30],"right_children":[2,4,6,8,10,12,14,16,18,20,22,24,26,28,30,32,34,36,38,40,42,44,46,48,50,52,54,56,58,60,62,-1,-1,-1,-1,-1,-1,-1,-1,-1,-1,-1,-1,-1,-1,-1,-1,-1,-1,-1,-1,-1,-1,-1,-1,-1,-1,-1,-1,-1,-1,-1,-1],"split_conditions":[-4.106086E0,-6.721981E0,-3.594426E0,1.405993E1,-4.644108E0,1.646977E1,-3.069023E0,-7.632742E0,8.843176E1,-6.016211E0,1.63891E1,6.39964E0,9.082019E1,9.055464E1,2.47914E0,4.89111E0,8.997528E1,-7.19541E0,-6.891137E0,9.037767E1,1.09441E1,5.99982E0,2.1968347E3,2.1102385E3,1.652962E1,2.049143E1,2.176863E1,2.299548E1,1.914596E1,8.289901E1,-2.651668E0,1.342291E-4,8.134893E-4,-6.3861524E-5,3.0028363E-4,8.0291193E-4,1.9219785E-4,1.0094135E-3,6.272762E-4,-2.190534E-4,2.1652054E-4,3.2285603E-5,-3.0323182E-4,4.927512E-4,1.4947087E-4,2.637436E-5,-2.9801446E-4,9.6498645E-4,6.250214E-4,4.2904253E-4,-3.3740804E-4,4.5197477E-4,7.167042E-5,4.177941E-5,-3.6569973E-4,9.142117E-4,1.6066204E-4,6.70216E-4,2.3749415E-4,-1.2773237E-3,2.8120034E-4,8.726689E-4,1.0965669E-3],"split_indices":[7,7,7,2,7,2,7,7,0,7,2,4,0,0,2,2,0,7,7,0,2,4,1,1,3,2,2,2,2,0,7,0,0,0,0,0,0,0,0,0,0,0,0,0,0,0,0,0,0,0,0,0,0,0,0,0,0,0,0,0,0,0,0],"split_type":[0,0,0,0,0,0,0,0,0,0,0,0,0,0,0,0,0,0,0,0,0,0,0,0,0,0,0,0,0,0,0,0,0,0,0,0,0,0,0,0,0,0,0,0,0,0,0,0,0,0,0,0,0,0,0,0,0,0,0,0,0,0,0],"sum_hessian":[1.35687E5,1.15081E5,2.0606E4,1.428E4,1.00801E5,1.1102E4,9.504E3,7.059E3,7.221E3,8.2159E4,1.8642E4,3.644E3,7.458E3,5.829E3,3.675E3,1.928E3,5.131E3,3.114E3,4.107E3,2.0624E4,6.1535E4,6.664E3,1.1978E4,2.621E3,1.023E3,3.947E3,3.511E3,2.818E3,3.011E3,2.8E1,3.647E3,4.9E2,1.438E3,3.716E3,1.415E3,1.496E3,1.618E3,2.994E3,1.113E3,1.3756E4,6.868E3,6.586E3,5.4949E4,3.07E3,3.594E3,4.474E3,7.504E3,7.88E2,1.833E3,9.22E2,1.01E2,2.614E3,1.333E3,2.879E3,6.32E2,2.6E3,2.18E2,1.762E3,1.249E3,1.2E1,1.6E1,2.079E3,1.568E3],"tree_param":{"num_deleted":"0","num_feature":"8","num_nodes":"63","size_leaf_vector":"1"}},{"base_weights":[-6.0091246E-5,2.9582583E-4,-8.1483595E-4,-1.6545234E-4,8.962709E-4,7.168826E-3,-9.0905355E-4,7.4196566E-4,-5.18562E-4,1.6952812E-3,-1.1557495E-4,1.263831E-2,9.1423455E-4,-2.6971032E-3,-6.343822E-4,9.325816E-4,-8.313799E-3,-5.560249E-4,8.707289E-3,-1.4015847E-3,1.9683635E-3,5.8019673E-3,-4.2093807E-4,2.3010015E-2,3.4454616E-3,2.6669584E-3,-9.502301E-4,-9.798011E-3,-2.3077647E-3,-2.8411354E-4,-2.4233519E-3,3.516232E-5,2.3570521E-4,-7.165827E-4,-5.0763913E-7,-3.4999507E-4,-2.5216566E-5,8.001281E-4,-0E0,-3.9264216E-4,1.1748112E-5,1.6299728E-4,6.2231615E-5,5.053816E-4,1.1990894E-4,1.8825487E-4,-4.2283875E-5,2.4424455E-4,1.3563257E-3,4.7595636E-4,-3.817988E-4,-3.821922E-5,4.6734355E-4,-6.675444E-4,-1.2084725E-4,-1.21725076E-4,1.0084677E-3,2.6773242E-4,-2.163579E-5,-2.1987152E-4,-5.9748458E-5],"categories":[],"categories_nodes":[],"categories_segments":[],"categories_sizes":[],"default_left":[0,0,0,0,0,0,0,0,0,0,0,0,0,0,0,0,0,0,0,0,0,0,0,0,0,0,0,0,0,0,0,0,0,0,0,0,0,0,0,0,0,0,0,0,0,0,0,0,0,0,0,0,0,0,0,0,0,0,0,0,0],"id":17,"left_children":[1,3,5,7,9,11,13,15,17,19,21,23,25,27,29,31,33,35,37,39,41,43,45,47,49,51,-1,53,55,57,59,-1,-1,-1,-1,-1,-1,-1,-1,-1,-1,-1,-1,-1,-1,-1,-1,-1,-1,-1,-1,-1,-1,-1,-1,-1,-1,-1,-1,-1,-1],"loss_changes":[3.650557E-2,2.558985E-2,3.2159217E-2,1.6642345E-2,3.2594196E-2,1.5601046E-2,2.0823829E-2,2.4281885E-2,1.2157305E-2,1.9064836E-2,3.1354263E-2,2.1683622E-2,6.8307645E-3,1.44921765E-2,2.316102E-2,1.1772309E-2,1.2957074E-2,1.1697259E-2,8.515971E-3,1.9683188E-2,1.8878162E-2,1.1182416E-2,2.9579427E-2,5.246736E-3,9.818303E-3,6.0684755E-3,0E0,5.786119E-3,1.3678415E-2,2.5754178E-2,1.4169347E-2,0E0,0E0,0E0,0E0,0E0,0E0,0E0,0E0,0E0,0E0,0E0,0E0,0E0,0E0,0E0,0E0,0E0,0E0,0E0,0E0,0E0,0E0,0E0,0E0,0E0,0E0,0E0,0E0,0E0,0E0],"parents":[2147483647,0,0,1,1,2,2,3,3,4,4,5,5,6,6,7,7,8,8,9,9,10,10,11,11,12,12,13,13,14,14,15,15,16,16,17,17,18,18,19,19,20,20,21,21,22,22,23,23,24,24,25,25,27,27,28,28,29,29,30,30],"right_children":[2,4,6,8,10,12,14,16,18,20,22,24,26,28,30,32,34,36,38,40,42,44,46,48,50,52,-1,54,56,58,60,-1,-1,-1,-1,-1,-1,-1,-1,-1,-1,-1,-1,-1,-1,-1,-1,-1,-1,-1,-1,-1,-1,-1,-1,-1,-1,-1,-1,-1,-1],"split_conditions":[6.24676E0,9.009268E1,1.7228706E3,2.0454742E3,1.4542E0,6.56074E0,-7.76115E0,8.994939E1,3.6917E0,-1.424804E1,1.984636E3,8.614044E1,6.39651E0,8.40602E1,2.21372E0,6.18475E0,5.90029E0,2.04827E3,1.837997E1,5.26725E0,2.2019155E3,5.73829E0,5.73134E0,6.30467E0,1.65756E0,6.91774E0,-9.502301E-4,-1.087493E1,9.601108E1,8.424903E1,2.45821E0,3.516232E-5,2.3570521E-4,-7.165827E-4,-5.0763913E-7,-3.4999507E-4,-2.5216566E-5,8.001281E-4,-0E0,-3.9264216E-4,1.1748112E-5,1.6299728E-4,6.2231615E-5,5.053816E-4,1.1990894E-4,1.8825487E-4,-4.2283875E-5,2.4424455E-4,1.3563257E-3,4.7595636E-4,-3.817988E-4,-3.821922E-5,4.6734355E-4,-6.675444E-4,-1.2084725E-4,-1.21725076E-4,1.0084677E-3,2.6773242E-4,-2.163579E-5,-2.1987152E-4,-5.9748458E-5],"split_indices":[4,0,1,1,6,4,3,0,6,3,1,0,5,0,6,4,5,1,3,4,1,5,3,4,6,4,0,3,0,0,6,0,0,0,0,0,0,0,0,0,0,0,0,0,0,0,0,0,0,0,0,0,0,0,0,0,0,0,0,0,0],"split_type":[0,0,0,0,0,0,0,0,0,0,0,0,0,0,0,0,0,0,0,0,0,0,0,0,0,0,0,0,0,0,0,0,0,0,0,0,0,0,0,0,0,0,0,0,0,0,0,0,0,0,0,0,0,0,0,0,0,0,0,0,0],"sum_hessian":[1.35702E5,9.2126E4,4.3576E4,5.2007E4,4.0119E4,4.95E2,4.3081E4,1.4489E4,3.7518E4,2.2472E4,1.7647E4,2.55E2,2.4E2,5.687E3,3.7394E4,1.4202E4,2.87E2,3.7378E4,1.4E2,1.791E3,2.0681E4,8.49E2,1.6798E4,1.14E2,1.41E2,2.26E2,1.4E1,2.81E2,5.406E3,3.1319E4,6.075E3,1.3416E4,7.86E2,1.59E2,1.28E2,2.81E2,3.7097E4,7.4E1,6.6E1,3.74E2,1.417E3,7.376E3,1.3305E4,3.61E2,4.88E2,1.525E3,1.5273E4,2.6E1,8.8E1,9.7E1,4.4E1,1.4E2,8.6E1,1.8E2,1.01E2,5.381E3,2.5E1,7.86E2,3.0533E4,2.298E3,3.777E3],"tree_param":{"num_deleted":"0","num_feature":"8","num_nodes":"61","size_leaf_vector":"1"}},{"base_weights":[-3.5674733E-5,-1.4500704E-3,1.3034646E-2,1.0732303E-2,-2.6634366E-3,1.0376655E-2,1.7788252E-2,6.2921755E-3,1.5984235E-2,-3.4316413E-3,3.8823027E-3,1.3703702E-2,5.182821E-3,-2.6652114E-3,1.804128E-2,1.46929715E-2,3.787903E-3,1.3922963E-2,1.9880988E-2,1.3601701E-3,-4.0675364E-3,9.207372E-3,1.091014E-3,1.590149E-2,8.6171655E-3,9.066303E-3,1.2481039E-3,-1.1762012E-3,3.3964852E-3,1.9852906E-2,1.5164995E-2,3.454297E-6,9.178864E-4,-2.5220175E-5,3.7931633E-4,8.986806E-4,5.656611E-4,3.7874703E-4,1.0626065E-3,-8.813943E-5,5.5549474E-4,-1.4765555E-4,-3.481484E-4,5.8642257E-4,1.1721063E-4,2.1442347E-4,-9.8585115E-5,8.5332495E-4,4.9596344E-4,5.6668464E-4,9.286202E-6,5.3108606E-4,4.507644E-6,1.8508184E-4,-3.040542E-4,-4.775763E-4,7.5147167E-4,1.0547829E-3,8.626096E-4,6.4538815E-4,9.548884E-4],"categories":[],"categories_nodes":[],"categories_segments":[],"categories_sizes":[],"default_left":[0,0,0,0,0,0,0,0,0,0,0,0,0,0,0,0,0,0,0,0,0,0,0,0,0,0,0,0,0,0,0,0,0,0,0,0,0,0,0,0,0,0,0,0,0,0,0,0,0,0,0,0,0,0,0,0,0,0,0,0,0],"id":18,"left_children":[1,3,5,7,9,11,13,15,17,19,21,23,25,27,29,31,33,35,37,39,41,43,45,47,49,51,53,-1,55,57,59,-1,-1,-1,-1,-1,-1,-1,-1,-1,-1,-1,-1,-1,-1,-1,-1,-1,-1,-1,-1,-1,-1,-1,-1,-1,-1,-1,-1,-1,-1],"loss_changes":[2.5118556E0,1.8124906E0,1.6462803E-1,2.566086E-1,5.6097937E-1,1.4535356E-1,2.6132107E-2,1.2493366E-1,3.711462E-2,3.045677E-1,1.7294094E-1,5.5363655E-2,5.0024375E-2,8.9204E-3,2.0635605E-2,7.1846396E-2,7.660713E-2,3.21756E-2,2.6265323E-2,3.5664767E-1,2.8352857E-1,6.8000466E-2,7.55769E-2,2.2256613E-2,3.503465E-2,2.222985E-2,2.9887103E-2,0E0,6.565662E-3,5.022168E-3,1.2869209E-2,0E0,0E0,0E0,0E0,0E0,0E0,0E0,0E0,0E0,0E0,0E0,0E0,0E0,0E0,0E0,0E0,0E0,0E0,0E0,0E0,0E0,0E0,0E0,0E0,0E0,0E0,0E0,0E0,0E0,0E0],"parents":[2147483647,0,0,1,1,2,2,3,3,4,4,5,5,6,6,7,7,8,8,9,9,10,10,11,11,12,12,13,13,14,14,15,15,16,16,17,17,18,18,19,19,20,20,21,21,22,22,23,23,24,24,25,25,26,26,28,28,29,29,30,30],"right_children":[2,4,6,8,10,12,14,16,18,20,22,24,26,28,30,32,34,36,38,40,42,44,46,48,50,52,54,-1,56,58,60,-1,-1,-1,-1,-1,-1,-1,-1,-1,-1,-1,-1,-1,-1,-1,-1,-1,-1,-1,-1,-1,-1,-1,-1,-1,-1,-1,-1,-1,-1],"split_conditions":[-3.798884E0,-6.891137E0,-3.20061E0,1.448087E1,-4.248661E0,1.914596E1,4.29004E0,-7.859601E0,1.886135E1,-6.374446E0,1.646977E1,6.36736E0,6.02855E0,2.1031448E3,2.300785E3,3.50012E0,9.86973E0,-7.411436E0,1.9809336E3,1.841127E1,1.910403E1,6.39964E0,1.16261E0,2.3987986E3,2.363573E3,2.330013E1,1.6919E0,-1.1762012E-3,5.25343E0,1.63151E0,-2.651668E0,3.454297E-6,9.178864E-4,-2.5220175E-5,3.7931633E-4,8.986806E-4,5.656611E-4,3.7874703E-4,1.0626065E-3,-8.813943E-5,5.5549474E-4,-1.4765555E-4,-3.481484E-4,5.8642257E-4,1.1721063E-4,2.1442347E-4,-9.8585115E-5,8.5332495E-4,4.9596344E-4,5.6668464E-4,9.286202E-6,5.3108606E-4,4.507644E-6,1.8508184E-4,-3.040542E-4,-4.775763E-4,7.5147167E-4,1.0547829E-3,8.626096E-4,6.4538815E-4,9.548884E-4],"split_indices":[7,7,7,2,7,2,2,7,2,7,2,4,4,1,1,2,2,7,1,2,2,4,6,1,1,2,6,0,4,6,7,0,0,0,0,0,0,0,0,0,0,0,0,0,0,0,0,0,0,0,0,0,0,0,0,0,0,0,0,0,0],"split_type":[0,0,0,0,0,0,0,0,0,0,0,0,0,0,0,0,0,0,0,0,0,0,0,0,0,0,0,0,0,0,0,0,0,0,0,0,0,0,0,0,0,0,0,0,0,0,0,0,0,0,0,0,0,0,0,0,0,0,0,0,0],"sum_hessian":[1.35935E5,1.22669E5,1.3266E4,1.1103E4,1.11566E5,8.524E3,4.742E3,6.028E3,5.075E3,9.9862E4,1.1704E4,5.183E3,3.341E3,5.3E1,4.689E3,1.374E3,4.654E3,3.339E3,1.736E3,1.1681E4,8.8181E4,4.012E3,7.692E3,3.604E3,1.579E3,1.668E3,1.673E3,1.5E1,3.8E1,2.852E3,1.837E3,2.81E2,1.093E3,2.173E3,2.481E3,1.291E3,2.048E3,1.82E2,1.554E3,8.84E3,2.841E3,6.37E4,2.4481E4,2.923E3,1.089E3,3.779E3,3.913E3,3.001E3,6.03E2,1.185E3,3.94E2,1.412E3,2.56E2,1.264E3,4.09E2,1.4E1,2.4E1,1.899E3,9.53E2,1.186E3,6.51E2],"tree_param":{"num_deleted":"0","num_feature":"8","num_nodes":"61","size_leaf_vector":"1"}},{"base_weights":[3.6169986E-5,-1.55725E-3,1.0439265E-2,8.1234155E-3,-3.0199345E-3,6.163647E-3,1.5183639E-2,1.0933269E-2,1.3663695E-3,-3.8925363E-3,3.003051E-4,2.8776482E-3,1.3454602E-2,1.20485155E-2,1.895493E-2,7.191374E-3,1.408483E-2,1.04421545E-2,-2.6551855E-3,-1.4692938E-3,-4.8067034E-3,-2.3608897E-3,1.0521389E-2,1.4961758E-2,1.639603E-3,3.1757122E-3,1.4766988E-2,1.818894E-2,9.523663E-3,1.829132E-2,1.1504005E-3,6.542616E-4,1.7108207E-4,8.825171E-4,5.711124E-4,8.294387E-4,3.3473043E-4,-3.4228052E-4,1.3936682E-4,2.0056397E-4,-2.7278683E-4,-2.4823478E-4,3.1028E-4,-2.8012155E-4,4.190671E-5,4.1502426E-4,9.6285157E-4,2.2106474E-4,8.684648E-4,-1.2563249E-4,2.3528832E-4,-0E0,7.1004976E-4,8.370671E-4,4.1367515E-4,7.069828E-4,1.0308306E-3,2.6455484E-4,6.9525535E-4,8.2301564E-4,1.007093E-3],"categories":[],"categories_nodes":[],"categories_segments":[],"categories_sizes":[],"default_left":[0,0,0,0,0,0,0,0,0,0,0,0,0,0,0,0,0,0,0,0,0,0,0,0,0,0,0,0,0,0,0,0,0,0,0,0,0,0,0,0,0,0,0,0,0,0,0,0,0,0,0,0,0,0,0,0,0,0,0,0,0],"id":19,"left_children":[1,3,5,7,9,11,13,15,17,19,21,23,25,27,29,31,33,35,37,39,41,43,45,47,49,51,53,55,57,59,-1,-1,-1,-1,-1,-1,-1,-1,-1,-1,-1,-1,-1,-1,-1,-1,-1,-1,-1,-1,-1,-1,-1,-1,-1,-1,-1,-1,-1,-1,-1],"loss_changes":[2.251131E0,1.6662594E0,3.6369514E-1,2.9194176E-1,2.9665887E-1,2.2595367E-1,9.763181E-2,1.2626565E-1,1.6676633E-1,1.7882037E-1,5.7914644E-1,9.645735E-2,3.784609E-2,6.961268E-2,5.831361E-3,1.09351486E-1,5.2893043E-2,2.9901385E-2,7.212848E-2,4.8565054E-1,1.0219121E-1,1.7533614E-1,8.244884E-2,1.3020858E-2,7.609805E-2,1.2875922E-2,3.0693054E-2,9.513646E-3,5.976084E-2,7.3355436E-3,0E0,0E0,0E0,0E0,0E0,0E0,0E0,0E0,0E0,0E0,0E0,0E0,0E0,0E0,0E0,0E0,0E0,0E0,0E0,0E0,0E0,0E0,0E0,0E0,0E0,0E0,0E0,0E0,0E0,0E0,0E0],"parents":[2147483647,0,0,1,1,2,2,3,3,4,4,5,5,6,6,7,7,8,8,9,9,10,10,11,11,12,12,13,13,14,14,15,15,16,16,17,17,18,18,19,19,20,20,21,21,22,22,23,23,24,24,25,25,26,26,27,27,28,28,29,29],"right_children":[2,4,6,8,10,12,14,16,18,20,22,24,26,28,30,32,34,36,38,40,42,44,46,48,50,52,54,56,58,60,-1,-1,-1,-1,-1,-1,-1,-1,-1,-1,-1,-1,-1,-1,-1,-1,-1,-1,-1,-1,-1,-1,-1,-1,-1,-1,-1,-1,-1,-1,-1],"split_conditions":[-4.005864E0,-6.671936E0,5.74228E0,6.23307E0,-4.644108E0,-3.258867E0,-3.52358E0,2.119722E3,-7.478252E0,-5.947896E0,6.10281E0,2.0032628E3,4.87844E0,2.1554531E3,6.30493E0,-7.295807E0,5.79927E0,-8.018691E0,2.205592E3,5.8334E0,6.80438E0,5.65831E0,6.50421E0,-3.895585E0,5.36877E0,1.586367E1,2.3732327E3,5.9387E0,6.01761E0,-3.138115E0,1.1504005E-3,6.542616E-4,1.7108207E-4,8.825171E-4,5.711124E-4,8.294387E-4,3.3473043E-4,-3.4228052E-4,1.3936682E-4,2.0056397E-4,-2.7278683E-4,-2.4823478E-4,3.1028E-4,-2.8012155E-4,4.190671E-5,4.1502426E-4,9.6285157E-4,2.2106474E-4,8.684648E-4,-1.2563249E-4,2.3528832E-4,-0E0,7.1004976E-4,8.370671E-4,4.1367515E-4,7.069828E-4,1.0308306E-3,2.6455484E-4,6.9525535E-4,8.2301564E-4,1.007093E-3],"split_indices":[7,7,5,5,7,7,7,1,7,7,5,1,5,1,5,7,5,7,1,5,5,5,5,7,5,3,1,5,5,7,0,0,0,0,0,0,0,0,0,0,0,0,0,0,0,0,0,0,0,0,0,0,0,0,0,0,0,0,0,0,0],"split_type":[0,0,0,0,0,0,0,0,0,0,0,0,0,0,0,0,0,0,0,0,0,0,0,0,0,0,0,0,0,0,0,0,0,0,0,0,0,0,0,0,0,0,0,0,0,0,0,0,0,0,0,0,0,0,0,0,0,0,0,0,0],"sum_hessian":[1.35747E5,1.17709E5,1.8038E4,1.5441E4,1.02268E5,9.5E3,8.538E3,1.0895E4,4.546E3,8.1008E4,2.126E4,6.559E3,2.941E3,4.679E3,3.859E3,4.997E3,5.898E3,1.403E3,3.143E3,2.222E4,5.8788E4,1.6861E4,4.399E3,6.01E2,5.958E3,3.42E2,2.599E3,1.35E3,3.329E3,3.342E3,5.17E2,1.938E3,3.059E3,2.503E3,3.395E3,5.2E2,8.83E2,1.786E3,1.357E3,9.346E3,1.2874E4,5.7966E4,8.22E2,8.39E3,8.471E3,3.518E3,8.81E2,1.2E2,4.81E2,2.517E3,3.441E3,2.62E2,8E1,1.98E3,6.19E2,5.24E2,8.26E2,1.706E3,1.623E3,1.712E3,1.63E3],"tree_param":{"num_deleted":"0","num_feature":"8","num_nodes":"61","size_leaf_vector":"1"}},{"base_weights":[6.147778E-5,4.316628E-4,-2.8005138E-3,3.6824422E-3,3.2997364E-4,-2.250373E-3,-5.4215584E-3,4.5392904E-3,-1.0848216E-3,-1.2634972E-5,1.4613563E-3,-3.3488066E-3,-5.7371845E-4,-5.5917385E-3,9.1691705E-4,6.8840077E-3,2.4697639E-3,4.8061586E-3,-5.338641E-3,2.2674205E-4,-1.8594329E-3,6.242294E-4,2.3624897E-3,1.0720857E-2,-3.4767566E-3,1.3471992E-3,-1.8183851E-3,-4.8455684E-3,-1.3022447E-2,-3.716222E-4,3.7413693E-4,-9.133528E-5,1.9431229E-4,-0E0,6.201119E-4,6.693885E-4,-4.3215207E-4,2.2721082E-5,-4.1138235E-5,-1.691093E-4,-1.6542053E-5,7.1697694E-4,2.450344E-5,1.3728188E-4,-5.242097E-6,8.341167E-4,-7.91814E-5,-3.9621114E-4,-1.549201E-4,1.0688442E-4,-2.4066994E-4,-3.6007594E-4,-5.5007848E-5,-2.7762525E-4,1.2480107E-4,-0E0,-8.0454367E-4],"categories":[],"categories_nodes":[],"categories_segments":[],"categories_sizes":[],"default_left":[0,0,0,0,0,0,0,0,0,0,0,0,0,0,0,0,0,0,0,0,0,0,0,0,0,0,0,0,0,0,0,0,0,0,0,0,0,0,0,0,0,0,0,0,0,0,0,0,0,0,0,0,0,0,0,0,0],"id":20,"left_children":[1,3,5,7,9,11,13,15,17,19,21,23,25,27,-1,29,31,33,35,37,39,41,43,45,47,49,51,53,55,-1,-1,-1,-1,-1,-1,-1,-1,-1,-1,-1,-1,-1,-1,-1,-1,-1,-1,-1,-1,-1,-1,-1,-1,-1,-1,-1,-1],"loss_changes":[1.4381997E-1,3.940764E-2,2.1631293E-2,1.5149675E-2,4.5421787E-2,2.3325004E-2,9.599663E-3,1.4036857E-2,1.3485561E-2,3.9769724E-2,2.0232111E-2,1.3255522E-2,1.232685E-2,1.28432065E-2,0E0,1.2275323E-2,1.0346028E-2,8.1079975E-3,1.9504579E-2,1.8903535E-2,2.3667738E-2,2.458173E-2,1.2601219E-2,6.157523E-3,1.18015185E-2,9.424052E-3,1.1333078E-2,1.2889788E-2,8.287996E-3,0E0,0E0,0E0,0E0,0E0,0E0,0E0,0E0,0E0,0E0,0E0,0E0,0E0,0E0,0E0,0E0,0E0,0E0,0E0,0E0,0E0,0E0,0E0,0E0,0E0,0E0,0E0,0E0],"parents":[2147483647,0,0,1,1,2,2,3,3,4,4,5,5,6,6,7,7,8,8,9,9,10,10,11,11,12,12,13,13,15,15,16,16,17,17,18,18,19,19,20,20,21,21,22,22,23,23,24,24,25,25,26,26,27,27,28,28],"right_children":[2,4,6,8,10,12,14,16,18,20,22,24,26,28,-1,30,32,34,36,38,40,42,44,46,48,50,52,54,56,-1,-1,-1,-1,-1,-1,-1,-1,-1,-1,-1,-1,-1,-1,-1,-1,-1,-1,-1,-1,-1,-1,-1,-1,-1,-1,-1,-1],"split_conditions":[2.12534E1,1.8146956E3,2.392249E1,6.23307E0,6.11821E0,6.16207E0,9.743708E1,1.16261E0,1.7228706E3,1.962584E1,9.017611E1,-2.83882E0,6.33873E0,9.328485E1,9.1691705E-4,4.83161E0,1.47102E0,1.00978E0,-1.48363E0,2.16463E0,5.80752E0,-2.57962E0,6.56962E0,9.190395E1,-1.64994E0,6.58731E0,8.709397E1,1.76577E0,6.1424E-1,-3.716222E-4,3.7413693E-4,-9.133528E-5,1.9431229E-4,-0E0,6.201119E-4,6.693885E-4,-4.3215207E-4,2.2721082E-5,-4.1138235E-5,-1.691093E-4,-1.6542053E-5,7.1697694E-4,2.450344E-5,1.3728188E-4,-5.242097E-6,8.341167E-4,-7.91814E-5,-3.9621114E-4,-1.549201E-4,1.0688442E-4,-2.4066994E-4,-3.6007594E-4,-5.5007848E-5,-2.7762525E-4,1.2480107E-4,-0E0,-8.0454367E-4],"split_indices":[2,1,2,5,5,5,0,6,1,2,0,6,5,0,0,4,6,6,6,6,5,6,4,0,6,4,0,6,6,0,0,0,0,0,0,0,0,0,0,0,0,0,0,0,0,0,0,0,0,0,0,0,0,0,0,0,0],"split_type":[0,0,0,0,0,0,0,0,0,0,0,0,0,0,0,0,0,0,0,0,0,0,0,0,0,0,0,0,0,0,0,0,0,0,0,0,0,0,0,0,0,0,0,0,0,0,0,0,0,0,0,0,0,0,0,0,0],"sum_hessian":[1.35969E5,1.20428E5,1.5541E4,3.622E3,1.16806E5,1.2878E4,2.663E3,3.088E3,5.34E2,8.9589E4,2.7217E4,7.744E3,5.134E3,2.649E3,1.4E1,1.424E3,1.664E3,2.14E2,3.2E2,7.9262E4,1.0327E4,1.4168E4,1.3049E4,6.2E1,7.682E3,1.987E3,3.147E3,2.421E3,2.28E2,5E1,1.374E3,3.95E2,1.269E3,1.3E2,8.4E1,4.3E1,2.77E2,6.5211E4,1.4051E4,5.14E3,5.187E3,1.29E2,1.4039E4,1.133E4,1.719E3,4.7E1,1.5E1,5.8E2,7.102E3,1.776E3,2.11E2,3.53E2,2.794E3,2.221E3,2E2,4.7E1,1.81E2],"tree_param":{"num_deleted":"0","num_feature":"8","num_nodes":"57","size_leaf_vector":"1"}},{"base_weights":[1.2422106E-5,5.92727E-4,-1.4675633E-3,5.0505176E-3,4.983201E-4,-1.0836619E-3,-4.106821E-3,5.586539E-3,-3.0032618E-3,-2.1656141E-4,9.01636E-4,-1.7373761E-3,8.2105683E-4,-1.240645E-2,-3.6050861E-3,6.407768E-3,-2.8274095E-4,-0E0,-1.5195493E-3,9.473933E-4,-7.80592E-4,-1.8949051E-3,1.0658497E-3,-1.1997027E-3,-3.0440122E-3,1.4735704E-3,-6.8210193E-4,-1.3368289E-2,-0E0,-8.887046E-3,-3.0707736E-3,4.5042808E-4,1.6155919E-4,-2.7834048E-4,4.5603022E-4,-4.750699E-4,2.616122E-4,2.0117925E-4,2.32957E-5,-3.241426E-4,-2.7661366E-5,-1.74469E-4,1.09549765E-4,3.2223496E-5,8.8743654E-5,-1.7244129E-4,-3.287774E-5,-1.6417149E-4,1.063477E-4,-1.0961979E-4,1.0484946E-4,-9.275104E-4,-1.5511489E-5,-7.96068E-4,-1.1276249E-4,9.37042E-4,-5.2096887E-4,-9.645074E-4,-1.4321579E-4],"categories":[],"categories_nodes":[],"categories_segments":[],"categories_sizes":[],"default_left":[0,0,0,0,0,0,0,0,0,0,0,0,0,0,0,0,0,0,0,0,0,0,0,0,0,0,0,0,0,0,0,0,0,0,0,0,0,0,0,0,0,0,0,0,0,0,0,0,0,0,0,0,0,0,0,0,0,0,0],"id":21,"left_children":[1,3,5,7,9,11,13,15,17,19,21,23,25,27,29,31,33,35,-1,37,39,41,43,45,47,49,51,53,-1,55,57,-1,-1,-1,-1,-1,-1,-1,-1,-1,-1,-1,-1,-1,-1,-1,-1,-1,-1,-1,-1,-1,-1,-1,-1,-1,-1,-1,-1],"loss_changes":[1.16600916E-1,4.0536966E-2,3.820157E-2,8.922048E-3,2.764537E-2,4.1682042E-2,1.8425629E-2,9.724159E-3,1.0978723E-2,2.2573775E-2,2.8040998E-2,1.7069519E-2,8.413296E-3,4.018124E-3,1.1640593E-2,1.2568653E-2,1.0527358E-2,4.895472E-3,0E0,1.6099237E-2,2.9418103E-2,2.2046972E-2,1.7048135E-2,2.1170944E-2,9.043805E-3,1.364137E-2,1.4892593E-2,5.211156E-3,0E0,1.6339477E-2,1.16528645E-2,0E0,0E0,0E0,0E0,0E0,0E0,0E0,0E0,0E0,0E0,0E0,0E0,0E0,0E0,0E0,0E0,0E0,0E0,0E0,0E0,0E0,0E0,0E0,0E0,0E0,0E0,0E0,0E0],"parents":[2147483647,0,0,1,1,2,2,3,3,4,4,5,5,6,6,7,7,8,8,9,9,10,10,11,11,12,12,13,13,14,14,15,15,16,16,17,17,19,19,20,20,21,21,22,22,23,23,24,24,25,25,26,26,27,27,29,29,30,30],"right_children":[2,4,6,8,10,12,14,16,18,20,22,24,26,28,30,32,34,36,-1,38,40,42,44,46,48,50,52,54,-1,56,58,-1,-1,-1,-1,-1,-1,-1,-1,-1,-1,-1,-1,-1,-1,-1,-1,-1,-1,-1,-1,-1,-1,-1,-1,-1,-1,-1,-1],"split_conditions":[1.910403E1,1.7555807E3,2.314643E1,1.837997E1,5.5988E0,6.25983E0,2.0193092E3,1.684068E1,9.079106E1,1.173749E1,8.97721E0,1.53094E0,2.153241E1,6.84761E0,-1.34237E0,8.606855E1,8.722852E1,5.11254E0,-1.5195493E-3,-2.07956E0,4.78681E0,2.2849448E3,9.079106E1,-1.39869E0,1.690013E1,-7.3095E-1,1.8723003E3,1.37669E0,-0E0,-2.65369E0,5.2965E0,4.5042808E-4,1.6155919E-4,-2.7834048E-4,4.5603022E-4,-4.750699E-4,2.616122E-4,2.0117925E-4,2.32957E-5,-3.241426E-4,-2.7661366E-5,-1.74469E-4,1.09549765E-4,3.2223496E-5,8.8743654E-5,-1.7244129E-4,-3.287774E-5,-1.6417149E-4,1.063477E-4,-1.0961979E-4,1.0484946E-4,-9.275104E-4,-1.5511489E-5,-7.96068E-4,-1.1276249E-4,9.37042E-4,-5.2096887E-4,-9.645074E-4,-1.4321579E-4],"split_indices":[2,1,2,3,5,5,1,2,0,2,2,6,2,5,6,0,0,5,0,6,5,1,0,6,3,6,1,6,0,6,5,0,0,0,0,0,0,0,0,0,0,0,0,0,0,0,0,0,0,0,0,0,0,0,0,0,0,0,0],"split_type":[0,0,0,0,0,0,0,0,0,0,0,0,0,0,0,0,0,0,0,0,0,0,0,0,0,0,0,0,0,0,0,0,0,0,0,0,0,0,0,0,0,0,0,0,0,0,0,0,0,0,0,0,0,0,0,0,0,0,0],"sum_hessian":[1.35865E5,9.7646E4,3.8219E4,2.002E3,9.5644E4,3.34E4,4.819E3,1.889E3,1.13E2,3.4408E4,6.1236E4,2.4905E4,8.495E3,2.62E2,4.557E3,1.672E3,2.17E2,1.01E2,1.2E1,1.1173E4,2.3235E4,3.362E3,5.7874E4,1.77E4,7.205E3,5.97E3,2.525E3,2.48E2,1.4E1,4E2,4.157E3,9.01E2,7.71E2,1.46E2,7.1E1,3.2E1,6.9E1,1.483E3,9.69E3,8.73E2,2.2362E4,2.436E3,9.26E2,3.639E4,2.1484E4,3.401E3,1.4299E4,6.905E3,3E2,8.44E2,5.126E3,4.5E1,2.48E3,1.94E2,5.4E1,1.7E1,3.83E2,4.5E1,4.112E3],"tree_param":{"num_deleted":"0","num_feature":"8","num_nodes":"59","size_leaf_vector":"1"}},{"base_weights":[3.7211888E-7,-1.66079E-3,8.978698E-3,6.8149E-3,-3.302162E-3,5.6404397E-3,1.3481425E-2,2.4741609E-3,1.1576709E-2,-2.505748E-3,-6.067444E-3,1.0254489E-2,2.1002241E-3,1.2382799E-2,1.8523194E-2,1.0402236E-2,-4.9824914E-4,6.4159883E-3,1.596752E-2,-3.8820333E-3,9.314866E-4,2.7873132E-3,-7.966343E-3,1.284949E-2,5.9671956E-3,5.9154923E-3,-1.6944323E-3,1.3804666E-2,6.7860316E-3,-0E0,1.8655276E-2,-1.557569E-5,6.266636E-4,-2.2254318E-4,8.7170294E-5,6.9852255E-4,8.785976E-5,6.6139264E-4,9.828563E-4,-2.3176579E-4,-9.790765E-5,3.3054134E-4,-5.5571727E-5,-1.5506423E-4,3.1793184E-4,-3.330443E-4,-4.4385117E-4,8.025897E-4,4.5809342E-4,4.0721075E-4,2.3683546E-5,6.920117E-4,2.207357E-4,-1.5175858E-6,-4.8838864E-4,8.092732E-4,4.9710536E-4,1.086654E-3,2.8351592E-4,8.987887E-4,1.3456668E-3],"categories":[],"categories_nodes":[],"categories_segments":[],"categories_sizes":[],"default_left":[0,0,0,0,0,0,0,0,0,0,0,0,0,0,0,0,0,0,0,0,0,0,0,0,0,0,0,0,0,0,0,0,0,0,0,0,0,0,0,0,0,0,0,0,0,0,0,0,0,0,0,0,0,0,0,0,0,0,0,0,0],"id":22,"left_children":[1,3,5,7,9,11,13,15,17,19,21,23,25,27,29,31,33,35,37,39,41,43,45,47,49,51,53,55,57,-1,59,-1,-1,-1,-1,-1,-1,-1,-1,-1,-1,-1,-1,-1,-1,-1,-1,-1,-1,-1,-1,-1,-1,-1,-1,-1,-1,-1,-1,-1,-1],"loss_changes":[2.0260105E0,1.5937088E0,3.168398E-1,3.826105E-1,2.1055591E-1,1.97945E-1,4.6625376E-2,2.3033495E-1,1.9817531E-1,3.5304174E-1,3.6100483E-1,5.6806743E-2,1.00530475E-1,5.69185E-2,2.960205E-3,6.2026054E-2,6.292152E-2,1.4199696E-1,4.466808E-2,7.652748E-2,2.4768934E-1,7.977611E-2,1.9384623E-2,3.6005616E-2,2.3149036E-2,3.9276056E-2,4.542331E-2,5.1519394E-2,2.2484891E-2,0E0,3.8989186E-3,0E0,0E0,0E0,0E0,0E0,0E0,0E0,0E0,0E0,0E0,0E0,0E0,0E0,0E0,0E0,0E0,0E0,0E0,0E0,0E0,0E0,0E0,0E0,0E0,0E0,0E0,0E0,0E0,0E0,0E0],"parents":[2147483647,0,0,1,1,2,2,3,3,4,4,5,5,6,6,7,7,8,8,9,9,10,10,11,11,12,12,13,13,14,14,15,15,16,16,17,17,18,18,19,19,20,20,21,21,22,22,23,23,24,24,25,25,26,26,27,27,28,28,30,30],"right_children":[2,4,6,8,10,12,14,16,18,20,22,24,26,28,30,32,34,36,38,40,42,44,46,48,50,52,54,56,58,-1,60,-1,-1,-1,-1,-1,-1,-1,-1,-1,-1,-1,-1,-1,-1,-1,-1,-1,-1,-1,-1,-1,-1,-1,-1,-1,-1,-1,-1,-1,-1],"split_conditions":[-4.124371E0,-6.532253E0,-3.558728E0,1.474635E1,1.971517E1,1.747816E1,-2.651668E0,-7.478252E0,8.878091E1,-4.902586E0,-5.883447E0,9.112932E1,9.069963E1,9.287924E1,8.212698E1,3.50012E0,9.35839E0,-7.149638E0,1.853434E1,9.112932E1,1.411989E1,8.868641E1,2.093789E1,6.10535E0,6.40654E0,8.680353E1,2.219395E1,1.949505E1,1.289052E1,-0E0,2.57132E0,-1.557569E-5,6.266636E-4,-2.2254318E-4,8.7170294E-5,6.9852255E-4,8.785976E-5,6.6139264E-4,9.828563E-4,-2.3176579E-4,-9.790765E-5,3.3054134E-4,-5.5571727E-5,-1.5506423E-4,3.1793184E-4,-3.330443E-4,-4.4385117E-4,8.025897E-4,4.5809342E-4,4.0721075E-4,2.3683546E-5,6.920117E-4,2.207357E-4,-1.5175858E-6,-4.8838864E-4,8.092732E-4,4.9710536E-4,1.086654E-3,2.8351592E-4,8.987887E-4,1.3456668E-3],"split_indices":[7,7,7,2,2,2,7,7,0,7,7,0,0,0,0,2,2,7,2,0,2,0,2,4,4,0,2,2,2,0,6,0,0,0,0,0,0,0,0,0,0,0,0,0,0,0,0,0,0,0,0,0,0,0,0,0,0,0,0,0,0],"split_type":[0,0,0,0,0,0,0,0,0,0,0,0,0,0,0,0,0,0,0,0,0,0,0,0,0,0,0,0,0,0,0,0,0,0,0,0,0,0,0,0,0,0,0,0,0,0,0,0,0,0,0,0,0,0,0,0,0,0,0,0,0],"sum_hessian":[1.35791E5,1.14581E5,2.121E4,1.8579E4,9.6002E4,1.2194E4,9.016E3,9.731E3,8.848E3,7.4565E4,2.1437E4,5.281E3,6.913E3,7.422E3,1.594E3,2.662E3,7.069E3,4.079E3,4.769E3,5.3266E4,2.1299E4,3.776E3,1.7661E4,3.274E3,2.007E3,3.46E3,3.453E3,5.903E3,1.519E3,1.4E1,1.58E3,4.34E2,2.228E3,2.574E3,4.495E3,1.547E3,2.532E3,2.755E3,2.014E3,3.824E4,1.5026E4,5.647E3,1.5652E4,1.415E3,2.361E3,7.306E3,1.0355E4,1.736E3,1.538E3,1.424E3,5.83E2,5.39E2,2.921E3,2.874E3,5.79E2,3.634E3,2.269E3,9.8E1,1.421E3,1.474E3,1.06E2],"tree_param":{"num_deleted":"0","num_feature":"8","num_nodes":"61","size_leaf_vector":"1"}},{"base_weights":[-1.6875327E-5,-1.625608E-3,8.685515E-3,6.494746E-3,-3.1939172E-3,4.8242332E-3,1.3525833E-2,1.1247954E-2,2.4234967E-3,-3.953082E-3,-4.1069582E-4,1.8400146E-3,1.2126846E-2,1.9217055E-2,1.0374429E-2,3.487109E-3,1.7983982E-2,-2.16073E-3,9.306452E-3,-1.7675525E-3,-4.6927487E-3,-2.948286E-3,9.039196E-3,6.731512E-3,-3.8615833E-3,1.4964E-2,6.653422E-3,2.3481851E-2,1.818362E-2,6.359659E-3,1.6278176E-2,4.949227E-4,-1.3105097E-4,7.5510005E-4,1.2536744E-3,4.102585E-4,-3.3368412E-4,7.166695E-4,-0E0,1.8559906E-4,-2.7825517E-4,-9.6555246E-5,-3.001267E-4,1.18284464E-4,-3.4540796E-4,9.90923E-4,1.3319119E-4,-6.4655746E-5,5.3827086E-4,-8.987344E-5,-5.933224E-4,4.2095897E-4,8.7075E-4,6.61509E-5,7.3244656E-4,1.2347427E-3,5.0813565E-4,7.8648265E-4,1.0260994E-3,8.0131256E-5,6.615245E-4,8.411061E-4,3.6276388E-4],"categories":[],"categories_nodes":[],"categories_segments":[],"categories_sizes":[],"default_left":[0,0,0,0,0,0,0,0,0,0,0,0,0,0,0,0,0,0,0,0,0,0,0,0,0,0,0,0,0,0,0,0,0,0,0,0,0,0,0,0,0,0,0,0,0,0,0,0,0,0,0,0,0,0,0,0,0,0,0,0,0,0,0],"id":23,"left_children":[1,3,5,7,9,11,13,15,17,19,21,23,25,27,29,31,33,35,37,39,41,43,45,47,49,51,53,55,57,59,61,-1,-1,-1,-1,-1,-1,-1,-1,-1,-1,-1,-1,-1,-1,-1,-1,-1,-1,-1,-1,-1,-1,-1,-1,-1,-1,-1,-1,-1,-1,-1,-1],"loss_changes":[1.9013938E0,1.4601411E0,3.9409983E-1,3.5763383E-1,2.0266896E-1,2.557118E-1,1.6525435E-1,4.4465637E-1,3.1645432E-1,1.213913E-1,4.9412397E-1,2.3422098E-1,5.073893E-2,1.01008415E-2,1.4119685E-1,1.566157E-1,8.895683E-2,2.8049287E-1,1.8755636E-1,3.981952E-1,2.0310163E-1,3.4287685E-1,2.972574E-1,1.4740567E-1,6.2456973E-2,3.312242E-2,4.863157E-2,6.409347E-3,1.1585534E-2,1.1671634E-1,9.450614E-3,0E0,0E0,0E0,0E0,0E0,0E0,0E0,0E0,0E0,0E0,0E0,0E0,0E0,0E0,0E0,0E0,0E0,0E0,0E0,0E0,0E0,0E0,0E0,0E0,0E0,0E0,0E0,0E0,0E0,0E0,0E0,0E0],"parents":[2147483647,0,0,1,1,2,2,3,3,4,4,5,5,6,6,7,7,8,8,9,9,10,10,11,11,12,12,13,13,14,14,15,15,16,16,17,17,18,18,19,19,20,20,21,21,22,22,23,23,24,24,25,25,26,26,27,27,28,28,29,29,30,30],"right_children":[2,4,6,8,10,12,14,16,18,20,22,24,26,28,30,32,34,36,38,40,42,44,46,48,50,52,54,56,58,60,62,-1,-1,-1,-1,-1,-1,-1,-1,-1,-1,-1,-1,-1,-1,-1,-1,-1,-1,-1,-1,-1,-1,-1,-1,-1,-1,-1,-1,-1,-1,-1,-1],"split_conditions":[-4.124371E0,-6.532253E0,5.78231E0,5.94712E0,-4.709446E0,-3.31091E0,1.833009E1,1.12989E1,1.724631E1,-5.947896E0,6.10281E0,1.736225E1,1.894336E1,1.458855E1,-3.52358E0,5.52487E0,1.724631E1,-7.478252E0,6.46444E0,5.81232E0,1.495639E1,1.646977E1,1.841127E1,5.1879E0,2.118741E1,5.12951E0,-2.7813E0,2.4285771E3,5.99055E0,6.12348E0,2.453206E1,4.949227E-4,-1.3105097E-4,7.5510005E-4,1.2536744E-3,4.102585E-4,-3.3368412E-4,7.166695E-4,-0E0,1.8559906E-4,-2.7825517E-4,-9.6555246E-5,-3.001267E-4,1.18284464E-4,-3.4540796E-4,9.90923E-4,1.3319119E-4,-6.4655746E-5,5.3827086E-4,-8.987344E-5,-5.933224E-4,4.2095897E-4,8.7075E-4,6.61509E-5,7.3244656E-4,1.2347427E-3,5.0813565E-4,7.8648265E-4,1.0260994E-3,8.0131256E-5,6.615245E-4,8.411061E-4,3.6276388E-4],"split_indices":[7,7,5,5,7,7,2,2,2,7,5,2,2,2,7,5,2,7,5,5,2,2,2,5,2,5,7,1,5,5,2,0,0,0,0,0,0,0,0,0,0,0,0,0,0,0,0,0,0,0,0,0,0,0,0,0,0,0,0,0,0,0,0],"split_type":[0,0,0,0,0,0,0,0,0,0,0,0,0,0,0,0,0,0,0,0,0,0,0,0,0,0,0,0,0,0,0,0,0,0,0,0,0,0,0,0,0,0,0,0,0,0,0,0,0,0,0,0,0,0,0,0,0,0,0,0,0,0,0],"sum_hessian":[1.35864E5,1.14677E5,2.1187E4,1.8552E4,9.6125E4,1.1798E4,9.389E3,8.547E3,1.0005E4,7.5496E4,2.0629E4,8.386E3,3.412E3,3.333E3,6.056E3,3.979E3,4.568E3,5.997E3,4.008E3,1.9125E4,5.6371E4,1.6271E4,4.358E3,4.523E3,3.863E3,2.234E3,1.178E3,6.27E2,2.706E3,3.616E3,2.44E3,1.949E3,2.03E3,3.26E3,1.308E3,1.812E3,4.185E3,2.602E3,1.406E3,7.818E3,1.1307E4,1.816E4,3.8211E4,6.937E3,9.334E3,1.613E3,2.745E3,1.505E3,3.018E3,3.082E3,7.81E2,6.21E2,1.613E3,7.15E2,4.63E2,5.67E2,6E1,1.345E3,1.361E3,2.146E3,1.47E3,2.29E3,1.5E2],"tree_param":{"num_deleted":"0","num_feature":"8","num_nodes":"63","size_leaf_vector":"1"}},{"base_weights":[-3.4964276E-5,-1.4313086E-3,9.08623E-3,7.1337475E-3,-2.7214906E-3,3.2105364E-3,1.2191451E-2,2.6853937E-3,1.1392161E-2,-3.5911216E-3,1.4098163E-4,-8.379718E-4,8.596882E-3,1.5086572E-2,6.394045E-3,9.45884E-3,-2.6928333E-3,1.7669842E-2,5.015448E-3,-1.768763E-4,-4.1238884E-3,-2.2313062E-3,9.102423E-3,8.22962E-3,-4.162186E-3,1.3331105E-2,3.9764927E-3,1.8615272E-2,1.2538963E-2,3.2956847E-3,1.5295032E-2,1.9753673E-4,8.0906245E-4,4.4750376E-4,-3.3575547E-4,1.0180657E-3,6.7714154E-4,7.827162E-4,2.8449334E-5,-1.7492652E-4,3.8375086E-4,2.1190568E-5,-2.2616827E-4,1.03889906E-4,-3.488583E-4,7.187708E-4,-5.919254E-5,-1.3055922E-4,7.349544E-4,-4.925953E-4,-6.662573E-5,-4.3943928E-5,7.739314E-4,-6.105627E-5,5.747284E-4,1.1015184E-3,8.679842E-4,3.9502894E-4,8.435837E-4,-1.776323E-5,6.477903E-4,5.176006E-4,8.4144896E-4],"categories":[],"categories_nodes":[],"categories_segments":[],"categories_sizes":[],"default_left":[0,0,0,0,0,0,0,0,0,0,0,0,0,0,0,0,0,0,0,0,0,0,0,0,0,0,0,0,0,0,0,0,0,0,0,0,0,0,0,0,0,0,0,0,0,0,0,0,0,0,0,0,0,0,0,0,0,0,0,0,0,0,0],"id":24,"left_children":[1,3,5,7,9,11,13,15,17,19,21,23,25,27,29,31,33,35,37,39,41,43,45,47,49,51,53,55,57,59,61,-1,-1,-1,-1,-1,-1,-1,-1,-1,-1,-1,-1,-1,-1,-1,-1,-1,-1,-1,-1,-1,-1,-1,-1,-1,-1,-1,-1,-1,-1,-1,-1],"loss_changes":[1.7310569E0,1.3027835E0,3.2762122E-1,2.9083216E-1,2.5550807E-1,1.3709657E-1,1.9569135E-1,2.7606988E-1,3.127265E-1,1.4262605E-1,5.0792867E-1,1.0690508E-1,5.7122782E-2,6.724763E-2,1.06777266E-1,1.2211391E-1,1.9680774E-1,4.0298343E-2,1.8352187E-1,2.771661E-1,1.2395668E-1,3.8613772E-1,2.726962E-1,6.7664295E-2,4.093782E-2,4.1724518E-2,5.4771E-2,9.717345E-3,8.943272E-2,1.04707494E-1,4.7582686E-3,0E0,0E0,0E0,0E0,0E0,0E0,0E0,0E0,0E0,0E0,0E0,0E0,0E0,0E0,0E0,0E0,0E0,0E0,0E0,0E0,0E0,0E0,0E0,0E0,0E0,0E0,0E0,0E0,0E0,0E0,0E0,0E0],"parents":[2147483647,0,0,1,1,2,2,3,3,4,4,5,5,6,6,7,7,8,8,9,9,10,10,11,11,12,12,13,13,14,14,15,15,16,16,17,17,18,18,19,19,20,20,21,21,22,22,23,23,24,24,25,25,26,26,27,27,28,28,29,29,30,30],"right_children":[2,4,6,8,10,12,14,16,18,20,22,24,26,28,30,32,34,36,38,40,42,44,46,48,50,52,54,56,58,60,62,-1,-1,-1,-1,-1,-1,-1,-1,-1,-1,-1,-1,-1,-1,-1,-1,-1,-1,-1,-1,-1,-1,-1,-1,-1,-1,-1,-1,-1,-1,-1,-1],"split_conditions":[-4.005864E0,-6.671936E0,5.5304E0,1.405993E1,-4.709446E0,-3.443254E0,2.038454E1,5.76046E0,6.15091E0,-6.271653E0,6.10281E0,1.373906E1,1.688706E1,1.728217E1,-3.138115E0,8.78725E0,-7.736686E0,5.94275E0,-7.411436E0,1.794095E1,9.70461E0,1.743922E1,2.07597E1,4.91556E0,5.2018E0,4.51663E0,-2.891417E0,1.430249E1,-3.594426E0,6.17915E0,5.79121E0,1.9753673E-4,8.0906245E-4,4.4750376E-4,-3.3575547E-4,1.0180657E-3,6.7714154E-4,7.827162E-4,2.8449334E-5,-1.7492652E-4,3.8375086E-4,2.1190568E-5,-2.2616827E-4,1.03889906E-4,-3.488583E-4,7.187708E-4,-5.919254E-5,-1.3055922E-4,7.349544E-4,-4.925953E-4,-6.662573E-5,-4.3943928E-5,7.739314E-4,-6.105627E-5,5.747284E-4,1.1015184E-3,8.679842E-4,3.9502894E-4,8.435837E-4,-1.776323E-5,6.477903E-4,5.176006E-4,8.4144896E-4],"split_indices":[7,7,5,2,7,7,2,5,5,7,5,2,2,2,7,2,7,5,7,2,2,2,2,5,5,5,7,2,7,5,5,0,0,0,0,0,0,0,0,0,0,0,0,0,0,0,0,0,0,0,0,0,0,0,0,0,0,0,0,0,0,0,0],"split_type":[0,0,0,0,0,0,0,0,0,0,0,0,0,0,0,0,0,0,0,0,0,0,0,0,0,0,0,0,0,0,0,0,0,0,0,0,0,0,0,0,0,0,0,0,0,0,0,0,0,0,0,0,0,0,0,0,0,0,0,0,0,0,0],"sum_hessian":[1.35973E5,1.17931E5,1.8042E4,1.5428E4,1.02503E5,6.25E3,1.1792E4,7.558E3,7.87E3,7.8645E4,2.3858E4,3.558E3,2.692E3,7.852E3,3.94E3,3.353E3,4.205E3,3.957E3,3.913E3,1.0641E4,6.8004E4,1.8856E4,5.002E3,9.46E2,2.612E3,1.318E3,1.374E3,3.273E3,4.579E3,2.932E3,1.008E3,1.852E3,1.501E3,1.073E3,3.132E3,2.378E3,1.579E3,1.146E3,2.767E3,7.487E3,3.154E3,5.471E3,6.2533E4,9.872E3,8.984E3,3.313E3,1.689E3,3.48E2,5.98E2,8.55E2,1.757E3,1.67E2,1.151E3,8.05E2,5.69E2,8.54E2,2.419E3,2.224E3,2.355E3,2.121E3,8.11E2,2.56E2,7.52E2],"tree_param":{"num_deleted":"0","num_feature":"8","num_nodes":"63","size_leaf_vector":"1"}},{"base_weights":[-3.4025377E-6,-1.1210621E-3,1.0327708E-2,8.774031E-3,-2.0071866E-3,3.3071954E-3,1.24755595E-2,1.8144238E-3,1.1451379E-2,-2.6479058E-3,3.4887784E-3,9.523675E-3,-1.1868946E-3,1.601144E-2,9.28778E-3,9.023619E-3,-2.9819016E-3,1.6362494E-2,6.5661985E-3,1.3723248E-3,-3.200968E-3,-8.0535933E-4,8.878229E-3,-4.8772166E-3,1.3090473E-2,5.8352468E-3,-5.866638E-3,1.3835594E-2,1.9363992E-2,4.0115505E-3,1.3034049E-2,6.097543E-4,3.6643578E-5,3.3385505E-4,-4.0233685E-4,6.462949E-4,9.5228525E-4,1.4585383E-4,7.7564793E-4,3.2589462E-4,-2.0255474E-4,-8.228378E-5,-2.3550911E-4,2.1870679E-4,-2.9463004E-4,8.1582443E-4,2.1260219E-4,-3.8235748E-4,7.23928E-4,3.5226328E-4,8.338952E-4,6.2227267E-4,9.896725E-6,-5.098781E-4,2.2587365E-4,4.1067335E-4,7.695466E-4,1.0349107E-3,6.8668555E-4,-5.9788213E-6,6.173402E-4,3.967743E-4,7.578251E-4],"categories":[],"categories_nodes":[],"categories_segments":[],"categories_sizes":[],"default_left":[0,0,0,0,0,0,0,0,0,0,0,0,0,0,0,0,0,0,0,0,0,0,0,0,0,0,0,0,0,0,0,0,0,0,0,0,0,0,0,0,0,0,0,0,0,0,0,0,0,0,0,0,0,0,0,0,0,0,0,0,0,0,0],"id":25,"left_children":[1,3,5,7,9,11,13,15,17,19,21,23,25,27,29,31,33,35,37,39,41,43,45,47,49,51,53,55,57,59,61,-1,-1,-1,-1,-1,-1,-1,-1,-1,-1,-1,-1,-1,-1,-1,-1,-1,-1,-1,-1,-1,-1,-1,-1,-1,-1,-1,-1,-1,-1,-1,-1],"loss_changes":[1.5696683E0,1.0756567E0,1.9847894E-1,1.8647617E-1,3.9668503E-1,8.803766E-2,1.1172807E-1,9.786341E-2,1.7199528E-1,2.2458768E-1,2.7269894E-1,6.863569E-2,5.928723E-2,3.1397343E-2,1.0409108E-1,2.8462887E-2,8.242733E-2,2.9881775E-2,1.1747217E-1,3.402868E-1,2.07658E-1,1.7221248E-1,1.7749801E-1,1.3206426E-2,2.0563215E-2,2.5302282E-2,4.9679402E-2,2.3133934E-2,1.0297477E-2,7.821861E-2,3.1333506E-2,0E0,0E0,0E0,0E0,0E0,0E0,0E0,0E0,0E0,0E0,0E0,0E0,0E0,0E0,0E0,0E0,0E0,0E0,0E0,0E0,0E0,0E0,0E0,0E0,0E0,0E0,0E0,0E0,0E0,0E0,0E0,0E0],"parents":[2147483647,0,0,1,1,2,2,3,3,4,4,5,5,6,6,7,7,8,8,9,9,10,10,11,11,12,12,13,13,14,14,15,15,16,16,17,17,18,18,19,19,20,20,21,21,22,22,23,23,24,24,25,25,26,26,27,27,28,28,29,29,30,30],"right_children":[2,4,6,8,10,12,14,16,18,20,22,24,26,28,30,32,34,36,38,40,42,44,46,48,50,52,54,56,58,60,62,-1,-1,-1,-1,-1,-1,-1,-1,-1,-1,-1,-1,-1,-1,-1,-1,-1,-1,-1,-1,-1,-1,-1,-1,-1,-1,-1,-1,-1,-1,-1,-1],"split_conditions":[-3.798884E0,-6.955262E0,5.36877E0,9.86973E0,-4.248661E0,1.520851E1,1.877891E1,5.61555E0,6.10757E0,-6.394617E0,5.81669E0,4.51663E0,2.2309844E3,5.8334E0,-3.443254E0,-7.19541E0,-7.859601E0,2.1151338E3,1.886135E1,5.97319E0,1.684068E1,1.672261E1,1.833009E1,-2.461413E0,-3.52358E0,1.36068E0,-2.988241E0,-3.658909E0,2.3815845E3,6.03096E0,5.72456E0,6.097543E-4,3.6643578E-5,3.3385505E-4,-4.0233685E-4,6.462949E-4,9.5228525E-4,1.4585383E-4,7.7564793E-4,3.2589462E-4,-2.0255474E-4,-8.228378E-5,-2.3550911E-4,2.1870679E-4,-2.9463004E-4,8.1582443E-4,2.1260219E-4,-3.8235748E-4,7.23928E-4,3.5226328E-4,8.338952E-4,6.2227267E-4,9.896725E-6,-5.098781E-4,2.2587365E-4,4.1067335E-4,7.695466E-4,1.0349107E-3,6.8668555E-4,-5.9788213E-6,6.173402E-4,3.967743E-4,7.578251E-4],"split_indices":[7,7,5,2,7,2,2,5,5,7,5,5,1,5,7,7,7,1,2,5,2,2,2,7,7,6,7,7,1,5,5,0,0,0,0,0,0,0,0,0,0,0,0,0,0,0,0,0,0,0,0,0,0,0,0,0,0,0,0,0,0,0,0],"split_type":[0,0,0,0,0,0,0,0,0,0,0,0,0,0,0,0,0,0,0,0,0,0,0,0,0,0,0,0,0,0,0,0,0,0,0,0,0,0,0,0,0,0,0,0,0,0,0,0,0,0,0,0,0,0,0,0,0,0,0,0,0,0,0],"sum_hessian":[1.36019E5,1.2275E5,1.3269E4,1.0079E4,1.12671E5,3.12E3,1.0149E4,2.811E3,7.268E3,1.00924E5,1.1747E4,1.318E3,1.802E3,4.795E3,5.354E3,1.131E3,1.68E3,3.613E3,