{"learner":{"attributes":{},"feature_names":[],"feature_types":[],"gradient_booster":{"model":{"cats":{"enc":[],"feature_segments":[],"sorted_idx":[]},"gbtree_model_param":{"num_parallel_tree":"1","num_trees":"300"},"iteration_indptr":[0,1,2,3,4,5,6,7,8,9,10,11,12,13,14,15,16,17,18,19,20,21,22,23,24,25,26,27,28,29,30,31,32,33,34,35,36,37,38,39,40,41,42,43,44,45,46,47,48,49,50,51,52,53,54,55,56,57,58,59,60,61,62,63,64,65,66,67,68,69,70,71,72,73,74,75,76,77,78,79,80,81,82,83,84,85,86,87,88,89,90,91,92,93,94,95,96,97,98,99,100,101,102,103,104,105,106,107,108,109,110,111,112,113,114,115,116,117,118,119,120,121,122,123,124,125,126,127,128,129,130,131,132,133,134,135,136,137,138,139,140,141,142,143,144,145,146,147,148,149,150,151,152,153,154,155,156,157,158,159,160,161,162,163,164,165,166,167,168,169,170,171,172,173,174,175,176,177,178,179,180,181,182,183,184,185,186,187,188,189,190,191,192,193,194,195,196,197,198,199,200,201,202,203,204,205,206,207,208,209,210,211,212,213,214,215,216,217,218,219,220,221,222,223,224,225,226,227,228,229,230,231,232,233,234,235,236,237,238,239,240,241,242,243,244,245,246,247,248,249,250,251,252,253,254,255,256,257,258,259,260,261,262,263,264,265,266,267,268,269,270,271,272,273,274,275,276,277,278,279,280,281,282,283,284,285,286,287,288,289,290,291,292,293,294,295,296,297,298,299,300],"tree_info":[0,0,0,0,0,0,0,0,0,0,0,0,0,0,0,0,0,0,0,0,0,0,0,0,0,0,0,0,0,0,0,0,0,0,0,0,0,0,0,0,0,0,0,0,0,0,0,0,0,0,0,0,0,0,0,0,0,0,0,0,0,0,0,0,0,0,0,0,0,0,0,0,0,0,0,0,0,0,0,0,0,0,0,0,0,0,0,0,0,0,0,0,0,0,0,0,0,0,0,0,0,0,0,0,0,0,0,0,0,0,0,0,0,0,0,0,0,0,0,0,0,0,0,0,0,0,0,0,0,0,0,0,0,0,0,0,0,0,0,0,0,0,0,0,0,0,0,0,0,0,0,0,0,0,0,0,0,0,0,0,0,0,0,0,0,0,0,0,0,0,0,0,0,0,0,0,0,0,0,0,0,0,0,0,0,0,0,0,0,0,0,0,0,0,0,0,0,0,0,0,0,0,0,0,0,0,0,0,0,0,0,0,0,0,0,0,0,0,0,0,0,0,0,0,0,0,0,0,0,0,0,0,0,0,0,0,0,0,0,0,0,0,0,0,0,0,0,0,0,0,0,0,0,0,0,0,0,0,0,0,0,0,0,0,0,0,0,0,0,0,0,0,0,0,0,0,0,0,0,0,0,0,0,0,0,0,0,0,0,0,0,0,0,0,0,0,0,0,0,0],"trees":[{"base_weights":[5.019664E-5,-2.7284282E-3,2.5345908E-2,2.2317857E-2,-4.961457E-3,1.8048631E-2,3.3642467E-2,2.6894242E-2,1.1415902E-2,-6.3956534E-3,6.0874796E-3,1.2494402E-3,2.2215249E-2,1.4956504E-2,3.8047526E-2,1.6738802E-2,3.2948066E-2,3.2060547E-3,2.1708572E-2,4.143917E-3,-7.4785715E-3,-2.667581E-3,1.3560225E-2,1.282276E-2,-6.7403223E-3,2.469411E-2,5.590034E-3,2.788765E-2,1.4025319E-3,2.064197E-3,2.9813189E-2,1.6113877E-3,4.7004825E-4,1.8674864E-3,9.694529E-4,9.467248E-4,-3.828118E-4,1.2153982E-3,-0E0,-3.7914804E-5,1.0803085E-3,-4.7563823E-4,-1.4060376E-4,-1.1333611E-3,-0E0,1.248965E-3,2.545361E-4,-0E0,9.79055E-4,-8.559154E-4,7.2828305E-5,8.025151E-4,1.4148896E-3,-0E0,1.4308384E-3,1.9312863E-3,8.4267755E-4,-4.37698E-4,1.1234835E-3,6.1052805E-4,1.7778054E-3],"categories":[],"categories_nodes":[],"categories_segments":[],"categories_sizes":[],"default_left":[0,0,0,0,0,0,0,0,0,0,0,0,0,0,0,0,0,0,0,0,0,0,0,0,0,0,0,0,0,0,0,0,0,0,0,0,0,0,0,0,0,0,0,0,0,0,0,0,0,0,0,0,0,0,0,0,0,0,0,0,0],"id":0,"left_children":[1,3,5,7,9,11,13,15,17,19,21,23,25,27,29,31,33,35,37,39,41,43,45,47,49,51,53,55,57,-1,59,-1,-1,-1,-1,-1,-1,-1,-1,-1,-1,-1,-1,-1,-1,-1,-1,-1,-1,-1,-1,-1,-1,-1,-1,-1,-1,-1,-1,-1,-1],"loss_changes":[8.6257714E-1,6.149931E-1,6.778258E-2,4.0714502E-2,1.6054569E-1,4.347302E-2,4.0308E-2,3.296581E-2,2.0592276E-2,1.02766275E-1,7.675596E-2,1.32703325E-2,1.8263578E-2,1.6837195E-2,3.6251545E-3,2.303876E-2,1.6579568E-2,2.8437449E-2,6.1939396E-3,7.2981015E-2,7.605758E-2,2.913326E-2,5.77956E-2,6.8406416E-3,8.056214E-3,9.034842E-3,7.514644E-3,1.9928068E-4,1.4406363E-2,0E0,8.840747E-3,0E0,0E0,0E0,0E0,0E0,0E0,0E0,0E0,0E0,0E0,0E0,0E0,0E0,0E0,0E0,0E0,0E0,0E0,0E0,0E0,0E0,0E0,0E0,0E0,0E0,0E0,0E0,0E0,0E0,0E0],"parents":[2147483647,0,0,1,1,2,2,3,3,4,4,5,5,6,6,7,7,8,8,9,9,10,10,11,11,12,12,13,13,14,14,15,15,16,16,17,17,18,18,19,19,20,20,21,21,22,22,23,23,24,24,25,25,26,26,27,27,28,28,30,30],"right_children":[2,4,6,8,10,12,14,16,18,20,22,24,26,28,30,32,34,36,38,40,42,44,46,48,50,52,54,56,58,-1,60,-1,-1,-1,-1,-1,-1,-1,-1,-1,-1,-1,-1,-1,-1,-1,-1,-1,-1,-1,-1,-1,-1,-1,-1,-1,-1,-1,-1,-1,-1],"split_conditions":[-3.775362E0,-6.878307E0,-3.320627E0,-7.120904E0,-4.254786E0,5.38222E0,5.2658E0,1.71988E0,8.898428E1,-6.452757E0,5.72949E0,9.062429E1,9.413658E1,2.2895757E3,2.334145E3,-7.973172E0,1.88917E0,5.90547E0,6.55027E0,9.135252E1,-4.94113E0,4.79838E0,9.029555E1,4.73471E0,1.78495E0,5.72949E0,2.5698018E3,1.53274E0,-2.77422E0,2.064197E-3,5.56778E0,1.6113877E-3,4.7004825E-4,1.8674864E-3,9.694529E-4,9.467248E-4,-3.828118E-4,1.2153982E-3,-0E0,-3.7914804E-5,1.0803085E-3,-4.7563823E-4,-1.4060376E-4,-1.1333611E-3,-0E0,1.248965E-3,2.545361E-4,-0E0,9.79055E-4,-8.559154E-4,7.2828305E-5,8.025151E-4,1.4148896E-3,-0E0,1.4308384E-3,1.9312863E-3,8.4267755E-4,-4.37698E-4,1.1234835E-3,6.1052805E-4,1.7778054E-3],"split_indices":[7,7,7,7,7,5,5,3,0,7,5,0,0,1,1,7,6,5,5,0,7,5,0,5,6,5,1,6,7,0,5,0,0,0,0,0,0,0,0,0,0,0,0,0,0,0,0,0,0,0,0,0,0,0,0,0,0,0,0,0,0],"split_type":[0,0,0,0,0,0,0,0,0,0,0,0,0,0,0,0,0,0,0,0,0,0,0,0,0,0,0,0,0,0,0,0,0,0,0,0,0,0,0,0,0,0,0,0,0,0,0,0,0,0,0,0,0,0,0,0,0,0,0,0,0],"sum_hessian":[1.2238E4,1.1024E4,1.214E3,8.98E2,1.0126E4,6.54E2,5.6E2,6.25E2,2.73E2,8.971E3,1.155E3,1.35E2,5.19E2,1.12E2,4.48E2,2.41E2,3.84E2,1.58E2,1.15E2,8.27E2,8.144E3,5.26E2,6.29E2,6E1,7.5E1,4.46E2,7.3E1,5.3E1,5.9E1,3.1E2,1.38E2,7.2E1,1.69E2,2.83E2,1.01E2,6.8E1,9E1,1.02E2,1.3E1,6.42E2,1.85E2,5.656E3,2.488E3,6.3E1,4.63E2,2.62E2,3.67E2,1.7E1,4.3E1,3.8E1,3.7E1,1.41E2,3.05E2,6.2E1,1.1E1,2.1E1,3.2E1,3.7E1,2.2E1,3.9E1,9.9E1],"tree_param":{"num_deleted":"0","num_feature":"8","num_nodes":"61","size_leaf_vector":"1"}},{"base_weights":[1.613532E-4,-2.8599887E-3,2.3468943E-2,1.7325597E-2,-5.422779E-3,1.651814E-2,3.3408433E-2,2.4584359E-2,8.213627E-3,-7.0140995E-3,3.452803E-3,2.3447689E-2,7.0270584E-3,1.7748274E-2,3.665645E-2,1.7094035E-2,3.30807E-2,-2.516262E-3,1.5700229E-2,-2.4949783E-3,-9.068063E-3,-1.2077198E-3,1.695257E-2,9.067588E-3,3.0865017E-2,-1.1713614E-2,1.5542659E-2,2.6482413E-2,3.0979435E-3,1.912947E-3,2.0779943E-2,3.8627232E-4,1.13767E-3,1.9347096E-3,4.2854119E-4,4.1185622E-4,-8.4306067E-4,1.246019E-3,-3.6177994E-4,-2.6005594E-4,3.7361166E-4,3.650609E-4,-4.9683935E-4,3.6626292E-4,-4.8592553E-4,1.8149607E-3,4.966467E-4,9.3277555E-4,-1.7233375E-5,1.6539245E-3,7.417774E-5,2.0964695E-4,-7.979149E-4,1.0180234E-3,7.4878466E-5,1.6244643E-3,-0E0,3.7671684E-4,-0E0,-0E0,1.55766E-3],"categories":[],"categories_nodes":[],"categories_segments":[],"categories_sizes":[],"default_left":[0,0,0,0,0,0,0,0,0,0,0,0,0,0,0,0,0,0,0,0,0,0,0,0,0,0,0,0,0,0,0,0,0,0,0,0,0,0,0,0,0,0,0,0,0,0,0,0,0,0,0,0,0,0,0,0,0,0,0,0,0],"id":1,"left_children":[1,3,5,7,9,11,13,15,17,19,21,23,25,27,29,31,33,35,37,39,41,43,45,47,49,51,53,55,57,-1,59,-1,-1,-1,-1,-1,-1,-1,-1,-1,-1,-1,-1,-1,-1,-1,-1,-1,-1,-1,-1,-1,-1,-1,-1,-1,-1,-1,-1,-1,-1],"loss_changes":[8.674515E-1,5.614829E-1,9.2145085E-2,7.727718E-2,1.3674653E-1,5.2033633E-2,2.3155987E-2,3.7247002E-2,4.5459297E-2,7.490656E-2,9.338938E-2,4.681793E-2,5.833585E-2,1.0523476E-2,5.258858E-3,1.6181745E-2,3.731832E-2,3.5092052E-2,7.152301E-2,6.93473E-2,8.0254644E-2,7.874269E-2,4.6622664E-2,1.7088747E-2,1.6720623E-2,8.670459E-3,1.49033405E-2,9.295955E-3,1.2711105E-3,0E0,1.0975638E-2,0E0,0E0,0E0,0E0,0E0,0E0,0E0,0E0,0E0,0E0,0E0,0E0,0E0,0E0,0E0,0E0,0E0,0E0,0E0,0E0,0E0,0E0,0E0,0E0,0E0,0E0,0E0,0E0,0E0,0E0],"parents":[2147483647,0,0,1,1,2,2,3,3,4,4,5,5,6,6,7,7,8,8,9,9,10,10,11,11,12,12,13,13,14,14,15,15,16,16,17,17,18,18,19,19,20,20,21,21,22,22,23,23,24,24,25,25,26,26,27,27,28,28,30,30],"right_children":[2,4,6,8,10,12,14,16,18,20,22,24,26,28,30,32,34,36,38,40,42,44,46,48,50,52,54,56,58,-1,60,-1,-1,-1,-1,-1,-1,-1,-1,-1,-1,-1,-1,-1,-1,-1,-1,-1,-1,-1,-1,-1,-1,-1,-1,-1,-1,-1,-1,-1,-1],"split_conditions":[-3.867748E0,-6.704806E0,-3.320627E0,-7.074366E0,-4.405502E0,1.913907E1,5.2658E0,1.444768E1,1.356745E1,1.494162E1,6.08384E0,5.44038E0,5.75029E0,1.643654E1,2.4524934E3,4.6874E-1,6.49635E0,5.90547E0,6.36789E0,-5.001412E0,-6.452757E0,1.766749E1,1.797218E1,1.54719E1,2.4776003E3,1.958607E1,6.31686E0,2.428953E3,6.23823E0,1.912947E-3,-2.952844E0,3.8627232E-4,1.13767E-3,1.9347096E-3,4.2854119E-4,4.1185622E-4,-8.4306067E-4,1.246019E-3,-3.6177994E-4,-2.6005594E-4,3.7361166E-4,3.650609E-4,-4.9683935E-4,3.6626292E-4,-4.8592553E-4,1.8149607E-3,4.966467E-4,9.3277555E-4,-1.7233375E-5,1.6539245E-3,7.417774E-5,2.0964695E-4,-7.979149E-4,1.0180234E-3,7.4878466E-5,1.6244643E-3,-0E0,3.7671684E-4,-0E0,-0E0,1.55766E-3],"split_indices":[7,7,7,7,7,2,5,2,2,2,5,5,5,2,1,3,5,5,5,7,7,2,2,2,1,2,4,1,4,0,7,0,0,0,0,0,0,0,0,0,0,0,0,0,0,0,0,0,0,0,0,0,0,0,0,0,0,0,0,0,0],"split_type":[0,0,0,0,0,0,0,0,0,0,0,0,0,0,0,0,0,0,0,0,0,0,0,0,0,0,0,0,0,0,0,0,0,0,0,0,0,0,0,0,0,0,0,0,0,0,0,0,0,0,0,0,0,0,0,0,0,0,0,0,0],"sum_hessian":[1.2287E4,1.0874E4,1.413E3,1.22E3,9.654E3,8.39E2,5.74E2,6.72E2,5.48E2,8.196E3,1.458E3,4.78E2,3.61E2,1.05E2,4.69E2,3.65E2,3.07E2,2.2E2,3.28E2,2.577E3,5.619E3,1.079E3,3.79E2,1.68E2,3.1E2,1.09E2,2.52E2,6.1E1,4.4E1,4.19E2,5E1,1.45E2,2.2E2,2.46E2,6.1E1,1.22E2,9.8E1,2.37E2,9.1E1,2.035E3,5.42E2,2.77E2,5.342E3,5.33E2,5.46E2,9.6E1,2.83E2,8.8E1,8E1,2.85E2,2.5E1,1.8E1,9.1E1,1.82E2,7E1,4.9E1,1.2E1,2.9E1,1.5E1,1.7E1,3.3E1],"tree_param":{"num_deleted":"0","num_feature":"8","num_nodes":"61","size_leaf_vector":"1"}},{"base_weights":[-6.510794E-5,-2.9248917E-3,2.2203408E-2,2.1400213E-2,-4.65157E-3,1.5069325E-2,3.17993E-2,1.1715027E-2,3.248696E-2,-5.6581046E-3,4.2446856E-3,1.933542E-2,2.9035888E-3,3.4849636E-2,1.786472E-2,-4.7068074E-4,1.683586E-2,-0E0,3.426284E-2,4.1425563E-3,-6.865838E-3,1.1657226E-2,-2.1806408E-3,2.6509527E-2,1.0910752E-2,1.5111558E-2,-7.0800325E-3,1.7874319E-3,1.4172661E-2,2.0293343E-4,2.3319751E-2,7.3680625E-4,-4.3917057E-4,1.1569987E-3,3.676831E-5,1.5164594E-3,2.1401197E-3,-3.4382836E-6,9.950404E-4,-0E0,-4.1306112E-4,8.858661E-4,-7.110137E-5,3.2680298E-4,-3.8526126E-4,1.5159826E-3,5.8973726E-4,4.2000008E-4,1.8297604E-3,1.1768971E-3,2.1314311E-4,-8.933406E-4,-0E0,1.412378E-3,-0E0,5.5914227E-4,-6.342214E-4,-0E0,1.2682776E-3],"categories":[],"categories_nodes":[],"categories_segments":[],"categories_sizes":[],"default_left":[0,0,0,0,0,0,0,0,0,0,0,0,0,0,0,0,0,0,0,0,0,0,0,0,0,0,0,0,0,0,0,0,0,0,0,0,0,0,0,0,0,0,0,0,0,0,0,0,0,0,0,0,0,0,0,0,0,0,0],"id":2,"left_children":[1,3,5,7,9,11,13,15,17,19,21,23,25,27,29,31,33,-1,35,37,39,41,43,45,47,49,51,-1,53,55,57,-1,-1,-1,-1,-1,-1,-1,-1,-1,-1,-1,-1,-1,-1,-1,-1,-1,-1,-1,-1,-1,-1,-1,-1,-1,-1,-1,-1],"loss_changes":[7.7698183E-1,4.5384842E-1,8.9853525E-2,7.197392E-2,9.0864345E-2,3.9447695E-2,1.8971503E-2,2.585603E-2,1.6576082E-2,1.08132094E-1,4.9553625E-2,3.156759E-2,2.7236165E-2,3.2936335E-3,8.5300505E-3,1.3439271E-2,2.5913753E-2,0E0,1.7684996E-3,6.775039E-2,7.728377E-2,3.977952E-2,2.6171599E-2,1.2867197E-2,1.3185021E-2,6.44394E-3,9.558113E-3,0E0,6.7463964E-3,4.519756E-3,1.7331243E-3,0E0,0E0,0E0,0E0,0E0,0E0,0E0,0E0,0E0,0E0,0E0,0E0,0E0,0E0,0E0,0E0,0E0,0E0,0E0,0E0,0E0,0E0,0E0,0E0,0E0,0E0,0E0,0E0],"parents":[2147483647,0,0,1,1,2,2,3,3,4,4,5,5,6,6,7,7,8,8,9,9,10,10,11,11,12,12,13,13,14,14,15,15,16,16,18,18,19,19,20,20,21,21,22,22,23,23,24,24,25,25,26,26,28,28,29,29,30,30],"right_children":[2,4,6,8,10,12,14,16,18,20,22,24,26,28,30,32,34,-1,36,38,40,42,44,46,48,50,52,-1,54,56,58,-1,-1,-1,-1,-1,-1,-1,-1,-1,-1,-1,-1,-1,-1,-1,-1,-1,-1,-1,-1,-1,-1,-1,-1,-1,-1,-1,-1],"split_conditions":[-3.844417E0,-7.033691E0,-3.320627E0,1.450135E1,-4.254786E0,6.40986E0,2.4030789E3,8.437924E1,1.8667738E3,-6.452757E0,1.81856E1,1.898296E1,9.077658E1,1.713828E1,-3.171545E0,-8.148398E0,-7.275222E0,-0E0,1.160044E1,9.135252E1,1.282705E1,6.38433E0,6.0578E0,9.24582E1,2.5299985E3,1.741025E1,-3.657472E0,1.7874319E-3,2.2632996E3,2.4838135E3,1.557158E1,7.3680625E-4,-4.3917057E-4,1.1569987E-3,3.676831E-5,1.5164594E-3,2.1401197E-3,-3.4382836E-6,9.950404E-4,-0E0,-4.1306112E-4,8.858661E-4,-7.110137E-5,3.2680298E-4,-3.8526126E-4,1.5159826E-3,5.8973726E-4,4.2000008E-4,1.8297604E-3,1.1768971E-3,2.1314311E-4,-8.933406E-4,-0E0,1.412378E-3,-0E0,5.5914227E-4,-6.342214E-4,-0E0,1.2682776E-3],"split_indices":[7,7,7,2,7,4,1,0,1,7,2,2,0,3,7,7,7,0,3,0,2,4,3,0,1,2,7,0,1,1,2,0,0,0,0,0,0,0,0,0,0,0,0,0,0,0,0,0,0,0,0,0,0,0,0,0,0,0,0],"split_type":[0,0,0,0,0,0,0,0,0,0,0,0,0,0,0,0,0,0,0,0,0,0,0,0,0,0,0,0,0,0,0,0,0,0,0,0,0,0,0,0,0,0,0,0,0,0,0,0,0,0,0,0,0,0,0,0,0,0,0],"sum_hessian":[1.2229E4,1.0842E4,1.387E3,7.14E2,1.0128E4,8.03E2,5.84E2,3.87E2,3.27E2,9.109E3,1.019E3,5.88E2,2.15E2,4.72E2,1.12E2,1.09E2,2.78E2,1.9E1,3.08E2,9.9E2,8.119E3,4.8E2,5.39E2,3.1E2,2.78E2,1.01E2,1.14E2,4.47E2,2.5E1,3.1E1,8.1E1,3.4E1,7.5E1,1.95E2,8.3E1,2.22E2,8.6E1,7.77E2,2.13E2,1.379E3,6.74E3,3.33E2,1.47E2,2.02E2,3.37E2,2.4E2,7E1,2.58E2,2E1,5.1E1,5E1,4.7E1,6.7E1,1.4E1,1.1E1,2.1E1,1E1,1E1,7.1E1],"tree_param":{"num_deleted":"0","num_feature":"8","num_nodes":"59","size_leaf_vector":"1"}},{"base_weights":[1.5314404E-4,-2.710448E-3,2.0055605E-2,2.1834241E-2,-4.539227E-3,1.4035143E-2,2.9717661E-2,1.3724864E-2,2.815431E-2,-5.678136E-3,2.6510232E-3,4.173446E-4,2.1283966E-2,1.1251805E-2,3.3509493E-2,2.5733694E-2,5.9984126E-3,3.1726327E-2,1.5992578E-2,3.5535265E-3,-6.899934E-3,-1.8933549E-3,1.4921111E-2,1.3887875E-2,-2.6946643E-3,2.5293041E-2,8.260918E-3,1.743357E-2,-6.42896E-3,1.8767717E-3,2.8003149E-2,7.7013904E-4,1.5867789E-3,4.77341E-4,-8.7925064E-4,1.6473616E-3,3.7489677E-4,-0E0,1.1861449E-3,-0E0,1.0030648E-3,-1.7354124E-4,-4.1281182E-4,3.5395735E-4,-2.7737566E-4,-5.396325E-4,7.9687464E-4,-9.167257E-5,1.0870787E-3,-1.4061235E-3,-2.31194E-6,1.4061052E-3,8.7015604E-4,-4.316562E-6,9.19392E-4,2.0274034E-4,1.2296614E-3,-6.5802824E-4,-0E0,4.7363876E-4,1.4918119E-3],"categories":[],"categories_nodes":[],"categories_segments":[],"categories_sizes":[],"default_left":[0,0,0,0,0,0,0,0,0,0,0,0,0,0,0,0,0,0,0,0,0,0,0,0,0,0,0,0,0,0,0,0,0,0,0,0,0,0,0,0,0,0,0,0,0,0,0,0,0,0,0,0,0,0,0,0,0,0,0,0,0],"id":3,"left_children":[1,3,5,7,9,11,13,15,17,19,21,23,25,27,29,31,33,35,37,39,41,43,45,47,49,51,53,55,57,-1,59,-1,-1,-1,-1,-1,-1,-1,-1,-1,-1,-1,-1,-1,-1,-1,-1,-1,-1,-1,-1,-1,-1,-1,-1,-1,-1,-1,-1,-1,-1],"loss_changes":[7.011442E-1,4.797358E-1,8.525479E-2,3.3352017E-2,8.208534E-2,9.278287E-2,3.6248267E-2,2.7570054E-2,1.2445033E-2,9.772143E-2,7.6829955E-2,1.5409683E-2,2.8962731E-2,1.2798165E-2,3.0801296E-3,2.547957E-3,1.6853936E-2,4.819274E-3,1.1311188E-2,5.739972E-2,3.4299016E-2,3.2115664E-2,1.0408714E-2,1.0673612E-2,1.5431959E-2,5.448967E-3,1.4849654E-2,4.985828E-3,1.0864494E-3,0E0,3.191471E-3,0E0,0E0,0E0,0E0,0E0,0E0,0E0,0E0,0E0,0E0,0E0,0E0,0E0,0E0,0E0,0E0,0E0,0E0,0E0,0E0,0E0,0E0,0E0,0E0,0E0,0E0,0E0,0E0,0E0,0E0],"parents":[2147483647,0,0,1,1,2,2,3,3,4,4,5,5,6,6,7,7,8,8,9,9,10,10,11,11,12,12,13,13,14,14,15,15,16,16,17,17,18,18,19,19,20,20,21,21,22,22,23,23,24,24,25,25,26,26,27,27,28,28,30,30],"right_children":[2,4,6,8,10,12,14,16,18,20,22,24,26,28,30,32,34,36,38,40,42,44,46,48,50,52,54,56,58,-1,60,-1,-1,-1,-1,-1,-1,-1,-1,-1,-1,-1,-1,-1,-1,-1,-1,-1,-1,-1,-1,-1,-1,-1,-1,-1,-1,-1,-1,-1,-1],"split_conditions":[-3.910837E0,-7.033691E0,-3.320627E0,8.75042E1,-4.405502E0,5.57458E0,5.2658E0,-7.798273E0,1.80326E0,-6.452757E0,6.05853E0,8.782607E1,9.29176E1,2.3734102E3,9.146775E1,5.49112E0,6.45169E0,6.78155E0,2.1439595E3,9.172996E1,5.6284E0,8.856312E1,-4.391287E0,4.79838E0,5.3658E0,6.31686E0,-3.628186E0,-3.03116E0,2.4446404E3,1.8767717E-3,5.46029E0,7.7013904E-4,1.5867789E-3,4.77341E-4,-8.7925064E-4,1.6473616E-3,3.7489677E-4,-0E0,1.1861449E-3,-0E0,1.0030648E-3,-1.7354124E-4,-4.1281182E-4,3.5395735E-4,-2.7737566E-4,-5.396325E-4,7.9687464E-4,-9.167257E-5,1.0870787E-3,-1.4061235E-3,-2.31194E-6,1.4061052E-3,8.7015604E-4,-4.316562E-6,9.19392E-4,2.0274034E-4,1.2296614E-3,-6.5802824E-4,-0E0,4.7363876E-4,1.4918119E-3],"split_indices":[7,7,7,0,7,5,5,7,6,7,5,0,0,1,0,4,5,5,1,0,5,0,7,5,4,4,7,7,1,0,5,0,0,0,0,0,0,0,0,0,0,0,0,0,0,0,0,0,0,0,0,0,0,0,0,0,0,0,0,0,0],"split_type":[0,0,0,0,0,0,0,0,0,0,0,0,0,0,0,0,0,0,0,0,0,0,0,0,0,0,0,0,0,0,0,0,0,0,0,0,0,0,0,0,0,0,0,0,0,0,0,0,0,0,0,0,0,0,0,0,0,0,0,0,0],"sum_hessian":[1.227E4,1.0723E4,1.547E3,7.39E2,9.984E3,9.61E2,5.86E2,3.32E2,4.07E2,8.631E3,1.353E3,3.39E2,6.22E2,1.05E2,4.81E2,1.24E2,2.08E2,3.07E2,1E2,9.99E2,7.632E3,9.82E2,3.71E2,6.9E1,2.7E2,4.69E2,1.53E2,8.2E1,2.3E1,2.64E2,2.17E2,5.3E1,7.1E1,1.85E2,2.3E1,2.88E2,1.9E1,3.5E1,6.5E1,8.26E2,1.73E2,2.185E3,5.447E3,2.76E2,7.06E2,1E1,3.61E2,1.9E1,5E1,2.1E1,2.49E2,3.34E2,1.35E2,7.9E1,7.4E1,3.4E1,4.8E1,1.1E1,1.2E1,2.5E1,1.92E2],"tree_param":{"num_deleted":"0","num_feature":"8","num_nodes":"61","size_leaf_vector":"1"}},{"base_weights":[2.728595E-4,1.6497287E-3,-2.774566E-3,2.6238204E-3,-5.17827E-4,-2.3610329E-3,-1.2412655E-2,1.1841045E-3,4.4389563E-3,1.1375457E-3,-3.5234343E-3,2.202864E-3,-3.229161E-3,-4.1022556E-4,-2.0168563E-2,3.3154907E-3,-1.0040447E-3,1.8804589E-3,4.2018583E-3,-1.3983587E-2,1.9436654E-3,-9.458767E-3,-0E0,-0E0,9.1701625E-3,-7.987598E-3,-2.2288384E-3,-6.1946465E-3,5.0809016E-3,-1.2012264E-3,-0E0,3.9179996E-4,8.015494E-5,-1.5291927E-4,1.6501478E-4,2.3282427E-4,-9.401369E-5,-4.2119646E-5,-1.1014563E-3,8.410045E-4,5.6928955E-5,-6.145085E-4,1.27702E-5,-1.108787E-3,6.61927E-5,6.501754E-5,-6.3347263E-4,8.45174E-4,-1.0899381E-4,-9.96801E-4,-3.0130506E-4,3.4603378E-5,-1.8232442E-4,-0E0,-4.87281E-4,-1.3375368E-4,1.0696567E-3],"categories":[],"categories_nodes":[],"categories_segments":[],"categories_sizes":[],"default_left":[0,0,0,0,0,0,0,0,0,0,0,0,0,0,0,0,0,0,0,0,0,0,0,0,0,0,0,0,0,0,0,0,0,0,0,0,0,0,0,0,0,0,0,0,0,0,0,0,0,0,0,0,0,0,0,0,0],"id":4,"left_children":[1,3,5,7,9,11,13,15,17,19,21,23,25,27,29,31,33,-1,35,37,39,41,43,45,47,49,51,53,55,-1,-1,-1,-1,-1,-1,-1,-1,-1,-1,-1,-1,-1,-1,-1,-1,-1,-1,-1,-1,-1,-1,-1,-1,-1,-1,-1,-1],"loss_changes":[5.104858E-2,1.7992042E-2,1.3527267E-2,1.4699217E-2,1.3079129E-2,1.4484048E-2,1.14318635E-2,1.5578344E-2,1.5739191E-2,1.8850444E-2,1.9669011E-2,9.3820635E-3,1.3559394E-2,2.1439171E-3,8.371998E-3,1.2125617E-2,1.4142874E-2,0E0,7.3069744E-3,5.835346E-3,1.6952641E-2,1.0833275E-2,1.7204385E-2,7.857269E-3,1.4148585E-2,9.353597E-3,1.0869485E-2,8.3948195E-4,4.9654488E-3,0E0,0E0,0E0,0E0,0E0,0E0,0E0,0E0,0E0,0E0,0E0,0E0,0E0,0E0,0E0,0E0,0E0,0E0,0E0,0E0,0E0,0E0,0E0,0E0,0E0,0E0,0E0,0E0],"parents":[2147483647,0,0,1,1,2,2,3,3,4,4,5,5,6,6,7,7,8,8,9,9,10,10,11,11,12,12,13,13,14,14,15,15,16,16,18,18,19,19,20,20,21,21,22,22,23,23,24,24,25,25,26,26,27,27,28,28],"right_children":[2,4,6,8,10,12,14,16,18,20,22,24,26,28,30,32,34,-1,36,38,40,42,44,46,48,50,52,54,56,-1,-1,-1,-1,-1,-1,-1,-1,-1,-1,-1,-1,-1,-1,-1,-1,-1,-1,-1,-1,-1,-1,-1,-1,-1,-1,-1,-1],"split_conditions":[1.935674E1,1.321662E1,2.517253E1,5.27922E0,1.540729E1,5.49112E0,5.87382E0,6.04314E0,4.70181E0,8.344358E1,5.69651E0,9.208326E1,8.746039E1,4.10142E0,6.35205E0,1.224981E1,9.081494E1,1.8804589E-3,2.47256E3,1.8792025E3,5.09038E0,9.269531E1,1.557158E1,9.135252E1,2.3872485E3,1.975796E1,8.0204E-1,-1.10282E0,9.204176E1,-1.2012264E-3,-0E0,3.9179996E-4,8.015494E-5,-1.5291927E-4,1.6501478E-4,2.3282427E-4,-9.401369E-5,-4.2119646E-5,-1.1014563E-3,8.410045E-4,5.6928955E-5,-6.145085E-4,1.27702E-5,-1.108787E-3,6.61927E-5,6.501754E-5,-6.3347263E-4,8.45174E-4,-1.0899381E-4,-9.96801E-4,-3.0130506E-4,3.4603378E-5,-1.8232442E-4,-0E0,-4.87281E-4,-1.3375368E-4,1.0696567E-3],"split_indices":[2,3,2,3,2,4,3,4,2,0,4,0,0,3,4,2,0,0,1,1,4,0,2,0,1,2,6,6,0,0,0,0,0,0,0,0,0,0,0,0,0,0,0,0,0,0,0,0,0,0,0,0,0,0,0,0,0],"split_type":[0,0,0,0,0,0,0,0,0,0,0,0,0,0,0,0,0,0,0,0,0,0,0,0,0,0,0,0,0,0,0,0,0,0,0,0,0,0,0,0,0,0,0,0,0,0,0,0,0,0,0,0,0,0,0,0,0],"sum_hessian":[1.2191E4,8.42E3,3.771E3,5.841E3,2.579E3,3.627E3,1.44E2,3.289E3,2.552E3,1.642E3,9.37E2,5.61E2,3.066E3,6.2E1,8.2E1,1.689E3,1.6E3,1.4E1,2.538E3,7.6E1,1.566E3,3.49E2,5.88E2,4.18E2,1.43E2,5.14E2,2.552E3,3.9E1,2.3E1,7.2E1,1E1,4.47E2,1.242E3,1.099E3,5.01E2,2.377E3,1.61E2,3.4E1,4.2E1,7.3E1,1.493E3,2.78E2,7.1E1,3.2E1,5.56E2,3.74E2,4.4E1,9E1,5.3E1,6.4E1,4.5E2,8.11E2,1.741E3,1.5E1,2.4E1,1.2E1,1.1E1],"tree_param":{"num_deleted":"0","num_feature":"8","num_nodes":"57","size_leaf_vector":"1"}},{"base_weights":[9.706521E-5,-2.6862735E-3,1.7357165E-2,1.9776812E-2,-4.3145907E-3,1.1887324E-2,2.805385E-2,1.1520686E-2,2.9828118E-2,-5.5927983E-3,2.569208E-3,1.1303606E-3,1.7888712E-2,1.0341757E-2,3.193033E-2,2.589349E-2,5.6641824E-3,3.4362104E-2,1.5306398E-2,3.4972294E-3,-6.849762E-3,-2.8596811E-3,9.796441E-3,1.3000126E-2,-1.0778416E-2,2.525738E-2,6.798528E-3,2.7340936E-2,-0E0,2.2793802E-2,1.7393548E-3,-1.4615564E-4,1.5067481E-3,-8.248852E-5,6.609283E-4,5.634985E-4,1.8175954E-3,-2.2916096E-4,1.2171156E-3,-2.3046392E-5,9.434012E-4,-2.7812124E-4,-5.5048015E-4,1.0999212E-3,-2.7309332E-4,1.101973E-3,-5.9904523E-6,-5.039859E-4,9.158125E-4,-8.3296665E-4,-2.0394742E-5,1.7977831E-3,8.918834E-4,-0E0,9.871154E-4,1.6695642E-3,1.818019E-5,-2.3298831E-4,1.1952083E-3,1.5316679E-3,5.2513176E-4],"categories":[],"categories_nodes":[],"categories_segments":[],"categories_sizes":[],"default_left":[0,0,0,0,0,0,0,0,0,0,0,0,0,0,0,0,0,0,0,0,0,0,0,0,0,0,0,0,0,0,0,0,0,0,0,0,0,0,0,0,0,0,0,0,0,0,0,0,0,0,0,0,0,0,0,0,0,0,0,0,0],"id":5,"left_children":[1,3,5,7,9,11,13,15,17,19,21,23,25,27,29,31,33,35,37,39,41,43,45,47,49,51,53,55,57,59,-1,-1,-1,-1,-1,-1,-1,-1,-1,-1,-1,-1,-1,-1,-1,-1,-1,-1,-1,-1,-1,-1,-1,-1,-1,-1,-1,-1,-1,-1,-1],"loss_changes":[5.927026E-1,3.8599956E-1,9.595716E-2,5.4606706E-2,8.72677E-2,7.180163E-2,3.4785092E-2,3.0198973E-2,1.5247196E-2,9.573066E-2,6.0987946E-2,5.9165712E-2,5.603306E-2,1.6748253E-2,5.585879E-3,1.6253993E-2,1.7146634E-2,5.580157E-3,1.682459E-2,6.299363E-2,3.7604183E-2,5.4742776E-2,8.3171636E-2,2.7142383E-2,1.07280705E-2,2.8191298E-2,2.7976848E-2,2.8148144E-3,9.830514E-3,7.320255E-3,0E0,0E0,0E0,0E0,0E0,0E0,0E0,0E0,0E0,0E0,0E0,0E0,0E0,0E0,0E0,0E0,0E0,0E0,0E0,0E0,0E0,0E0,0E0,0E0,0E0,0E0,0E0,0E0,0E0,0E0,0E0],"parents":[2147483647,0,0,1,1,2,2,3,3,4,4,5,5,6,6,7,7,8,8,9,9,10,10,11,11,12,12,13,13,14,14,15,15,16,16,17,17,18,18,19,19,20,20,21,21,22,22,23,23,24,24,25,25,26,26,27,27,28,28,29,29],"right_children":[2,4,6,8,10,12,14,16,18,20,22,24,26,28,30,32,34,36,38,40,42,44,46,48,50,52,54,56,58,60,-1,-1,-1,-1,-1,-1,-1,-1,-1,-1,-1,-1,-1,-1,-1,-1,-1,-1,-1,-1,-1,-1,-1,-1,-1,-1,-1,-1,-1,-1,-1],"split_conditions":[-3.973129E0,-7.033691E0,-3.320627E0,1.450135E1,-4.500213E0,5.57458E0,5.2658E0,-7.973172E0,6.46091E0,-6.452757E0,5.87483E0,1.653001E1,2.025257E1,1.53274E0,-3.171545E0,5.787E-2,5.17055E0,8.309821E1,8.732829E1,9.138073E1,2.00808E1,1.064619E1,1.926371E1,4.79838E0,5.4343E0,9.004022E1,6.17941E0,1.856135E1,2.52786E0,9.120794E1,1.7393548E-3,-1.4615564E-4,1.5067481E-3,-8.248852E-5,6.609283E-4,5.634985E-4,1.8175954E-3,-2.2916096E-4,1.2171156E-3,-2.3046392E-5,9.434012E-4,-2.7812124E-4,-5.5048015E-4,1.0999212E-3,-2.7309332E-4,1.101973E-3,-5.9904523E-6,-5.039859E-4,9.158125E-4,-8.3296665E-4,-2.0394742E-5,1.7977831E-3,8.918834E-4,-0E0,9.871154E-4,1.6695642E-3,1.818019E-5,-2.3298831E-4,1.1952083E-3,1.5316679E-3,5.2513176E-4],"split_indices":[7,7,7,2,7,5,5,7,5,7,5,2,2,6,7,2,3,0,0,0,2,2,2,5,5,0,5,2,6,0,0,0,0,0,0,0,0,0,0,0,0,0,0,0,0,0,0,0,0,0,0,0,0,0,0,0,0,0,0,0,0],"split_type":[0,0,0,0,0,0,0,0,0,0,0,0,0,0,0,0,0,0,0,0,0,0,0,0,0,0,0,0,0,0,0,0,0,0,0,0,0,0,0,0,0,0,0,0,0,0,0,0,0,0,0,0,0,0,0,0,0,0,0,0,0],"sum_hessian":[1.2305E4,1.0592E4,1.713E3,7.11E2,9.881E3,1.141E3,5.72E2,3.97E2,3.14E2,8.346E3,1.535E3,4.15E2,7.26E2,1.08E2,4.64E2,1.09E2,2.88E2,2.33E2,8.1E1,1.004E3,7.342E3,8.69E2,6.66E2,2.12E2,2.03E2,4.3E2,2.96E2,3.7E1,7.1E1,1.21E2,3.43E2,1.1E1,9.8E1,1.4E2,1.48E2,2.3E1,2.1E2,2.2E1,5.9E1,7.94E2,2.1E2,5.627E3,1.715E3,7.8E1,7.91E2,3.02E2,3.64E2,3.6E1,1.76E2,1.23E2,8E1,1.69E2,2.61E2,1.9E2,1.06E2,2.7E1,1E1,5.7E1,1.4E1,6.8E1,5.3E1],"tree_param":{"num_deleted":"0","num_feature":"8","num_nodes":"61","size_leaf_vector":"1"}},{"base_weights":[-8.8556306E-5,-2.4965E-3,1.8047076E-2,1.3493442E-2,-4.45628E-3,1.2470694E-2,2.6262723E-2,6.753122E-3,1.9905422E-2,-6.053798E-3,2.649751E-3,-0E0,1.6406747E-2,8.86768E-3,3.0343542E-2,2.2168538E-2,2.802919E-3,2.5487889E-2,-7.747813E-4,-4.7610407E-3,-1.0183201E-2,9.534967E-3,-3.917205E-3,7.52132E-3,-1.3028381E-2,2.492972E-2,6.1154515E-3,1.8547332E-2,3.081137E-4,1.6544287E-3,2.3686681E-2,-5.164808E-4,1.3377452E-3,5.067894E-4,-2.4589497E-4,9.5085474E-4,1.6060692E-3,1.3521276E-3,-6.1930274E-4,-2.9217766E-4,-2.5106367E-5,1.03599734E-4,-6.079084E-4,-0E0,9.175961E-4,-3.9802186E-4,6.4556045E-4,1.1309156E-3,-2.1797254E-4,-0E0,-9.7009196E-4,1.3396804E-3,-2.742576E-4,-6.2107225E-4,6.423269E-4,1.0889444E-3,1.0003897E-4,-2.3371601E-4,7.195392E-4,2.952441E-4,1.4352531E-3],"categories":[],"categories_nodes":[],"categories_segments":[],"categories_sizes":[],"default_left":[0,0,0,0,0,0,0,0,0,0,0,0,0,0,0,0,0,0,0,0,0,0,0,0,0,0,0,0,0,0,0,0,0,0,0,0,0,0,0,0,0,0,0,0,0,0,0,0,0,0,0,0,0,0,0,0,0,0,0,0,0],"id":6,"left_children":[1,3,5,7,9,11,13,15,17,19,21,23,25,27,29,31,33,35,37,39,41,43,45,47,49,51,53,55,57,-1,59,-1,-1,-1,-1,-1,-1,-1,-1,-1,-1,-1,-1,-1,-1,-1,-1,-1,-1,-1,-1,-1,-1,-1,-1,-1,-1,-1,-1,-1,-1],"loss_changes":[5.3117156E-1,3.3677873E-1,6.1083466E-2,4.7808945E-2,1.093812E-1,4.2071596E-2,3.6129862E-2,3.2759257E-2,7.08354E-2,4.03789E-2,7.981565E-2,2.0367417E-2,5.393155E-2,7.554055E-3,1.8530488E-3,1.876137E-2,2.7067808E-2,1.4449567E-2,3.8597643E-2,2.7029067E-2,4.5883074E-2,7.0739165E-2,6.0164347E-2,2.5600519E-2,5.544995E-3,2.2175953E-2,3.788366E-2,1.4506839E-4,5.740034E-3,0E0,9.487167E-3,0E0,0E0,0E0,0E0,0E0,0E0,0E0,0E0,0E0,0E0,0E0,0E0,0E0,0E0,0E0,0E0,0E0,0E0,0E0,0E0,0E0,0E0,0E0,0E0,0E0,0E0,0E0,0E0,0E0,0E0],"parents":[2147483647,0,0,1,1,2,2,3,3,4,4,5,5,6,6,7,7,8,8,9,9,10,10,11,11,12,12,13,13,14,14,15,15,16,16,17,17,18,18,19,19,20,20,21,21,22,22,23,23,24,24,25,25,26,26,27,27,28,28,30,30],"right_children":[2,4,6,8,10,12,14,16,18,20,22,24,26,28,30,32,34,36,38,40,42,44,46,48,50,52,54,56,58,-1,60,-1,-1,-1,-1,-1,-1,-1,-1,-1,-1,-1,-1,-1,-1,-1,-1,-1,-1,-1,-1,-1,-1,-1,-1,-1,-1,-1,-1,-1,-1],"split_conditions":[-3.867748E0,-6.704806E0,-3.320627E0,1.41445E1,-4.500213E0,5.42671E0,5.2658E0,-7.973172E0,6.49635E0,2.003379E1,1.81856E1,1.706926E1,1.962285E1,2.2669453E3,2.334145E3,5.787E-2,5.90547E0,1.773847E1,-7.483141E0,-4.950234E0,-6.129694E0,5.5614E0,6.29866E0,6.36517E0,8.980314E1,9.603593E1,5.77654E0,1.596615E1,-2.77422E0,1.6544287E-3,-3.171545E0,-5.164808E-4,1.3377452E-3,5.067894E-4,-2.4589497E-4,9.5085474E-4,1.6060692E-3,1.3521276E-3,-6.1930274E-4,-2.9217766E-4,-2.5106367E-5,1.03599734E-4,-6.079084E-4,-0E0,9.175961E-4,-3.9802186E-4,6.4556045E-4,1.1309156E-3,-2.1797254E-4,-0E0,-9.7009196E-4,1.3396804E-3,-2.742576E-4,-6.2107225E-4,6.423269E-4,1.0889444E-3,1.0003897E-4,-2.3371601E-4,7.195392E-4,2.952441E-4,1.4352531E-3],"split_indices":[7,7,7,2,7,5,5,7,5,2,2,2,2,1,1,2,5,2,7,7,7,5,5,4,0,0,5,2,7,0,7,0,0,0,0,0,0,0,0,0,0,0,0,0,0,0,0,0,0,0,0,0,0,0,0,0,0,0,0,0,0],"split_type":[0,0,0,0,0,0,0,0,0,0,0,0,0,0,0,0,0,0,0,0,0,0,0,0,0,0,0,0,0,0,0,0,0,0,0,0,0,0,0,0,0,0,0,0,0,0,0,0,0,0,0,0,0,0,0,0,0,0,0,0,0],"sum_hessian":[1.2197E4,1.0773E4,1.424E3,1.17E3,9.603E3,8.57E2,5.67E2,5.79E2,5.91E2,7.852E3,1.751E3,2.06E2,6.51E2,1.13E2,4.54E2,1.12E2,4.67E2,4.69E2,1.22E2,6E3,1.852E3,8.62E2,8.89E2,1.31E2,7.5E1,3.5E2,3.01E2,4.7E1,6.6E1,3.08E2,1.46E2,1.1E1,1.01E2,2.46E2,2.21E2,2.47E2,2.22E2,3.3E1,8.9E1,4.765E3,1.235E3,2.5E2,1.602E3,4.2E2,4.42E2,7.22E2,1.67E2,6.1E1,7E1,2.7E1,4.8E1,3.33E2,1.7E1,7.6E1,2.25E2,3.4E1,1.3E1,4.4E1,2.2E1,3.7E1,1.09E2],"tree_param":{"num_deleted":"0","num_feature":"8","num_nodes":"61","size_leaf_vector":"1"}},{"base_weights":[-1.2350807E-4,-2.5247806E-3,1.7257325E-2,1.809156E-2,-3.9505395E-3,1.1602926E-2,2.6168091E-2,9.586146E-3,2.5351569E-2,-5.1598386E-3,1.7897013E-3,3.11327E-3,1.9599095E-2,4.3751937E-3,2.7615905E-2,1.2413882E-2,-1.0286423E-2,2.6973207E-2,7.927529E-3,3.3957725E-3,-6.4223185E-3,-4.001729E-3,9.554811E-3,1.3800089E-2,-2.4839148E-3,2.4589483E-2,1.1025392E-2,6.214093E-4,-9.212255E-5,2.8669734E-2,1.058554E-2,2.3543833E-4,9.751573E-4,8.245241E-4,-1.225913E-3,9.115262E-4,1.588501E-3,1.207538E-3,-2.942218E-4,-1.8741527E-4,4.7637164E-4,-3.7483702E-4,-1.37308E-4,9.9903344E-5,-4.505318E-4,9.5444743E-4,2.4769414E-4,8.026268E-4,-0E0,2.7099834E-4,-4.6032085E-4,5.013589E-4,1.2809287E-3,-0E0,1.0711623E-3,8.747095E-4,1.4860529E-3,-1.6774534E-4,1.0497392E-3],"categories":[],"categories_nodes":[],"categories_segments":[],"categories_sizes":[],"default_left":[0,0,0,0,0,0,0,0,0,0,0,0,0,0,0,0,0,0,0,0,0,0,0,0,0,0,0,0,0,0,0,0,0,0,0,0,0,0,0,0,0,0,0,0,0,0,0,0,0,0,0,0,0,0,0,0,0,0,0],"id":7,"left_children":[1,3,5,7,9,11,13,15,17,19,21,23,25,27,29,31,33,35,37,39,41,43,45,47,49,51,53,-1,-1,55,57,-1,-1,-1,-1,-1,-1,-1,-1,-1,-1,-1,-1,-1,-1,-1,-1,-1,-1,-1,-1,-1,-1,-1,-1,-1,-1,-1,-1],"loss_changes":[5.118828E-1,3.164646E-1,7.0892215E-2,3.9179027E-2,7.058205E-2,6.0053818E-2,1.4664739E-2,1.8772198E-2,6.6941082E-3,9.0752825E-2,7.9158045E-2,2.826259E-2,1.6148522E-2,3.1343678E-3,5.2829385E-3,1.34370625E-2,1.5307222E-2,8.301914E-3,1.0483583E-2,4.7353618E-2,2.7811944E-2,3.0591363E-2,3.057602E-2,6.254794E-3,1.5943632E-2,4.7948956E-4,1.8844806E-2,0E0,0E0,5.508363E-4,7.3485835E-3,0E0,0E0,0E0,0E0,0E0,0E0,0E0,0E0,0E0,0E0,0E0,0E0,0E0,0E0,0E0,0E0,0E0,0E0,0E0,0E0,0E0,0E0,0E0,0E0,0E0,0E0,0E0,0E0],"parents":[2147483647,0,0,1,1,2,2,3,3,4,4,5,5,6,6,7,7,8,8,9,9,10,10,11,11,12,12,13,13,14,14,15,15,16,16,17,17,18,18,19,19,20,20,21,21,22,22,23,23,24,24,25,25,26,26,29,29,30,30],"right_children":[2,4,6,8,10,12,14,16,18,20,22,24,26,28,30,32,34,36,38,40,42,44,46,48,50,52,54,-1,-1,56,58,-1,-1,-1,-1,-1,-1,-1,-1,-1,-1,-1,-1,-1,-1,-1,-1,-1,-1,-1,-1,-1,-1,-1,-1,-1,-1,-1,-1],"split_conditions":[-3.889352E0,-7.074366E0,-3.320627E0,8.746039E1,-4.500213E0,5.75029E0,4.93478E0,6.46091E0,6.60163E0,-6.452757E0,5.87483E0,2.192483E3,9.183021E1,8.901834E1,2.491067E3,1.02059E0,-8.148398E0,2.139946E3,-7.406265E0,8.858785E1,-4.94113E0,2.2122788E3,8.928278E1,5.69834E0,9.097871E1,1.9638887E3,6.06407E0,6.214093E-4,-9.212255E-5,5.20824E0,5.5614E0,2.3543833E-4,9.751573E-4,8.245241E-4,-1.225913E-3,9.115262E-4,1.588501E-3,1.207538E-3,-2.942218E-4,-1.8741527E-4,4.7637164E-4,-3.7483702E-4,-1.37308E-4,9.9903344E-5,-4.505318E-4,9.5444743E-4,2.4769414E-4,8.026268E-4,-0E0,2.7099834E-4,-4.6032085E-4,5.013589E-4,1.2809287E-3,-0E0,1.0711623E-3,8.747095E-4,1.4860529E-3,-1.6774534E-4,1.0497392E-3],"split_indices":[7,7,7,0,7,5,5,5,5,7,5,1,0,0,1,3,7,1,7,0,7,1,0,5,0,1,5,0,0,5,5,0,0,0,0,0,0,0,0,0,0,0,0,0,0,0,0,0,0,0,0,0,0,0,0,0,0,0,0],"split_type":[0,0,0,0,0,0,0,0,0,0,0,0,0,0,0,0,0,0,0,0,0,0,0,0,0,0,0,0,0,0,0,0,0,0,0,0,0,0,0,0,0,0,0,0,0,0,0,0,0,0,0,0,0,0,0,0,0,0,0],"sum_hessian":[1.2298E4,1.0811E4,1.487E3,6.94E2,1.0117E4,9.18E2,5.69E2,3.27E2,3.67E2,8.371E3,1.746E3,4.52E2,4.66E2,4E1,5.29E2,2.91E2,3.6E1,3.3E2,3.7E1,1.066E3,7.305E3,9.93E2,7.53E2,1.61E2,2.91E2,2.86E2,1.8E2,2.4E1,1.6E1,4.92E2,3.7E1,1.47E2,1.44E2,1E1,2.6E1,1.26E2,2.04E2,2E1,1.7E1,4.85E2,5.81E2,5.631E3,1.674E3,4.43E2,5.5E2,2.37E2,5.16E2,1.43E2,1.8E1,1.27E2,1.64E2,2.6E1,2.6E2,9.2E1,8.8E1,5.2E1,4.4E2,1.2E1,2.5E1],"tree_param":{"num_deleted":"0","num_feature":"8","num_nodes":"59","size_leaf_vector":"1"}},{"base_weights":[-1.8064253E-4,-2.3834815E-3,1.6112033E-2,1.7289182E-2,-3.787903E-3,1.0651766E-2,2.3980152E-2,4.941549E-3,2.078994E-2,-5.5163894E-3,-4.2351414E-4,1.5968937E-2,4.651736E-3,1.4232754E-3,1.692242E-2,1.7225508E-2,-3.8106488E-3,-0E0,2.1735748E-2,1.4440564E-3,-7.462398E-3,1.6636051E-3,-7.3592174E-3,1.7515043E-2,-3.030122E-3,8.899186E-3,-3.336905E-3,2.0652916E-2,-0E0,1.3195757E-3,2.171115E-5,-8.8207325E-4,-0E0,-9.048052E-4,5.5592426E-4,1.2140715E-3,5.491893E-4,-2.7168187E-4,3.5999744E-4,-3.9604196E-4,4.1145933E-5,-4.3784148E-5,2.8165776E-4,7.6746097E-4,-4.1750594E-4,9.1483485E-4,-1.2240022E-4,-1.1359733E-3,2.9013716E-4,-1.113846E-4,5.779786E-4,5.181677E-4,-3.0869144E-4,-0E0,1.0993481E-3,6.6886144E-4,-4.316936E-4],"categories":[],"categories_nodes":[],"categories_segments":[],"categories_sizes":[],"default_left":[0,0,0,0,0,0,0,0,0,0,0,0,0,0,0,0,0,0,0,0,0,0,0,0,0,0,0,0,0,0,0,0,0,0,0,0,0,0,0,0,0,0,0,0,0,0,0,0,0,0,0,0,0,0,0,0,0],"id":8,"left_children":[1,3,5,7,9,11,13,15,17,19,21,23,25,-1,27,29,31,33,35,37,39,41,43,45,47,49,51,53,55,-1,-1,-1,-1,-1,-1,-1,-1,-1,-1,-1,-1,-1,-1,-1,-1,-1,-1,-1,-1,-1,-1,-1,-1,-1,-1,-1,-1],"loss_changes":[4.3961185E-1,2.979067E-1,5.8919996E-2,2.8317213E-2,5.8213815E-2,2.5619425E-2,1.3625145E-2,1.9254059E-2,1.2280762E-2,9.0836436E-2,5.0566193E-2,1.4778867E-2,1.4803159E-2,0E0,1.7006755E-2,8.695232E-3,6.4300736E-3,5.0856075E-3,1.0740817E-2,5.741935E-2,2.053222E-2,2.7131751E-2,1.7654728E-2,8.230239E-3,7.0409067E-3,9.306649E-3,5.008618E-3,5.6324676E-3,4.3091713E-3,0E0,0E0,0E0,0E0,0E0,0E0,0E0,0E0,0E0,0E0,0E0,0E0,0E0,0E0,0E0,0E0,0E0,0E0,0E0,0E0,0E0,0E0,0E0,0E0,0E0,0E0,0E0,0E0],"parents":[2147483647,0,0,1,1,2,2,3,3,4,4,5,5,6,6,7,7,8,8,9,9,10,10,11,11,12,12,14,14,15,15,16,16,17,17,18,18,19,19,20,20,21,21,22,22,23,23,24,24,25,25,26,26,27,27,28,28],"right_children":[2,4,6,8,10,12,14,16,18,20,22,24,26,-1,28,30,32,34,36,38,40,42,44,46,48,50,52,54,56,-1,-1,-1,-1,-1,-1,-1,-1,-1,-1,-1,-1,-1,-1,-1,-1,-1,-1,-1,-1,-1,-1,-1,-1,-1,-1,-1,-1],"split_conditions":[-3.867748E0,-7.033691E0,-3.320627E0,8.489451E1,-4.94113E0,9.101108E1,1.54102E0,-7.798273E0,-1.676095E1,-6.279728E0,6.40986E0,6.77666E0,6.40986E0,1.4232754E-3,2.4358423E3,2.0280085E3,1.8456245E3,2.1827234E3,1.89923E0,8.858785E1,9.472597E1,-4.391287E0,1.9058015E3,1.858694E1,8.923032E1,-3.803742E0,-8.4906E-1,1.58012E0,6.36457E0,1.3195757E-3,2.171115E-5,-8.8207325E-4,-0E0,-9.048052E-4,5.5592426E-4,1.2140715E-3,5.491893E-4,-2.7168187E-4,3.5999744E-4,-3.9604196E-4,4.1145933E-5,-4.3784148E-5,2.8165776E-4,7.6746097E-4,-4.1750594E-4,9.1483485E-4,-1.2240022E-4,-1.1359733E-3,2.9013716E-4,-1.113846E-4,5.779786E-4,5.181677E-4,-3.0869144E-4,-0E0,1.0993481E-3,6.6886144E-4,-4.316936E-4],"split_indices":[7,7,7,0,7,0,6,7,3,7,4,4,4,0,1,1,1,1,6,0,0,7,1,3,0,7,6,6,3,0,0,0,0,0,0,0,0,0,0,0,0,0,0,0,0,0,0,0,0,0,0,0,0,0,0,0,0],"split_type":[0,0,0,0,0,0,0,0,0,0,0,0,0,0,0,0,0,0,0,0,0,0,0,0,0,0,0,0,0,0,0,0,0,0,0,0,0,0,0,0,0,0,0,0,0,0,0,0,0,0,0,0,0,0,0,0,0],"sum_hessian":[1.2285E4,1.0828E4,1.457E3,7.16E2,1.0112E4,8.69E2,5.88E2,1.65E2,5.51E2,6.66E3,3.452E3,4.51E2,4.18E2,3.49E2,2.39E2,7.3E1,9.2E1,2.1E1,5.3E2,1.444E3,5.216E3,2.643E3,8.09E2,4.22E2,2.9E1,2.81E2,1.37E2,2E2,3.9E1,4.3E1,3E1,2.4E1,6.8E1,1E1,1.1E1,4.2E2,1.1E2,6.5E2,7.94E2,4.954E3,2.62E2,1.597E3,1.046E3,2.9E1,7.8E2,4.11E2,1.1E1,1.2E1,1.7E1,4.7E1,2.34E2,1.7E1,1.2E2,1.2E1,1.88E2,1.1E1,2.8E1],"tree_param":{"num_deleted":"0","num_feature":"8","num_nodes":"57","size_leaf_vector":"1"}},{"base_weights":[2.0671792E-4,1.3182814E-3,-2.2503175E-3,2.4608434E-3,3.3275643E-5,-1.7995948E-3,-9.8472405E-3,5.219494E-3,1.370533E-3,-2.536941E-3,1.1067246E-3,-8.3979145E-3,-1.2331151E-3,-7.903777E-4,-1.4623917E-2,9.950509E-3,2.6960517E-3,2.9213664E-3,-3.7826817E-3,-4.805182E-3,4.2194314E-3,-3.6721672E-3,1.9714548E-3,-1.2873079E-2,-8.965902E-5,-1.4510292E-3,1.8030237E-2,-7.466883E-3,8.146368E-3,-1.1767349E-3,-3.5418964E-3,-0E0,6.278881E-4,-7.695259E-5,2.6249242E-4,-5.1394392E-5,2.0858932E-4,-3.0590672E-4,1.02679245E-4,-1.3662226E-4,-6.183802E-4,4.0347804E-4,-3.5506496E-4,-1.687463E-3,-1.11575646E-4,5.2214524E-4,7.059763E-5,2.7916734E-5,-9.910417E-4,1.0305749E-3,-6.019111E-4,-1.2842698E-4,9.526567E-6,-0E0,1.2388814E-3,-0E0,-6.4796186E-4,-7.791984E-5,1.0582897E-3,1.6678951E-4,-1.2091965E-3],"categories":[],"categories_nodes":[],"categories_segments":[],"categories_sizes":[],"default_left":[0,0,0,0,0,0,0,0,0,0,0,0,0,0,0,0,0,0,0,0,0,0,0,0,0,0,0,0,0,0,0,0,0,0,0,0,0,0,0,0,0,0,0,0,0,0,0,0,0,0,0,0,0,0,0,0,0,0,0,0,0],"id":9,"left_children":[1,3,5,7,9,11,13,15,17,19,21,23,25,27,29,31,33,35,37,39,41,43,45,47,49,51,53,55,57,-1,59,-1,-1,-1,-1,-1,-1,-1,-1,-1,-1,-1,-1,-1,-1,-1,-1,-1,-1,-1,-1,-1,-1,-1,-1,-1,-1,-1,-1,-1,-1],"loss_changes":[3.328716E-2,1.2146508E-2,1.1757288E-2,1.2652319E-2,1.0939916E-2,1.2411656E-2,7.056089E-3,1.33689195E-2,2.5506597E-2,1.7794644E-2,1.1660114E-2,8.704212E-3,1.2275409E-2,4.587179E-3,9.355165E-3,1.0359436E-2,9.204682E-3,1.2545731E-2,1.0314635E-2,1.2203099E-2,1.2358289E-2,1.4568832E-2,1.0369611E-2,1.7521447E-2,2.4867749E-2,6.258992E-3,3.1036148E-3,2.3627256E-3,5.405187E-3,0E0,1.0825623E-2,0E0,0E0,0E0,0E0,0E0,0E0,0E0,0E0,0E0,0E0,0E0,0E0,0E0,0E0,0E0,0E0,0E0,0E0,0E0,0E0,0E0,0E0,0E0,0E0,0E0,0E0,0E0,0E0,0E0,0E0],"parents":[2147483647,0,0,1,1,2,2,3,3,4,4,5,5,6,6,7,7,8,8,9,9,10,10,11,11,12,12,13,13,14,14,15,15,16,16,17,17,18,18,19,19,20,20,21,21,22,22,23,23,24,24,25,25,26,26,27,27,28,28,30,30],"right_children":[2,4,6,8,10,12,14,16,18,20,22,24,26,28,30,32,34,36,38,40,42,44,46,48,50,52,54,56,58,-1,60,-1,-1,-1,-1,-1,-1,-1,-1,-1,-1,-1,-1,-1,-1,-1,-1,-1,-1,-1,-1,-1,-1,-1,-1,-1,-1,-1,-1,-1,-1],"split_conditions":[1.935674E1,6.04314E0,2.47373E1,1.262418E1,1.92106E0,5.49133E0,5.87382E0,2.0500635E3,1.461729E1,6.04986E0,5.19522E0,6.07762E0,7.12259E0,4.44992E0,8.8213E0,-1.42378E1,8.62319E0,-1.191127E1,2.3237175E3,-5.1716E-1,1.835619E1,6.11928E0,8.62319E0,5.62794E0,1.3551E0,2.164072E1,3.53858E0,5.98552E0,6.47301E0,-1.1767349E-3,1.53274E0,-0E0,6.278881E-4,-7.695259E-5,2.6249242E-4,-5.1394392E-5,2.0858932E-4,-3.0590672E-4,1.02679245E-4,-1.3662226E-4,-6.183802E-4,4.0347804E-4,-3.5506496E-4,-1.687463E-3,-1.11575646E-4,5.2214524E-4,7.059763E-5,2.7916734E-5,-9.910417E-4,1.0305749E-3,-6.019111E-4,-1.2842698E-4,9.526567E-6,-0E0,1.2388814E-3,-0E0,-6.4796186E-4,-7.791984E-5,1.0582897E-3,1.6678951E-4,-1.2091965E-3],"split_indices":[2,4,2,2,3,5,3,1,3,5,5,4,4,3,3,3,2,3,1,6,2,4,2,4,6,2,3,4,5,0,6,0,0,0,0,0,0,0,0,0,0,0,0,0,0,0,0,0,0,0,0,0,0,0,0,0,0,0,0,0,0],"split_type":[0,0,0,0,0,0,0,0,0,0,0,0,0,0,0,0,0,0,0,0,0,0,0,0,0,0,0,0,0,0,0,0,0,0,0,0,0,0,0,0,0,0,0,0,0,0,0,0,0,0,0,0,0,0,0,0,0,0,0,0,0],"sum_hessian":[1.222E4,8.442E3,3.778E3,4.427E3,4.015E3,3.58E3,1.98E2,1.227E3,3.2E3,1.155E3,2.86E3,2.68E2,3.312E3,7.6E1,1.22E2,4.12E2,8.15E2,2.475E3,7.25E2,8.76E2,2.79E2,4.2E2,2.44E3,1.66E2,1.02E2,3.281E3,3.1E1,5E1,2.6E1,6.2E1,6E1,8.8E1,3.24E2,2.92E2,5.23E2,5.76E2,1.899E3,5.3E2,1.95E2,6.99E2,1.77E2,2.15E2,6.4E1,1.5E1,4.05E2,1.39E2,2.301E3,5.2E1,1.14E2,3.4E1,6.8E1,1.988E3,1.293E3,1E1,2.1E1,2E1,3E1,1.1E1,1.5E1,4.2E1,1.8E1],"tree_param":{"num_deleted":"0","num_feature":"8","num_nodes":"61","size_leaf_vector":"1"}},{"base_weights":[9.01287E-5,-1.7785111E-3,1.6275862E-2,1.8322062E-2,-3.122644E-3,9.885716E-3,2.2871781E-2,1.0603126E-2,2.6220975E-2,-5.2821753E-3,8.9024607E-4,4.270518E-3,2.3423497E-2,2.4536146E-2,1.2056572E-2,3.9228536E-3,1.8423067E-2,2.8151093E-2,-0E0,2.9710107E-3,-6.820188E-3,5.7508107E-3,-4.0437635E-3,1.0865896E-2,-1.1842457E-2,7.893369E-3,1.3469666E-3,-0E0,2.4990816E-2,2.2875012E-3,1.3989992E-3,1.1684999E-3,-1.328465E-4,1.0374557E-3,-0E0,4.1019786E-4,1.4844063E-3,-4.8807473E-4,4.2272173E-4,-1.7877031E-4,5.589757E-4,9.534E-5,-4.0870844E-4,-5.845085E-5,5.883295E-4,-3.0795913E-4,7.0640194E-4,7.7244797E-4,-5.310708E-4,-1.0246792E-3,-0E0,8.864173E-4,-4.5092613E-4,1.5345461E-3,1.0622398E-3,-3.0623365E-4,9.0084225E-4],"categories":[],"categories_nodes":[],"categories_segments":[],"categories_sizes":[],"default_left":[0,0,0,0,0,0,0,0,0,0,0,0,0,0,0,0,0,0,0,0,0,0,0,0,0,0,0,0,0,0,0,0,0,0,0,0,0,0,0,0,0,0,0,0,0,0,0,0,0,0,0,0,0,0,0,0,0],"id":10,"left_children":[1,3,5,7,9,11,13,15,17,19,21,23,25,27,29,31,33,35,37,39,41,43,45,47,49,51,-1,-1,53,55,-1,-1,-1,-1,-1,-1,-1,-1,-1,-1,-1,-1,-1,-1,-1,-1,-1,-1,-1,-1,-1,-1,-1,-1,-1,-1,-1],"loss_changes":[3.7007824E-1,2.9359913E-1,4.990077E-2,3.7499964E-2,8.920068E-2,4.6769872E-2,7.1151853E-3,1.6081385E-2,1.7092109E-2,8.513433E-2,8.5761994E-2,4.9765926E-2,6.4599365E-3,5.554199E-3,1.1220487E-2,2.7469082E-2,7.2346255E-3,5.379647E-3,2.0011708E-3,5.6632373E-2,6.72501E-2,7.633722E-2,6.69847E-2,3.383383E-2,1.3826812E-2,7.850317E-3,0E0,0E0,5.129695E-3,9.503279E-3,0E0,0E0,0E0,0E0,0E0,0E0,0E0,0E0,0E0,0E0,0E0,0E0,0E0,0E0,0E0,0E0,0E0,0E0,0E0,0E0,0E0,0E0,0E0,0E0,0E0,0E0,0E0],"parents":[2147483647,0,0,1,1,2,2,3,3,4,4,5,5,6,6,7,7,8,8,9,9,10,10,11,11,12,12,13,13,14,14,15,15,16,16,17,17,18,18,19,19,20,20,21,21,22,22,23,23,24,24,25,25,28,28,29,29],"right_children":[2,4,6,8,10,12,14,16,18,20,22,24,26,28,30,32,34,36,38,40,42,44,46,48,50,52,-1,-1,54,56,-1,-1,-1,-1,-1,-1,-1,-1,-1,-1,-1,-1,-1,-1,-1,-1,-1,-1,-1,-1,-1,-1,-1,-1,-1,-1,-1],"split_conditions":[-3.803742E0,-7.074366E0,5.75575E0,1.41445E1,-4.94113E0,-3.03116E0,9.43126E1,8.74575E0,6.78155E0,-6.452757E0,1.81856E1,1.909367E1,5.08021E0,8.508256E1,6.22304E0,-8.148398E0,1.29917E1,8.309821E1,1.913907E1,8.923032E1,5.38222E0,5.56778E0,6.50975E0,9.306101E1,-3.48954E0,1.461729E1,1.3469666E-3,-0E0,1.89421E1,9.582413E1,1.3989992E-3,1.1684999E-3,-1.328465E-4,1.0374557E-3,-0E0,4.1019786E-4,1.4844063E-3,-4.8807473E-4,4.2272173E-4,-1.7877031E-4,5.589757E-4,9.534E-5,-4.0870844E-4,-5.845085E-5,5.883295E-4,-3.0795913E-4,7.0640194E-4,7.7244797E-4,-5.310708E-4,-1.0246792E-3,-0E0,8.864173E-4,-4.5092613E-4,1.5345461E-3,1.0622398E-3,-3.0623365E-4,9.0084225E-4],"split_indices":[7,7,5,2,7,7,0,3,5,7,2,2,5,0,5,7,2,0,2,0,5,5,5,0,7,3,0,0,2,0,0,0,0,0,0,0,0,0,0,0,0,0,0,0,0,0,0,0,0,0,0,0,0,0,0,0,0],"split_type":[0,0,0,0,0,0,0,0,0,0,0,0,0,0,0,0,0,0,0,0,0,0,0,0,0,0,0,0,0,0,0,0,0,0,0,0,0,0,0,0,0,0,0,0,0,0,0,0,0,0,0,0,0,0,0,0,0],"sum_hessian":[1.2186E4,1.092E4,1.266E3,6.79E2,1.0241E4,6.52E2,6.14E2,3.51E2,3.28E2,6.674E3,3.567E3,4.67E2,1.85E2,5.23E2,9.1E1,1.97E2,1.54E2,3.06E2,2.2E1,1.038E3,5.636E3,1.807E3,1.76E3,3.36E2,1.31E2,4E1,1.45E2,1E1,5.13E2,6.1E1,3E1,5.3E1,1.44E2,1.38E2,1.6E1,2.7E1,2.79E2,1.1E1,1.1E1,5.71E2,4.67E2,7.47E2,4.889E3,8.33E2,9.74E2,1.582E3,1.78E2,2.81E2,5.5E1,7.6E1,5.5E1,2.9E1,1.1E1,1.9E2,3.23E2,3.6E1,2.5E1],"tree_param":{"num_deleted":"0","num_feature":"8","num_nodes":"57","size_leaf_vector":"1"}},{"base_weights":[-4.099449E-5,-2.1532325E-3,1.6597012E-2,1.2780013E-2,-3.5140929E-3,1.2145802E-2,2.232827E-2,6.021246E-3,2.1118337E-2,-4.36093E-3,3.907794E-3,1.6004715E-2,2.2605252E-3,2.683851E-2,1.5560671E-2,1.9182635E-2,1.9568114E-3,-0E0,2.2655288E-2,2.0539018E-3,-5.017532E-3,8.483248E-3,-3.5029599E-3,1.820934E-2,-8.2025415E-4,-6.1183525E-3,9.393205E-3,1.365081E-3,1.7472326E-4,1.951081E-2,2.1894618E-3,-9.82458E-5,1.1352384E-3,-2.4428093E-4,5.089943E-4,4.0813512E-4,-3.172914E-4,1.492043E-3,8.269117E-4,-1.5522113E-4,6.139108E-4,-1.6845157E-4,-4.331756E-4,8.424969E-4,2.8620041E-5,2.889282E-4,-4.6645655E-4,1.2290905E-3,6.833551E-4,-1.031849E-3,7.7791534E-5,9.03077E-5,-8.3295506E-4,7.258609E-4,-1.0362313E-4,1.0498471E-3,2.2808605E-4,-1.8807196E-4,5.158519E-4],"categories":[],"categories_nodes":[],"categories_segments":[],"categories_sizes":[],"default_left":[0,0,0,0,0,0,0,0,0,0,0,0,0,0,0,0,0,0,0,0,0,0,0,0,0,0,0,0,0,0,0,0,0,0,0,0,0,0,0,0,0,0,0,0,0,0,0,0,0,0,0,0,0,0,0,0,0,0,0],"id":11,"left_children":[1,3,5,7,9,11,13,15,17,19,21,23,25,27,29,31,33,35,37,39,41,43,45,47,49,51,53,-1,-1,55,57,-1,-1,-1,-1,-1,-1,-1,-1,-1,-1,-1,-1,-1,-1,-1,-1,-1,-1,-1,-1,-1,-1,-1,-1,-1,-1,-1,-1],"loss_changes":[4.269898E-1,2.19064E-1,3.1180471E-2,4.7767296E-2,6.244857E-2,2.7967818E-2,1.3259739E-2,2.4809292E-2,1.220341E-2,3.7886024E-2,3.4604847E-2,2.2340298E-2,1.4011114E-2,5.223304E-4,1.0780517E-2,1.0535352E-2,2.2635357E-2,1.6034887E-3,1.0999873E-2,4.3938857E-2,4.7499895E-2,3.9946314E-2,2.0741448E-2,1.0196015E-2,4.765396E-3,9.784877E-3,8.91209E-3,0E0,0E0,1.4361516E-3,3.74145E-3,0E0,0E0,0E0,0E0,0E0,0E0,0E0,0E0,0E0,0E0,0E0,0E0,0E0,0E0,0E0,0E0,0E0,0E0,0E0,0E0,0E0,0E0,0E0,0E0,0E0,0E0,0E0,0E0],"parents":[2147483647,0,0,1,1,2,2,3,3,4,4,5,5,6,6,7,7,8,8,9,9,10,10,11,11,12,12,13,13,14,14,15,15,16,16,17,17,18,18,19,19,20,20,21,21,22,22,23,23,24,24,25,25,26,26,29,29,30,30],"right_children":[2,4,6,8,10,12,14,16,18,20,22,24,26,28,30,32,34,36,38,40,42,44,46,48,50,52,54,-1,-1,56,58,-1,-1,-1,-1,-1,-1,-1,-1,-1,-1,-1,-1,-1,-1,-1,-1,-1,-1,-1,-1,-1,-1,-1,-1,-1,-1,-1,-1],"split_conditions":[-3.844417E0,-6.878307E0,-3.320627E0,1.48228E1,-4.254786E0,2.053103E1,1.55218E0,-7.973172E0,8.309821E1,-6.452757E0,1.955462E1,6.74746E0,-3.680506E0,6.83476E0,9.29176E1,5.787E-2,1.004784E1,8.130177E1,-7.339948E0,1.773847E1,1.935674E1,1.3981E0,5.78237E0,8.987546E1,8.928278E1,9.113998E1,6.32514E0,1.365081E-3,1.7472326E-4,2.143371E1,-3.03116E0,-9.82458E-5,1.1352384E-3,-2.4428093E-4,5.089943E-4,4.0813512E-4,-3.172914E-4,1.492043E-3,8.269117E-4,-1.5522113E-4,6.139108E-4,-1.6845157E-4,-4.331756E-4,8.424969E-4,2.8620041E-5,2.889282E-4,-4.6645655E-4,1.2290905E-3,6.833551E-4,-1.031849E-3,7.7791534E-5,9.03077E-5,-8.3295506E-4,7.258609E-4,-1.0362313E-4,1.0498471E-3,2.2808605E-4,-1.8807196E-4,5.158519E-4],"split_indices":[7,7,7,2,7,2,6,7,0,7,2,4,7,4,0,2,3,0,7,2,2,6,3,0,0,0,4,0,0,2,7,0,0,0,0,0,0,0,0,0,0,0,0,0,0,0,0,0,0,0,0,0,0,0,0,0,0,0,0],"split_type":[0,0,0,0,0,0,0,0,0,0,0,0,0,0,0,0,0,0,0,0,0,0,0,0,0,0,0,0,0,0,0,0,0,0,0,0,0,0,0,0,0,0,0,0,0,0,0,0,0,0,0,0,0,0,0,0,0,0,0],"sum_hessian":[1.2189E4,1.0822E4,1.367E3,8.97E2,9.925E3,7.81E2,5.86E2,5.03E2,3.94E2,8.921E3,1.004E3,5.54E2,2.27E2,3.41E2,2.45E2,1.12E2,3.91E2,2.8E1,3.66E2,8.14E2,8.107E3,6.29E2,3.75E2,4.95E2,5.9E1,9.8E1,1.29E2,3.3E2,1.1E1,1.83E2,6.2E1,1.2E1,1E2,2.07E2,1.84E2,1.4E1,1.4E1,1.59E2,2.07E2,5.35E2,2.79E2,5.603E3,2.504E3,2.99E2,3.3E2,1.38E2,2.37E2,1.95E2,3E2,1E1,4.9E1,5.1E1,4.7E1,9.5E1,3.4E1,1.6E2,2.3E1,2.9E1,3.3E1],"tree_param":{"num_deleted":"0","num_feature":"8","num_nodes":"59","size_leaf_vector":"1"}},{"base_weights":[-1.187455E-5,-1.890124E-3,1.4168074E-2,1.2736921E-2,-3.4979421E-3,2.6457142E-3,1.7389884E-2,6.111895E-3,1.9005952E-2,-4.698724E-3,1.7466708E-3,1.166984E-2,-5.399612E-3,2.328006E-2,1.1883681E-2,1.5890118E-2,3.1846063E-4,2.48184E-2,-1.1438067E-3,3.127662E-3,-5.424731E-3,-3.7986992E-3,8.95438E-3,2.1961695E-2,1.0245503E-3,-1.6022362E-2,8.008845E-3,2.4966527E-2,-0E0,4.688782E-3,2.1549407E-2,5.03753E-4,1.4790333E-3,5.047989E-4,-4.1653667E-4,-0E0,1.2886757E-3,9.238853E-4,-5.4226903E-4,-2.555656E-4,4.929638E-4,-8.100755E-6,-3.2977355E-4,1.5139129E-4,-5.873769E-4,9.898111E-4,-0E0,-0E0,1.5079052E-3,-1.335525E-4,8.899622E-4,-1.4332343E-3,-4.7442867E-4,7.273038E-4,-0E0,4.541258E-5,1.2888656E-3,-5.8952096E-4,7.170756E-4,-5.625671E-5,7.292638E-4,7.0213614E-4,1.2467481E-3],"categories":[],"categories_nodes":[],"categories_segments":[],"categories_sizes":[],"default_left":[0,0,0,0,0,0,0,0,0,0,0,0,0,0,0,0,0,0,0,0,0,0,0,0,0,0,0,0,0,0,0,0,0,0,0,0,0,0,0,0,0,0,0,0,0,0,0,0,0,0,0,0,0,0,0,0,0,0,0,0,0,0,0],"id":12,"left_children":[1,3,5,7,9,11,13,15,17,19,21,23,25,27,29,31,33,35,37,39,41,43,45,47,49,51,53,55,57,59,61,-1,-1,-1,-1,-1,-1,-1,-1,-1,-1,-1,-1,-1,-1,-1,-1,-1,-1,-1,-1,-1,-1,-1,-1,-1,-1,-1,-1,-1,-1,-1,-1],"loss_changes":[3.253521E-1,2.5391063E-1,5.0961852E-2,4.168722E-2,6.1818726E-2,2.3922684E-2,3.2174647E-2,2.8285014E-2,6.5640315E-2,4.5498177E-2,7.2694376E-2,1.4879763E-2,2.428896E-2,1.9735515E-2,3.7888795E-2,1.0862555E-2,2.8929064E-2,9.147167E-3,2.1899594E-2,3.740715E-2,4.4300467E-2,5.58759E-2,7.788898E-2,1.4758922E-2,6.7057447E-3,3.8425066E-3,3.6145854E-3,6.8464875E-3,6.68818E-3,2.1040212E-2,1.9277483E-3,0E0,0E0,0E0,0E0,0E0,0E0,0E0,0E0,0E0,0E0,0E0,0E0,0E0,0E0,0E0,0E0,0E0,0E0,0E0,0E0,0E0,0E0,0E0,0E0,0E0,0E0,0E0,0E0,0E0,0E0,0E0,0E0],"parents":[2147483647,0,0,1,1,2,2,3,3,4,4,5,5,6,6,7,7,8,8,9,9,10,10,11,11,12,12,13,13,14,14,15,15,16,16,17,17,18,18,19,19,20,20,21,21,22,22,23,23,24,24,25,25,26,26,27,27,28,28,29,29,30,30],"right_children":[2,4,6,8,10,12,14,16,18,20,22,24,26,28,30,32,34,36,38,40,42,44,46,48,50,52,54,56,58,60,62,-1,-1,-1,-1,-1,-1,-1,-1,-1,-1,-1,-1,-1,-1,-1,-1,-1,-1,-1,-1,-1,-1,-1,-1,-1,-1,-1,-1,-1,-1,-1,-1],"split_conditions":[-3.867748E0,-6.795781E0,5.34768E0,1.41445E1,-4.500213E0,1.611643E1,1.909367E1,-7.564083E0,6.49635E0,-6.452757E0,5.87483E0,6.36517E0,-3.280337E0,2.4838135E3,-3.320627E0,6.05354E0,5.85786E0,1.8456245E3,-7.406265E0,1.067E0,1.282705E1,1.759166E1,1.930725E1,1.200359E1,5.20824E0,-3.707091E0,1.921655E1,-3.844417E0,5.75575E0,6.05853E0,2.071907E1,5.03753E-4,1.4790333E-3,5.047989E-4,-4.1653667E-4,-0E0,1.2886757E-3,9.238853E-4,-5.4226903E-4,-2.555656E-4,4.929638E-4,-8.100755E-6,-3.2977355E-4,1.5139129E-4,-5.873769E-4,9.898111E-4,-0E0,-0E0,1.5079052E-3,-1.335525E-4,8.899622E-4,-1.4332343E-3,-4.7442867E-4,7.273038E-4,-0E0,4.541258E-5,1.2888656E-3,-5.8952096E-4,7.170756E-4,-5.625671E-5,7.292638E-4,7.0213614E-4,1.2467481E-3],"split_indices":[7,7,5,2,7,2,2,7,5,7,5,4,7,1,7,4,5,1,7,6,2,2,2,2,5,7,2,7,5,5,2,0,0,0,0,0,0,0,0,0,0,0,0,0,0,0,0,0,0,0,0,0,0,0,0,0,0,0,0,0,0,0,0],"split_type":[0,0,0,0,0,0,0,0,0,0,0,0,0,0,0,0,0,0,0,0,0,0,0,0,0,0,0,0,0,0,0,0,0,0,0,0,0,0,0,0,0,0,0,0,0,0,0,0,0,0,0,0,0,0,0,0,0,0,0,0,0,0,0],"sum_hessian":[1.226E4,1.0833E4,1.427E3,1.066E3,9.767E3,3.19E2,1.108E3,5.27E2,5.39E2,7.963E3,1.804E3,1.56E2,1.63E2,5.25E2,5.83E2,1.89E2,3.38E2,4.22E2,1.17E2,6.64E2,7.299E3,1.012E3,7.92E2,7.4E1,8.2E1,9.5E1,6.8E1,4.88E2,3.7E1,3.41E2,2.42E2,1.39E2,5E1,1.64E2,1.74E2,1.7E1,4.05E2,3.5E1,8.2E1,2.92E2,3.72E2,1.344E3,5.955E3,5.38E2,4.74E2,3.6E2,4.32E2,1.9E1,5.5E1,6.3E1,1.9E1,2.6E1,6.9E1,3.7E1,3.1E1,2E1,4.68E2,1.9E1,1.8E1,2.09E2,1.32E2,8.6E1,1.56E2],"tree_param":{"num_deleted":"0","num_feature":"8","num_nodes":"63","size_leaf_vector":"1"}},{"base_weights":[1.5092493E-4,1.2087855E-3,-2.3361836E-3,1.911469E-3,-3.993586E-4,-1.9691966E-3,-7.876362E-3,2.9728292E-2,1.7610387E-3,8.098103E-3,-9.8839E-4,-6.194801E-4,-3.500234E-3,-1.123203E-2,-0E0,1.9510726E-3,9.414936E-5,-0E0,3.901577E-3,1.795198E-2,-1.0221301E-2,-7.2110933E-4,-2.0358242E-2,-1.9542726E-3,4.9616788E-3,-7.5699976E-3,-1.4770344E-3,-2.683149E-3,-2.0700073E-2,8.931069E-3,-1.0154285E-3,8.800216E-4,-1.1383426E-5,3.3907357E-4,1.2833996E-4,2.027249E-3,4.8127156E-4,-1.0088247E-3,-0E0,-6.9651986E-5,2.1369306E-4,-1.4879977E-3,-0E0,4.9150334E-4,-1.4227655E-4,-4.7161485E-4,3.6590232E-4,6.6485384E-4,-4.491375E-4,-4.280963E-4,-4.59514E-6,7.088883E-5,-6.322306E-4,-1.3071335E-3,-0E0,-2.8650046E-4,9.2449546E-4],"categories":[],"categories_nodes":[],"categories_segments":[],"categories_sizes":[],"default_left":[0,0,0,0,0,0,0,0,0,0,0,0,0,0,0,0,0,0,0,0,0,0,0,0,0,0,0,0,0,0,0,0,0,0,0,0,0,0,0,0,0,0,0,0,0,0,0,0,0,0,0,0,0,0,0,0,0],"id":13,"left_children":[1,3,5,7,9,11,13,15,17,19,21,23,25,27,29,-1,-1,31,33,35,37,39,41,43,45,47,49,51,53,55,-1,-1,-1,-1,-1,-1,-1,-1,-1,-1,-1,-1,-1,-1,-1,-1,-1,-1,-1,-1,-1,-1,-1,-1,-1,-1,-1],"loss_changes":[3.2246295E-2,9.934525E-3,6.404752E-3,2.2190223E-2,1.2260685E-2,6.682108E-3,5.8318647E-3,3.3404343E-3,2.3053631E-2,2.929775E-2,1.0478652E-2,1.3572828E-2,1.2044344E-2,9.66637E-3,1.09335E-2,0E0,0E0,1.19403815E-2,9.599593E-3,1.4533598E-2,5.9658443E-3,7.796419E-3,2.5656512E-3,1.5262403E-2,1.1559138E-2,1.4604889E-2,9.62447E-3,4.6129646E-3,7.003356E-3,7.548224E-3,0E0,0E0,0E0,0E0,0E0,0E0,0E0,0E0,0E0,0E0,0E0,0E0,0E0,0E0,0E0,0E0,0E0,0E0,0E0,0E0,0E0,0E0,0E0,0E0,0E0,0E0,0E0],"parents":[2147483647,0,0,1,1,2,2,3,3,4,4,5,5,6,6,7,7,8,8,9,9,10,10,11,11,12,12,13,13,14,14,17,17,18,18,19,19,20,20,21,21,22,22,23,23,24,24,25,25,26,26,27,27,28,28,29,29],"right_children":[2,4,6,8,10,12,14,16,18,20,22,24,26,28,30,-1,-1,32,34,36,38,40,42,44,46,48,50,52,54,56,-1,-1,-1,-1,-1,-1,-1,-1,-1,-1,-1,-1,-1,-1,-1,-1,-1,-1,-1,-1,-1,-1,-1,-1,-1,-1,-1],"split_conditions":[1.95195E1,1.344355E1,2.47373E1,4.49415E0,5.14853E0,8.13682E0,8.8213E0,2.1439595E3,5.27922E0,1.611643E1,6.55027E0,2.3650886E3,5.79447E0,5.87382E0,1.53274E0,1.9510726E-3,9.414936E-5,1.7191023E3,1.533733E1,1.594217E1,5.9688E0,2.4030789E3,5.96924E0,5.27754E0,5.52918E0,1.9779557E3,8.92469E0,6.08672E0,1.76581E0,5.54241E0,-1.0154285E-3,8.800216E-4,-1.1383426E-5,3.3907357E-4,1.2833996E-4,2.027249E-3,4.8127156E-4,-1.0088247E-3,-0E0,-6.9651986E-5,2.1369306E-4,-1.4879977E-3,-0E0,4.9150334E-4,-1.4227655E-4,-4.7161485E-4,3.6590232E-4,6.6485384E-4,-4.491375E-4,-4.280963E-4,-4.59514E-6,7.088883E-5,-6.322306E-4,-1.3071335E-3,-0E0,-2.8650046E-4,9.2449546E-4],"split_indices":[2,3,2,5,4,3,3,1,3,2,5,1,5,3,6,0,0,1,2,3,5,1,4,4,4,1,3,4,6,4,0,0,0,0,0,0,0,0,0,0,0,0,0,0,0,0,0,0,0,0,0,0,0,0,0,0,0],"split_type":[0,0,0,0,0,0,0,0,0,0,0,0,0,0,0,0,0,0,0,0,0,0,0,0,0,0,0,0,0,0,0,0,0,0,0,0,0,0,0,0,0,0,0,0,0,0,0,0,0,0,0,0,0,0,0,0,0],"sum_hessian":[1.2297E4,8.656E3,3.641E3,6.067E3,2.589E3,3.433E3,2.08E2,2.8E1,6.039E3,1.56E2,2.433E3,1.86E3,1.573E3,1.48E2,6E1,1.8E1,1E1,3.295E3,2.744E3,1.05E2,5.1E1,2.406E3,2.7E1,1.516E3,3.44E2,5.05E2,1.068E3,8.4E1,6.4E1,4.3E1,1.7E1,3.7E1,3.258E3,8.44E2,1.9E3,2.4E1,8.1E1,2.7E1,2.4E1,2.139E3,2.67E2,1.5E1,1.2E1,9.8E1,1.418E3,4.2E1,3.02E2,2.7E1,4.78E2,1.62E2,9.06E2,5.3E1,3.1E1,5E1,1.4E1,1.3E1,3E1],"tree_param":{"num_deleted":"0","num_feature":"8","num_nodes":"57","size_leaf_vector":"1"}},{"base_weights":[3.8421573E-4,-1.2853338E-3,1.5080323E-2,1.030366E-2,-2.7135927E-3,6.1306013E-3,1.7738592E-2,1.639414E-2,6.236864E-3,-4.707645E-3,6.631483E-4,8.29219E-3,-9.6650416E-4,1.4241423E-2,1.2368349E-3,1.1690749E-3,1.944527E-2,8.709346E-3,-9.943847E-3,2.1383092E-3,-5.74824E-3,-5.558557E-3,4.1820006E-3,8.500403E-4,1.559265E-2,1.6072461E-2,1.6778611E-3,5.598157E-4,-6.7165465E-4,1.0542865E-3,-1.0051185E-4,-3.279669E-4,5.540435E-4,-0E0,-1.2357538E-3,8.0629514E-4,-0E0,-3.6459026E-4,-1.1508795E-4,2.6361502E-4,-4.0880224E-4,1.5133049E-4,9.585984E-4,7.508049E-4,-1.6737127E-4,1.0067113E-3,-0E0,4.4832306E-4,9.635227E-4,-1.8289131E-4,9.955195E-4],"categories":[],"categories_nodes":[],"categories_segments":[],"categories_sizes":[],"default_left":[0,0,0,0,0,0,0,0,0,0,0,0,0,0,0,0,0,0,0,0,0,0,0,0,0,0,0,0,0,0,0,0,0,0,0,0,0,0,0,0,0,0,0,0,0,0,0,0,0,0,0],"id":14,"left_children":[1,3,5,7,9,11,13,15,17,19,21,23,-1,25,-1,27,29,31,33,35,37,39,41,43,45,47,49,-1,-1,-1,-1,-1,-1,-1,-1,-1,-1,-1,-1,-1,-1,-1,-1,-1,-1,-1,-1,-1,-1,-1,-1],"loss_changes":[3.022333E-1,1.8142465E-1,2.7409285E-2,2.7357146E-2,6.643527E-2,1.5457083E-2,1.9244522E-2,1.9749045E-2,2.9207919E-2,4.4427246E-2,7.920488E-2,1.3500858E-2,0E0,1.3196826E-2,0E0,1.2372374E-2,1.5535936E-2,2.369928E-2,1.4114761E-2,2.3108426E-2,2.7650088E-2,3.715966E-2,3.7989426E-2,9.898518E-3,9.175345E-3,9.774953E-3,1.0550844E-2,0E0,0E0,0E0,0E0,0E0,0E0,0E0,0E0,0E0,0E0,0E0,0E0,0E0,0E0,0E0,0E0,0E0,0E0,0E0,0E0,0E0,0E0,0E0,0E0],"parents":[2147483647,0,0,1,1,2,2,3,3,4,4,5,5,6,6,7,7,8,8,9,9,10,10,11,11,13,13,15,15,16,16,17,17,18,18,19,19,20,20,21,21,22,22,23,23,24,24,25,25,26,26],"right_children":[2,4,6,8,10,12,14,16,18,20,22,24,-1,26,-1,28,30,32,34,36,38,40,42,44,46,48,50,-1,-1,-1,-1,-1,-1,-1,-1,-1,-1,-1,-1,-1,-1,-1,-1,-1,-1,-1,-1,-1,-1,-1,-1],"split_conditions":[-3.775362E0,-6.704806E0,5.37506E0,-7.275222E0,-4.94113E0,9.381548E1,-3.171545E0,8.399146E1,6.48467E0,5.38222E0,5.64358E0,-3.280337E0,-9.6650416E-4,9.413658E1,1.2368349E-3,-7.798273E0,6.78155E0,5.337E0,6.0492E0,-6.262442E0,9.110462E1,2.0546982E3,6.56419E0,8.867607E1,2.353569E3,5.74049E0,6.15116E0,5.598157E-4,-6.7165465E-4,1.0542865E-3,-1.0051185E-4,-3.279669E-4,5.540435E-4,-0E0,-1.2357538E-3,8.0629514E-4,-0E0,-3.6459026E-4,-1.1508795E-4,2.6361502E-4,-4.0880224E-4,1.5133049E-4,9.585984E-4,7.508049E-4,-1.6737127E-4,1.0067113E-3,-0E0,4.4832306E-4,9.635227E-4,-1.8289131E-4,9.955195E-4],"split_indices":[7,7,5,7,7,0,7,0,5,5,5,7,0,0,0,7,5,4,4,7,0,1,5,0,1,5,5,0,0,0,0,0,0,0,0,0,0,0,0,0,0,0,0,0,0,0,0,0,0,0,0],"split_type":[0,0,0,0,0,0,0,0,0,0,0,0,0,0,0,0,0,0,0,0,0,0,0,0,0,0,0,0,0,0,0,0,0,0,0,0,0,0,0,0,0,0,0,0,0,0,0,0,0,0,0],"sum_hessian":[1.226E4,1.1004E4,1.256E3,1.199E3,9.805E3,2.97E2,9.59E2,4.69E2,7.3E2,6.183E3,3.622E3,2.78E2,1.9E1,6.51E2,3.08E2,8.4E1,3.85E2,6.39E2,9.1E1,8.03E2,5.38E3,1.298E3,2.324E3,1.45E2,1.33E2,5.61E2,9E1,5.4E1,3E1,3.62E2,2.3E1,8E1,5.59E2,5.4E1,3.7E1,1.02E2,7.01E2,3.695E3,1.685E3,2.45E2,1.053E3,2.165E3,1.59E2,3.8E1,1.07E2,1.02E2,3.1E1,1.85E2,3.76E2,6.6E1,2.4E1],"tree_param":{"num_deleted":"0","num_feature":"8","num_nodes":"51","size_leaf_vector":"1"}},{"base_weights":[-4.1146905E-5,-1.6931831E-3,1.2763018E-2,1.4409908E-2,-2.7262878E-3,1.4790055E-2,-0E0,3.175671E-3,1.8889215E-2,-4.5222673E-3,6.9505686E-4,1.2439416E-2,1.1653398E-3,-2.0353157E-2,6.559676E-3,1.1147142E-2,-2.0458698E-4,2.357129E-3,2.0362634E-2,2.1559543E-3,-5.778332E-3,5.672464E-3,-1.8436136E-3,1.7516583E-2,9.678386E-3,-1.4589248E-3,-0E0,1.1994567E-3,1.8952958E-3,8.564017E-4,-0E0,-3.116966E-4,6.76481E-4,-4.7865743E-4,4.544387E-4,1.0420278E-3,-0E0,-2.7174872E-4,4.5706937E-4,-3.512655E-4,-1.1529323E-4,-8.700564E-5,4.3279174E-4,-7.4726154E-6,-2.9028193E-4,-0E0,9.101722E-4,-1.7815808E-4,5.084474E-4,3.763348E-4,-2.441915E-4],"categories":[],"categories_nodes":[],"categories_segments":[],"categories_sizes":[],"default_left":[0,0,0,0,0,0,0,0,0,0,0,0,0,0,0,0,0,0,0,0,0,0,0,0,0,0,0,0,0,0,0,0,0,0,0,0,0,0,0,0,0,0,0,0,0,0,0,0,0,0,0],"id":15,"left_children":[1,3,5,7,9,11,13,15,17,19,21,23,-1,25,27,29,31,33,35,37,39,41,43,45,47,-1,-1,-1,49,-1,-1,-1,-1,-1,-1,-1,-1,-1,-1,-1,-1,-1,-1,-1,-1,-1,-1,-1,-1,-1,-1],"loss_changes":[2.5727665E-1,1.7897421E-1,3.6015555E-2,3.0291587E-2,6.2938556E-2,2.0139158E-2,2.5709052E-2,6.270096E-3,8.787602E-3,5.6534216E-2,4.4442426E-2,1.0442302E-2,0E0,7.7745114E-3,9.154246E-3,5.2939206E-3,9.871423E-3,3.572228E-3,3.7894547E-3,5.5991493E-2,2.3507029E-2,2.7044967E-2,1.4815085E-2,4.5619607E-3,4.795663E-3,0E0,0E0,0E0,4.882162E-3,0E0,0E0,0E0,0E0,0E0,0E0,0E0,0E0,0E0,0E0,0E0,0E0,0E0,0E0,0E0,0E0,0E0,0E0,0E0,0E0,0E0,0E0],"parents":[2147483647,0,0,1,1,2,2,3,3,4,4,5,5,6,6,7,7,8,8,9,9,10,10,11,11,13,13,14,14,15,15,16,16,17,17,18,18,19,19,20,20,21,21,22,22,23,23,24,24,28,28],"right_children":[2,4,6,8,10,12,14,16,18,20,22,24,-1,26,28,30,32,34,36,38,40,42,44,46,48,-1,-1,-1,50,-1,-1,-1,-1,-1,-1,-1,-1,-1,-1,-1,-1,-1,-1,-1,-1,-1,-1,-1,-1,-1,-1],"split_conditions":[-3.844417E0,-7.074366E0,9.381548E1,8.595558E1,-4.94113E0,-2.952844E0,-3.657472E0,-7.973172E0,-1.78941E0,-6.452757E0,8.904764E1,8.914767E1,1.1653398E-3,9.544542E1,8.1743E-1,2.136312E3,9.05839E0,8.724034E1,2.5299985E3,8.856312E1,1.73427E0,-4.70793E0,6.36517E0,8.278253E1,5.01573E0,-1.4589248E-3,-0E0,1.1994567E-3,2.4524934E3,8.564017E-4,-0E0,-3.116966E-4,6.76481E-4,-4.7865743E-4,4.544387E-4,1.0420278E-3,-0E0,-2.7174872E-4,4.5706937E-4,-3.512655E-4,-1.1529323E-4,-8.700564E-5,4.3279174E-4,-7.4726154E-6,-2.9028193E-4,-0E0,9.101722E-4,-1.7815808E-4,5.084474E-4,3.763348E-4,-2.441915E-4],"split_indices":[7,7,0,0,7,7,7,7,6,7,0,0,0,0,6,1,3,0,1,0,6,7,4,0,4,0,0,0,1,0,0,0,0,0,0,0,0,0,0,0,0,0,0,0,0,0,0,0,0,0,0],"split_type":[0,0,0,0,0,0,0,0,0,0,0,0,0,0,0,0,0,0,0,0,0,0,0,0,0,0,0,0,0,0,0,0,0,0,0,0,0,0,0,0,0,0,0,0,0,0,0,0,0,0,0],"sum_hessian":[1.2213E4,1.0825E4,1.388E3,6.46E2,1.0179E4,1.198E3,1.9E2,1.91E2,4.55E2,6.694E3,3.485E3,9.5E2,2.48E2,4.6E1,1.44E2,6.5E1,1.26E2,4.3E1,4.12E2,1.047E3,5.647E3,1.19E3,2.295E3,3.2E2,6.3E2,3.1E1,1.5E1,2.5E1,1.19E2,4.5E1,2E1,9.3E1,3.3E1,1E1,3.3E1,4.02E2,1E1,4.95E2,5.52E2,4.133E3,1.514E3,3.32E2,8.58E2,1.626E3,6.69E2,1E1,3.1E2,1.5E1,6.15E2,7.3E1,4.6E1],"tree_param":{"num_deleted":"0","num_feature":"8","num_nodes":"51","size_leaf_vector":"1"}},{"base_weights":[4.5553006E-5,-1.7076196E-3,1.210681E-2,1.1715626E-2,-2.757982E-3,7.845378E-3,1.8924324E-2,4.900545E-3,1.913073E-2,-3.428872E-3,4.0029213E-3,1.2812846E-2,-0E0,1.5738927E-2,1.2398523E-3,1.5525459E-2,8.239177E-4,-9.4207724E-5,2.0278824E-2,2.2636089E-3,-4.1123694E-3,8.091568E-3,-1.518112E-3,2.9606327E-2,9.829339E-3,-1.3084542E-3,1.596837E-3,1.7101126E-2,-0E0,-4.2856668E-4,9.87833E-4,-1.12426584E-4,7.7561504E-4,1.2639932E-3,7.260169E-4,-2.1833814E-4,3.990933E-4,6.262913E-5,-2.622604E-4,5.7680364E-4,-1.6897333E-4,4.2742497E-4,-3.58574E-4,-0E0,1.6353875E-3,6.929207E-4,2.1501519E-5,1.0044213E-4,-8.508783E-4,1.0881408E-3,5.1185046E-4,-3.827999E-4,2.7274966E-4],"categories":[],"categories_nodes":[],"categories_segments":[],"categories_sizes":[],"default_left":[0,0,0,0,0,0,0,0,0,0,0,0,0,0,0,0,0,0,0,0,0,0,0,0,0,0,0,0,0,0,0,0,0,0,0,0,0,0,0,0,0,0,0,0,0,0,0,0,0,0,0,0,0],"id":16,"left_children":[1,3,5,7,9,11,13,15,17,19,21,23,25,27,-1,29,31,-1,33,35,37,39,41,43,45,47,-1,49,51,-1,-1,-1,-1,-1,-1,-1,-1,-1,-1,-1,-1,-1,-1,-1,-1,-1,-1,-1,-1,-1,-1,-1,-1],"loss_changes":[2.5876036E-1,1.490682E-1,4.2321965E-2,3.616204E-2,4.4724897E-2,3.684843E-2,6.5557957E-3,1.5980992E-2,1.0539293E-2,3.51841E-2,2.0489212E-2,2.5176167E-2,1.7964141E-2,9.481639E-3,0E0,1.20954625E-2,1.4990309E-2,0E0,5.5883676E-3,3.637691E-2,4.9300328E-2,2.1203343E-2,2.0638937E-2,5.3428113E-3,1.7689805E-2,2.055586E-2,0E0,8.320637E-3,1.3832834E-3,0E0,0E0,0E0,0E0,0E0,0E0,0E0,0E0,0E0,0E0,0E0,0E0,0E0,0E0,0E0,0E0,0E0,0E0,0E0,0E0,0E0,0E0,0E0,0E0],"parents":[2147483647,0,0,1,1,2,2,3,3,4,4,5,5,6,6,7,7,8,8,9,9,10,10,11,11,12,12,13,13,15,15,16,16,18,18,19,19,20,20,21,21,22,22,23,23,24,24,25,25,27,27,28,28],"right_children":[2,4,6,8,10,12,14,16,18,20,22,24,26,28,-1,30,32,-1,34,36,38,40,42,44,46,48,-1,50,52,-1,-1,-1,-1,-1,-1,-1,-1,-1,-1,-1,-1,-1,-1,-1,-1,-1,-1,-1,-1,-1,-1,-1,-1],"split_conditions":[-3.910837E0,-6.996978E0,-3.320627E0,1.450135E1,-4.254786E0,1.962285E1,-2.77422E0,-7.973172E0,1.8456245E3,-6.452757E0,1.926371E1,2.0306101E3,2.5698018E3,2.4680315E3,1.2398523E-3,5.787E-2,6.39639E0,-9.4207724E-5,-7.339948E0,8.858785E1,1.282705E1,1.479461E1,5.78237E0,1.8117186E3,6.39639E0,9.36577E1,1.596837E-3,1.926371E1,2.5121685E3,-4.2856668E-4,9.87833E-4,-1.12426584E-4,7.7561504E-4,1.2639932E-3,7.260169E-4,-2.1833814E-4,3.990933E-4,6.262913E-5,-2.622604E-4,5.7680364E-4,-1.6897333E-4,4.2742497E-4,-3.58574E-4,-0E0,1.6353875E-3,6.929207E-4,2.1501519E-5,1.0044213E-4,-8.508783E-4,1.0881408E-3,5.1185046E-4,-3.827999E-4,2.7274966E-4],"split_indices":[7,7,7,2,7,2,7,7,1,7,2,1,1,1,0,2,4,0,7,0,2,3,3,1,4,0,0,2,1,0,0,0,0,0,0,0,0,0,0,0,0,0,0,0,0,0,0,0,0,0,0,0,0],"split_type":[0,0,0,0,0,0,0,0,0,0,0,0,0,0,0,0,0,0,0,0,0,0,0,0,0,0,0,0,0,0,0,0,0,0,0,0,0,0,0,0,0,0,0,0,0,0,0,0,0,0,0,0,0],"sum_hessian":[1.2186E4,1.0633E4,1.553E3,7.64E2,9.869E3,9.66E2,5.87E2,4.06E2,3.58E2,8.992E3,8.77E2,5.86E2,3.8E2,3.94E2,1.93E2,1.05E2,3.01E2,1.4E1,3.44E2,9.48E2,8.044E3,5.14E2,3.63E2,8.2E1,5.04E2,3.64E2,1.6E1,3.66E2,2.8E1,1.2E1,9.3E1,2.44E2,5.7E1,1.73E2,1.71E2,4.31E2,5.17E2,1.387E3,6.657E3,4.02E2,1.12E2,1.24E2,2.39E2,1E1,7.2E1,3.45E2,1.59E2,2.96E2,6.8E1,2.08E2,1.58E2,1.6E1,1.2E1],"tree_param":{"num_deleted":"0","num_feature":"8","num_nodes":"53","size_leaf_vector":"1"}},{"base_weights":[-1.9241805E-4,-4.677779E-4,4.419771E-3,1.5753225E-3,-8.7680476E-4,3.5044837E-3,9.4062055E-4,-6.37546E-4,5.631091E-3,-1.0536499E-2,-6.705425E-4,-4.6618474E-3,4.962148E-3,1.2723291E-2,-1.6540267E-3,-2.4358388E-3,7.47514E-3,-1.4224207E-2,2.4940711E-3,7.221219E-4,-1.3920777E-3,8.015781E-3,-2.3518214E-2,1.0062293E-3,9.801281E-3,2.3310255E-4,1.2036854E-3,-0E0,-4.0911822E-4,1.1434718E-4,-9.770737E-4,-1.310024E-4,4.606347E-4,-8.0917263E-4,1.0693812E-4,-2.83052E-4,5.656983E-4,2.1146261E-4,-1.2135966E-5,-6.6809036E-4,-6.2313986E-5,1.7697609E-3,-3.5855177E-4,-1.7268796E-3,-4.0956066E-4,-3.9710716E-4,1.911451E-4,2.9982819E-4,1.0433302E-3],"categories":[],"categories_nodes":[],"categories_segments":[],"categories_sizes":[],"default_left":[0,0,0,0,0,0,0,0,0,0,0,0,0,0,0,0,0,0,0,0,0,0,0,0,0,0,0,0,0,0,0,0,0,0,0,0,0,0,0,0,0,0,0,0,0,0,0,0,0],"id":17,"left_children":[1,3,5,7,9,11,-1,13,15,17,19,21,23,25,27,29,31,33,35,37,39,41,43,45,47,-1,-1,-1,-1,-1,-1,-1,-1,-1,-1,-1,-1,-1,-1,-1,-1,-1,-1,-1,-1,-1,-1,-1,-1],"loss_changes":[1.5056561E-2,9.5427185E-3,6.462693E-3,1.7357774E-2,1.8047385E-2,7.588249E-3,0E0,1.5211357E-2,1.0622812E-2,1.0386601E-2,9.547817E-3,2.2297405E-2,9.3998695E-3,4.1510677E-3,1.1790834E-2,1.1222127E-2,1.0558952E-2,6.4082406E-3,3.2906488E-3,1.1136553E-2,9.450741E-3,2.3450755E-2,1.8621869E-3,7.532693E-3,7.082155E-3,0E0,0E0,0E0,0E0,0E0,0E0,0E0,0E0,0E0,0E0,0E0,0E0,0E0,0E0,0E0,0E0,0E0,0E0,0E0,0E0,0E0,0E0,0E0,0E0],"parents":[2147483647,0,0,1,1,2,2,3,3,4,4,5,5,7,7,8,8,9,9,10,10,11,11,12,12,13,13,14,14,15,15,16,16,17,17,18,18,19,19,20,20,21,21,22,22,23,23,24,24],"right_children":[2,4,6,8,10,12,-1,14,16,18,20,22,24,26,28,30,32,34,36,38,40,42,44,46,48,-1,-1,-1,-1,-1,-1,-1,-1,-1,-1,-1,-1,-1,-1,-1,-1,-1,-1,-1,-1,-1,-1,-1,-1],"split_conditions":[9.472597E1,5.49937E0,1.737804E1,5.35553E0,5.52918E0,5.59858E0,9.4062055E-4,5.16606E0,8.653512E1,1.80326E0,8.29E-1,5.43019E0,6.04177E0,4.79838E0,5.30074E0,8.601132E1,2.0180782E3,1.84384E1,1.053485E1,2.0620315E3,8.5311E-1,8.6262E-1,5.50633E0,2.2419758E3,1.160044E1,2.3310255E-4,1.2036854E-3,-0E0,-4.0911822E-4,1.1434718E-4,-9.770737E-4,-1.310024E-4,4.606347E-4,-8.0917263E-4,1.0693812E-4,-2.83052E-4,5.656983E-4,2.1146261E-4,-1.2135966E-5,-6.6809036E-4,-6.2313986E-5,1.7697609E-3,-3.5855177E-4,-1.7268796E-3,-4.0956066E-4,-3.9710716E-4,1.911451E-4,2.9982819E-4,1.0433302E-3],"split_indices":[0,4,3,4,4,4,0,5,0,6,6,4,5,5,4,0,1,3,3,1,6,6,4,1,3,0,0,0,0,0,0,0,0,0,0,0,0,0,0,0,0,0,0,0,0,0,0,0,0],"split_type":[0,0,0,0,0,0,0,0,0,0,0,0,0,0,0,0,0,0,0,0,0,0,0,0,0,0,0,0,0,0,0,0,0,0,0,0,0,0,0,0,0,0,0,0,0,0,0,0,0],"sum_hessian":[1.2164E4,1.15E4,6.64E2,1.877E3,9.623E3,6.32E2,3.2E1,1.199E3,6.78E2,1.9E2,9.433E3,8.5E1,5.47E2,7.7E1,1.122E3,1.16E2,5.62E2,1.54E2,3.6E1,3.172E3,6.261E3,4.8E1,3.7E1,3.13E2,2.34E2,5.1E1,2.6E1,9.01E2,2.21E2,8.7E1,2.9E1,7.4E1,4.88E2,1.43E2,1.1E1,1.3E1,2.3E1,7.06E2,2.466E3,6.6E1,6.195E3,1.9E1,2.9E1,1.7E1,2E1,6.6E1,2.47E2,1.82E2,5.2E1],"tree_param":{"num_deleted":"0","num_feature":"8","num_nodes":"49","size_leaf_vector":"1"}},{"base_weights":[-2.5280304E-5,-1.5818679E-3,1.191418E-2,1.2550907E-2,-2.513149E-3,1.0082859E-2,1.1271088E-3,5.325525E-3,1.9942336E-2,-3.4879881E-3,1.9068649E-3,1.4195452E-2,4.598625E-3,1.5444706E-2,8.022713E-4,-0E0,2.104661E-2,1.1315625E-3,-4.6380125E-3,6.651696E-3,-2.4819844E-3,1.6615221E-2,-1.6607872E-3,-8.524397E-4,1.0578245E-2,-0E0,9.490523E-4,-3.4185298E-4,3.5042196E-4,5.62147E-5,1.1224601E-3,-4.5093286E-4,1.4036363E-4,-1.6080028E-4,-4.4810143E-4,5.0631707E-4,-1.1292371E-4,3.492882E-5,-4.2866202E-4,9.996918E-4,3.764987E-4,1.2689143E-4,-8.38981E-4,-1.6068228E-4,1.0199707E-3,7.842188E-4,2.777616E-4],"categories":[],"categories_nodes":[],"categories_segments":[],"categories_sizes":[],"default_left":[0,0,0,0,0,0,0,0,0,0,0,0,0,0,0,0,0,0,0,0,0,0,0,0,0,0,0,0,0,0,0,0,0,0,0,0,0,0,0,0,0,0,0,0,0,0,0],"id":18,"left_children":[1,3,5,7,9,11,-1,13,15,17,19,21,23,25,27,-1,29,31,33,35,37,39,41,43,45,-1,-1,-1,-1,-1,-1,-1,-1,-1,-1,-1,-1,-1,-1,-1,-1,-1,-1,-1,-1,-1,-1],"loss_changes":[2.2800629E-1,1.4262067E-1,2.4031267E-2,3.304214E-2,4.4299826E-2,2.5481485E-2,0E0,1.419989E-2,7.975593E-3,4.5040138E-2,3.8604513E-2,2.7767047E-2,1.8354889E-2,7.1301907E-3,1.1775564E-2,0E0,6.2238276E-3,2.763883E-2,4.0269956E-2,2.842569E-2,1.9043397E-2,1.5483692E-2,6.925886E-3,1.1945759E-2,4.534375E-3,0E0,0E0,0E0,0E0,0E0,0E0,0E0,0E0,0E0,0E0,0E0,0E0,0E0,0E0,0E0,0E0,0E0,0E0,0E0,0E0,0E0,0E0],"parents":[2147483647,0,0,1,1,2,2,3,3,4,4,5,5,7,7,8,8,9,9,10,10,11,11,12,12,13,13,14,14,16,16,17,17,18,18,19,19,20,20,21,21,22,22,23,23,24,24],"right_children":[2,4,6,8,10,12,-1,14,16,18,20,22,24,26,28,-1,30,32,34,36,38,40,42,44,46,-1,-1,-1,-1,-1,-1,-1,-1,-1,-1,-1,-1,-1,-1,-1,-1,-1,-1,-1,-1,-1,-1],"split_conditions":[-3.844417E0,-7.074366E0,-2.77422E0,1.421013E1,-4.500213E0,1.926371E1,1.1271088E-3,-7.973172E0,1.8573413E3,-6.211755E0,1.81856E1,2.4524934E3,-3.48954E0,1.59071E0,2.38984E0,-0E0,-1.93533E0,5.40039E0,1.998493E1,6.40299E0,6.21678E0,1.88917E0,1.109229E1,2.491067E3,2.2560286E3,-0E0,9.490523E-4,-3.4185298E-4,3.5042196E-4,5.62147E-5,1.1224601E-3,-4.5093286E-4,1.4036363E-4,-1.6080028E-4,-4.4810143E-4,5.0631707E-4,-1.1292371E-4,3.492882E-5,-4.2866202E-4,9.996918E-4,3.764987E-4,1.2689143E-4,-8.38981E-4,-1.6068228E-4,1.0199707E-3,7.842188E-4,2.777616E-4],"split_indices":[7,7,7,2,7,2,0,7,1,7,2,1,7,2,3,0,6,4,2,4,4,6,3,1,1,0,0,0,0,0,0,0,0,0,0,0,0,0,0,0,0,0,0,0,0,0,0],"split_type":[0,0,0,0,0,0,0,0,0,0,0,0,0,0,0,0,0,0,0,0,0,0,0,0,0,0,0,0,0,0,0,0,0,0,0,0,0,0,0,0,0,0,0,0,0,0,0],"sum_hessian":[1.2322E4,1.0909E4,1.413E3,6.67E2,1.0242E4,1.215E3,1.98E2,3.45E2,3.22E2,8.41E3,1.832E3,6.83E2,5.32E2,9.9E1,2.46E2,1.5E1,3.07E2,1.659E3,6.751E3,8.91E2,9.41E2,5.98E2,8.5E1,2.7E2,2.62E2,1.4E1,8.5E1,1.03E2,1.43E2,2.5E1,2.82E2,2.26E2,1.433E3,5.099E3,1.652E3,6.49E2,2.42E2,6.08E2,3.33E2,4.27E2,1.71E2,6.2E1,2.3E1,2.48E2,2.2E1,1.19E2,1.43E2],"tree_param":{"num_deleted":"0","num_feature":"8","num_nodes":"47","size_leaf_vector":"1"}},{"base_weights":[1.725087E-4,-1.5233305E-3,9.029682E-3,1.228198E-2,-2.5803545E-3,2.8705627E-3,1.4644312E-2,6.1328667E-3,1.5418818E-2,-3.5455388E-3,-3.7651803E-4,-6.5490935E-4,1.7182358E-2,1.1000822E-2,1.816924E-2,1.1564467E-2,-1.5103904E-3,1.6482787E-2,-0E0,1.042236E-3,-5.1147453E-3,-1.2999901E-3,1.6504304E-2,-1.9349748E-2,8.611636E-4,1.8829403E-2,-0E0,8.214983E-3,1.2199101E-3,1.8656863E-2,2.77016E-3,9.636794E-5,9.128828E-4,-9.438898E-4,2.2203862E-4,8.660636E-4,-3.110164E-5,3.3457568E-4,-7.879532E-4,1.8954424E-4,-4.5390642E-4,-2.0594938E-5,-3.0022213E-4,5.3044286E-4,-1.08589615E-4,1.1203507E-3,-1.141882E-4,-4.79166E-4,-1.6599644E-3,7.170969E-4,-4.701138E-5,1.1116709E-3,5.7126215E-4,4.902135E-4,-3.3494438E-5,1.113883E-3,7.802988E-4,-1.7719281E-4,7.796004E-4],"categories":[],"categories_nodes":[],"categories_segments":[],"categories_sizes":[],"default_left":[0,0,0,0,0,0,0,0,0,0,0,0,0,0,0,0,0,0,0,0,0,0,0,0,0,0,0,0,0,0,0,0,0,0,0,0,0,0,0,0,0,0,0,0,0,0,0,0,0,0,0,0,0,0,0,0,0,0,0],"id":19,"left_children":[1,3,5,7,9,11,13,15,17,19,21,23,25,27,29,31,33,35,37,39,41,43,45,47,49,51,-1,53,-1,55,57,-1,-1,-1,-1,-1,-1,-1,-1,-1,-1,-1,-1,-1,-1,-1,-1,-1,-1,-1,-1,-1,-1,-1,-1,-1,-1,-1,-1],"loss_changes":[1.8474853E-1,1.4895613E-1,6.660803E-2,1.1715353E-2,1.9918218E-2,4.9748406E-2,1.0060072E-2,1.16922585E-2,8.549593E-3,4.7991887E-2,4.434818E-2,2.3406003E-2,6.5430775E-3,1.5983507E-2,1.6051531E-3,8.137781E-3,1.186316E-2,8.005567E-3,3.5378032E-3,4.593281E-2,2.0029575E-2,2.8197464E-2,1.8365864E-2,3.789734E-3,1.8328276E-2,9.1680884E-4,0E0,7.1189534E-3,0E0,1.2105256E-3,3.1220901E-3,0E0,0E0,0E0,0E0,0E0,0E0,0E0,0E0,0E0,0E0,0E0,0E0,0E0,0E0,0E0,0E0,0E0,0E0,0E0,0E0,0E0,0E0,0E0,0E0,0E0,0E0,0E0,0E0],"parents":[2147483647,0,0,1,1,2,2,3,3,4,4,5,5,6,6,7,7,8,8,9,9,10,10,11,11,12,12,13,13,14,14,15,15,16,16,17,17,18,18,19,19,20,20,21,21,22,22,23,23,24,24,25,25,27,27,29,29,30,30],"right_children":[2,4,6,8,10,12,14,16,18,20,22,24,26,28,30,32,34,36,38,40,42,44,46,48,50,52,-1,54,-1,56,58,-1,-1,-1,-1,-1,-1,-1,-1,-1,-1,-1,-1,-1,-1,-1,-1,-1,-1,-1,-1,-1,-1,-1,-1,-1,-1,-1,-1],"split_conditions":[-4.09452E0,-7.033691E0,5.72949E0,4.6874E-1,-4.950234E0,-3.03116E0,-3.657472E0,-8.69213E0,-7.074366E0,5.6284E0,6.55027E0,4.79838E0,2.4680315E3,1.292934E1,2.52786E0,2.0414343E3,5.54241E0,2.046403E1,1.80326E0,-5.25353E0,-6.452757E0,1.9638887E3,1.6477E0,4.67677E0,-1.294418E1,6.30242E0,-0E0,6.6232E0,1.2199101E-3,5.07477E0,-3.320627E0,9.636794E-5,9.128828E-4,-9.438898E-4,2.2203862E-4,8.660636E-4,-3.110164E-5,3.3457568E-4,-7.879532E-4,1.8954424E-4,-4.5390642E-4,-2.0594938E-5,-3.0022213E-4,5.3044286E-4,-1.08589615E-4,1.1203507E-3,-1.141882E-4,-4.79166E-4,-1.6599644E-3,7.170969E-4,-4.701138E-5,1.1116709E-3,5.7126215E-4,4.902135E-4,-3.3494438E-5,1.113883E-3,7.802988E-4,-1.7719281E-4,7.796004E-4],"split_indices":[7,7,5,3,7,7,7,3,7,5,5,5,1,3,6,1,4,3,6,7,7,1,6,5,3,4,0,4,0,3,7,0,0,0,0,0,0,0,0,0,0,0,0,0,0,0,0,0,0,0,0,0,0,0,0,0,0,0,0],"split_type":[0,0,0,0,0,0,0,0,0,0,0,0,0,0,0,0,0,0,0,0,0,0,0,0,0,0,0,0,0,0,0,0,0,0,0,0,0,0,0,0,0,0,0,0,0,0,0,0,0,0,0,0,0,0,0,0,0,0,0],"sum_hessian":[1.2248E4,1.0271E4,1.977E3,7.23E2,9.548E3,9.52E2,1.025E3,2.56E2,4.67E2,6.608E3,2.94E3,7.59E2,1.93E2,5.2E2,5.05E2,1.57E2,9.9E1,4.4E2,2.7E1,1.668E3,4.94E3,2.794E3,1.46E2,6.1E1,6.98E2,1.79E2,1.4E1,4.38E2,8.2E1,4.83E2,2.2E1,7.1E1,8.6E1,2.9E1,7E1,4.25E2,1.5E1,1.7E1,1E1,1.32E3,3.48E2,8.04E2,4.136E3,1.82E2,2.612E3,1.15E2,3.1E1,4.1E1,2E1,8.8E1,6.1E2,1.12E2,6.7E1,3.81E2,5.7E1,2.03E2,2.8E2,1E1,1.2E1],"tree_param":{"num_deleted":"0","num_feature":"8","num_nodes":"59","size_leaf_vector":"1"}},{"base_weights":[-2.168807E-4,6.2625797E-4,-2.086248E-3,2.3129384E-3,-4.2806816E-4,-7.3689185E-3,-1.3819054E-3,4.4239503E-3,1.0193094E-3,1.4646938E-5,-4.654305E-3,-1.2006685E-2,3.3175925E-4,-6.290811E-3,-8.479821E-4,6.697303E-3,-2.1238946E-3,-4.418084E-3,2.1832932E-3,-5.8058044E-4,3.0468781E-3,-5.936427E-3,6.6993064E-3,-1.7436232E-3,-1.8380072E-2,1.1463942E-2,-6.4500193E-3,-1.289431E-3,-3.40434E-3,1.4003372E-3,-1.8618101E-3,-1.0643445E-5,4.3375485E-4,-2.0222063E-4,4.321482E-4,5.22035E-4,-2.8818633E-4,-3.7473947E-4,1.4555808E-4,-5.2020758E-5,1.924891E-4,2.3010012E-4,-1.8981575E-4,-5.36516E-4,-3.542234E-5,8.085575E-4,-5.7866034E-4,-2.9553E-4,1.4360424E-3,-1.0590572E-3,4.261693E-4,1.2812291E-3,3.591223E-5,-4.0560095E-5,-1.3466851E-3,1.2272227E-4,-4.9974717E-4,2.553365E-4,-1.6320671E-4,-5.4034195E-4,-2.565003E-5],"categories":[],"categories_nodes":[],"categories_segments":[],"categories_sizes":[],"default_left":[0,0,0,0,0,0,0,0,0,0,0,0,0,0,0,0,0,0,0,0,0,0,0,0,0,0,0,0,0,0,0,0,0,0,0,0,0,0,0,0,0,0,0,0,0,0,0,0,0,0,0,0,0,0,0,0,0,0,0,0,0],"id":20,"left_children":[1,3,5,7,9,11,13,15,17,19,21,23,25,27,29,31,33,35,37,39,41,43,45,47,49,51,53,-1,55,57,59,-1,-1,-1,-1,-1,-1,-1,-1,-1,-1,-1,-1,-1,-1,-1,-1,-1,-1,-1,-1,-1,-1,-1,-1,-1,-1,-1,-1,-1,-1],"loss_changes":[1.9395078E-2,1.5091725E-2,1.3376599E-2,8.35379E-3,1.0045522E-2,1.667133E-2,8.1921145E-3,1.8468205E-2,1.2773352E-2,8.57786E-3,7.3437355E-3,1.6205102E-2,1.2352711E-2,1.4721069E-2,7.083011E-3,1.3271276E-2,5.7991613E-3,6.530612E-3,1.1581153E-2,7.5277127E-3,8.452021E-3,1.0477463E-2,8.262219E-3,1.236043E-2,1.3955824E-2,7.2380975E-3,7.830005E-3,0E0,1.15902005E-2,1.6261818E-2,2.4899045E-2,0E0,0E0,0E0,0E0,0E0,0E0,0E0,0E0,0E0,0E0,0E0,0E0,0E0,0E0,0E0,0E0,0E0,0E0,0E0,0E0,0E0,0E0,0E0,0E0,0E0,0E0,0E0,0E0,0E0,0E0],"parents":[2147483647,0,0,1,1,2,2,3,3,4,4,5,5,6,6,7,7,8,8,9,9,10,10,11,11,12,12,13,13,14,14,15,15,16,16,17,17,18,18,19,19,20,20,21,21,22,22,23,23,24,24,25,25,26,26,28,28,29,29,30,30],"right_children":[2,4,6,8,10,12,14,16,18,20,22,24,26,28,30,32,34,36,38,40,42,44,46,48,50,52,54,-1,56,58,60,-1,-1,-1,-1,-1,-1,-1,-1,-1,-1,-1,-1,-1,-1,-1,-1,-1,-1,-1,-1,-1,-1,-1,-1,-1,-1,-1,-1,-1,-1],"split_conditions":[1.935674E1,5.8576E0,5.60295E0,5.63641E0,2.431919E3,6.08128E0,8.63628E1,2.334145E3,5.27754E0,2.331753E3,1.89421E1,5.64497E0,1.36346E0,1.975796E1,5.9688E0,8.37591E0,5.57458E0,5.70369E0,5.69345E0,6.35174E0,6.65366E0,5.76699E0,1.917355E1,5.55756E0,2.4570496E3,5.36497E0,2.177222E1,-1.289431E-3,8.537741E1,1.26739E0,6.06407E0,-1.0643445E-5,4.3375485E-4,-2.0222063E-4,4.321482E-4,5.22035E-4,-2.8818633E-4,-3.7473947E-4,1.4555808E-4,-5.2020758E-5,1.924891E-4,2.3010012E-4,-1.8981575E-4,-5.36516E-4,-3.542234E-5,8.085575E-4,-5.7866034E-4,-2.9553E-4,1.4360424E-3,-1.0590572E-3,4.261693E-4,1.2812291E-3,3.591223E-5,-4.0560095E-5,-1.3466851E-3,1.2272227E-4,-4.9974717E-4,2.553365E-4,-1.6320671E-4,-5.4034195E-4,-2.565003E-5],"split_indices":[2,4,5,5,1,4,0,1,4,1,2,4,6,2,5,2,5,5,5,5,4,5,2,4,1,5,2,0,0,6,5,0,0,0,0,0,0,0,0,0,0,0,0,0,0,0,0,0,0,0,0,0,0,0,0,0,0,0,0,0,0],"split_type":[0,0,0,0,0,0,0,0,0,0,0,0,0,0,0,0,0,0,0,0,0,0,0,0,0,0,0,0,0,0,0,0,0,0,0,0,0,0,0,0,0,0,0,0,0,0,0,0,0,0,0,0,0,0,0,0,0,0,0,0,0],"sum_hessian":[1.2211E4,8.379E3,3.832E3,3.259E3,5.12E3,4.33E2,3.399E3,1.208E3,2.051E3,4.614E3,5.06E2,2.78E2,1.55E2,3.14E2,3.085E3,9.08E2,3E2,3.46E2,1.705E3,3.83E3,7.84E2,4.63E2,4.3E1,1.13E2,1.65E2,6.4E1,9.1E1,3.5E1,2.79E2,9.28E2,2.157E3,1.91E2,7.17E2,2.63E2,3.7E1,2.2E1,3.24E2,1.09E2,1.596E3,3.491E3,3.39E2,6.51E2,1.33E2,2.31E2,2.32E2,3.2E1,1.1E1,1.03E2,1E1,1.53E2,1.2E1,2.3E1,4.1E1,7.6E1,1.5E1,1.4E2,1.39E2,5.29E2,3.99E2,2.72E2,1.885E3],"tree_param":{"num_deleted":"0","num_feature":"8","num_nodes":"61","size_leaf_vector":"1"}},{"base_weights":[-2.1043232E-4,5.3355296E-4,-1.990308E-3,-2.0924082E-3,1.0646305E-3,-1.0719048E-2,-1.6797003E-3,4.8520256E-4,-5.0106114E-3,4.0620524E-3,2.3024408E-4,-2.0043341E-2,-3.381189E-3,-1.2494535E-3,-8.598586E-3,3.002002E-3,-7.1009803E-3,-8.8625075E-3,-4.5634244E-4,1.0505701E-2,2.8191032E-3,-1.247781E-2,3.7555583E-4,-3.204837E-3,-1.4887614E-3,-8.242306E-3,2.9172256E-4,-2.657334E-3,1.1174494E-4,-0E0,-1.3780334E-2,5.933294E-5,6.398525E-4,-4.7943144E-4,6.537414E-4,4.559053E-4,-5.041237E-4,-1.4236054E-4,9.907719E-4,-0E0,8.623195E-4,9.861605E-5,6.8032433E-4,-0E0,-9.5419027E-4,-4.8115384E-4,2.8428849E-5,-8.422526E-4,8.179081E-5,8.772785E-5,-6.7606405E-4,-5.8423593E-5,-3.886085E-4,-4.981479E-4,4.550761E-5,4.9101767E-5,-7.150515E-4,9.517085E-6,-9.981302E-4],"categories":[],"categories_nodes":[],"categories_segments":[],"categories_sizes":[],"default_left":[0,0,0,0,0,0,0,0,0,0,0,0,0,0,0,0,0,0,0,0,0,0,0,0,0,0,0,0,0,0,0,0,0,0,0,0,0,0,0,0,0,0,0,0,0,0,0,0,0,0,0,0,0,0,0,0,0,0,0],"id":21,"left_children":[1,3,5,7,9,11,13,15,17,19,21,23,25,27,29,31,33,35,37,39,41,43,45,47,-1,49,-1,51,53,55,57,-1,-1,-1,-1,-1,-1,-1,-1,-1,-1,-1,-1,-1,-1,-1,-1,-1,-1,-1,-1,-1,-1,-1,-1,-1,-1,-1,-1],"loss_changes":[1.634172E-2,1.1873389E-2,8.624497E-3,1.1083548E-2,1.7512064E-2,5.389698E-3,9.51861E-3,1.3606515E-2,1.1010561E-2,1.0939924E-2,9.207604E-3,3.8168654E-3,3.4695552E-3,6.6556474E-3,7.378743E-3,8.561794E-3,8.459675E-3,8.019427E-3,1.4111421E-2,1.7191611E-2,1.03084855E-2,5.848704E-3,9.876849E-3,2.9350573E-3,0E0,4.0501487E-3,0E0,1.1875301E-2,1.2480487E-2,2.3172214E-3,1.1827258E-2,0E0,0E0,0E0,0E0,0E0,0E0,0E0,0E0,0E0,0E0,0E0,0E0,0E0,0E0,0E0,0E0,0E0,0E0,0E0,0E0,0E0,0E0,0E0,0E0,0E0,0E0,0E0,0E0],"parents":[2147483647,0,0,1,1,2,2,3,3,4,4,5,5,6,6,7,7,8,8,9,9,10,10,11,11,12,12,13,13,14,14,15,15,16,16,17,17,18,18,19,19,20,20,21,21,22,22,23,23,25,25,27,27,28,28,29,29,30,30],"right_children":[2,4,6,8,10,12,14,16,18,20,22,24,26,28,30,32,34,36,38,40,42,44,46,48,-1,50,-1,52,54,56,58,-1,-1,-1,-1,-1,-1,-1,-1,-1,-1,-1,-1,-1,-1,-1,-1,-1,-1,-1,-1,-1,-1,-1,-1,-1,-1,-1,-1],"split_conditions":[1.95195E1,-1.057355E1,5.30026E0,5.72949E0,9.0834E-1,2.034226E1,2.47373E1,1.703686E1,5.97695E0,1.9902898E3,9.3023E-1,1.98397E1,2.3631934E3,6.10769E0,5.87382E0,2.3700293E3,1.917355E1,8.187306E1,2.3003513E3,1.8792025E3,6.53449E0,5.83065E0,-1.5278E0,7.1176E0,-1.4887614E-3,2.071907E1,2.9172256E-4,5.98039E0,8.63628E1,1.0994E0,8.808189E1,5.933294E-5,6.398525E-4,-4.7943144E-4,6.537414E-4,4.559053E-4,-5.041237E-4,-1.4236054E-4,9.907719E-4,-0E0,8.623195E-4,9.861605E-5,6.8032433E-4,-0E0,-9.5419027E-4,-4.8115384E-4,2.8428849E-5,-8.422526E-4,8.179081E-5,8.772785E-5,-6.7606405E-4,-5.8423593E-5,-3.886085E-4,-4.981479E-4,4.550761E-5,4.9101767E-5,-7.150515E-4,9.517085E-6,-9.981302E-4],"split_indices":[2,3,5,5,6,2,2,2,5,1,6,2,1,5,3,1,2,0,1,1,5,5,3,3,0,2,0,5,0,6,0,0,0,0,0,0,0,0,0,0,0,0,0,0,0,0,0,0,0,0,0,0,0,0,0,0,0,0,0],"split_type":[0,0,0,0,0,0,0,0,0,0,0,0,0,0,0,0,0,0,0,0,0,0,0,0,0,0,0,0,0,0,0,0,0,0,0,0,0,0,0,0,0,0,0,0,0,0,0,0,0,0,0,0,0,0,0,0,0,0,0],"sum_hessian":[1.2229E4,8.585E3,3.644E3,1.412E3,7.173E3,1.13E2,3.531E3,7.32E2,6.8E2,1.535E3,5.638E3,4.3E1,7E1,3.339E3,1.92E2,5.6E2,1.72E2,3.56E2,3.24E2,2.34E2,1.301E3,5.5E1,5.583E3,2E1,2.3E1,5.3E1,1.7E1,1.677E3,1.662E3,7.9E1,1.13E2,4.82E2,7.8E1,1.58E2,1.4E1,1.7E1,3.39E2,2.95E2,2.9E1,9E1,1.44E2,1.216E3,8.5E1,1.6E1,3.9E1,9.5E1,5.488E3,1E1,1E1,1.2E1,4.1E1,1.315E3,3.62E2,1.12E2,1.55E3,6.9E1,1E1,3E1,8.3E1],"tree_param":{"num_deleted":"0","num_feature":"8","num_nodes":"59","size_leaf_vector":"1"}},{"base_weights":[2.8706554E-4,-1.2625788E-3,1.1241167E-2,7.963048E-3,-2.316154E-3,7.872754E-3,1.667911E-2,3.4598162E-4,1.4275788E-2,-3.127923E-3,2.15593E-3,9.591783E-3,-1.07065085E-2,1.0258362E-3,1.1869049E-2,-2.0012828E-3,1.3339516E-2,1.8716859E-2,9.250856E-3,-3.5224212E-3,3.9868047E-3,1.9252172E-2,3.8588955E-4,1.2477514E-2,2.1344079E-3,-1.6325608E-2,6.144579E-4,6.835575E-3,1.646111E-2,4.43903E-4,-2.5362914E-4,9.1105246E-4,-4.0089744E-5,-0E0,1.0157007E-3,2.974688E-4,1.091408E-3,3.366585E-6,-2.2127961E-4,-8.5767264E-5,4.449236E-4,-3.7561046E-4,1.1427283E-3,1.733585E-4,-3.1799966E-4,1.0149346E-3,4.921143E-4,3.1248116E-4,-4.5818786E-4,-0E0,-1.0871411E-3,9.837662E-4,4.099375E-5,1.0128155E-3,4.717067E-4],"categories":[],"categories_nodes":[],"categories_segments":[],"categories_sizes":[],"default_left":[0,0,0,0,0,0,0,0,0,0,0,0,0,0,0,0,0,0,0,0,0,0,0,0,0,0,0,0,0,0,0,0,0,0,0,0,0,0,0,0,0,0,0,0,0,0,0,0,0,0,0,0,0,0,0],"id":22,"left_children":[1,3,5,7,9,11,13,15,17,19,21,23,25,-1,27,29,31,33,35,37,39,41,43,45,47,49,-1,51,53,-1,-1,-1,-1,-1,-1,-1,-1,-1,-1,-1,-1,-1,-1,-1,-1,-1,-1,-1,-1,-1,-1,-1,-1,-1,-1],"loss_changes":[2.0768222E-1,1.03058085E-1,2.520074E-2,5.060847E-2,3.4871314E-2,3.0332617E-2,7.002726E-3,1.637965E-2,1.0084987E-2,2.2772416E-2,4.1998055E-2,1.734215E-2,1.0424608E-2,0E0,3.7061386E-3,1.3598009E-2,7.48613E-3,8.322716E-3,9.009693E-3,2.5439672E-2,1.23285E-2,1.4336396E-2,2.7232591E-2,9.585306E-3,1.1621923E-2,7.2588585E-3,0E0,8.6707175E-3,2.5345758E-4,0E0,0E0,0E0,0E0,0E0,0E0,0E0,0E0,0E0,0E0,0E0,0E0,0E0,0E0,0E0,0E0,0E0,0E0,0E0,0E0,0E0,0E0,0E0,0E0,0E0,0E0],"parents":[2147483647,0,0,1,1,2,2,3,3,4,4,5,5,6,6,7,7,8,8,9,9,10,10,11,11,12,12,14,14,15,15,16,16,17,17,18,18,19,19,20,20,21,21,22,22,23,23,24,24,25,25,27,27,28,28],"right_children":[2,4,6,8,10,12,14,16,18,20,22,24,26,-1,28,30,32,34,36,38,40,42,44,46,48,50,-1,52,54,-1,-1,-1,-1,-1,-1,-1,-1,-1,-1,-1,-1,-1,-1,-1,-1,-1,-1,-1,-1,-1,-1,-1,-1,-1,-1],"split_conditions":[-3.910837E0,-6.768613E0,-3.320627E0,1.349957E1,-4.434163E0,2.291509E1,1.36346E0,6.36517E0,-7.120904E0,9.472597E1,8.642459E1,6.40986E0,1.78495E0,1.0258362E-3,-2.952844E0,-7.973172E0,2.35816E0,8.309821E1,9.172996E1,1.290879E1,1.784946E1,3.87382E0,2.017285E1,1.591631E1,9.299791E1,4.6258E-1,6.144579E-4,7.81394E0,6.32514E0,4.43903E-4,-2.5362914E-4,9.1105246E-4,-4.0089744E-5,-0E0,1.0157007E-3,2.974688E-4,1.091408E-3,3.366585E-6,-2.2127961E-4,-8.5767264E-5,4.449236E-4,-3.7561046E-4,1.1427283E-3,1.733585E-4,-3.1799966E-4,1.0149346E-3,4.921143E-4,3.1248116E-4,-4.5818786E-4,-0E0,-1.0871411E-3,9.837662E-4,4.099375E-5,1.0128155E-3,4.717067E-4],"split_indices":[7,7,7,2,7,2,6,4,7,0,0,4,6,0,7,7,6,0,0,2,2,2,2,2,0,6,0,3,4,0,0,0,0,0,0,0,0,0,0,0,0,0,0,0,0,0,0,0,0,0,0,0,0,0,0],"split_type":[0,0,0,0,0,0,0,0,0,0,0,0,0,0,0,0,0,0,0,0,0,0,0,0,0,0,0,0,0,0,0,0,0,0,0,0,0,0,0,0,0,0,0,0,0,0,0,0,0,0,0,0,0,0,0],"sum_hessian":[1.2174E4,1.0658E4,1.516E3,1.082E3,9.576E3,9.49E2,5.67E2,4.98E2,5.84E2,8.124E3,1.452E3,8.74E2,7.5E1,3.02E2,2.65E2,4.16E2,8.2E1,2.98E2,2.86E2,7.711E3,4.13E2,1.3E2,1.322E3,6.2E2,2.54E2,6.4E1,1.1E1,1.38E2,1.27E2,8.4E1,3.32E2,6.6E1,1.6E1,2.5E1,2.73E2,2.34E2,5.2E1,1.528E3,6.183E3,1.82E2,2.31E2,1.2E1,1.18E2,9.18E2,4.04E2,1.45E2,4.75E2,1.93E2,6.1E1,1.3E1,5.1E1,3.8E1,1E2,7.2E1,5.5E1],"tree_param":{"num_deleted":"0","num_feature":"8","num_nodes":"55","size_leaf_vector":"1"}},{"base_weights":[-1.1864887E-4,-1.6799977E-3,7.999277E-3,6.6038826E-3,-2.9224583E-3,6.4329716E-4,1.265715E-2,2.7307903E-3,1.589805E-2,-1.6335661E-4,-4.091466E-3,9.130442E-3,-5.1012896E-3,1.917698E-2,6.1343205E-3,1.1268957E-2,-1.9992366E-3,2.273939E-2,-3.2791155E-3,-1.7488354E-3,9.434659E-3,1.3306086E-3,-4.8378482E-3,-6.2056696E-3,1.6108729E-2,-9.839475E-3,1.1190889E-2,2.0214837E-2,-0E0,9.401988E-4,1.7260475E-2,1.4871398E-4,8.8854926E-4,1.834118E-4,-5.452704E-4,4.4971422E-4,1.3991822E-3,9.17819E-4,-5.9477217E-4,8.180236E-4,-1.2784856E-4,-5.14448E-5,8.5034233E-4,9.017583E-4,-2.7024944E-4,-2.7167363E-4,-0E0,-0E0,-1.5225349E-3,9.5042214E-4,-0E0,-8.0715975E-4,-2.0034658E-4,-5.982035E-4,7.547227E-4,1.114017E-3,6.3956255E-4,-6.450628E-4,3.9336566E-4,1.645666E-4,-1.0105892E-3,9.199098E-4,4.8457234E-5],"categories":[],"categories_nodes":[],"categories_segments":[],"categories_sizes":[],"default_left":[0,0,0,0,0,0,0,0,0,0,0,0,0,0,0,0,0,0,0,0,0,0,0,0,0,0,0,0,0,0,0,0,0,0,0,0,0,0,0,0,0,0,0,0,0,0,0,0,0,0,0,0,0,0,0,0,0,0,0,0,0,0,0],"id":23,"left_children":[1,3,5,7,9,11,13,15,17,19,21,23,25,27,29,31,33,35,37,39,41,43,45,47,49,51,53,55,57,59,61,-1,-1,-1,-1,-1,-1,-1,-1,-1,-1,-1,-1,-1,-1,-1,-1,-1,-1,-1,-1,-1,-1,-1,-1,-1,-1,-1,-1,-1,-1,-1,-1],"loss_changes":[1.547379E-1,1.0557021E-1,6.605759E-2,4.604193E-2,2.8473519E-2,3.808846E-2,4.8214406E-2,3.9275587E-2,5.2400433E-2,4.0228512E-2,2.5723383E-2,3.5229582E-2,3.5021666E-2,1.2270436E-2,3.32426E-2,1.653317E-2,3.1250913E-2,1.6738296E-2,1.7841278E-2,3.262879E-2,3.1168833E-2,8.4959276E-2,1.6447917E-2,1.20661715E-2,9.079669E-3,1.104603E-2,9.351543E-3,4.809901E-3,3.2778545E-3,1.9311285E-2,1.5114769E-3,0E0,0E0,0E0,0E0,0E0,0E0,0E0,0E0,0E0,0E0,0E0,0E0,0E0,0E0,0E0,0E0,0E0,0E0,0E0,0E0,0E0,0E0,0E0,0E0,0E0,0E0,0E0,0E0,0E0,0E0,0E0,0E0],"parents":[2147483647,0,0,1,1,2,2,3,3,4,4,5,5,6,6,7,7,8,8,9,9,10,10,11,11,12,12,13,13,14,14,15,15,16,16,17,17,18,18,19,19,20,20,21,21,22,22,23,23,24,24,25,25,26,26,27,27,28,28,29,29,30,30],"right_children":[2,4,6,8,10,12,14,16,18,20,22,24,26,28,30,32,34,36,38,40,42,44,46,48,50,52,54,56,58,60,62,-1,-1,-1,-1,-1,-1,-1,-1,-1,-1,-1,-1,-1,-1,-1,-1,-1,-1,-1,-1,-1,-1,-1,-1,-1,-1,-1,-1,-1,-1,-1,-1],"split_conditions":[-4.09452E0,-6.649492E0,5.60295E0,1.716277E1,1.494162E1,1.611643E1,1.955462E1,5.83432E0,6.49635E0,-4.64229E0,-6.143484E0,4.93478E0,-2.952844E0,6.83476E0,-3.320627E0,8.62319E0,-7.033691E0,1.4285E-1,-7.406265E0,5.09038E0,5.27661E0,5.98039E0,6.48467E0,6.7325E0,6.69095E0,5.34768E0,5.08021E0,2.355695E3,-3.824932E0,2.4471E1,2.4615505E3,1.4871398E-4,8.8854926E-4,1.834118E-4,-5.452704E-4,4.4971422E-4,1.3991822E-3,9.17819E-4,-5.9477217E-4,8.180236E-4,-1.2784856E-4,-5.14448E-5,8.5034233E-4,9.017583E-4,-2.7024944E-4,-2.7167363E-4,-0E0,-0E0,-1.5225349E-3,9.5042214E-4,-0E0,-8.0715975E-4,-2.0034658E-4,-5.982035E-4,7.547227E-4,1.114017E-3,6.3956255E-4,-6.450628E-4,3.9336566E-4,1.645666E-4,-1.0105892E-3,9.199098E-4,4.8457234E-5],"split_indices":[7,7,5,2,2,2,2,5,5,7,7,5,7,4,7,2,7,6,7,4,5,5,5,4,4,5,5,1,7,2,1,0,0,0,0,0,0,0,0,0,0,0,0,0,0,0,0,0,0,0,0,0,0,0,0,0,0,0,0,0,0,0,0],"split_type":[0,0,0,0,0,0,0,0,0,0,0,0,0,0,0,0,0,0,0,0,0,0,0,0,0,0,0,0,0,0,0,0,0,0,0,0,0,0,0,0,0,0,0,0,0,0,0,0,0,0,0,0,0,0,0,0,0,0,0,0,0,0,0],"sum_hessian":[1.2256E4,1.029E4,1.966E3,1.331E3,8.959E3,7.71E2,1.195E3,9.48E2,3.83E2,2.692E3,6.267E3,3.18E2,4.53E2,5.89E2,6.06E2,3.45E2,6.03E2,2.86E2,9.7E1,2.32E3,3.72E2,7.42E2,5.525E3,9.5E1,2.23E2,3.56E2,9.7E1,5.6E2,2.9E1,4.2E2,1.86E2,1.59E2,1.86E2,3.62E2,2.41E2,8.5E1,2.01E2,2.4E1,7.3E1,9.3E1,2.227E3,1.51E2,2.21E2,2.17E2,5.25E2,4.937E3,5.88E2,7.9E1,1.6E1,1.85E2,3.8E1,1.62E2,1.94E2,1E1,8.7E1,4.26E2,1.34E2,1.2E1,1.7E1,3.83E2,3.7E1,1.68E2,1.8E1],"tree_param":{"num_deleted":"0","num_feature":"8","num_nodes":"63","size_leaf_vector":"1"}},{"base_weights":[4.4173186E-4,-6.2970514E-4,1.2326389E-2,1.0720818E-2,-1.2510677E-3,4.5154304E-3,1.4908861E-2,4.529083E-3,1.7473953E-2,-2.523564E-3,2.007432E-3,3.5657734E-4,1.1692721E-2,1.5192641E-2,-0E0,-2.3781229E-3,1.6359672E-2,1.9122599E-2,-9.5818476E-5,2.040268E-3,-3.9000998E-3,-4.072729E-3,5.653299E-3,1.1590957E-2,-2.0786556E-3,1.7809678E-2,9.86554E-4,1.3390357E-2,1.1423299E-3,6.7711505E-4,-6.4155005E-4,9.0676406E-4,-0E0,-0E0,9.760405E-4,2.927685E-4,-5.516747E-4,6.527399E-4,-2.1311501E-4,6.5593624E-5,-5.970172E-4,8.681506E-4,7.977682E-5,-2.2632848E-4,1.1834987E-3,-7.985157E-4,-0E0,-0E0,1.2545103E-3,-1.3302262E-4,4.7921162E-4,5.3748273E-4,9.859808E-4],"categories":[],"categories_nodes":[],"categories_segments":[],"categories_sizes":[],"default_left":[0,0,0,0,0,0,0,0,0,0,0,0,0,0,0,0,0,0,0,0,0,0,0,0,0,0,0,0,0,0,0,0,0,0,0,0,0,0,0,0,0,0,0,0,0,0,0,0,0,0,0,0,0],"id":24,"left_children":[1,3,5,7,9,11,13,15,17,19,21,23,25,27,-1,29,31,33,-1,35,37,39,41,43,45,47,49,51,-1,-1,-1,-1,-1,-1,-1,-1,-1,-1,-1,-1,-1,-1,-1,-1,-1,-1,-1,-1,-1,-1,-1,-1,-1],"loss_changes":[1.5673184E-1,7.805064E-2,1.852493E-2,2.1679759E-2,4.4120777E-2,6.6711153E-3,4.1411966E-3,2.6605684E-2,1.0260701E-2,4.83476E-2,6.586326E-2,5.817748E-3,3.8658548E-3,6.347358E-3,0E0,3.172134E-2,3.9998107E-3,3.642589E-5,0E0,8.73316E-2,3.5445556E-2,4.7721244E-2,8.659733E-2,9.614155E-3,3.990324E-3,4.914874E-3,1.940752E-3,7.036723E-3,0E0,0E0,0E0,0E0,0E0,0E0,0E0,0E0,0E0,0E0,0E0,0E0,0E0,0E0,0E0,0E0,0E0,0E0,0E0,0E0,0E0,0E0,0E0,0E0,0E0],"parents":[2147483647,0,0,1,1,2,2,3,3,4,4,5,5,6,6,7,7,8,8,9,9,10,10,11,11,12,12,13,13,15,15,16,16,17,17,19,19,20,20,21,21,22,22,23,23,24,24,25,25,26,26,27,27],"right_children":[2,4,6,8,10,12,14,16,18,20,22,24,26,28,-1,30,32,34,-1,36,38,40,42,44,46,48,50,52,-1,-1,-1,-1,-1,-1,-1,-1,-1,-1,-1,-1,-1,-1,-1,-1,-1,-1,-1,-1,-1,-1,-1,-1,-1],"split_conditions":[-3.657472E0,-7.167174E0,5.39927E0,1.379993E1,-4.70793E0,-2.952844E0,2.637005E1,1.004784E1,6.78155E0,-6.211755E0,5.64358E0,1.307804E1,6.36517E0,6.2277E0,-0E0,-7.973172E0,1.262418E1,-2.49799E0,-9.5818476E-5,6.28626E0,4.61389E0,1.698989E1,1.72493E1,4.73471E0,1.444768E1,-2.77422E0,6.5137E0,-2.952844E0,1.1423299E-3,6.7711505E-4,-6.4155005E-4,9.0676406E-4,-0E0,-0E0,9.760405E-4,2.927685E-4,-5.516747E-4,6.527399E-4,-2.1311501E-4,6.5593624E-5,-5.970172E-4,8.681506E-4,7.977682E-5,-2.2632848E-4,1.1834987E-3,-7.985157E-4,-0E0,-0E0,1.2545103E-3,-1.3302262E-4,4.7921162E-4,5.3748273E-4,9.859808E-4],"split_indices":[7,7,5,2,7,7,2,3,5,7,5,2,4,5,0,7,2,6,0,5,5,2,2,5,2,7,4,7,0,0,0,0,0,0,0,0,0,0,0,0,0,0,0,0,0,0,0,0,0,0,0,0,0],"split_type":[0,0,0,0,0,0,0,0,0,0,0,0,0,0,0,0,0,0,0,0,0,0,0,0,0,0,0,0,0,0,0,0,0,0,0,0,0,0,0,0,0,0,0,0,0,0,0,0,0,0,0,0,0],"sum_hessian":[1.2215E4,1.1198E4,1.017E3,5.72E2,1.0626E4,2.63E2,7.54E2,3.07E2,2.65E2,7.664E3,2.962E3,1.76E2,8.7E1,7.44E2,1E1,1.89E2,1.18E2,2.49E2,1.6E1,1.759E3,5.905E3,1.1E3,1.862E3,3.8E1,1.38E2,4.9E1,3.8E1,6.15E2,1.29E2,7.1E1,1.18E2,1.08E2,1E1,1E1,2.39E2,1.368E3,3.91E2,1.17E2,5.788E3,6.46E2,4.54E2,4.72E2,1.39E3,1.3E1,2.5E1,1.7E1,1.21E2,1.7E1,3.2E1,1.9E1,1.9E1,4.47E2,1.68E2],"tree_param":{"num_deleted":"0","num_feature":"8","num_nodes":"53","size_leaf_vector":"1"}},{"base_weights":[-2.7043983E-5,-1.7083026E-3,6.862756E-3,1.0463128E-2,-2.6225578E-3,-1.7185153E-3,9.259523E-3,5.490671E-3,1.6179584E-2,-6.4482127E-4,-3.751316E-3,4.4387174E-3,-9.303653E-3,1.4168596E-2,3.523341E-3,1.0726564E-2,-0E0,1.8782007E-2,-0E0,-2.5425474E-3,5.9119123E-3,7.1538077E-3,-4.569455E-3,-1.1282563E-2,1.1776276E-2,9.1880345E-4,-1.130602E-2,1.6994596E-2,6.2247496E-3,-2.0326225E-3,1.1259454E-2,-4.0724244E-5,6.6082564E-4,5.7620334E-4,-2.8981495E-4,-0E0,9.766509E-4,-3.5584526E-4,4.4278763E-4,2.6070702E-4,-2.1013115E-4,2.0419253E-5,1.1851003E-3,1.323009E-3,-0E0,-1.7597665E-4,-4.1245032E-4,-7.8548625E-4,1.7315136E-4,7.5581505E-5,8.522613E-4,-1.0310805E-3,-4.151392E-5,7.2517974E-4,1.2071268E-3,-7.153334E-5,6.8935537E-4,-6.9806504E-4,1.2167908E-4,3.8188588E-4,1.003521E-3],"categories":[],"categories_nodes":[],"categories_segments":[],"categories_sizes":[],"default_left":[0,0,0,0,0,0,0,0,0,0,0,0,0,0,0,0,0,0,0,0,0,0,0,0,0,0,0,0,0,0,0,0,0,0,0,0,0,0,0,0,0,0,0,0,0,0,0,0,0,0,0,0,0,0,0,0,0,0,0,0,0],"id":25,"left_children":[1,3,5,7,9,11,13,15,17,19,21,23,25,27,29,31,33,35,37,39,41,43,45,47,49,-1,51,53,55,57,59,-1,-1,-1,-1,-1,-1,-1,-1,-1,-1,-1,-1,-1,-1,-1,-1,-1,-1,-1,-1,-1,-1,-1,-1,-1,-1,-1,-1,-1,-1],"loss_changes":[1.408965E-1,1.0857396E-1,4.978191E-2,1.7044596E-2,1.9977607E-2,2.443996E-2,5.089514E-2,1.024091E-2,1.1966981E-2,4.144886E-2,5.1441014E-2,3.2020446E-2,1.2636477E-2,1.9999132E-2,3.8511455E-2,6.6247154E-3,1.2897512E-2,3.6948621E-3,3.0471424E-3,3.360618E-2,7.022721E-2,5.324874E-2,1.964017E-2,6.762687E-3,8.55674E-3,0E0,1.9794928E-2,8.72986E-3,1.7060157E-2,2.7931254E-2,8.978698E-3,0E0,0E0,0E0,0E0,0E0,0E0,0E0,0E0,0E0,0E0,0E0,0E0,0E0,0E0,0E0,0E0,0E0,0E0,0E0,0E0,0E0,0E0,0E0,0E0,0E0,0E0,0E0,0E0,0E0,0E0],"parents":[2147483647,0,0,1,1,2,2,3,3,4,4,5,5,6,6,7,7,8,8,9,9,10,10,11,11,12,12,13,13,14,14,15,15,16,16,17,17,18,18,19,19,20,20,21,21,22,22,23,23,24,24,26,26,27,27,28,28,29,29,30,30],"right_children":[2,4,6,8,10,12,14,16,18,20,22,24,26,28,30,32,34,36,38,40,42,44,46,48,50,-1,52,54,56,58,60,-1,-1,-1,-1,-1,-1,-1,-1,-1,-1,-1,-1,-1,-1,-1,-1,-1,-1,-1,-1,-1,-1,-1,-1,-1,-1,-1,-1,-1,-1],"split_conditions":[-4.254786E0,-7.074366E0,5.37506E0,1.450135E1,1.566123E1,1.616454E1,1.955462E1,5.9532E0,6.58041E0,-4.990121E0,-6.534812E0,4.79838E0,-4.149106E0,2.355695E3,-3.628186E0,5.25532E0,-7.973172E0,1.8456245E3,1.962285E1,5.24604E0,5.86963E0,6.00698E0,1.232572E1,-3.03116E0,-3.910837E0,9.1880345E-4,-3.566636E0,6.04986E0,-3.775362E0,5.79824E0,6.21329E0,-4.0724244E-5,6.6082564E-4,5.7620334E-4,-2.8981495E-4,-0E0,9.766509E-4,-3.5584526E-4,4.4278763E-4,2.6070702E-4,-2.1013115E-4,2.0419253E-5,1.1851003E-3,1.323009E-3,-0E0,-1.7597665E-4,-4.1245032E-4,-7.8548625E-4,1.7315136E-4,7.5581505E-5,8.522613E-4,-1.0310805E-3,-4.151392E-5,7.2517974E-4,1.2071268E-3,-7.153334E-5,6.8935537E-4,-6.9806504E-4,1.2167908E-4,3.8188588E-4,1.003521E-3],"split_indices":[7,7,5,2,2,2,2,5,5,7,7,5,7,1,7,5,7,1,2,5,5,5,3,7,7,0,7,5,7,5,5,0,0,0,0,0,0,0,0,0,0,0,0,0,0,0,0,0,0,0,0,0,0,0,0,0,0,0,0,0,0],"split_type":[0,0,0,0,0,0,0,0,0,0,0,0,0,0,0,0,0,0,0,0,0,0,0,0,0,0,0,0,0,0,0,0,0,0,0,0,0,0,0,0,0,0,0,0,0,0,0,0,0,0,0,0,0,0,0,0,0,0,0,0,0],"sum_hessian":[1.2206E4,9.824E3,2.382E3,6.78E2,9.146E3,5.11E2,1.871E3,3.73E2,3.05E2,3.356E3,5.79E3,2.75E2,2.36E2,9.98E2,8.73E2,1.86E2,1.87E2,2.6E2,4.5E1,2.615E3,7.41E2,3.95E2,5.395E3,8.3E1,1.92E2,1.2E1,2.24E2,7.26E2,2.72E2,5.01E2,3.72E2,2.6E1,1.6E2,6.5E1,1.22E2,1E1,2.5E2,2.2E1,2.3E1,4.5E2,2.165E3,5.71E2,1.7E2,1.04E2,2.91E2,4.22E3,1.175E3,6.9E1,1.4E1,7.2E1,1.2E2,1.13E2,1.11E2,5.51E2,1.75E2,1.29E2,1.43E2,1.42E2,3.59E2,2.73E2,9.9E1],"tree_param":{"num_deleted":"0","num_feature":"8","num_nodes":"61","size_leaf_vector":"1"}},{"base_weights":[-5.7331086E-5,-1.7290728E-3,6.794439E-3,7.092082E-3,-2.8448459E-3,1.4645009E-3,1.144533E-2,9.604872E-3,-0E0,5.733542E-3,-3.037472E-3,-1.3441767E-3,9.471402E-3,1.665679E-2,5.878749E-3,7.462417E-3,2.372026E-2,6.6641737E-3,-9.920261E-3,1.22280335E-2,-5.6036217E-3,-3.8852585E-3,-1.1226266E-3,-1.7056117E-2,1.6638033E-4,1.2270445E-2,-0E0,2.0387758E-2,1.2127429E-2,-0E0,1.3656468E-2,-0E0,4.9632683E-4,1.3914666E-3,-0E0,-4.586415E-4,5.753503E-4,-0E0,-1.0290021E-3,-2.7302984E-4,8.3874486E-4,-8.1151305E-4,4.713398E-4,-2.211712E-5,-2.585237E-4,-1.03099075E-4,5.543823E-4,-1.1943451E-4,-1.1210409E-3,2.9346813E-4,-2.3853879E-4,1.4515848E-4,8.6673815E-4,-5.219312E-4,2.4955237E-4,6.8906654E-4,1.2258842E-3,1.2670677E-4,7.223651E-4,-4.3870392E-4,3.186311E-4,3.945416E-4,1.0725132E-3],"categories":[],"categories_nodes":[],"categories_segments":[],"categories_sizes":[],"default_left":[0,0,0,0,0,0,0,0,0,0,0,0,0,0,0,0,0,0,0,0,0,0,0,0,0,0,0,0,0,0,0,0,0,0,0,0,0,0,0,0,0,0,0,0,0,0,0,0,0,0,0,0,0,0,0,0,0,0,0,0,0,0,0],"id":26,"left_children":[1,3,5,7,9,11,13,15,17,19,21,23,25,27,29,31,33,35,37,39,41,43,45,47,49,51,53,55,57,59,61,-1,-1,-1,-1,-1,-1,-1,-1,-1,-1,-1,-1,-1,-1,-1,-1,-1,-1,-1,-1,-1,-1,-1,-1,-1,-1,-1,-1,-1,-1,-1,-1],"loss_changes":[1.3952368E-1,9.6434884E-2,5.7838716E-2,1.9557245E-2,1.4198236E-2,2.6080381E-2,3.4317195E-2,2.1170177E-2,1.9054472E-2,1.405783E-2,1.3399102E-2,2.1224713E-2,8.982809E-3,7.3672235E-3,2.8485635E-2,1.3375651E-2,1.18884295E-2,1.3530672E-2,1.3149469E-2,1.0954794E-2,1.0576438E-2,2.554328E-2,2.9698724E-2,3.6030281E-3,2.1142619E-2,9.263769E-3,3.7796875E-3,5.0815046E-3,5.053088E-3,1.991339E-2,8.939527E-3,0E0,0E0,0E0,0E0,0E0,0E0,0E0,0E0,0E0,0E0,0E0,0E0,0E0,0E0,0E0,0E0,0E0,0E0,0E0,0E0,0E0,0E0,0E0,0E0,0E0,0E0,0E0,0E0,0E0,0E0,0E0,0E0],"parents":[2147483647,0,0,1,1,2,2,3,3,4,4,5,5,6,6,7,7,8,8,9,9,10,10,11,11,12,12,13,13,14,14,15,15,16,16,17,17,18,18,19,19,20,20,21,21,22,22,23,23,24,24,25,25,26,26,27,27,28,28,29,29,30,30],"right_children":[2,4,6,8,10,12,14,16,18,20,22,24,26,28,30,32,34,36,38,40,42,44,46,48,50,52,54,56,58,60,62,-1,-1,-1,-1,-1,-1,-1,-1,-1,-1,-1,-1,-1,-1,-1,-1,-1,-1,-1,-1,-1,-1,-1,-1,-1,-1,-1,-1,-1,-1,-1,-1],"split_conditions":[-4.254786E0,-6.768613E0,5.72949E0,6.28626E0,4.61389E0,-3.320627E0,9.104932E1,6.57046E0,-7.120904E0,-4.892227E0,-5.001412E0,4.79838E0,9.29176E1,6.06778E0,6.10316E0,5.45002E0,1.604418E1,8.642459E1,6.05354E0,-6.176637E0,-4.544301E0,5.67485E0,6.48467E0,1.394583E1,9.049212E1,5.2658E0,-3.03116E0,5.63456E0,5.83432E0,-3.803742E0,-3.680506E0,-0E0,4.9632683E-4,1.3914666E-3,-0E0,-4.586415E-4,5.753503E-4,-0E0,-1.0290021E-3,-2.7302984E-4,8.3874486E-4,-8.1151305E-4,4.713398E-4,-2.211712E-5,-2.585237E-4,-1.03099075E-4,5.543823E-4,-1.1943451E-4,-1.1210409E-3,2.9346813E-4,-2.3853879E-4,1.4515848E-4,8.6673815E-4,-5.219312E-4,2.4955237E-4,6.8906654E-4,1.2258842E-3,1.2670677E-4,7.223651E-4,-4.3870392E-4,3.186311E-4,3.945416E-4,1.0725132E-3],"split_indices":[7,7,5,5,5,7,0,4,7,7,7,5,0,4,5,4,3,0,4,7,7,5,5,3,0,5,7,4,5,7,7,0,0,0,0,0,0,0,0,0,0,0,0,0,0,0,0,0,0,0,0,0,0,0,0,0,0,0,0,0,0,0,0],"split_type":[0,0,0,0,0,0,0,0,0,0,0,0,0,0,0,0,0,0,0,0,0,0,0,0,0,0,0,0,0,0,0,0,0,0,0,0,0,0,0,0,0,0,0,0,0,0,0,0,0,0,0,0,0,0,0,0,0,0,0,0,0,0,0],"sum_hessian":[1.2223E4,9.838E3,2.385E3,1.094E3,8.744E3,1.122E3,1.263E3,8.08E2,2.86E2,1.8E2,8.564E3,8.22E2,3E2,6.42E2,6.21E2,7.09E2,9.9E1,1.71E2,1.15E2,1.2E2,6E1,5.899E3,2.665E3,7.7E1,7.45E2,2.38E2,6.2E1,3.38E2,3.04E2,3.54E2,2.67E2,1.73E2,5.36E2,8.7E1,1.2E1,3.5E1,1.36E2,5.8E1,5.7E1,2E1,1E2,3.9E1,2.1E1,1.625E3,4.274E3,2.483E3,1.82E2,2.6E1,5.1E1,3.55E2,3.9E2,9.1E1,1.47E2,2.5E1,3.7E1,1.41E2,1.97E2,6.8E1,2.36E2,1.49E2,2.05E2,1.62E2,1.05E2],"tree_param":{"num_deleted":"0","num_feature":"8","num_nodes":"63","size_leaf_vector":"1"}},{"base_weights":[1.5557547E-4,-4.2200714E-5,3.7435829E-3,8.251451E-4,-9.98368E-4,8.182293E-5,7.71051E-3,3.2333177E-4,1.1227191E-2,-1.1789778E-3,1.2015599E-2,6.705286E-3,-3.227468E-3,2.1345487E-2,4.4668997E-3,5.160501E-3,-1.10030254E-4,1.5486105E-3,1.8803712E-2,-9.1558543E-4,-1.05114E-2,1.8671768E-2,6.109108E-4,1.3136495E-3,2.2583276E-3,-1.2204457E-3,-1.4020447E-3,3.568497E-2,-2.6186215E-4,-6.185786E-3,6.751535E-3,8.327652E-4,8.980521E-5,8.931857E-6,-2.4114463E-4,2.4288632E-4,-5.9526425E-4,1.2684598E-3,2.5207808E-4,-7.886695E-5,1.05861516E-4,-7.50323E-4,-0E0,1.7930171E-4,2.1362677E-3,-1.5481504E-5,4.8362213E-4,-2.1954894E-4,5.38588E-4,8.2735013E-4,-1.6954355E-4,1.0986958E-3,2.850219E-3,-1.2861503E-3,-0E0,4.4359197E-4,-2.2931095E-5],"categories":[],"categories_nodes":[],"categories_segments":[],"categories_sizes":[],"default_left":[0,0,0,0,0,0,0,0,0,0,0,0,0,0,0,0,0,0,0,0,0,0,0,0,0,0,0,0,0,0,0,0,0,0,0,0,0,0,0,0,0,0,0,0,0,0,0,0,0,0,0,0,0,0,0,0,0],"id":27,"left_children":[1,3,5,7,9,11,13,15,17,19,21,23,25,27,29,31,33,35,37,39,41,43,45,-1,47,-1,49,51,-1,53,55,-1,-1,-1,-1,-1,-1,-1,-1,-1,-1,-1,-1,-1,-1,-1,-1,-1,-1,-1,-1,-1,-1,-1,-1,-1,-1],"loss_changes":[9.098653E-3,9.664887E-3,8.937985E-3,3.0395525E-2,1.2064809E-2,8.304089E-3,1.0945192E-2,1.2615625E-2,1.7661408E-2,1.2416324E-2,3.2982202E-3,8.486732E-3,6.3549858E-3,2.3434341E-2,6.328739E-3,1.7229449E-2,7.653903E-3,4.918139E-3,9.932529E-3,1.0746884E-2,8.066328E-3,9.004556E-3,1.2062043E-3,0E0,7.0255185E-3,0E0,6.558257E-3,1.6650893E-3,0E0,6.486047E-3,4.193403E-3,0E0,0E0,0E0,0E0,0E0,0E0,0E0,0E0,0E0,0E0,0E0,0E0,0E0,0E0,0E0,0E0,0E0,0E0,0E0,0E0,0E0,0E0,0E0,0E0,0E0,0E0],"parents":[2147483647,0,0,1,1,2,2,3,3,4,4,5,5,6,6,7,7,8,8,9,9,10,10,11,11,12,12,13,13,14,14,15,15,16,16,17,17,18,18,19,19,20,20,21,21,22,22,24,24,26,26,27,27,29,29,30,30],"right_children":[2,4,6,8,10,12,14,16,18,20,22,24,26,28,30,32,34,36,38,40,42,44,46,-1,48,-1,50,52,-1,54,56,-1,-1,-1,-1,-1,-1,-1,-1,-1,-1,-1,-1,-1,-1,-1,-1,-1,-1,-1,-1,-1,-1,-1,-1,-1,-1],"split_conditions":[9.472597E1,5.90958E0,6.04177E0,5.88366E0,7.12259E0,5.72407E0,6.14527E0,5.32571E0,2.2139832E3,6.8037E0,2.306452E3,5.73054E0,5.58482E0,9.647925E1,2.092691E3,5.33848E0,5.8485E0,2.1707068E3,9.183021E1,1.73427E0,2.3003513E3,2.2019922E3,2.4151377E3,1.3136495E-3,5.5614E0,-1.2204457E-3,5.84317E0,9.562967E1,-2.6186215E-4,6.08672E0,1.32867E1,8.327652E-4,8.980521E-5,8.931857E-6,-2.4114463E-4,2.4288632E-4,-5.9526425E-4,1.2684598E-3,2.5207808E-4,-7.886695E-5,1.05861516E-4,-7.50323E-4,-0E0,1.7930171E-4,2.1362677E-3,-1.5481504E-5,4.8362213E-4,-2.1954894E-4,5.38588E-4,8.2735013E-4,-1.6954355E-4,1.0986958E-3,2.850219E-3,-1.2861503E-3,-0E0,4.4359197E-4,-2.2931095E-5],"split_indices":[0,5,5,5,4,5,5,4,1,4,1,4,4,0,1,5,5,1,0,6,1,1,1,0,5,0,4,0,0,4,3,0,0,0,0,0,0,0,0,0,0,0,0,0,0,0,0,0,0,0,0,0,0,0,0,0,0],"split_type":[0,0,0,0,0,0,0,0,0,0,0,0,0,0,0,0,0,0,0,0,0,0,0,0,0,0,0,0,0,0,0,0,0,0,0,0,0,0,0,0,0,0,0,0,0,0,0,0,0,0,0,0,0,0,0,0,0],"sum_hessian":[1.2299E4,1.1631E4,6.68E2,6.044E3,5.587E3,3.61E2,3.07E2,5.776E3,2.68E2,5.519E3,6.8E1,1.3E2,2.31E2,5.2E1,2.55E2,4.93E2,5.283E3,1.24E2,1.44E2,5.379E3,1.4E2,3.7E1,3.1E1,1.9E1,1.11E2,1.3E1,2.18E2,3.6E1,1.6E1,3.7E1,2.18E2,1.04E2,3.89E2,4.959E3,3.24E2,1.06E2,1.8E1,9.2E1,5.2E1,4.443E3,9.36E2,1.04E2,3.6E1,2.6E1,1.1E1,1.9E1,1.2E1,5.6E1,5.5E1,1.6E1,2.02E2,2.6E1,1E1,1.1E1,2.6E1,1.79E2,3.9E1],"tree_param":{"num_deleted":"0","num_feature":"8","num_nodes":"57","size_leaf_vector":"1"}},{"base_weights":[-2.7843344E-4,-1.6381276E-3,8.203153E-3,1.0020131E-2,-2.4745972E-3,3.2291817E-4,1.1291077E-2,-2.4944535E-4,1.2619604E-2,-2.8304306E-3,3.5872762E-3,8.0290465E-3,-7.3853484E-3,2.1786107E-2,9.55099E-3,8.700141E-3,-1.1117203E-2,1.4022389E-2,-4.059479E-3,5.781165E-4,-3.4530952E-3,6.9530536E-3,-1.7624884E-3,-2.8174142E-3,1.31410975E-2,-1.773394E-2,-0E0,1.2507226E-3,8.046616E-3,4.9709347E-3,1.4939507E-2,7.2766346E-4,-7.196961E-4,9.912194E-5,-1.2070386E-3,8.566047E-4,4.1839547E-4,-7.324129E-4,5.27628E-4,-5.114584E-5,6.9672853E-4,6.9657566E-5,-2.1099772E-4,6.567403E-6,1.0739381E-3,1.1424789E-3,-2.179629E-4,6.059026E-4,-4.6194173E-4,-1.653827E-4,7.6065434E-4,-1.2469788E-3,-1.9071465E-4,5.6295464E-4,-4.318188E-4,-0E0,9.518587E-4,-1.5435841E-4,4.2785247E-4,8.1085303E-4,7.097882E-5],"categories":[],"categories_nodes":[],"categories_segments":[],"categories_sizes":[],"default_left":[0,0,0,0,0,0,0,0,0,0,0,0,0,0,0,0,0,0,0,0,0,0,0,0,0,0,0,0,0,0,0,0,0,0,0,0,0,0,0,0,0,0,0,0,0,0,0,0,0,0,0,0,0,0,0,0,0,0,0,0,0],"id":28,"left_children":[1,3,5,7,9,11,13,15,17,19,21,23,25,27,29,31,33,35,37,39,41,43,45,47,49,51,53,-1,55,57,59,-1,-1,-1,-1,-1,-1,-1,-1,-1,-1,-1,-1,-1,-1,