{"learner":{"attributes":{},"feature_names":[],"feature_types":[],"gradient_booster":{"model":{"cats":{"enc":[],"feature_segments":[],"sorted_idx":[]},"gbtree_model_param":{"num_parallel_tree":"1","num_trees":"300"},"iteration_indptr":[0,1,2,3,4,5,6,7,8,9,10,11,12,13,14,15,16,17,18,19,20,21,22,23,24,25,26,27,28,29,30,31,32,33,34,35,36,37,38,39,40,41,42,43,44,45,46,47,48,49,50,51,52,53,54,55,56,57,58,59,60,61,62,63,64,65,66,67,68,69,70,71,72,73,74,75,76,77,78,79,80,81,82,83,84,85,86,87,88,89,90,91,92,93,94,95,96,97,98,99,100,101,102,103,104,105,106,107,108,109,110,111,112,113,114,115,116,117,118,119,120,121,122,123,124,125,126,127,128,129,130,131,132,133,134,135,136,137,138,139,140,141,142,143,144,145,146,147,148,149,150,151,152,153,154,155,156,157,158,159,160,161,162,163,164,165,166,167,168,169,170,171,172,173,174,175,176,177,178,179,180,181,182,183,184,185,186,187,188,189,190,191,192,193,194,195,196,197,198,199,200,201,202,203,204,205,206,207,208,209,210,211,212,213,214,215,216,217,218,219,220,221,222,223,224,225,226,227,228,229,230,231,232,233,234,235,236,237,238,239,240,241,242,243,244,245,246,247,248,249,250,251,252,253,254,255,256,257,258,259,260,261,262,263,264,265,266,267,268,269,270,271,272,273,274,275,276,277,278,279,280,281,282,283,284,285,286,287,288,289,290,291,292,293,294,295,296,297,298,299,300],"tree_info":[0,0,0,0,0,0,0,0,0,0,0,0,0,0,0,0,0,0,0,0,0,0,0,0,0,0,0,0,0,0,0,0,0,0,0,0,0,0,0,0,0,0,0,0,0,0,0,0,0,0,0,0,0,0,0,0,0,0,0,0,0,0,0,0,0,0,0,0,0,0,0,0,0,0,0,0,0,0,0,0,0,0,0,0,0,0,0,0,0,0,0,0,0,0,0,0,0,0,0,0,0,0,0,0,0,0,0,0,0,0,0,0,0,0,0,0,0,0,0,0,0,0,0,0,0,0,0,0,0,0,0,0,0,0,0,0,0,0,0,0,0,0,0,0,0,0,0,0,0,0,0,0,0,0,0,0,0,0,0,0,0,0,0,0,0,0,0,0,0,0,0,0,0,0,0,0,0,0,0,0,0,0,0,0,0,0,0,0,0,0,0,0,0,0,0,0,0,0,0,0,0,0,0,0,0,0,0,0,0,0,0,0,0,0,0,0,0,0,0,0,0,0,0,0,0,0,0,0,0,0,0,0,0,0,0,0,0,0,0,0,0,0,0,0,0,0,0,0,0,0,0,0,0,0,0,0,0,0,0,0,0,0,0,0,0,0,0,0,0,0,0,0,0,0,0,0,0,0,0,0,0,0,0,0,0,0,0,0,0,0,0,0,0,0,0,0,0,0,0,0],"trees":[{"base_weights":[-0E0,1.2755366E-2,-3.8302606E-3,1.9430794E-2,7.903686E-3,-5.1944703E-3,1.5722662E-2,1.0849975E-2,2.1257635E-2,1.5167895E-2,-0E0,-4.639294E-4,-7.0086853E-3,-1.8108146E-3,2.7956909E-2,1.4170954E-2,-0E0,1.3492753E-2,2.3878492E-2,6.3785916E-4,1.8467462E-2,-1.4362141E-2,3.9900513E-3,7.1231704E-3,-7.2251833E-3,6.6516013E-3,-7.7614873E-3,1.5565025E-3,-1.3561677E-2,3.1816866E-2,7.958947E-3,-1.7093087E-4,8.8096404E-4,2.9270546E-4,-6.800218E-4,-0E0,7.594805E-4,2.2362045E-3,1.0996719E-3,9.7206E-4,-5.574521E-4,1.1254521E-3,5.4871844E-4,-1.0836616E-3,-0E0,4.9477484E-4,-3.772195E-5,-1.01910206E-4,8.987118E-4,-4.8611435E-4,1.2887052E-4,-3.4685686E-4,7.420555E-4,-4.3486067E-4,3.641539E-5,5.5679714E-4,-2.087943E-4,-1.0107186E-3,-0E0,4.006833E-4,1.6982596E-3,-1.5682237E-4,1.0441273E-3],"categories":[],"categories_nodes":[],"categories_segments":[],"categories_sizes":[],"default_left":[0,0,0,0,0,0,0,0,0,0,0,0,0,0,0,0,0,0,0,0,0,0,0,0,0,0,0,0,0,0,0,0,0,0,0,0,0,0,0,0,0,0,0,0,0,0,0,0,0,0,0,0,0,0,0,0,0,0,0,0,0,0,0],"id":0,"left_children":[1,3,5,7,9,11,13,15,17,19,21,23,25,27,29,31,33,35,37,39,41,43,45,47,49,51,53,55,57,59,61,-1,-1,-1,-1,-1,-1,-1,-1,-1,-1,-1,-1,-1,-1,-1,-1,-1,-1,-1,-1,-1,-1,-1,-1,-1,-1,-1,-1,-1,-1,-1,-1],"loss_changes":[2.8933865E-1,4.1386053E-2,1.2071696E-1,5.4311156E-3,4.606765E-2,3.5895564E-2,6.5516345E-2,5.207114E-3,5.220577E-3,1.8117793E-2,2.2134764E-2,6.1619636E-2,3.1743214E-2,5.890754E-3,9.354845E-3,6.999865E-3,2.411667E-3,3.8738344E-3,5.311966E-3,1.9663148E-2,6.5497607E-3,9.917505E-3,9.383105E-3,5.7200804E-2,1.645448E-2,1.8031254E-2,2.3984164E-2,5.4650325E-3,3.3289492E-3,2.8425157E-3,6.7154486E-3,0E0,0E0,0E0,0E0,0E0,0E0,0E0,0E0,0E0,0E0,0E0,0E0,0E0,0E0,0E0,0E0,0E0,0E0,0E0,0E0,0E0,0E0,0E0,0E0,0E0,0E0,0E0,0E0,0E0,0E0,0E0,0E0],"parents":[2147483647,0,0,1,1,2,2,3,3,4,4,5,5,6,6,7,7,8,8,9,9,10,10,11,11,12,12,13,13,14,14,15,15,16,16,17,17,18,18,19,19,20,20,21,21,22,22,23,23,24,24,25,25,26,26,27,27,28,28,29,29,30,30],"right_children":[2,4,6,8,10,12,14,16,18,20,22,24,26,28,30,32,34,36,38,40,42,44,46,48,50,52,54,56,58,60,62,-1,-1,-1,-1,-1,-1,-1,-1,-1,-1,-1,-1,-1,-1,-1,-1,-1,-1,-1,-1,-1,-1,-1,-1,-1,-1,-1,-1,-1,-1,-1,-1],"split_conditions":[-8.975118E0,5.79507E0,-5.84972E0,7.561372E1,-9.674594E0,-8.193869E0,5.14012E0,8.25697E0,2.3026006E3,7.553115E1,7.665316E1,5.73212E0,4.71587E0,2.96804E0,8.531647E1,-1.817052E1,-1.53971E0,-1.78008E1,5.1186E0,-1.0809668E1,6.23927E0,6.2874E0,6.05879E0,7.9555E1,8.367578E1,7.544904E1,-6.392725E0,4.84228E0,7.773424E1,-1.285883E1,-5.483955E0,-1.7093087E-4,8.8096404E-4,2.9270546E-4,-6.800218E-4,-0E0,7.594805E-4,2.2362045E-3,1.0996719E-3,9.7206E-4,-5.574521E-4,1.1254521E-3,5.4871844E-4,-1.0836616E-3,-0E0,4.9477484E-4,-3.772195E-5,-1.01910206E-4,8.987118E-4,-4.8611435E-4,1.2887052E-4,-3.4685686E-4,7.420555E-4,-4.3486067E-4,3.641539E-5,5.5679714E-4,-2.087943E-4,-1.0107186E-3,-0E0,4.006833E-4,1.6982596E-3,-1.5682237E-4,1.0441273E-3],"split_indices":[7,5,7,0,7,7,5,3,1,0,0,5,5,6,0,3,6,3,5,7,5,5,5,0,0,0,7,5,0,3,7,0,0,0,0,0,0,0,0,0,0,0,0,0,0,0,0,0,0,0,0,0,0,0,0,0,0,0,0,0,0,0,0],"split_type":[0,0,0,0,0,0,0,0,0,0,0,0,0,0,0,0,0,0,0,0,0,0,0,0,0,0,0,0,0,0,0,0,0,0,0,0,0,0,0,0,0,0,0,0,0,0,0,0,0,0,0,0,0,0,0,0,0,0,0,0,0,0,0],"sum_hessian":[5.927E3,1.366E3,4.561E3,5.65E2,8.01E2,4.269E3,2.92E2,1.1E2,4.55E2,4.17E2,3.84E2,1.199E3,3.07E3,1.17E2,1.75E2,9E1,2E1,1.26E2,3.29E2,8.3E1,3.34E2,8.3E1,3.01E2,5.58E2,6.41E2,1.53E2,2.917E3,8.5E1,3.2E1,1.42E2,3.3E1,1E1,8E1,1E1,1E1,1E1,1.16E2,2.1E1,3.08E2,3.5E1,4.8E1,2.07E2,1.27E2,5.7E1,2.6E1,1.43E2,1.58E2,2.98E2,2.6E2,5.19E2,1.22E2,5.3E1,1E2,2.638E3,2.79E2,3.8E1,4.7E1,2.2E1,1E1,1.6E1,1.26E2,1.4E1,1.9E1],"tree_param":{"num_deleted":"0","num_feature":"8","num_nodes":"63","size_leaf_vector":"1"}},{"base_weights":[-7.862046E-5,1.26571525E-2,-3.5557868E-3,1.9691318E-2,9.26512E-3,-5.1339283E-3,1.3573255E-2,3.7412287E-3,2.160065E-2,-2.6646152E-4,1.4710855E-2,1.0390815E-2,-5.5711335E-3,-6.092431E-4,2.3014046E-2,-2.6390355E-3,1.1900697E-2,2.2555064E-2,-0E0,1.0331567E-2,-4.8076264E-3,2.81413E-2,9.174416E-3,-0E0,1.5693422E-3,1.3178719E-3,-6.5715993E-3,1.5810594E-2,-6.651335E-3,3.0990083E-2,1.4291207E-2,1.2815655E-4,-8.582561E-4,9.968806E-4,-0E0,-0E0,1.1659971E-3,-0E0,1.0844733E-3,-0E0,-6.379463E-4,1.624487E-3,7.5263233E-4,2.2103098E-4,8.4298756E-4,-1.1553742E-3,6.808545E-4,4.6790458E-4,-3.6008577E-4,1.8523971E-5,-3.858415E-4,-0E0,1.5779259E-3,6.39316E-5,-8.7160006E-4,-0E0,1.6701879E-3,-0E0,1.1298308E-3],"categories":[],"categories_nodes":[],"categories_segments":[],"categories_sizes":[],"default_left":[0,0,0,0,0,0,0,0,0,0,0,0,0,0,0,0,0,0,0,0,0,0,0,0,0,0,0,0,0,0,0,0,0,0,0,0,0,0,0,0,0,0,0,0,0,0,0,0,0,0,0,0,0,0,0,0,0,0,0],"id":1,"left_children":[1,3,5,7,9,11,13,15,17,19,21,23,25,27,29,31,33,35,-1,37,39,41,43,45,-1,47,49,51,53,55,57,-1,-1,-1,-1,-1,-1,-1,-1,-1,-1,-1,-1,-1,-1,-1,-1,-1,-1,-1,-1,-1,-1,-1,-1,-1,-1,-1,-1],"loss_changes":[2.6342416E-1,2.73197E-2,1.2614124E-1,9.688407E-3,4.665889E-2,2.8796084E-2,5.4607056E-2,3.560551E-3,5.2948147E-3,1.4464898E-2,3.7724428E-2,2.337229E-2,2.943997E-2,1.4368391E-2,1.1657089E-2,3.1666728E-3,3.445488E-3,4.7201514E-3,0E0,1.1412559E-2,9.28784E-3,3.7493259E-3,1.255738E-2,2.4222018E-2,0E0,3.5902694E-2,2.9954791E-2,6.6859685E-3,1.1639994E-2,6.0663223E-3,1.3378421E-2,0E0,0E0,0E0,0E0,0E0,0E0,0E0,0E0,0E0,0E0,0E0,0E0,0E0,0E0,0E0,0E0,0E0,0E0,0E0,0E0,0E0,0E0,0E0,0E0,0E0,0E0,0E0,0E0],"parents":[2147483647,0,0,1,1,2,2,3,3,4,4,5,5,6,6,7,7,8,8,9,9,10,10,11,11,12,12,13,13,14,14,15,15,16,16,17,17,19,19,20,20,21,21,22,22,23,23,25,25,26,26,27,27,28,28,29,29,30,30],"right_children":[2,4,6,8,10,12,14,16,18,20,22,24,26,28,30,32,34,36,-1,38,40,42,44,46,-1,48,50,52,54,56,58,-1,-1,-1,-1,-1,-1,-1,-1,-1,-1,-1,-1,-1,-1,-1,-1,-1,-1,-1,-1,-1,-1,-1,-1,-1,-1,-1,-1],"split_conditions":[-9.054685E0,-1.009088E1,-6.014147E0,-1.329119E1,-4.31469E0,-7.35874E0,5.14012E0,-8.77847E0,1.447154E1,5.54562E0,5.634E0,-8.163432E0,5.06405E0,2.37331E0,5.51768E0,-1.0700696E1,-5.5098E-1,1.9093867E3,-0E0,2.458939E3,-9.483209E0,1.3866E-1,9.4689E-1,5.28863E0,1.5693422E-3,-7.360028E0,-1.439245E1,4.71587E0,4.86021E0,5.19692E0,-5.69666E0,1.2815655E-4,-8.582561E-4,9.968806E-4,-0E0,-0E0,1.1659971E-3,-0E0,1.0844733E-3,-0E0,-6.379463E-4,1.624487E-3,7.5263233E-4,2.2103098E-4,8.4298756E-4,-1.1553742E-3,6.808545E-4,4.6790458E-4,-3.6008577E-4,1.8523971E-5,-3.858415E-4,-0E0,1.5779259E-3,6.39316E-5,-8.7160006E-4,-0E0,1.6701879E-3,-0E0,1.1298308E-3],"split_indices":[7,7,7,2,2,2,5,3,3,5,5,7,5,2,2,7,3,1,0,1,7,3,2,4,0,7,3,5,5,5,7,0,0,0,0,0,0,0,0,0,0,0,0,0,0,0,0,0,0,0,0,0,0,0,0,0,0,0,0],"split_type":[0,0,0,0,0,0,0,0,0,0,0,0,0,0,0,0,0,0,0,0,0,0,0,0,0,0,0,0,0,0,0,0,0,0,0,0,0,0,0,0,0,0,0,0,0,0,0,0,0,0,0,0,0,0,0,0,0,0,0],"sum_hessian":[5.967E3,1.273E3,4.694E3,4.03E2,8.7E2,4.304E3,3.9E2,4.9E1,3.54E2,3.1E2,5.6E2,1.11E2,4.193E3,1.52E2,2.38E2,2.1E1,2.8E1,3.35E2,1.9E1,8.6E1,2.24E2,1.57E2,4.03E2,7.6E1,3.5E1,5.19E2,3.674E3,3.6E1,1.16E2,1.17E2,1.21E2,1.1E1,1E1,1.8E1,1E1,1.3E1,3.22E2,4.3E1,4.3E1,1.36E2,8.8E1,1.11E2,4.6E1,2.58E2,1.45E2,2.7E1,4.9E1,2.73E2,2.46E2,5.08E2,3.166E3,2.1E1,1.5E1,6.2E1,5.4E1,1.1E1,1.06E2,4.7E1,7.4E1],"tree_param":{"num_deleted":"0","num_feature":"8","num_nodes":"59","size_leaf_vector":"1"}},{"base_weights":[-2.7281253E-4,1.232625E-2,-3.7733724E-3,7.194075E-3,1.5659587E-2,-5.1938053E-3,1.1461966E-2,1.5178778E-2,9.96017E-4,-0E0,1.6819008E-2,4.92656E-5,-7.1342126E-3,2.554439E-2,6.6148345E-3,5.746384E-3,2.0624675E-2,-6.158478E-3,1.24219805E-2,-5.77854E-3,9.16632E-4,2.0407282E-2,1.162943E-2,-3.9732815E-3,9.395376E-3,1.9886505E-2,-7.556951E-3,2.934373E-2,-0E0,2.4896013E-4,1.3507397E-2,4.9556355E-4,-0E0,1.3081708E-3,6.0094456E-4,-8.235422E-4,-0E0,8.679106E-4,-5.9908092E-5,4.460828E-4,-8.9897256E-4,5.4886815E-4,1.0962863E-3,-1.4603818E-4,7.506705E-4,-5.1032164E-4,-2.0680614E-5,1.3958673E-3,3.6362337E-4,-2.9133187E-4,1.5659006E-3,-2.2781652E-4,-5.041512E-4,1.5710084E-3,1.902604E-4,-3.157799E-4,3.4877245E-4,9.1486255E-4,-0E0],"categories":[],"categories_nodes":[],"categories_segments":[],"categories_sizes":[],"default_left":[0,0,0,0,0,0,0,0,0,0,0,0,0,0,0,0,0,0,0,0,0,0,0,0,0,0,0,0,0,0,0,0,0,0,0,0,0,0,0,0,0,0,0,0,0,0,0,0,0,0,0,0,0,0,0,0,0,0,0],"id":2,"left_children":[1,3,5,7,9,11,13,15,17,19,21,23,25,27,29,31,33,35,37,39,-1,41,43,45,47,49,51,53,-1,55,57,-1,-1,-1,-1,-1,-1,-1,-1,-1,-1,-1,-1,-1,-1,-1,-1,-1,-1,-1,-1,-1,-1,-1,-1,-1,-1,-1,-1],"loss_changes":[2.622702E-1,1.9687459E-2,1.0060334E-1,2.4201E-2,1.34370625E-2,4.428277E-2,2.3441035E-2,8.59667E-3,2.5390446E-2,6.4437287E-3,9.873465E-3,4.3588415E-2,3.47846E-2,9.478513E-3,1.174028E-2,2.562201E-3,2.2067912E-3,1.1854161E-2,9.839127E-3,8.599129E-3,0E0,2.3397207E-3,1.6319808E-2,1.6528822E-2,1.0118784E-2,1.5958916E-2,2.1957144E-2,7.593185E-4,0E0,7.351693E-3,9.335352E-3,0E0,0E0,0E0,0E0,0E0,0E0,0E0,0E0,0E0,0E0,0E0,0E0,0E0,0E0,0E0,0E0,0E0,0E0,0E0,0E0,0E0,0E0,0E0,0E0,0E0,0E0,0E0,0E0],"parents":[2147483647,0,0,1,1,2,2,3,3,4,4,5,5,6,6,7,7,8,8,9,9,10,10,11,11,12,12,13,13,14,14,15,15,16,16,17,17,18,18,19,19,21,21,22,22,23,23,24,24,25,25,26,26,27,27,29,29,30,30],"right_children":[2,4,6,8,10,12,14,16,18,20,22,24,26,28,30,32,34,36,38,40,-1,42,44,46,48,50,52,54,-1,56,58,-1,-1,-1,-1,-1,-1,-1,-1,-1,-1,-1,-1,-1,-1,-1,-1,-1,-1,-1,-1,-1,-1,-1,-1,-1,-1,-1,-1],"split_conditions":[-9.054685E0,-4.31469E0,-6.014147E0,-1.009088E1,1.9984177E3,-8.312254E0,2.33177E0,-9.95819E0,5.4361E0,7.903244E1,-9.483209E0,1.50839E0,-7.35874E0,2.6973364E3,-5.483955E0,7.835917E1,7.82455E1,7.732759E1,-5.30469E0,7.207106E1,9.16632E-4,-3.26225E0,7.665316E1,7.817152E1,1.89217E0,-8.163432E0,5.48309E0,8.424151E1,-0E0,8.035917E1,2.517932E3,4.9556355E-4,-0E0,1.3081708E-3,6.0094456E-4,-8.235422E-4,-0E0,8.679106E-4,-5.9908092E-5,4.460828E-4,-8.9897256E-4,5.4886815E-4,1.0962863E-3,-1.4603818E-4,7.506705E-4,-5.1032164E-4,-2.0680614E-5,1.3958673E-3,3.6362337E-4,-2.9133187E-4,1.5659006E-3,-2.2781652E-4,-5.041512E-4,1.5710084E-3,1.902604E-4,-3.157799E-4,3.4877245E-4,9.1486255E-4,-0E0],"split_indices":[7,2,7,7,1,7,2,2,4,0,7,2,2,1,7,0,0,0,2,0,0,2,0,0,2,7,4,0,0,0,1,0,0,0,0,0,0,0,0,0,0,0,0,0,0,0,0,0,0,0,0,0,0,0,0,0,0,0,0],"split_type":[0,0,0,0,0,0,0,0,0,0,0,0,0,0,0,0,0,0,0,0,0,0,0,0,0,0,0,0,0,0,0,0,0,0,0,0,0,0,0,0,0,0,0,0,0,0,0,0,0,0,0,0,0,0,0,0,0,0,0],"sum_hessian":[5.964E3,1.29E3,4.674E3,5.21E2,7.69E2,4.282E3,3.92E2,2.2E2,3.01E2,5.5E1,7.14E2,1.143E3,3.139E3,9.4E1,2.98E2,8.8E1,1.32E2,1.8E2,1.21E2,4.1E1,1.4E1,4.09E2,3.05E2,7.92E2,3.51E2,4.4E1,3.095E3,8.2E1,1.2E1,1.63E2,1.35E2,5.5E1,3.3E1,7.2E1,6E1,6.8E1,1.12E2,9.4E1,2.7E1,1.5E1,2.6E1,6.7E1,3.42E2,5.2E1,2.53E2,2.77E2,5.15E2,3E1,3.21E2,1.1E1,3.3E1,1.434E3,1.661E3,7.2E1,1E1,7.5E1,8.8E1,1.01E2,3.4E1],"tree_param":{"num_deleted":"0","num_feature":"8","num_nodes":"59","size_leaf_vector":"1"}},{"base_weights":[-3.2579325E-4,1.1738409E-2,-3.581722E-3,5.0744023E-3,1.5108547E-2,-4.9263514E-3,1.1817515E-2,1.7039297E-2,-3.2263045E-4,1.6847974E-2,-3.0839693E-4,-2.6693086E-3,-8.947596E-3,-2.5549196E-3,2.2440953E-2,9.777493E-3,2.3025855E-2,6.5992074E-3,-6.74577E-3,2.0029698E-2,1.1215819E-2,-8.38324E-3,6.3140685E-4,5.681276E-3,-5.071944E-3,6.7023565E-3,-9.753675E-3,-0E0,-1.1722283E-2,2.5359653E-2,-0E0,8.861825E-4,-2.990391E-4,1.3125726E-3,-0E0,5.958594E-4,-3.8827278E-4,-1.8130465E-3,-1.2745975E-4,1.0875777E-3,4.274807E-4,1.4903974E-4,8.4771664E-4,3.2827386E-4,-7.861117E-4,-7.356321E-5,5.981209E-4,-3.4282796E-4,-3.981219E-5,-0E0,1.483687E-3,-5.207394E-4,5.311332E-4,1.5854451E-4,-3.8795834E-4,-0E0,-9.7566994E-4,-0E0,1.3172203E-3,-3.072092E-4,5.9786387E-4],"categories":[],"categories_nodes":[],"categories_segments":[],"categories_sizes":[],"default_left":[0,0,0,0,0,0,0,0,0,0,0,0,0,0,0,0,0,0,0,0,0,0,0,0,0,0,0,0,0,0,0,0,0,0,0,0,0,0,0,0,0,0,0,0,0,0,0,0,0,0,0,0,0,0,0,0,0,0,0,0,0],"id":3,"left_children":[1,3,5,7,9,11,13,15,17,19,21,23,25,27,29,31,33,35,37,39,41,43,-1,45,47,49,51,53,55,57,59,-1,-1,-1,-1,-1,-1,-1,-1,-1,-1,-1,-1,-1,-1,-1,-1,-1,-1,-1,-1,-1,-1,-1,-1,-1,-1,-1,-1,-1,-1],"loss_changes":[2.3345411E-1,2.6225358E-2,9.675066E-2,2.9767264E-2,2.3836508E-2,3.8132176E-2,5.8844645E-2,2.6242547E-3,1.3174853E-2,1.0072857E-2,7.933753E-3,5.5984918E-2,1.9810386E-2,4.2098733E-3,1.1764139E-2,1.0421183E-2,4.076071E-3,1.0820502E-2,1.5968427E-2,5.995348E-3,1.137688E-2,6.9431616E-3,0E0,2.8696278E-2,1.584844E-2,1.2705042E-2,1.9919246E-2,2.7009947E-3,5.0592106E-3,2.6827976E-3,2.8538886E-3,0E0,0E0,0E0,0E0,0E0,0E0,0E0,0E0,0E0,0E0,0E0,0E0,0E0,0E0,0E0,0E0,0E0,0E0,0E0,0E0,0E0,0E0,0E0,0E0,0E0,0E0,0E0,0E0,0E0,0E0],"parents":[2147483647,0,0,1,1,2,2,3,3,4,4,5,5,6,6,7,7,8,8,9,9,10,10,11,11,12,12,13,13,14,14,15,15,16,16,17,17,18,18,19,19,20,20,21,21,23,23,24,24,25,25,26,26,27,27,28,28,29,29,30,30],"right_children":[2,4,6,8,10,12,14,16,18,20,22,24,26,28,30,32,34,36,38,40,42,44,-1,46,48,50,52,54,56,58,60,-1,-1,-1,-1,-1,-1,-1,-1,-1,-1,-1,-1,-1,-1,-1,-1,-1,-1,-1,-1,-1,-1,-1,-1,-1,-1,-1,-1,-1,-1],"split_conditions":[-9.054685E0,7.738504E1,-5.968125E0,-1.0235995E1,6.46675E0,5.83276E0,5.17644E0,2.3080283E3,5.79794E0,2.5295703E3,2.4563333E3,-8.312254E0,7.575282E1,2.539638E3,8.574656E1,2.2172761E3,1.89361E0,2.5520295E3,1.9984177E3,-9.227905E0,8.009189E1,-1.0184393E1,6.3140685E-4,7.888263E1,2.09397E0,-7.981717E0,-6.261129E0,2.84502E0,7.80385E1,-2.43964E0,5.75686E0,8.861825E-4,-2.990391E-4,1.3125726E-3,-0E0,5.958594E-4,-3.8827278E-4,-1.8130465E-3,-1.2745975E-4,1.0875777E-3,4.274807E-4,1.4903974E-4,8.4771664E-4,3.2827386E-4,-7.861117E-4,-7.356321E-5,5.981209E-4,-3.4282796E-4,-3.981219E-5,-0E0,1.483687E-3,-5.207394E-4,5.311332E-4,1.5854451E-4,-3.8795834E-4,-0E0,-9.7566994E-4,-0E0,1.3172203E-3,-3.072092E-4,5.9786387E-4],"split_indices":[7,0,7,7,5,5,5,1,5,1,1,7,0,1,0,1,6,1,1,7,0,7,0,0,6,7,7,6,0,6,4,0,0,0,0,0,0,0,0,0,0,0,0,0,0,0,0,0,0,0,0,0,0,0,0,0,0,0,0,0,0],"split_type":[0,0,0,0,0,0,0,0,0,0,0,0,0,0,0,0,0,0,0,0,0,0,0,0,0,0,0,0,0,0,0,0,0,0,0,0,0,0,0,0,0,0,0,0,0,0,0,0,0,0,0,0,0,0,0,0,0,0,0,0,0],"sum_hessian":[5.962E3,1.26E3,4.702E3,4.34E2,8.26E2,4.331E3,3.71E2,1.4E2,2.94E2,7.48E2,7.8E1,2.791E3,1.54E3,1.54E2,2.17E2,7.2E1,6.8E1,1.34E2,1.6E2,4.65E2,2.83E2,5.3E1,2.5E1,6.14E2,2.177E3,6.9E1,1.471E3,1.17E2,3.7E1,1.88E2,2.9E1,5.2E1,2E1,5.8E1,1E1,1.03E2,3.1E1,1.6E1,1.44E2,3.96E2,6.9E1,1.24E2,1.59E2,1.3E1,4E1,2.8E2,3.34E2,1.519E3,6.58E2,5.2E1,1.7E1,1.43E3,4.1E1,8.8E1,2.9E1,1.1E1,2.6E1,1E1,1.78E2,1.4E1,1.5E1],"tree_param":{"num_deleted":"0","num_feature":"8","num_nodes":"61","size_leaf_vector":"1"}},{"base_weights":[3.2039153E-4,8.936529E-3,-2.2686417E-4,5.324973E-3,1.5934678E-2,8.5476093E-4,-2.1151372E-3,2.4294391E-2,1.9145855E-3,-0E0,2.1262923E-2,-1.936003E-4,6.770926E-3,4.039005E-3,-3.6542455E-3,1.7263297E-3,3.3959059E-6,-1.8540949E-3,1.0726497E-2,-4.473517E-4,5.856053E-4,2.4090115E-2,-0E0,1.5089596E-3,-2.1495845E-3,3.7711863E-3,1.5732802E-2,9.42909E-3,-4.505428E-3,-4.951838E-3,5.572166E-3,2.59004E-6,-7.578469E-4,-4.0341332E-4,9.3487307E-4,1.501628E-3,2.7590868E-4,-1.7068879E-4,1.5832383E-4,1.7065038E-5,-2.7526915E-4,4.3425543E-4,-1.1706608E-4,1.1536035E-3,2.049444E-4,-1.0473798E-3,5.7175773E-4,4.2321793E-5,-5.8147975E-4,4.9632957E-4,-2.797299E-4,-0E0,9.5583807E-4],"categories":[],"categories_nodes":[],"categories_segments":[],"categories_sizes":[],"default_left":[0,0,0,0,0,0,0,0,0,0,0,0,0,0,0,0,0,0,0,0,0,0,0,0,0,0,0,0,0,0,0,0,0,0,0,0,0,0,0,0,0,0,0,0,0,0,0,0,0,0,0,0,0],"id":4,"left_children":[1,3,5,7,9,11,13,15,17,19,21,23,25,27,29,-1,-1,31,33,-1,-1,35,-1,37,39,41,43,45,47,49,51,-1,-1,-1,-1,-1,-1,-1,-1,-1,-1,-1,-1,-1,-1,-1,-1,-1,-1,-1,-1,-1,-1],"loss_changes":[2.8985197E-2,7.0648175E-3,1.1557134E-2,1.3699934E-2,8.325182E-3,2.2522073E-2,1.9602042E-2,4.9664713E-3,8.213169E-3,3.7499117E-3,4.83907E-3,9.994573E-3,1.2641668E-2,1.9049047E-2,1.9970972E-2,0E0,0E0,5.2383123E-3,1.2299892E-2,0E0,0E0,4.3356754E-3,0E0,1.2772045E-2,1.2346145E-2,1.3209925E-2,8.117534E-3,1.4766451E-2,6.7691663E-3,1.3728138E-2,1.3252221E-2,0E0,0E0,0E0,0E0,0E0,0E0,0E0,0E0,0E0,0E0,0E0,0E0,0E0,0E0,0E0,0E0,0E0,0E0,0E0,0E0,0E0,0E0],"parents":[2147483647,0,0,1,1,2,2,3,3,4,4,5,5,6,6,7,7,8,8,9,9,10,10,11,11,12,12,13,13,14,14,17,17,18,18,21,21,23,23,24,24,25,25,26,26,27,27,28,28,29,29,30,30],"right_children":[2,4,6,8,10,12,14,16,18,20,22,24,26,28,30,-1,-1,32,34,-1,-1,36,-1,38,40,42,44,46,48,50,52,-1,-1,-1,-1,-1,-1,-1,-1,-1,-1,-1,-1,-1,-1,-1,-1,-1,-1,-1,-1,-1,-1],"split_conditions":[-7.35874E0,5.63904E0,2.65606E0,-1.45176E0,7.544904E1,1.50839E0,-1.066721E1,7.875746E1,7.999436E1,-1.154627E1,6.3498E0,5.48713E0,2.06833E0,2.3109E0,6.20673E0,1.7263297E-3,3.3959059E-6,7.931988E1,2.3762815E3,-4.473517E-4,5.856053E-4,2.04354E0,-0E0,-4.11752E0,-1.03303E0,1.36121E0,5.54457E0,-2.38149E0,5.42835E0,7.462133E1,2.3546877E3,2.59004E-6,-7.578469E-4,-4.0341332E-4,9.3487307E-4,1.501628E-3,2.7590868E-4,-1.7068879E-4,1.5832383E-4,1.7065038E-5,-2.7526915E-4,4.3425543E-4,-1.1706608E-4,1.1536035E-3,2.049444E-4,-1.0473798E-3,5.7175773E-4,4.2321793E-5,-5.8147975E-4,4.9632957E-4,-2.797299E-4,-0E0,9.5583807E-4],"split_indices":[2,4,2,6,0,2,3,0,0,3,4,4,6,6,4,0,0,0,1,0,0,6,0,2,2,6,4,6,2,0,1,0,0,0,0,0,0,0,0,0,0,0,0,0,0,0,0,0,0,0,0,0,0],"split_type":[0,0,0,0,0,0,0,0,0,0,0,0,0,0,0,0,0,0,0,0,0,0,0,0,0,0,0,0,0,0,0,0,0,0,0,0,0,0,0,0,0,0,0,0,0,0,0,0,0,0,0,0,0],"sum_hessian":[5.961E3,3.66E2,5.595E3,2.52E2,1.14E2,3.524E3,2.071E3,3.3E1,2.19E2,3.2E1,8.2E1,2.98E3,5.44E2,4.01E2,1.67E3,2E1,1.3E1,1.46E2,7.3E1,1.5E1,1.7E1,7.2E1,1E1,1.566E3,1.414E3,4.17E2,1.27E2,2.53E2,1.48E2,1.474E3,1.96E2,1.22E2,2.4E1,1.8E1,5.5E1,5E1,2.2E1,3.79E2,1.187E3,7.95E2,6.19E2,2.4E2,1.77E2,7.2E1,5.5E1,1.2E1,2.41E2,7.7E1,7.1E1,5.4E1,1.42E3,1.44E2,5.2E1],"tree_param":{"num_deleted":"0","num_feature":"8","num_nodes":"53","size_leaf_vector":"1"}},{"base_weights":[2.6118592E-4,1.1039476E-2,-2.6095463E-3,1.7293397E-2,6.3787717E-3,-3.6207386E-3,1.2989038E-2,7.844051E-3,2.1052431E-2,1.0254529E-2,-1.5863989E-3,-1.8383047E-4,-5.681198E-3,-0E0,2.4510331E-2,3.827432E-3,2.378416E-2,1.6503705E-2,2.7971398E-2,-7.349171E-4,1.2384958E-2,-1.3628766E-2,1.5639729E-3,-4.2033475E-3,7.5581227E-3,6.050739E-3,-6.4656218E-3,1.6028719E-2,-3.2851286E-3,3.0751191E-2,1.30915865E-2,4.602298E-4,-3.26951E-4,2.1050198E-3,-0E0,4.84456E-4,1.0908538E-3,1.6097435E-3,5.6443433E-4,1.709613E-4,-6.2707707E-4,1.1872683E-3,4.6718755E-4,-0E0,-1.1713741E-3,1.1229712E-3,-0E0,2.735653E-4,-3.4463618E-4,7.654125E-4,-9.496364E-5,-1.5301605E-4,6.5017655E-4,-0E0,-3.8729183E-4,1.4974101E-3,-0E0,1.3957974E-4,-6.6378614E-4,4.6666941E-4,1.6827196E-3,8.9292566E-4,-0E0],"categories":[],"categories_nodes":[],"categories_segments":[],"categories_sizes":[],"default_left":[0,0,0,0,0,0,0,0,0,0,0,0,0,0,0,0,0,0,0,0,0,0,0,0,0,0,0,0,0,0,0,0,0,0,0,0,0,0,0,0,0,0,0,0,0,0,0,0,0,0,0,0,0,0,0,0,0,0,0,0,0,0,0],"id":5,"left_children":[1,3,5,7,9,11,13,15,17,19,21,23,25,27,29,31,33,35,37,39,41,43,45,47,49,51,53,55,57,59,61,-1,-1,-1,-1,-1,-1,-1,-1,-1,-1,-1,-1,-1,-1,-1,-1,-1,-1,-1,-1,-1,-1,-1,-1,-1,-1,-1,-1,-1,-1,-1,-1],"loss_changes":[1.8571684E-1,3.4365132E-2,7.341759E-2,1.5771046E-2,2.3573315E-2,3.079107E-2,4.030148E-2,7.3918663E-3,6.767139E-3,1.2950465E-2,1.0067333E-2,5.1976062E-2,2.5406733E-2,8.123964E-3,5.617507E-3,7.796191E-3,7.7682277E-3,5.146973E-3,4.941076E-3,4.633594E-3,1.12908855E-2,5.7006814E-3,6.6241245E-3,2.9190795E-2,4.2855527E-2,1.1486422E-2,2.116622E-2,5.61969E-3,7.763581E-3,8.5897E-4,4.5586284E-3,0E0,0E0,0E0,0E0,0E0,0E0,0E0,0E0,0E0,0E0,0E0,0E0,0E0,0E0,0E0,0E0,0E0,0E0,0E0,0E0,0E0,0E0,0E0,0E0,0E0,0E0,0E0,0E0,0E0,0E0,0E0,0E0],"parents":[2147483647,0,0,1,1,2,2,3,3,4,4,5,5,6,6,7,7,8,8,9,9,10,10,11,11,12,12,13,13,14,14,15,15,16,16,17,17,18,18,19,19,20,20,21,21,22,22,23,23,24,24,25,25,26,26,27,27,28,28,29,29,30,30],"right_children":[2,4,6,8,10,12,14,16,18,20,22,24,26,28,30,32,34,36,38,40,42,44,46,48,50,52,54,56,58,60,62,-1,-1,-1,-1,-1,-1,-1,-1,-1,-1,-1,-1,-1,-1,-1,-1,-1,-1,-1,-1,-1,-1,-1,-1,-1,-1,-1,-1,-1,-1,-1,-1],"split_conditions":[-9.054685E0,5.82043E0,-5.794257E0,-5.77036E0,-9.503931E0,-8.003763E0,5.20775E0,5.72114E0,1.78049E0,-1.056319E1,7.665316E1,1.50839E0,4.78902E0,2.33177E0,7.225E0,-3.78169E0,-7.93374E0,7.840224E1,5.67526E0,-1.0235995E1,-1.0700696E1,1.13438E0,-1.591832E1,5.31294E0,5.90818E0,1.95833E0,-1.70075E0,2.12766E0,-6.34937E0,-9.66186E0,8.522391E1,4.602298E-4,-3.26951E-4,2.1050198E-3,-0E0,4.84456E-4,1.0908538E-3,1.6097435E-3,5.6443433E-4,1.709613E-4,-6.2707707E-4,1.1872683E-3,4.6718755E-4,-0E0,-1.1713741E-3,1.1229712E-3,-0E0,2.735653E-4,-3.4463618E-4,7.654125E-4,-9.496364E-5,-1.5301605E-4,6.5017655E-4,-0E0,-3.8729183E-4,1.4974101E-3,-0E0,1.3957974E-4,-6.6378614E-4,4.6666941E-4,1.6827196E-3,8.9292566E-4,-0E0],"split_indices":[7,5,7,2,7,7,5,5,6,2,0,2,5,2,2,3,2,0,5,7,7,6,3,5,5,6,2,6,3,3,0,0,0,0,0,0,0,0,0,0,0,0,0,0,0,0,0,0,0,0,0,0,0,0,0,0,0,0,0,0,0,0,0],"split_type":[0,0,0,0,0,0,0,0,0,0,0,0,0,0,0,0,0,0,0,0,0,0,0,0,0,0,0,0,0,0,0,0,0,0,0,0,0,0,0,0,0,0,0,0,0,0,0,0,0,0,0,0,0,0,0,0,0,0,0,0,0,0,0],"sum_hessian":[5.973E3,1.263E3,4.71E3,5.29E2,7.34E2,4.43E3,2.8E2,1.59E2,3.7E2,5.02E2,2.32E2,1.679E3,2.751E3,1.35E2,1.45E2,1.33E2,2.6E1,2.34E2,1.36E2,7.4E1,4.28E2,5.4E1,1.78E2,1.114E3,5.65E2,1.64E2,2.587E3,2.6E1,1.09E2,8.7E1,5.8E1,9.4E1,3.9E1,1.2E1,1.4E1,1.12E2,1.22E2,1.03E2,3.3E1,4.9E1,2.5E1,8.2E1,3.46E2,2.6E1,2.8E1,1.3E1,1.65E2,2.34E2,8.8E2,3.16E2,2.49E2,6.5E1,9.9E1,4.32E2,2.155E3,1.3E1,1.3E1,6.2E1,4.7E1,1.5E1,7.2E1,4.5E1,1.3E1],"tree_param":{"num_deleted":"0","num_feature":"8","num_nodes":"63","size_leaf_vector":"1"}},{"base_weights":[-5.20906E-4,1.080483E-2,-3.6434636E-3,4.082584E-3,1.5115792E-2,-4.6282024E-3,1.3203191E-2,1.3454392E-2,-1.8518321E-3,1.7953195E-2,2.6393372E-3,-1.3413633E-3,-6.595227E-3,-0E0,2.4018174E-2,-0E0,1.9287532E-2,-7.3411423E-3,4.8670885E-3,2.3859292E-2,1.44803E-2,-4.4726036E-3,1.1355285E-2,-5.7629663E-3,7.4752583E-3,-7.50976E-4,-8.321967E-3,-6.722339E-3,6.411226E-3,1.5134866E-3,9.877155E-3,-5.5786734E-4,3.6403176E-4,1.3778689E-3,6.912743E-4,-5.647145E-4,1.1701888E-5,-1.4961079E-4,5.807151E-4,-0E0,1.2910877E-3,4.849117E-4,1.0564447E-3,7.687992E-4,-7.2548917E-4,9.883741E-4,1.0471923E-4,2.1698927E-4,-4.2947705E-4,6.712409E-4,-3.997767E-4,2.9089276E-4,-4.409612E-4,-4.839352E-4,-0E0,2.5619337E-4,-6.108707E-4,-3.059413E-4,5.993433E-4,-4.0280695E-5,1.2082419E-3],"categories":[],"categories_nodes":[],"categories_segments":[],"categories_sizes":[],"default_left":[0,0,0,0,0,0,0,0,0,0,0,0,0,0,0,0,0,0,0,0,0,0,0,0,0,0,0,0,0,0,0,0,0,0,0,0,0,0,0,0,0,0,0,0,0,0,0,0,0,0,0,0,0,0,0,0,0,0,0,0,0],"id":6,"left_children":[1,3,5,7,9,11,13,15,17,19,21,23,25,27,29,31,33,35,37,39,41,43,45,47,49,51,53,55,57,-1,59,-1,-1,-1,-1,-1,-1,-1,-1,-1,-1,-1,-1,-1,-1,-1,-1,-1,-1,-1,-1,-1,-1,-1,-1,-1,-1,-1,-1,-1,-1],"loss_changes":[2.0921607E-1,3.4996092E-2,7.651092E-2,2.9493824E-2,2.5081113E-2,2.7702972E-2,3.6255594E-2,1.4781021E-2,1.15690995E-2,8.517042E-3,1.003715E-2,6.5013446E-2,2.672708E-2,4.959842E-3,7.974409E-3,5.1955236E-3,1.7593876E-3,6.409077E-3,7.7906526E-3,1.18221715E-2,9.525359E-3,1.5476719E-2,3.5373466E-3,3.247373E-2,5.1366735E-2,3.421778E-2,2.4050891E-2,4.4824146E-3,4.712207E-3,0E0,9.8343585E-3,0E0,0E0,0E0,0E0,0E0,0E0,0E0,0E0,0E0,0E0,0E0,0E0,0E0,0E0,0E0,0E0,0E0,0E0,0E0,0E0,0E0,0E0,0E0,0E0,0E0,0E0,0E0,0E0,0E0,0E0],"parents":[2147483647,0,0,1,1,2,2,3,3,4,4,5,5,6,6,7,7,8,8,9,9,10,10,11,11,12,12,13,13,14,14,15,15,16,16,17,17,18,18,19,19,20,20,21,21,22,22,23,23,24,24,25,25,26,26,27,27,28,28,30,30],"right_children":[2,4,6,8,10,12,14,16,18,20,22,24,26,28,30,32,34,36,38,40,42,44,46,48,50,52,54,56,58,-1,60,-1,-1,-1,-1,-1,-1,-1,-1,-1,-1,-1,-1,-1,-1,-1,-1,-1,-1,-1,-1,-1,-1,-1,-1,-1,-1,-1,-1,-1,-1],"split_conditions":[-9.054685E0,-4.37496E0,-5.749259E0,-1.009088E1,6.30933E0,-8.003763E0,5.13125E0,-1.056319E1,5.4361E0,-9.83112E0,2.2850032E3,1.59949E0,7.808299E1,-5.322405E0,8.12512E0,7.544904E1,5.74295E0,7.999436E1,7.732759E1,1.9611885E3,2.2465E-1,-1.0048947E1,-1.03303E0,5.31703E0,6.11661E0,2.41272E0,-6.392725E0,1.71665E0,7.354849E1,1.5134866E-3,-5.322405E0,-5.5786734E-4,3.6403176E-4,1.3778689E-3,6.912743E-4,-5.647145E-4,1.1701888E-5,-1.4961079E-4,5.807151E-4,-0E0,1.2910877E-3,4.849117E-4,1.0564447E-3,7.687992E-4,-7.2548917E-4,9.883741E-4,1.0471923E-4,2.1698927E-4,-4.2947705E-4,6.712409E-4,-3.997767E-4,2.9089276E-4,-4.409612E-4,-4.839352E-4,-0E0,2.5619337E-4,-6.108707E-4,-3.059413E-4,5.993433E-4,-4.0280695E-5,1.2082419E-3],"split_indices":[7,2,7,7,5,7,5,2,4,7,1,2,0,7,2,0,5,0,0,1,2,7,2,5,5,2,7,2,0,0,7,0,0,0,0,0,0,0,0,0,0,0,0,0,0,0,0,0,0,0,0,0,0,0,0,0,0,0,0,0,0],"split_type":[0,0,0,0,0,0,0,0,0,0,0,0,0,0,0,0,0,0,0,0,0,0,0,0,0,0,0,0,0,0,0,0,0,0,0,0,0,0,0,0,0,0,0,0,0,0,0,0,0,0,0,0,0,0,0,0,0,0,0,0,0],"sum_hessian":[5.934E3,1.275E3,4.659E3,5.08E2,7.67E2,4.408E3,2.51E2,2.03E2,3.05E2,6.18E2,1.49E2,1.67E3,2.738E3,1.13E2,1.38E2,6.5E1,1.38E2,1.76E2,1.29E2,2.16E2,4.02E2,7.6E1,7.3E1,1.12E3,5.5E2,6.38E2,2.1E3,5.6E1,5.7E1,9E1,4.8E1,2.2E1,4.3E1,4.6E1,9.2E1,1.24E2,5.2E1,5.3E1,7.6E1,1.4E1,2.02E2,2.44E2,1.58E2,2.2E1,5.4E1,3.2E1,4.1E1,2.37E2,8.83E2,4.02E2,1.48E2,3.45E2,2.93E2,1.809E3,2.91E2,1.2E1,4.4E1,1.2E1,4.5E1,2.4E1,2.4E1],"tree_param":{"num_deleted":"0","num_feature":"8","num_nodes":"61","size_leaf_vector":"1"}},{"base_weights":[-0E0,7.576004E-3,-3.1528093E-3,1.0422215E-2,9.3064917E-4,-4.928417E-3,7.2977436E-3,6.4354134E-3,1.651876E-2,8.024823E-3,-7.2984505E-3,-1.7012006E-3,-7.4098334E-3,-2.385242E-3,1.3759341E-2,1.1970563E-2,1.6092325E-3,2.5715878E-2,1.3585925E-2,1.0682468E-2,-0E0,-1.1872929E-2,7.8971805E-3,8.81961E-3,-3.5767818E-3,6.5188534E-3,-8.494504E-3,-0E0,-1.6067589E-2,6.9118226E-3,2.493788E-2,8.063892E-4,1.1738799E-4,5.4110703E-4,-1.9431765E-4,1.4093297E-3,-0E0,7.401778E-4,-8.734316E-5,7.2171463E-4,2.1297345E-4,-1.8644407E-4,1.0357787E-3,-1.8224205E-4,-1.0764445E-3,1.191341E-3,-0E0,-6.178018E-5,1.005244E-3,-3.088943E-4,1.3770579E-4,-4.413334E-5,9.2577934E-4,-4.6052682E-4,1.427154E-4,-9.676337E-5,1.0992314E-3,-0E0,-1.4056385E-3,8.912504E-4,2.450363E-5,5.7255005E-4,1.4104312E-3],"categories":[],"categories_nodes":[],"categories_segments":[],"categories_sizes":[],"default_left":[0,0,0,0,0,0,0,0,0,0,0,0,0,0,0,0,0,0,0,0,0,0,0,0,0,0,0,0,0,0,0,0,0,0,0,0,0,0,0,0,0,0,0,0,0,0,0,0,0,0,0,0,0,0,0,0,0,0,0,0,0,0,0],"id":7,"left_children":[1,3,5,7,9,11,13,15,17,19,21,23,25,27,29,31,33,35,37,39,41,43,45,47,49,51,53,55,57,59,61,-1,-1,-1,-1,-1,-1,-1,-1,-1,-1,-1,-1,-1,-1,-1,-1,-1,-1,-1,-1,-1,-1,-1,-1,-1,-1,-1,-1,-1,-1,-1,-1],"loss_changes":[1.4327794E-1,3.2181635E-2,7.847683E-2,2.732417E-2,3.1655684E-2,2.816961E-2,3.92113E-2,1.8684696E-2,8.478984E-3,5.865073E-3,1.7452285E-2,3.1040015E-2,3.1012893E-2,6.649116E-3,2.5040954E-2,1.1715982E-2,2.1595333E-2,6.0388073E-3,8.220643E-3,3.346596E-3,6.925589E-3,1.273803E-2,6.40819E-3,2.8465107E-2,2.2837287E-2,1.42995985E-2,1.606904E-2,7.4968594E-3,3.8517294E-3,1.4769129E-2,1.6661584E-3,0E0,0E0,0E0,0E0,0E0,0E0,0E0,0E0,0E0,0E0,0E0,0E0,0E0,0E0,0E0,0E0,0E0,0E0,0E0,0E0,0E0,0E0,0E0,0E0,0E0,0E0,0E0,0E0,0E0,0E0,0E0,0E0],"parents":[2147483647,0,0,1,1,2,2,3,3,4,4,5,5,6,6,7,7,8,8,9,9,10,10,11,11,12,12,13,13,14,14,15,15,16,16,17,17,18,18,19,19,20,20,21,21,22,22,23,23,24,24,25,25,26,26,27,27,28,28,29,29,30,30],"right_children":[2,4,6,8,10,12,14,16,18,20,22,24,26,28,30,32,34,36,38,40,42,44,46,48,50,52,54,56,58,60,62,-1,-1,-1,-1,-1,-1,-1,-1,-1,-1,-1,-1,-1,-1,-1,-1,-1,-1,-1,-1,-1,-1,-1,-1,-1,-1,-1,-1,-1,-1,-1,-1],"split_conditions":[-8.718969E0,6.05879E0,-6.350578E0,7.978602E1,-9.483209E0,5.57048E0,5.19692E0,-9.533646E0,8.05782E1,2.6102E-1,8.336469E1,-8.27668E0,7.622286E1,8.424151E1,-5.749259E0,5.82428E0,5.51395E0,2.7317969E3,5.25103E0,8.045956E1,2.4792363E3,1.28663E0,-5.67567E0,7.9555E1,2.23482E0,-7.72411E0,9.9213E0,8.352127E1,4.99635E0,2.3080283E3,-7.38477E0,8.063892E-4,1.1738799E-4,5.4110703E-4,-1.9431765E-4,1.4093297E-3,-0E0,7.401778E-4,-8.734316E-5,7.2171463E-4,2.1297345E-4,-1.8644407E-4,1.0357787E-3,-1.8224205E-4,-1.0764445E-3,1.191341E-3,-0E0,-6.178018E-5,1.005244E-3,-3.088943E-4,1.3770579E-4,-4.413334E-5,9.2577934E-4,-4.6052682E-4,1.427154E-4,-9.676337E-5,1.0992314E-3,-0E0,-1.4056385E-3,8.912504E-4,2.450363E-5,5.7255005E-4,1.4104312E-3],"split_indices":[7,5,7,0,7,5,5,7,0,3,0,7,0,0,7,5,5,1,3,0,1,6,3,0,6,7,3,0,5,1,3,0,0,0,0,0,0,0,0,0,0,0,0,0,0,0,0,0,0,0,0,0,0,0,0,0,0,0,0,0,0,0,0],"split_type":[0,0,0,0,0,0,0,0,0,0,0,0,0,0,0,0,0,0,0,0,0,0,0,0,0,0,0,0,0,0,0,0,0,0,0,0,0,0,0,0,0,0,0,0,0,0,0,0,0,0,0,0,0,0,0,0,0,0,0,0,0,0,0],"sum_hessian":[6E3,1.761E3,4.239E3,1.222E3,5.39E2,3.632E3,6.07E2,7.5E2,4.72E2,2.96E2,2.43E2,1.597E3,2.035E3,2.37E2,3.7E2,3.39E2,4.11E2,1.04E2,3.68E2,2.18E2,7.8E1,1.92E2,5.1E1,2.33E2,1.364E3,1.4E2,1.895E3,2.07E2,3E1,2.36E2,1.34E2,2.29E2,1.1E2,1.6E2,2.51E2,9.4E1,1E1,3.47E2,2.1E1,1.27E2,9.1E1,6.5E1,1.3E1,1.1E2,8.2E1,1.6E1,3.5E1,1.19E2,1.14E2,9.78E2,3.86E2,8.2E1,5.8E1,1.791E3,1.04E2,1.94E2,1.3E1,1.6E1,1.4E1,8.1E1,1.55E2,3.3E1,1.01E2],"tree_param":{"num_deleted":"0","num_feature":"8","num_nodes":"63","size_leaf_vector":"1"}},{"base_weights":[2.0781287E-4,9.596998E-3,-2.3846452E-3,1.1933055E-2,4.7497298E-3,-3.6884989E-3,7.5298427E-3,2.789038E-2,1.0879354E-2,-2.8847991E-3,8.785617E-3,-3.1073013E-4,-5.6627276E-3,1.01227285E-2,-3.6785137E-3,2.4762723E-4,1.6378068E-3,5.732299E-3,1.3305286E-2,5.7252287E-3,-1.3497189E-2,2.88512E-2,6.5414063E-3,-6.4472766E-3,2.359672E-3,6.740541E-4,-7.6138577E-3,-6.56406E-4,1.1786136E-2,-1.4590959E-2,1.3066712E-2,6.319347E-4,-0E0,9.6380245E-4,4.9777055E-4,-0E0,9.856274E-4,-1.1289521E-3,-0E0,2.141377E-3,-0E0,-1.4974158E-4,5.312815E-4,1.9529536E-4,-4.1573678E-4,4.545425E-6,3.4615552E-4,-1.1125887E-4,3.3577124E-4,-4.165618E-4,4.6563247E-4,5.7999376E-5,-8.311481E-4,7.769042E-4,1.00600875E-4,-9.962994E-4,-0E0,1.3586417E-3,-0E0],"categories":[],"categories_nodes":[],"categories_segments":[],"categories_sizes":[],"default_left":[0,0,0,0,0,0,0,0,0,0,0,0,0,0,0,0,0,0,0,0,0,0,0,0,0,0,0,0,0,0,0,0,0,0,0,0,0,0,0,0,0,0,0,0,0,0,0,0,0,0,0,0,0,0,0,0,0,0,0],"id":8,"left_children":[1,3,5,7,9,11,13,15,17,19,21,23,25,27,29,-1,-1,31,33,35,37,39,41,43,45,47,49,51,53,55,57,-1,-1,-1,-1,-1,-1,-1,-1,-1,-1,-1,-1,-1,-1,-1,-1,-1,-1,-1,-1,-1,-1,-1,-1,-1,-1,-1,-1],"loss_changes":[1.4625503E-1,1.3018236E-2,6.0103416E-2,1.0347106E-2,1.4141936E-2,2.7028441E-2,1.6229823E-2,1.3125688E-3,8.233853E-3,1.4012178E-2,9.601302E-3,2.5791122E-2,3.2795757E-2,9.0458095E-3,1.7519828E-2,0E0,0E0,1.1344271E-2,7.725656E-3,6.479077E-3,8.659967E-3,6.7031793E-3,1.13887945E-2,9.773081E-3,1.0355359E-2,1.0973169E-2,2.4228416E-2,3.0736604E-3,1.2552474E-2,5.6744544E-3,4.531954E-3,0E0,0E0,0E0,0E0,0E0,0E0,0E0,0E0,0E0,0E0,0E0,0E0,0E0,0E0,0E0,0E0,0E0,0E0,0E0,0E0,0E0,0E0,0E0,0E0,0E0,0E0,0E0,0E0],"parents":[2147483647,0,0,1,1,2,2,3,3,4,4,5,5,6,6,7,7,8,8,9,9,10,10,11,11,12,12,13,13,14,14,17,17,18,18,19,19,20,20,21,21,22,22,23,23,24,24,25,25,26,26,27,27,28,28,29,29,30,30],"right_children":[2,4,6,8,10,12,14,16,18,20,22,24,26,28,30,-1,-1,32,34,36,38,40,42,44,46,48,50,52,54,56,58,-1,-1,-1,-1,-1,-1,-1,-1,-1,-1,-1,-1,-1,-1,-1,-1,-1,-1,-1,-1,-1,-1,-1,-1,-1,-1,-1,-1],"split_conditions":[-9.054685E0,-9.483209E0,-6.261129E0,-2.38149E0,9.952E-1,-8.048569E0,8.500417E1,-2.88203E0,7.71952E1,-1.2187E0,1.08216E0,7.827664E1,7.80385E1,-2.26699E0,5.97719E0,2.4762723E-4,1.6378068E-3,-1.0235995E1,7.927796E1,7.91873E1,5.47347E0,8.035917E1,7.738504E1,-8.904698E0,1.83798E0,-7.121311E0,8.732169E1,-2.38149E0,2.3109E0,2.5826904E3,1.29628E0,6.319347E-4,-0E0,9.6380245E-4,4.9777055E-4,-0E0,9.856274E-4,-1.1289521E-3,-0E0,2.141377E-3,-0E0,-1.4974158E-4,5.312815E-4,1.9529536E-4,-4.1573678E-4,4.545425E-6,3.4615552E-4,-1.1125887E-4,3.3577124E-4,-4.165618E-4,4.6563247E-4,5.7999376E-5,-8.311481E-4,7.769042E-4,1.00600875E-4,-9.962994E-4,-0E0,1.3586417E-3,-0E0],"split_indices":[7,7,7,6,6,7,0,6,0,6,6,0,0,6,4,0,0,7,0,0,4,0,0,7,6,7,0,6,6,1,6,0,0,0,0,0,0,0,0,0,0,0,0,0,0,0,0,0,0,0,0,0,0,0,0,0,0,0,0],"split_type":[0,0,0,0,0,0,0,0,0,0,0,0,0,0,0,0,0,0,0,0,0,0,0,0,0,0,0,0,0,0,0,0,0,0,0,0,0,0,0,0,0,0,0,0,0,0,0,0,0,0,0,0,0,0,0,0,0,0,0],"sum_hessian":[5.977E3,1.301E3,4.676E3,8.63E2,4.38E2,4.142E3,5.34E2,4.6E1,8.17E2,1.43E2,2.95E2,1.547E3,2.595E3,4.41E2,9.3E1,1.2E1,3.4E1,2.76E2,5.41E2,7.4E1,6.9E1,2.4E1,2.71E2,4.8E2,1.067E3,5.99E2,1.996E3,5.1E1,3.9E2,6E1,3.3E1,1.27E2,1.49E2,1.82E2,3.59E2,5.2E1,2.2E1,4.1E1,2.8E1,1.4E1,1E1,7.4E1,1.97E2,6.5E1,4.15E2,7.28E2,3.39E2,3.94E2,2.05E2,1.921E3,7.5E1,4.1E1,1E1,2.74E2,1.16E2,4.6E1,1.4E1,1.3E1,2E1],"tree_param":{"num_deleted":"0","num_feature":"8","num_nodes":"59","size_leaf_vector":"1"}},{"base_weights":[-6.465476E-4,6.2524443E-3,-1.1429203E-3,9.676479E-3,-1.9723675E-3,2.6521826E-4,-3.5055259E-3,3.375465E-4,1.2878345E-2,-0E0,-8.97799E-4,2.489461E-3,-1.6209015E-3,-4.107042E-3,7.865471E-3,4.4204188E-3,-6.1874E-4,8.724844E-3,2.131592E-2,3.6903701E-3,-4.868309E-3,2.0485E-3,1.9505229E-2,-2.4671475E-3,8.195225E-3,8.769478E-3,-4.661484E-3,-7.24832E-4,1.29555445E-2,5.978981E-4,-4.6337929E-4,9.8692E-5,6.400018E-4,-0E0,1.2100266E-3,6.40667E-4,-3.3445377E-4,6.426918E-4,-1.0491802E-3,3.7493938E-4,4.1530842E-5,8.118329E-5,1.7194052E-3,-1.7427716E-4,2.6745288E-4,6.3342997E-4,-2.8035327E-4,-0E0,1.6681561E-3,-2.7710895E-4,1.3419942E-4,8.236196E-4,-1.3950579E-4],"categories":[],"categories_nodes":[],"categories_segments":[],"categories_sizes":[],"default_left":[0,0,0,0,0,0,0,0,0,0,0,0,0,0,0,0,0,0,0,0,0,0,0,0,0,0,0,0,0,0,0,0,0,0,0,0,0,0,0,0,0,0,0,0,0,0,0,0,0,0,0,0,0],"id":9,"left_children":[1,3,5,7,9,11,13,15,17,19,-1,21,23,25,27,29,-1,31,33,35,37,39,41,43,45,47,49,-1,51,-1,-1,-1,-1,-1,-1,-1,-1,-1,-1,-1,-1,-1,-1,-1,-1,-1,-1,-1,-1,-1,-1,-1,-1],"loss_changes":[1.9923164E-2,1.1688205E-2,1.8885603E-2,7.106431E-3,5.068727E-3,1.4648196E-2,1.4088523E-2,3.463397E-3,3.8891286E-3,1.5215985E-3,0E0,9.93749E-3,1.4848326E-2,1.4001455E-2,1.1188531E-2,7.395687E-3,0E0,2.4865335E-3,1.7585866E-3,6.6636913E-3,9.079428E-3,9.668492E-3,5.657506E-3,1.34995915E-2,9.297697E-3,1.5304174E-2,1.283785E-2,0E0,6.0656946E-3,0E0,0E0,0E0,0E0,0E0,0E0,0E0,0E0,0E0,0E0,0E0,0E0,0E0,0E0,0E0,0E0,0E0,0E0,0E0,0E0,0E0,0E0,0E0,0E0],"parents":[2147483647,0,0,1,1,2,2,3,3,4,4,5,5,6,6,7,7,8,8,9,9,11,11,12,12,13,13,14,14,15,15,17,17,18,18,19,19,20,20,21,21,22,22,23,23,24,24,25,25,26,26,28,28],"right_children":[2,4,6,8,10,12,14,16,18,20,-1,22,24,26,28,30,-1,32,34,36,38,40,42,44,46,48,50,-1,52,-1,-1,-1,-1,-1,-1,-1,-1,-1,-1,-1,-1,-1,-1,-1,-1,-1,-1,-1,-1,-1,-1,-1,-1],"split_conditions":[-7.35874E0,2.6419517E3,5.83846E0,-1.132213E1,2.03358E0,-6.2741E0,8.50843E0,2.07782E0,-3.57008E0,-8.93138E0,-8.97799E-4,-6.53658E0,2.43314E0,4.6627E0,2.061522E3,2.6102E-1,-6.1874E-4,5.41902E0,5.37157E0,2.8215803E3,5.48992E0,5.0532E0,5.5164E0,1.406843E1,-1.08083E0,4.62394E0,6.22682E0,-7.24832E-4,1.072449E1,5.978981E-4,-4.6337929E-4,9.8692E-5,6.400018E-4,-0E0,1.2100266E-3,6.40667E-4,-3.3445377E-4,6.426918E-4,-1.0491802E-3,3.7493938E-4,4.1530842E-5,8.118329E-5,1.7194052E-3,-1.7427716E-4,2.6745288E-4,6.3342997E-4,-2.8035327E-4,-0E0,1.6681561E-3,-2.7710895E-4,1.3419942E-4,8.236196E-4,-1.3950579E-4],"split_indices":[2,1,5,2,6,3,3,6,3,2,0,3,6,4,1,3,0,4,5,1,5,4,4,3,3,4,4,0,2,0,0,0,0,0,0,0,0,0,0,0,0,0,0,0,0,0,0,0,0,0,0,0,0],"split_type":[0,0,0,0,0,0,0,0,0,0,0,0,0,0,0,0,0,0,0,0,0,0,0,0,0,0,0,0,0,0,0,0,0,0,0,0,0,0,0,0,0,0,0,0,0,0,0,0,0,0,0,0,0],"sum_hessian":[5.964E3,3.86E2,5.578E3,2.81E2,1.05E2,3.469E3,2.109E3,8E1,2.01E2,8.9E1,1.6E1,1.616E3,1.853E3,2.012E3,9.7E1,6.7E1,1.3E1,1.44E2,5.7E1,6.2E1,2.7E1,1.582E3,3.4E1,1.716E3,1.37E2,7.5E1,1.937E3,1.4E1,8.3E1,4.8E1,1.9E1,6.4E1,8E1,1E1,4.7E1,3.8E1,2.4E1,1E1,1.7E1,2.73E2,1.309E3,1.9E1,1.5E1,1.53E3,1.86E2,1.09E2,2.8E1,5.7E1,1.8E1,1.742E3,1.95E2,7.3E1,1E1],"tree_param":{"num_deleted":"0","num_feature":"8","num_nodes":"53","size_leaf_vector":"1"}},{"base_weights":[1.2411929E-6,9.6116E-3,-2.5872313E-3,2.4532988E-3,1.2603863E-2,-3.596739E-3,1.1859244E-2,1.0302479E-2,-3.7570775E-3,2.158934E-2,1.0397713E-2,-7.660738E-4,-5.597867E-3,3.4648617E-6,1.8970419E-2,3.5716598E-3,1.7168952E-2,1.0306029E-2,-1.092077E-2,-0E0,2.3830358E-2,1.3861982E-2,3.5259821E-3,9.919425E-3,-3.6181428E-3,-6.8383412E-3,4.253293E-3,-6.2801754E-3,7.1761697E-3,2.652178E-2,1.0802641E-2,5.890908E-4,-0E0,1.0368543E-3,-0E0,-3.0266726E-6,8.3128567E-4,-7.5288425E-4,-0E0,1.2861427E-3,4.3281523E-4,-0E0,7.550883E-4,-3.7581692E-4,3.577316E-4,1.292967E-4,9.7406673E-4,2.5115572E-4,-2.3738707E-4,1.7121478E-4,-3.9452058E-4,1.187153E-3,-4.729302E-5,-7.323282E-4,2.2558258E-4,-1.8226319E-4,6.191609E-4,1.4295984E-3,2.6423497E-5,-0E0,1.0825256E-3],"categories":[],"categories_nodes":[],"categories_segments":[],"categories_sizes":[],"default_left":[0,0,0,0,0,0,0,0,0,0,0,0,0,0,0,0,0,0,0,0,0,0,0,0,0,0,0,0,0,0,0,0,0,0,0,0,0,0,0,0,0,0,0,0,0,0,0,0,0,0,0,0,0,0,0,0,0,0,0,0,0],"id":10,"left_children":[1,3,5,7,9,11,13,15,17,19,21,23,25,27,29,31,33,35,37,-1,39,41,43,45,47,49,51,53,55,57,59,-1,-1,-1,-1,-1,-1,-1,-1,-1,-1,-1,-1,-1,-1,-1,-1,-1,-1,-1,-1,-1,-1,-1,-1,-1,-1,-1,-1,-1,-1],"loss_changes":[1.4804387E-1,2.5559045E-2,6.714785E-2,1.9411853E-2,1.4060974E-2,2.4062306E-2,2.322648E-2,6.0450267E-3,2.1128725E-2,8.742556E-3,1.5328512E-2,5.5115484E-2,3.1253345E-2,5.4530096E-3,7.144749E-3,4.0246625E-3,4.7999285E-3,5.9814095E-3,7.8860875E-3,0E0,6.4694136E-4,9.051144E-3,1.0114921E-2,2.4249077E-2,1.4159743E-2,2.4874896E-2,3.0168006E-2,6.1357343E-3,4.4688415E-3,1.7543994E-3,1.1413523E-2,0E0,0E0,0E0,0E0,0E0,0E0,0E0,0E0,0E0,0E0,0E0,0E0,0E0,0E0,0E0,0E0,0E0,0E0,0E0,0E0,0E0,0E0,0E0,0E0,0E0,0E0,0E0,0E0,0E0,0E0],"parents":[2147483647,0,0,1,1,2,2,3,3,4,4,5,5,6,6,7,7,8,8,9,9,10,10,11,11,12,12,13,13,14,14,15,15,16,16,17,17,18,18,20,20,21,21,22,22,23,23,24,24,25,25,26,26,27,27,28,28,29,29,30,30],"right_children":[2,4,6,8,10,12,14,16,18,20,22,24,26,28,30,32,34,36,38,-1,40,42,44,46,48,50,52,54,56,58,60,-1,-1,-1,-1,-1,-1,-1,-1,-1,-1,-1,-1,-1,-1,-1,-1,-1,-1,-1,-1,-1,-1,-1,-1,-1,-1,-1,-1,-1,-1],"split_conditions":[-9.054685E0,7.724133E1,-5.84972E0,5.80727E0,5.53038E0,5.53983E0,5.13125E0,-3.41406E0,-1.0344134E1,-8.93138E0,-9.483209E0,-8.27668E0,-6.672006E0,5.46116E0,5.42835E0,-1.0184393E1,-9.248917E0,7.354849E1,-1.7406E-1,-0E0,5.42603E0,-1.132213E1,-4.37496E0,7.9555E1,4.71587E0,-1.555013E1,7.966079E1,-5.175195E0,-1.285883E1,6.06138E0,-5.404269E0,5.890908E-4,-0E0,1.0368543E-3,-0E0,-3.0266726E-6,8.3128567E-4,-7.5288425E-4,-0E0,1.2861427E-3,4.3281523E-4,-0E0,7.550883E-4,-3.7581692E-4,3.577316E-4,1.292967E-4,9.7406673E-4,2.5115572E-4,-2.3738707E-4,1.7121478E-4,-3.9452058E-4,1.187153E-3,-4.729302E-5,-7.323282E-4,2.2558258E-4,-1.8226319E-4,6.191609E-4,1.4295984E-3,2.6423497E-5,-0E0,1.0825256E-3],"split_indices":[7,0,7,5,5,5,5,2,7,2,7,7,7,4,2,7,7,0,2,0,3,2,2,0,5,3,0,7,3,3,7,0,0,0,0,0,0,0,0,0,0,0,0,0,0,0,0,0,0,0,0,0,0,0,0,0,0,0,0,0,0],"split_type":[0,0,0,0,0,0,0,0,0,0,0,0,0,0,0,0,0,0,0,0,0,0,0,0,0,0,0,0,0,0,0,0,0,0,0,0,0,0,0,0,0,0,0,0,0,0,0,0,0,0,0,0,0,0,0,0,0,0,0,0,0],"sum_hessian":[5.921E3,1.264E3,4.657E3,3.83E2,8.81E2,4.36E3,2.97E2,1.76E2,2.07E2,1.63E2,7.18E2,1.827E3,2.533E3,1.17E2,1.8E2,9.7E1,7.9E1,6.5E1,1.42E2,1.4E1,1.49E2,4.67E2,2.51E2,3.77E2,1.45E3,2.259E3,2.74E2,5.5E1,6.2E1,8.6E1,9.4E1,3.7E1,6E1,6.5E1,1.4E1,1.9E1,4.6E1,1.09E2,3.3E1,1.26E2,2.3E1,3.4E1,4.33E2,5.5E1,1.96E2,2.2E2,1.57E2,1.57E2,1.293E3,2.01E2,2.058E3,6.1E1,2.13E2,3.6E1,1.9E1,1.4E1,4.8E1,7.6E1,1E1,4.7E1,4.7E1],"tree_param":{"num_deleted":"0","num_feature":"8","num_nodes":"61","size_leaf_vector":"1"}},{"base_weights":[1.1864544E-4,1.0750153E-2,-1.5856624E-3,-2.5129395E-3,1.2634769E-2,-2.2484753E-3,1.0608847E-2,1.8185802E-3,-1.558062E-2,1.3640872E-3,1.184726E-2,1.0519506E-3,-3.8355875E-3,1.3729291E-2,-7.7689644E-3,6.988695E-3,-2.2454653E-3,-1.1870044E-3,-3.5366545E-5,5.4868883E-3,1.3989102E-2,-2.0862406E-3,9.189404E-3,1.9548137E-2,-4.1675707E-3,1.4601084E-3,8.390227E-3,-9.827885E-4,5.694594E-5,-1.6342894E-4,8.8420464E-4,8.037779E-5,-8.718592E-4,-1.1176801E-3,4.111467E-4,8.200005E-4,4.8060744E-4,-3.8028377E-4,6.421749E-5,1.6543111E-3,3.8690216E-4,-0E0,1.5334879E-3,-2.670336E-4,-3.0299934E-5,-4.1657352E-4,6.0550304E-4],"categories":[],"categories_nodes":[],"categories_segments":[],"categories_sizes":[],"default_left":[0,0,0,0,0,0,0,0,0,0,0,0,0,0,0,0,0,0,0,0,0,0,0,0,0,0,0,0,0,0,0,0,0,0,0,0,0,0,0,0,0,0,0,0,0,0,0],"id":11,"left_children":[1,3,5,7,9,11,13,15,17,-1,19,21,23,25,27,29,31,-1,-1,33,35,37,39,41,43,-1,45,-1,-1,-1,-1,-1,-1,-1,-1,-1,-1,-1,-1,-1,-1,-1,-1,-1,-1,-1,-1],"loss_changes":[1.0818199E-1,2.1690503E-2,4.0360976E-2,6.8950215E-3,4.184164E-3,2.563503E-2,1.5326161E-2,1.9188033E-3,1.179209E-3,0E0,7.52531E-3,4.0362727E-2,2.407591E-2,1.4417928E-2,5.3683184E-3,5.9972834E-3,3.2499467E-3,0E0,0E0,1.3243586E-2,2.64398E-3,2.1329276E-2,1.0956705E-2,1.1228945E-2,1.2972515E-2,0E0,1.1177485E-2,0E0,0E0,0E0,0E0,0E0,0E0,0E0,0E0,0E0,0E0,0E0,0E0,0E0,0E0,0E0,0E0,0E0,0E0,0E0,0E0],"parents":[2147483647,0,0,1,1,2,2,3,3,4,4,5,5,6,6,7,7,8,8,10,10,11,11,12,12,13,13,14,14,15,15,16,16,19,19,20,20,21,21,22,22,23,23,24,24,26,26],"right_children":[2,4,6,8,10,12,14,16,18,-1,20,22,24,26,28,30,32,-1,-1,34,36,38,40,42,44,-1,46,-1,-1,-1,-1,-1,-1,-1,-1,-1,-1,-1,-1,-1,-1,-1,-1,-1,-1,-1,-1],"split_conditions":[-9.483209E0,-1.056319E1,-5.749259E0,-1.0134831E1,-1.151602E1,-8.312254E0,2.96804E0,5.38441E0,-1.053024E1,1.3640872E-3,-5.65248E0,1.50839E0,-7.35874E0,2.65606E0,-4.999613E0,-1.430446E1,7.835917E1,-1.1870044E-3,-3.5366545E-5,7.207106E1,-3.11232E0,7.82455E1,-1.650769E1,-8.062537E0,2.09397E0,1.4601084E-3,-2.67558E0,-9.827885E-4,5.694594E-5,-1.6342894E-4,8.8420464E-4,8.037779E-5,-8.718592E-4,-1.1176801E-3,4.111467E-4,8.200005E-4,4.8060744E-4,-3.8028377E-4,6.421749E-5,1.6543111E-3,3.8690216E-4,-0E0,1.5334879E-3,-2.670336E-4,-3.0299934E-5,-4.1657352E-4,6.0550304E-4],"split_indices":[7,2,7,7,7,7,6,4,3,0,2,2,2,2,7,2,0,0,0,0,3,0,3,7,6,0,6,0,0,0,0,0,0,0,0,0,0,0,0,0,0,0,0,0,0,0,0],"split_type":[0,0,0,0,0,0,0,0,0,0,0,0,0,0,0,0,0,0,0,0,0,0,0,0,0,0,0,0,0,0,0,0,0,0,0,0,0,0,0,0,0,0,0,0,0,0,0],"sum_hessian":[5.918E3,8.25E2,5.093E3,9.6E1,7.29E2,4.839E3,2.54E2,6.7E1,2.9E1,2.9E1,7E2,1.551E3,3.288E3,2.22E2,3.2E1,4E1,2.7E1,1.4E1,1.5E1,1.89E2,5.11E2,1.111E3,4.4E2,4.1E1,3.247E3,5.1E1,1.71E2,1.8E1,1.4E1,1.6E1,2.4E1,1.7E1,1E1,1.3E1,1.76E2,3.13E2,1.98E2,4.32E2,6.79E2,2E1,4.2E2,1.3E1,2.8E1,2.421E3,8.26E2,2.6E1,1.45E2],"tree_param":{"num_deleted":"0","num_feature":"8","num_nodes":"47","size_leaf_vector":"1"}},{"base_weights":[1.9019343E-4,8.076463E-3,-2.3766046E-3,1.359353E-2,4.0920516E-3,-3.165193E-3,1.0150089E-2,5.2284845E-3,1.7003234E-2,9.289203E-3,-5.4549414E-4,1.28205335E-2,-3.4451254E-3,1.1688873E-4,1.6998524E-2,9.395766E-3,-1.64472E-3,1.109445E-2,2.0387528E-2,-2.9234048E-3,1.1773839E-2,-1.3880568E-2,7.2354014E-4,-4.5740837E-3,2.7176252E-2,-1.0314502E-3,-5.185126E-3,1.5189883E-2,-2.4295154E-3,1.1749145E-3,3.0178416E-3,-8.686503E-6,7.196061E-4,5.8216567E-4,-4.3468364E-4,-9.79256E-5,6.889031E-4,1.2051739E-3,3.487434E-4,1.7359332E-4,-1.2685303E-3,8.09046E-4,1.7554908E-4,-2.0721133E-3,-0E0,2.9780203E-4,-1.04007246E-4,-1.2844749E-3,5.6167186E-4,-0E0,1.6981984E-3,4.397941E-4,-1.5292584E-4,-3.3414195E-4,2.360852E-4,1.2331792E-3,-0E0,-4.9296784E-4,4.8365706E-4,-5.3881644E-4,8.642959E-4],"categories":[],"categories_nodes":[],"categories_segments":[],"categories_sizes":[],"default_left":[0,0,0,0,0,0,0,0,0,0,0,0,0,0,0,0,0,0,0,0,0,0,0,0,0,0,0,0,0,0,0,0,0,0,0,0,0,0,0,0,0,0,0,0,0,0,0,0,0,0,0,0,0,0,0,0,0,0,0,0,0],"id":12,"left_children":[1,3,5,7,9,11,13,15,17,19,21,23,25,27,29,31,33,35,37,39,41,43,45,47,49,51,53,55,57,-1,59,-1,-1,-1,-1,-1,-1,-1,-1,-1,-1,-1,-1,-1,-1,-1,-1,-1,-1,-1,-1,-1,-1,-1,-1,-1,-1,-1,-1,-1,-1],"loss_changes":[1.2145691E-1,3.062164E-2,4.3746933E-2,1.502949E-2,2.1824105E-2,1.8071357E-2,1.6082808E-2,6.1180773E-3,5.084373E-3,1.3663888E-2,8.940946E-3,1.9115243E-2,1.6894545E-2,5.6117177E-3,1.0726403E-2,7.400915E-3,5.6135957E-3,7.0587937E-3,9.533122E-3,1.1609092E-2,1.0937769E-2,2.0334013E-2,6.341444E-3,1.1080094E-2,5.0645825E-3,3.4772493E-2,3.583788E-2,1.6150996E-3,8.296788E-3,0E0,1.1268499E-2,0E0,0E0,0E0,0E0,0E0,0E0,0E0,0E0,0E0,0E0,0E0,0E0,0E0,0E0,0E0,0E0,0E0,0E0,0E0,0E0,0E0,0E0,0E0,0E0,0E0,0E0,0E0,0E0,0E0,0E0],"parents":[2147483647,0,0,1,1,2,2,3,3,4,4,5,5,6,6,7,7,8,8,9,9,10,10,11,11,12,12,13,13,14,14,15,15,16,16,17,17,18,18,19,19,20,20,21,21,22,22,23,23,24,24,25,25,26,26,27,27,28,28,30,30],"right_children":[2,4,6,8,10,12,14,16,18,20,22,24,26,28,30,32,34,36,38,40,42,44,46,48,50,52,54,56,58,-1,60,-1,-1,-1,-1,-1,-1,-1,-1,-1,-1,-1,-1,-1,-1,-1,-1,-1,-1,-1,-1,-1,-1,-1,-1,-1,-1,-1,-1,-1,-1],"split_conditions":[-8.888017E0,5.79794E0,-5.749259E0,-5.77036E0,-9.674594E0,-8.2115E0,5.13125E0,-7.35874E0,1.20553E0,-1.056319E1,5.8494E0,5.2793E0,5.53983E0,2.37331E0,7.89567E0,5.36029E0,5.38532E0,5.18304E0,5.69146E0,-1.0235995E1,6.23927E0,9.0976E-1,1.07075E0,-8.163432E0,-8.655495E0,-8.27668E0,-6.672006E0,2.45833E0,9.25032E0,1.1749145E-3,-5.322405E0,-8.686503E-6,7.196061E-4,5.8216567E-4,-4.3468364E-4,-9.79256E-5,6.889031E-4,1.2051739E-3,3.487434E-4,1.7359332E-4,-1.2685303E-3,8.09046E-4,1.7554908E-4,-2.0721133E-3,-0E0,2.9780203E-4,-1.04007246E-4,-1.2844749E-3,5.6167186E-4,-0E0,1.6981984E-3,4.397941E-4,-1.5292584E-4,-3.3414195E-4,2.360852E-4,1.2331792E-3,-0E0,-4.9296784E-4,4.8365706E-4,-5.3881644E-4,8.642959E-4],"split_indices":[7,5,7,2,7,2,5,2,6,2,5,4,5,2,2,5,5,5,5,7,5,6,6,7,7,7,7,6,2,0,7,0,0,0,0,0,0,0,0,0,0,0,0,0,0,0,0,0,0,0,0,0,0,0,0,0,0,0,0,0,0],"split_type":[0,0,0,0,0,0,0,0,0,0,0,0,0,0,0,0,0,0,0,0,0,0,0,0,0,0,0,0,0,0,0,0,0,0,0,0,0,0,0,0,0,0,0,0,0,0,0,0,0,0,0,0,0,0,0,0,0,0,0,0,0],"sum_hessian":[5.97E3,1.475E3,4.495E3,6.07E2,8.68E2,4.237E3,2.58E2,1.85E2,4.22E2,4.19E2,4.49E2,6.6E1,4.171E3,1.11E2,1.47E2,1.24E2,6.1E1,1.66E2,2.56E2,6.4E1,3.55E2,4.5E1,4.04E2,2.7E1,3.9E1,1.772E3,2.399E3,2.1E1,9E1,9.5E1,5.2E1,3.6E1,8.8E1,1.6E1,4.5E1,2.2E1,1.44E2,1.94E2,6.2E1,4.7E1,1.7E1,2.23E2,1.32E2,1.6E1,2.9E1,1.53E2,2.51E2,1.4E1,1.3E1,1E1,2.9E1,2.94E2,1.478E3,2.093E3,3.06E2,1E1,1.1E1,6.1E1,2.9E1,2.3E1,2.9E1],"tree_param":{"num_deleted":"0","num_feature":"8","num_nodes":"61","size_leaf_vector":"1"}},{"base_weights":[4.0463664E-4,1.6478872E-3,-1.8654525E-3,7.5570185E-4,4.9774474E-3,-2.9938358E-3,5.427066E-3,5.616433E-3,-1.2117634E-4,6.4347945E-3,-1.5389654E-2,8.766103E-3,-3.6904989E-3,1.2366191E-2,-0E0,-4.8235045E-3,8.459938E-3,-7.944216E-4,6.425019E-3,8.315547E-3,-1.3113122E-3,-2.0730428E-2,-0E0,1.4598124E-3,1.9197129E-2,-4.1983714E-3,6.4973333E-3,2.1654654E-2,4.3206993E-3,-6.9545386E-3,1.0028571E-2,-0E0,-6.111393E-4,4.9179804E-4,-2.3499683E-4,3.332207E-4,-6.672093E-5,-1.7332843E-4,7.5920706E-4,7.495961E-4,2.7069994E-4,-2.0387182E-4,5.40961E-4,-1.2665791E-3,-0E0,-2.4221498E-4,2.8512464E-4,6.71406E-5,1.1758897E-3,-3.5662638E-4,-1.1723321E-4,-2.8323603E-4,6.540231E-4,8.929453E-5,1.3148075E-3,-4.6831332E-4,4.2232298E-4,-9.984699E-4,-7.9933576E-5,-0E0,1.3258001E-3],"categories":[],"categories_nodes":[],"categories_segments":[],"categories_sizes":[],"default_left":[0,0,0,0,0,0,0,0,0,0,0,0,0,0,0,0,0,0,0,0,0,0,0,0,0,0,0,0,0,0,0,0,0,0,0,0,0,0,0,0,0,0,0,0,0,0,0,0,0,0,0,0,0,0,0,0,0,0,0,0,0],"id":13,"left_children":[1,3,5,7,9,11,13,15,17,19,21,23,25,27,29,31,33,35,37,39,41,43,-1,45,47,49,51,53,55,57,59,-1,-1,-1,-1,-1,-1,-1,-1,-1,-1,-1,-1,-1,-1,-1,-1,-1,-1,-1,-1,-1,-1,-1,-1,-1,-1,-1,-1,-1,-1],"loss_changes":[1.6841676E-2,1.0975527E-2,1.693811E-2,1.3729142E-2,2.288973E-2,1.4427338E-2,1.1221917E-2,1.4950599E-2,1.0913973E-2,1.1637706E-2,4.725295E-3,5.070218E-3,8.727916E-3,6.6501815E-3,9.832172E-3,4.293357E-3,7.6763853E-3,9.0417955E-3,2.1065325E-2,9.772547E-3,3.9669108E-3,1.6367696E-3,0E0,1.7717165E-3,2.8063543E-5,8.031771E-3,6.66037E-3,1.9403137E-3,4.1658473E-3,4.1545015E-3,1.074036E-2,0E0,0E0,0E0,0E0,0E0,0E0,0E0,0E0,0E0,0E0,0E0,0E0,0E0,0E0,0E0,0E0,0E0,0E0,0E0,0E0,0E0,0E0,0E0,0E0,0E0,0E0,0E0,0E0,0E0,0E0],"parents":[2147483647,0,0,1,1,2,2,3,3,4,4,5,5,6,6,7,7,8,8,9,9,10,10,11,11,12,12,13,13,14,14,15,15,16,16,17,17,18,18,19,19,20,20,21,21,23,23,24,24,25,25,26,26,27,27,28,28,29,29,30,30],"right_children":[2,4,6,8,10,12,14,16,18,20,22,24,26,28,30,32,34,36,38,40,42,44,-1,46,48,50,52,54,56,58,60,-1,-1,-1,-1,-1,-1,-1,-1,-1,-1,-1,-1,-1,-1,-1,-1,-1,-1,-1,-1,-1,-1,-1,-1,-1,-1,-1,-1,-1,-1],"split_conditions":[2.65606E0,9.4689E-1,6.16531E0,-6.55178E0,6.32767E0,-1.637312E1,6.36575E0,-1.555013E1,9.5891E0,6.06397E0,2.41272E0,5.48992E0,1.19367E1,5.62763E0,6.85772E0,-8.2115E0,2.8215803E3,4.6627E0,5.48434E0,2.2633757E3,5.88932E0,1.98119E0,-0E0,3.27051E0,2.277873E3,1.026E0,5.54457E0,4.1904E0,6.19154E0,5.29128E0,5.8494E0,-0E0,-6.111393E-4,4.9179804E-4,-2.3499683E-4,3.332207E-4,-6.672093E-5,-1.7332843E-4,7.5920706E-4,7.495961E-4,2.7069994E-4,-2.0387182E-4,5.40961E-4,-1.2665791E-3,-0E0,-2.4221498E-4,2.8512464E-4,6.71406E-5,1.1758897E-3,-3.5662638E-4,-1.1723321E-4,-2.8323603E-4,6.540231E-4,8.929453E-5,1.3148075E-3,-4.6831332E-4,4.2232298E-4,-9.984699E-4,-7.9933576E-5,-0E0,1.3258001E-3],"split_indices":[2,2,4,2,4,3,4,3,3,5,2,5,2,5,2,2,1,4,5,1,4,6,0,2,1,6,4,2,4,5,5,0,0,0,0,0,0,0,0,0,0,0,0,0,0,0,0,0,0,0,0,0,0,0,0,0,0,0,0,0,0],"split_type":[0,0,0,0,0,0,0,0,0,0,0,0,0,0,0,0,0,0,0,0,0,0,0,0,0,0,0,0,0,0,0,0,0,0,0,0,0,0,0,0,0,0,0,0,0,0,0,0,0,0,0,0,0,0,0,0,0,0,0,0,0],"sum_hessian":[5.973E3,3.888E3,2.085E3,3.091E3,7.97E2,1.818E3,2.67E2,4.89E2,2.602E3,7.49E2,4.8E1,9.3E1,1.725E3,1.24E2,1.43E2,9.7E1,3.92E2,2.374E3,2.28E2,6.13E2,1.36E2,3.7E1,1.1E1,6.1E1,3.2E1,1.653E3,7.2E1,5.1E1,7.3E1,9E1,5.3E1,5.4E1,4.3E1,3.62E2,3E1,1.47E2,2.227E3,1.02E2,1.26E2,1.74E2,4.39E2,1.18E2,1.8E1,2.7E1,1E1,1.5E1,4.6E1,1.1E1,2.1E1,6.18E2,1.035E3,2E1,5.2E1,1.4E1,3.7E1,1.1E1,6.2E1,2E1,7E1,3.1E1,2.2E1],"tree_param":{"num_deleted":"0","num_feature":"8","num_nodes":"61","size_leaf_vector":"1"}},{"base_weights":[3.614469E-4,7.142303E-3,-1.8957801E-3,9.514982E-3,2.242083E-3,-2.9861466E-3,8.8177435E-3,1.3521442E-3,1.1369641E-2,5.8664386E-3,-5.404782E-3,-4.7509398E-4,-4.7026277E-3,-6.2671554E-4,1.515137E-2,-0E0,1.3619452E-3,1.2138984E-2,-0E0,1.2045673E-2,2.218773E-3,-2.23319E-2,-1.0448053E-3,4.1050976E-3,-3.835743E-3,-5.542113E-3,2.3776558E-3,2.460956E-3,-9.5862495E-3,1.8154323E-2,-0E0,4.3730024E-4,-1.7942933E-4,2.5813837E-4,6.8524614E-4,-3.9084954E-4,4.3014815E-4,1.0531605E-3,2.5567025E-4,-2.3825171E-4,3.4140694E-4,-0E0,-1.5611452E-3,-1.8719914E-4,8.625421E-4,4.660584E-5,5.695929E-4,-3.386008E-4,1.2480996E-4,-3.0614375E-4,5.1238475E-4,5.5587146E-4,-6.136011E-4,-1.8171195E-6,8.9041906E-4,7.693278E-5,-1.1666423E-3,1.2433984E-3,6.3589786E-4,-2.9899125E-4,8.6160953E-4],"categories":[],"categories_nodes":[],"categories_segments":[],"categories_sizes":[],"default_left":[0,0,0,0,0,0,0,0,0,0,0,0,0,0,0,0,0,0,0,0,0,0,0,0,0,0,0,0,0,0,0,0,0,0,0,0,0,0,0,0,0,0,0,0,0,0,0,0,0,0,0,0,0,0,0,0,0,0,0,0,0],"id":14,"left_children":[1,3,5,7,9,11,13,15,17,19,21,23,25,27,29,31,-1,33,35,37,39,41,43,45,47,49,51,53,55,57,59,-1,-1,-1,-1,-1,-1,-1,-1,-1,-1,-1,-1,-1,-1,-1,-1,-1,-1,-1,-1,-1,-1,-1,-1,-1,-1,-1,-1,-1,-1],"loss_changes":[9.245031E-2,1.6370833E-2,5.195225E-2,1.3912283E-2,1.4157071E-2,1.7104298E-2,2.580776E-2,7.8013623E-3,7.835329E-3,6.5259114E-3,9.078283E-3,2.5925035E-2,1.4624443E-2,5.1070484E-3,9.843204E-3,5.729017E-3,0E0,6.3668117E-3,3.1782635E-3,4.838584E-3,7.7715213E-3,3.1075124E-3,5.084334E-3,1.496463E-2,1.8757911E-2,1.948522E-2,3.1133447E-2,5.9938314E-3,9.708868E-3,3.3706874E-3,5.8954405E-3,0E0,0E0,0E0,0E0,0E0,0E0,0E0,0E0,0E0,0E0,0E0,0E0,0E0,0E0,0E0,0E0,0E0,0E0,0E0,0E0,0E0,0E0,0E0,0E0,0E0,0E0,0E0,0E0,0E0,0E0],"parents":[2147483647,0,0,1,1,2,2,3,3,4,4,5,5,6,6,7,7,8,8,9,9,10,10,11,11,12,12,13,13,14,14,15,15,17,17,18,18,19,19,20,20,21,21,22,22,23,23,24,24,25,25,26,26,27,27,28,28,29,29,30,30],"right_children":[2,4,6,8,10,12,14,16,18,20,22,24,26,28,30,32,-1,34,36,38,40,42,44,46,48,50,52,54,56,58,60,-1,-1,-1,-1,-1,-1,-1,-1,-1,-1,-1,-1,-1,-1,-1,-1,-1,-1,-1,-1,-1,-1,-1,-1,-1,-1,-1,-1,-1,-1],"split_conditions":[-8.875113E0,6.04959E0,-6.014147E0,7.561372E1,1.50224E0,5.53983E0,5.14012E0,2.53852E0,6.302E0,-1.009088E1,1.61905E0,-7.700181E0,-6.690496E0,2.5159155E3,8.53635E1,-1.0235995E1,1.3619452E-3,5.04431E0,6.50521E0,6.25748E0,2.2466543E3,2.352745E3,2.62904E0,8.084046E1,2.24285E0,8.732169E1,8.347448E1,2.4153193E3,8.05782E1,5.39816E0,6.10715E0,4.3730024E-4,-1.7942933E-4,2.5813837E-4,6.8524614E-4,-3.9084954E-4,4.3014815E-4,1.0531605E-3,2.5567025E-4,-2.3825171E-4,3.4140694E-4,-0E0,-1.5611452E-3,-1.8719914E-4,8.625421E-4,4.660584E-5,5.695929E-4,-3.386008E-4,1.2480996E-4,-3.0614375E-4,5.1238475E-4,5.5587146E-4,-6.136011E-4,-1.8171195E-6,8.9041906E-4,7.693278E-5,-1.1666423E-3,1.2433984E-3,6.3589786E-4,-2.9899125E-4,8.6160953E-4],"split_indices":[7,5,7,0,6,5,5,6,4,7,6,7,7,1,0,7,0,4,4,5,1,1,6,0,6,0,0,1,0,4,4,0,0,0,0,0,0,0,0,0,0,0,0,0,0,0,0,0,0,0,0,0,0,0,0,0,0,0,0,0,0],"split_type":[0,0,0,0,0,0,0,0,0,0,0,0,0,0,0,0,0,0,0,0,0,0,0,0,0,0,0,0,0,0,0,0,0,0,0,0,0,0,0,0,0,0,0,0,0,0,0,0,0,0,0,0,0,0,0,0,0,0,0,0,0],"sum_hessian":[6.004E3,1.51E3,4.494E3,1.003E3,5.07E2,4.088E3,4.06E2,1.96E2,8.07E2,3.53E2,1.54E2,1.684E3,2.404E3,1.57E2,2.49E2,1.86E2,1E1,7.61E2,4.6E1,1.2E2,2.33E2,2.6E1,1.28E2,7E2,9.84E2,2.162E3,2.42E2,1.09E2,4.8E1,2.03E2,4.6E1,5.1E1,1.35E2,1.52E2,6.09E2,2.8E1,1.8E1,4.5E1,7.5E1,8.4E1,1.49E2,1E1,1.6E1,1.17E2,1.1E1,4.98E2,2.02E2,6.83E2,3.01E2,2.092E3,7E1,1.56E2,8.6E1,8.9E1,2E1,2.3E1,2.5E1,8.1E1,1.22E2,3.1E1,1.5E1],"tree_param":{"num_deleted":"0","num_feature":"8","num_nodes":"61","size_leaf_vector":"1"}},{"base_weights":[-4.4295978E-4,5.569416E-3,-2.9408112E-3,8.991742E-3,2.3438756E-3,-3.967375E-3,6.8522184E-3,4.8660417E-3,1.1202023E-2,-2.176692E-3,7.9008415E-3,-8.1836083E-4,-5.356521E-3,1.0540476E-2,-3.0853904E-3,1.4635765E-3,1.2609866E-2,-0E0,1.2120687E-2,-6.869461E-3,2.7436651E-3,-1.010186E-3,1.2016806E-2,-4.511177E-3,4.3057394E-3,-4.837405E-4,-7.011809E-3,-0E0,1.2540803E-2,2.0247849E-4,-5.4846727E-3,-4.1965666E-4,2.5185876E-4,9.3752827E-4,-0E0,3.1034197E-4,-4.036225E-4,1.381405E-3,5.442942E-4,2.7613845E-4,-4.85745E-4,3.4266926E-4,-4.76647E-4,-6.613873E-4,-0E0,9.111245E-4,3.4819194E-4,-1.0613579E-4,-5.996839E-4,3.3878357E-4,-7.515129E-4,-1.7321913E-4,3.737476E-4,-1.3247428E-4,-4.3040127E-4,4.0674154E-4,-5.2714156E-4,8.29667E-6,7.4257667E-4,-5.202646E-4,-0E0],"categories":[],"categories_nodes":[],"categories_segments":[],"categories_sizes":[],"default_left":[0,0,0,0,0,0,0,0,0,0,0,0,0,0,0,0,0,0,0,0,0,0,0,0,0,0,0,0,0,0,0,0,0,0,0,0,0,0,0,0,0,0,0,0,0,0,0,0,0,0,0,0,0,0,0,0,0,0,0,0,0],"id":15,"left_children":[1,3,5,7,9,11,13,15,17,19,21,23,25,27,29,31,33,35,37,39,41,43,45,47,49,51,53,55,57,-1,59,-1,-1,-1,-1,-1,-1,-1,-1,-1,-1,-1,-1,-1,-1,-1,-1,-1,-1,-1,-1,-1,-1,-1,-1,-1,-1,-1,-1,-1,-1],"loss_changes":[8.885544E-2,1.7942578E-2,4.2002227E-2,5.8527067E-3,2.3374032E-2,1.6066622E-2,1.5072487E-2,6.610368E-3,5.705662E-3,1.1768666E-2,1.6407307E-2,2.25765E-2,2.0419918E-2,6.718993E-3,1.8604808E-3,7.5263926E-3,6.6835396E-3,2.0086216E-3,5.0966293E-3,9.711333E-3,1.140166E-2,2.6720124E-3,6.5421015E-3,1.1144554E-2,2.2582572E-2,1.5803251E-2,1.2387939E-2,3.967364E-3,5.6159347E-3,0E0,3.2896465E-3,0E0,0E0,0E0,0E0,0E0,0E0,0E0,0E0,0E0,0E0,0E0,0E0,0E0,0E0,0E0,0E0,0E0,0E0,0E0,0E0,0E0,0E0,0E0,0E0,0E0,0E0,0E0,0E0,0E0,0E0],"parents":[2147483647,0,0,1,1,2,2,3,3,4,4,5,5,6,6,7,7,8,8,9,9,10,10,11,11,12,12,13,13,14,14,15,15,16,16,17,17,18,18,19,19,20,20,21,21,22,22,23,23,24,24,25,25,26,26,27,27,28,28,30,30],"right_children":[2,4,6,8,10,12,14,16,18,20,22,24,26,28,30,32,34,36,38,40,42,44,46,48,50,52,54,56,58,-1,60,-1,-1,-1,-1,-1,-1,-1,-1,-1,-1,-1,-1,-1,-1,-1,-1,-1,-1,-1,-1,-1,-1,-1,-1,-1,-1,-1,-1,-1,-1],"split_conditions":[-8.718969E0,-9.483209E0,-6.065076E0,-9.54378E0,7.978602E1,-8.003763E0,2.32481E0,2.21923E0,1.9868767E3,5.46116E0,1.07075E0,8.080415E1,-1.039304E1,5.02986E0,-1.62917E1,7.553115E1,-1.35245E1,2.81752E0,4.64093E0,-1.5734E0,5.42603E0,2.177356E3,2.4213005E3,2.5263127E3,2.7459514E3,-1.272111E1,7.90833E1,2.4356187E3,-2.26699E0,2.0247849E-4,-8.12457E0,-4.1965666E-4,2.5185876E-4,9.3752827E-4,-0E0,3.1034197E-4,-4.036225E-4,1.381405E-3,5.442942E-4,2.7613845E-4,-4.85745E-4,3.4266926E-4,-4.76647E-4,-6.613873E-4,-0E0,9.111245E-4,3.4819194E-4,-1.0613579E-4,-5.996839E-4,3.3878357E-4,-7.515129E-4,-1.7321913E-4,3.737476E-4,-1.3247428E-4,-4.3040127E-4,4.0674154E-4,-5.2714156E-4,8.29667E-6,7.4257667E-4,-5.202646E-4,-0E0],"split_indices":[7,7,7,3,0,7,6,6,1,4,6,0,3,4,3,0,3,3,4,6,3,1,1,1,1,3,0,1,6,0,3,0,0,0,0,0,0,0,0,0,0,0,0,0,0,0,0,0,0,0,0,0,0,0,0,0,0,0,0,0,0],"split_type":[0,0,0,0,0,0,0,0,0,0,0,0,0,0,0,0,0,0,0,0,0,0,0,0,0,0,0,0,0,0,0,0,0,0,0,0,0,0,0,0,0,0,0,0,0,0,0,0,0,0,0,0,0,0,0,0,0,0,0,0,0],"sum_hessian":[5.932E3,1.729E3,4.203E3,8.23E2,9.06E2,3.814E3,3.89E2,3.04E2,5.19E2,4.9E2,4.16E2,1.19E3,2.624E3,2.91E2,9.8E1,2.21E2,8.3E1,3.7E1,4.82E2,2.61E2,2.29E2,1.24E2,2.92E2,7.03E2,4.87E2,6.81E2,1.943E3,4.3E1,2.48E2,1.4E1,8.4E1,5.1E1,1.7E2,5.6E1,2.7E1,1.9E1,1.8E1,2.8E1,4.54E2,4.2E1,2.19E2,1.78E2,5.1E1,1.5E1,1.09E2,1.21E2,1.71E2,5.44E2,1.59E2,4.37E2,5E1,5.05E2,1.76E2,5.38E2,1.405E3,2.2E1,2.1E1,4.6E1,2.02E2,5.3E1,3.1E1],"tree_param":{"num_deleted":"0","num_feature":"8","num_nodes":"61","size_leaf_vector":"1"}},{"base_weights":[-3.9583258E-5,5.8839316E-3,-2.5204606E-3,2.5099285E-3,1.0382378E-2,-3.4917332E-3,6.596315E-3,4.4729887E-3,-8.816896E-3,9.318246E-3,3.330949E-2,1.4442664E-2,-3.927E-3,1.7073546E-2,3.1208254E-3,9.018414E-3,1.4597676E-3,-1.2699508E-2,7.298198E-4,6.877576E-4,1.0706234E-2,2.2424299E-3,1.15413415E-4,-1.5565254E-4,1.9356651E-2,-8.885686E-4,-5.0574266E-3,1.285487E-3,3.8742568E-4,-8.5509237E-4,1.0872676E-2,7.652089E-5,6.226333E-4,-2.7944564E-4,2.506266E-4,-8.262149E-4,-0E0,6.3771213E-4,-3.368919E-4,6.1697286E-4,2.8846678E-4,2.7302053E-4,1.4324583E-3,-2.8304267E-4,3.3651944E-4,2.0016514E-5,-3.16698E-4,4.9138564E-4,-4.003217E-4,-2.4787898E-4,3.778711E-4,-4.018646E-4,7.000927E-4],"categories":[],"categories_nodes":[],"categories_segments":[],"categories_sizes":[],"default_left":[0,0,0,0,0,0,0,0,0,0,0,0,0,0,0,0,0,0,0,0,0,0,0,0,0,0,0,0,0,0,0,0,0,0,0,0,0,0,0,0,0,0,0,0,0,0,0,0,0,0,0,0,0],"id":16,"left_children":[1,3,5,7,9,11,13,15,17,19,21,23,25,27,29,31,33,35,-1,37,39,-1,-1,-1,41,43,45,-1,47,49,51,-1,-1,-1,-1,-1,-1,-1,-1,-1,-1,-1,-1,-1,-1,-1,-1,-1,-1,-1,-1,-1,-1],"loss_changes":[8.702862E-2,2.5139567E-2,3.6920752E-2,2.2062635E-2,1.333458E-2,2.8731313E-2,1.2310615E-2,1.0841165E-2,1.2904148E-2,7.322401E-3,5.19713E-3,9.017445E-3,1.2191821E-2,1.0493837E-2,1.0411376E-2,7.145945E-3,1.3418091E-2,6.711222E-3,0E0,1.0454068E-2,2.947703E-3,0E0,0E0,0E0,5.600909E-3,3.7563577E-2,1.9337147E-2,0E0,3.1134689E-3,6.4728553E-3,7.3363297E-3,0E0,0E0,0E0,0E0,0E0,0E0,0E0,0E0,0E0,0E0,0E0,0E0,0E0,0E0,0E0,0E0,0E0,0E0,0E0,0E0,0E0,0E0],"parents":[2147483647,0,0,1,1,2,2,3,3,4,4,5,5,6,6,7,7,8,8,9,9,10,10,11,11,12,12,13,13,14,14,15,15,16,16,17,17,19,19,20,20,24,24,25,25,26,26,28,28,29,29,30,30],"right_children":[2,4,6,8,10,12,14,16,18,20,22,24,26,28,30,32,34,36,-1,38,40,-1,-1,-1,42,44,46,-1,48,50,52,-1,-1,-1,-1,-1,-1,-1,-1,-1,-1,-1,-1,-1,-1,-1,-1,-1,-1,-1,-1,-1,-1],"split_conditions":[-8.718969E0,-1.82232E0,-6.014147E0,-8.946277E0,2.8215803E3,-7.13693E0,2.65606E0,-1.00037E1,-8.744798E0,4.9738E0,5.51275E0,-1.614843E1,-8.048569E0,2.504733E3,-5.404269E0,-9.32197E0,7.732759E1,8.159329E1,7.298198E-4,-9.442088E0,2.4813948E3,2.2424299E-3,1.15413415E-4,-1.5565254E-4,-8.163432E0,1.50839E0,7.752145E1,1.285487E-3,8.231907E1,8.373198E1,7.334225E1,7.652089E-5,6.226333E-4,-2.7944564E-4,2.506266E-4,-8.262149E-4,-0E0,6.3771213E-4,-3.368919E-4,6.1697286E-4,2.8846678E-4,2.7302053E-4,1.4324583E-3,-2.8304267E-4,3.3651944E-4,2.0016514E-5,-3.16698E-4,4.9138564E-4,-4.003217E-4,-2.4787898E-4,3.778711E-4,-4.018646E-4,7.000927E-4],"split_indices":[7,2,7,7,1,2,2,7,7,4,4,3,7,1,7,2,0,0,0,7,1,0,0,0,7,2,0,0,0,0,0,0,0,0,0,0,0,0,0,0,0,0,0,0,0,0,0,0,0,0,0,0,0],"split_type":[0,0,0,0,0,0,0,0,0,0,0,0,0,0,0,0,0,0,0,0,0,0,0,0,0,0,0,0,0,0,0,0,0,0,0,0,0,0,0,0,0,0,0,0,0,0,0,0,0,0,0,0,0],"sum_hessian":[5.943E3,1.742E3,4.201E3,1.009E3,7.33E2,3.807E3,3.94E2,8.68E2,1.41E2,7.06E2,2.7E1,8.4E1,3.723E3,9E1,3.04E2,3.32E2,5.36E2,1.25E2,1.6E1,1.08E2,5.98E2,1.7E1,1E1,1.4E1,7E1,1.034E3,2.689E3,5.5E1,3.5E1,1.93E2,1.11E2,1.14E2,2.18E2,1.7E2,3.66E2,9.8E1,2.7E1,4.6E1,6.2E1,4.33E2,1.65E2,3.3E1,3.7E1,6.44E2,3.9E2,4.95E2,2.194E3,2.2E1,1.3E1,1.38E2,5.5E1,1.1E1,1E2],"tree_param":{"num_deleted":"0","num_feature":"8","num_nodes":"53","size_leaf_vector":"1"}},{"base_weights":[2.1421823E-4,5.3493766E-4,-5.4046046E-3,-3.926708E-3,9.41976E-4,-6.776722E-3,9.993151E-4,-6.960147E-3,2.930015E-3,6.9731916E-3,6.14062E-4,-8.327322E-3,7.3053655E-3,-8.691931E-3,6.794562E-3,1.1855862E-4,1.1866002E-3,1.550875E-2,-0E0,4.8445626E-3,2.6605502E-4,-1.15598235E-2,-0E0,-0E0,7.437795E-4,-5.2765425E-4,8.587269E-5,1.3907587E-3,-5.3250965E-6,-6.1109377E-4,2.9028158E-4,5.6170084E-4,1.6678348E-3,3.7720948E-4,-3.8407472E-4,1.2528066E-5,6.533094E-4,-1.513239E-4,4.2812437E-5,-0E0,-6.789732E-4,1.1191735E-3,-1.6668349E-4],"categories":[],"categories_nodes":[],"categories_segments":[],"categories_sizes":[],"default_left":[0,0,0,0,0,0,0,0,0,0,0,0,0,0,0,0,0,0,0,0,0,0,0,0,0,0,0,0,0,0,0,0,0,0,0,0,0,0,0,0,0,0,0],"id":17,"left_children":[1,3,5,7,9,11,-1,13,15,17,19,21,23,25,27,29,-1,31,33,35,37,39,41,-1,-1,-1,-1,-1,-1,-1,-1,-1,-1,-1,-1,-1,-1,-1,-1,-1,-1,-1,-1],"loss_changes":[1.0153518E-2,9.878797E-3,9.335957E-3,9.74156E-3,9.432139E-3,6.517212E-3,0E0,7.895079E-3,5.098067E-3,1.5263082E-2,6.710477E-3,8.072291E-3,1.4279258E-3,6.558737E-3,7.1257665E-3,7.7106818E-3,0E0,3.8638525E-3,8.0005815E-3,1.1922375E-2,8.638934E-3,5.1756147E-3,6.6679246E-3,0E0,0E0,0E0,0E0,0E0,0E0,0E0,0E0,0E0,0E0,0E0,0E0,0E0,0E0,0E0,0E0,0E0,0E0,0E0,0E0],"parents":[2147483647,0,0,1,1,2,2,3,3,4,4,5,5,7,7,8,8,9,9,10,10,11,11,12,12,13,13,14,14,15,15,17,17,18,18,19,19,20,20,21,21,22,22],"right_children":[2,4,6,8,10,12,-1,14,16,18,20,22,24,26,28,30,-1,32,34,36,38,40,42,-1,-1,-1,-1,-1,-1,-1,-1,-1,-1,-1,-1,-1,-1,-1,-1,-1,-1,-1,-1],"split_conditions":[6.42478E0,2.0148956E3,2.5648E3,1.88014E0,2.0958752E3,6.0852E0,9.993151E-4,1.165095E1,8.398389E1,7.872724E1,4.91484E0,6.76426E0,8.1532E1,6.28982E0,5.67162E0,1.7649207E3,1.1866002E-3,2.72428E0,1.46533E0,7.94315E1,5.26776E0,-1.2187E0,2.2345574E3,-0E0,7.437795E-4,-5.2765425E-4,8.587269E-5,1.3907587E-3,-5.3250965E-6,-6.1109377E-4,2.9028158E-4,5.6170084E-4,1.6678348E-3,3.7720948E-4,-3.8407472E-4,1.2528066E-5,6.533094E-4,-1.513239E-4,4.2812437E-5,-0E0,-6.789732E-4,1.1191735E-3,-1.6668349E-4],"split_indices":[5,1,1,6,1,4,0,3,0,0,5,5,0,4,4,1,0,6,6,0,5,6,1,0,0,0,0,0,0,0,0,0,0,0,0,0,0,0,0,0,0,0,0],"split_type":[0,0,0,0,0,0,0,0,0,0,0,0,0,0,0,0,0,0,0,0,0,0,0,0,0,0,0,0,0,0,0,0,0,0,0,0,0,0,0,0,0,0,0],"sum_hessian":[5.902E3,5.601E3,3.01E2,4.47E2,5.154E3,2.9E2,1.1E1,3.2E2,1.27E2,2.49E2,4.905E3,2.68E2,2.2E1,2.91E2,2.9E1,1.17E2,1E1,1.13E2,1.36E2,3.5E2,4.555E3,1.99E2,6.9E1,1.1E1,1.1E1,2.55E2,3.6E1,1E1,1.9E1,3.1E1,8.6E1,9.7E1,1.6E1,6.7E1,6.9E1,2.33E2,1.17E2,6.66E2,3.889E3,2.7E1,1.72E2,1.1E1,5.8E1],"tree_param":{"num_deleted":"0","num_feature":"8","num_nodes":"43","size_leaf_vector":"1"}},{"base_weights":[1.23536E-4,5.991661E-3,-1.6191939E-3,1.3999194E-3,8.773267E-3,-2.27645E-3,9.185261E-3,7.467157E-3,-2.6015448E-3,-8.748535E-3,1.0338336E-2,8.667039E-3,-2.6199482E-3,1.1737775E-2,-5.924143E-3,-0E0,1.0818122E-2,-7.5156996E-3,5.364605E-3,-1.4201388E-2,3.2314923E-4,1.9486077E-2,9.568017E-3,-0E0,2.1304833E-2,-3.806133E-3,6.813883E-4,1.2248637E-3,7.380791E-3,-9.896758E-4,1.4661619E-4,1.17175725E-4,-5.747082E-4,6.995382E-4,1.3155083E-4,-6.241214E-4,1.5615679E-4,4.5039735E-4,-7.8308536E-4,1.3962001E-4,-1.0271976E-3,1.7496136E-3,3.7036816E-4,2.0714986E-6,5.2560045E-4,-7.881002E-4,5.1957037E-4,1.2483656E-3,-0E0,-0E0,-2.3886339E-4,3.6593294E-4,-2.340914E-5,-2.7991823E-4,5.2856834E-4],"categories":[],"categories_nodes":[],"categories_segments":[],"categories_sizes":[],"default_left":[0,0,0,0,0,0,0,0,0,0,0,0,0,0,0,0,0,0,0,0,0,0,0,0,0,0,0,0,0,0,0,0,0,0,0,0,0,0,0,0,0,0,0,0,0,0,0,0,0,0,0,0,0,0,0],"id":18,"left_children":[1,3,5,7,9,11,13,15,17,19,21,23,25,27,29,31,33,35,37,39,-1,41,43,45,47,49,51,-1,53,-1,-1,-1,-1,-1,-1,-1,-1,-1,-1,-1,-1,-1,-1,-1,-1,-1,-1,-1,-1,-1,-1,-1,-1,-1,-1],"loss_changes":[6.179607E-2,1.668575E-2,3.2088287E-2,1.35674635E-2,2.3558818E-2,1.5800035E-2,1.0524044E-2,6.3522235E-3,1.25867E-2,6.2571256E-3,2.4468452E-3,1.2472426E-2,1.6899306E-2,9.139791E-3,5.6748367E-3,2.382964E-3,2.482947E-3,1.1701474E-2,8.132185E-3,7.5450856E-3,0E0,4.865581E-3,5.5720806E-3,1.2495866E-2,1.277566E-3,1.1779193E-2,9.06623E-3,0E0,7.8034056E-3,0E0,0E0,0E0,0E0,0E0,0E0,0E0,0E0,0E0,0E0,0E0,0E0,0E0,0E0,0E0,0E0,0E0,0E0,0E0,0E0,0E0,0E0,0E0,0E0,0E0,0E0],"parents":[2147483647,0,0,1,1,2,2,3,3,4,4,5,5,6,6,7,7,8,8,9,9,10,10,11,11,12,12,13,13,14,14,15,15,16,16,17,17,18,18,19,19,21,21,22,22,23,23,24,24,25,25,26,26,28,28],"right_children":[2,4,6,8,10,12,14,16,18,20,22,24,26,28,30,32,34,36,38,40,-1,42,44,46,48,50,52,-1,54,-1,-1,-1,-1,-1,-1,-1,-1,-1,-1,-1,-1,-1,-1,-1,-1,-1,-1,-1,-1,-1,-1,-1,-1,-1,-1],"split_conditions":[-8.975118E0,-4.31469E0,-5.749259E0,-1.0048947E1,2.0073983E3,-7.13693E0,2.91552E0,-1.132213E1,5.54875E0,6.14325E0,4.6627E0,-8.163432E0,2.04354E0,2.37331E0,3.53287E0,-1.0410133E1,5.52991E0,2.5893132E3,-4.77571E0,-2.26699E0,3.2314923E-4,2.270904E3,4.93167E0,5.28863E0,2.28865E0,-1.066721E1,-8.420797E0,1.2248637E-3,-2.67558E0,-9.896758E-4,1.4661619E-4,1.17175725E-4,-5.747082E-4,6.995382E-4,1.3155083E-4,-6.241214E-4,1.5615679E-4,4.5039735E-4,-7.8308536E-4,1.3962001E-4,-1.0271976E-3,1.7496136E-3,3.7036816E-4,2.0714986E-6,5.2560045E-4,-7.881002E-4,5.1957037E-4,1.2483656E-3,-0E0,-0E0,-2.3886339E-4,3.6593294E-4,-2.340914E-5,-2.7991823E-4,5.2856834E-4],"split_indices":[7,2,7,7,1,2,6,2,4,4,4,7,6,2,6,7,4,1,2,6,0,1,4,4,6,3,7,0,6,0,0,0,0,0,0,0,0,0,0,0,0,0,0,0,0,0,0,0,0,0,0,0,0,0,0],"split_type":[0,0,0,0,0,0,0,0,0,0,0,0,0,0,0,0,0,0,0,0,0,0,0,0,0,0,0,0,0,0,0,0,0,0,0,0,0,0,0,0,0,0,0,0,0,0,0,0,0,0,0,0,0,0,0],"sum_hessian":[5.998E3,1.386E3,4.612E3,5.37E2,8.49E2,4.357E3,2.55E2,2.23E2,3.14E2,6.4E1,7.85E2,1.23E2,4.234E3,2.24E2,3.1E1,6.3E1,1.6E2,2.02E2,1.12E2,5.2E1,1.2E1,4.9E1,7.36E2,7.6E1,4.7E1,3.137E3,1.097E3,5E1,1.74E2,1.6E1,1.5E1,4.8E1,1.5E1,1.06E2,5.4E1,1.44E2,5.8E1,1E2,1.2E1,1E1,4.2E1,1.7E1,3.2E1,7.6E1,6.6E2,2.8E1,4.8E1,3.6E1,1.1E1,6.3E2,2.507E3,1.74E2,9.23E2,2.8E1,1.46E2],"tree_param":{"num_deleted":"0","num_feature":"8","num_nodes":"55","size_leaf_vector":"1"}},{"base_weights":[3.0069635E-4,7.0787477E-3,-1.6302263E-3,1.4535888E-2,5.2431067E-3,-2.466181E-3,7.067368E-3,1.4330168E-3,1.2475768E-2,8.186677E-3,-3.253526E-4,3.2106119E-3,-3.3781102E-3,-4.205747E-3,1.3620971E-2,-1.5625567E-4,1.3826167E-2,1.1897608E-2,4.4642687E-3,9.021019E-3,-2.065989E-3,8.6926455E-3,-2.5220579E-3,1.523228E-4,-4.4943136E-3,-0E0,-1.1984999E-2,1.847088E-2,8.859548E-3,4.3955838E-4,9.264252E-4,-2.22003E-4,6.6668674E-4,8.370014E-4,8.6905835E-5,-5.8374944E-4,9.949411E-4,3.4227569E-4,-2.548491E-4,1.7722394E-6,6.1381265E-4,-3.276312E-4,2.5754847E-4,-1.3929719E-4,4.2249294E-4,-8.4735795E-5,-3.6983113E-4,7.7394414E-4,-3.5694902E-4,-8.594027E-4,-0E0,1.0632012E-3,-0E0,1.919137E-4,7.960751E-4],"categories":[],"categories_nodes":[],"categories_segments":[],"categories_sizes":[],"default_left":[0,0,0,0,0,0,0,0,0,0,0,0,0,0,0,0,0,0,0,0,0,0,0,0,0,0,0,0,0,0,0,0,0,0,0,0,0,0,0,0,0,0,0,0,0,0,0,0,0,0,0,0,0,0,0],"id":19,"left_children":[1,3,5,7,9,11,13,-1,15,17,19,21,23,25,27,-1,29,31,33,35,37,39,41,43,45,47,49,51,53,-1,-1,-1,-1,-1,-1,-1,-1,-1,-1,-1,-1,-1,-1,-1,-1,-1,-1,-1,-1,-1,-1,-1,-1,-1,-1],"loss_changes":[7.8259215E-2,1.6124383E-2,3.3075683E-2,2.8324425E-3,1.8458454E-2,2.1858297E-2,3.0107338E-2,0E0,5.8956146E-3,8.215047E-3,5.2123796E-3,1.8520769E-2,1.4814433E-2,5.711129E-3,2.9918887E-3,0E0,2.1955445E-3,9.0432875E-3,1.06057525E-2,1.1860803E-2,8.368409E-3,8.075597E-3,8.524111E-3,2.1459533E-2,2.1780413E-2,1.0179582E-2,3.629676E-3,6.8852454E-3,2.9627727E-3,0E0,0E0,0E0,0E0,0E0,0E0,0E0,0E0,0E0,0E0,0E0,0E0,0E0,0E0,0E0,0E0,0E0,0E0,0E0,0E0,0E0,0E0,0E0,0E0,0E0,0E0],"parents":[2147483647,0,0,1,1,2,2,3,3,4,4,5,5,6,6,8,8,9,9,10,10,11,11,12,12,13,13,14,14,16,16,17,17,18,18,19,19,20,20,21,21,22,22,23,23,24,24,25,25,26,26,27,27,28,28],"right_children":[2,4,6,8,10,12,14,-1,16,18,20,22,24,26,28,-1,30,32,34,36,38,40,42,44,46,48,50,52,54,-1,-1,-1,-1,-1,-1,-1,-1,-1,-1,-1,-1,-1,-1,-1,-1,-1,-1,-1,-1,-1,-1,-1,-1,-1,-1],"split_conditions":[-9.019398E0,5.51395E0,-6.014147E0,4.96436E0,-9.483209E0,5.10554E0,5.09115E0,1.4330168E-3,5.03938E0,1.14276E0,-1.479324E1,-7.360028E0,-1.100591E1,4.86021E0,5.51275E0,-1.5625567E-4,5.46116E0,1.9868767E3,2.2090322E3,-1.78008E1,5.73212E0,-1.382489E1,2.5106245E3,-7.360028E0,-7.713006E0,2.3385E0,2.07782E0,2.6899558E3,-5.483955E0,4.3955838E-4,9.264252E-4,-2.22003E-4,6.6668674E-4,8.370014E-4,8.6905835E-5,-5.8374944E-4,9.949411E-4,3.4227569E-4,-2.548491E-4,1.7722394E-6,6.1381265E-4,-3.276312E-4,2.5754847E-4,-1.3929719E-4,4.2249294E-4,-8.4735795E-5,-3.6983113E-4,7.7394414E-4,-3.5694902E-4,-8.594027E-4,-0E0,1.0632012E-3,-0E0,1.919137E-4,7.960751E-4],"split_indices":[7,5,7,5,7,5,5,0,5,6,3,7,3,5,4,0,4,1,1,3,5,3,1,7,7,6,6,1,7,0,0,0,0,0,0,0,0,0,0,0,0,0,0,0,0,0,0,0,0,0,0,0,0,0,0],"split_type":[0,0,0,0,0,0,0,0,0,0,0,0,0,0,0,0,0,0,0,0,0,0,0,0,0,0,0,0,0,0,0,0,0,0,0,0,0,0,0,0,0,0,0,0,0,0,0,0,0,0,0,0,0,0,0],"sum_hessian":[5.936E3,1.327E3,4.609E3,2.5E2,1.077E3,4.216E3,3.93E2,2.4E1,2.26E2,7.16E2,3.61E2,5.68E2,3.648E3,1.39E2,2.54E2,1.2E1,2.14E2,3.44E2,3.72E2,4.7E1,3.14E2,2.99E2,2.69E2,8.55E2,2.793E3,8.3E1,5.6E1,1.14E2,1.4E2,1.15E2,9.9E1,2.2E1,3.22E2,6E1,3.12E2,1.3E1,3.4E1,7.1E1,2.43E2,9.6E1,2.03E2,1.85E2,8.4E1,6.23E2,2.32E2,1.44E3,1.353E3,3E1,5.3E1,3.9E1,1.7E1,1.01E2,1.3E1,9.1E1,4.9E1],"tree_param":{"num_deleted":"0","num_feature":"8","num_nodes":"55","size_leaf_vector":"1"}},{"base_weights":[-1.7455105E-4,1.0409793E-3,-2.088452E-3,2.0000965E-3,-2.3860107E-3,4.4600912E-3,-2.8324546E-3,3.105141E-4,3.7792607E-3,-9.138606E-3,-0E0,1.6932577E-2,6.01617E-4,6.388814E-3,-3.2907254E-3,9.4034144E-4,-3.182352E-4,-2.5243664E-3,4.6340427E-3,1.1036333E-2,-1.2465145E-2,3.1869293E-3,-6.4994157E-3,1.6749416E-3,4.9953056E-3,-7.3365343E-4,8.1268494E-4,-0E0,1.9961318E-3,-3.5074758E-3,9.646045E-4,7.265647E-5,-1.6993143E-4,-3.1176777E-4,1.4400079E-3,3.2697953E-4,6.4881395E-5,-0E0,7.420109E-4,-7.553769E-4,-0E0,2.2954458E-5,8.8141236E-4,-4.7259498E-4,1.4375484E-3,-0E0,5.6682416E-4,1.4024523E-4,-8.154322E-4,-3.165923E-4,6.494617E-4,-3.2015986E-4,-1.2906607E-4],"categories":[],"categories_nodes":[],"categories_segments":[],"categories_sizes":[],"default_left":[0,0,0,0,0,0,0,0,0,0,0,0,0,0,0,0,0,0,0,0,0,0,0,0,0,0,0,0,0,0,0,0,0,0,0,0,0,0,0,0,0,0,0,0,0,0,0,0,0,0,0,0,0],"id":20,"left_children":[1,3,5,7,9,11,13,15,17,19,21,23,25,27,29,-1,31,33,35,37,39,41,43,-1,45,47,-1,49,-1,51,-1,-1,-1,-1,-1,-1,-1,-1,-1,-1,-1,-1,-1,-1,-1,-1,-1,-1,-1,-1,-1,-1,-1],"loss_changes":[1.3904826E-2,1.178582E-2,1.1231174E-2,8.105974E-3,1.3188476E-2,9.064464E-3,8.636184E-3,1.9101458E-2,7.502161E-3,1.437412E-2,1.1197882E-2,5.277777E-3,5.304986E-3,2.0233726E-2,8.391457E-3,0E0,8.002282E-3,1.51273515E-2,6.862458E-3,3.5689608E-4,5.0339084E-3,1.3270924E-2,1.6347023E-2,0E0,1.6433024E-3,1.0214199E-2,0E0,6.174175E-3,0E0,4.4729263E-3,0E0,0E0,0E0,0E0,0E0,0E0,0E0,0E0,0E0,0E0,0E0,0E0,0E0,0E0,0E0,0E0,0E0,0E0,0E0,0E0,0E0,0E0,0E0],"parents":[2147483647,0,0,1,1,2,2,3,3,4,4,5,5,6,6,7,7,8,8,9,9,10,10,11,11,12,12,13,13,14,14,16,16,17,17,18,18,19,19,20,20,21,21,22,22,24,24,25,25,27,27,29,29],"right_children":[2,4,6,8,10,12,14,16,18,20,22,24,26,28,30,-1,32,34,36,38,40,42,44,-1,46,48,-1,50,-1,52,-1,-1,-1,-1,-1,-1,-1,-1,-1,-1,-1,-1,-1,-1,-1,-1,-1,-1,-1,-1,-1,-1,-1],"split_conditions":[5.82882E0,5.8963E0,-6.55178E0,1.56739E0,6.00646E0,2.3052773E3,4.64093E0,-8.2115E0,-5.30469E0,4.94888E0,6.36575E0,8.7802E-1,8.191273E1,4.62394E0,8.963047E1,9.4034144E-4,2.41272E0,5.71653E0,2.32481E0,9.4689E-1,5.35327E0,5.72743E0,8.614798E1,1.6749416E-3,7.602728E1,2.702184E3,8.1268494E-4,6.19458E0,1.9961318E-3,-2.47059E0,9.646045E-4,7.265647E-5,-1.6993143E-4,-3.1176777E-4,1.4400079E-3,3.2697953E-4,6.4881395E-5,-0E0,7.420109E-4,-7.553769E-4,-0E0,2.2954458E-5,8.8141236E-4,-4.7259498E-4,1.4375484E-3,-0E0,5.6682416E-4,1.4024523E-4,-8.154322E-4,-3.165923E-4,6.494617E-4,-3.2015986E-4,-1.2906607E-4],"split_indices":[5,4,2,6,4,1,4,2,2,5,4,6,0,4,0,0,2,5,6,2,2,5,0,0,0,1,0,5,0,2,0,0,0,0,0,0,0,0,0,0,0,0,0,0,0,0,0,0,0,0,0,0,0],"split_type":[0,0,0,0,0,0,0,0,0,0,0,0,0,0,0,0,0,0,0,0,0,0,0,0,0,0,0,0,0,0,0,0,0,0,0,0,0,0,0,0,0,0,0,0,0,0,0,0,0,0,0,0,0],"sum_hessian":[5.93E3,3.595E3,2.335E3,2.832E3,7.63E2,2.24E2,2.111E3,1.482E3,1.35E3,2.09E2,5.54E2,4.6E1,1.78E2,8.9E1,2.022E3,5.3E1,1.429E3,1.47E2,1.203E3,2.5E1,1.84E2,3.82E2,1.72E2,1.5E1,3.1E1,1.59E2,1.9E1,7.5E1,1.4E1,2.008E3,1.4E1,8.87E2,5.42E2,1.35E2,1.2E1,7.46E2,4.57E2,1E1,1.5E1,1.47E2,3.7E1,3.28E2,5.4E1,1.62E2,1E1,1.3E1,1.8E1,1.25E2,3.4E1,5.2E1,2.3E1,4.59E2,1.549E3],"tree_param":{"num_deleted":"0","num_feature":"8","num_nodes":"53","size_leaf_vector":"1"}},{"base_weights":[-5.7961923E-5,5.0073387E-3,-4.2538848E-4,8.85117E-3,-0E0,3.8185413E-3,-9.289244E-4,-6.1729653E-3,1.101363E-2,-4.5552254E-3,8.820485E-3,6.9430373E-3,-1.2601658E-3,1.4151346E-3,-2.2362128E-3,-5.4682937E-4,-0E0,1.42560415E-2,-0E0,-9.3110756E-4,-1.6005318E-4,-0E0,1.3024829E-2,-4.497537E-3,8.245348E-3,-5.491824E-3,8.311422E-3,3.6840106E-3,-2.2314424E-3,-5.3046574E-4,-5.0313994E-3,1.7639589E-4,8.699633E-4,-2.934151E-4,6.1022525E-4,1.475991E-4,-4.202644E-4,-0E0,1.0631826E-3,-9.0521266E-4,2.6016496E-4,7.3947525E-4,2.46509E-4,4.1752384E-4,-4.2925743E-4,-0E0,8.552948E-4,3.3000787E-4,7.942078E-6,-8.963185E-4,-4.295341E-5,-6.9332996E-4,-0E0,-3.178413E-4,1.5328907E-4],"categories":[],"categories_nodes":[],"categories_segments":[],"categories_sizes":[],"default_left":[0,0,0,0,0,0,0,0,0,0,0,0,0,0,0,0,0,0,0,0,0,0,0,0,0,0,0,0,0,0,0,0,0,0,0,0,0,0,0,0,0,0,0,0,0,0,0,0,0,0,0,0,0,0,0],"id":21,"left_children":[1,3,5,7,9,11,13,15,17,19,21,23,25,27,29,-1,-1,31,33,-1,35,-1,37,39,41,43,45,47,49,51,53,-1,-1,-1,-1,-1,-1,-1,-1,-1,-1,-1,-1,-1,-1,-1,-1,-1,-1,-1,-1,-1,-1,-1,-1],"loss_changes":[1.0587856E-2,7.3190033E-3,1.157905E-2,7.5696968E-3,6.8157143E-3,9.590289E-3,1.53611135E-2,4.7737733E-4,6.42523E-3,4.9815467E-3,2.9519768E-3,5.835166E-3,8.066941E-3,1.4698521E-2,1.4831865E-2,0E0,0E0,2.8365944E-3,3.7486448E-3,0E0,2.905154E-3,0E0,6.5519954E-3,5.3441925E-3,5.222935E-3,6.5179663E-3,4.6172743E-3,1.0641233E-2,1.2278927E-2,1.5196503E-2,1.3237994E-2,0E0,0E0,0E0,0E0,0E0,0E0,0E0,0E0,0E0,0E0,0E0,0E0,0E0,0E0,0E0,0E0,0E0,0E0,0E0,0E0,0E0,0E0,0E0,0E0],"parents":[2147483647,0,0,1,1,2,2,3,3,4,4,5,5,6,6,7,7,8,8,9,9,10,10,11,11,12,12,13,13,14,14,17,17,18,18,20,20,22,22,23,23,24,24,25,25,26,26,27,27,28,28,29,29,30,30],"right_children":[2,4,6,8,10,12,14,16,18,20,22,24,26,28,30,-1,-1,32,34,-1,36,-1,38,40,42,44,46,48,50,52,54,-1,-1,-1,-1,-1,-1,-1,-1,-1,-1,-1,-1,-1,-1,-1,-1,-1,-1,-1,-1,-1,-1,-1,-1],"split_conditions":[-7.35874E0,1.35241E0,-1.62917E1,7.167281E1,2.32481E0,2.5860867E3,2.2759275E3,2.446436E3,2.6973364E3,5.31294E0,-1.132213E1,-5.18945E0,8.112431E1,-6.9161E-1,5.8494E0,-5.4682937E-4,-0E0,2.2820134E3,2.8511392E3,-9.3110756E-4,-1.066721E1,-0E0,2.2113865E3,1.83798E0,-2.09225E0,7.575282E1,-2.31063E0,2.51189E0,-1.713E-1,2.2891794E3,2.4404E0,1.7639589E-4,8.699633E-4,-2.934151E-4,6.1022525E-4,1.475991E-4,-4.202644E-4,-0E0,1.0631826E-3,-9.0521266E-4,2.6016496E-4,7.3947525E-4,2.46509E-4,4.1752384E-4,-4.2925743E-4,-0E0,8.552948E-4,3.3000787E-4,7.942078E-6,-8.963185E-4,-4.295341E-5,-6.9332996E-4,-0E0,-3.178413E-4,1.5328907E-4],"split_indices":[2,6,3,0,6,1,1,1,1,5,2,2,0,3,5,0,0,1,1,0,3,0,1,6,2,0,2,2,3,1,3,0,0,0,0,0,0,0,0,0,0,0,0,0,0,0,0,0,0,0,0,0,0,0,0],"split_type":[0,0,0,0,0,0,0,0,0,0,0,0,0,0,0,0,0,0,0,0,0,0,0,0,0,0,0,0,0,0,0,0,0,0,0,0,0,0,0,0,0,0,0,0,0,0,0,0,0,0,0,0,0,0,0],"sum_hessian":[5.933E3,3.82E2,5.551E3,2.15E2,1.67E2,5.67E2,4.984E3,2.1E1,1.94E2,1.1E2,5.7E1,3.63E2,2.04E2,1.757E3,3.227E3,1E1,1.1E1,1.47E2,4.7E1,2E1,9E1,1.4E1,4.3E1,2.9E1,3.34E2,1.49E2,5.5E1,1.1E3,6.57E2,2.027E3,1.2E3,4.1E1,1.06E2,3E1,1.7E1,5.7E1,3.3E1,1.3E1,3E1,1.6E1,1.3E1,1.01E2,2.33E2,2.1E1,1.28E2,2.7E1,2.8E1,5.86E2,5.14E2,4.6E1,6.11E2,8.1E1,1.946E3,1.042E3,1.58E2],"tree_param":{"num_deleted":"0","num_feature":"8","num_nodes":"55","size_leaf_vector":"1"}},{"base_weights":[3.2484363E-4,6.3171634E-3,-1.6613761E-3,4.7203377E-3,1.344404E-2,-2.2728632E-3,8.179118E-3,7.3445095E-3,4.7012232E-4,6.630238E-3,1.6844707E-2,7.6879235E-4,-3.133567E-3,1.0858855E-2,-6.2232967E-3,-0E0,1.04088755E-2,-2.8608115E-3,6.562446E-3,1.2501684E-2,-3.2371343E-3,2.3622794E-2,9.502665E-3,-2.004453E-3,1.2641755E-2,2.0230531E-4,-4.1921404E-3,2.2348983E-2,6.686068E-3,-1.3056438E-3,3.6757448E-4,2.694734E-4,-5.047272E-4,4.5661005E-4,1.1848498E-3,3.6943975E-4,-2.9440728E-4,1.4170423E-3,1.7703934E-4,7.59462E-5,9.4798504E-4,-0E0,-5.373489E-4,1.3115968E-3,2.8929734E-4,5.890207E-4,-0E0,-4.3195297E-4,5.852979E-5,7.628783E-4,-0E0,-3.5417985E-4,1.6841873E-4,-2.576314E-4,2.8533532E-5,1.2540262E-3,5.225776E-5,-2.498134E-4,5.1164825E-4],"categories":[],"categories_nodes":[],"categories_segments":[],"categories_sizes":[],"default_left":[0,0,0,0,0,0,0,0,0,0,0,0,0,0,0,0,0,0,0,0,0,0,0,0,0,0,0,0,0,0,0,0,0,0,0,0,0,0,0,0,0,0,0,0,0,0,0,0,0,0,0,0,0,0,0,0,0,0,0],"id":22,"left_children":[1,3,5,7,9,11,13,15,17,19,21,23,25,27,29,31,33,35,37,39,41,43,45,47,49,51,53,55,57,-1,-1,-1,-1,-1,-1,-1,-1,-1,-1,-1,-1,-1,-1,-1,-1,-1,-1,-1,-1,-1,-1,-1,-1,-1,-1,-1,-1,-1,-1],"loss_changes":[7.091249E-2,1.5031345E-2,2.6102811E-2,1.2900181E-2,3.5654008E-3,1.1192454E-2,1.01798065E-2,1.6098183E-2,1.0210809E-2,6.644627E-3,4.5746714E-3,3.065719E-2,1.2007102E-2,7.3513184E-3,1.1247998E-2,1.20575335E-2,5.305305E-3,9.295223E-3,8.688343E-3,2.746365E-3,1.638608E-3,2.2992492E-4,2.6909849E-3,1.5966034E-2,7.330306E-3,1.7414441E-2,1.1980031E-2,3.290251E-4,7.494614E-3,0E0,0E0,0E0,0E0,0E0,0E0,0E0,0E0,0E0,0E0,0E0,0E0,0E0,0E0,0E0,0E0,0E0,0E0,0E0,0E0,0E0,0E0,0E0,0E0,0E0,0E0,0E0,0E0,0E0,0E0],"parents":[2147483647,0,0,1,1,2,2,3,3,4,4,5,5,6,6,7,7,8,8,9,9,10,10,11,11,12,12,13,13,14,14,15,15,16,16,17,17,18,18,19,19,20,20,21,21,22,22,23,23,24,24,25,25,26,26,27,27,28,28],"right_children":[2,4,6,8,10,12,14,16,18,20,22,24,26,28,30,32,34,36,38,40,42,44,46,48,50,52,54,56,58,-1,-1,-1,-1,-1,-1,-1,-1,-1,-1,-1,-1,-1,-1,-1,-1,-1,-1,-1,-1,-1,-1,-1,-1,-1,-1,-1,-1,-1,-1],"split_conditions":[-8.888017E0,1.3041E0,-5.749259E0,-9.483209E0,1.01067E0,-8.312254E0,2.91552E0,-7.13693E0,8.004089E1,3.8372E-1,1.56018E0,3.22996E0,7.808299E1,2.37331E0,3.4389E0,-1.0048947E1,9.5891E0,-1.576934E1,-7.51162E0,7.898633E1,-9.589119E0,9.5244E-1,8.417387E1,7.835917E1,4.31335E0,-7.815707E0,6.0453E0,8.336469E1,-2.26699E0,-1.3056438E-3,3.6757448E-4,2.694734E-4,-5.047272E-4,4.5661005E-4,1.1848498E-3,3.6943975E-4,-2.9440728E-4,1.4170423E-3,1.7703934E-4,7.59462E-5,9.4798504E-4,-0E0,-5.373489E-4,1.3115968E-3,2.8929734E-4,5.890207E-4,-0E0,-4.3195297E-4,5.852979E-5,7.628783E-4,-0E0,-3.5417985E-4,1.6841873E-4,-2.576314E-4,2.8533532E-5,1.2540262E-3,5.225776E-5,-2.498134E-4,5.1164825E-4],"split_indices":[7,2,7,7,6,7,6,2,0,6,6,2,0,2,6,7,3,3,2,0,7,3,0,0,3,7,4,0,6,0,0,0,0,0,0,0,0,0,0,0,0,0,0,0,0,0,0,0,0,0,0,0,0,0,0,0,0,0,0],"split_type":[0,0,0,0,0,0,0,0,0,0,0,0,0,0,0,0,0,0,0,0,0,0,0,0,0,0,0,0,0,0,0,0,0,0,0,0,0,0,0,0,0,0,0,0,0,0,0,0,0,0,0,0,0,0,0,0,0,0,0],"sum_hessian":[5.917E3,1.485E3,4.432E3,1.226E3,2.59E2,4.183E3,2.49E2,7.43E2,4.83E2,9.7E1,1.62E2,8.97E2,3.286E3,2.16E2,3.3E1,2.25E2,5.18E2,3.02E2,1.81E2,6.7E1,3E1,7.6E1,8.6E1,7.21E2,1.76E2,7.69E2,2.517E3,5E1,1.66E2,1.6E1,1.7E1,1.51E2,7.4E1,4.81E2,3.7E1,6.1E1,2.41E2,1.7E1,1.64E2,3.1E1,3.6E1,1.4E1,1.6E1,6.1E1,1.5E1,7.5E1,1.1E1,2.43E2,4.78E2,1.52E2,2.4E1,2.23E2,5.46E2,2.112E3,4.05E2,4E1,1E1,3.2E1,1.34E2],"tree_param":{"num_deleted":"0","num_feature":"8","num_nodes":"59","size_leaf_vector":"1"}},{"base_weights":[-1.5090671E-4,5.8323424E-3,-1.8914378E-3,7.591015E-3,-8.3129E-4,-2.8015028E-3,4.266196E-3,2.8520178E-3,1.2526747E-2,-3.3861531E-3,1.0558788E-3,-3.6078604E-4,-4.998932E-3,-1.0224163E-4,1.1102983E-2,9.064772E-3,-5.0786696E-4,1.8024445E-2,8.955483E-3,5.132847E-3,-7.183377E-3,-4.6614464E-3,7.126105E-3,1.30648855E-2,-5.571458E-3,7.039486E-3,-4.3618404E-3,-4.2110775E-3,1.3317765E-2,2.1208955E-4,9.6572714E-4,4.999118E-4,-1.4119029E-4,-0E0,9.667515E-4,6.8547623E-4,8.181972E-5,-0E0,6.004344E-4,-9.565018E-4,3.6525045E-5,1.1397935E-4,-3.388515E-4,6.756559E-4,-6.8192654E-5,-9.3886023E-4,1.0904424E-3,-3.799076E-4,-2.0800118E-5,5.306583E-4,-4.8875966E-4,-0E0,-4.81128E-4,-0E0,-4.6721878E-4,7.9788436E-4,-0E0],"categories":[],"categories_nodes":[],"categories_segments":[],"categories_sizes":[],"default_left":[0,0,0,0,0,0,0,0,0,0,0,0,0,0,0,0,0,0,0,0,0,0,0,0,0,0,0,0,0,0,0,0,0,0,0,0,0,0,0,0,0,0,0,0,0,0,0,0,0,0,0,0,0,0,0,0,0],"id":23,"left_children":[1,3,5,7,9,11,13,15,17,19,-1,21,23,25,27,29,31,33,35,37,39,41,43,45,47,49,51,53,55,-1,-1,-1,-1,-1,-1,-1,-1,-1,-1,-1,-1,-1,-1,-1,-1,-1,-1,-1,-1,-1,-1,-1,-1,-1,-1,-1,-1],"loss_changes":[6.1944917E-2,1.6339064E-2,2.5923368E-2,2.3430757E-2,1.3326827E-2,2.1269415E-2,1.8572863E-2,1.2487189E-2,7.2126836E-3,8.167319E-3,0E0,6.254178E-2,2.1227796E-2,1.0379833E-2,9.005148E-3,7.7459347E-3,7.875475E-3,3.3214353E-3,9.716632E-3,2.9673474E-3,1.8682834E-2,1.8776558E-2,3.9353866E-2,1.7418236E-2,2.0708948E-2,7.518557E-3,5.9400466E-3,8.664311E-4,6.2757805E-3,0E0,0E0,0E0,0E0,0E0,0E0,0E0,0E0,0E0,0E0,0E0,0E0,0E0,0E0,0E0,0E0,0E0,0E0,0E0,0E0,0E0,0E0,0E0,0E0,0E0,0E0,0E0,0E0],"parents":[2147483647,0,0,1,1,2,2,3,3,4,4,5,5,6,6,7,7,8,8,9,9,11,11,12,12,13,13,14,14,15,15,16,16,17,17,18,18,19,19,20,20,21,21,22,22,23,23,24,24,25,25,26,26,27,27,28,28],"right_children":[2,4,6,8,10,12,14,16,18,20,-1,22,24,26,28,30,32,34,36,38,40,42,44,46,48,50,52,54,56,-1,-1,-1,-1,-1,-1,-1,-1,-1,-1,-1,-1,-1,-1,-1,-1,-1,-1,-1,-1,-1,-1,-1,-1,-1,-1,-1,-1],"split_conditions":[-9.019398E0,6.23927E0,-6.324372E0,-3.26225E0,2.6050972E3,-7.831399E0,5.55357E0,-1.0048947E1,5.67526E0,-1.0284881E1,1.0558788E-3,1.50839E0,-5.92355E0,3.22996E0,-6.225081E0,-1.0284881E1,-1.50077E0,-1.0410133E1,-9.483209E0,8.9124E-1,5.40832E0,5.31703E0,5.90818E0,5.13125E0,2.04354E0,5.948E0,2.3882258E3,5.35822E0,9.44544E0,2.1208955E-4,9.6572714E-4,4.999118E-4,-1.4119029E-4,-0E0,9.667515E-4,6.8547623E-4,8.181972E-5,-0E0,6.004344E-4,-9.565018E-4,3.6525045E-5,1.1397935E-4,-3.388515E-4,6.756559E-4,-6.8192654E-5,-9.3886023E-4,1.0904424E-3,-3.799076E-4,-2.0800118E-5,5.306583E-4,-4.8875966E-4,-0E0,-4.81128E-4,-0E0,-4.6721878E-4,7.9788436E-4,-0E0],"split_indices":[7,5,7,2,1,7,5,7,5,7,0,2,2,2,7,7,6,7,7,6,4,5,5,5,6,4,1,4,2,0,0,0,0,0,0,0,0,0,0,0,0,0,0,0,0,0,0,0,0,0,0,0,0,0,0,0,0],"split_type":[0,0,0,0,0,0,0,0,0,0,0,0,0,0,0,0,0,0,0,0,0,0,0,0,0,0,0,0,0,0,0,0,0,0,0,0,0,0,0,0,0,0,0,0,0,0,0,0,0,0,0,0,0,0,0,0,0],"sum_hessian":[5.984E3,1.335E3,4.649E3,1.068E3,2.67E2,4.065E3,5.84E2,5.56E2,5.12E2,2.44E2,2.3E1,1.948E3,2.117E3,3.48E2,2.36E2,2.05E2,3.51E2,1.89E2,3.23E2,6.7E1,1.77E2,1.246E3,7.02E2,5.9E1,2.058E3,1.21E2,2.27E2,2.4E1,2.12E2,1.47E2,5.8E1,5.5E1,2.96E2,1.6E1,1.73E2,1.87E2,1.36E2,3.5E1,3.2E1,7.5E1,1.02E2,2.8E2,9.66E2,4.07E2,2.95E2,1E1,4.9E1,1.463E3,5.95E2,1.05E2,1.6E1,1.17E2,1.1E2,1E1,1.4E1,1.72E2,4E1],"tree_param":{"num_deleted":"0","num_feature":"8","num_nodes":"57","size_leaf_vector":"1"}},{"base_weights":[1.9091804E-5,5.6021353E-3,-1.4695115E-3,7.073284E-4,7.626872E-3,-2.2608796E-3,4.3447153E-3,6.350176E-3,-3.4823208E-3,1.5239827E-2,4.840051E-3,-3.3327476E-3,9.566481E-4,5.6469307E-4,1.5438386E-2,1.2387813E-2,-1.6552926E-3,-1.6953615E-2,-0E0,1.0632517E-2,2.0532725E-2,7.6321606E-3,-0E0,1.42940525E-2,-3.6040582E-3,7.553181E-3,-9.328164E-4,9.34996E-3,-3.3928202E-3,1.8219482E-2,2.4451013E-4,-0E0,7.247436E-4,1.8880905E-4,-5.58922E-4,-1.4096523E-3,-0E0,9.4984476E-5,-6.026108E-4,6.177989E-4,-0E0,1.115277E-3,-0E0,5.084262E-4,7.333759E-5,7.2064623E-4,-5.569457E-5,-0E0,1.0825442E-3,-8.148874E-5,-2.7161682E-4,5.906049E-4,-3.1250817E-4,2.2231315E-4,-2.8042012E-4,-1.3043235E-4,6.3313683E-4,-4.4626268E-4,5.8068632E-5,1.9747767E-4,1.0890365E-3,-2.47515E-4,4.7369138E-4],"categories":[],"categories_nodes":[],"categories_segments":[],"categories_sizes":[],"default_left":[0,0,0,0,0,0,0,0,0,0,0,0,0,0,0,0,0,0,0,0,0,0,0,0,0,0,0,0,0,0,0,0,0,0,0,0,0,0,0,0,0,0,0,0,0,0,0,0,0,0,0,0,0,0,0,0,0,0,0,0,0,0,0],"id":24,"left_children":[1,3,5,7,9,11,13,15,17,19,21,23,25,27,29,31,33,35,37,39,41,43,45,47,49,51,53,55,57,59,61,-1,-1,-1,-1,-1,-1,-1,-1,-1,-1,-1,-1,-1,-1,-1,-1,-1,-1,-1,-1,-1,-1,-1,-1,-1,-1,-1,-1,-1,-1,-1,-1],"loss_changes":[4.9838323E-2,1.1708129E-2,2.1339625E-2,9.434538E-3,1.6609497E-2,1.4504891E-2,2.1287113E-2,9.552227E-3,8.926174E-3,2.176404E-3,8.281934E-3,1.3932098E-2,1.32701E-2,1.5056076E-2,3.7268884E-3,3.5396293E-3,4.3514436E-3,5.9896484E-3,4.5940536E-3,2.8267056E-3,2.1633878E-3,5.170472E-3,5.0619775E-3,6.418908E-3,1.0420367E-2,1.456261E-2,1.9632671E-2,6.4658597E-3,7.816372E-3,2.7277358E-3,1.793754E-3,0E0,0E0,0E0,0E0,0E0,0E0,0E0,0E0,0E0,0E0,0E0,0E0,0E0,0E0,0E0,0E0,0E0,0E0,0E0,0E0,0E0,0E0,0E0,0E0,0E0,0E0,0E0,0E0,0E0,0E0,0E0,0E0],"parents":[2147483647,0,0,1,1,2,2,3,3,4,4,5,5,6,6,7,7,8,8,9,9,10,10,11,11,12,12,13,13,14,14,15,15,16,16,17,17,18,18,19,19,20,20,21,21,22,22,23,23,24,24,25,25,26,26,27,27,28,28,29,29,30,30],"right_children":[2,4,6,8,10,12,14,16,18,20,22,24,26,28,30,32,34,36,38,40,42,44,46,48,50,52,54,56,58,60,62,-1,-1,-1,-1,-1,-1,-1,-1,-1,-1,-1,-1,-1,-1,-1,-1,-1,-1,-1,-1,-1,-1,-1,-1,-1,-1,-1,-1,-1,-1,-1,-1],"split_conditions":[-9.054685E0,-5.65248E0,-6.261129E0,-1.009088E1,5.65042E0,2.09397E0,5.80727E0,5.46116E0,-9.900171E0,1.79948E0,-9.483209E0,-8.93138E0,-8.27668E0,3.37327E0,9.44544E0,5.45436E0,1.26715E0,5.8876E0,6.13756E0,6.07029E0,-4.26355E0,6.23927E0,5.70129E0,-8.671797E0,-7.831399E0,5.99611E0,5.54457E0,4.54567E0,-5.69666E0,5.93155E0,1.072449E1,-0E0,7.247436E-4,1.8880905E-4,-5.58922E-4,-1.4096523E-3,-0E0,9.4984476E-5,-6.026108E-4,6.177989E-4,-0E0,1.115277E-3,-0E0,5.084262E-4,7.333759E-5,7.2064623E-4,-5.569457E-5,-0E0,1.0825442E-3,-8.148874E-5,-2.7161682E-4,5.906049E-4,-3.1250817E-4,2.2231315E-4,-2.8042012E-4,-1.3043235E-4,6.3313683E-4,-4.4626268E-4,5.8068632E-5,1.9747767E-4,1.0890365E-3,-2.47515E-4,4.7369138E-4],"split_indices":[7,2,7,7,5,6,5,4,7,6,7,2,7,2,2,5,6,5,5,4,3,5,5,7,7,5,4,5,7,5,2,0,0,0,0,0,0,0,0,0,0,0,0,0,0,0,0,0,0,0,0,0,0,0,0,0,0,0,0,0,0,0,0],"split_type":[0,0,0,0,0,0,0,0,0,0,0,0,0,0,0,0,0,0,0,0,0,0,0,0,0,0,0,0,0,0,0,0,0,0,0,0,0,0,0,0,0,0,0,0,0,0,0,0,0,0,0,0,0,0,0,0,0,0,0,0,0,0,0],"sum_hessian":[5.945E3,1.265E3,4.68E3,3.85E2,8.8E2,4.135E3,5.45E2,1.74E2,2.11E2,2.25E2,6.55E2,3.125E3,1.01E3,4.14E2,1.31E2,1.06E2,6.8E1,3.9E1,1.72E2,1.32E2,9.3E1,4.05E2,2.5E2,4.1E1,3.084E3,2.36E2,7.74E2,1.36E2,2.78E2,1.05E2,2.6E1,1.2E1,9.4E1,3.7E1,3.1E1,2.1E1,1.8E1,1.45E2,2.7E1,1.16E2,1.6E1,8.3E1,1E1,2.75E2,1.3E2,2.2E1,2.28E2,1E1,3.1E1,1.51E3,1.574E3,1.86E2,5E1,3.5E2,4.24E2,2.3E1,1.13E2,1.35E2,1.43E2,2.7E1,7.8E1,1E1,1.6E1],"tree_param":{"num_deleted":"0","num_feature":"8","num_nodes":"63","size_leaf_vector":"1"}},{"base_weights":[-7.377397E-5,6.278475E-3,-1.6125558E-3,5.774561E-4,8.9032855E-3,-2.4452738E-3,5.8409725E-3,1.8302692E-2,-8.939927E-4,1.2465655E-2,4.9923756E-3,3.5526854E-4,-4.3991623E-3,-2.5615783E-3,1.1785287E-2,1.3063072E-3,-0E0,2.8953317E-3,-6.8188645E-3,-0E0,1.3570123E-2,-1.5150688E-2,6.9001187E-3,6.1325445E-3,-1.2682745E-3,-4.936578E-3,8.482637E-3,-7.4328594E-3,7.6235947E-3,1.4181709E-2,-0E0,3.0291872E-4,-9.083414E-5,-0E0,-6.693796E-4,5.313879E-4,-3.7449395E-4,7.3116616E-4,3.479994E-5,-0E0,-1.2534133E-3,2.4296495E-4,1.2143282E-3,1.2182285E-4,9.0364023E-4,-3.0614552E-4,7.6374265E-5,1.6535727E-4,-2.8745353E-4,-0E0,1.0259434E-3,-0E0,-6.539962E-4,8.0968114E-4,-3.2808333E-5,4.633994E-4,9.4953645E-4,-1.8342212E-4,7.3393655E-4],"categories":[],"categories_nodes":[],"categories_segments":[],"categories_sizes":[],"default_left":[0,0,0,0,0,0,0,0,0,0,0,0,0,0,0,0,0,0,0,0,0,0,0,0,0,0,0,0,0,0,0,0,0,0,0,0,0,0,0,0,0,0,0,0,0,0,0,0,0,0,0,0,0,0,0,0,0,0,0],"id":25,"left_children":[1,3,5,7,9,11,13,15,17,19,21,23,25,27,29,-1,-1,31,33,35,37,39,41,43,45,47,49,51,53,55,57,-1,-1,-1,-1,-1,-1,-1,-1,-1,-1,-1,-1,-1,-1,-1,-1,-1,-1,-1,-1,-1,-1,-1,-1,-1,-1,-1,-1],"loss_changes":[5.7712927E-2,1.6225565E-2,2.9491633E-2,1.1537898E-2,8.975409E-3,2.4121374E-2,2.4477787E-2,3.627047E-3,8.090428E-3,4.4299923E-3,1.4035753E-2,1.701178E-2,1.7506767E-2,9.414797E-3,6.951079E-3,0E0,0E0,3.4011314E-3,7.4634254E-3,3.3248523E-3,3.2577887E-3,2.1410943E-3,9.599203E-3,1.5557938E-2,1.8954499E-2,1.6867455E-2,1.03542935E-2,6.5705227E-3,5.46705E-3,2.4330653E-3,3.7702755E-3,0E0,0E0,0E0,0E0,0E0,0E0,0E0,0E0,0E0,0E0,0E0,0E0,0E0,0E0,0E0,0E0,0E0,0E0,0E0,0E0,0E0,0E0,0E0,0E0,0E0,0E0,0E0,0E0],"parents":[2147483647,0,0,1,1,2,2,3,3,4,4,5,5,6,6,7,7,8,8,9,9,10,10,11,11,12,12,13,13,14,14,17,17,18,18,19,19,20,20,21,21,22,22,23,23,24,24,25,25,26,26,27,27,28,28,29,29,30,30],"right_children":[2,4,6,8,10,12,14,16,18,20,22,24,26,28,30,-1,-1,32,34,36,38,40,42,44,46,48,50,52,54,56,58,-1,-1,-1,-1,-1,-1,-1,-1,-1,-1,-1,-1,-1,-1,-1,-1,-1,-1,-1,-1,-1,-1,-1,-1,-1,-1,-1,-1],"split_conditions":[-9.181531E0,-5.65248E0,-6.155516E0,-1.151602E1,5.89748E0,5.53983E0,5.20775E0,6.44914E0,1.34138E0,-1.765777E1,1.9984177E3,-8.27668E0,1.254449E1,-5.175195E0,9.44544E0,1.3063072E-3,-0E0,5.06929E0,-1.416509E1,5.42083E0,-9.248917E0,8.1095E-1,6.43142E0,2.21402E0,1.8079E-1,-1.555013E1,-7.793724E0,3.98705E0,-4.26355E0,5.72114E0,-5.322405E0,3.0291872E-4,-9.083414E-5,-0E0,-6.693796E-4,5.313879E-4,-3.7449395E-4,7.3116616E-4,3.479994E-5,-0E0,-1.2534133E-3,2.4296495E-4,1.2143282E-3,1.2182285E-4,9.0364023E-4,-3.0614552E-4,7.6374265E-5,1.6535727E-4,-2.8745353E-4,-0E0,1.0259434E-3,-0E0,-6.539962E-4,8.0968114E-4,-3.2808333E-5,4.633994E-4,9.4953645E-4,-1.8342212E-4,7.3393655E-4],"split_indices":[7,2,7,7,5,5,5,5,6,3,1,7,3,7,2,0,0,3,3,5,7,3,3,2,2,3,7,2,3,5,7,0,0,0,0,0,0,0,0,0,0,0,0,0,0,0,0,0,0,0,0,0,0,0,0,0,0,0,0],"split_type":[0,0,0,0,0,0,0,0,0,0,0,0,0,0,0,0,0,0,0,0,0,0,0,0,0,0,0,0,0,0,0,0,0,0,0,0,0,0,0,0,0,0,0,0,0,0,0,0,0,0,0,0,0,0,0,0,0,0,0],"sum_hessian":[5.95E3,1.147E3,4.803E3,3.74E2,7.73E2,4.333E3,4.7E2,3.3E1,3.41E2,3.9E2,3.83E2,1.76E3,2.573E3,1.88E2,2.82E2,2.1E1,1.2E1,1.98E2,1.43E2,3.7E1,3.53E2,2.8E1,3.55E2,3.99E2,1.361E3,2.478E3,9.5E1,1.34E2,5.4E1,2.29E2,5.3E1,1.31E2,6.7E1,6.5E1,7.8E1,1.9E1,1.8E1,3.19E2,3.4E1,1.5E1,1.3E1,3.24E2,3.1E1,3.12E2,8.7E1,5.1E2,8.51E2,2.11E2,2.267E3,5.5E1,4E1,5.3E1,8.1E1,3.2E1,2.2E1,1.25E2,1.04E2,3.9E1,1.4E1],"tree_param":{"num_deleted":"0","num_feature":"8","num_nodes":"59","size_leaf_vector":"1"}},{"base_weights":[3.0854283E-4,4.333483E-3,-1.329769E-3,6.6395514E-3,-3.884319E-4,-2.0889442E-3,3.6898947E-3,3.4535227E-3,1.1147709E-2,3.7434734E-3,-5.954973E-3,3.4314062E-4,-4.190639E-3,-8.8820653E-4,1.1162503E-2,6.97714E-3,-1.2640097E-3,8.392795E-3,1.6576102E-2,-1.1357112E-3,7.357357E-3,-1.3553159E-2,-0E0,-2.4759588E-3,4.6900194E-3,7.546237E-3,-4.926767E-3,3.26818E-4,-1.23708695E-2,8.98043E-4,1.3949411E-2,3.910742E-4,-6.9189555E-4,2.7113446E-4,-3.504571E-4,5.4826477E-4,-1.9672593E-4,1.2732353E-3,3.0560716E-4,-1.0373535E-3,5.489482E-5,6.052505E-4,-0E0,-1.0028988E-3,6.348569E-4,1.2691635E-4,-7.350752E-4,1.2981286E-4,-2.578596E-4,7.35152E-4,3.9848488E-5,6.225183E-4,-4.5344475E-4,-3.0534613E-4,1.5759286E-4,-6.0501156E-5,4.1518608E-4,-0E0,-8.280814E-4,3.8541376E-4,-8.666809E-4,6.803322E-5,7.8241294E-4],"categories":[],"categories_nodes":[],"categories_segments":[],"categories_sizes":[],"default_left":[0,0,0,0,0,0,0,0,0,0,0,0,0,0,0,0,0,0,0,0,0,0,0,0,0,0,0,0,0,0,0,0,0,0,0,0,0,0,0,0,0,0,0,0,0,0,0,0,0,0,0,0,0,0,0,0,0,0,0,0,0,0,0],"id":26,"left_children":[1,3,5,7,9,11,13,15,17,19,21,23,25,27,29,31,33,35,37,39,41,43,45,47,49,51,53,55,57,59,61,-1,-1,-1,-1,-1,-1,-1,-1,-1,-1,-1,-1,-1,-1,-1,-1,-1,-1,-1,-1,-1,-1,-1,-1,-1,-1,-1,-1,-1,-1,-1,-1],"loss_changes":[3.951469E-2,1.9552879E-2,1.5887288E-2,1.5478585E-2,1.3054677E-2,1.9165838E-2,1.9374095E-2,1.2332438E-2,4.482452E-3,6.09669E-3,1.1962254E-2,2.0844724E-2,1.6994447E-2,5.742756E-3,4.567221E-3,6.835388E-3,1.1375699E-2,1.1211183E-2,1.0359146E-2,7.2879884E-3,7.152385E-3,2.0285891E-2,4.4474546E-3,1.3964474E-2,2.4789559E-2,9.414159E-3,1.8276874E-2,4.2378176E-3,1.98584E-3,5.875818E-3,1.6782526E-3,0E0,0E0,0E0,0E0,0E0,0E0,0E0,0E0,0E0,0E0,0E0,0E0,0E0,0E0,0E0,0E0,0E0,0E0,0E0,0E0,0E0,0E0,0E0,0E0,0E0,0E0,0E0,0E0,0E0,0E0,0E0,0E0],"parents":[2147483647,0,0,1,1,2,2,3,3,4,4,5,5,6,6,7,7,8,8,9,9,10,10,11,11,12,12,13,13,14,14,15,15,16,16,17,17,18,18,19,19,20,20,21,21,22,22,23,23,24,24,25,25,26,26,27,27,28,28,29,29,30,30],"right_children":[2,4,6,8,10,12,14,16,18,20,22,24,26,28,30,32,34,36,38,40,42,44,46,48,50,52,54,56,58,60,62,-1,-1,-1,-1,-1,-1,-1,-1,-1,-1,-1,-1,-1,-1,-1,-1,-1,-1,-1,-1,-1,-1,-1,-1,-1,-1,-1,-1,-1,-1,-1,-1],"split_conditions":[-8.718969E0,6.04959E0,-6.261129E0,7.978602E1,-9.442088E0,5.58738E0,5.57048E0,5.73212E0,5.87478E0,5.18854E0,6.27798E0,8.035917E1,-1.604473E1,8.500417E1,-6.065076E0,7.968968E1,-9.674594E0,5.82428E0,1.38943E0,6.09868E0,-2.53339E0,8.279412E1,5.9649E0,7.676283E1,-7.994808E0,2.65614E0,5.06929E0,-5.175195E0,5.31906E0,1.71923E0,5.02986E0,3.910742E-4,-6.9189555E-4,2.7113446E-4,-3.504571E-4,5.4826477E-4,-1.9672593E-4,1.2732353E-3,3.0560716E-4,-1.0373535E-3,5.489482E-5,6.052505E-4,-0E0,-1.0028988E-3,6.348569E-4,1.2691635E-4,-7.350752E-4,1.2981286E-4,-2.578596E-4,7.35152E-4,3.9848488E-5,6.225183E-4,-4.5344475E-4,-3.0534613E-4,1.5759286E-4,-6.0501156E-5,4.1518608E-4,-0E0,-8.280814E-4,3.8541376E-4,-8.666809E-4,6.803322E-5,7.8241294E-4],"split_indices":[7,5,7,0,7,5,5,5,5,4,5,0,3,0,7,0,7,5,6,5,3,0,4,0,7,6,3,7,4,6,4,0,0,0,0,0,0,0,0,0,0,0,0,0,0,0,0,0,0,0,0,0,0,0,0,0,0,0,0,0,0,0,0],"split_type":[0,0,0,0,0,0,0,0,0,0,0,0,0,0,0,0,0,0,0,0,0,0,0,0,0,0,0,0,0,0,0,0,0,0,0,0,0,0,0,0,0,0,0,0,0,0,0,0,0,0,0,0,0,0,0,0,0,0,0,0,0,0,0],"sum_hessian":[5.945E3,1.737E3,4.208E3,1.181E3,5.56E2,3.673E3,5.35E2,7.06E2,4.75E2,3.09E2,2.47E2,1.681E3,1.992E3,3.24E2,2.11E2,4.16E2,2.9E2,3.29E2,1.46E2,1.2E2,1.89E2,1.12E2,1.35E2,1.006E3,6.75E2,1.09E2,1.883E3,2.86E2,3.8E1,5.3E1,1.58E2,4.05E2,1.1E1,1.26E2,1.64E2,2.79E2,5E1,7.3E1,7.3E1,1.6E1,1.04E2,1.18E2,7.1E1,9.3E1,1.9E1,1.19E2,1.6E1,3.35E2,6.71E2,1.81E2,4.94E2,8.9E1,2E1,1.654E3,2.29E2,2.3E2,5.6E1,1E1,2.8E1,4.3E1,1E1,2.6E1,1.32E2],"tree_param":{"num_deleted":"0","num_feature":"8","num_nodes":"63","size_leaf_vector":"1"}},{"base_weights":[-0E0,3.4812037E-3,-6.8493705E-4,8.849115E-3,1.2941372E-3,1.9490558E-3,-1.6385743E-3,-5.154294E-4,1.0247398E-2,-7.969973E-3,2.5418007E-3,3.5724372E-3,-2.9449505E-3,-2.395688E-3,3.5461467E-3,4.132083E-3,1.5420574E-2,-2.1503803E-4,-2.2097087E-2,3.3017918E-3,-1.280888E-2,5.25887E-3,-2.8964223E-3,-4.3189353E-3,1.0701152E-3,4.5717263E-4,-3.822393E-3,-2.0323114E-2,5.4313713E-3,9.312963E-4,5.0118688E-5,1.2043156E-3,4.323204E-4,9.243373E-4,-3.579162E-4,-0E0,-2.1797954E-3,5.9581427E-5,5.4824475E-4,-0E0,-1.0054118E-3,1.597471E-5,3.6884026E-4,-6.564486E-4,2.394455E-5,1.6079628E-4,-3.6149647E-4,-3.2644466E-4,1.06201034E-4,5.467245E-6,-3.2923385E-4,-1.2555391E-3,-3.3989938E-5,-9.501848E-5,4.9376866E-4],"categories":[],"categories_nodes":[],"categories_segments":[],"categories_sizes":[],"default_left":[0,0,0,0,0,0,0,0,0,0,0,0,0,0,0,0,0,0,0,0,0,0,0,0,0,0,0,0,0,0,0,0,0,0,0,0,0,0,0,0,0,0,0,0,0,0,0,0,0,0,0,0,0,0,0],"id":27,"left_children":[1,3,5,7,9,11,13,-1,15,17,19,21,23,25,27,29,31,33,35,37,39,41,43,45,-1,47,49,51,53,-1,-1,-1,-1,-1,-1,-1,-1,-1,-1,-1,-1,-1,-1,-1,-1,-1,-1,-1,-1,-1,-1,-1,-1,-1,-1],"loss_changes":[1.4235312E-2,1.0467661E-2,1.2667156E-2,7.3322486E-3,7.683971E-3,1.0528678E-2,1.457061E-2,0E0,6.111365E-3,5.9806486E-3,6.511402E-3,1.120441E-2,8.854811E-3,1.3688495E-2,1.9320708E-2,3.8247735E-3,4.1498747E-3,6.0114907E-3,1.0164446E-2,8.683736E-3,1.7231591E-3,7.691184E-3,8.040754E-3,7.026765E-3,0E0,1.2044863E-2,2.465012E-2,2.252413E-4,1.4859224E-2,0E0,0E0,0E0,0E0,0E0,0E0,0E0,0E0,0E0,0E0,0E0,0E0,0E0,0E0,0E0,0E0,0E0,0E0,0E0,0E0,0E0,0E0,0E0,0E0,0E0,0E0],"parents":[2147483647,0,0,1,1,2,2,3,3,4,4,5,5,6,6,8,8,9,9,10,10,11,11,12,12,13,13,14,14,15,15,16,16,17,17,18,18,19,19,20,20,21,21,22,22,23,23,25,25,26,26,27,27,28,28],"right_children":[2,4,6,8,10,12,14,-1,16,18,20,22,24,26,28,30,32,34,36,38,40,42,44,46,-1,48,50,52,54,-1,-1,-1,-1,-1,-1,-1,-1,-1,-1,-1,-1,-1,-1,-1,-1,-1,-1,-1,-1,-1,-1,-1,-1,-1,-1],"split_conditions":[-1.461375E1,1.47159E0,2.2090322E3,5.14724E0,1.59996E0,3.22528E0,5.99722E0,-5.154294E-4,-1.69043E1,-1.614843E1,6.36575E0,8.289539E1,8.439309E1,5.51395E0,-1.29593E1,5.31703E0,5.18207E0,2.3344321E3,5.76377E0,8.097761E1,2.3830525E3,2.0148956E3,-4.70138E0,-2.38149E0,1.0701152E-3,2.313311E3,1.14276E0,-1.35245E1,8.05782E1,9.312963E-4,5.0118688E-5,1.2043156E-3,4.323204E-4,9.243373E-4,-3.579162E-4,-0E0,-2.1797954E-3,5.9581427E-5,5.4824475E-4,-0E0,-1.0054118E-3,1.597471E-5,3.6884026E-4,-6.564486E-4,2.394455E-5,1.6079628E-4,-3.6149647E-4,-3.2644466E-4,1.06201034E-4,5.467245E-6,-3.2923385E-4,-1.2555391E-3,-3.3989938E-5,-9.501848E-5,4.9376866E-4],"split_indices":[3,6,1,5,6,3,4,0,3,3,4,0,0,5,3,5,4,1,5,0,1,1,3,6,0,1,6,3,0,0,0,0,0,0,0,0,0,0,0,0,0,0,0,0,0,0,0,0,0,0,0,0,0,0,0],"split_type":[0,0,0,0,0,0,0,0,0,0,0,0,0,0,0,0,0,0,0,0,0,0,0,0,0,0,0,0,0,0,0,0,0,0,0,0,0,0,0,0,0,0,0,0,0,0,0,0,0,0,0,0,0,0,0],"sum_hessian":[6.031E3,9.78E2,5.053E3,2.69E2,7.09E2,1.315E3,3.738E3,1.3E1,2.56E2,7.4E1,6.35E2,1.003E3,3.12E2,3.279E3,4.59E2,1.27E2,1.29E2,5.3E1,2.1E1,6.12E2,2.3E1,8.08E2,1.95E2,3E2,1.2E1,1.07E3,2.209E3,2.9E1,4.3E2,1.6E1,1.11E2,4.9E1,8E1,1E1,4.3E1,1.1E1,1E1,4.91E2,1.21E2,1E1,1.3E1,2.57E2,5.51E2,5.5E1,1.4E2,7.4E1,2.26E2,1.94E2,8.76E2,8.97E2,1.312E3,1.9E1,1E1,1.54E2,2.76E2],"tree_param":{"num_deleted":"0","num_feature":"8","num_nodes":"55","size_leaf_vector":"1"}},{"base_weights":[1.7934217E-4,4.8329076E-3,-1.3860285E-3,7.6931976E-3,-1.2285523E-3,-2.048473E-3,5.484007E-3,2.1542474E-3,1.1571907E-2,2.6640163E-3,-6.3893483E-3,-1.450761E-3,-1.8767052E-3,-3.94361E-4,1.087951E-2,1.4160501E-2,-1.8913623E-4,1.755335E-2,9.8067215E-3,5.9036125E-4,8.455063E-4,-1.5398887E-2,-1.4862431E-5,4.744005E-3,-2.3945938E-3,2.2931385E-3,-1.2251235E-2,1.8290224E-2,2.6245348E-3,-0E0,8.513545E-4,7.0406655E-5,-4.5360634E-4,1.0404069E-3,1.4187775E-4,2.7077124E-4,6.5883464E-4,-2.7825421E-5,9.4604533E-4,-1.0142055E-3,-0E0,5.483104E-4,-3.2115643E-4,-3.4640724E-4,4.931774E-4,4.0822636E-4,-1.4158752E-4,-3.875216E-4,3.299453E-4,-0E0,-1.0618631E-3,1.0065709E-3,-0E0,-1.2160781E-4,5.9814757E-4],"categories":[],"categories_nodes":[],"categories_segments":[],"categories_sizes":[],"default_left":[0,0,0,0,0,0,0,0,0,0,0,0,0,0,0,0,0,0,0,0,0,0,0,0,0,0,0,0,0,0,0,0,0,0,0,0,0,0,0,0,0,0,0,0,0,0,0,0,0,0,0,0,0,0,0],"id":28,"left_children":[1,3,5,7,9,11,13,15,17,19,21,-1,23,25,27,29,31,33,35,37,-1,39,41,43,45,47,49,51,53,-1,-1,-1,-1,-1,-1,-1,-1,-1,-1,-1,-1,-1,-1,-1,-1,-1,-1,-1,-1,-1,-1,-1,-1,-1,-1],"loss_changes":[4.3781903E-2,2.695695E-2,1.9901507E-2,2.0988766E-2,9.951801E-3,1.5704058E-2,1.30417375E-2,1.38074625E-2,3.4479871E-3,5.950304E-3,1.086353E-2,0E0,1.3656162E-2,6.5366076E-3,1.0462625E-2,3.5836939E-3,5.9296098E-3,3.4676902E-3,5.1727258E-3,6.7873145E-3,0E0,7.0624966E-3,9.045659E-3,1.709357E-2,1.6887506E-2,5.7741036E-3,3.617832E-3,1.541812E-3,5.9404317E-3,0E0,0E0,0E0,0E0,0E0,0E0,0E0,0E0,0E0,0E0,0E0,0E0,0E0,0E0,0E0,0E0,0E0,0E0,0E0,0E0,0E0,0E0,0E0,0E0,0E0,0E0],"parents":[2147483647,0,0,1,1,2,2,3,3,4,4,5,5,6,6,7,7,8,8,9,9,10,10,12,12,13,13,14,14,15,15,16,16,17,17,18,18,19,19,21,21,22,22,23,23,24,24,25,25,26,26,27,27,28,28],"right_children":[2,4,6,8,10,12,14,16,18,20,22,-1,24,26,28,30,32,34,36,38,-1,40,42,44,46,48,50,52,54,-1,-1,-1,-1,-1,-1,-1,-1,-1,-1,-1,-1,-1,-1,-1,-1,-1,-1,-1,-1,-1,-1,-1,-1,-1,-1],"split_conditions":[-8.875113E0,6.05879E0,-5.968125E0,-4.2326E0,