{"learner":{"attributes":{"scikit_learn":"{\"_estimator_type\": \"regressor\"}"},"feature_names":[],"feature_types":[],"gradient_booster":{"model":{"cats":{"enc":[],"feature_segments":[],"sorted_idx":[]},"gbtree_model_param":{"num_parallel_tree":"1","num_trees":"300"},"iteration_indptr":[0,1,2,3,4,5,6,7,8,9,10,11,12,13,14,15,16,17,18,19,20,21,22,23,24,25,26,27,28,29,30,31,32,33,34,35,36,37,38,39,40,41,42,43,44,45,46,47,48,49,50,51,52,53,54,55,56,57,58,59,60,61,62,63,64,65,66,67,68,69,70,71,72,73,74,75,76,77,78,79,80,81,82,83,84,85,86,87,88,89,90,91,92,93,94,95,96,97,98,99,100,101,102,103,104,105,106,107,108,109,110,111,112,113,114,115,116,117,118,119,120,121,122,123,124,125,126,127,128,129,130,131,132,133,134,135,136,137,138,139,140,141,142,143,144,145,146,147,148,149,150,151,152,153,154,155,156,157,158,159,160,161,162,163,164,165,166,167,168,169,170,171,172,173,174,175,176,177,178,179,180,181,182,183,184,185,186,187,188,189,190,191,192,193,194,195,196,197,198,199,200,201,202,203,204,205,206,207,208,209,210,211,212,213,214,215,216,217,218,219,220,221,222,223,224,225,226,227,228,229,230,231,232,233,234,235,236,237,238,239,240,241,242,243,244,245,246,247,248,249,250,251,252,253,254,255,256,257,258,259,260,261,262,263,264,265,266,267,268,269,270,271,272,273,274,275,276,277,278,279,280,281,282,283,284,285,286,287,288,289,290,291,292,293,294,295,296,297,298,299,300],"tree_info":[0,0,0,0,0,0,0,0,0,0,0,0,0,0,0,0,0,0,0,0,0,0,0,0,0,0,0,0,0,0,0,0,0,0,0,0,0,0,0,0,0,0,0,0,0,0,0,0,0,0,0,0,0,0,0,0,0,0,0,0,0,0,0,0,0,0,0,0,0,0,0,0,0,0,0,0,0,0,0,0,0,0,0,0,0,0,0,0,0,0,0,0,0,0,0,0,0,0,0,0,0,0,0,0,0,0,0,0,0,0,0,0,0,0,0,0,0,0,0,0,0,0,0,0,0,0,0,0,0,0,0,0,0,0,0,0,0,0,0,0,0,0,0,0,0,0,0,0,0,0,0,0,0,0,0,0,0,0,0,0,0,0,0,0,0,0,0,0,0,0,0,0,0,0,0,0,0,0,0,0,0,0,0,0,0,0,0,0,0,0,0,0,0,0,0,0,0,0,0,0,0,0,0,0,0,0,0,0,0,0,0,0,0,0,0,0,0,0,0,0,0,0,0,0,0,0,0,0,0,0,0,0,0,0,0,0,0,0,0,0,0,0,0,0,0,0,0,0,0,0,0,0,0,0,0,0,0,0,0,0,0,0,0,0,0,0,0,0,0,0,0,0,0,0,0,0,0,0,0,0,0,0,0,0,0,0,0,0,0,0,0,0,0,0,0,0,0,0,0,0],"trees":[{"base_weights":[2.4081712E-5,1.441655E-2,-2.8801574E-3,2.3499293E-2,1.1302646E-2,-5.0404514E-3,8.456213E-3,2.7474884E-2,1.789142E-2,-3.4691424E-3,1.2866049E-2,1.0484118E-3,-6.7166043E-3,1.9193338E-2,3.4431114E-3,2.042054E-3,2.6033966E-2,1.408684E-3,1.5328914E-2,3.2684172E-3,-1.3792175E-2,1.8510662E-2,9.445382E-3,6.354081E-3,-6.172099E-3,1.2361428E-3,-7.250229E-3,6.009913E-4,2.3757705E-2,7.056806E-3,-6.620432E-3,4.650909E-4,1.3416782E-3,9.523776E-6,8.578041E-4,7.501039E-4,-7.720183E-5,-9.7488594E-4,4.500126E-4,1.3761298E-3,8.419933E-4,1.6129143E-4,6.407349E-4,6.520725E-6,5.2921666E-4,-4.4533677E-4,7.6148965E-5,-5.1559124E-4,3.5578173E-4,-0E0,-3.8546333E-4,-3.358272E-4,5.8129145E-4,7.926548E-4,1.4065258E-3,1.626142E-4,1.1232625E-3,1.1543897E-4,-5.491049E-4],"categories":[],"categories_nodes":[],"categories_segments":[],"categories_sizes":[],"default_left":[0,0,0,0,0,0,0,0,0,0,0,0,0,0,0,0,0,0,0,0,0,0,0,0,0,0,0,0,0,0,0,0,0,0,0,0,0,0,0,0,0,0,0,0,0,0,0,0,0,0,0,0,0,0,0,0,0,0,0],"id":0,"left_children":[1,3,5,7,9,11,13,15,17,19,21,23,25,27,29,-1,31,-1,33,35,37,39,41,43,45,47,49,51,53,55,57,-1,-1,-1,-1,-1,-1,-1,-1,-1,-1,-1,-1,-1,-1,-1,-1,-1,-1,-1,-1,-1,-1,-1,-1,-1,-1,-1,-1],"loss_changes":[1.0139055E0,1.1147833E-1,4.9329484E-1,1.7957509E-2,7.128325E-2,1.7343065E-1,1.7093714E-1,3.6316514E-3,6.837502E-3,2.098934E-2,5.0301224E-2,1.3965775E-1,5.702716E-2,8.393967E-2,8.016954E-2,0E0,3.4016669E-3,0E0,8.302823E-3,1.0855541E-2,1.6700368E-2,1.059401E-2,3.4628823E-2,5.4452226E-2,3.307435E-2,5.57681E-2,4.1710198E-2,1.718799E-2,2.3257345E-2,9.279139E-2,2.3286765E-2,0E0,0E0,0E0,0E0,0E0,0E0,0E0,0E0,0E0,0E0,0E0,0E0,0E0,0E0,0E0,0E0,0E0,0E0,0E0,0E0,0E0,0E0,0E0,0E0,0E0,0E0,0E0,0E0],"parents":[2147483647,0,0,1,1,2,2,3,3,4,4,5,5,6,6,7,7,8,8,9,9,10,10,11,11,12,12,13,13,14,14,16,16,18,18,19,19,20,20,21,21,22,22,23,23,24,24,25,25,26,26,27,27,28,28,29,29,30,30],"right_children":[2,4,6,8,10,12,14,16,18,20,22,24,26,28,30,-1,32,-1,34,36,38,40,42,44,46,48,50,52,54,56,58,-1,-1,-1,-1,-1,-1,-1,-1,-1,-1,-1,-1,-1,-1,-1,-1,-1,-1,-1,-1,-1,-1,-1,-1,-1,-1,-1,-1],"split_conditions":[-1.0812513E1,-1.1993935E1,-7.783109E0,6.21709E0,7.116832E1,-1.009543E1,7.675261E1,-1.3633358E1,-1.3169368E1,-1.1228625E1,5.97003E0,6.08961E0,7.196234E1,5.18957E0,8.171732E1,2.042054E-3,6.776545E1,1.408684E-3,7.130351E1,5.79477E0,1.58543E0,5.48601E0,7.584671E1,7.584671E1,1.38149E0,-9.564362E0,5.23881E0,-7.5898E-1,5.63448E0,-6.599056E0,-6.53796E0,4.650909E-4,1.3416782E-3,9.523776E-6,8.578041E-4,7.501039E-4,-7.720183E-5,-9.7488594E-4,4.500126E-4,1.3761298E-3,8.419933E-4,1.6129143E-4,6.407349E-4,6.520725E-6,5.2921666E-4,-4.4533677E-4,7.6148965E-5,-5.1559124E-4,3.5578173E-4,-0E0,-3.8546333E-4,-3.358272E-4,5.8129145E-4,7.926548E-4,1.4065258E-3,1.626142E-4,1.1232625E-3,1.1543897E-4,-5.491049E-4],"split_indices":[7,7,7,5,0,7,0,7,7,7,5,5,0,5,0,0,0,0,0,5,6,5,0,0,6,7,5,3,5,7,3,0,0,0,0,0,0,0,0,0,0,0,0,0,0,0,0,0,0,0,0,0,0,0,0,0,0,0,0],"split_type":[0,0,0,0,0,0,0,0,0,0,0,0,0,0,0,0,0,0,0,0,0,0,0,0,0,0,0,0,0,0,0,0,0,0,0,0,0,0,0,0,0,0,0,0,0,0,0,0,0,0,0,0,0,0,0,0,0,0,0],"sum_hessian":[2.4227E4,4.073E3,2.0154E4,1.03E3,3.043E3,1.6936E4,3.218E3,5.9E2,4.4E2,2.85E2,2.758E3,3.643E3,1.3293E4,1.017E3,2.201E3,4.8E1,5.42E2,7.8E1,3.62E2,1.67E2,1.18E2,1.028E3,1.73E3,2.108E3,1.535E3,8.24E2,1.2469E4,2.05E2,8.12E2,1.627E3,5.74E2,3.1E1,5.11E2,4.5E1,3.17E2,5.4E1,1.13E2,9.8E1,2E1,1.49E2,8.79E2,6.19E2,1.111E3,8.63E2,1.245E3,1.142E3,3.93E2,2.72E2,5.52E2,7.39E2,1.173E4,1.18E2,8.7E1,2.99E2,5.13E2,1.311E3,3.16E2,1.81E2,3.93E2],"tree_param":{"num_deleted":"0","num_feature":"8","num_nodes":"59","size_leaf_vector":"1"}},{"base_weights":[1.2569898E-4,1.2644396E-2,-2.7694216E-3,2.2421515E-2,1.0015979E-2,-4.9615367E-3,7.679689E-3,2.7117915E-2,1.757017E-2,2.0411473E-3,1.4544066E-2,-9.094351E-4,-6.4591295E-3,2.261232E-2,-1.5170164E-3,1.566062E-3,2.2382718E-2,6.29886E-4,1.9067189E-2,9.031544E-3,-4.0403646E-3,2.3914404E-2,1.2284424E-2,-8.429237E-3,6.9930563E-3,-1.2259452E-4,-7.3761167E-3,3.069875E-2,1.7377108E-2,-8.551846E-3,9.006026E-3,-0E0,1.1625899E-3,-7.024041E-4,3.937551E-4,1.0129119E-3,8.905251E-5,-6.147065E-5,6.5528497E-4,4.3282146E-4,-4.0953924E-4,-0E0,1.233306E-3,4.800655E-4,9.199015E-4,-1.4140479E-4,-7.174673E-4,6.5495074E-4,-8.7099E-5,-3.8758683E-4,8.114323E-4,8.1975246E-4,-3.7510085E-4,-0E0,1.596641E-3,4.0646578E-4,1.3011418E-3,-5.231298E-4,5.1521923E-4,8.2055584E-4,-2.7924814E-4],"categories":[],"categories_nodes":[],"categories_segments":[],"categories_sizes":[],"default_left":[0,0,0,0,0,0,0,0,0,0,0,0,0,0,0,0,0,0,0,0,0,0,0,0,0,0,0,0,0,0,0,0,0,0,0,0,0,0,0,0,0,0,0,0,0,0,0,0,0,0,0,0,0,0,0,0,0,0,0,0,0],"id":1,"left_children":[1,3,5,7,9,11,13,15,17,19,21,23,25,27,29,-1,31,33,35,37,39,41,43,45,47,49,51,53,55,57,59,-1,-1,-1,-1,-1,-1,-1,-1,-1,-1,-1,-1,-1,-1,-1,-1,-1,-1,-1,-1,-1,-1,-1,-1,-1,-1,-1,-1,-1,-1],"loss_changes":[8.848477E-1,1.1440992E-1,4.532982E-1,1.6995609E-2,1.2921321E-1,9.862733E-2,4.7263992E-1,3.4225583E-3,1.0368571E-2,5.673671E-2,4.4870317E-2,2.6393145E-1,6.861523E-2,5.011666E-2,1.5674847E-1,0E0,2.450332E-3,4.3852045E-3,6.8601817E-3,2.7248085E-2,3.6912255E-2,6.8689585E-3,2.7648747E-2,7.3878184E-2,1.16257116E-1,1.8939091E-1,3.0403495E-2,2.0754933E-2,6.073612E-2,4.6061292E-2,9.225838E-2,0E0,0E0,0E0,0E0,0E0,0E0,0E0,0E0,0E0,0E0,0E0,0E0,0E0,0E0,0E0,0E0,0E0,0E0,0E0,0E0,0E0,0E0,0E0,0E0,0E0,0E0,0E0,0E0,0E0,0E0],"parents":[2147483647,0,0,1,1,2,2,3,3,4,4,5,5,6,6,7,7,8,8,9,9,10,10,11,11,12,12,13,13,14,14,16,16,17,17,18,18,19,19,20,20,21,21,22,22,23,23,24,24,25,25,26,26,27,27,28,28,29,29,30,30],"right_children":[2,4,6,8,10,12,14,16,18,20,22,24,26,28,30,-1,32,34,36,38,40,42,44,46,48,50,52,54,56,58,60,-1,-1,-1,-1,-1,-1,-1,-1,-1,-1,-1,-1,-1,-1,-1,-1,-1,-1,-1,-1,-1,-1,-1,-1,-1,-1,-1,-1,-1,-1],"split_conditions":[-1.0693783E1,-1.2063995E1,-7.83627E0,-1.2567248E1,-1.445938E1,-9.888374E0,-5.8828E0,6.17711E0,-1.976005E1,-1.1318603E1,5.72676E0,-1.073221E1,-1.391509E1,-1.01063E1,-6.95658E0,1.566062E-3,-2.072497E1,2.229117E3,6.66917E0,-1.826493E1,5.7907E0,-1.865013E1,-8.00268E0,6.01365E0,6.1157E0,-8.897188E0,-2.241017E1,5.15325E0,-7.411306E0,6.30507E0,4.85374E0,-0E0,1.1625899E-3,-7.024041E-4,3.937551E-4,1.0129119E-3,8.905251E-5,-6.147065E-5,6.5528497E-4,4.3282146E-4,-4.0953924E-4,-0E0,1.233306E-3,4.800655E-4,9.199015E-4,-1.4140479E-4,-7.174673E-4,6.5495074E-4,-8.7099E-5,-3.8758683E-4,8.114323E-4,8.1975246E-4,-3.7510085E-4,-0E0,1.596641E-3,4.0646578E-4,1.3011418E-3,-5.231298E-4,5.1521923E-4,8.2055584E-4,-2.7924814E-4],"split_indices":[7,7,7,7,2,7,2,5,2,7,5,2,2,2,7,0,2,1,5,2,5,3,2,5,5,7,3,5,7,5,2,0,0,0,0,0,0,0,0,0,0,0,0,0,0,0,0,0,0,0,0,0,0,0,0,0,0,0,0,0,0],"split_type":[0,0,0,0,0,0,0,0,0,0,0,0,0,0,0,0,0,0,0,0,0,0,0,0,0,0,0,0,0,0,0,0,0,0,0,0,0,0,0,0,0,0,0,0,0,0,0,0,0,0,0,0,0,0,0,0,0,0,0,0,0],"sum_hessian":[2.4385E4,4.586E3,1.9799E4,9.62E2,3.624E3,1.6374E4,3.425E3,4.76E2,4.86E2,1.321E3,2.303E3,4.437E3,1.1937E4,1.309E3,2.116E3,2.38E2,2.38E2,4.5E1,4.41E2,6.22E2,6.99E2,4.37E2,1.866E3,2.28E3,2.157E3,1.523E3,1.0414E4,5.05E2,8.04E2,1.274E3,8.42E2,1.3E1,2.25E2,1E1,3.5E1,4.07E2,3.4E1,1.7E2,4.52E2,1.66E2,5.33E2,1.5E1,4.22E2,1.31E3,5.56E2,1.181E3,1.099E3,1.276E3,8.81E2,1.043E3,4.8E2,5E1,1.0364E4,1.8E1,4.87E2,3.95E2,4.09E2,1.162E3,1.12E2,5.63E2,2.79E2],"tree_param":{"num_deleted":"0","num_feature":"8","num_nodes":"61","size_leaf_vector":"1"}},{"base_weights":[-2.0696381E-4,1.2876447E-2,-2.8427192E-3,2.1701328E-2,1.0151876E-2,-4.199175E-3,1.1155705E-2,1.7982952E-2,2.607568E-2,-2.2334007E-3,1.2886011E-2,1.1961436E-3,-5.0825262E-3,2.4138825E-2,-8.0167747E-4,1.4666844E-3,1.42163485E-2,1.3381619E-3,1.1347478E-2,-1.3820219E-2,1.377103E-3,-4.5548618E-4,1.4833437E-2,-8.470175E-3,9.645216E-3,-6.141503E-3,3.0959616E-4,2.6782794E-2,1.229783E-2,3.945789E-3,-1.6330725E-2,-0E0,7.848441E-4,8.224132E-4,-0E0,-0E0,-8.444022E-4,-4.969916E-4,2.3589899E-4,-6.4736255E-4,5.448057E-4,8.161313E-4,4.82704E-4,-8.2036556E-4,-1.4365975E-4,-3.1669592E-4,5.745969E-4,-3.776264E-4,-9.7351345E-5,5.742852E-4,-4.916558E-4,1.3744024E-3,3.4852885E-4,1.7330667E-4,1.3014431E-3,-9.297398E-5,1.2042801E-3,-1.3487977E-3,-2.8915177E-4],"categories":[],"categories_nodes":[],"categories_segments":[],"categories_sizes":[],"default_left":[0,0,0,0,0,0,0,0,0,0,0,0,0,0,0,0,0,0,0,0,0,0,0,0,0,0,0,0,0,0,0,0,0,0,0,0,0,0,0,0,0,0,0,0,0,0,0,0,0,0,0,0,0,0,0,0,0,0,0],"id":2,"left_children":[1,3,5,7,9,11,13,15,17,19,21,23,25,27,29,-1,31,-1,33,35,37,39,41,43,45,47,49,51,53,55,57,-1,-1,-1,-1,-1,-1,-1,-1,-1,-1,-1,-1,-1,-1,-1,-1,-1,-1,-1,-1,-1,-1,-1,-1,-1,-1,-1,-1],"loss_changes":[8.350796E-1,9.418899E-2,3.82648E-1,1.0544896E-2,1.0647574E-1,8.813602E-2,2.782219E-1,1.780194E-2,1.4847517E-4,2.456502E-2,6.785348E-2,2.1050312E-1,9.101072E-2,2.256155E-2,6.927612E-2,0E0,8.573547E-3,0E0,4.0427316E-5,6.2499084E-3,1.5366465E-2,4.5722675E-2,1.449886E-2,5.1155902E-2,4.131104E-2,7.746741E-2,2.9330355E-1,6.031662E-3,1.696955E-2,8.4343135E-2,2.1382548E-2,0E0,0E0,0E0,0E0,0E0,0E0,0E0,0E0,0E0,0E0,0E0,0E0,0E0,0E0,0E0,0E0,0E0,0E0,0E0,0E0,0E0,0E0,0E0,0E0,0E0,0E0,0E0,0E0],"parents":[2147483647,0,0,1,1,2,2,3,3,4,4,5,5,6,6,7,7,8,8,9,9,10,10,11,11,12,12,13,13,14,14,16,16,18,18,19,19,20,20,21,21,22,22,23,23,24,24,25,25,26,26,27,27,28,28,29,29,30,30],"right_children":[2,4,6,8,10,12,14,16,18,20,22,24,26,28,30,-1,32,-1,34,36,38,40,42,44,46,48,50,52,54,56,58,-1,-1,-1,-1,-1,-1,-1,-1,-1,-1,-1,-1,-1,-1,-1,-1,-1,-1,-1,-1,-1,-1,-1,-1,-1,-1,-1,-1],"split_conditions":[-1.0812513E1,-1.2063995E1,-7.302768E0,-1.459784E1,-1.705304E1,-1.0272335E1,-3.36925E0,-1.3169368E1,6.31539E0,-1.976005E1,7.160417E1,-1.190119E1,-8.077852E0,8.080484E1,7.82256E0,1.4666844E-3,7.008774E1,1.3381619E-3,-1.2717537E1,7.204955E1,2.2799875E3,-1.190119E1,-1.0986519E1,7.577281E1,7.185551E1,-5.2024E0,-5.8828E0,-3.73264E0,-6.683658E0,-6.224885E0,-6.37512E0,-0E0,7.848441E-4,8.224132E-4,-0E0,-0E0,-8.444022E-4,-4.969916E-4,2.3589899E-4,-6.4736255E-4,5.448057E-4,8.161313E-4,4.82704E-4,-8.2036556E-4,-1.4365975E-4,-3.1669592E-4,5.745969E-4,-3.776264E-4,-9.7351345E-5,5.742852E-4,-4.916558E-4,1.3744024E-3,3.4852885E-4,1.7330667E-4,1.3014431E-3,-9.297398E-5,1.2042801E-3,-1.3487977E-3,-2.8915177E-4],"split_indices":[7,7,7,2,2,7,2,7,4,2,0,2,7,0,2,0,0,0,7,0,1,2,7,0,0,2,2,2,7,7,7,0,0,0,0,0,0,0,0,0,0,0,0,0,0,0,0,0,0,0,0,0,0,0,0,0,0,0,0],"split_type":[0,0,0,0,0,0,0,0,0,0,0,0,0,0,0,0,0,0,0,0,0,0,0,0,0,0,0,0,0,0,0,0,0,0,0,0,0,0,0,0,0,0,0,0,0,0,0,0,0,0,0,0,0,0,0,0,0,0,0],"sum_hessian":[2.4243E4,4.058E3,2.0185E4,9.47E2,3.111E3,1.8409E4,1.776E3,5.27E2,4.2E2,5.56E2,2.555E3,2.574E3,1.5835E4,8.55E2,9.21E2,1.23E2,4.04E2,3.94E2,2.6E1,1.38E2,4.18E2,3.19E2,2.236E3,1.195E3,1.379E3,1.3251E4,2.584E3,6.91E2,1.64E2,7.01E2,2.2E2,3.8E1,3.66E2,1.2E1,1.4E1,2.4E1,1.14E2,8.8E1,3.3E2,1.56E2,1.63E2,1.72E3,5.16E2,4.86E2,7.09E2,1.37E2,1.242E3,9.897E3,3.354E3,1.234E3,1.35E3,6.62E2,2.9E1,1.05E2,5.9E1,5.41E2,1.6E2,1.04E2,1.16E2],"tree_param":{"num_deleted":"0","num_feature":"8","num_nodes":"59","size_leaf_vector":"1"}},{"base_weights":[-0E0,1.313594E-2,-2.4326493E-3,2.0651188E-2,1.0635972E-2,-4.447024E-3,7.4814153E-3,2.2443244E-2,1.42623E-2,1.6083285E-2,6.5045613E-3,2.249442E-4,-5.8272406E-3,1.1173219E-2,-5.5004037E-3,5.16188E-3,2.3389738E-2,-0E0,1.6289067E-2,-0E0,1.7668143E-2,1.0152189E-3,1.1549019E-2,1.2025057E-2,-1.9603563E-3,2.2648047E-3,-6.2938416E-3,6.0457787E-3,1.9484287E-2,-1.1270063E-2,2.0130365E-3,7.15824E-4,-3.41239E-4,1.3770639E-3,9.817019E-4,4.908657E-4,-3.8342137E-4,-0E0,8.4006874E-4,4.4864416E-4,-5.321288E-4,9.3301537E-4,6.26492E-4,3.062527E-4,-3.4645194E-4,-2.6289278E-4,6.1059505E-4,2.8073837E-4,9.277694E-4,-5.22807E-4,4.1342948E-5,1.0754246E-3,-0E0,1.12708985E-4,-3.431573E-4,1.3868774E-4,9.950359E-4,1.2484436E-3,6.4259133E-4,2.3969244E-5,-7.0109835E-4,-3.6063037E-4,5.420292E-4],"categories":[],"categories_nodes":[],"categories_segments":[],"categories_sizes":[],"default_left":[0,0,0,0,0,0,0,0,0,0,0,0,0,0,0,0,0,0,0,0,0,0,0,0,0,0,0,0,0,0,0,0,0,0,0,0,0,0,0,0,0,0,0,0,0,0,0,0,0,0,0,0,0,0,0,0,0,0,0,0,0,0,0],"id":3,"left_children":[1,3,5,7,9,11,13,15,17,19,21,23,25,27,29,31,33,35,37,39,41,43,45,47,49,51,53,55,57,59,61,-1,-1,-1,-1,-1,-1,-1,-1,-1,-1,-1,-1,-1,-1,-1,-1,-1,-1,-1,-1,-1,-1,-1,-1,-1,-1,-1,-1,-1,-1,-1,-1],"loss_changes":[7.759152E-1,6.7932904E-2,4.089083E-1,6.7258477E-3,6.197861E-2,1.10428154E-1,1.660704E-1,8.751839E-3,6.723825E-3,3.0403972E-2,4.4089317E-2,1.0082494E-1,5.0140083E-2,1.1213267E-1,3.3851035E-2,5.6751324E-3,5.2506924E-3,2.0598574E-3,4.659295E-4,1.081603E-2,2.3059845E-3,3.223415E-2,1.0162577E-2,2.3097917E-2,7.814332E-2,3.199493E-2,6.112665E-2,7.361128E-2,3.3000857E-2,1.5490651E-2,2.6746044E-2,0E0,0E0,0E0,0E0,0E0,0E0,0E0,0E0,0E0,0E0,0E0,0E0,0E0,0E0,0E0,0E0,0E0,0E0,0E0,0E0,0E0,0E0,0E0,0E0,0E0,0E0,0E0,0E0,0E0,0E0,0E0,0E0],"parents":[2147483647,0,0,1,1,2,2,3,3,4,4,5,5,6,6,7,7,8,8,9,9,10,10,11,11,12,12,13,13,14,14,15,15,16,16,17,17,18,18,19,19,20,20,21,21,22,22,23,23,24,24,25,25,26,26,27,27,28,28,29,29,30,30],"right_children":[2,4,6,8,10,12,14,16,18,20,22,24,26,28,30,32,34,36,38,40,42,44,46,48,50,52,54,56,58,60,62,-1,-1,-1,-1,-1,-1,-1,-1,-1,-1,-1,-1,-1,-1,-1,-1,-1,-1,-1,-1,-1,-1,-1,-1,-1,-1,-1,-1,-1,-1,-1,-1],"split_conditions":[-1.0882398E1,-1.2063995E1,-7.83627E0,6.45589E0,6.01365E0,-1.009543E1,8.111117E1,6.776545E1,7.130351E1,7.008774E1,7.648147E1,5.62842E0,5.2053E0,5.83917E0,5.88612E0,-1.243625E1,-1.2567248E1,5.57736E0,-1.87157E0,5.53299E0,-1.0986519E1,-1.1228625E1,1.7535559E3,7.641103E1,7.441329E1,-9.639388E0,7.204955E1,-6.599056E0,7.812373E1,-7.581856E0,-7.26578E0,7.15824E-4,-3.41239E-4,1.3770639E-3,9.817019E-4,4.908657E-4,-3.8342137E-4,-0E0,8.4006874E-4,4.4864416E-4,-5.321288E-4,9.3301537E-4,6.26492E-4,3.062527E-4,-3.4645194E-4,-2.6289278E-4,6.1059505E-4,2.8073837E-4,9.277694E-4,-5.22807E-4,4.1342948E-5,1.0754246E-3,-0E0,1.12708985E-4,-3.431573E-4,1.3868774E-4,9.950359E-4,1.2484436E-3,6.4259133E-4,2.3969244E-5,-7.0109835E-4,-3.6063037E-4,5.420292E-4],"split_indices":[7,7,7,5,5,7,0,0,0,0,0,5,5,5,5,7,7,4,6,4,7,7,1,0,0,7,0,7,0,7,7,0,0,0,0,0,0,0,0,0,0,0,0,0,0,0,0,0,0,0,0,0,0,0,0,0,0,0,0,0,0,0,0],"split_type":[0,0,0,0,0,0,0,0,0,0,0,0,0,0,0,0,0,0,0,0,0,0,0,0,0,0,0,0,0,0,0,0,0,0,0,0,0,0,0,0,0,0,0,0,0,0,0,0,0,0,0,0,0,0,0,0,0,0,0,0,0,0,0],"sum_hessian":[2.4281E4,3.793E3,2.0488E4,9.35E2,2.858E3,1.7037E4,3.451E3,7.16E2,2.19E2,1.221E3,1.637E3,3.869E3,1.3168E4,2.693E3,7.58E2,4.3E1,6.73E2,2.6E1,1.93E2,1.12E2,1.109E3,7.94E2,8.43E2,6.11E2,3.258E3,7.06E2,1.2462E4,1.674E3,1.019E3,4.36E2,3.22E2,2.9E1,1.4E1,3.04E2,3.69E2,1E1,1.6E1,1E1,1.83E2,6.3E1,4.9E1,9.11E2,1.98E2,4.91E2,3.03E2,2.6E1,8.17E2,3.17E2,2.94E2,8.13E2,2.445E3,7.6E1,6.3E2,7.67E2,1.1695E4,1.361E3,3.13E2,5.48E2,4.71E2,7.6E1,3.6E2,1.52E2,1.7E2],"tree_param":{"num_deleted":"0","num_feature":"8","num_nodes":"63","size_leaf_vector":"1"}},{"base_weights":[-1.13333284E-4,2.2774668E-5,-7.146404E-3,1.7991494E-3,-3.93793E-4,-1.56127075E-2,-2.4641706E-3,9.014009E-5,5.1336046E-3,7.8868313E-4,-1.4480286E-3,-4.9382118E-3,-2.3922395E-2,1.5216798E-2,-4.0588514E-3,-1.3968117E-3,3.1181546E-3,1.3884396E-2,3.988189E-3,5.1129963E-3,4.72488E-4,-2.7875693E-3,-3.9267954E-5,-9.771538E-4,-0E0,-1.3249709E-3,-0E0,1.1256831E-3,-0E0,-1.3664899E-3,-2.5291285E-3,1.5408667E-4,-1.9411453E-4,1.870024E-4,-9.365702E-4,9.0688886E-4,-2.4903505E-4,-4.7685276E-4,2.7289885E-4,1.6567836E-4,7.7450665E-4,1.3514647E-4,-1.1437509E-5,-1.6187347E-4,2.6043193E-4,3.6584268E-5,-1.09251334E-4,7.514381E-4,-2.3839842E-4,7.9637175E-5,-3.6711417E-4],"categories":[],"categories_nodes":[],"categories_segments":[],"categories_sizes":[],"default_left":[0,0,0,0,0,0,0,0,0,0,0,0,0,0,0,0,0,0,0,0,0,0,0,0,0,0,0,0,0,0,0,0,0,0,0,0,0,0,0,0,0,0,0,0,0,0,0,0,0,0,0],"id":4,"left_children":[1,3,5,7,9,11,13,15,17,19,21,23,25,27,29,31,33,35,37,39,41,43,45,-1,47,-1,-1,-1,-1,-1,49,-1,-1,-1,-1,-1,-1,-1,-1,-1,-1,-1,-1,-1,-1,-1,-1,-1,-1,-1,-1],"loss_changes":[2.3908773E-2,1.7722435E-2,1.6943775E-2,2.5457148E-2,2.4003204E-2,1.1276785E-2,7.7993553E-3,1.3841612E-2,1.3442889E-2,1.1753181E-2,1.8957995E-2,5.3789876E-3,4.022546E-3,7.129442E-4,7.4108285E-3,2.2510516E-2,1.2457951E-2,1.4725957E-2,2.6679907E-2,9.122674E-3,1.340969E-2,1.8490743E-2,8.429911E-3,0E0,4.207833E-3,0E0,0E0,0E0,0E0,0E0,6.1614653E-3,0E0,0E0,0E0,0E0,0E0,0E0,0E0,0E0,0E0,0E0,0E0,0E0,0E0,0E0,0E0,0E0,0E0,0E0,0E0,0E0],"parents":[2147483647,0,0,1,1,2,2,3,3,4,4,5,5,6,6,7,7,8,8,9,9,10,10,11,11,12,12,13,13,14,14,15,15,16,16,17,17,18,18,19,19,20,20,21,21,22,22,24,24,30,30],"right_children":[2,4,6,8,10,12,14,16,18,20,22,24,26,28,30,32,34,36,38,40,42,44,46,-1,48,-1,-1,-1,-1,-1,50,-1,-1,-1,-1,-1,-1,-1,-1,-1,-1,-1,-1,-1,-1,-1,-1,-1,-1,-1,-1],"split_conditions":[6.57252E0,-1.291985E1,5.43413E0,7.789796E1,7.719664E1,5.1874E0,5.50603E0,1.82832E0,-1.865013E1,1.8619568E3,5.44783E0,1.8769435E3,1.316127E1,8.9917E0,5.56823E0,1.15319E0,9.3213E-1,5.90927E0,-1.738131E1,1.86138E0,5.09704E0,2.8654802E3,8.130538E1,-9.771538E-4,-1.65903E0,-1.3249709E-3,-0E0,1.1256831E-3,-0E0,-1.3664899E-3,8.021171E1,1.5408667E-4,-1.9411453E-4,1.870024E-4,-9.365702E-4,9.0688886E-4,-2.4903505E-4,-4.7685276E-4,2.7289885E-4,1.6567836E-4,7.7450665E-4,1.3514647E-4,-1.1437509E-5,-1.6187347E-4,2.6043193E-4,3.6584268E-5,-1.09251334E-4,7.514381E-4,-2.3839842E-4,7.9637175E-5,-3.6711417E-4],"split_indices":[2,3,4,0,0,4,4,6,3,1,4,1,3,2,4,6,2,4,3,6,4,1,0,0,6,0,0,0,0,0,0,0,0,0,0,0,0,0,0,0,0,0,0,0,0,0,0,0,0,0,0],"split_type":[0,0,0,0,0,0,0,0,0,0,0,0,0,0,0,0,0,0,0,0,0,0,0,0,0,0,0,0,0,0,0,0,0,0,0,0,0,0,0,0,0,0,0,0,0,0,0,0,0,0,0],"sum_hessian":[2.4231E4,2.3758E4,4.73E2,4.558E3,1.92E4,1.6E2,3.13E2,3.034E3,1.524E3,9.005E3,1.0195E4,7.6E1,8.4E1,2E1,2.93E2,2.013E3,1.021E3,1.65E2,1.359E3,5.91E2,8.414E3,5.189E3,5.006E3,1.8E1,5.8E1,7.4E1,1E1,1E1,1E1,1.3E1,2.8E2,7.04E2,1.309E3,9.98E2,2.3E1,1.39E2,2.6E1,1.26E2,1.233E3,5.13E2,7.8E1,2.046E3,6.368E3,4.925E3,2.64E2,3.649E3,1.357E3,1.3E1,4.5E1,1.4E2,1.4E2],"tree_param":{"num_deleted":"0","num_feature":"8","num_nodes":"51","size_leaf_vector":"1"}},{"base_weights":[1.4689633E-4,1.2203824E-2,-2.2931064E-3,-1.5514155E-3,1.3636076E-2,-4.0759034E-3,6.661874E-3,1.3686322E-2,-1.0243122E-2,1.1818947E-3,1.5043411E-2,1.8012956E-4,-5.8857873E-3,2.0970076E-2,-8.8662637E-4,1.9088654E-2,3.663136E-3,-1.1947678E-2,3.3227654E-4,7.092585E-3,-1.3227135E-2,1.9905226E-2,1.16210515E-2,-7.1340534E-3,8.150461E-3,4.35526E-3,-6.543778E-3,4.6238853E-3,2.3284972E-2,-4.7932724E-3,1.1382252E-2,1.0906172E-3,1.3941959E-4,5.9233623E-4,-0E0,-1.494676E-4,-8.8870974E-4,-1.1182913E-5,8.4150437E-4,3.0246924E-4,-1.0316244E-3,1.1122315E-3,5.746023E-4,8.8832946E-4,4.0075017E-4,-6.211893E-4,-0E0,6.751783E-4,2.700472E-5,-1.7073574E-4,1.2253656E-3,2.6420117E-4,-3.4437416E-4,-0E0,1.0502281E-3,1.3666978E-3,6.861506E-4,5.440411E-4,-4.1800327E-4,1.021689E-3,-3.339606E-4],"categories":[],"categories_nodes":[],"categories_segments":[],"categories_sizes":[],"default_left":[0,0,0,0,0,0,0,0,0,0,0,0,0,0,0,0,0,0,0,0,0,0,0,0,0,0,0,0,0,0,0,0,0,0,0,0,0,0,0,0,0,0,0,0,0,0,0,0,0,0,0,0,0,0,0,0,0,0,0,0,0],"id":5,"left_children":[1,3,5,7,9,11,13,15,17,19,21,23,25,27,29,31,33,35,-1,37,39,41,43,45,47,49,51,53,55,57,59,-1,-1,-1,-1,-1,-1,-1,-1,-1,-1,-1,-1,-1,-1,-1,-1,-1,-1,-1,-1,-1,-1,-1,-1,-1,-1,-1,-1,-1,-1],"loss_changes":[7.18341E-1,8.2220316E-2,3.234252E-1,5.0388686E-2,6.373626E-2,1.3088202E-1,3.6460125E-1,4.964955E-3,7.748954E-3,3.244011E-2,5.2256465E-2,2.9350764E-1,8.034131E-2,4.1146934E-2,1.0455443E-1,1.0752473E-3,2.2092212E-3,9.92775E-3,0E0,2.1612145E-2,1.7000059E-2,2.3295462E-2,4.109195E-2,9.967245E-2,9.697327E-2,1.1320883E-1,4.5638382E-2,1.3536854E-2,3.4777403E-2,9.325823E-2,8.7177485E-2,0E0,0E0,0E0,0E0,0E0,0E0,0E0,0E0,0E0,0E0,0E0,0E0,0E0,0E0,0E0,0E0,0E0,0E0,0E0,0E0,0E0,0E0,0E0,0E0,0E0,0E0,0E0,0E0,0E0,0E0],"parents":[2147483647,0,0,1,1,2,2,3,3,4,4,5,5,6,6,7,7,8,8,9,9,10,10,11,11,12,12,13,13,14,14,15,15,16,16,17,17,19,19,20,20,21,21,22,22,23,23,24,24,25,25,26,26,27,27,28,28,29,29,30,30],"right_children":[2,4,6,8,10,12,14,16,18,20,22,24,26,28,30,32,34,36,-1,38,40,42,44,46,48,50,52,54,56,58,60,-1,-1,-1,-1,-1,-1,-1,-1,-1,-1,-1,-1,-1,-1,-1,-1,-1,-1,-1,-1,-1,-1,-1,-1,-1,-1,-1,-1,-1,-1],"split_conditions":[-1.0812513E1,-1.885107E1,-7.808209E0,-1.2141616E1,7.097506E1,-9.857526E0,-6.31004E0,-1.2567248E1,7.956067E1,-1.1195009E1,6.00998E0,-1.073221E1,-1.581584E1,5.3142E0,-6.599056E0,7.675261E1,5.93044E0,5.95885E0,3.3227654E-4,-1.257926E1,5.68589E0,-1.0986519E1,-1.1755241E1,7.729628E1,6.09332E0,-8.848592E0,7.057391E1,-6.897738E0,7.943348E1,7.557311E1,6.57252E0,1.0906172E-3,1.3941959E-4,5.9233623E-4,-0E0,-1.494676E-4,-8.8870974E-4,-1.1182913E-5,8.4150437E-4,3.0246924E-4,-1.0316244E-3,1.1122315E-3,5.746023E-4,8.8832946E-4,4.0075017E-4,-6.211893E-4,-0E0,6.751783E-4,2.700472E-5,-1.7073574E-4,1.2253656E-3,2.6420117E-4,-3.4437416E-4,-0E0,1.0502281E-3,1.3666978E-3,6.861506E-4,5.440411E-4,-4.1800327E-4,1.021689E-3,-3.339606E-4],"split_indices":[7,2,7,7,0,7,2,7,0,7,5,2,2,5,7,0,5,5,0,2,5,7,7,0,5,7,0,7,0,0,2,0,0,0,0,0,0,0,0,0,0,0,0,0,0,0,0,0,0,0,0,0,0,0,0,0,0,0,0,0,0],"split_type":[0,0,0,0,0,0,0,0,0,0,0,0,0,0,0,0,0,0,0,0,0,0,0,0,0,0,0,0,0,0,0,0,0,0,0,0,0,0,0,0,0,0,0,0,0,0,0,0,0,0,0,0,0,0,0,0,0,0,0,0,0],"sum_hessian":[2.4382E4,4.11E3,2.0272E4,3.81E2,3.729E3,1.6916E4,3.356E3,1.34E2,2.47E2,3.86E2,3.343E3,5.031E3,1.1885E4,1.163E3,2.193E3,8E1,5.4E1,2.3E2,1.7E1,2.79E2,1.07E2,1.367E3,1.976E3,2.617E3,2.414E3,7.08E2,1.1177E4,1.5E2,1.013E3,1.67E3,5.23E2,6.3E1,1.7E1,2E1,3.4E1,9.8E1,1.32E2,1.54E2,1.25E2,2.6E1,8.1E1,1.059E3,3.08E2,7.19E2,1.257E3,1.508E3,1.109E3,1.409E3,1.005E3,5.08E2,2E2,3.07E2,1.087E4,1.13E2,3.7E1,7.03E2,3.1E2,3.04E2,1.366E3,3.52E2,1.71E2],"tree_param":{"num_deleted":"0","num_feature":"8","num_nodes":"61","size_leaf_vector":"1"}},{"base_weights":[6.546674E-5,1.1419424E-2,-2.2144746E-3,1.432875E-3,1.3125898E-2,-3.4277954E-3,9.520591E-3,1.4552562E-2,-6.491667E-3,1.877072E-2,1.0141607E-2,1.4722813E-3,-4.4781594E-3,1.9704198E-2,-4.105752E-3,1.5144872E-3,1.0879545E-2,-1.2904965E-2,1.5622845E-3,1.0884035E-3,1.2513277E-2,-2.6156225E-3,1.1772888E-2,-5.9968634E-3,8.348853E-3,-5.5008167E-3,6.8675494E-4,1.0795867E-2,2.5243942E-2,-9.023833E-3,7.3105097E-3,-9.949775E-5,6.83235E-4,-0E0,-9.536327E-4,6.535315E-4,-1.4803758E-4,3.5090392E-4,8.855116E-4,3.6348388E-4,-6.3980295E-4,7.21418E-4,1.971679E-4,5.661435E-4,-4.5443545E-4,6.26763E-4,-1.705388E-4,-3.168264E-4,-2.8750297E-5,9.4944466E-4,-2.6588325E-4,1.9467379E-4,1.3848923E-3,1.4390254E-3,8.579108E-4,8.327425E-4,-5.762277E-4,9.39615E-4,-3.1856427E-4],"categories":[],"categories_nodes":[],"categories_segments":[],"categories_sizes":[],"default_left":[0,0,0,0,0,0,0,0,0,0,0,0,0,0,0,0,0,0,0,0,0,0,0,0,0,0,0,0,0,0,0,0,0,0,0,0,0,0,0,0,0,0,0,0,0,0,0,0,0,0,0,0,0,0,0,0,0,0,0],"id":6,"left_children":[1,3,5,7,9,11,13,15,17,19,21,23,25,27,29,-1,31,33,35,-1,37,39,41,43,45,47,49,51,53,55,57,-1,-1,-1,-1,-1,-1,-1,-1,-1,-1,-1,-1,-1,-1,-1,-1,-1,-1,-1,-1,-1,-1,-1,-1,-1,-1,-1,-1],"loss_changes":[6.2594604E-1,6.7459285E-2,2.8561518E-1,6.328107E-2,5.4969013E-2,9.4108775E-2,2.6196447E-1,8.906011E-3,2.0265814E-2,1.841247E-2,4.814498E-2,1.6469537E-1,7.984626E-2,4.9322635E-2,4.5098037E-2,0E0,8.148318E-3,1.5454635E-2,9.274007E-3,0E0,8.683398E-3,2.5905462E-2,4.0062368E-2,8.1703804E-2,8.33672E-2,5.1000923E-2,2.7268577E-1,4.596526E-2,1.369971E-2,3.5960514E-2,3.8278334E-2,0E0,0E0,0E0,0E0,0E0,0E0,0E0,0E0,0E0,0E0,0E0,0E0,0E0,0E0,0E0,0E0,0E0,0E0,0E0,0E0,0E0,0E0,0E0,0E0,0E0,0E0,0E0,0E0],"parents":[2147483647,0,0,1,1,2,2,3,3,4,4,5,5,6,6,7,7,8,8,9,9,10,10,11,11,12,12,13,13,14,14,16,16,17,17,18,18,20,20,21,21,22,22,23,23,24,24,25,25,26,26,27,27,28,28,29,29,30,30],"right_children":[2,4,6,8,10,12,14,16,18,20,22,24,26,28,30,-1,32,34,36,-1,38,40,42,44,46,48,50,52,54,56,58,-1,-1,-1,-1,-1,-1,-1,-1,-1,-1,-1,-1,-1,-1,-1,-1,-1,-1,-1,-1,-1,-1,-1,-1,-1,-1,-1,-1],"split_conditions":[-1.0812513E1,-1.794395E1,-7.341503E0,-1.2063995E1,-1.170704E1,-1.0155244E1,-1.68618E0,-1.3633358E1,7.606199E1,6.34782E0,7.160417E1,-1.146847E1,-8.077852E0,5.59456E0,-6.224885E0,1.5144872E-3,2.1695464E3,5.89027E0,2.4813938E3,1.0884035E-3,-1.340894E1,5.96653E0,6.33481E0,5.62842E0,6.27128E0,-3.14992E0,-8.99544E0,-6.599056E0,7.965248E1,7.467992E1,7.82256E0,-9.949775E-5,6.83235E-4,-0E0,-9.536327E-4,6.535315E-4,-1.4803758E-4,3.5090392E-4,8.855116E-4,3.6348388E-4,-6.3980295E-4,7.21418E-4,1.971679E-4,5.661435E-4,-4.5443545E-4,6.26763E-4,-1.705388E-4,-3.168264E-4,-2.8750297E-5,9.4944466E-4,-2.6588325E-4,1.9467379E-4,1.3848923E-3,1.4390254E-3,8.579108E-4,8.327425E-4,-5.762277E-4,9.39615E-4,-3.1856427E-4],"split_indices":[7,2,7,7,7,7,2,7,0,5,0,2,7,5,7,0,1,5,1,0,2,5,5,5,5,2,2,7,0,0,2,0,0,0,0,0,0,0,0,0,0,0,0,0,0,0,0,0,0,0,0,0,0,0,0,0,0,0,0],"split_type":[0,0,0,0,0,0,0,0,0,0,0,0,0,0,0,0,0,0,0,0,0,0,0,0,0,0,0,0,0,0,0,0,0,0,0,0,0,0,0,0,0,0,0,0,0,0,0,0,0,0,0,0,0,0,0,0,0,0,0],"sum_hessian":[2.4143E4,4.044E3,2.0099E4,5.99E2,3.445E3,1.8224E4,1.875E3,2.3E2,3.69E2,1.178E3,2.267E3,3.2E3,1.5024E4,1.077E3,7.98E2,3.7E1,1.93E2,2.12E2,1.57E2,7.84E2,3.94E2,2.5E2,2.017E3,1.527E3,1.673E3,1.2557E4,2.467E3,4.21E2,6.56E2,5.64E2,2.34E2,2.8E1,1.65E2,7.3E1,1.39E2,5E1,1.07E2,2.02E2,1.92E2,1.22E2,1.28E2,1.496E3,5.21E2,2.26E2,1.301E3,1.24E3,4.33E2,1.0718E4,1.839E3,6.13E2,1.854E3,3.04E2,1.17E2,4.46E2,2.1E2,4.6E1,5.18E2,1.31E2,1.03E2],"tree_param":{"num_deleted":"0","num_feature":"8","num_nodes":"59","size_leaf_vector":"1"}},{"base_weights":[3.831602E-5,1.1773893E-2,-1.8823944E-3,1.7688973E-2,9.395566E-3,-3.5200643E-3,6.7298478E-3,-0E0,1.8131718E-2,1.4375692E-2,5.6154616E-3,2.161373E-3,-4.861602E-3,1.6081948E-2,2.7390344E-3,2.7206368E-4,-5.121068E-4,1.9674169E-2,1.2530134E-2,1.7940684E-3,1.5583492E-2,-4.203774E-3,7.0400615E-3,5.3127347E-3,-6.7308415E-3,3.5285938E-3,-5.2051214E-3,1.7466123E-3,1.9627428E-2,-2.0486529E-3,8.396994E-3,1.1338483E-3,8.340164E-4,-0E0,6.805881E-4,1.3363046E-3,-5.445888E-5,9.232489E-4,6.7822036E-4,-0E0,-7.825618E-4,5.062718E-4,1.6749438E-4,-8.599597E-5,5.183412E-4,-6.1382185E-4,-1.4140652E-4,2.6111596E-4,-1.546906E-3,1.623945E-5,-2.871423E-4,-4.888782E-4,4.4152685E-4,6.504377E-4,1.140402E-3,-3.4030533E-4,3.046692E-4,6.404365E-4,-1.3398116E-4],"categories":[],"categories_nodes":[],"categories_segments":[],"categories_sizes":[],"default_left":[0,0,0,0,0,0,0,0,0,0,0,0,0,0,0,0,0,0,0,0,0,0,0,0,0,0,0,0,0,0,0,0,0,0,0,0,0,0,0,0,0,0,0,0,0,0,0,0,0,0,0,0,0,0,0,0,0,0,0],"id":7,"left_children":[1,3,5,7,9,11,13,15,17,19,21,23,25,27,29,-1,-1,31,33,35,37,39,41,43,45,47,49,51,53,55,57,-1,-1,-1,-1,-1,-1,-1,-1,-1,-1,-1,-1,-1,-1,-1,-1,-1,-1,-1,-1,-1,-1,-1,-1,-1,-1,-1,-1],"loss_changes":[5.4759943E-1,4.5209736E-2,2.935174E-1,8.43212E-3,4.408002E-2,1.3376981E-1,1.21947184E-1,1.5092043E-3,4.706651E-3,1.41294E-2,1.9995019E-2,9.32652E-2,4.1064233E-2,4.7891557E-2,6.390378E-2,0E0,0E0,2.2126734E-3,3.655035E-3,9.781317E-3,2.0561963E-3,8.019061E-3,1.2713872E-2,8.86398E-2,1.7154258E-2,2.9522281E-2,4.1094184E-2,1.6482191E-2,1.26259625E-2,4.8764355E-2,5.3823695E-2,0E0,0E0,0E0,0E0,0E0,0E0,0E0,0E0,0E0,0E0,0E0,0E0,0E0,0E0,0E0,0E0,0E0,0E0,0E0,0E0,0E0,0E0,0E0,0E0,0E0,0E0,0E0,0E0],"parents":[2147483647,0,0,1,1,2,2,3,3,4,4,5,5,6,6,7,7,8,8,9,9,10,10,11,11,12,12,13,13,14,14,17,17,18,18,19,19,20,20,21,21,22,22,23,23,24,24,25,25,26,26,27,27,28,28,29,29,30,30],"right_children":[2,4,6,8,10,12,14,16,18,20,22,24,26,28,30,-1,-1,32,34,36,38,40,42,44,46,48,50,52,54,56,58,-1,-1,-1,-1,-1,-1,-1,-1,-1,-1,-1,-1,-1,-1,-1,-1,-1,-1,-1,-1,-1,-1,-1,-1,-1,-1,-1,-1],"split_conditions":[-1.0986519E1,-1.2063995E1,-7.808209E0,6.606353E1,6.0214E0,-1.025562E1,7.661575E1,-1.243625E1,6.46665E0,7.036363E1,7.174051E1,6.27128E0,7.097506E1,5.18957E0,5.7907E0,2.7206368E-4,-5.121068E-4,-1.2567248E1,1.7535559E3,2.0053918E3,-1.1472165E1,-1.1228625E1,6.34098E0,7.588426E1,7.630658E1,2.44425E0,5.33823E0,-9.55709E0,-7.513556E0,-6.897738E0,8.171732E1,1.1338483E-3,8.340164E-4,-0E0,6.805881E-4,1.3363046E-3,-5.445888E-5,9.232489E-4,6.7822036E-4,-0E0,-7.825618E-4,5.062718E-4,1.6749438E-4,-8.599597E-5,5.183412E-4,-6.1382185E-4,-1.4140652E-4,2.6111596E-4,-1.546906E-3,1.623945E-5,-2.871423E-4,-4.888782E-4,4.4152685E-4,6.504377E-4,1.140402E-3,-3.4030533E-4,3.046692E-4,6.404365E-4,-1.3398116E-4],"split_indices":[7,7,7,0,5,7,0,7,5,0,0,5,0,5,5,0,0,7,1,1,7,7,5,0,0,6,5,3,7,7,0,0,0,0,0,0,0,0,0,0,0,0,0,0,0,0,0,0,0,0,0,0,0,0,0,0,0,0,0],"split_type":[0,0,0,0,0,0,0,0,0,0,0,0,0,0,0,0,0,0,0,0,0,0,0,0,0,0,0,0,0,0,0,0,0,0,0,0,0,0,0,0,0,0,0,0,0,0,0,0,0,0,0,0,0,0,0,0,0,0,0],"sum_hessian":[2.4248E4,3.417E3,2.0831E4,9.66E2,2.451E3,1.7513E4,3.318E3,2.1E1,9.45E2,1.045E3,1.406E3,3.331E3,1.4182E4,9.84E2,2.334E3,1.1E1,1E1,7.25E2,2.2E2,9.9E1,9.46E2,1.69E2,1.237E3,2.468E3,8.63E2,5.46E2,1.3636E4,2.01E2,7.83E2,1.255E3,1.079E3,3.42E2,3.83E2,1.4E1,2.06E2,1.3E1,8.6E1,3.66E2,5.8E2,1.25E2,4.4E1,6.58E2,5.79E2,1.024E3,1.444E3,3.45E2,5.18E2,5.24E2,2.2E1,1.192E3,1.2444E4,7.1E1,1.3E2,2.66E2,5.17E2,8E2,4.55E2,7.78E2,3.01E2],"tree_param":{"num_deleted":"0","num_feature":"8","num_nodes":"59","size_leaf_vector":"1"}},{"base_weights":[-5.6009147E-5,9.659846E-3,-2.0227148E-3,1.9957094E-2,8.232034E-3,-3.6252425E-3,6.0785906E-3,-0E0,2.0526178E-2,-3.2894106E-3,9.548544E-3,-3.4515862E-4,-5.047993E-3,1.4608129E-2,2.30983E-3,1.1898428E-3,1.7045613E-2,1.324384E-3,-1.4738382E-2,6.7699095E-3,1.2342153E-2,-4.8711854E-3,3.7644564E-3,3.131963E-3,-5.565843E-3,4.568655E-3,1.6472925E-2,-1.7332277E-3,9.606543E-3,7.151357E-4,1.4019571E-3,4.449235E-4,-2.8796686E-4,-9.967595E-4,-8.782223E-6,5.599082E-4,6.732083E-5,8.2663767E-4,5.5615214E-4,-4.3253618E-5,-3.3941556E-4,4.1225855E-4,7.22789E-5,-9.726122E-5,7.5464643E-4,-3.1121713E-4,-4.6582576E-5,6.4099167E-4,-1.7089445E-4,9.993607E-4,4.890075E-4,2.8086195E-4,-2.692711E-4,7.2527863E-4,4.9989812E-5],"categories":[],"categories_nodes":[],"categories_segments":[],"categories_sizes":[],"default_left":[0,0,0,0,0,0,0,0,0,0,0,0,0,0,0,0,0,0,0,0,0,0,0,0,0,0,0,0,0,0,0,0,0,0,0,0,0,0,0,0,0,0,0,0,0,0,0,0,0,0,0,0,0,0,0],"id":8,"left_children":[1,3,5,7,9,11,13,-1,15,17,19,21,23,25,27,-1,29,31,33,35,37,39,41,43,45,47,49,51,53,-1,-1,-1,-1,-1,-1,-1,-1,-1,-1,-1,-1,-1,-1,-1,-1,-1,-1,-1,-1,-1,-1,-1,-1,-1,-1],"loss_changes":[4.6274504E-1,5.6929618E-2,2.617908E-1,4.8998445E-3,5.5095628E-2,7.8140184E-2,1.0509492E-1,0E0,8.8326633E-4,2.0430095E-2,2.3070067E-2,9.541798E-2,4.9982905E-2,1.6729385E-2,6.906937E-2,0E0,2.812855E-3,1.3885644E-2,6.3101873E-3,3.809368E-2,5.1786453E-3,1.8045329E-2,2.6802488E-2,4.3125033E-2,3.300199E-2,1.2054942E-2,1.665543E-2,3.9765008E-2,3.360033E-2,0E0,0E0,0E0,0E0,0E0,0E0,0E0,0E0,0E0,0E0,0E0,0E0,0E0,0E0,0E0,0E0,0E0,0E0,0E0,0E0,0E0,0E0,0E0,0E0,0E0,0E0],"parents":[2147483647,0,0,1,1,2,2,3,3,4,4,5,5,6,6,8,8,9,9,10,10,11,11,12,12,13,13,14,14,16,16,17,17,18,18,19,19,20,20,21,21,22,22,23,23,24,24,25,25,26,26,27,27,28,28],"right_children":[2,4,6,8,10,12,14,-1,16,18,20,22,24,26,28,-1,30,32,34,36,38,40,42,44,46,48,50,52,54,-1,-1,-1,-1,-1,-1,-1,-1,-1,-1,-1,-1,-1,-1,-1,-1,-1,-1,-1,-1,-1,-1,-1,-1,-1,-1],"split_conditions":[-1.0812513E1,-1.2567248E1,-7.808209E0,1.779397E3,7.097506E1,-9.840195E0,7.661575E1,-0E0,7.497708E1,-1.1195009E1,7.668643E1,7.675261E1,7.196234E1,-1.438957E1,-6.95658E0,1.1898428E-3,5.91798E0,5.60676E0,1.142532E1,-1.1318603E1,-1.133552E1,-1.0453005E1,2.3442822E3,-8.759805E0,2.11642E0,2.4475645E3,5.60676E0,-9.31512E0,8.111117E1,7.151357E-4,1.4019571E-3,4.449235E-4,-2.8796686E-4,-9.967595E-4,-8.782223E-6,5.599082E-4,6.732083E-5,8.2663767E-4,5.5615214E-4,-4.3253618E-5,-3.3941556E-4,4.1225855E-4,7.22789E-5,-9.726122E-5,7.5464643E-4,-3.1121713E-4,-4.6582576E-5,6.4099167E-4,-1.7089445E-4,9.993607E-4,4.890075E-4,2.8086195E-4,-2.692711E-4,7.2527863E-4,4.9989812E-5],"split_indices":[7,7,7,1,0,7,0,0,0,7,0,0,0,3,7,0,4,4,3,7,3,7,1,7,6,1,4,3,0,0,0,0,0,0,0,0,0,0,0,0,0,0,0,0,0,0,0,0,0,0,0,0,0,0,0],"split_type":[0,0,0,0,0,0,0,0,0,0,0,0,0,0,0,0,0,0,0,0,0,0,0,0,0,0,0,0,0,0,0,0,0,0,0,0,0,0,0,0,0,0,0,0,0,0,0,0,0,0,0,0,0,0,0],"sum_hessian":[2.4255E4,4.074E3,2.0181E4,4.86E2,3.588E3,1.6859E4,3.322E3,1.5E1,4.71E2,3.6E2,3.228E3,5.122E3,1.1737E4,1.009E3,2.313E3,2.25E2,2.46E2,2.51E2,1.09E2,1.638E3,1.59E3,2.449E3,2.673E3,6.87E2,1.105E4,1.67E2,8.42E2,1.48E3,8.33E2,2.06E2,4E1,1.28E2,1.23E2,7.5E1,3.4E1,8.91E2,7.47E2,3.37E2,1.253E3,8.1E2,1.639E3,8.96E2,1.777E3,4.77E2,2.1E2,9.656E3,1.394E3,8.8E1,7.9E1,5.41E2,3.01E2,4.82E2,9.98E2,5.23E2,3.1E2],"tree_param":{"num_deleted":"0","num_feature":"8","num_nodes":"55","size_leaf_vector":"1"}},{"base_weights":[2.1556867E-4,3.9427873E-4,-8.719026E-3,3.3855103E-3,1.0353443E-4,-1.5310927E-2,-5.0723683E-3,1.941408E-2,2.9873603E-3,1.8394098E-2,3.117058E-5,-3.2820883E-3,-2.5575606E-2,-2.077648E-4,-1.1380934E-2,1.7433966E-3,9.1637403E-4,1.3224461E-2,2.437683E-3,2.1288725E-2,-0E0,6.4131286E-4,-1.1561803E-3,-1.3067797E-2,1.2569409E-2,-1.6922805E-3,-1.3130453E-2,1.0461731E-2,-2.4044323E-3,-2.2072045E-2,-2.9921494E-3,-0E0,4.0195542E-4,-0E0,1.0255722E-3,-6.1024475E-5,2.03731E-4,1.425398E-3,9.453543E-5,9.248929E-5,-4.1568037E-5,-2.5536536E-4,-2.9674018E-5,-1.0506158E-3,-0E0,1.4943645E-3,-0E0,-1.3871155E-3,-1.2231393E-4,-0E0,8.8171253E-4,-1.1141156E-3,-0E0,-0E0,-1.3706418E-3,5.900584E-4,-4.70015E-4],"categories":[],"categories_nodes":[],"categories_segments":[],"categories_sizes":[],"default_left":[0,0,0,0,0,0,0,0,0,0,0,0,0,0,0,0,0,0,0,0,0,0,0,0,0,0,0,0,0,0,0,0,0,0,0,0,0,0,0,0,0,0,0,0,0,0,0,0,0,0,0,0,0,0,0,0,0],"id":9,"left_children":[1,3,5,7,9,11,13,15,17,19,21,23,25,27,29,-1,31,33,35,37,-1,39,41,43,45,-1,47,49,51,53,55,-1,-1,-1,-1,-1,-1,-1,-1,-1,-1,-1,-1,-1,-1,-1,-1,-1,-1,-1,-1,-1,-1,-1,-1,-1,-1],"loss_changes":[3.7841488E-2,2.0310946E-2,9.037826E-3,1.0937661E-2,2.685599E-2,1.6168475E-2,8.352254E-3,8.967493E-3,9.830197E-3,3.297625E-3,1.5600337E-2,1.215819E-2,2.9887818E-3,3.5553314E-3,8.727903E-3,0E0,8.8462787E-4,9.224556E-3,1.1895513E-2,6.2888376E-3,0E0,2.5600944E-2,1.5608056E-2,7.456243E-3,7.5045093E-3,0E0,2.8456692E-3,1.4158201E-3,5.5179484E-3,5.6997854E-3,7.1702786E-3,0E0,0E0,0E0,0E0,0E0,0E0,0E0,0E0,0E0,0E0,0E0,0E0,0E0,0E0,0E0,0E0,0E0,0E0,0E0,0E0,0E0,0E0,0E0,0E0,0E0,0E0],"parents":[2147483647,0,0,1,1,2,2,3,3,4,4,5,5,6,6,7,7,8,8,9,9,10,10,11,11,12,12,13,13,14,14,16,16,17,17,18,18,19,19,21,21,22,22,23,23,24,24,26,26,27,27,28,28,29,29,30,30],"right_children":[2,4,6,8,10,12,14,16,18,20,22,24,26,28,30,-1,32,34,36,38,-1,40,42,44,46,-1,48,50,52,54,56,-1,-1,-1,-1,-1,-1,-1,-1,-1,-1,-1,-1,-1,-1,-1,-1,-1,-1,-1,-1,-1,-1,-1,-1,-1,-1],"split_conditions":[6.57252E0,5.33823E0,5.43413E0,4.53604E0,-2.241017E1,5.1874E0,6.00925E0,2.3365684E3,1.8254901E3,-3.36925E0,2.4983801E3,5.94996E0,8.9917E0,5.50603E0,6.2525E0,1.7433966E-3,5.15325E0,-7.82371E0,2.2326812E3,5.19787E0,-0E0,-7.87918E0,5.55381E0,1.049119E1,-1.10273E0,-1.6922805E-3,-7.34571E0,5.74206E0,5.56823E0,4.88169E0,1.8254901E3,-0E0,4.0195542E-4,-0E0,1.0255722E-3,-6.1024475E-5,2.03731E-4,1.425398E-3,9.453543E-5,9.248929E-5,-4.1568037E-5,-2.5536536E-4,-2.9674018E-5,-1.0506158E-3,-0E0,1.4943645E-3,-0E0,-1.3871155E-3,-1.2231393E-4,-0E0,8.8171253E-4,-1.1141156E-3,-0E0,-0E0,-1.3706418E-3,5.900584E-4,-4.70015E-4],"split_indices":[2,5,4,4,3,4,4,1,1,2,1,5,2,4,4,0,5,3,1,4,0,2,5,2,6,0,3,5,4,5,1,0,0,0,0,0,0,0,0,0,0,0,0,0,0,0,0,0,0,0,0,0,0,0,0,0,0],"split_type":[0,0,0,0,0,0,0,0,0,0,0,0,0,0,0,0,0,0,0,0,0,0,0,0,0,0,0,0,0,0,0,0,0,0,0,0,0,0,0,0,0,0,0,0,0,0,0,0,0,0,0,0,0,0,0,0,0],"sum_hessian":[2.4218E4,2.3755E4,4.63E2,2.073E3,2.1682E4,1.54E2,3.09E2,4.3E1,2.03E3,7.9E1,2.1603E4,7.6E1,7.8E1,1.84E2,1.25E2,2E1,2.3E1,9.3E1,1.937E3,6.6E1,1.3E1,1.4326E4,7.277E3,5.1E1,2.5E1,4.1E1,3.7E1,2.3E1,1.61E2,4.9E1,7.6E1,1E1,1.3E1,3.3E1,6E1,5.8E2,1.357E3,4.4E1,2.2E1,7.906E3,6.42E3,8.84E2,6.393E3,3.6E1,1.5E1,1.2E1,1.3E1,1.1E1,2.6E1,1.1E1,1.2E1,1.2E1,1.49E2,1E1,3.9E1,1.8E1,5.8E1],"tree_param":{"num_deleted":"0","num_feature":"8","num_nodes":"57","size_leaf_vector":"1"}},{"base_weights":[1.9290537E-4,9.213659E-3,-1.8229528E-3,6.1211134E-3,1.634419E-2,-3.4249767E-3,6.117187E-3,9.424151E-3,-1.5892463E-3,-5.2256887E-3,1.702718E-2,-6.126359E-4,-5.00507E-3,1.9232241E-2,-7.9474226E-4,1.2913879E-2,3.7828805E-3,-1.1523947E-2,6.4709806E-3,2.0862055E-4,-9.2113466E-4,1.8888218E-2,1.2128197E-2,-6.775265E-3,5.401631E-3,3.068287E-3,-6.108437E-3,1.1414496E-2,2.3777999E-2,-6.114509E-3,6.6419197E-3,1.0854295E-3,5.5898255E-4,5.2345236E-4,-3.751667E-5,1.0826767E-4,-8.465345E-4,7.260791E-4,1.6032177E-4,3.5845983E-4,9.878938E-4,5.421347E-7,7.250933E-4,-5.342028E-4,-7.776978E-5,5.012085E-4,-4.8717597E-5,-2.1902336E-4,8.956599E-4,1.1078167E-4,-3.3207572E-4,9.1440736E-5,8.815584E-4,1.301377E-3,7.8822655E-4,2.2623046E-4,-5.112444E-4,7.129929E-4,-2.9255782E-4],"categories":[],"categories_nodes":[],"categories_segments":[],"categories_sizes":[],"default_left":[0,0,0,0,0,0,0,0,0,0,0,0,0,0,0,0,0,0,0,0,0,0,0,0,0,0,0,0,0,0,0,0,0,0,0,0,0,0,0,0,0,0,0,0,0,0,0,0,0,0,0,0,0,0,0,0,0,0,0],"id":10,"left_children":[1,3,5,7,9,11,13,15,17,19,21,23,25,27,29,31,33,35,37,-1,-1,39,41,43,45,47,49,51,53,55,57,-1,-1,-1,-1,-1,-1,-1,-1,-1,-1,-1,-1,-1,-1,-1,-1,-1,-1,-1,-1,-1,-1,-1,-1,-1,-1,-1,-1],"loss_changes":[4.399857E-1,9.514308E-2,2.5077403E-1,7.962071E-2,2.0818502E-2,7.245502E-2,3.012771E-1,4.1119292E-2,7.424974E-2,6.090885E-3,8.4396005E-3,2.2014698E-1,9.383768E-2,3.6899865E-2,8.540073E-2,1.6799465E-2,2.6561216E-2,3.2451265E-2,1.1400254E-2,0E0,0E0,6.5316856E-3,9.27702E-3,5.8745354E-2,8.921655E-2,1.3987303E-1,4.148966E-2,2.370549E-2,8.29947E-3,5.6023233E-2,8.5912436E-2,0E0,0E0,0E0,0E0,0E0,0E0,0E0,0E0,0E0,0E0,0E0,0E0,0E0,0E0,0E0,0E0,0E0,0E0,0E0,0E0,0E0,0E0,0E0,0E0,0E0,0E0,0E0,0E0],"parents":[2147483647,0,0,1,1,2,2,3,3,4,4,5,5,6,6,7,7,8,8,9,9,10,10,11,11,12,12,13,13,14,14,15,15,16,16,17,17,18,18,21,21,22,22,23,23,24,24,25,25,26,26,27,27,28,28,29,29,30,30],"right_children":[2,4,6,8,10,12,14,16,18,20,22,24,26,28,30,32,34,36,38,-1,-1,40,42,44,46,48,50,52,54,56,58,-1,-1,-1,-1,-1,-1,-1,-1,-1,-1,-1,-1,-1,-1,-1,-1,-1,-1,-1,-1,-1,-1,-1,-1,-1,-1,-1,-1],"split_conditions":[-1.0712049E1,-1.067886E1,-7.808209E0,-1.1133501E1,6.706513E1,-9.639388E0,-6.31004E0,6.21709E0,7.602112E1,-1.1318603E1,6.33481E0,-1.073221E1,-1.382662E1,5.64456E0,-7.016157E0,-1.2567248E1,-1.2063995E1,5.7907E0,-1.133552E1,2.0862055E-4,-9.2113466E-4,7.036363E1,-9.62241E0,7.729628E1,6.06874E0,-8.786679E0,7.216682E1,-7.411306E0,8.031491E1,7.648147E1,3.06288E0,1.0854295E-3,5.5898255E-4,5.2345236E-4,-3.751667E-5,1.0826767E-4,-8.465345E-4,7.260791E-4,1.6032177E-4,3.5845983E-4,9.878938E-4,5.421347E-7,7.250933E-4,-5.342028E-4,-7.776978E-5,5.012085E-4,-4.8717597E-5,-2.1902336E-4,8.956599E-4,1.1078167E-4,-3.3207572E-4,9.1440736E-5,8.815584E-4,1.301377E-3,7.8822655E-4,2.2623046E-4,-5.112444E-4,7.129929E-4,-2.9255782E-4],"split_indices":[7,2,7,7,0,7,2,5,0,7,5,2,2,5,7,7,7,5,3,0,0,0,2,0,5,7,0,7,0,0,2,0,0,0,0,0,0,0,0,0,0,0,0,0,0,0,0,0,0,0,0,0,0,0,0,0,0,0,0],"split_type":[0,0,0,0,0,0,0,0,0,0,0,0,0,0,0,0,0,0,0,0,0,0,0,0,0,0,0,0,0,0,0,0,0,0,0,0,0,0,0,0,0,0,0,0,0,0,0,0,0,0,0,0,0,0,0,0,0,0,0],"sum_hessian":[2.4153E4,4.42E3,1.9733E4,3.094E3,1.326E3,1.6431E4,3.302E3,2.175E3,9.19E2,3.6E1,1.29E3,5.934E3,1.0497E4,1.144E3,2.158E3,1.332E3,8.43E2,4.17E2,5.02E2,1.7E1,1.9E1,9.18E2,3.72E2,2.939E3,2.995E3,1.251E3,9.246E3,4.3E2,7.14E2,1.266E3,8.92E2,2.08E2,1.124E3,3.49E2,4.94E2,1.13E2,3.04E2,1.35E2,3.67E2,7.2E1,8.46E2,6.8E1,3.04E2,1.669E3,1.27E3,1.745E3,1.25E3,8.29E2,4.22E2,5.45E2,8.701E3,1.76E2,2.54E2,5.46E2,1.68E2,3.46E2,9.2E2,5.59E2,3.33E2],"tree_param":{"num_deleted":"0","num_feature":"8","num_nodes":"59","size_leaf_vector":"1"}},{"base_weights":[3.4508E-5,9.291346E-3,-1.8763962E-3,4.108527E-3,1.25687495E-2,-3.1667154E-3,6.3170614E-3,1.2359544E-2,7.271848E-5,1.7982706E-2,1.0673599E-2,5.5275654E-4,-4.101574E-3,1.5496188E-2,-3.6782601E-3,2.2624638E-2,8.570782E-3,-6.473545E-3,6.998699E-3,-0E0,1.8270073E-2,-5.2878675E-3,1.1810697E-2,-5.952432E-3,7.2188145E-3,1.225012E-3,-4.7547542E-3,1.9302629E-2,8.152996E-4,-7.793244E-3,7.381865E-3,1.5230764E-4,1.2120078E-3,-1.1620403E-4,5.293925E-4,-7.9646613E-4,-4.9406804E-5,-8.211313E-5,4.4903872E-4,6.5111066E-4,1.0049399E-3,-5.6465383E-4,1.5417399E-3,5.052664E-4,9.143708E-4,-5.120977E-4,-6.0955554E-5,-1.062169E-5,4.7971704E-4,-2.8679028E-4,9.689796E-4,-9.645551E-5,-2.866783E-4,6.086503E-4,1.1109412E-3,-5.0628226E-4,5.0285767E-4,2.9116665E-4,-5.314843E-4,7.536976E-4,-1.8790227E-4],"categories":[],"categories_nodes":[],"categories_segments":[],"categories_sizes":[],"default_left":[0,0,0,0,0,0,0,0,0,0,0,0,0,0,0,0,0,0,0,0,0,0,0,0,0,0,0,0,0,0,0,0,0,0,0,0,0,0,0,0,0,0,0,0,0,0,0,0,0,0,0,0,0,0,0,0,0,0,0,0,0],"id":11,"left_children":[1,3,5,7,9,11,13,15,17,19,21,23,25,27,29,31,33,35,37,-1,39,41,43,45,47,49,51,53,55,57,59,-1,-1,-1,-1,-1,-1,-1,-1,-1,-1,-1,-1,-1,-1,-1,-1,-1,-1,-1,-1,-1,-1,-1,-1,-1,-1,-1,-1,-1,-1],"loss_changes":[4.2697373E-1,6.846756E-2,2.107679E-1,5.2501313E-2,2.2788048E-2,6.036979E-2,2.4950969E-1,1.6988166E-2,4.965367E-2,2.9748827E-3,3.487256E-2,1.4960182E-1,4.8420757E-2,7.710135E-2,5.8854967E-2,1.4042482E-3,9.421498E-3,2.7079701E-2,9.980075E-3,0E0,2.443418E-3,2.4424946E-2,1.6448587E-2,3.4108903E-2,3.1127065E-2,1.9014701E-1,3.3302546E-2,1.9555897E-2,3.022714E-2,3.7156798E-2,3.0665305E-2,0E0,0E0,0E0,0E0,0E0,0E0,0E0,0E0,0E0,0E0,0E0,0E0,0E0,0E0,0E0,0E0,0E0,0E0,0E0,0E0,0E0,0E0,0E0,0E0,0E0,0E0,0E0,0E0,0E0,0E0],"parents":[2147483647,0,0,1,1,2,2,3,3,4,4,5,5,6,6,7,7,8,8,9,9,10,10,11,11,12,12,13,13,14,14,15,15,16,16,17,17,18,18,20,20,21,21,22,22,23,23,24,24,25,25,26,26,27,27,28,28,29,29,30,30],"right_children":[2,4,6,8,10,12,14,16,18,20,22,24,26,28,30,32,34,36,38,-1,40,42,44,46,48,50,52,54,56,58,60,-1,-1,-1,-1,-1,-1,-1,-1,-1,-1,-1,-1,-1,-1,-1,-1,-1,-1,-1,-1,-1,-1,-1,-1,-1,-1,-1,-1,-1,-1],"split_conditions":[-1.0786781E1,-1.467914E1,-7.642474E0,-1.2063995E1,-1.1807338E1,-1.009543E1,-3.4565E0,-1.3169368E1,7.606199E1,6.606353E1,6.978388E1,-1.1173E1,-1.45241E1,8.064532E1,-6.37512E0,-2.072497E1,7.097506E1,-1.794395E1,-1.885107E1,-0E0,5.14208E0,-5.66957E0,-6.68296E0,-1.439115E1,7.411348E1,-8.939412E0,-9.464333E0,-7.411306E0,-7.302768E0,7.549407E1,8.111117E1,1.5230764E-4,1.2120078E-3,-1.1620403E-4,5.293925E-4,-7.9646613E-4,-4.9406804E-5,-8.211313E-5,4.4903872E-4,6.5111066E-4,1.0049399E-3,-5.6465383E-4,1.5417399E-3,5.052664E-4,9.143708E-4,-5.120977E-4,-6.0955554E-5,-1.062169E-5,4.7971704E-4,-2.8679028E-4,9.689796E-4,-9.645551E-5,-2.866783E-4,6.086503E-4,1.1109412E-3,-5.0628226E-4,5.0285767E-4,2.9116665E-4,-5.314843E-4,7.536976E-4,-1.8790227E-4],"split_indices":[7,2,7,7,7,7,2,7,0,0,0,2,2,0,7,2,0,2,2,0,4,2,2,2,0,7,7,7,7,0,0,0,0,0,0,0,0,0,0,0,0,0,0,0,0,0,0,0,0,0,0,0,0,0,0,0,0,0,0,0,0],"split_type":[0,0,0,0,0,0,0,0,0,0,0,0,0,0,0,0,0,0,0,0,0,0,0,0,0,0,0,0,0,0,0,0,0,0,0,0,0,0,0,0,0,0,0,0,0,0,0,0,0,0,0,0,0,0,0,0,0,0,0,0,0],"sum_hessian":[2.4094E4,4.131E3,1.9963E4,1.613E3,2.518E3,1.7258E4,2.705E3,5.21E2,1.092E3,6.37E2,1.881E3,3.445E3,1.3813E4,1.415E3,1.29E3,1.32E2,3.89E2,5.54E2,5.38E2,1.1E1,6.26E2,1.19E2,1.762E3,1.736E3,1.709E3,1.492E3,1.2321E4,1.118E3,2.97E2,9.47E2,3.43E2,1.5E1,1.17E2,5.3E1,3.36E2,1.96E2,3.58E2,9.1E1,4.47E2,1.78E2,4.48E2,1.05E2,1.4E1,1.409E3,3.53E2,8.99E2,8.37E2,4.04E2,1.305E3,1.075E3,4.17E2,3.197E3,9.124E3,3.36E2,7.82E2,1.31E2,1.66E2,1.57E2,7.9E2,2.08E2,1.35E2],"tree_param":{"num_deleted":"0","num_feature":"8","num_nodes":"61","size_leaf_vector":"1"}},{"base_weights":[-9.524045E-6,1.0469904E-2,-1.6127111E-3,-4.327932E-3,1.1497642E-2,-2.5133013E-3,8.624327E-3,6.6724997E-3,-1.3155975E-2,1.3985314E-2,7.228089E-3,1.9546929E-3,-3.4394576E-3,1.7801695E-2,-3.557783E-3,1.1495582E-2,-0E0,-0E0,-2.257653E-2,1.7302966E-2,1.1084044E-2,3.1781658E-3,1.1158426E-2,-4.076179E-3,9.740616E-3,-4.463839E-3,7.983872E-4,4.1195704E-3,2.1812487E-2,-7.7881576E-3,5.298094E-3,8.511056E-4,-0E0,-7.4308505E-4,2.3731015E-4,-5.221759E-4,1.7705673E-4,-6.936781E-4,-1.6349684E-3,4.0792403E-4,9.03108E-4,7.5028924E-4,3.856694E-4,-3.0850546E-4,3.5359603E-4,3.335407E-4,7.278527E-4,3.529881E-4,-3.8307786E-4,9.0272987E-4,2.918151E-4,1.29412E-4,-2.5360347E-4,1.007726E-3,-1.4763967E-4,-0E0,8.135196E-4,1.1449212E-3,5.8352354E-4,-1.4592712E-4,-8.249182E-4,7.3272595E-4,-2.9685133E-4],"categories":[],"categories_nodes":[],"categories_segments":[],"categories_sizes":[],"default_left":[0,0,0,0,0,0,0,0,0,0,0,0,0,0,0,0,0,0,0,0,0,0,0,0,0,0,0,0,0,0,0,0,0,0,0,0,0,0,0,0,0,0,0,0,0,0,0,0,0,0,0,0,0,0,0,0,0,0,0,0,0,0,0],"id":12,"left_children":[1,3,5,7,9,11,13,15,17,19,21,23,25,27,29,31,33,35,37,39,41,43,45,47,49,51,53,55,57,59,61,-1,-1,-1,-1,-1,-1,-1,-1,-1,-1,-1,-1,-1,-1,-1,-1,-1,-1,-1,-1,-1,-1,-1,-1,-1,-1,-1,-1,-1,-1,-1,-1],"loss_changes":[4.0686214E-1,4.961577E-2,1.9355221E-1,2.0449927E-2,2.9747546E-2,8.028876E-2,1.9087644E-1,3.8356932E-3,1.2707077E-2,1.512301E-2,1.6438138E-2,1.5588933E-1,7.0084944E-2,5.060172E-2,2.7413968E-2,3.3459803E-3,3.0559178E-3,2.6202283E-3,6.154701E-4,3.2149553E-3,1.1161655E-2,2.0808954E-2,6.290555E-3,7.425788E-2,4.4605583E-2,5.5816352E-2,2.2744644E-1,1.28253335E-2,4.480958E-3,1.9133003E-2,2.4821123E-2,0E0,0E0,0E0,0E0,0E0,0E0,0E0,0E0,0E0,0E0,0E0,0E0,0E0,0E0,0E0,0E0,0E0,0E0,0E0,0E0,0E0,0E0,0E0,0E0,0E0,0E0,0E0,0E0,0E0,0E0,0E0,0E0],"parents":[2147483647,0,0,1,1,2,2,3,3,4,4,5,5,6,6,7,7,8,8,9,9,10,10,11,11,12,12,13,13,14,14,15,15,16,16,17,17,18,18,19,19,20,20,21,21,22,22,23,23,24,24,25,25,26,26,27,27,28,28,29,29,30,30],"right_children":[2,4,6,8,10,12,14,16,18,20,22,24,26,28,30,32,34,36,38,40,42,44,46,48,50,52,54,56,58,60,62,-1,-1,-1,-1,-1,-1,-1,-1,-1,-1,-1,-1,-1,-1,-1,-1,-1,-1,-1,-1,-1,-1,-1,-1,-1,-1,-1,-1,-1,-1,-1,-1],"split_conditions":[-1.1041924E1,-1.976005E1,-7.26578E0,-1.223319E1,6.23641E0,-1.0291319E1,-1.56209E0,1.18389E0,5.99414E0,-1.1646763E1,-1.347268E1,-1.085705E1,-8.180153E0,5.37713E0,-6.224885E0,2.6035522E3,1.48565E0,2.4584402E3,5.51492E0,-1.845292E1,5.86944E0,2.2932776E3,5.25785E0,5.75228E0,5.83502E0,5.32678E0,-1.067886E1,-6.599056E0,2.6630854E3,5.58355E0,7.82256E0,8.511056E-4,-0E0,-7.4308505E-4,2.3731015E-4,-5.221759E-4,1.7705673E-4,-6.936781E-4,-1.6349684E-3,4.0792403E-4,9.03108E-4,7.5028924E-4,3.856694E-4,-3.0850546E-4,3.5359603E-4,3.335407E-4,7.278527E-4,3.529881E-4,-3.8307786E-4,9.0272987E-4,2.918151E-4,1.29412E-4,-2.5360347E-4,1.007726E-3,-1.4763967E-4,-0E0,8.135196E-4,1.1449212E-3,5.8352354E-4,-1.4592712E-4,-8.249182E-4,7.3272595E-4,-2.9685133E-4],"split_indices":[7,2,7,7,5,7,2,6,5,7,2,2,7,5,7,1,6,1,4,2,5,1,4,5,5,5,2,7,1,2,2,0,0,0,0,0,0,0,0,0,0,0,0,0,0,0,0,0,0,0,0,0,0,0,0,0,0,0,0,0,0,0,0],"split_type":[0,0,0,0,0,0,0,0,0,0,0,0,0,0,0,0,0,0,0,0,0,0,0,0,0,0,0,0,0,0,0,0,0,0,0,0,0,0,0,0,0,0,0,0,0,0,0,0,0,0,0,0,0,0,0,0,0,0,0,0,0,0,0],"sum_hessian":[2.4268E4,3.211E3,2.1057E4,2.02E2,3.009E3,1.9364E4,1.693E3,8.5E1,1.17E2,1.885E3,1.124E3,3.306E3,1.6058E4,9.7E2,7.23E2,5.7E1,2.8E1,5.3E1,6.4E1,8.61E2,1.024E3,5.67E2,5.57E2,1.856E3,1.45E3,1.2951E4,3.107E3,2.26E2,7.44E2,4.97E2,2.26E2,3.7E1,2E1,1.1E1,1.7E1,1.9E1,3.4E1,4.1E1,2.3E1,7.7E1,7.84E2,4.58E2,5.66E2,1.59E2,4.08E2,2.54E2,3.03E2,4.45E2,1.411E3,4.54E2,9.96E2,1.015E3,1.1936E4,5.08E2,2.599E3,1.64E2,6.2E1,6.62E2,8.2E1,3.27E2,1.7E2,1.28E2,9.8E1],"tree_param":{"num_deleted":"0","num_feature":"8","num_nodes":"63","size_leaf_vector":"1"}},{"base_weights":[-1.858774E-5,2.2237075E-2,-1.0943336E-4,-0E0,2.6356334E-2,3.0188736E-5,-7.3349313E-3,2.975095E-2,2.6524608E-4,8.0669794E-4,-9.681674E-4,-1.6015152E-2,-2.4086833E-3,3.3678457E-2,1.1232361E-4,1.8943081E-3,-9.146033E-4,4.150759E-3,-1.2362537E-3,6.646257E-4,-1.9529244E-2,-6.789482E-3,3.214139E-3,7.6983706E-5,1.9520303E-3,4.881023E-4,7.835781E-5,-1.0603075E-4,8.510398E-5,6.63367E-5,9.28831E-4,-4.8415062E-5,-2.5610428E-4,-6.808327E-4,-1.6905157E-3,-5.150898E-4,3.0339186E-4,6.6302315E-4,-2.2498522E-5],"categories":[],"categories_nodes":[],"categories_segments":[],"categories_sizes":[],"default_left":[0,0,0,0,0,0,0,0,0,0,0,0,0,0,0,0,0,0,0,0,0,0,0,0,0,0,0,0,0,0,0,0,0,0,0,0,0,0,0],"id":13,"left_children":[1,3,5,-1,7,9,11,13,-1,15,17,19,21,23,-1,25,27,29,31,-1,33,35,37,-1,-1,-1,-1,-1,-1,-1,-1,-1,-1,-1,-1,-1,-1,-1,-1],"loss_changes":[4.6762425E-2,7.006705E-3,2.5072975E-2,0E0,1.8391237E-3,1.8325865E-2,1.8259432E-2,3.0293353E-3,0E0,2.5120385E-2,1.3841651E-2,1.7670609E-2,7.990784E-3,4.6708398E-3,0E0,2.0025065E-2,1.6266018E-2,1.811008E-2,9.592019E-3,0E0,7.378198E-3,8.79515E-3,5.9251804E-3,0E0,0E0,0E0,0E0,0E0,0E0,0E0,0E0,0E0,0E0,0E0,0E0,0E0,0E0,0E0,0E0],"parents":[2147483647,0,0,1,1,2,2,4,4,5,5,6,6,7,7,9,9,10,10,11,11,12,12,13,13,15,15,16,16,17,17,18,18,20,20,21,21,22,22],"right_children":[2,4,6,-1,8,10,12,14,-1,16,18,20,22,24,-1,26,28,30,32,-1,34,36,38,-1,-1,-1,-1,-1,-1,-1,-1,-1,-1,-1,-1,-1,-1,-1,-1],"split_conditions":[-2.241017E1,-1.312198E1,6.57252E0,-0E0,-3.36925E0,-5.13209E0,5.43413E0,2.9949407E3,2.6524608E-4,2.5009783E3,5.17208E0,4.69355E0,2.1467124E3,1.38149E0,1.1232361E-4,4.64092E0,5.53833E0,5.95282E0,1.612776E1,6.646257E-4,2.3804846E3,6.36642E0,5.69498E0,7.6983706E-5,1.9520303E-3,4.881023E-4,7.835781E-5,-1.0603075E-4,8.510398E-5,6.63367E-5,9.28831E-4,-4.8415062E-5,-2.5610428E-4,-6.808327E-4,-1.6905157E-3,-5.150898E-4,3.0339186E-4,6.6302315E-4,-2.2498522E-5],"split_indices":[3,2,2,0,2,3,4,1,0,1,5,4,1,6,0,4,4,4,3,0,1,4,4,0,0,0,0,0,0,0,0,0,0,0,0,0,0,0,0],"split_type":[0,0,0,0,0,0,0,0,0,0,0,0,0,0,0,0,0,0,0,0,0,0,0,0,0,0,0,0,0,0,0,0,0,0,0,0,0,0,0],"sum_hessian":[2.4221E4,9.3E1,2.4128E4,1.7E1,7.6E1,2.3658E4,4.7E2,6.1E1,1.5E1,1.3364E4,1.0294E4,1.62E2,3.08E2,5E1,1.1E1,8.225E3,5.139E3,4.93E2,9.801E3,1.4E1,1.48E2,1.83E2,1.25E2,1E1,4E1,3.15E2,7.91E3,3.544E3,1.595E3,4.19E2,7.4E1,9.194E3,6.07E2,1.11E2,3.7E1,1.5E2,3.3E1,4E1,8.5E1],"tree_param":{"num_deleted":"0","num_feature":"8","num_nodes":"39","size_leaf_vector":"1"}},{"base_weights":[2.3499665E-4,7.5920634E-3,-1.6206513E-3,1.6197748E-2,6.098586E-3,-3.1053897E-3,5.485623E-3,2.2328678E-3,1.7367106E-2,1.2164414E-2,3.6368296E-3,3.5887613E-4,-3.7179454E-3,1.4420625E-2,2.5949494E-3,7.7846396E-4,-8.6035545E-4,2.1628628E-2,1.2827408E-2,1.3968129E-2,6.3345092E-3,-5.594627E-4,8.789951E-3,3.2451155E-3,-8.724024E-3,1.9076332E-3,-4.1385344E-3,2.80247E-4,1.8285247E-2,-8.0981484E-4,9.030639E-3,-7.8646943E-4,2.1303874E-4,1.2187277E-3,6.359375E-4,-0E0,7.95541E-4,4.7790116E-5,7.573842E-4,5.835096E-4,2.7397322E-5,1.8840125E-4,-2.0489434E-4,5.0063693E-4,-1.16248986E-4,-6.9261376E-5,3.8152377E-4,-1.1237956E-3,-3.580091E-4,-2.6900216E-4,3.8624002E-4,1.9768733E-4,-2.2547762E-4,-3.2512026E-4,4.556914E-4,6.116265E-4,1.0805258E-3,-1.4197137E-4,3.6706318E-4,6.66855E-4,-1.7394869E-4],"categories":[],"categories_nodes":[],"categories_segments":[],"categories_sizes":[],"default_left":[0,0,0,0,0,0,0,0,0,0,0,0,0,0,0,0,0,0,0,0,0,0,0,0,0,0,0,0,0,0,0,0,0,0,0,0,0,0,0,0,0,0,0,0,0,0,0,0,0,0,0,0,0,0,0,0,0,0,0,0,0],"id":14,"left_children":[1,3,5,7,9,11,13,15,17,19,21,23,25,27,29,-1,31,33,35,37,39,41,43,45,47,49,51,53,55,57,59,-1,-1,-1,-1,-1,-1,-1,-1,-1,-1,-1,-1,-1,-1,-1,-1,-1,-1,-1,-1,-1,-1,-1,-1,-1,-1,-1,-1,-1,-1],"loss_changes":[3.3238345E-1,6.072545E-2,2.0443593E-1,9.677127E-3,6.097305E-2,3.4411088E-2,8.455296E-2,4.083195E-3,8.909911E-3,1.04788095E-2,6.559185E-2,6.210907E-2,3.2572597E-2,4.229328E-2,5.6354415E-2,0E0,4.7166077E-3,3.907606E-3,1.2786873E-2,1.2204409E-2,7.972621E-3,2.5176218E-2,1.9208133E-2,3.7632115E-2,9.090748E-3,3.9914083E-2,3.8308755E-2,1.1105123E-2,9.011179E-3,2.6834399E-2,4.881683E-2,0E0,0E0,0E0,0E0,0E0,0E0,0E0,0E0,0E0,0E0,0E0,0E0,0E0,0E0,0E0,0E0,0E0,0E0,0E0,0E0,0E0,0E0,0E0,0E0,0E0,0E0,0E0,0E0,0E0,0E0],"parents":[2147483647,0,0,1,1,2,2,3,3,4,4,5,5,6,6,7,7,8,8,9,9,10,10,11,11,12,12,13,13,14,14,16,16,17,17,18,18,19,19,20,20,21,21,22,22,23,23,24,24,25,25,26,26,27,27,28,28,29,29,30,30],"right_children":[2,4,6,8,10,12,14,16,18,20,22,24,26,28,30,-1,32,34,36,38,40,42,44,46,48,50,52,54,56,58,60,-1,-1,-1,-1,-1,-1,-1,-1,-1,-1,-1,-1,-1,-1,-1,-1,-1,-1,-1,-1,-1,-1,-1,-1,-1,-1,-1,-1,-1,-1],"split_conditions":[-1.0613149E1,5.69087E0,-7.808209E0,-2.30322E0,-1.1807338E1,-1.0155244E1,7.602112E1,-1.1646763E1,2.3910996E3,6.46665E0,7.707281E1,6.28783E0,7.216682E1,5.18957E0,5.92152E0,7.7846396E-4,-1.1228625E1,1.70369E0,7.38867E1,6.914146E1,8.1674E-1,-1.1159985E1,6.65175E0,7.67204E1,-1.6838E0,-9.389878E0,5.17208E0,-7.130399E0,5.64456E0,-6.485024E0,8.197395E1,-7.8646943E-4,2.1303874E-4,1.2187277E-3,6.359375E-4,-0E0,7.95541E-4,4.7790116E-5,7.573842E-4,5.835096E-4,2.7397322E-5,1.8840125E-4,-2.0489434E-4,5.0063693E-4,-1.16248986E-4,-6.9261376E-5,3.8152377E-4,-1.1237956E-3,-3.580091E-4,-2.6900216E-4,3.8624002E-4,1.9768733E-4,-2.2547762E-4,-3.2512026E-4,4.556914E-4,6.116265E-4,1.0805258E-3,-1.4197137E-4,3.6706318E-4,6.66855E-4,-1.7394869E-4],"split_indices":[7,5,7,6,7,7,0,7,1,5,0,5,0,5,5,0,7,6,0,0,6,7,5,0,6,7,5,7,5,7,0,0,0,0,0,0,0,0,0,0,0,0,0,0,0,0,0,0,0,0,0,0,0,0,0,0,0,0,0,0,0],"split_type":[0,0,0,0,0,0,0,0,0,0,0,0,0,0,0,0,0,0,0,0,0,0,0,0,0,0,0,0,0,0,0,0,0,0,0,0,0,0,0,0,0,0,0,0,0,0,0,0,0,0,0,0,0,0,0,0,0,0,0,0,0],"sum_hessian":[2.4301E4,4.905E3,1.9396E4,7.14E2,4.191E3,1.6056E4,3.34E3,6.2E1,6.52E2,1.197E3,2.994E3,2.388E3,1.3668E4,8.07E2,2.533E3,1.7E1,4.5E1,3.23E2,3.29E2,9E2,2.97E2,1.64E3,1.354E3,1.821E3,5.67E2,9.34E2,1.2734E4,1.79E2,6.28E2,1.647E3,8.86E2,1.6E1,2.9E1,2.37E2,8.6E1,6.5E1,2.64E2,8.2E1,8.18E2,1.45E2,1.52E2,7.25E2,9.15E2,1.228E3,1.26E2,8.75E2,9.46E2,5E1,5.17E2,4.07E2,5.27E2,5.46E2,1.2188E4,9.5E1,8.4E1,2.35E2,3.93E2,1.329E3,3.18E2,6.65E2,2.21E2],"tree_param":{"num_deleted":"0","num_feature":"8","num_nodes":"61","size_leaf_vector":"1"}},{"base_weights":[1.5999447E-5,9.159533E-3,-1.4067155E-3,1.6206944E-2,7.890065E-3,-2.2520088E-3,7.642228E-3,1.6722517E-2,2.745196E-5,1.6125985E-3,8.7043755E-3,1.7076052E-3,-3.1369217E-3,1.1017932E-2,-1.678193E-3,8.4914576E-4,5.558651E-5,4.381202E-4,-2.0658636E-5,7.4631055E-3,-4.8223087E-3,1.041174E-2,6.235227E-3,-5.8518294E-3,4.3461183E-3,-3.850125E-3,4.5100105E-4,8.083675E-3,1.6839584E-2,1.6732046E-2,-2.8093099E-3,1.1411845E-3,2.1377217E-4,-0E0,-5.362869E-4,2.9744985E-4,6.285493E-4,3.5453826E-4,-9.620782E-6,7.0092396E-4,-3.635004E-4,3.299902E-4,1.9779069E-5,-2.177148E-4,1.3694266E-4,4.533148E-4,-1.1297544E-4,9.095887E-4,3.1116474E-4,9.521772E-4,3.661029E-6,-0E0,1.226738E-3,-0E0,-4.401826E-4],"categories":[],"categories_nodes":[],"categories_segments":[],"categories_sizes":[],"default_left":[0,0,0,0,0,0,0,0,0,0,0,0,0,0,0,0,0,0,0,0,0,0,0,0,0,0,0,0,0,0,0,0,0,0,0,0,0,0,0,0,0,0,0,0,0,0,0,0,0,0,0,0,0,0,0],"id":15,"left_children":[1,3,5,7,9,11,13,15,17,19,21,23,25,27,29,-1,-1,-1,-1,31,33,35,37,39,41,43,45,47,49,51,53,-1,-1,-1,-1,-1,-1,-1,-1,-1,-1,-1,-1,-1,-1,-1,-1,-1,-1,-1,-1,-1,-1,-1,-1],"loss_changes":[3.156884E-1,2.6708424E-2,1.5964083E-1,2.3786128E-3,1.3185531E-2,6.728679E-2,5.692508E-2,6.188452E-5,9.232179E-4,1.2911971E-2,8.598939E-3,6.928579E-2,4.04706E-2,1.9817606E-2,8.358778E-3,0E0,0E0,0E0,0E0,6.201946E-3,4.863319E-3,1.1785477E-2,6.3442625E-3,2.4535123E-2,2.2357311E-2,4.3707892E-2,6.0902204E-2,1.4125228E-2,1.390256E-2,1.0643024E-3,8.268611E-3,0E0,0E0,0E0,0E0,0E0,0E0,0E0,0E0,0E0,0E0,0E0,0E0,0E0,0E0,0E0,0E0,0E0,0E0,0E0,0E0,0E0,0E0,0E0,0E0],"parents":[2147483647,0,0,1,1,2,2,3,3,4,4,5,5,6,6,7,7,8,8,9,9,10,10,11,11,12,12,13,13,14,14,19,19,20,20,21,21,22,22,23,23,24,24,25,25,26,26,27,27,28,28,29,29,30,30],"right_children":[2,4,6,8,10,12,14,16,18,20,22,24,26,28,30,-1,-1,-1,-1,32,34,36,38,40,42,44,46,48,50,52,54,-1,-1,-1,-1,-1,-1,-1,-1,-1,-1,-1,-1,-1,-1,-1,-1,-1,-1,-1,-1,-1,-1,-1,-1],"split_conditions":[-1.1041924E1,-1.2567248E1,-7.302768E0,1.341009E1,7.130351E1,-1.025562E1,8.097986E1,8.213892E1,5.48397E0,5.60676E0,2.4839666E3,7.428608E1,-8.077852E0,-6.599056E0,1.779397E3,8.4914576E-4,5.558651E-5,4.381202E-4,-2.0658636E-5,1.9741923E3,-1.1646763E1,2.1884233E3,-1.1133501E1,-1.719989E1,2.5292905E3,8.213892E1,7.584671E1,7.44616E1,5.99047E0,-8.60658E0,5.83149E0,1.1411845E-3,2.1377217E-4,-0E0,-5.362869E-4,2.9744985E-4,6.285493E-4,3.5453826E-4,-9.620782E-6,7.0092396E-4,-3.635004E-4,3.299902E-4,1.9779069E-5,-2.177148E-4,1.3694266E-4,4.533148E-4,-1.1297544E-4,9.095887E-4,3.1116474E-4,9.521772E-4,3.661029E-6,-0E0,1.226738E-3,-0E0,-4.401826E-4],"split_indices":[7,7,7,3,0,7,0,0,4,4,1,0,7,7,1,0,0,0,0,1,7,1,7,3,1,0,0,0,4,3,4,0,0,0,0,0,0,0,0,0,0,0,0,0,0,0,0,0,0,0,0,0,0,0,0],"split_type":[0,0,0,0,0,0,0,0,0,0,0,0,0,0,0,0,0,0,0,0,0,0,0,0,0,0,0,0,0,0,0,0,0,0,0,0,0,0,0,0,0,0,0,0,0,0,0,0,0,0,0,0,0,0,0],"sum_hessian":[2.4206E4,3.268E3,2.0938E4,4.85E2,2.783E3,1.916E4,1.778E3,4.64E2,2.1E1,3.34E2,2.449E3,3.479E3,1.5681E4,1.313E3,4.65E2,4.5E2,1.4E1,1.1E1,1E1,1.83E2,1.51E2,1.422E3,1.027E3,8.9E2,2.589E3,1.3104E4,2.577E3,8.86E2,4.27E2,2.1E1,4.44E2,2.5E1,1.58E2,7.9E1,7.2E1,4.8E2,9.42E2,9.2E2,1.07E2,5.4E1,8.36E2,1.632E3,9.57E2,1.2187E4,9.17E2,6.25E2,1.952E3,1.28E2,7.58E2,3.72E2,5.5E1,1E1,1.1E1,2.93E2,1.51E2],"tree_param":{"num_deleted":"0","num_feature":"8","num_nodes":"55","size_leaf_vector":"1"}},{"base_weights":[-1.1250611E-5,9.008476E-3,-1.392567E-3,-4.4644573E-3,9.962993E-3,-2.366455E-3,5.6168884E-3,1.4420507E-2,-8.862767E-3,-4.757188E-4,1.0660232E-2,6.967765E-4,-3.3523424E-3,1.37910815E-2,-3.549763E-3,9.825166E-4,9.223957E-5,-1.2373234E-2,5.425855E-3,1.2406734E-2,-6.152413E-3,7.915095E-3,1.26809E-2,-5.101716E-3,7.7774925E-3,6.7411927E-3,-3.687038E-3,1.7424608E-2,5.089966E-4,-8.563957E-3,7.003328E-3,1.0468584E-4,-8.796992E-4,-6.893902E-5,8.096293E-4,-0E0,9.003795E-4,1.1653296E-4,-6.818967E-4,5.1981455E-4,5.0710196E-6,8.0008357E-4,5.391767E-4,-4.320513E-4,-5.133081E-5,-2.0503117E-4,4.6763057E-4,-1.5876663E-4,8.799419E-4,-2.204735E-4,-5.7658664E-5,1.0267069E-3,6.443732E-4,-6.0460606E-4,4.294114E-4,2.4539584E-4,-5.7480833E-4,7.071124E-4,-2.2442383E-4],"categories":[],"categories_nodes":[],"categories_segments":[],"categories_sizes":[],"default_left":[0,0,0,0,0,0,0,0,0,0,0,0,0,0,0,0,0,0,0,0,0,0,0,0,0,0,0,0,0,0,0,0,0,0,0,0,0,0,0,0,0,0,0,0,0,0,0,0,0,0,0,0,0,0,0,0,0,0,0],"id":16,"left_children":[1,3,5,7,9,11,13,15,17,19,21,23,25,27,29,-1,-1,31,33,35,37,39,41,43,45,47,49,51,53,55,57,-1,-1,-1,-1,-1,-1,-1,-1,-1,-1,-1,-1,-1,-1,-1,-1,-1,-1,-1,-1,-1,-1,-1,-1,-1,-1,-1,-1],"loss_changes":[3.0109742E-1,4.1849703E-2,1.4317971E-1,1.6682787E-2,2.2880197E-2,5.6044318E-2,1.9229439E-1,1.16143376E-4,9.389347E-3,1.2614253E-2,1.3504773E-2,1.8395737E-1,4.7004968E-2,6.359115E-2,6.3608505E-2,0E0,0E0,1.2462942E-2,3.628353E-3,2.3561204E-3,9.481041E-3,2.2620998E-2,7.255286E-3,3.438966E-2,3.839407E-2,4.887308E-2,2.4257168E-2,1.1319876E-2,3.0092051E-2,3.3067666E-2,3.2203704E-2,0E0,0E0,0E0,0E0,0E0,0E0,0E0,0E0,0E0,0E0,0E0,0E0,0E0,0E0,0E0,0E0,0E0,0E0,0E0,0E0,0E0,0E0,0E0,0E0,0E0,0E0,0E0,0E0],"parents":[2147483647,0,0,1,1,2,2,3,3,4,4,5,5,6,6,7,7,8,8,9,9,10,10,11,11,12,12,13,13,14,14,17,17,18,18,19,19,20,20,21,21,22,22,23,23,24,24,25,25,26,26,27,27,28,28,29,29,30,30],"right_children":[2,4,6,8,10,12,14,16,18,20,22,24,26,28,30,-1,-1,32,34,36,38,40,42,44,46,48,50,52,54,56,58,-1,-1,-1,-1,-1,-1,-1,-1,-1,-1,-1,-1,-1,-1,-1,-1,-1,-1,-1,-1,-1,-1,-1,-1,-1,-1,-1,-1],"split_conditions":[-1.1041924E1,-1.976005E1,-7.581856E0,-1.2925076E1,6.914146E1,-1.009543E1,-3.36925E0,5.64469E0,7.732691E1,-1.243625E1,-1.431272E1,-1.080091E1,-1.71958E1,8.064532E1,-6.485024E0,9.825166E-4,9.223957E-5,7.227174E1,-6.86756E0,2.067155E3,5.41624E0,-1.1356057E1,-1.1755241E1,7.675261E1,7.204955E1,-9.405222E0,-8.350599E0,-6.87067E0,-7.26578E0,7.557311E1,8.111117E1,1.0468584E-4,-8.796992E-4,-6.893902E-5,8.096293E-4,-0E0,9.003795E-4,1.1653296E-4,-6.818967E-4,5.1981455E-4,5.0710196E-6,8.0008357E-4,5.391767E-4,-4.320513E-4,-5.133081E-5,-2.0503117E-4,4.6763057E-4,-1.5876663E-4,8.799419E-4,-2.204735E-4,-5.7658664E-5,1.0267069E-3,6.443732E-4,-6.0460606E-4,4.294114E-4,2.4539584E-4,-5.7480833E-4,7.071124E-4,-2.2442383E-4],"split_indices":[7,2,7,7,0,7,2,4,0,7,2,2,2,0,7,0,0,0,3,1,4,7,7,0,0,7,7,2,7,0,0,0,0,0,0,0,0,0,0,0,0,0,0,0,0,0,0,0,0,0,0,0,0,0,0,0,0,0,0],"split_type":[0,0,0,0,0,0,0,0,0,0,0,0,0,0,0,0,0,0,0,0,0,0,0,0,0,0,0,0,0,0,0,0,0,0,0,0,0,0,0,0,0,0,0,0,0,0,0,0,0,0,0,0,0,0,0,0,0,0,0],"sum_hessian":[2.4226E4,3.207E3,2.1019E4,2.05E2,3.002E3,1.8468E4,2.551E3,3.4E1,1.71E2,1.79E2,2.823E3,4.472E3,1.3996E4,1.354E3,1.197E3,1.8E1,1.6E1,1.43E2,2.8E1,4.9E1,1.3E2,1.22E3,1.603E3,2.451E3,2.021E3,4.39E2,1.3557E4,1.057E3,2.97E2,8.18E2,3.79E2,3.3E1,1.1E2,1.2E1,1.6E1,1.9E1,3E1,5.5E1,7.5E1,9.16E2,3.04E2,5.61E2,1.042E3,1.298E3,1.153E3,2.29E2,1.792E3,2.25E2,2.14E2,1.0518E4,3.039E3,6.12E2,4.45E2,1.11E2,1.86E2,1.4E2,6.78E2,2.39E2,1.4E2],"tree_param":{"num_deleted":"0","num_feature":"8","num_nodes":"59","size_leaf_vector":"1"}},{"base_weights":[1.4541866E-5,8.300573E-4,-1.1067231E-3,4.7357455E-3,5.554027E-4,-1.3789918E-3,4.7982032E-3,5.6962967E-3,-1.4521375E-2,1.1693364E-2,4.8118245E-4,2.0720898E-3,-1.7405283E-3,-4.5227194E-3,7.716922E-3,1.7555241E-3,1.0897884E-2,-2.6225662E-2,-0E0,1.6730014E-4,1.4877459E-3,-2.1262385E-3,7.604285E-4,-4.3129906E-4,8.912532E-3,-5.602879E-3,-1.2394554E-3,-8.899596E-3,7.146732E-4,1.2856872E-2,5.9100543E-4,-8.060016E-4,1.3495587E-4,3.728893E-4,1.0542012E-3,-1.3742321E-4,-1.819066E-3,-1.10356596E-4,9.154507E-4,-1.9797697E-4,1.0245287E-4,1.3137533E-4,7.691112E-6,2.0982926E-4,-2.4918176E-4,6.7525613E-4,-2.726483E-4,-2.1850596E-4,-1.2297458E-3,1.821368E-4,-9.455234E-5,-0E0,-7.3333806E-4,-0E0,9.0937794E-4,1.0058674E-3,-1.5229061E-4],"categories":[],"categories_nodes":[],"categories_segments":[],"categories_sizes":[],"default_left":[0,0,0,0,0,0,0,0,0,0,0,0,0,0,0,0,0,0,0,0,0,0,0,0,0,0,0,0,0,0,0,0,0,0,0,0,0,0,0,0,0,0,0,0,0,0,0,0,0,0,0,0,0,0,0,0,0],"id":17,"left_children":[1,3,5,7,9,11,13,15,17,19,21,23,25,27,29,31,33,35,-1,37,-1,39,41,43,45,47,49,51,-1,53,55,-1,-1,-1,-1,-1,-1,-1,-1,-1,-1,-1,-1,-1,-1,-1,-1,-1,-1,-1,-1,-1,-1,-1,-1,-1,-1],"loss_changes":[2.205714E-2,1.4522741E-2,1.5931673E-2,1.5810927E-2,9.636781E-3,1.205934E-2,1.2052537E-2,1.636454E-2,7.805991E-3,1.3240732E-2,9.374178E-3,1.6143955E-2,1.6333826E-2,7.4116504E-3,1.0954237E-2,7.168781E-3,9.603452E-3,1.470834E-3,0E0,3.8905644E-3,0E0,9.6066315E-3,1.3122166E-2,1.3667209E-2,1.7372575E-2,2.0104272E-2,2.468003E-2,3.4006075E-3,0E0,1.2422191E-2,1.2420487E-2,0E0,0E0,0E0,0E0,0E0,0E0,0E0,0E0,0E0,0E0,0E0,0E0,0E0,0E0,0E0,0E0,0E0,0E0,0E0,0E0,0E0,0E0,0E0,0E0,0E0,0E0],"parents":[2147483647,0,0,1,1,2,2,3,3,4,4,5,5,6,6,7,7,8,8,9,9,10,10,11,11,12,12,13,13,14,14,15,15,16,16,17,17,19,19,21,21,22,22,23,23,24,24,25,25,26,26,27,27,29,29,30,30],"right_children":[2,4,6,8,10,12,14,16,18,20,22,24,26,28,30,32,34,36,-1,38,-1,40,42,44,46,48,50,52,-1,54,56,-1,-1,-1,-1,-1,-1,-1,-1,-1,-1,-1,-1,-1,-1,-1,-1,-1,-1,-1,-1,-1,-1,-1,-1,-1,-1],"split_conditions":[-4.695E0,7.196234E1,6.33794E0,2.47475E0,-2.241017E1,-2.30322E0,7.160417E1,1.44245E0,7.036363E1,1.98632E0,-1.683245E1,5.89823E0,-1.98455E0,6.5503E-1,6.51366E0,5.06658E0,5.99414E0,2.1075247E3,-0E0,5.91035E0,1.4877459E-3,7.795843E1,-1.300871E1,5.54185E0,1.576249E1,6.61534E0,-1.6838E0,5.93807E0,7.146732E-4,2.0418785E3,7.516094E1,-8.060016E-4,1.3495587E-4,3.728893E-4,1.0542012E-3,-1.3742321E-4,-1.819066E-3,-1.10356596E-4,9.154507E-4,-1.9797697E-4,1.0245287E-4,1.3137533E-4,7.691112E-6,2.0982926E-4,-2.4918176E-4,6.7525613E-4,-2.726483E-4,-2.1850596E-4,-1.2297458E-3,1.821368E-4,-9.455234E-5,-0E0,-7.3333806E-4,-0E0,9.0937794E-4,1.0058674E-3,-1.5229061E-4],"split_indices":[3,0,4,6,3,6,0,6,0,6,3,5,6,6,4,5,5,1,0,5,0,0,3,5,3,5,6,5,0,1,0,0,0,0,0,0,0,0,0,0,0,0,0,0,0,0,0,0,0,0,0,0,0,0,0,0,0],"split_type":[0,0,0,0,0,0,0,0,0,0,0,0,0,0,0,0,0,0,0,0,0,0,0,0,0,0,0,0,0,0,0,0,0,0,0,0,0,0,0,0,0,0,0,0,0,0,0,0,0,0,0,0,0,0,0,0,0],"sum_hessian":[2.415E4,1.4033E4,1.0117E4,8.97E2,1.3136E4,9.688E3,4.29E2,8.6E2,3.7E1,7.7E1,1.3059E4,8.92E2,8.796E3,9.4E1,3.35E2,5.01E2,3.59E2,2.2E1,1.5E1,5.1E1,2.6E1,1.228E3,1.1831E4,6.43E2,2.49E2,9.86E2,7.81E3,8.1E1,1.3E1,1.86E2,1.49E2,1.9E1,4.82E2,2.77E2,8.2E1,1E1,1.2E1,4.1E1,1E1,8.7E2,3.58E2,2.86E3,8.971E3,3.08E2,3.35E2,1.94E2,5.5E1,9.32E2,5.4E1,9.01E2,6.909E3,3.6E1,4.5E1,5.6E1,1.3E2,2.7E1,1.22E2],"tree_param":{"num_deleted":"0","num_feature":"8","num_nodes":"57","size_leaf_vector":"1"}},{"base_weights":[8.1876446E-5,7.563193E-3,-1.2896416E-3,5.520718E-4,9.373678E-3,-2.0473152E-3,6.2074163E-3,1.2621403E-2,-2.523579E-3,8.374131E-3,1.5949633E-2,3.760296E-4,-2.9789777E-3,1.4413437E-2,-4.6512056E-3,-0E0,1.332059E-2,8.603468E-4,-7.291115E-3,1.4870677E-2,6.945789E-3,-2.8968086E-3,1.8153455E-2,-5.3537902E-3,6.7517087E-3,1.9723156E-3,-3.9025638E-3,1.1496886E-2,2.1566482E-2,-1.0984467E-2,3.7983544E-3,1.8259068E-4,7.670312E-4,-1.1428575E-3,1.17548065E-4,-4.3797027E-4,6.5726595E-4,1.9212533E-4,7.7826984E-4,1.2476153E-4,4.1511768E-4,-8.182662E-4,2.9626675E-4,7.5277704E-4,1.2127879E-3,-4.3570503E-4,-1.0314675E-4,2.0980046E-4,5.664196E-4,-3.3910802E-4,6.53813E-4,2.8439867E-4,-2.085379E-4,9.650934E-4,3.331095E-4,1.1076187E-3,2.31384E-4,-6.6497154E-4,9.884821E-4,5.678925E-4,-2.1263519E-4],"categories":[],"categories_nodes":[],"categories_segments":[],"categories_sizes":[],"default_left":[0,0,0,0,0,0,0,0,0,0,0,0,0,0,0,0,0,0,0,0,0,0,0,0,0,0,0,0,0,0,0,0,0,0,0,0,0,0,0,0,0,0,0,0,0,0,0,0,0,0,0,0,0,0,0,0,0,0,0,0,0],"id":18,"left_children":[1,3,5,7,9,11,13,15,17,19,21,23,25,27,29,-1,31,33,35,37,39,41,43,45,47,49,51,53,55,57,59,-1,-1,-1,-1,-1,-1,-1,-1,-1,-1,-1,-1,-1,-1,-1,-1,-1,-1,-1,-1,-1,-1,-1,-1,-1,-1,-1,-1,-1,-1],"loss_changes":[2.504969E-1,4.7034547E-2,1.1642957E-1,3.0330142E-2,1.712668E-2,4.2465337E-2,1.6820624E-1,1.254715E-3,1.07002E-2,2.1989703E-2,1.7402776E-2,1.887515E-1,6.2081836E-2,1.8851727E-2,4.3731496E-2,0E0,1.1111442E-3,1.0482955E-2,7.8083463E-3,1.5083551E-3,1.1934422E-2,5.4185307E-3,2.244614E-3,2.8883353E-2,2.708017E-2,2.0592675E-1,2.9250756E-2,2.651941E-2,1.9676983E-4,3.2792605E-2,2.1330152E-2,0E0,0E0,0E0,0E0,0E0,0E0,0E0,0E0,0E0,0E0,0E0,0E0,0E0,0E0,0E0,0E0,0E0,0E0,0E0,0E0,0E0,0E0,0E0,0E0,0E0,0E0,0E0,0E0,0E0,0E0],"parents":[2147483647,0,0,1,1,2,2,3,3,4,4,5,5,6,6,7,7,8,8,9,9,10,10,11,11,12,12,13,13,14,14,16,16,17,17,18,18,19,19,20,20,21,21,22,22,23,23,24,24,25,25,26,26,27,27,28,28,29,29,30,30],"right_children":[2,4,6,8,10,12,14,16,18,20,22,24,26,28,30,-1,32,34,36,38,40,42,44,46,48,50,52,54,56,58,60,-1,-1,-1,-1,-1,-1,-1,-1,-1,-1,-1,-1,-1,-1,-1,-1,-1,-1,-1,-1,-1,-1,-1,-1,-1,-1,-1,-1,-1,-1],"split_conditions":[-1.0882398E1,-1.71958E1,-7.341503E0,-1.2567248E1,-6.6178E0,-9.888374E0,-1.82406E0,-1.46182E1,-1.1430188E1,-1.223319E1,1.8619568E3,-1.073221E1,-1.312198E1,-6.599056E0,-6.485024E0,-0E0,-2.072497E1,-2.2284E0,2.35375E0,-2.01532E0,2.1999414E3,5.39311E0,1.43232E0,1.07285E0,-5.8828E0,-9.097065E0,-1.90067E1,-7.87918E0,1.265418E1,1.366257E1,6.57252E0,1.8259068E-4,7.670312E-4,-1.1428575E-3,1.17548065E-4,-4.3797027E-4,6.5726595E-4,1.9212533E-4,7.7826984E-4,1.2476153E-4,4.1511768E-4,-8.182662E-4,2.9626675E-4,7.5277704E-4,1.2127879E-3,-4.3570503E-4,-1.0314675E-4,2.0980046E-4,5.664196E-4,-3.3910802E-4,6.53813E-4,2.8439867E-4,-2.085379E-4,9.650934E-4,3.331095E-4,1.1076187E-3,2.31384E-4,-6.6497154E-4,9.884821E-4,5.678925E-4,-2.1263519E-4],"split_indices":[7,2,7,7,2,7,2,3,7,7,1,2,2,7,7,0,2,6,6,6,1,4,6,6,2,7,3,2,3,3,2,0,0,0,0,0,0,0,0,0,0,0,0,0,0,0,0,0,0,0,0,0,0,0,0,0,0,0,0,0,0],"split_type":[0,0,0,0,0,0,0,0,0,0,0,0,0,0,0,0,0,0,0,0,0,0,0,0,0,0,0,0,0,0,0,0,0,0,0,0,0,0,0,0,0,0,0,0,0,0,0,0,0,0,0,0,0,0,0,0,0,0,0,0,0],"sum_hessian":[2.435E4,3.783E3,2.0567E4,7.88E2,2.995E3,1.8692E4,1.875E3,1.66E2,6.22E2,2.615E3,3.8E2,5.161E3,1.3531E4,1.073E3,8.02E2,1E1,1.56E2,3.52E2,2.7E2,4.57E2,2.158E3,3.5E1,3.45E2,2.71E3,2.451E3,2.11E3,1.1421E4,7.74E2,2.99E2,4.65E2,3.37E2,3.6E1,1.2E2,1.6E1,3.36E2,2.57E2,1.3E1,3.6E1,4.21E2,5.22E2,1.636E3,1.8E1,1.7E1,2.42E2,1.03E2,1.325E3,1.385E3,1.588E3,8.63E2,1.175E3,9.35E2,3E2,1.1121E4,2.87E2,4.87E2,2.83E2,1.6E1,4.36E2,2.9E1,1.8E2,1.57E2],"tree_param":{"num_deleted":"0","num_feature":"8","num_nodes":"61","size_leaf_vector":"1"}},{"base_weights":[-8.201087E-5,7.497634E-3,-1.5077206E-3,9.802388E-3,3.1383238E-3,-2.3016012E-3,4.875156E-3,1.842941E-2,8.732824E-3,7.0785205E-3,-2.719215E-3,6.240447E-4,-2.856501E-3,-8.708343E-4,8.708168E-3,1.067808E-3,1.2169651E-2,1.5912035E-2,7.834448E-3,8.698712E-3,1.5134901E-3,-3.8374E-3,7.988447E-4,1.1687729E-2,-2.2467512E-3,-3.3678252E-3,3.449345E-4,-4.0915944E-3,5.1839985E-3,1.1670503E-2,2.4754107E-3,5.98243E-5,8.123247E-4,8.286964E-4,3.0293993E-5,5.823864E-4,2.9492783E-4,4.827266E-4,3.0435494E-5,5.481757E-4,-1.2685014E-4,-8.962301E-6,-7.3695753E-4,6.2680634E-4,-5.041659E-5,8.743812E-6,-3.6341508E-4,1.3611051E-4,-1.957552E-4,-1.8698111E-4,5.0653645E-4,-4.0209803E-4,1.6711728E-4,7.8520004E-4,9.356925E-5,-8.1131276E-4,6.5449846E-4,5.3208694E-4,-1.3038031E-4],"categories":[],"categories_nodes":[],"categories_segments":[],"categories_sizes":[],"default_left":[0,0,0,0,0,0,0,0,0,0,0,0,0,0,0,0,0,0,0,0,0,0,0,0,0,0,0,0,0,0,0,0,0,0,0,0,0,0,0,0,0,0,0,0,0,0,0,0,0,0,0,0,0,0,0,0,0,0,0],"id":19,"left_children":[1,3,5,7,9,11,13,15,17,19,21,23,25,27,29,-1,31,33,35,37,39,41,-1,43,45,47,49,51,53,55,57,-1,-1,-1,-1,-1,-1,-1,-1,-1,-1,-1,-1,-1,-1,-1,-1,-1,-1,-1,-1,-1,-1,-1,-1,-1,-1,-1,-1],"loss_changes":[2.6117507E-1,3.7095413E-2,1.0312561E-1,2.0061523E-2,3.1359103E-2,2.970346E-2,5.019215E-2,1.2058765E-3,1.1844695E-2,6.27793E-3,9.90648E-3,9.203081E-2,2.533602E-2,1.7229004E-2,2.3593046E-2,0E0,2.5756415E-3,6.4263865E-4,1.287441E-2,3.715612E-3,8.449362E-3,1.864506E-2,0E0,7.6066703E-3,2.831455E-2,4.416819E-2,8.381591E-2,1.785261E-2,8.597987E-3,3.5854228E-2,1.9468965E-2,0E0,0E0,0E0,0E0,0E0,0E0,0E0,0E0,0E0,0E0,0E0,0E0,0E0,0E0,0E0,0E0,0E0,0E0,0E0,0E0,0E0,0E0,0E0,0E0,0E0,0E0,0E0,0E0],"parents":[2147483647,0,0,1,1,2,2,3,3,4,4,5,5,6,6,7,7,8,8,9,9,10,10,11,11,12,12,13,13,14,14,16,16,17,17,18,18,19,19,20,20,21,21,23,23,24,24,25,25,26,26,27,27,28,28,29,29,30,30],"right_children":[2,4,6,8,10,12,14,16,18,20,22,24,26,28,30,-1,32,34,36,38,40,42,-1,44,46,48,50,52,54,56,58,-1,-1,-1,-1,-1,-1,-1,-1,-1,-1,-1,-1,-1,-1,-1,-1,-1,-1,-1,-1,-1,-1,-1,-1,-1,-1,-1,-1],"split_conditions":[-1.0882398E1,6.23641E0,-7.482175E0,-1.2567248E1,-1.1430188E1,-1.0272335E1,5.56035E0,2.470416E3,5.52347E0,6.66917E0,1.142532E1,5.712E0,-8.077852E0,-1.68335E0,-2.25555E0,1.067808E-3,7.2423E-1,1.806383E1,5.24242E0,2.6869568E3,-1.2567248E1,6.346E-2,7.988447E-4,1.612776E1,6.27128E0,5.32678E0,6.01365E0,-6.599056E0,2.026129E3,-4.9359E-1,-1.20834E0,5.98243E-5,8.123247E-4,8.286964E-4,3.0293993E-5,5.823864E-4,2.9492783E-4,4.827266E-4,3.0435494E-5,5.481757E-4,-1.2685014E-4,-8.962301E-6,-7.3695753E-4,6.2680634E-4,-5.041659E-5,8.743812E-6,-3.6341508E-4,1.3611051E-4,-1.957552E-4,-1.8698111E-4,5.0653645E-4,-4.0209803E-4,1.6711728E-4,7.8520004E-4,9.356925E-5,-8.1131276E-4,6.5449846E-4,5.3208694E-4,-1.3038031E-4],"split_indices":[7,5,7,7,7,7,5,1,5,5,3,5,7,3,3,0,6,3,4,1,7,3,0,3,5,5,5,7,1,6,6,0,0,0,0,0,0,0,0,0,0,0,0,0,0,0,0,0,0,0,0,0,0,0,0,0,0,0,0],"split_type":[0,0,0,0,0,0,0,0,0,0,0,0,0,0,0,0,0,0,0,0,0,0,0,0,0,0,0,0,0,0,0,0,0,0,0,0,0,0,0,0,0,0,0,0,0,0,0,0,0,0,0,0,0,0,0,0,0,0,0],"sum_hessian":[2.4222E4,3.823E3,2.0399E4,2.485E3,1.338E3,1.8157E4,2.242E3,2.62E2,2.223E3,8.1E2,5.28E2,2.866E3,1.5291E4,8.87E2,1.355E3,1.66E2,9.6E1,2.33E2,1.99E3,6.13E2,1.97E2,5.04E2,2.4E1,5.97E2,2.269E3,1.3212E4,2.079E3,5.9E2,2.97E2,9.07E2,4.48E2,3.3E1,6.3E1,2.17E2,1.6E1,6.51E2,1.339E3,5.37E2,7.6E1,6.6E1,1.31E2,3.85E2,1.19E2,5.67E2,3E1,1.518E3,7.51E2,1.074E3,1.2138E4,1.46E3,6.19E2,3.94E2,1.96E2,6.3E1,2.34E2,4E1,8.67E2,1.79E2,2.69E2],"tree_param":{"num_deleted":"0","num_feature":"8","num_nodes":"59","size_leaf_vector":"1"}},{"base_weights":[-9.181559E-5,9.419709E-5,-3.6773863E-3,-4.4023778E-5,4.8090457E-3,3.5898213E-3,-5.2155363E-3,3.7806417E-4,-1.3140328E-3,7.1418695E-3,-0E0,9.724392E-3,-3.953079E-3,-4.4209235E-3,-1.6986998E-2,5.166972E-3,2.0120524E-4,1.1802933E-4,-2.63746E-3,3.227585E-3,1.2058463E-2,4.5908755E-3,-1.180057E-2,4.0755244E-3,1.9792125E-3,-1.1888456E-2,6.867635E-4,-7.6107807E-3,-2.2273005E-3,-2.2803556E-2,-0E0,8.130498E-5,6.873722E-4,-2.1328287E-6,9.7177595E-5,-2.1757181E-4,4.880473E-5,-2.19925E-4,2.3242195E-5,7.410388E-4,2.3996885E-5,1.0062252E-3,1.5337879E-4,9.003317E-6,8.155617E-4,-0E0,-7.670614E-4,-2.720505E-4,4.884777E-4,-9.94476E-4,-0E0,7.837356E-4,-1.9226495E-4,-4.6214435E-4,3.733691E-4,-0E0,-5.559978E-4,-1.3214728E-3,-1.4504282E-4],"categories":[],"categories_nodes":[],"categories_segments":[],"categories_sizes":[],"default_left":[0,0,0,0,0,0,0,0,0,0,0,0,0,0,0,0,0,0,0,0,0,0,0,0,0,0,0,0,0,0,0,0,0,0,0,0,0,0,0,0,0,0,0,0,0,0,0,0,0,0,0,0,0,0,0,0,0,0,0],"id":20,"left_children":[1,3,5,7,9,11,13,15,17,19,21,23,25,27,29,31,33,35,37,39,41,43,45,47,-1,49,51,53,55,57,-1,-1,-1,-1,-1,-1,-1,-1,-1,-1,-1,-1,-1,-1,-1,-1,-1,-1,-1,-1,-1,-1,-1,-1,-1,-1,-1,-1,-1],"loss_changes":[1.6471123E-2,1.5427144E-2,1.3796164E-2,1.2030978E-2,7.1612624E-3,9.962608E-3,7.296875E-3,1.356828E-2,1.0892073E-2,7.01572E-3,1.2056328E-2,1.5544945E-2,4.221122E-3,5.730685E-3,6.2008407E-3,1.5849382E-2,7.023708E-3,9.871895E-3,1.6533948E-2,6.776708E-3,1.110794E-2,7.0846006E-3,3.273204E-3,6.1215037E-3,0E0,5.564525E-3,4.367826E-3,9.425789E-3,1.2406111E-2,9.3404204E-5,0E0,0E0,0E0,0E0,0E0,0E0,0E0,0E0,0E0,0E0,0E0,0E0,0E0,0E0,0E0,0E0,0E0,0E0,0E0,0E0,0E0,0E0,0E0,0E0,0E0,0E0,0E0,0E0,0E0],"parents":[2147483647,0,0,1,1,2,2,3,3,4,4,5,5,6,6,7,7,8,8,9,9,10,10,11,11,12,12,13,13,14,14,15,15,16,16,17,17,18,18,19,19,20,20,21,21,22,22,23,23,25,25,26,26,27,27,28,28,29,29],"right_children":[2,4,6,8,10,12,14,16,18,20,22,24,26,28,30,32,34,36,38,40,42,44,46,48,-1,50,52,54,56,58,-1,-1,-1,-1,-1,-1,-1,-1,-1,-1,-1,-1,-1,-1,-1,-1,-1,-1,-1,-1,-1,-1,-1,-1,-1,-1,-1,-1,-1],"split_conditions":[1.59189E0,6.36642E0,5.22474E0,6.19748E0,6.57691E0,6.57252E0,2.58093E0,1.8769435E3,7.722571E1,2.3311267E3,7.876481E1,5.58355E0,5.43413E0,7.726407E1,3.03746E0,1.44245E0,2.10166E0,6.25448E0,8.04224E1,1.8254901E3,2.467399E3,1.61196E0,1.18389E0,2.48606E0,1.9792125E-3,5.03915E0,5.6718E0,1.90832E0,1.64078E0,8.509244E1,-0E0,8.130498E-5,6.873722E-4,-2.1328287E-6,9.7177595E-5,-2.1757181E-4,4.880473E-5,-2.19925E-4,2.3242195E-5,7.410388E-4,2.3996885E-5,1.0062252E-3,1.5337879E-4,9.003317E-6,8.155617E-4,-0E0,-7.670614E-4,-2.720505E-4,4.884777E-4,-9.94476E-4,-0E0,7.837356E-4,-1.9226495E-4,-4.6214435E-4,3.733691E-4,-0E0,-5.559978E-4,-1.3214728E-3,-1.4504282E-4],"split_indices":[2,4,5,5,4,2,6,1,0,1,0,2,4,0,6,6,6,5,0,1,1,6,6,2,0,5,4,6,6,0,0,0,0,0,0,0,0,0,0,0,0,0,0,0,0,0,0,0,0,0,0,0,0,0,0,0,0,0,0],"split_type":[0,0,0,0,0,0,0,0,0,0,0,0,0,0,0,0,0,0,0,0,0,0,0,0,0,0,0,0,0,0,0,0,0,0,0,0,0,0,0,0,0,0,0,0,0,0,0,0,0,0,0,0,0,0,0,0,0,0,0],"sum_hessian":[2.4157E4,2.294E4,1.217E3,2.2267E4,6.73E2,2.01E2,1.016E3,1.6654E4,5.613E3,4.45E2,2.28E2,1.18E2,8.3E1,9.61E2,5.5E1,5.72E2,1.6082E4,2.66E3,2.953E3,2.6E2,1.85E2,1.68E2,6E1,1.03E2,1.5E1,3.8E1,4.5E1,3.72E2,5.89E2,4.2E1,1.3E1,4.14E2,1.58E2,1.4058E4,2.024E3,4.09E2,2.251E3,1.904E3,1.049E3,4.2E1,2.18E2,9.1E1,9.4E1,1.29E2,3.9E1,1.1E1,4.9E1,3.2E1,7.1E1,2.7E1,1.1E1,1.5E1,3E1,3.42E2,3E1,4.66E2,1.23E2,3.1E1,1.1E1],"tree_param":{"num_deleted":"0","num_feature":"8","num_nodes":"59","size_leaf_vector":"1"}},{"base_weights":[2.570792E-4,-5.550341E-5,2.6489303E-3,7.384857E-4,-1.403889E-3,3.0473068E-3,-1.0036741E-2,2.3598142E-3,-1.9318634E-4,1.6135475E-2,-1.6097592E-3,1.4035101E-2,2.574127E-3,3.0440555E-3,-1.9684484E-2,-1.3762801E-2,2.6996348E-3,1.3510581E-3,-1.2289078E-3,2.2294756E-2,-0E0,3.8885195E-3,-1.8672779E-3,1.87881E-2,-2.8957418E-4,1.4860875E-3,5.815818E-3,9.392191E-4,-2.8263766E-4,-7.3394687E-3,-2.5550589E-2,-8.9766365E-4,-0E0,4.2176276E-4,1.1045962E-4,1.01256024E-4,-2.0906783E-4,-2.346839E-4,-2.532489E-5,1.3228183E-3,-0E0,5.9895415E-4,-3.0430214E-4,1.014748E-3,1.3735564E-4,-8.740514E-5,-8.409335E-4,-0E0,1.2070008E-3,5.961419E-6,2.6589946E-4,-1.4939788E-4,4.1214097E-4,-1.4892748E-3,2.2627949E-4,-1.8634963E-3,-2.0131283E-4],"categories":[],"categories_nodes":[],"categories_segments":[],"categories_sizes":[],"default_left":[0,0,0,0,0,0,0,0,0,0,0,0,0,0,0,0,0,0,0,0,0,0,0,0,0,0,0,0,0,0,0,0,0,0,0,0,0,0,0,0,0,0,0,0,0,0,0,0,0,0,0,0,0,0,0,0,0],"id":21,"left_children":[1,3,5,7,9,11,13,15,17,19,21,23,25,27,29,31,33,35,37,39,41,43,45,47,-1,49,51,-1,-1,53,55,-1,-1,-1,-1,-1,-1,-1,-1,-1,-1,-1,-1,-1,-1,-1,-1,-1,-1,-1,-1,-1,-1,-1,-1,-1,-1],"loss_changes":[1.8378064E-2,2.2975283E-2,1.3673965E-2,2.0490162E-2,2.737699E-2,1.2652753E-2,1.16937775E-2,2.5979655E-2,1.3560416E-2,6.675558E-3,1.0978084E-2,1.1303222E-2,8.629112E-3,5.5260644E-3,1.4432333E-4,7.2794743E-3,1.253742E-2,1.2352764E-2,1.2287881E-2,4.970705E-3,2.708075E-3,3.9321184E-3,1.1577472E-2,1.1123698E-2,0E0,9.999075E-3,1.4310319E-2,0E0,0E0,8.786226E-3,2.783347E-3,0E0,0E0,0E0,0E0,0E0,0E0,0E0,0E0,0E0,0E0,0E0,0E0,0E0,0E0,0E0,0E0,0E0,0E0,0E0,0E0,0E0,0E0,0E0,0E0,0E0,0E0],"parents":[2147483647,0,0,1,1,2,2,3,3,4,4,5,5,6,6,7,7,8,8,9,9,10,10,11,11,12,12,13,13,14,14,15,15,16,16,17,17,18,18,19,19,20,20,21,21,22,22,23,23,25,25,26,26,29,29,30,30],"right_children":[2,4,6,8,10,12,14,16,18,20,22,24,26,28,30,32,34,36,38,40,42,44,46,48,-1,50,52,-1,-1,54,56,-1,-1,-1,-1,-1,-1,-1,-1,-1,-1,-1,-1,-1,-1,-1,-1,-1,-1,-1,-1,-1,-1,-1,-1,-1,-1],"split_conditions":[2.10166E0,2.4612856E3,1.66823E0,-7.41359E0,7.057391E1,1.9267343E3,5.69646E0,-1.50057E0,-8.74776E0,2.6212275E3,-2.30322E0,-3.7176E0,2.6374155E3,2.1221638E3,3.47921E0,7.943348E1,5.3142E0,6.49912E0,7.363776E1,-8.93957E0,6.829864E1,4.88169E0,4.85374E0,7.296564E1,-2.8957418E-4,-5.85E0,-1.510206E1,9.392191E-4,-2.8263766E-4,2.46032E0,8.275226E1,-8.9766365E-4,-0E0,4.2176276E-4,1.1045962E-4,1.01256024E-4,-2.0906783E-4,-2.346839E-4,-2.532489E-5,1.3228183E-3,-0E0,5.9895415E-4,-3.0430214E-4,1.014748E-3,1.3735564E-4,-8.740514E-5,-8.409335E-4,-0E0,1.2070008E-3,5.961419E-6,2.6589946E-4,-1.4939788E-4,4.1214097E-4,-1.4892748E-3,2.2627949E-4,-1.8634963E-3,-2.0131283E-4],"split_indices":[6,1,3,3,0,1,5,6,2,1,6,3,1,1,3,0,5,5,0,2,0,5,2,0,0,3,2,0,0,3,0,0,0,0,0,0,0,0,0,0,0,0,0,0,0,0,0,0,0,0,0,0,0,0,0,0,0],"split_type":[0,0,0,0,0,0,0,0,0,0,0,0,0,0,0,0,0,0,0,0,0,0,0,0,0,0,0,0,0,0,0,0,0,0,0,0,0,0,0,0,0,0,0,0,0,0,0,0,0,0,0,0,0,0,0,0,0],"sum_hessian":[2.4233E4,2.1396E4,2.837E3,1.342E4,7.976E3,2.759E3,7.8E1,4.936E3,8.484E3,8.6E1,7.89E3,1.04E2,2.655E3,2.9E1,4.9E1,9.5E1,4.841E3,3.367E3,5.117E3,5.8E1,2.8E1,3.35E2,7.555E3,8.8E1,1.6E1,2.012E3,6.43E2,1.4E1,1.5E1,2.2E1,2.7E1,7.8E1,1.7E1,3.64E2,4.477E3,3.018E3,3.49E2,8.58E2,4.259E3,4.8E1,1E1,1.4E1,1.4E1,1.5E1,3.2E2,7.503E3,5.2E1,1.6E1,7.2E1,1.503E3,5.09E2,1.3E2,5.13E2,1E1,1.2E1,1.4E1,1.3E1],"tree_param":{"num_deleted":"0","num_feature":"8","num_nodes":"57","size_leaf_vector":"1"}},{"base_weights":[-2.1615697E-4,6.4889495E-3,-1.4678779E-3,-6.0523516E-3,7.480671E-3,-2.055864E-3,8.627601E-3,-1.146833E-3,-1.8763322E-2,-1.2354355E-3,8.600324E-3,-2.6259676E-3,7.7853224E-4,1.6182251E-2,7.165516E-5,8.458787E-4,-3.210044E-3,-3.497161E-4,-2.412177E-2,5.052294E-3,-8.435298E-3,1.2958845E-2,6.4795245E-3,-3.668322E-3,1.1344051E-3,1.3659494E-2,-5.1016095E-3,1.654696E-2,-0E0,5.0253053E-3,-6.5519256E-3,1.4925432E-4,-3.5378916E-4,1.260498E-4,-6.1397726E-4,-1.519431E-3,-2.8684456E-4,-2.1757507E-5,7.098005E-4,-6.090738E-4,4.731703E-4,6.043583E-4,9.1738766E-4,2.177571E-5,4.7302395E-4,-3.406245E-5,-2.3853542E-4,3.152619E-4,-2.1184655E-4,8.585425E-4,7.7550336E-5,2.4972277E-4,-4.0280173E-4,6.2119256E-4,9.487374E-4,5.7000405E-4,-2.5899804E-4,-5.2931753E-4,2.9789645E-4],"categories":[],"categories_nodes":[],"categories_segments":[],"categories_sizes":[],"default_left":[0,0,0,0,0,0,0,0,0,0,0,0,0,0,0,0,0,0,0,0,0,0,0,0,0,0,0,0,0,0,0,0,0,0,0,0,0,0,0,0,0,0,0,0,0,0,0,0,0,0,0,0,0,0,0,0,0,0,0],"id":22,"left_children":[1,3,5,7,9,11,13,15,17,19,21,23,25,27,29,-1,31,33,35,37,39,41,43,45,47,49,51,53,-1,55,57,-1,-1,-1,-1,-1,-1,-1,-1,-1,-1,-1,-1,-1,-1,-1,-1,-1,-1,-1,-1,-1,-1,-1,-1,-1,-1,-1,-1],"loss_changes":[2.0317008E-1,4.751271E-2,1.2082304E-1,1.4947728E-2,3.523545E-2,3.1447977E-2,7.057317E-2,6.2495014E-3,4.4512004E-3,1.8172337E-2,2.7015448E-2,6.3504875E-2,2.4413265E-1,4.2687953E-3,1.7302852E-2,0E0,4.9325586E-3,1.7260007E-3,1.9738786E-3,1.1567918E-2,1.3193967E-2,1.4885068E-3,3.7400335E-2,4.1123316E-2,9.694359E-2,4.1128576E-2,6.596814E-2,2.4001896E-3,0E0,2.104368E-2,1.157886E-2,0E0,0E0,0E0,0E0,0E0,0E0,0E0,0E0,0E0,0E0,0E0,0E0,0E0,0E0,0E0,0E0,0E0,0E0,0E0,0E0,0E0,0E0,0E0,0E0,0E0,0E0,0E0,0E0],"parents":[2147483647,0,0,1,1,2,2,3,3,4,4,5,5,6,6,7,7,8,8,9,9,10,10,11,11,12,12,13,13,14,14,16,16,17,17,18,18,19,19,20,20,21,21,22,22,23,23,24,24,25,25,26,26,27,27,29,29,30,30],"right_children":[2,4,6,8,10,12,14,16,18,20,22,24,26,28,30,-1,32,34,36,38,40,42,44,46,48,50,52,54,-1,56,58,-1,-1,-1,-1,-1,-1,-1,-1,-1,-1,-1,-1,-1,-1,-1,-1,-1,-1,-1,-1,-1,-1,-1,-1,-1,-1,-1,-1],"split_conditions":[-1.0882398E1,-1.938088E1,-6.95658E0,-1.1318603E1,7.097506E1,-8.077852E0,-1.56209E0,-1.3633358E1,5.6917E-1,-1.1646763E1,-1.1807338E1,-4.99595E0,-7.93792E0,6.51366E0,6.57252E0,8.458787E-4,-1.011064E1,5.16501E0,7.588426E1,-1.257926E1,-7.45729E0,8.76197E0,-1.445938E1,-1.009543E1,-9.025218E0,7.988055E1,7.584671E1,-6.683658E0,-0E0,5.61781E0,-5.318487E0,1.4925432E-4,-3.5378916E-4,1.260498E-4,-6.1397726E-4,-1.519431E-3,-2.8684456E-4,-2.1757507E-5,7.098005E-4,-6.090738E-4,4.731703E-4,6.043583E-4,9.1738766E-4,2.177571E-5,4.7302395E-4,-3.406245E-5,-2.3853542E-4,3.152619E-4,-2.1184655E-4,8.585425E-4,7.7550336E-5,2.4972277E-4,-4.0280173E-4,6.2119256E-4,9.487374E-4,5.7000405E-4,-2.5899804E-4,-5.2931753E-4,2.9789645E-4],"split_indices":[7,2,7,7,0,7,2,7,6,7,7,2,2,4,2,0,3,4,0,2,2,3,2,7,7,0,0,7,0,4,7,0,0,0,0,0,0,0,0,0,0,0,0,0,0,0,0,0,0,0,0,0,0,0,0,0,0,0,0],"split_type":[0,0,0,0,0,0,0,0,0,0,0,0,0,0,0,0,0,0,0,0,0,0,0,0,0,0,0,0,0,0,0,0,0,0,0,0,0,0,0,0,0,0,0,0,0,0,0,0,0,0,0,0,0,0,0,0,0,0,0],"sum_hessian":[2.4265E4,3.804E3,2.0461E4,2.71E2,3.533E3,1.9345E4,1.116E3,2.02E2,6.9E1,3.92E2,3.141E3,1.6135E4,3.21E3,5.86E2,5.3E2,1.5E1,1.87E2,2E1,4.9E1,2.02E2,1.9E2,1.011E3,2.13E3,1.2654E4,3.481E3,1.011E3,2.199E3,5.76E2,1E1,3.12E2,2.18E2,6.2E1,1.25E2,1E1,1E1,3.2E1,1.7E1,1.2E2,8.2E1,1.62E2,2.8E1,8.89E2,1.22E2,7.15E2,1.415E3,3.436E3,9.218E3,1.783E3,1.698E3,7.77E2,2.34E2,4.9E2,1.709E3,2.31E2,3.45E2,1.98E2,1.14E2,1.71E2,4.7E1],"tree_param":{"num_deleted":"0","num_feature":"8","num_nodes":"59","size_leaf_vector":"1"}},{"base_weights":[9.945195E-5,6.521913E-3,-1.2413557E-3,4.0319725E-3,1.0658904E-2,-2.4157048E-3,4.4177715E-3,1.055062E-2,1.735503E-3,1.2534684E-2,5.412884E-3,-3.2588986E-3,1.21909376E-4,1.488367E-2,-1.999018E-3,-0E0,1.1285324E-2,6.512774E-3,-1.4117619E-3,1.0984444E-2,1.6588472E-2,1.247713E-4,8.077666E-3,-4.0178457E-3,1.2757935E-3,6.237061E-3,-4.008917E-3,8.719459E-3,1.8909402E-2,-6.784339E-3,5.3549274E-3,3.943187E-4,-4.5523327E-4,7.022677E-4,3.710043E-4,4.6534464E-4,-1.0665453E-4,-6.721622E-4,5.3711818E-5,-7.696746E-5,5.785375E-4,-0E0,8.6363585E-4,-1.7152954E-4,3.988346E-4,6.8272784E-4,2.5587738E-4,-1.4277418E-4,-3.6131206E-4,-2.279998E-4,5.56039E-4,1.7113518E-4,7.626755E-4,5.158139E-6,-3.4035483E-4,9.229766E-5,6.747175E-4,1.0769912E-3,8.4296113E-4,-3.8619025E-4,1.3720474E-3,5.1989284E-4,-1.007177E-4],"categories":[],"categories_nodes":[],"categories_segments":[],"categories_sizes":[],"default_left":[0,0,0,0,0,0,0,0,0,0,0,0,0,0,0,0,0,0,0,0,0,0,0,0,0,0,0,0,0,0,0,0,0,0,0,0,0,0,0,0,0,0,0,0,0,0,0,0,0,0,0,0,0,0,0,0,0,0,0,0,0,0,0],"id":23,"left_children":[1,3,5,7,9,11,13,15,17,19,21,23,25,27,29,31,33,35,37,39,41,43,45,47,49,51,53,55,57,59,61,-1,-1,-1,-1,-1,-1,-1,-1,-1,-1,-1,-1,-1,-1,-1,-1,-1,-1,-1,-1,-1,-1,-1,-1,-1,-1,-1,-1,-1,-1,-1,-1],"loss_changes":[2.0964396E-1,4.182364E-2,1.3323802E-1,3.8318463E-2,1.3537601E-2,3.592298E-2,2.3207128E-1,4.3657944E-3,3.0093804E-2,4.2120665E-3,5.2099824E-3,4.3371513E-2,1.04372144E-1,2.9630154E-2,7.496012E-2,3.7103298E-3,4.4275075E-3,1.9918341E-2,3.636597E-2,7.218249E-3,3.8514957E-3,4.864853E-3,2.543157E-3,3.904271E-2,1.0280125E-1,4.050803E-2,2.887312E-2,1.5835784E-2,1.9550323E-5,3.9911166E-2,3.170439E-2,0E0,0E0,0E0,0E0,0E0,0E0,0E0,0E0,0E0,0E0,0E0,0E0,0E0,0E0,0E0,0E0,0E0,0E0,0E0,0E0,0E0,0E0,0E0,0E0,0E0,0E0,0E0,0E0,0E0,0E0,0E0,0E0],"parents":[2147483647,0,0,1,1,2,2,3,3,4,4,5,5,6,6,7,7,8,8,9,9,10,10,11,11,12,12,13,13,14,14,15,15,16,16,17,17,18,18,19,19,20,20,21,21,22,22,23,23,24,24,25,25,26,26,27,27,28,28,29,29,30,30],"right_children":[2,4,6,8,10,12,14,16,18,20,22,24,26,28,30,32,34,36,38,40,42,44,46,48,50,52,54,56,58,60,62,-1,-1,-1,-1,-1,-1,-1,-1,-1,-1,-1,-1,-1,-1,-1,-1,-1,-1,-1,-1,-1,-1,-1,-1,-1,-1,-1,-1,-1,-1,-1,-1],"split_conditions":[-1.0786781E1,-1.178052E1,-7.83627E0,-1.2141616E1,6.34098E0,-5.26382E0,-5.8828E0,1.9741923E3,5.97853E0,2.5319353E3,-9.3602E0,-8.468713E0,-9.14288E0,5.67588E0,-6.95658E0,1.9029979E3,-1.2567248E1,-1.0986519E1,2.192159E3,-1.159579E1,-2.26049E0,5.49276E0,-1.1755241E1,6.1719E0,5.93044E0,1.60354E0,5.72181E0,-7.411306E0,-1.029611E1,6.59745E0,3.06288E0,3.943187E-4,-4.5523327E-4,7.022677E-4,3.710043E-4,4.6534464E-4,-1.0665453E-4,-6.721622E-4,5.3711818E-5,-7.696746E-5,5.785375E-4,-0E0,8.6363585E-4,-1.7152954E-4,3.988346E-4,6.8272784E-4,2.5587738E-4,-1.4277418E-4,-3.6131206E-4,-2.279998E-4,5.56039E-4,1.7113518E-4,7.626755E-4,5.158139E-6,-3.4035483E-4,9.229766E-5,6.747175E-4,1.0769912E-3,8.4296113E-4,-3.8619025E-4,1.3720474E-3,5.1989284E-4,-1.007177E-4],"split_indices":[7,2,7,7,5,2,2,1,5,1,2,7,7,5,7,1,7,7,1,2,6,4,7,5,5,6,5,7,2,5,2,0,0,0,0,0,0,0,0,0,0,0,0,0,0,0,0,0,0,0,0,0,0,0,0,0,0,0,0,0,0,0,0],"split_type":[0,0,0,0,0,0,0,0,0,0,0,0,0,0,0,0,0,0,0,0,0,0,0,0,0,0,0,0,0,0,0,0,0,0,0,0,0,0,0,0,0,0,0,0,0,0,0,0,0,0,0,0,0,0,0,0,0,0,0,0,0,0,0],"sum_hessian":[2.4282E4,4.206E3,2.0076E4,2.642E3,1.564E3,1.6641E4,3.435E3,6.76E2,1.966E3,1.137E3,4.27E2,1.252E4,4.121E3,1.311E3,2.124E3,5.1E1,6.25E2,7.93E2,1.173E3,8.43E2,2.94E2,1.56E2,2.71E2,1.0744E4,1.776E3,1.671E3,2.45E3,5.29E2,7.82E2,1.295E3,8.29E2,3.2E1,1.9E1,3.48E2,2.77E2,6.08E2,1.85E2,2.07E2,9.66E2,3E1,8.13E2,1E1,2.84E2,9.9E1,5.7E1,8.1E1,1.9E2,7.911E3,2.833E3,1.109E3,6.67E2,1.283E3,3.88E2,9.78E2,1.472E3,2.26E2,3.03E2,3.17E2,4.65E2,1.264E3,3.1E1,5E2,3.29E2],"tree_param":{"num_deleted":"0","num_feature":"8","num_nodes":"63","size_leaf_vector":"1"}},{"base_weights":[8.853837E-5,4.618612E-3,-1.2890344E-3,-7.424539E-4,7.102822E-3,-2.4473807E-3,3.8248063E-3,4.6997024E-3,-7.382945E-3,1.1723107E-2,3.745576E-3,-1.1973236E-3,-4.218737E-3,1.1766376E-2,-2.6385996E-3,1.579942E-2,3.0362643E-3,2.8789216E-3,-1.1074937E-2,1.6001046E-2,8.938963E-3,1.0377528E-2,2.1811256E-3,-2.2223184E-3,2.674969E-3,-4.5390134E-3,7.84767E-3,3.9509777E-3,1.509283E-2,-5.589959E-3,5.9229047E-3,4.1682742E-5,8.5726165E-4,-7.929449E-5,2.9619277E-4,-3.8927035E-5,9.0149493E-4,-8.027339E-4,-2.5101256E-4,9.5222855E-4,6.5970095E-4,5.1221024E-4,-1.1567482E-4,5.981911E-4,7.1303526E-5,1.3612272E-5,5.199641E-4,-1.6266353E-4,1.0901559E-4,3.9284566E-4,-2.141031E-4,6.222645E-5,-2.4204387E-4,-0E0,8.7225635E-4,2.9706285E-5,6.6784554E-4,1.061676E-3,5.97624E-4,-4.0644757E-4,2.9295604E-4,7.024493E-4,-8.537737E-5],"categories":[],"categories_nodes":[],"categories_segments":[],"categories_sizes":[],"default_left":[0,0,0,0,0,0,0,0,0,0,0,0,0,0,0,0,0,0,0,0,0,0,0,0,0,0,0,0,0,0,0,0,0,0,0,0,0,0,0,0,0,0,0,0,0,0,0,0,0,0,0,0,0,0,0,0,0,0,0,0,0,0,0],"id":24,"left_children":[1,3,5,7,9,11,13,15,17,19,21,23,25,27,29,31,33,35,37,39,41,43,45,47,49,51,53,55,57,59,61,-1,-1,-1,-1,-1,-1,-1,-1,-1,-1,-1,-1,-1,-1,-1,-1,-1,-1,-1,-1,-1,-1,-1,-1,-1,-1,-1,-1,-1,-1,-1,-1],"loss_changes":[1.5199567E-1,7.63409E-2,1.1016309E-1,6.491882E-2,5.8857277E-2,3.310401E-2,1.7664501E-1,1.607056E-2,3.1691276E-2,1.6741186E-2,2.2283942E-2,3.5460126E-2,2.3873888E-2,3.815022E-2,4.752907E-2,5.846098E-4,1.1881477E-2,1.3320724E-2,1.608327E-2,1.8729568E-3,1.5533328E-2,4.6219975E-3,2.796753E-2,3.230882E-2,6.715747E-2,1.1017039E-2,1.09060425E-2,1.3468469E-2,1.7119244E-2,4.120393E-2,3.064882E-2,0E0,0E0,0E0,0E0,0E0,0E0,0E0,0E0,0E0,0E0,0E0,0E0,0E0,0E0,0E0,0E0,0E0,0E0,0E0,0E0,0E0,0E0,0E0,0E0,0E0,0E0,0E0,0E0,0E0,0E0,0E0,0E0],"parents":[2147483647,0,0,1,1,2,2,3,3,4,4,5,5,6,6,7,7,8,8,9,9,10,10,11,11,12,12,13,13,14,14,15,15,16,16,17,17,18,18,19,19,20,20,21,21,22,22,23,23,24,24,25,25,26,26,27,27,28,28,29,29,30,30],"right_children":[2,4,6,8,10,12,14,16,18,20,22,24,26,28,30,32,34,36,38,40,42,44,46,48,50,52,54,56,58,60,62,-1,-1,-1,-1,-1,-1,-1,-1,-1,-1,-1,-1,-1,-1,-1,-1,-1,-1,-1,-1,-1,-1,-1,-1,-1,-1,-1,-1,-1,-1,-1,-1],"split_conditions":[-1.0453005E1,-1.526627E1,-7.83627E0,-1.1318603E1,6.00998E0,-4.695E0,-5.06319E0,-1.3169368E1,5.77643E0,5.69646E0,-1.1864142E1,-5.3287E0,6.39437E0,5.56035E0,-6.599056E0,-2.072497E1,-1.826493E1,1.82832E0,-1.705304E1,5.4297E0,6.11142E0,6.66917E0,-6.13158E0,-8.536171E0,-8.655509E0,5.17208E0,3.47921E0,-6.897738E0,-1.041902E1,6.09795E0,3.06288E0,4.1682742E-5,8.5726165E-4,-7.929449E-5,2.9619277E-4,-3.8927035E-5,9.0149493E-4,-8.027339E-4,-2.5101256E-4,9.5222855E-4,6.5970095E-4,5.1221024E-4,-1.1567482E-4,5.981911E-4,7.1303526E-5,1.3612272E-5,5.199641E-4,-1.6266353E-4,1.0901559E-4,3.9284566E-4,-2.141031E-4,6.222645E-5,-2.4204387E-4,-0E0,8.7225635E-4,2.9706285E-5,6.6784554E-4,1.061676E-3,5.97624E-4,-4.0644757E-4,2.9295604E-4,7.024493E-4,-8.537737E-5],"split_indices":[7,2,7,7,5,3,2,7,5,5,7,2,4,5,7,2,2,6,2,4,4,5,2,7,7,5,3,7,2,5,2,0,0,0,0,0,0,0,0,0,0,0,0,0,0,0,0,0,0,0,0,0,0,0,0,0,0,0,0,0,0,0,0],"split_type":[0,0,0,0,0,0,0,0,0,0,0,0,0,0,0,0,0,0,0,0,0,0,0,0,0,0,0,0,0,0,0,0,0,0,0,0,0,0,0,0,0,0,0,0,0,0,0,0,0,0,0,0,0,0,0,0,0,0,0,0,0,0,0],"sum_hessian":[2.4301E4,5.683E3,1.8618E4,1.787E3,3.896E3,1.5196E4,3.422E3,9.74E2,8.13E2,1.626E3,2.27E3,8.943E3,6.253E3,1.542E3,1.88E3,1.18E2,8.56E2,2.08E2,6.05E2,6.25E2,1.001E3,4.2E2,1.85E3,7.092E3,1.851E3,6.1E3,1.53E2,4.7E2,1.072E3,1.407E3,4.73E2,1.6E1,1.02E2,3.16E2,5.4E2,1.63E2,4.5E1,3.22E2,2.83E2,2.8E2,3.45E2,9.05E2,9.6E1,3.47E2,7.3E1,1.512E3,3.38E2,5.765E3,1.327E3,1.069E3,7.82E2,2.86E2,5.814E3,8.7E1,6.6E1,3.55E2,1.15E2,3.5E2,7.22E2,1.159E3,2.48E2,2.35E2,2.38E2],"tree_param":{"num_deleted":"0","num_feature":"8","num_nodes":"63","size_leaf_vector":"1"}},{"base_weights":[-5.274784E-5,6.0596718E-3,-1.0004694E-3,-5.3135846E-3,6.8604173E-3,-2.0288473E-3,3.2178506E-3,-1.2253866E-3,-1.3317092E-3,8.872422E-3,3.4452695E-3,4.5585603E-4,-3.3927213E-3,1.1002741E-2,-2.0068574E-3,7.0171272E-3,-5.5104094E-3,1.5379392E-2,7.9176035E-3,8.7347645E-3,1.0318516E-3,-5.097183E-3,6.5305657E-3,5.8308267E-3,-4.01574E-3,3.9803274E-3,1.5685732E-2,-4.4435724E-3,7.23313E-3,6.2525773E-4,-0E0,-6.065869E-4,1.8043214E-4,8.354373E-4,-0E0,3.1699E-4,5.367795E-4,-0E0,4.7156197E-4,-2.2037524E-4,2.8306968E-4,1.2047371E-4,-3.8774143E-4,4.6472737E-4,-7.489658E-5,-2.7965524E-4,7.3387823E-4,-2.2718073E-4,1.4403569E-4,6.834299E-4,-0E0,1.0362297E-3,6.128311E-4,2.0199679E-5,-3.8737673E-4,5.958478E-4,-3.075577E-4],"categories":[],"categories_nodes":[],"categories_segments":[],"categories_sizes":[],"default_left":[0,0,0,0,0,0,0,0,0,0,0,0,0,0,0,0,0,0,0,0,0,0,0,0,0,0,0,0,0,0,0,0,0,0,0,0,0,0,0,0,0,0,0,0,0,0,0,0,0,0,0,0,0,0,0,0,0],"id":25,"left_children":[1,3,5,7,9,11,13,15,-1,17,19,21,23,25,27,29,31,33,35,37,39,41,43,45,47,49,51,53,55,-1,-1,-1,-1,-1,-1,-1,-1,-1,-1,-1,-1,-1,-1,-1,-1,-1,-1,-1,-1,-1,-1,-1,-1,-1,-1,-1,-1],"loss_changes":[1.3962393E-1,2.9634334E-2,9.0799674E-2,1.5049786E-2,1.955083E-2,5.7461277E-2,1.6723676E-1,6.139522E-3,0E0,9.272426E-3,1.3605591E-2,2.0098975E-1,6.257583E-2,5.2232698E-2,5.4690305E-2,1.6125056E-3,8.44362E-3,4.9369335E-3,5.6095794E-3,2.9418245E-3,2.0270541E-2,6.243822E-2,6.4081214E-2,6.981549E-2,3.7446782E-2,2.5817143E-2,1.3398379E-2,3.1808868E-2,3.2057397E-2,0E0,0E0,0E0,0E0,0E0,0E0,0E0,0E0,0E0,0E0,0E0,0E0,0E0,0E0,0E0,0E0,0E0,0E0,0E0,0E0,0E0,0E0,0E0,0E0,0E0,0E0,0E0,0E0],"parents":[2147483647,0,0,1,1,2,2,3,3,4,4,5,5,6,6,7,7,9,9,10,10,11,11,12,12,13,13,14,14,15,15,16,16,17,17,18,18,19,19,20,20,21,21,22,22,23,23,24,24,25,25,26,26,27,27,28,28],"right_children":[2,4,6,8,10,12,14,16,-1,18,20,22,24,26,28,30,32,34,36,38,40,42,44,46,48,50,52,54,56,-1,-1,-1,-1,-1,-1,-1,-1,-1,-1,-1,-1,-1,-1,-1,-1,-1,-1,-1,-1,-1,-1,-1,-1,-1,-1,-1,-1],"split_conditions":[-1.1041924E1,-1.976005E1,-8.013292E0,-1.1284548E1,6.23641E0,-9.840195E0,-5.8828E0,-1.2567248E1,-1.3317092E-3,-1.2567248E1,-1.2141616E1,-1.080091E1,-1.581584E1,5.67588E0,-6.599056E0,2.467399E3,2.6252075E3,6.17711E0,-1.141481E1,-1.89931E0,-1.347268E1,5.75228E0,6.27687E0,5.83502E0,-1.8035E-1,-1.067886E1,-1.029611E1,-2.85331E0,8.9917E0,6.2525773E-4,-0E0,-6.065869E-4,1.8043214E-4,8.354373E-4,-0E0,3.1699E-4,5.367795E-4,-0E0,4.7156197E-4,-2.2037524E-4,2.8306968E-4,1.2047371E-4,-3.8774143E-4,4.6472737E-4,-7.489658E-5,-2.7965524E-4,7.3387823E-4,-2.2718073E-4,1.4403569E-4,6.834299E-4,-0E0,1.0362297E-3,6.128311E-4,2.0199679E-5,-3.8737673E-4,5.958478E-4,-3.075577E-4],"split_indices":[7,2,7,7,5,7,2,7,0,7,7,2,2,5,7,1,1,5,2,6,2,5,5,5,2,2,2,2,2,0,0,0,0,0,0,0,0,0,0,0,0,0,0,0,0,0,0,0,0,0,0,0,0,0,0,0,0],"split_type":[0,0,0,0,0,0,0,0,0,0,0,0,0,0,0,0,0,0,0,0,0,0,0,0,0,0,0,0,0,0,0,0,0,0,0,0,0,0,0,0,0,0,0,0,0,0,0,0,0,0,0,0,0,0,0,0,0],"sum_hessian":[2.4188E4,3.232E3,2.0956E4,2.04E2,3.028E3,1.6868E4,4.088E3,1.76E2,2.8E1,1.886E3,1.142E3,5.952E3,1.0916E4,1.649E3,2.439E3,5.2E1,1.24E2,2.26E2,1.66E3,3.44E2,7.98E2,3.101E3,2.851E3,6.8E2,1.0236E4,6.69E2,9.8E2,1.939E3,5E2,2.6E1,2.6E1,7.8E1,4.6E1,2.09E2,1.7E1,1.089E3,5.71E2,1.6E1,3.28E2,3.57E2,4.41E2,8.01E2,2.3E3,2.13E3,7.21E2,2.92E2,3.88E2,9.522E3,7.14E2,1.94E2,4.75E2,3.83E2,5.97E2,7.74E2,1.165E3,3.76E2,1.24E2],"tree_param":{"num_deleted":"0","num_feature":"8","num_nodes":"57","size_leaf_vector":"1"}},{"base_weights":[3.7346214E-5,4.9960036E-3,-1.1044346E-3,7.0933807E-3,1.2582286E-3,-2.1826816E-3,3.0121002E-3,-9.890827E-4,8.529409E-3,-3.0792053E-3,4.7448203E-3,1.6372699E-4,-3.2087099E-3,-7.194446E-4,8.401843E-3,3.6965206E-3,-1.3274844E-2,1.1307322E-2,6.6748774E-3,2.8780638E-3,-1.2455064E-2,-8.632689E-3,5.3587607E-3,6.644539E-3,-2.7491313E-3,-3.7932207E-3,-0E0,6.6185207E-3,-3.425339E-3,1.1352917E-2,-4.9620643E-3,4.048453E-4,-2.4401625E-4,-9.54352E-4,-3.27636E-4,5.1987625E-4,8.1737916E-4,7.888114E-4,2.6592473E-4,-5.756665E-4,2.0298951E-4,-7.001133E-4,2.4619323E-4,-1.3049464E-3,2.2432131E-4,1.8548788E-4,4.5485987E-4,2.479871E-4,1.0732461E-3,-3.2053623E-4,-3.239391E-5,-2.190779E-4,1.4201719E-4,2.4929814E-4,-1.1664925E-4,-2.0315357E-4,4.5548557E-4,-2.8326485E-4,7.8225865E-5,4.0630624E-4,7.3902047E-4,4.296212E-4,-5.689961E-4],"categories":[],"categories_nodes":[],"categories_segments":[],"categories_sizes":[],"default_left":[0,0,0,0,0,0,0,0,0,0,0,0,0,0,0,0,0,0,0,0,0,0,0,0,0,0,0,0,0,0,0,0,0,0,0,0,0,0,0,0,0,0,0,0,0,0,0,0,0,0,0,0,0,0,0,0,0,0,0,0,0,0,0],"id":26,"left_children":[1,3,5,7,9,11,13,15,17,19,21,23,25,27,29,31,33,35,37,39,41,43,45,47,49,51,53,55,57,59,61,-1,-1,-1,-1,-1,-1,-1,-1,-1,-1,-1,-1,-1,-1,-1,-1,-1,-1,-1,-1,-1,-1,-1,-1,-1,-1,-1,-1,-1,-1,-1,-1],"loss_changes":[1.3737951E-1,3.4786537E-2,8.7147385E-2,3.435211E-2,2.516414E-2,3.7842475E-2,8.242926E-2,2.558767E-2,1.0840774E-2,4.1432213E-2,7.3487367E-3,8.94161E-2,2.033332E-2,4.713876E-2,6.6635564E-2,1.1834568E-2,2.155669E-3,1.5806407E-3,1.6373374E-2,6.7333113E-3,8.720733E-3,1.0069154E-2,4.2091217E-3,3.40309E-2,2.424142E-2,3.6060378E-2,1.9528948E-2,1.741234E-2,2.0045873E-2,1.2807548E-2,2.621279E-2,0E0,0E0,0E0,0E0,0E0,0E0,0E0,0E0,0E0,0E0,0E0,0E0,0E0,0E0,0E0,0E0,0E0,0E0,0E0,0E0,0E0,0E0,0E0,0E0,0E0,0E0,0E0,0E0,0E0,0E0,0E0,0E0],"parents":[2147483647,0,0,1,1,2,2,3,3,4,4,5,5,6,6,7,7,8,8,9,9,10,10,11,11,12,12,13,13,14,14,15,15,16,16,17,17,18,18,19,19,20,20,21,21,22,22,23,23,24,24,25,25,26,26,27,27,28,28,29,29,30,30],"right_children":[2,4,6,8,10,12,14,16,18,20,22,24,26,28,30,32,34,36,38,40,42,44,46,48,50,52,54,56,58,60,62,-1,-1,-1,-1,-1,-1,-1,-1,-1,-1,-1,-1,-1,-1,-1,-1,-1,-1,-1,-1,-1,-1,-1,-1,-1,-1,-1,-1,-1,-1,-1,-1],"split_conditions":[-1.0693783E1,6.21709E0,-8.013292E0,7.160417E1,7.580997E1,5.69087E0,5.83917E0,-1.1133501E1,-1.1472165E1,-1.1356057E1,-1.95775E0,-9.578543E0,8.092439E1,7.59869E1,8.197395E1,6.02008E0,-5.8446E-1,1.92286E0,5.52963E0,6.25448E0,1.191686E1,8.99815E0,7.960865E1,8.037407E1,7.584671E1,-8.350599E0,-9.670186E0,5.03915E0,-6.897738E0,6.0854E0,-5.94414E0,4.048453E-4,-2.4401625E-4,-9.54352E-4,-3.27636E-4,5.1987625E-4,8.1737916E-4,7.888114E-4,2.6592473E-4,-5.756665E-4,2.0298951E-4,-7.001133E-4,2.4619323E-4,-1.3049464E-3,2.2432131E-4,1.8548788E-4,4.5485987E-4,2.479871E-4,1.0732461E-3,-3.2053623E-4,-3.239391E-5,-2.190779E-4,1.4201719E-4,2.4929814E-4,-1.1664925E-4,-2.0315357E-4,4.5548557E-4,-2.8326485E-4,7.8225865E-5,4.0630624E-4,7.3902047E-4,4.296212E-4,-5.689961E-4],"split_indices":[7,5,7,0,0,5,5,7,7,7,6,7,0,0,0,4,6,6,5,5,3,3,0,0,0,7,7,5,7,5,3,0,0,0,0,0,0,0,0,0,0,0,0,0,0,0,0,0,0,0,0,0,0,0,0,0,0,0,0,0,0,0,0],"split_type":[0,0,0,0,0,0,0,0,0,0,0,0,0,0,0,0,0,0,0,0,0,0,0,0,0,0,0,0,0,0,0,0,0,0,0,0,0,0,0,0,0,0,0,0,0,0,0,0,0,0,0,0,0,0,0,0,0,0,0,0,0,0,0],"sum_hessian":[2.4194E4,4.544E3,1.965E4,2.893E3,1.651E3,1.5591E4,4.059E3,4.26E2,2.467E3,7.23E2,9.28E2,4.714E3,1.0877E4,2.388E3,1.671E3,3.03E2,1.23E2,9.64E2,1.503E3,4.36E2,2.87E2,3.3E1,8.95E2,1.472E3,3.242E3,9.196E3,1.681E3,6.33E2,1.755E3,1.375E3,2.96E2,2.08E2,9.5E1,5.7E1,6.6E1,8.36E2,1.28E2,1.84E2,1.319E3,2.6E1,4.1E2,2.69E2,1.8E1,1.7E1,1.6E1,6.41E2,2.54E2,1.329E3,1.43E2,1.164E3,2.078E3,8.461E3,7.35E2,5.33E2,1.148E3,1.12E2,5.21E2,1.225E3,5.3E2,7.25E2,6.5E2,9E1,2.06E2],"tree_param":{"num_deleted":"0","num_feature":"8","num_nodes":"63","size_leaf_vector":"1"}},{"base_weights":[3.900572E-4,8.823447E-4,-8.6955435E-4,1.7551449E-3,-6.2129344E-5,2.4254266E-3,-1.3911625E-3,-4.471003E-3,1.898688E-3,-6.992907E-4,3.1382507E-3,5.6025526E-4,1.3170087E-2,1.5589436E-4,-2.5456455E-3,-9.3817655E-3,2.0880284E-2,6.684878E-3,1.7218954E-3,-1.393871E-4,-3.6357846E-3,2.555562E-2,2.6935672E-3,-3.0435536E-3,5.4992056E-3,2.1471465E-3,2.716127E-2,2.1394156E-3,-4.354373E-3,-4.6077566E-3,-6.3564294E-5,-8.5758994E-4,-0E0,1.44259E-3,-0E0,3.8500806E-5,5.7649234E-4,-3.0524756E-5,1.02421145E-4,-2.7548353E-5,2.2868834E-4,2.3011331E-5,-3.3994936E-4,1.8616775E-3,2.1939403E-4,4.1647472E-5,2.8847795E-4,-0E0,-4.4639214E-4,4.8798934E-4,-0E0,8.671509E-4,-2.5735272E-4,1.8401862E-3,-0E0,3.998277E-4,1.7621393E-5,-5.6810165E-4,6.116133E-5,-3.2162262E-4,2.5912008E-5,-5.1312785E-5,5.71536E-4],"categories":[],"categories_nodes":[],"categories_segments":[],"categories_sizes":[],"default_left":[0,0,0,0,0,0,0,0,0,0,0,0,0,0,0,0,0,0,0,0,0,0,0,0,0,0,0,0,0,0,0,0,0,0,0,0,0,0,0,0,0,0,0,0,0,0,0,0,0,0,0,0,0,0,0,0,0,0,0,0,0,0,0],"id":27,"left_children":[1,3,5,7,9,11,13,15,17,19,21,23,25,27,29,31,33,35,37,39,41,43,45,47,49,51,53,55,57,59,61,-1,-1,-1,-1,-1,-1,-1,-1,-1,-1,-1,-1,-1,-1,-1,-1,-1,-1,-1,-1,-1,-1,-1,-1,-1,-1,-1,-1,-1,-1,-1,-1],"loss_changes":[1.5059718E-2,1.4609323E-2,1.1530317E-2,7.936852E-3,1.6803624E-2,1.6636116E-2,1.0721705E-2,2.2824425E-2,6.7370497E-3,1.11277625E-2,1.0683521E-2,1.4056552E-2,1.6288836E-2,2.1902855E-2,1.692465E-2,1.11591555E-2,2.7760603E-3,7.3296726E-3,6.748786E-3,1.1058873E-2,1.4785515E-2,1.1127787E-3,7.0098136E-3,7.3499866E-3,7.846366E-3,9.621994E-3,1.1138033E-2,1.730096E-2,2.9951358E-2,1.7748855E-2,1.6288709E-2,0E0,0E0,0E0,0E0,0E0,0E0,0E0,0E0,0E0,0E0,0E0,0E0,0E0,0E0,0E0,0E0,0E0,0E0,0E0,0E0,0E0,0E0,0E0,0E0,0E0,0E0,0E0,0E0,0E0,0E0,0E0,0E0],"parents":[2147483647,0,0,1,1,2,2,3,3,4,4,5,5,6,6,7,7,8,8,9,9,10,10,11,11,12,12,13,13,14,14,15,15,16,16,17,17,18,18,19,19,20,20,21,21,22,22,23,23,24,24,25,25,26,26,27,27,28,28,29,29,30,30],"right_children":[2,4,6,8,10,12,14,16,18,20,22,24,26,28,30,32,34,36,38,40,42,44,46,48,50,52,54,56,58,60,62,-1,-1,-1,-1,-1,-1,-1,-1,-1,-1,-1,-1,-1,-1,-1,-1,-1,-1,-1,-1,-1,-1,-1,-1,-1,-1,-1,-1,-1,-1,-1,-1],"split_conditions":[6.15795E0,2.394419E3,-1.264548E1,4.9561E0,2.05536E0,6.58438E0,7.2423E-1,7.903125E1,5.13619E0,1.73261E0,-2.241017E1,7.710969E1,-1.471115E1,2.511819E3,2.3910996E3,2.067155E3,8.117243E1,-7.5898E-1,5.39268E0,2.8654802E3,-1.328241E1,4.96936E0,5.59253E0,2.5854011E3,