{"learner":{"attributes":{"scikit_learn":"{\"_estimator_type\": \"regressor\"}"},"feature_names":[],"feature_types":[],"gradient_booster":{"model":{"cats":{"enc":[],"feature_segments":[],"sorted_idx":[]},"gbtree_model_param":{"num_parallel_tree":"1","num_trees":"300"},"iteration_indptr":[0,1,2,3,4,5,6,7,8,9,10,11,12,13,14,15,16,17,18,19,20,21,22,23,24,25,26,27,28,29,30,31,32,33,34,35,36,37,38,39,40,41,42,43,44,45,46,47,48,49,50,51,52,53,54,55,56,57,58,59,60,61,62,63,64,65,66,67,68,69,70,71,72,73,74,75,76,77,78,79,80,81,82,83,84,85,86,87,88,89,90,91,92,93,94,95,96,97,98,99,100,101,102,103,104,105,106,107,108,109,110,111,112,113,114,115,116,117,118,119,120,121,122,123,124,125,126,127,128,129,130,131,132,133,134,135,136,137,138,139,140,141,142,143,144,145,146,147,148,149,150,151,152,153,154,155,156,157,158,159,160,161,162,163,164,165,166,167,168,169,170,171,172,173,174,175,176,177,178,179,180,181,182,183,184,185,186,187,188,189,190,191,192,193,194,195,196,197,198,199,200,201,202,203,204,205,206,207,208,209,210,211,212,213,214,215,216,217,218,219,220,221,222,223,224,225,226,227,228,229,230,231,232,233,234,235,236,237,238,239,240,241,242,243,244,245,246,247,248,249,250,251,252,253,254,255,256,257,258,259,260,261,262,263,264,265,266,267,268,269,270,271,272,273,274,275,276,277,278,279,280,281,282,283,284,285,286,287,288,289,290,291,292,293,294,295,296,297,298,299,300],"tree_info":[0,0,0,0,0,0,0,0,0,0,0,0,0,0,0,0,0,0,0,0,0,0,0,0,0,0,0,0,0,0,0,0,0,0,0,0,0,0,0,0,0,0,0,0,0,0,0,0,0,0,0,0,0,0,0,0,0,0,0,0,0,0,0,0,0,0,0,0,0,0,0,0,0,0,0,0,0,0,0,0,0,0,0,0,0,0,0,0,0,0,0,0,0,0,0,0,0,0,0,0,0,0,0,0,0,0,0,0,0,0,0,0,0,0,0,0,0,0,0,0,0,0,0,0,0,0,0,0,0,0,0,0,0,0,0,0,0,0,0,0,0,0,0,0,0,0,0,0,0,0,0,0,0,0,0,0,0,0,0,0,0,0,0,0,0,0,0,0,0,0,0,0,0,0,0,0,0,0,0,0,0,0,0,0,0,0,0,0,0,0,0,0,0,0,0,0,0,0,0,0,0,0,0,0,0,0,0,0,0,0,0,0,0,0,0,0,0,0,0,0,0,0,0,0,0,0,0,0,0,0,0,0,0,0,0,0,0,0,0,0,0,0,0,0,0,0,0,0,0,0,0,0,0,0,0,0,0,0,0,0,0,0,0,0,0,0,0,0,0,0,0,0,0,0,0,0,0,0,0,0,0,0,0,0,0,0,0,0,0,0,0,0,0,0,0,0,0,0,0,0],"trees":[{"base_weights":[3.838631E-4,1.6619243E-2,-2.7099666E-3,2.0528441E-2,9.00586E-3,-4.7845202E-3,1.7454071E-2,2.713489E-2,1.4249558E-2,1.9638713E-2,4.5371065E-3,2.6538065E-3,-5.8216094E-3,3.9167465E-3,2.0828065E-2,2.3227178E-2,3.1964693E-2,1.057565E-2,2.5241524E-2,8.841891E-3,2.3560861E-2,-1.3980579E-2,5.885981E-3,-1.4101729E-3,1.2524203E-2,-6.506919E-3,1.878263E-3,1.0961266E-2,-7.8048673E-3,1.2574495E-2,2.7371215E-2,1.2235808E-3,1.6417744E-4,1.6337961E-3,-0E0,8.2674064E-4,1.4535293E-4,1.3574726E-4,1.4151376E-3,1.0930869E-3,5.6048913E-5,1.2610349E-3,3.507301E-5,7.3406164E-4,-1.2961973E-3,3.2063763E-5,6.73216E-4,4.7961934E-4,-3.1788636E-4,8.923925E-4,-0E0,-1.6567149E-4,-3.7369967E-4,-1.842608E-4,5.756827E-4,-2.1303192E-4,8.435592E-4,-1.6121338E-4,-1.7373785E-3,1.2963187E-3,4.586252E-5,2.0518703E-3,1.2543E-3],"categories":[],"categories_nodes":[],"categories_segments":[],"categories_sizes":[],"default_left":[0,0,0,0,0,0,0,0,0,0,0,0,0,0,0,0,0,0,0,0,0,0,0,0,0,0,0,0,0,0,0,0,0,0,0,0,0,0,0,0,0,0,0,0,0,0,0,0,0,0,0,0,0,0,0,0,0,0,0,0,0,0,0],"id":0,"left_children":[1,3,5,7,9,11,13,15,17,19,21,23,25,27,29,31,33,35,37,39,41,43,45,47,49,51,53,55,57,59,61,-1,-1,-1,-1,-1,-1,-1,-1,-1,-1,-1,-1,-1,-1,-1,-1,-1,-1,-1,-1,-1,-1,-1,-1,-1,-1,-1,-1,-1,-1,-1,-1],"loss_changes":[9.807605E-1,8.989835E-2,6.836798E-1,8.076012E-2,4.838252E-2,1.1488825E-1,6.700671E-2,1.2479782E-2,3.9119333E-2,9.6789E-3,1.830609E-2,7.3573306E-2,6.9310814E-2,2.608144E-2,6.116855E-2,1.1141807E-2,6.9564283E-3,3.4840636E-2,1.4681771E-2,6.8250066E-3,5.7375208E-3,1.7593835E-2,2.7039057E-2,6.903425E-2,3.5693705E-2,3.5928845E-2,5.7379913E-2,1.9324977E-2,9.9131195E-3,8.211899E-2,1.3251126E-2,0E0,0E0,0E0,0E0,0E0,0E0,0E0,0E0,0E0,0E0,0E0,0E0,0E0,0E0,0E0,0E0,0E0,0E0,0E0,0E0,0E0,0E0,0E0,0E0,0E0,0E0,0E0,0E0,0E0,0E0,0E0,0E0],"parents":[2147483647,0,0,1,1,2,2,3,3,4,4,5,5,6,6,7,7,8,8,9,9,10,10,11,11,12,12,13,13,14,14,15,15,16,16,17,17,18,18,19,19,20,20,21,21,22,22,23,23,24,24,25,25,26,26,27,27,28,28,29,29,30,30],"right_children":[2,4,6,8,10,12,14,16,18,20,22,24,26,28,30,32,34,36,38,40,42,44,46,48,50,52,54,56,58,60,62,-1,-1,-1,-1,-1,-1,-1,-1,-1,-1,-1,-1,-1,-1,-1,-1,-1,-1,-1,-1,-1,-1,-1,-1,-1,-1,-1,-1,-1,-1,-1,-1],"split_conditions":[-8.168499E0,6.12396E0,-5.157885E0,-8.661891E0,-9.290185E0,-7.728073E0,5.10132E0,8.314722E1,8.486507E1,8.066502E1,-1.93869E0,8.523117E1,-5.518099E0,8.594376E1,-4.792473E0,2.3341E0,3.13553E0,5.7967E0,-5.35504E0,-1.016751E1,6.87829E0,6.26892E0,8.447371E1,5.60515E0,6.13009E0,-7.212966E0,5.73083E0,4.45639E0,5.04792E0,8.555984E1,8.291373E1,1.2235808E-3,1.6417744E-4,1.6337961E-3,-0E0,8.2674064E-4,1.4535293E-4,1.3574726E-4,1.4151376E-3,1.0930869E-3,5.6048913E-5,1.2610349E-3,3.507301E-5,7.3406164E-4,-1.2961973E-3,3.2063763E-5,6.73216E-4,4.7961934E-4,-3.1788636E-4,8.923925E-4,-0E0,-1.6567149E-4,-3.7369967E-4,-1.842608E-4,5.756827E-4,-2.1303192E-4,8.435592E-4,-1.6121338E-4,-1.7373785E-3,1.2963187E-3,4.586252E-5,2.0518703E-3,1.2543E-3],"split_indices":[7,5,7,7,7,7,5,0,0,0,6,0,7,0,7,6,6,5,3,7,5,5,0,5,5,7,5,5,3,0,0,0,0,0,0,0,0,0,0,0,0,0,0,0,0,0,0,0,0,0,0,0,0,0,0,0,0,0,0,0,0,0,0],"split_type":[0,0,0,0,0,0,0,0,0,0,0,0,0,0,0,0,0,0,0,0,0,0,0,0,0,0,0,0,0,0,0,0,0,0,0,0,0,0,0,0,0,0,0,0,0,0,0,0,0,0,0,0,0,0,0,0,0,0,0,0,0,0,0],"sum_hessian":[1.9496E4,3.125E3,1.6371E4,2.055E3,1.07E3,1.4849E4,1.522E3,9.92E2,1.063E3,3.09E2,7.61E2,1.805E3,1.3044E4,3.1E2,1.212E3,5.63E2,4.29E2,8.05E2,2.58E2,9E1,2.19E2,4.6E1,7.15E2,1.272E3,5.33E2,1.199E4,1.054E3,1.99E2,1.11E2,5.44E2,6.68E2,5.25E2,3.8E1,4.17E2,1.2E1,4.45E2,3.6E2,3.5E1,2.23E2,2.8E1,6.2E1,2E2,1.9E1,1.1E1,3.5E1,4.31E2,2.84E2,3.88E2,8.84E2,3.74E2,1.59E2,2.812E3,9.178E3,6.62E2,3.92E2,5.1E1,1.48E2,9.9E1,1.2E1,2.49E2,2.95E2,8.7E1,5.81E2],"tree_param":{"num_deleted":"0","num_feature":"8","num_nodes":"63","size_leaf_vector":"1"}},{"base_weights":[-5.858111E-5,1.5130295E-2,-2.9706482E-3,9.875028E-3,2.1900602E-2,-5.019863E-3,1.7020142E-2,1.7768705E-2,4.7721905E-3,3.266558E-2,1.7117526E-2,7.4823224E-6,-6.6869417E-3,2.3526102E-2,6.9118477E-3,2.4406735E-2,7.794327E-3,7.708619E-3,-6.319707E-3,3.4919858E-2,2.011518E-2,2.2048203E-2,-1.08940774E-4,-4.8712865E-3,8.077937E-3,2.2914466E-5,-7.938646E-3,1.0528834E-2,3.1105876E-2,-4.691665E-4,2.2360748E-2,7.513633E-4,1.3907406E-3,1.1713887E-3,1.6180317E-4,1.0296467E-3,3.0254212E-4,-4.898237E-4,1.0810513E-4,2.1470792E-3,1.578896E-3,-6.2424726E-5,1.3756745E-3,1.1973659E-3,-9.358385E-5,-3.9546803E-4,8.863629E-4,1.16872136E-4,-4.9833907E-4,6.4373866E-4,-2.4261225E-4,-2.0516117E-4,9.638434E-4,-4.5355107E-4,-8.457233E-5,1.8042008E-3,3.925377E-4,1.1811868E-3,1.7734992E-3,-3.7151584E-4,3.118985E-4,-5.540641E-4,1.366695E-3],"categories":[],"categories_nodes":[],"categories_segments":[],"categories_sizes":[],"default_left":[0,0,0,0,0,0,0,0,0,0,0,0,0,0,0,0,0,0,0,0,0,0,0,0,0,0,0,0,0,0,0,0,0,0,0,0,0,0,0,0,0,0,0,0,0,0,0,0,0,0,0,0,0,0,0,0,0,0,0,0,0,0,0],"id":1,"left_children":[1,3,5,7,9,11,13,15,17,19,21,23,25,27,29,31,33,35,37,39,41,43,45,47,49,51,53,55,57,59,61,-1,-1,-1,-1,-1,-1,-1,-1,-1,-1,-1,-1,-1,-1,-1,-1,-1,-1,-1,-1,-1,-1,-1,-1,-1,-1,-1,-1,-1,-1,-1,-1],"loss_changes":[8.660667E-1,1.0864687E-1,6.731352E-1,6.948063E-2,6.484896E-2,1.2582952E-1,9.714976E-2,4.240714E-2,3.575466E-2,5.47871E-3,8.331221E-2,1.4624026E-1,9.510982E-2,8.634114E-2,7.1186915E-2,8.37189E-3,1.749603E-2,1.5814982E-2,7.331237E-3,3.604293E-4,1.4040815E-2,3.61861E-2,2.8236555E-2,8.5343406E-2,8.794635E-2,1.4094205E-1,6.5950334E-2,1.9003063E-2,1.2093365E-2,1.9121474E-2,3.519062E-2,0E0,0E0,0E0,0E0,0E0,0E0,0E0,0E0,0E0,0E0,0E0,0E0,0E0,0E0,0E0,0E0,0E0,0E0,0E0,0E0,0E0,0E0,0E0,0E0,0E0,0E0,0E0,0E0,0E0,0E0,0E0,0E0],"parents":[2147483647,0,0,1,1,2,2,3,3,4,4,5,5,6,6,7,7,8,8,9,9,10,10,11,11,12,12,13,13,14,14,15,15,16,16,17,17,18,18,19,19,20,20,21,21,22,22,23,23,24,24,25,25,26,26,27,27,28,28,29,29,30,30],"right_children":[2,4,6,8,10,12,14,16,18,20,22,24,26,28,30,32,34,36,38,40,42,44,46,48,50,52,54,56,58,60,62,-1,-1,-1,-1,-1,-1,-1,-1,-1,-1,-1,-1,-1,-1,-1,-1,-1,-1,-1,-1,-1,-1,-1,-1,-1,-1,-1,-1,-1,-1,-1,-1],"split_conditions":[-8.168499E0,3.93996E0,-5.157885E0,-9.040588E0,5.7967E0,-7.385203E0,1.061028E1,6.1178E0,6.20563E0,-8.25385E0,-8.34702E0,6.13807E0,3.35461E0,5.21079E0,-4.354433E0,-2.5665E0,-1.016751E1,5.31824E0,-8.34702E0,-8.934262E0,4.92662E0,6.80141E0,8.35201E0,5.69159E0,6.1372E0,-6.071172E0,-5.658421E0,2.64811E0,5.5949E0,-4.841395E0,5.07477E0,7.513633E-4,1.3907406E-3,1.1713887E-3,1.6180317E-4,1.0296467E-3,3.0254212E-4,-4.898237E-4,1.0810513E-4,2.1470792E-3,1.578896E-3,-6.2424726E-5,1.3756745E-3,1.1973659E-3,-9.358385E-5,-3.9546803E-4,8.863629E-4,1.16872136E-4,-4.9833907E-4,6.4373866E-4,-2.4261225E-4,-2.0516117E-4,9.638434E-4,-4.5355107E-4,-8.457233E-5,1.8042008E-3,3.925377E-4,1.1811868E-3,1.7734992E-3,-3.7151584E-4,3.118985E-4,-5.540641E-4,1.366695E-3],"split_indices":[7,2,7,7,5,7,2,5,5,7,7,2,2,5,7,2,7,5,7,7,2,5,2,5,5,7,7,2,5,7,5,0,0,0,0,0,0,0,0,0,0,0,0,0,0,0,0,0,0,0,0,0,0,0,0,0,0,0,0,0,0,0,0],"split_type":[0,0,0,0,0,0,0,0,0,0,0,0,0,0,0,0,0,0,0,0,0,0,0,0,0,0,0,0,0,0,0,0,0,0,0,0,0,0,0,0,0,0,0,0,0,0,0,0,0,0,0,0,0,0,0,0,0,0,0,0,0,0,0],"sum_hessian":[1.9606E4,3.148E3,1.6458E4,1.782E3,1.366E3,1.4933E4,1.525E3,6.91E2,1.091E3,4.12E2,9.54E2,3.704E3,1.1229E4,9.21E2,6.04E2,4.08E2,2.83E2,8.7E2,2.21E2,3.41E2,7.1E1,7.46E2,2.08E2,2.301E3,1.403E3,1.753E3,9.476E3,3.45E2,5.76E2,4.05E2,1.99E2,1.18E2,2.9E2,5.8E1,2.25E2,9.1E1,7.79E2,1.65E2,5.6E1,8.8E1,2.53E2,1.5E1,5.6E1,6.95E2,5.1E1,1.49E2,5.9E1,9.45E2,1.356E3,1.029E3,3.74E2,1.44E3,3.13E2,8.008E3,1.468E3,2.8E1,3.17E2,2.23E2,3.53E2,2.06E2,1.99E2,2.3E1,1.76E2],"tree_param":{"num_deleted":"0","num_feature":"8","num_nodes":"63","size_leaf_vector":"1"}},{"base_weights":[-1.3115897E-4,1.5532327E-2,-2.7684155E-3,9.947014E-3,2.1403357E-2,-4.6028807E-3,1.5670216E-2,1.6933395E-2,4.494597E-3,2.9322283E-2,1.5364098E-2,-5.44252E-6,-6.2189195E-3,2.1013157E-2,5.5747963E-3,9.253511E-3,2.1695616E-2,1.1441137E-2,1.398736E-3,1.0359446E-2,3.0415196E-2,1.2062184E-2,2.479186E-2,-2.7708237E-3,1.3120363E-2,-7.4800854E-3,1.1667385E-3,2.5574168E-2,1.392755E-2,6.907035E-4,1.5096008E-3,4.3664953E-5,8.6424325E-4,1.5611199E-3,9.364858E-4,1.9724062E-4,8.381593E-4,-0E0,8.390029E-4,-2.9327365E-4,1.044527E-3,1.5669167E-3,7.7847176E-4,-6.239387E-4,6.363639E-4,5.2344624E-4,1.4200197E-3,-2.8003435E-4,2.464504E-4,2.4065068E-4,9.932326E-4,-7.220287E-5,-4.34387E-4,7.142305E-4,-2.1173414E-4,1.4088869E-3,9.0929255E-4,2.543201E-4,1.2115601E-3,4.813695E-4,-2.8670416E-4],"categories":[],"categories_nodes":[],"categories_segments":[],"categories_sizes":[],"default_left":[0,0,0,0,0,0,0,0,0,0,0,0,0,0,0,0,0,0,0,0,0,0,0,0,0,0,0,0,0,0,0,0,0,0,0,0,0,0,0,0,0,0,0,0,0,0,0,0,0,0,0,0,0,0,0,0,0,0,0,0,0],"id":2,"left_children":[1,3,5,7,9,11,13,15,17,19,21,23,25,27,29,31,33,35,37,39,41,43,45,47,49,51,53,55,57,59,-1,-1,-1,-1,-1,-1,-1,-1,-1,-1,-1,-1,-1,-1,-1,-1,-1,-1,-1,-1,-1,-1,-1,-1,-1,-1,-1,-1,-1,-1,-1],"loss_changes":[8.026326E-1,8.843553E-2,5.6255805E-1,5.2824974E-2,5.988294E-2,1.1201087E-1,7.8294694E-2,1.9562647E-2,1.6356047E-2,7.58639E-3,2.023442E-2,1.4274089E-1,1.0497221E-1,2.7235597E-2,6.0373783E-2,1.4927894E-2,5.0723106E-3,7.5577535E-3,1.3508867E-2,8.117953E-3,2.2355318E-3,9.748392E-3,5.7909116E-3,7.152066E-2,3.5703182E-2,6.879985E-2,1.1606338E-1,6.085038E-3,3.2745764E-2,2.5994789E-2,0E0,0E0,0E0,0E0,0E0,0E0,0E0,0E0,0E0,0E0,0E0,0E0,0E0,0E0,0E0,0E0,0E0,0E0,0E0,0E0,0E0,0E0,0E0,0E0,0E0,0E0,0E0,0E0,0E0,0E0,0E0],"parents":[2147483647,0,0,1,1,2,2,3,3,4,4,5,5,6,6,7,7,8,8,9,9,10,10,11,11,12,12,13,13,14,14,15,15,16,16,17,17,18,18,19,19,20,20,21,21,22,22,23,23,24,24,25,25,26,26,27,27,28,28,29,29],"right_children":[2,4,6,8,10,12,14,16,18,20,22,24,26,28,30,32,34,36,38,40,42,44,46,48,50,52,54,56,58,60,-1,-1,-1,-1,-1,-1,-1,-1,-1,-1,-1,-1,-1,-1,-1,-1,-1,-1,-1,-1,-1,-1,-1,-1,-1,-1,-1,-1,-1,-1,-1],"split_conditions":[-8.25385E0,3.35461E0,-5.157885E0,-9.040588E0,-8.77802E0,-7.385203E0,1.110717E1,-1.60358E0,-4.96091E0,4.96198E0,8.03697E0,8.50197E0,-5.658421E0,8.622357E1,-3.939506E0,2.371399E3,-9.950327E0,5.45793E0,6.34154E0,7.675837E1,7.00713E0,1.6618456E3,5.48434E0,8.528328E1,8.423548E1,3.35461E0,6.35351E0,6.066E0,-4.68136E0,8.575284E1,1.5096008E-3,4.3664953E-5,8.6424325E-4,1.5611199E-3,9.364858E-4,1.9724062E-4,8.381593E-4,-0E0,8.390029E-4,-2.9327365E-4,1.044527E-3,1.5669167E-3,7.7847176E-4,-6.239387E-4,6.363639E-4,5.2344624E-4,1.4200197E-3,-2.8003435E-4,2.464504E-4,2.4065068E-4,9.932326E-4,-7.220287E-5,-4.34387E-4,7.142305E-4,-2.1173414E-4,1.4088869E-3,9.0929255E-4,2.543201E-4,1.2115601E-3,4.813695E-4,-2.8670416E-4],"split_indices":[7,2,7,7,7,7,2,2,3,4,2,2,7,0,7,1,7,4,3,0,3,1,4,0,0,2,2,4,7,0,0,0,0,0,0,0,0,0,0,0,0,0,0,0,0,0,0,0,0,0,0,0,0,0,0,0,0,0,0,0,0],"split_type":[0,0,0,0,0,0,0,0,0,0,0,0,0,0,0,0,0,0,0,0,0,0,0,0,0,0,0,0,0,0,0,0,0,0,0,0,0,0,0,0,0,0,0,0,0,0,0,0,0,0,0,0,0,0,0,0,0,0,0,0,0],"sum_hessian":[1.9459E4,2.798E3,1.6661E4,1.444E3,1.354E3,1.5159E4,1.502E3,6.24E2,8.2E2,5.77E2,7.77E2,3.959E3,1.12E4,9.75E2,5.27E2,2.48E2,3.76E2,2.42E2,5.78E2,3.7E1,5.4E2,5.85E2,1.92E2,3.277E3,6.82E2,9.578E3,1.622E3,5.83E2,3.92E2,4.44E2,8.3E1,1.28E2,1.2E2,7.9E1,2.97E2,1.09E2,1.33E2,5.27E2,5.1E1,1.1E1,2.6E1,5.01E2,3.9E1,1.1E1,5.74E2,4.5E1,1.47E2,2.406E3,8.71E2,3.13E2,3.69E2,1.611E3,7.967E3,4.78E2,1.144E3,4.19E2,1.64E2,2.17E2,1.75E2,1.92E2,2.52E2],"tree_param":{"num_deleted":"0","num_feature":"8","num_nodes":"61","size_leaf_vector":"1"}},{"base_weights":[-8.1314865E-5,1.3274801E-2,-2.6191485E-3,1.7303424E-2,5.6828125E-3,-4.583616E-3,1.4206039E-2,2.4839481E-2,1.3562638E-2,1.0550991E-2,-2.6897837E-3,-4.8090538E-4,-6.383551E-3,2.0997215E-2,8.220821E-3,1.2534414E-2,2.6578855E-2,9.934128E-3,2.1951456E-2,5.211101E-3,1.4959597E-2,-4.9770917E-3,9.166354E-3,6.628785E-3,-4.328953E-3,-7.5498926E-3,6.7106227E-4,2.7102204E-3,2.4357613E-2,-9.761245E-4,1.7049488E-2,9.6019247E-4,-0E0,9.730127E-4,1.5042465E-3,-6.00974E-4,5.478554E-4,1.1325411E-3,-0E0,9.939778E-4,1.2226427E-4,1.1054956E-3,2.1037411E-4,-1.1597344E-3,-1.5961622E-4,5.001437E-5,1.1889692E-3,-8.495286E-5,5.399158E-4,-3.6113837E-4,6.775204E-5,-3.8967252E-4,2.536429E-4,-2.1769996E-4,6.9631403E-4,-6.789705E-5,1.4229381E-3,1.3478573E-3,7.980806E-4,-5.2968634E-4,3.036558E-4,-1.8412153E-4,1.0206416E-3],"categories":[],"categories_nodes":[],"categories_segments":[],"categories_sizes":[],"default_left":[0,0,0,0,0,0,0,0,0,0,0,0,0,0,0,0,0,0,0,0,0,0,0,0,0,0,0,0,0,0,0,0,0,0,0,0,0,0,0,0,0,0,0,0,0,0,0,0,0,0,0,0,0,0,0,0,0,0,0,0,0,0,0],"id":3,"left_children":[1,3,5,7,9,11,13,15,17,19,21,23,25,27,29,31,33,35,37,39,41,43,45,47,49,51,53,55,57,59,61,-1,-1,-1,-1,-1,-1,-1,-1,-1,-1,-1,-1,-1,-1,-1,-1,-1,-1,-1,-1,-1,-1,-1,-1,-1,-1,-1,-1,-1,-1,-1,-1],"loss_changes":[6.615265E-1,9.287608E-2,5.4225516E-1,5.2937508E-2,4.524213E-2,1.0801932E-1,6.653333E-2,9.924352E-3,3.8142473E-2,1.431337E-2,1.031144E-2,1.2310314E-1,8.4742874E-2,4.6019733E-2,7.6324984E-2,6.723757E-3,8.736193E-3,2.1652617E-2,6.927252E-3,1.0985372E-2,2.5798082E-2,8.277045E-3,4.300112E-3,5.5582576E-2,4.8856232E-2,2.729839E-2,9.680057E-2,1.6261378E-2,9.813756E-3,3.0753763E-2,3.48693E-2,0E0,0E0,0E0,0E0,0E0,0E0,0E0,0E0,0E0,0E0,0E0,0E0,0E0,0E0,0E0,0E0,0E0,0E0,0E0,0E0,0E0,0E0,0E0,0E0,0E0,0E0,0E0,0E0,0E0,0E0,0E0,0E0],"parents":[2147483647,0,0,1,1,2,2,3,3,4,4,5,5,6,6,7,7,8,8,9,9,10,10,11,11,12,12,13,13,14,14,15,15,16,16,17,17,18,18,19,19,20,20,21,21,22,22,23,23,24,24,25,25,26,26,27,27,28,28,29,29,30,30],"right_children":[2,4,6,8,10,12,14,16,18,20,22,24,26,28,30,32,34,36,38,40,42,44,46,48,50,52,54,56,58,60,62,-1,-1,-1,-1,-1,-1,-1,-1,-1,-1,-1,-1,-1,-1,-1,-1,-1,-1,-1,-1,-1,-1,-1,-1,-1,-1,-1,-1,-1,-1,-1,-1],"split_conditions":[-8.168499E0,6.1178E0,-5.209864E0,-8.934262E0,-8.626054E0,-7.239687E0,8.555984E1,5.12648E0,8.447371E1,8.258104E1,6.18634E0,5.65745E0,-5.658421E0,4.83437E0,-4.792473E0,5.94478E0,8.123044E1,4.72186E0,3.24423E0,-1.016751E1,6.47826E0,-1.93869E0,1.66442E0,8.195861E1,8.523117E1,6.61412E0,5.82533E0,2.98795E0,6.08736E0,5.51532E0,5.07477E0,9.6019247E-4,-0E0,9.730127E-4,1.5042465E-3,-6.00974E-4,5.478554E-4,1.1325411E-3,-0E0,9.939778E-4,1.2226427E-4,1.1054956E-3,2.1037411E-4,-1.1597344E-3,-1.5961622E-4,5.001437E-5,1.1889692E-3,-8.495286E-5,5.399158E-4,-3.6113837E-4,6.775204E-5,-3.8967252E-4,2.536429E-4,-2.1769996E-4,6.9631403E-4,-6.789705E-5,1.4229381E-3,1.3478573E-3,7.980806E-4,-5.2968634E-4,3.036558E-4,-1.8412153E-4,1.0206416E-3],"split_indices":[7,5,7,7,7,7,0,4,0,0,4,5,7,5,7,5,0,4,6,7,5,6,6,0,0,5,5,6,4,5,5,0,0,0,0,0,0,0,0,0,0,0,0,0,0,0,0,0,0,0,0,0,0,0,0,0,0,0,0,0,0,0,0],"split_type":[0,0,0,0,0,0,0,0,0,0,0,0,0,0,0,0,0,0,0,0,0,0,0,0,0,0,0,0,0,0,0,0,0,0,0,0,0,0,0,0,0,0,0,0,0,0,0,0,0,0,0,0,0,0,0,0,0,0,0,0,0,0,0],"sum_hessian":[1.9546E4,3.114E3,1.6432E4,2.025E3,1.089E3,1.472E4,1.712E3,6.61E2,1.364E3,6.96E2,3.93E2,4.506E3,1.0214E4,7.93E2,9.19E2,9E1,5.71E2,9.62E2,4.02E2,3.26E2,3.7E2,3.37E2,5.6E1,1.573E3,2.933E3,8.777E3,1.437E3,1.28E2,6.65E2,4.45E2,4.74E2,5.6E1,3.4E1,2E2,3.71E2,3.8E1,9.24E2,3.91E2,1.1E1,4.5E1,2.81E2,2.16E2,1.54E2,2.4E1,3.13E2,4.1E1,1.5E1,5.17E2,1.056E3,1.955E3,9.78E2,8.619E3,1.58E2,1.037E3,4E2,1.08E2,2E1,4.97E2,1.68E2,1.94E2,2.51E2,6.2E1,4.12E2],"tree_param":{"num_deleted":"0","num_feature":"8","num_nodes":"63","size_leaf_vector":"1"}},{"base_weights":[-1.787726E-4,7.2544394E-4,-1.4379651E-3,7.063189E-5,5.863212E-3,-5.805514E-4,-4.784686E-3,8.140704E-4,-2.0786778E-3,1.0941505E-2,4.0893042E-3,1.1999394E-3,-2.914152E-3,-7.64911E-3,-1.7138638E-3,2.1816669E-2,6.963723E-4,-2.850406E-3,8.468811E-3,-0E0,1.6166536E-2,3.8465046E-4,8.663189E-3,3.4861108E-3,-7.557297E-4,1.9433768E-2,-3.2818122E-3,-4.021139E-3,-1.1760119E-2,1.8009389E-3,-1.0036403E-2,1.9380971E-3,-0E0,-9.268747E-5,7.305366E-5,-9.065431E-5,-3.753999E-4,-0E0,8.118734E-4,-2.333878E-4,5.0128764E-4,-0E0,1.0390432E-3,-7.5690786E-4,1.0877809E-4,8.7730534E-4,1.4638042E-4,-3.7065346E-4,2.090062E-4,-5.754579E-5,1.3551348E-3,-3.4197638E-4,1.6752202E-3,-3.137604E-4,-8.545369E-5,-2.5847522E-4,1.2812422E-3,-3.4838796E-4,-8.141105E-4,-3.5432004E-5,7.151181E-4,1.2916445E-3,-6.1068946E-4],"categories":[],"categories_nodes":[],"categories_segments":[],"categories_sizes":[],"default_left":[0,0,0,0,0,0,0,0,0,0,0,0,0,0,0,0,0,0,0,0,0,0,0,0,0,0,0,0,0,0,0,0,0,0,0,0,0,0,0,0,0,0,0,0,0,0,0,0,0,0,0,0,0,0,0,0,0,0,0,0,0,0,0],"id":4,"left_children":[1,3,5,7,9,11,13,15,17,19,21,23,25,27,29,31,33,35,37,39,41,43,45,47,49,51,53,55,57,59,61,-1,-1,-1,-1,-1,-1,-1,-1,-1,-1,-1,-1,-1,-1,-1,-1,-1,-1,-1,-1,-1,-1,-1,-1,-1,-1,-1,-1,-1,-1,-1,-1],"loss_changes":[2.226441E-2,3.7419114E-2,2.2970712E-2,1.5917942E-2,9.802792E-3,2.7377404E-2,1.3537835E-2,1.6260888E-2,2.0186223E-2,1.843717E-2,1.5189309E-2,1.6773641E-2,2.1931166E-2,1.0828298E-2,2.4623565E-2,1.2438981E-2,1.450909E-2,1.0562703E-2,1.1895054E-2,4.4618994E-3,1.5153449E-2,1.369306E-2,1.8943068E-2,1.2755899E-2,1.9080222E-2,1.8422281E-2,1.2452796E-2,1.3679277E-2,5.7533756E-3,1.9064054E-2,1.8478926E-2,0E0,0E0,0E0,0E0,0E0,0E0,0E0,0E0,0E0,0E0,0E0,0E0,0E0,0E0,0E0,0E0,0E0,0E0,0E0,0E0,0E0,0E0,0E0,0E0,0E0,0E0,0E0,0E0,0E0,0E0,0E0,0E0],"parents":[2147483647,0,0,1,1,2,2,3,3,4,4,5,5,6,6,7,7,8,8,9,9,10,10,11,11,12,12,13,13,14,14,15,15,16,16,17,17,18,18,19,19,20,20,21,21,22,22,23,23,24,24,25,25,26,26,27,27,28,28,29,29,30,30],"right_children":[2,4,6,8,10,12,14,16,18,20,22,24,26,28,30,32,34,36,38,40,42,44,46,48,50,52,54,56,58,60,62,-1,-1,-1,-1,-1,-1,-1,-1,-1,-1,-1,-1,-1,-1,-1,-1,-1,-1,-1,-1,-1,-1,-1,-1,-1,-1,-1,-1,-1,-1,-1,-1],"split_conditions":[2.3654407E3,4.79768E0,1.73295E0,9.00512E0,4.3491E0,1.82915E0,-6.3422E-1,4.41015E0,2.3472058E3,2.061651E3,1.53629E0,5.43264E0,-4.84209E0,3.98792E0,2.16941E0,4.778E-1,5.2457E-1,2.2989492E3,-7.485E-1,6.28916E0,7.844335E1,5.15996E0,2.0924607E3,-2.00842E0,1.6161E0,2.16941E0,5.59069E0,6.06099E0,5.67601E0,2.579454E3,5.24377E0,1.9380971E-3,-0E0,-9.268747E-5,7.305366E-5,-9.065431E-5,-3.753999E-4,-0E0,8.118734E-4,-2.333878E-4,5.0128764E-4,-0E0,1.0390432E-3,-7.5690786E-4,1.0877809E-4,8.7730534E-4,1.4638042E-4,-3.7065346E-4,2.090062E-4,-5.754579E-5,1.3551348E-3,-3.4197638E-4,1.6752202E-3,-3.137604E-4,-8.545369E-5,-2.5847522E-4,1.2812422E-3,-3.4838796E-4,-8.141105E-4,-3.5432004E-5,7.151181E-4,1.2916445E-3,-6.1068946E-4],"split_indices":[1,3,3,2,2,6,6,4,1,1,6,2,2,2,6,3,6,1,3,4,0,2,1,6,3,6,4,4,4,1,4,0,0,0,0,0,0,0,0,0,0,0,0,0,0,0,0,0,0,0,0,0,0,0,0,0,0,0,0,0,0,0,0],"split_type":[0,0,0,0,0,0,0,0,0,0,0,0,0,0,0,0,0,0,0,0,0,0,0,0,0,0,0,0,0,0,0,0,0,0,0,0,0,0,0,0,0,0,0,0,0,0,0,0,0,0,0,0,0,0,0,0,0,0,0,0,0,0,0],"sum_hessian":[1.949E4,1.1298E4,8.192E3,1.0039E4,1.259E3,6.546E3,1.646E3,7.494E3,2.545E3,3.1E2,9.49E2,3.689E3,2.857E3,8.34E2,8.12E2,3.6E1,7.458E3,2.381E3,1.64E2,9.8E1,2.12E2,5.37E2,4.12E2,1.724E3,1.965E3,4.1E1,2.816E3,4.57E2,3.77E2,5.63E2,2.49E2,1.9E1,1.7E1,1.69E3,5.768E3,1.966E3,4.15E2,7.5E1,8.9E1,7E1,2.8E1,4.9E1,1.63E2,4.9E1,4.88E2,1.54E2,2.58E2,9.4E1,1.63E3,1.942E3,2.3E1,1.2E1,2.9E1,9.47E2,1.869E3,4.44E2,1.3E1,1.95E2,1.82E2,4.63E2,1E2,1.1E1,2.38E2],"tree_param":{"num_deleted":"0","num_feature":"8","num_nodes":"63","size_leaf_vector":"1"}},{"base_weights":[-2.9099744E-4,1.2578498E-2,-2.794355E-3,6.7610466E-3,1.8513292E-2,-4.365929E-3,1.5497977E-2,1.2422518E-2,1.0951324E-4,2.7012862E-2,1.252111E-2,7.924393E-4,-5.546059E-3,7.5943093E-3,2.2823866E-2,2.2519808E-2,7.423089E-3,1.0320012E-2,-5.4011373E-3,3.202621E-2,1.4956915E-2,2.4416521E-2,5.822089E-3,-3.2814317E-3,1.117571E-2,-6.444104E-3,2.1088813E-3,1.276892E-2,-4.9849795E-3,3.0009707E-2,1.1829727E-2,6.574615E-4,1.3872909E-3,-1.75861E-4,5.585681E-4,-0E0,9.330149E-4,6.952639E-4,-3.8444047E-4,1.350829E-3,1.850184E-3,9.2201255E-4,-0E0,7.279206E-4,1.4080857E-3,-0E0,1.2440224E-3,2.487933E-4,-4.0165024E-4,8.416084E-4,-1.4173129E-4,2.9425025E-6,-3.602601E-4,3.7920452E-4,-4.5067022E-4,9.294934E-4,1.847693E-4,-6.2893156E-4,1.1375159E-3,1.7940007E-3,1.2109389E-3,9.584563E-5,1.2555497E-3],"categories":[],"categories_nodes":[],"categories_segments":[],"categories_sizes":[],"default_left":[0,0,0,0,0,0,0,0,0,0,0,0,0,0,0,0,0,0,0,0,0,0,0,0,0,0,0,0,0,0,0,0,0,0,0,0,0,0,0,0,0,0,0,0,0,0,0,0,0,0,0,0,0,0,0,0,0,0,0,0,0,0,0],"id":5,"left_children":[1,3,5,7,9,11,13,15,17,19,21,23,25,27,29,31,33,35,37,39,41,43,45,47,49,51,53,55,57,59,61,-1,-1,-1,-1,-1,-1,-1,-1,-1,-1,-1,-1,-1,-1,-1,-1,-1,-1,-1,-1,-1,-1,-1,-1,-1,-1,-1,-1,-1,-1,-1,-1],"loss_changes":[6.3102436E-1,1.07414305E-1,4.712513E-1,5.9750535E-2,7.56191E-2,9.261474E-2,7.176718E-2,4.060529E-2,4.297256E-2,3.3565193E-2,7.086377E-2,1.1939329E-1,8.523008E-2,4.191568E-2,4.7997445E-2,9.257451E-3,2.491698E-2,2.1627754E-2,2.0861978E-2,3.7193894E-3,9.19966E-3,7.464856E-3,6.6912234E-2,7.909064E-2,6.460881E-2,5.5405796E-2,7.811697E-2,2.1628678E-2,3.6968574E-2,6.583005E-3,3.279585E-2,0E0,0E0,0E0,0E0,0E0,0E0,0E0,0E0,0E0,0E0,0E0,0E0,0E0,0E0,0E0,0E0,0E0,0E0,0E0,0E0,0E0,0E0,0E0,0E0,0E0,0E0,0E0,0E0,0E0,0E0,0E0,0E0],"parents":[2147483647,0,0,1,1,2,2,3,3,4,4,5,5,6,6,7,7,8,8,9,9,10,10,11,11,12,12,13,13,14,14,15,15,16,16,17,17,18,18,19,19,20,20,21,21,22,22,23,23,24,24,25,25,26,26,27,27,28,28,29,29,30,30],"right_children":[2,4,6,8,10,12,14,16,18,20,22,24,26,28,30,32,34,36,38,40,42,44,46,48,50,52,54,56,58,60,62,-1,-1,-1,-1,-1,-1,-1,-1,-1,-1,-1,-1,-1,-1,-1,-1,-1,-1,-1,-1,-1,-1,-1,-1,-1,-1,-1,-1,-1,-1,-1,-1],"split_conditions":[-8.168499E0,3.35461E0,-5.051841E0,5.97431E0,-8.738804E0,-7.531386E0,5.50508E0,-9.040588E0,-9.290185E0,6.28911E0,5.7967E0,6.9043E0,-5.518099E0,1.093843E1,1.172556E1,-1.60358E0,-8.7445E-1,-8.7445E-1,-7.20784E0,5.76201E0,6.80141E0,4.83473E0,8.69721E0,5.65745E0,6.15648E0,2.13425E0,1.043178E1,8.597965E1,-3.939506E0,8.12981E0,-4.354433E0,6.574615E-4,1.3872909E-3,-1.75861E-4,5.585681E-4,-0E0,9.330149E-4,6.952639E-4,-3.8444047E-4,1.350829E-3,1.850184E-3,9.2201255E-4,-0E0,7.279206E-4,1.4080857E-3,-0E0,1.2440224E-3,2.487933E-4,-4.0165024E-4,8.416084E-4,-1.4173129E-4,2.9425025E-6,-3.602601E-4,3.7920452E-4,-4.5067022E-4,9.294934E-4,1.847693E-4,-6.2893156E-4,1.1375159E-3,1.7940007E-3,1.2109389E-3,9.584563E-5,1.2555497E-3],"split_indices":[7,2,7,5,7,7,5,7,7,5,5,2,7,2,2,2,2,2,3,2,5,2,2,5,5,2,2,0,7,2,7,0,0,0,0,0,0,0,0,0,0,0,0,0,0,0,0,0,0,0,0,0,0,0,0,0,0,0,0,0,0,0,0],"split_type":[0,0,0,0,0,0,0,0,0,0,0,0,0,0,0,0,0,0,0,0,0,0,0,0,0,0,0,0,0,0,0,0,0,0,0,0,0,0,0,0,0,0,0,0,0,0,0,0,0,0,0,0,0,0,0,0,0,0,0,0,0,0,0],"sum_hessian":[1.9615E4,3.187E3,1.6428E4,1.619E3,1.568E3,1.5134E4,1.294E3,8.66E2,7.53E2,6.4E2,9.28E2,2.802E3,1.2332E4,6.3E2,6.64E2,2.79E2,5.87E2,2.7E2,4.83E2,4.45E2,1.95E2,3.28E2,6E2,2.006E3,7.96E2,1.1049E4,1.283E3,4.52E2,1.78E2,3.95E2,2.69E2,1.08E2,1.71E2,1.43E2,4.44E2,1.26E2,1.44E2,4.6E1,4.37E2,2.35E2,2.1E2,1.55E2,4E1,9.9E1,2.29E2,4.6E2,1.4E2,7.25E2,1.281E3,5.72E2,2.24E2,1.144E3,9.905E3,8.66E2,4.17E2,2.68E2,1.84E2,1.43E2,3.5E1,1.85E2,2.1E2,1.59E2,1.1E2],"tree_param":{"num_deleted":"0","num_feature":"8","num_nodes":"63","size_leaf_vector":"1"}},{"base_weights":[4.1795287E-5,1.3328233E-2,-2.2055814E-3,8.749712E-3,2.0827338E-2,-3.735001E-3,1.2765007E-2,1.528278E-2,4.194407E-3,2.2239102E-2,-4.4490728E-3,1.2184825E-3,-5.3948364E-3,1.841341E-2,2.7875328E-3,2.3490341E-2,1.1483753E-2,2.1990763E-2,1.4202324E-3,3.002195E-2,1.6856745E-2,-1.4805734E-2,1.7552947E-3,-8.015117E-4,1.6163332E-2,-6.527091E-3,1.1159304E-3,5.9640394E-3,2.5384419E-2,-1.4810823E-3,2.6884532E-2,6.9359486E-4,1.3270504E-3,-2.511874E-6,7.569209E-4,7.783657E-4,1.7757626E-3,2.3964581E-4,-2.5436335E-4,1.700924E-3,1.0156393E-3,1.2926233E-3,6.0117204E-4,-0E0,-1.6832472E-3,6.5207516E-4,-6.372274E-5,3.2191107E-4,-2.5091032E-4,1.1321927E-3,2.2004978E-4,-1.0668312E-4,-3.7054575E-4,-1.5791423E-4,7.6259155E-4,5.70527E-4,-3.2506438E-4,9.692887E-4,1.534238E-3,4.7513112E-4,-3.8225253E-4,-0E0,1.48602E-3],"categories":[],"categories_nodes":[],"categories_segments":[],"categories_sizes":[],"default_left":[0,0,0,0,0,0,0,0,0,0,0,0,0,0,0,0,0,0,0,0,0,0,0,0,0,0,0,0,0,0,0,0,0,0,0,0,0,0,0,0,0,0,0,0,0,0,0,0,0,0,0,0,0,0,0,0,0,0,0,0,0,0,0],"id":6,"left_children":[1,3,5,7,9,11,13,15,17,19,21,23,25,27,29,31,33,35,37,39,41,43,45,47,49,51,53,55,57,59,61,-1,-1,-1,-1,-1,-1,-1,-1,-1,-1,-1,-1,-1,-1,-1,-1,-1,-1,-1,-1,-1,-1,-1,-1,-1,-1,-1,-1,-1,-1,-1,-1],"loss_changes":[5.8014977E-1,9.340957E-2,3.7876552E-1,5.024694E-2,3.959629E-2,1.24164835E-1,8.411084E-2,1.8433526E-2,4.9219523E-2,3.6905587E-2,4.7366284E-3,1.1514851E-1,8.376178E-2,8.098167E-2,6.0285073E-2,1.9285455E-3,2.245956E-2,6.15371E-3,1.9967388E-2,9.474635E-3,2.216293E-2,7.900485E-3,2.1507684E-3,1.0093714E-1,3.1802483E-2,3.6419332E-2,1.0155451E-1,2.4666917E-2,1.4015526E-2,3.1978212E-2,5.293101E-3,0E0,0E0,0E0,0E0,0E0,0E0,0E0,0E0,0E0,0E0,0E0,0E0,0E0,0E0,0E0,0E0,0E0,0E0,0E0,0E0,0E0,0E0,0E0,0E0,0E0,0E0,0E0,0E0,0E0,0E0,0E0,0E0],"parents":[2147483647,0,0,1,1,2,2,3,3,4,4,5,5,6,6,7,7,8,8,9,9,10,10,11,11,12,12,13,13,14,14,15,15,16,16,17,17,18,18,19,19,20,20,21,21,22,22,23,23,24,24,25,25,26,26,27,27,28,28,29,29,30,30],"right_children":[2,4,6,8,10,12,14,16,18,20,22,24,26,28,30,32,34,36,38,40,42,44,46,48,50,52,54,56,58,60,62,-1,-1,-1,-1,-1,-1,-1,-1,-1,-1,-1,-1,-1,-1,-1,-1,-1,-1,-1,-1,-1,-1,-1,-1,-1,-1,-1,-1,-1,-1,-1,-1],"split_conditions":[-8.25385E0,4.55894E0,-5.157885E0,5.86785E0,6.80141E0,-7.414679E0,1.093843E1,-9.103194E0,-9.950327E0,-8.77802E0,8.523117E1,9.31201E0,-5.679184E0,5.21079E0,-3.939506E0,-2.21374E0,-6.728E-1,2.05024E0,-8.626054E0,6.24343E0,5.7967E0,-8.854061E0,8.604785E1,5.67451E0,6.1372E0,3.35461E0,5.88094E0,6.14001E0,5.67036E0,8.525842E1,5.122E0,6.9359486E-4,1.3270504E-3,-2.511874E-6,7.569209E-4,7.783657E-4,1.7757626E-3,2.3964581E-4,-2.5436335E-4,1.700924E-3,1.0156393E-3,1.2926233E-3,6.0117204E-4,-0E0,-1.6832472E-3,6.5207516E-4,-6.372274E-5,3.2191107E-4,-2.5091032E-4,1.1321927E-3,2.2004978E-4,-1.0668312E-4,-3.7054575E-4,-1.5791423E-4,7.6259155E-4,5.70527E-4,-3.2506438E-4,9.692887E-4,1.534238E-3,4.7513112E-4,-3.8225253E-4,-0E0,1.48602E-3],"split_indices":[7,2,7,5,5,7,2,7,7,7,0,2,7,5,7,2,2,2,7,5,5,7,0,5,5,2,5,4,5,0,5,0,0,0,0,0,0,0,0,0,0,0,0,0,0,0,0,0,0,0,0,0,0,0,0,0,0,0,0,0,0,0,0],"split_type":[0,0,0,0,0,0,0,0,0,0,0,0,0,0,0,0,0,0,0,0,0,0,0,0,0,0,0,0,0,0,0,0,0,0,0,0,0,0,0,0,0,0,0,0,0,0,0,0,0,0,0,0,0,0,0,0,0,0,0,0,0,0,0],"sum_hessian":[1.939E4,2.811E3,1.6579E4,1.755E3,1.056E3,1.5049E4,1.53E3,7.11E2,1.044E3,1.004E3,5.2E1,3.762E3,1.1287E4,9.7E2,5.6E2,2.15E2,4.96E2,1.35E2,9.09E2,4.01E2,6.03E2,2.5E1,2.7E1,3.309E3,4.53E2,9.628E3,1.659E3,3.54E2,6.16E2,4.73E2,8.7E1,6.1E1,1.54E2,1.13E2,3.83E2,9.8E1,3.7E1,6.09E2,3E2,2.75E2,1.26E2,2.02E2,4.01E2,1.4E1,1.1E1,1.2E1,1.5E1,1.209E3,2.1E3,2.86E2,1.67E2,1.632E3,7.996E3,1.269E3,3.9E2,2.52E2,1.02E2,3E2,3.16E2,1.64E2,3.09E2,1E1,7.7E1],"tree_param":{"num_deleted":"0","num_feature":"8","num_nodes":"63","size_leaf_vector":"1"}},{"base_weights":[8.932985E-6,1.1488907E-2,-2.1906523E-3,1.5181559E-2,4.6781898E-3,-3.8335794E-3,1.3504792E-2,2.2142667E-2,1.1708411E-2,9.637968E-3,-2.1070966E-3,1.0434364E-3,-4.9892426E-3,7.0821824E-3,1.913405E-2,1.883818E-2,2.7021827E-2,7.26446E-3,1.9167002E-2,4.880258E-3,1.6444342E-2,1.983903E-3,-7.319389E-3,9.156321E-3,-3.2976102E-3,-5.8353133E-3,5.0153467E-4,1.3392189E-2,3.1949062E-4,1.0622165E-2,2.458242E-2,1.0032516E-3,2.5863728E-5,5.4166646E-4,1.4268536E-3,6.27465E-4,7.449088E-5,1.0604218E-3,5.308076E-4,9.643334E-4,3.6247347E-5,-3.4116436E-4,9.000467E-4,-6.859009E-5,5.2653527E-4,-7.627969E-4,-8.3090155E-5,-1.05005536E-4,7.111839E-4,-3.4126808E-4,1.7772162E-4,7.299865E-6,-3.0951964E-4,4.5080288E-4,-2.1273852E-4,-4.2779717E-4,8.695791E-4,-4.3759347E-4,4.6468954E-4,9.428486E-4,-1.6377801E-4,7.9417013E-4,1.3869976E-3],"categories":[],"categories_nodes":[],"categories_segments":[],"categories_sizes":[],"default_left":[0,0,0,0,0,0,0,0,0,0,0,0,0,0,0,0,0,0,0,0,0,0,0,0,0,0,0,0,0,0,0,0,0,0,0,0,0,0,0,0,0,0,0,0,0,0,0,0,0,0,0,0,0,0,0,0,0,0,0,0,0,0,0],"id":7,"left_children":[1,3,5,7,9,11,13,15,17,19,21,23,25,27,29,31,33,35,37,39,41,43,45,47,49,51,53,55,57,59,61,-1,-1,-1,-1,-1,-1,-1,-1,-1,-1,-1,-1,-1,-1,-1,-1,-1,-1,-1,-1,-1,-1,-1,-1,-1,-1,-1,-1,-1,-1,-1,-1],"loss_changes":[4.938328E-1,7.706371E-2,4.2131233E-1,4.5434833E-2,3.8364373E-2,8.397882E-2,5.313775E-2,5.6268573E-3,4.249452E-2,1.8965613E-2,1.04421675E-2,1.0010808E-1,5.630657E-2,2.9860914E-2,3.401479E-2,7.191941E-3,1.9842982E-3,2.5006033E-2,5.3378493E-3,2.1630786E-2,1.0657318E-2,8.100472E-3,7.936742E-3,5.7883292E-2,4.4659182E-2,2.2731483E-2,6.482479E-2,3.3598445E-2,2.960563E-2,3.9043445E-2,8.628637E-3,0E0,0E0,0E0,0E0,0E0,0E0,0E0,0E0,0E0,0E0,0E0,0E0,0E0,0E0,0E0,0E0,0E0,0E0,0E0,0E0,0E0,0E0,0E0,0E0,0E0,0E0,0E0,0E0,0E0,0E0,0E0,0E0],"parents":[2147483647,0,0,1,1,2,2,3,3,4,4,5,5,6,6,7,7,8,8,9,9,10,10,11,11,12,12,13,13,14,14,15,15,16,16,17,17,18,18,19,19,20,20,21,21,22,22,23,23,24,24,25,25,26,26,27,27,28,28,29,29,30,30],"right_children":[2,4,6,8,10,12,14,16,18,20,22,24,26,28,30,32,34,36,38,40,42,44,46,48,50,52,54,56,58,60,62,-1,-1,-1,-1,-1,-1,-1,-1,-1,-1,-1,-1,-1,-1,-1,-1,-1,-1,-1,-1,-1,-1,-1,-1,-1,-1,-1,-1,-1,-1,-1,-1],"split_conditions":[-8.168499E0,6.11117E0,-5.157885E0,-8.934262E0,-8.738804E0,-7.531386E0,5.47944E0,8.31862E1,8.3936E1,8.365149E1,2.3150059E3,5.68376E0,-5.658421E0,8.565809E1,-4.841395E0,2.3341E0,-5.89965E0,5.76197E0,2.21686E0,-9.950327E0,-2.31221E0,8.444869E1,2.415832E3,8.161651E1,8.519915E1,4.98201E0,8.444869E1,4.45639E0,-4.738359E0,8.704355E1,1.03071E0,1.0032516E-3,2.5863728E-5,5.4166646E-4,1.4268536E-3,6.27465E-4,7.449088E-5,1.0604218E-3,5.308076E-4,9.643334E-4,3.6247347E-5,-3.4116436E-4,9.000467E-4,-6.859009E-5,5.2653527E-4,-7.627969E-4,-8.3090155E-5,-1.05005536E-4,7.111839E-4,-3.4126808E-4,1.7772162E-4,7.299865E-6,-3.0951964E-4,4.5080288E-4,-2.1273852E-4,-4.2779717E-4,8.695791E-4,-4.3759347E-4,4.6468954E-4,9.428486E-4,-1.6377801E-4,7.9417013E-4,1.3869976E-3],"split_indices":[7,5,7,7,7,7,5,0,0,0,1,5,7,0,7,6,3,5,6,7,6,0,1,0,0,5,0,5,7,0,6,0,0,0,0,0,0,0,0,0,0,0,0,0,0,0,0,0,0,0,0,0,0,0,0,0,0,0,0,0,0,0,0],"split_type":[0,0,0,0,0,0,0,0,0,0,0,0,0,0,0,0,0,0,0,0,0,0,0,0,0,0,0,0,0,0,0,0,0,0,0,0,0,0,0,0,0,0,0,0,0,0,0,0,0,0,0,0,0,0,0,0,0,0,0,0,0,0,0],"sum_hessian":[1.9518E4,3.145E3,1.6373E4,2.029E3,1.116E3,1.4828E4,1.545E3,6.64E2,1.365E3,6.53E2,4.63E2,2.824E3,1.2004E4,7.31E2,8.14E2,4.11E2,2.53E2,8.65E2,5E2,3.94E2,2.59E2,2.49E2,2.14E2,9.92E2,1.832E3,1.0417E4,1.587E3,3.7E2,3.61E2,3.26E2,4.88E2,3.8E2,3.1E1,2.8E1,2.25E2,4.42E2,4.23E2,3.93E2,1.07E2,8.2E1,3.12E2,1.2E1,2.47E2,1.71E2,7.8E1,8.1E1,1.33E2,3.02E2,6.9E2,1.219E3,6.13E2,5.68E2,9.849E3,5.76E2,1.011E3,5.3E1,3.17E2,1.74E2,1.87E2,2.09E2,1.17E2,1.4E2,3.48E2],"tree_param":{"num_deleted":"0","num_feature":"8","num_nodes":"63","size_leaf_vector":"1"}},{"base_weights":[-1.91803E-4,9.6130995E-3,-2.8162496E-3,1.4944708E-2,5.663169E-3,-4.2040003E-3,1.441566E-2,1.1025911E-2,1.961642E-2,2.177334E-3,1.5669463E-2,-4.9599675E-3,4.417647E-4,1.0754437E-2,2.1317296E-2,2.0314733E-2,8.273337E-3,1.600921E-2,2.2454202E-2,-1.7585662E-3,4.246961E-3,9.837948E-4,1.7525876E-2,-1.8802889E-3,-6.3730483E-3,8.915131E-3,-4.8742755E-3,1.6169785E-2,4.7763027E-3,2.4602618E-2,1.0845672E-2,4.444681E-4,1.188117E-3,-9.055674E-5,5.1410997E-4,1.0342541E-3,5.3332845E-4,-0E0,1.1636481E-3,4.6926131E-4,-2.8215416E-4,2.9050288E-4,-1.7046231E-4,1.3240209E-3,-2.6108872E-4,-0E0,9.1817864E-4,-1.9647433E-4,3.6473034E-4,-1.3849743E-4,-3.6595E-4,6.5608084E-4,1.4882184E-4,-1.4480319E-5,-3.668413E-4,-0E0,8.255803E-4,5.270182E-4,-0E0,1.8994363E-4,1.2767476E-3,-6.1554376E-5,7.2474557E-4],"categories":[],"categories_nodes":[],"categories_segments":[],"categories_sizes":[],"default_left":[0,0,0,0,0,0,0,0,0,0,0,0,0,0,0,0,0,0,0,0,0,0,0,0,0,0,0,0,0,0,0,0,0,0,0,0,0,0,0,0,0,0,0,0,0,0,0,0,0,0,0,0,0,0,0,0,0,0,0,0,0,0,0],"id":8,"left_children":[1,3,5,7,9,11,13,15,17,19,21,23,25,27,29,31,33,35,37,39,41,43,45,47,49,51,53,55,57,59,61,-1,-1,-1,-1,-1,-1,-1,-1,-1,-1,-1,-1,-1,-1,-1,-1,-1,-1,-1,-1,-1,-1,-1,-1,-1,-1,-1,-1,-1,-1,-1,-1],"loss_changes":[5.006926E-1,8.432481E-2,3.6678267E-1,2.8501302E-2,8.088237E-2,5.045855E-2,2.5394857E-2,2.1467425E-2,3.7684143E-3,1.4650017E-2,1.4625698E-2,5.2533567E-2,8.941093E-2,2.2335038E-2,9.433359E-3,4.7955364E-3,1.6039204E-2,5.6874976E-3,6.983623E-3,2.5348678E-2,1.4321569E-2,1.4130718E-2,6.8592727E-3,7.2659515E-2,2.7546525E-2,1.7561551E-2,1.2862232E-2,1.3354346E-3,1.0446041E-2,2.4974793E-3,5.795395E-3,0E0,0E0,0E0,0E0,0E0,0E0,0E0,0E0,0E0,0E0,0E0,0E0,0E0,0E0,0E0,0E0,0E0,0E0,0E0,0E0,0E0,0E0,0E0,0E0,0E0,0E0,0E0,0E0,0E0,0E0,0E0,0E0],"parents":[2147483647,0,0,1,1,2,2,3,3,4,4,5,5,6,6,7,7,8,8,9,9,10,10,11,11,12,12,13,13,14,14,15,15,16,16,17,17,18,18,19,19,20,20,21,21,22,22,23,23,24,24,25,25,26,26,27,27,28,28,29,29,30,30],"right_children":[2,4,6,8,10,12,14,16,18,20,22,24,26,28,30,32,34,36,38,40,42,44,46,48,50,52,54,56,58,60,62,-1,-1,-1,-1,-1,-1,-1,-1,-1,-1,-1,-1,-1,-1,-1,-1,-1,-1,-1,-1,-1,-1,-1,-1,-1,-1,-1,-1,-1,-1,-1,-1],"split_conditions":[-7.910829E0,-8.626054E0,-4.970222E0,8.310801E1,8.531333E1,-5.658421E0,-4.354433E0,-9.797375E0,1.34477E0,8.137848E1,-1.01222E0,-7.176051E0,8.464329E1,8.594376E1,6.19994E0,5.07919E0,4.9435E0,-9.040588E0,5.09109E0,2.0792673E3,6.16586E0,8.594376E1,-6.3437E0,8.640429E1,5.4073E0,1.7876E0,2.3013167E3,4.90258E0,5.85906E0,7.973452E1,6.26551E0,4.444681E-4,1.188117E-3,-9.055674E-5,5.1410997E-4,1.0342541E-3,5.3332845E-4,-0E0,1.1636481E-3,4.6926131E-4,-2.8215416E-4,2.9050288E-4,-1.7046231E-4,1.3240209E-3,-2.6108872E-4,-0E0,9.1817864E-4,-1.9647433E-4,3.6473034E-4,-1.3849743E-4,-3.6595E-4,6.5608084E-4,1.4882184E-4,-1.4480319E-5,-3.668413E-4,-0E0,8.255803E-4,5.270182E-4,-0E0,1.8994363E-4,1.2767476E-3,-6.1554376E-5,7.2474557E-4],"split_indices":[7,7,7,0,0,7,7,7,6,0,6,7,0,0,4,4,4,7,4,1,4,0,3,0,4,6,1,4,4,0,4,0,0,0,0,0,0,0,0,0,0,0,0,0,0,0,0,0,0,0,0,0,0,0,0,0,0,0,0,0,0,0,0],"split_type":[0,0,0,0,0,0,0,0,0,0,0,0,0,0,0,0,0,0,0,0,0,0,0,0,0,0,0,0,0,0,0,0,0,0,0,0,0,0,0,0,0,0,0,0,0,0,0,0,0,0,0,0,0,0,0,0,0,0,0,0,0,0,0],"sum_hessian":[1.9482E4,4.105E3,1.5377E4,1.735E3,2.37E3,1.4237E4,1.14E3,9.57E2,7.78E2,1.766E3,6.04E2,1.2263E4,1.974E3,7.56E2,3.84E2,2.09E2,7.48E2,3.61E2,4.17E2,5.92E2,1.174E3,7.4E1,5.3E2,3.88E3,8.383E3,7.68E2,1.206E3,3.87E2,3.69E2,2.84E2,1E2,5.6E1,1.53E2,1.16E2,6.32E2,1.81E2,1.8E2,1.6E1,4.01E2,1.46E2,4.46E2,9.86E2,1.88E2,1.7E1,5.7E1,2.7E1,5.03E2,3.181E3,6.99E2,1.766E3,6.617E3,4.39E2,3.29E2,4.36E2,7.7E2,1.1E1,3.76E2,1.69E2,2E2,1.7E1,2.67E2,1.7E1,8.3E1],"tree_param":{"num_deleted":"0","num_feature":"8","num_nodes":"63","size_leaf_vector":"1"}},{"base_weights":[5.055598E-4,7.610879E-3,3.8951138E-4,1.34546915E-2,-1.5805078E-4,1.4788046E-2,3.3149804E-4,2.2345798E-2,4.398821E-3,-6.1071767E-3,1.4956175E-2,2.9326152E-2,-0E0,5.6442036E-3,2.0000839E-4,1.8558605E-3,1.4528426E-2,9.0991175E-3,-6.3629393E-3,9.1894326E-4,-1.8423317E-2,1.1499178E-3,-0E0,1.8703798E-3,3.3583154E-5,1.3736673E-2,-6.1408326E-4,8.157812E-3,-8.321003E-3,3.302332E-4,-5.1794252E-3,-0E0,1.1129243E-3,-2.4078568E-4,6.6292274E-4,-6.948844E-4,-0E0,-1.5576785E-4,1.0049532E-3,-0E0,-1.2171387E-3,1.1068414E-3,-0E0,-0E0,5.750546E-4,-0E0,-1.23857E-3,-5.429367E-5,3.8982842E-5,-9.6822005E-5,-9.786597E-4],"categories":[],"categories_nodes":[],"categories_segments":[],"categories_sizes":[],"default_left":[0,0,0,0,0,0,0,0,0,0,0,0,0,0,0,0,0,0,0,0,0,0,0,0,0,0,0,0,0,0,0,0,0,0,0,0,0,0,0,0,0,0,0,0,0,0,0,0,0,0,0],"id":9,"left_children":[1,3,5,7,9,11,13,15,17,19,21,23,25,27,29,-1,31,33,35,37,39,-1,-1,-1,-1,41,-1,43,45,47,49,-1,-1,-1,-1,-1,-1,-1,-1,-1,-1,-1,-1,-1,-1,-1,-1,-1,-1,-1,-1],"loss_changes":[1.5252022E-2,1.4906438E-2,1.4498486E-2,1.1559218E-2,1.0176246E-2,1.3072725E-2,1.2759852E-2,3.995966E-3,5.1369444E-3,9.815093E-3,3.8678725E-3,3.808746E-3,6.677727E-3,1.5602224E-2,1.25901885E-2,0E0,6.4465795E-3,5.1331045E-3,1.1934021E-3,6.016796E-3,3.9472226E-3,0E0,0E0,0E0,0E0,1.4278111E-3,0E0,1.00276675E-2,6.138752E-3,1.157874E-2,1.7556261E-2,0E0,0E0,0E0,0E0,0E0,0E0,0E0,0E0,0E0,0E0,0E0,0E0,0E0,0E0,0E0,0E0,0E0,0E0,0E0,0E0],"parents":[2147483647,0,0,1,1,2,2,3,3,4,4,5,5,6,6,7,7,8,8,9,9,10,10,11,11,12,12,13,13,14,14,16,16,17,17,18,18,19,19,20,20,25,25,27,27,28,28,29,29,30,30],"right_children":[2,4,6,8,10,12,14,16,18,20,22,24,26,28,30,-1,32,34,36,38,40,-1,-1,-1,-1,42,-1,44,46,48,50,-1,-1,-1,-1,-1,-1,-1,-1,-1,-1,-1,-1,-1,-1,-1,-1,-1,-1,-1,-1],"split_conditions":[-1.046985E1,2.02408E0,4.41015E0,3.55646E0,5.80928E0,2.3197222E3,1.819288E3,5.03491E0,2.4318982E3,5.63706E0,9.0724E-1,1.40929E0,1.92465E0,6.24999E0,1.572198E1,1.8558605E-3,5.56848E0,1.6618456E3,5.20122E0,5.42341E0,2.30131E0,1.1499178E-3,-0E0,1.8703798E-3,3.3583154E-5,6.14905E0,-6.1408326E-4,5.39266E0,6.02893E0,7.8395E-1,1.83747E0,-0E0,1.1129243E-3,-2.4078568E-4,6.6292274E-4,-6.948844E-4,-0E0,-1.5576785E-4,1.0049532E-3,-0E0,-1.2171387E-3,1.1068414E-3,-0E0,-0E0,5.750546E-4,-0E0,-1.23857E-3,-5.429367E-5,3.8982842E-5,-9.6822005E-5,-9.786597E-4],"split_indices":[3,6,4,2,5,1,1,4,1,5,2,3,2,5,2,0,5,1,2,5,6,0,0,0,0,5,0,5,4,6,6,0,0,0,0,0,0,0,0,0,0,0,0,0,0,0,0,0,0,0,0],"split_type":[0,0,0,0,0,0,0,0,0,0,0,0,0,0,0,0,0,0,0,0,0,0,0,0,0,0,0,0,0,0,0,0,0,0,0,0,0,0,0,0,0,0,0,0,0,0,0,0,0,0,0],"sum_hessian":[1.947E4,2.98E2,1.9172E4,1.77E2,1.21E2,6.9E1,1.9103E4,8.3E1,9.4E1,9.2E1,2.9E1,3.2E1,3.7E1,4.42E2,1.8661E4,2.3E1,6E1,7.2E1,2.2E1,5.4E1,3.8E1,1.9E1,1E1,2.2E1,1E1,2E1,1.7E1,3.81E2,6.1E1,1.8239E4,4.22E2,2.2E1,3.8E1,1.1E1,6.1E1,1E1,1.2E1,4.1E1,1.3E1,1E1,2.8E1,1E1,1E1,1.14E2,2.67E2,4.5E1,1.6E1,4.34E3,1.3899E4,3.51E2,7.1E1],"tree_param":{"num_deleted":"0","num_feature":"8","num_nodes":"51","size_leaf_vector":"1"}},{"base_weights":[-1.51940385E-5,1.2199793E-2,-2.064149E-3,8.909714E-3,2.1201167E-2,-3.50154E-3,9.468577E-3,1.1138306E-2,-3.0477506E-3,2.3713797E-2,5.4684635E-3,1.0824846E-3,-5.0860955E-3,1.3279705E-2,-2.6255685E-3,1.8831378E-2,7.6350947E-3,8.280835E-3,-1.0574474E-2,2.6083099E-2,1.4302042E-2,-1.6963801E-3,1.693127E-2,-2.7090637E-3,1.025534E-2,-3.5185428E-4,-5.973761E-3,1.6213856E-3,1.8815966E-2,-7.755703E-3,1.9961622E-2,4.5832826E-4,1.1420938E-3,6.714975E-4,1.4092276E-4,-4.4551288E-4,8.271804E-4,-8.5183943E-4,1.195326E-6,1.6036413E-4,1.3342267E-3,1.558212E-4,1.255293E-3,1.57632E-4,-9.640122E-4,-0E0,1.4087788E-3,3.863504E-4,-2.6818152E-4,7.1641954E-4,-6.458177E-5,-1.9355422E-4,8.928099E-4,8.433886E-5,-3.2209337E-4,1.5539525E-3,-1.0463498E-5,1.3867422E-3,7.5079314E-4,8.1458635E-4,-4.8769297E-4,-0E0,1.2346632E-3],"categories":[],"categories_nodes":[],"categories_segments":[],"categories_sizes":[],"default_left":[0,0,0,0,0,0,0,0,0,0,0,0,0,0,0,0,0,0,0,0,0,0,0,0,0,0,0,0,0,0,0,0,0,0,0,0,0,0,0,0,0,0,0,0,0,0,0,0,0,0,0,0,0,0,0,0,0,0,0,0,0,0,0],"id":10,"left_children":[1,3,5,7,9,11,13,15,17,19,21,23,25,27,29,31,33,35,37,39,41,43,45,47,49,51,53,55,57,59,61,-1,-1,-1,-1,-1,-1,-1,-1,-1,-1,-1,-1,-1,-1,-1,-1,-1,-1,-1,-1,-1,-1,-1,-1,-1,-1,-1,-1,-1,-1,-1,-1],"loss_changes":[4.844038E-1,7.910073E-2,2.7488053E-1,5.5338785E-2,2.6006997E-2,1.07784286E-1,8.563365E-2,4.3860823E-2,2.7176075E-2,9.592384E-3,1.0422165E-2,1.323178E-1,4.5600384E-2,8.8351235E-2,4.9224116E-2,1.7210469E-2,3.1831384E-2,1.809832E-2,1.5057258E-2,3.6943257E-3,1.365562E-2,6.9599436E-3,8.754776E-3,7.374507E-2,5.371517E-2,1.1119215E-1,3.364566E-2,2.7791971E-2,2.73031E-2,1.6707214E-2,7.12304E-3,0E0,0E0,0E0,0E0,0E0,0E0,0E0,0E0,0E0,0E0,0E0,0E0,0E0,0E0,0E0,0E0,0E0,0E0,0E0,0E0,0E0,0E0,0E0,0E0,0E0,0E0,0E0,0E0,0E0,0E0,0E0,0E0],"parents":[2147483647,0,0,1,1,2,2,3,3,4,4,5,5,6,6,7,7,8,8,9,9,10,10,11,11,12,12,13,13,14,14,15,15,16,16,17,17,18,18,19,19,20,20,21,21,22,22,23,23,24,24,25,25,26,26,27,27,28,28,29,29,30,30],"right_children":[2,4,6,8,10,12,14,16,18,20,22,24,26,28,30,32,34,36,38,40,42,44,46,48,50,52,54,56,58,60,62,-1,-1,-1,-1,-1,-1,-1,-1,-1,-1,-1,-1,-1,-1,-1,-1,-1,-1,-1,-1,-1,-1,-1,-1,-1,-1,-1,-1,-1,-1,-1,-1],"split_conditions":[-8.25385E0,5.83359E0,-5.267345E0,6.33806E0,6.49932E0,-7.414679E0,1.26206E1,-9.162861E0,-9.290185E0,-8.387329E0,6.06099E0,6.9043E0,3.35461E0,5.2192E0,-3.939506E0,-1.60358E0,5.81341E0,-4.6299E-1,6.58938E0,7.625627E1,8.397163E1,6.87829E0,7.68965E0,5.42341E0,6.14905E0,-6.036487E0,5.06429E0,2.64811E0,6.69055E0,8.195861E1,5.31824E0,4.5832826E-4,1.1420938E-3,6.714975E-4,1.4092276E-4,-4.4551288E-4,8.271804E-4,-8.5183943E-4,1.195326E-6,1.6036413E-4,1.3342267E-3,1.558212E-4,1.255293E-3,1.57632E-4,-9.640122E-4,-0E0,1.4087788E-3,3.863504E-4,-2.6818152E-4,7.1641954E-4,-6.458177E-5,-1.9355422E-4,8.928099E-4,8.433886E-5,-3.2209337E-4,1.5539525E-3,-1.0463498E-5,1.3867422E-3,7.5079314E-4,8.1458635E-4,-4.8769297E-4,-0E0,1.2346632E-3],"split_indices":[7,2,7,5,5,7,2,7,7,7,4,2,2,5,7,2,5,2,5,0,0,5,2,5,5,7,4,2,2,0,5,0,0,0,0,0,0,0,0,0,0,0,0,0,0,0,0,0,0,0,0,0,0,0,0,0,0,0,0,0,0,0,0],"split_type":[0,0,0,0,0,0,0,0,0,0,0,0,0,0,0,0,0,0,0,0,0,0,0,0,0,0,0,0,0,0,0,0,0,0,0,0,0,0,0,0,0,0,0,0,0,0,0,0,0,0,0,0,0,0,0,0,0,0,0,0,0,0,0],"sum_hessian":[1.9393E4,2.778E3,1.6615E4,2.044E3,7.34E2,1.4782E4,1.833E3,1.73E3,3.14E2,6.27E2,1.07E2,3.781E3,1.1001E4,1.4E3,4.33E2,5.31E2,1.199E3,1.2E2,1.94E2,4.91E2,1.36E2,6.1E1,4.6E1,2.668E3,1.113E3,1.755E3,9.246E3,4.57E2,9.43E2,3.57E2,7.6E1,1.64E2,3.67E2,5.34E2,6.65E2,3.5E1,8.5E1,1.26E2,6.8E1,1.7E1,4.74E2,7.2E1,6.4E1,4.4E1,1.7E1,1.9E1,2.7E1,5.33E2,2.135E3,8.29E2,2.84E2,1.476E3,2.79E2,5.2E2,8.726E3,2.9E1,4.28E2,2.72E2,6.71E2,2.3E1,3.34E2,1.5E1,6.1E1],"tree_param":{"num_deleted":"0","num_feature":"8","num_nodes":"63","size_leaf_vector":"1"}},{"base_weights":[-6.466506E-5,9.526028E-3,-1.8907015E-3,6.5715723E-3,1.746855E-2,-3.5038965E-3,8.312253E-3,1.25120245E-2,3.2778585E-3,2.4854243E-2,1.3487744E-2,-6.547789E-4,-5.312488E-3,1.1651418E-2,-2.5386803E-3,3.6036598E-3,1.6171023E-2,9.346363E-4,7.847506E-3,-0E0,2.5778962E-2,7.879251E-3,1.9219644E-2,-2.327664E-3,1.1367323E-2,1.6129074E-3,-6.8287835E-3,7.895616E-3,2.143166E-2,-7.239816E-3,2.2232646E-2,-1.1652473E-4,5.383734E-4,8.514926E-4,-0E0,3.5560114E-4,-6.858663E-5,8.592188E-4,1.7476718E-4,2.0357703E-3,1.1698875E-3,1.268447E-4,1.0243835E-3,1.0347756E-3,1.5999522E-4,-2.8643225E-4,-4.271283E-6,4.8081958E-4,1.5758725E-3,-8.318506E-5,7.6419103E-4,-2.873623E-4,-4.8589805E-4,1.1897637E-3,2.6417623E-4,1.1209341E-3,2.1406266E-4,7.9748796E-5,-6.459653E-4,1.2233435E-3,-0E0],"categories":[],"categories_nodes":[],"categories_segments":[],"categories_sizes":[],"default_left":[0,0,0,0,0,0,0,0,0,0,0,0,0,0,0,0,0,0,0,0,0,0,0,0,0,0,0,0,0,0,0,0,0,0,0,0,0,0,0,0,0,0,0,0,0,0,0,0,0,0,0,0,0,0,0,0,0,0,0,0,0],"id":11,"left_children":[1,3,5,7,9,11,13,15,17,19,21,23,25,27,29,31,33,35,37,-1,39,41,43,45,47,49,51,53,55,57,59,-1,-1,-1,-1,-1,-1,-1,-1,-1,-1,-1,-1,-1,-1,-1,-1,-1,-1,-1,-1,-1,-1,-1,-1,-1,-1,-1,-1,-1,-1],"loss_changes":[3.3853298E-1,6.9990575E-2,2.6757246E-1,4.2658195E-2,2.0174623E-2,7.190095E-2,8.119707E-2,2.3910448E-2,1.4833352E-2,6.4644665E-3,1.4787555E-2,1.0945471E-1,9.068324E-2,5.9380308E-2,5.863516E-2,1.1113978E-2,8.893311E-3,1.4631653E-2,1.7498948E-2,0E0,2.2390783E-3,1.7044865E-2,3.7387088E-3,3.620501E-2,1.8975154E-2,6.996741E-2,2.0442784E-2,4.8382223E-2,5.088553E-3,2.3080437E-2,1.6577318E-3,0E0,0E0,0E0,0E0,0E0,0E0,0E0,0E0,0E0,0E0,0E0,0E0,0E0,0E0,0E0,0E0,0E0,0E0,0E0,0E0,0E0,0E0,0E0,0E0,0E0,0E0,0E0,0E0,0E0,0E0],"parents":[2147483647,0,0,1,1,2,2,3,3,4,4,5,5,6,6,7,7,8,8,9,9,10,10,11,11,12,12,13,13,14,14,15,15,16,16,17,17,18,18,20,20,21,21,22,22,23,23,24,24,25,25,26,26,27,27,28,28,29,29,30,30],"right_children":[2,4,6,8,10,12,14,16,18,20,22,24,26,28,30,32,34,36,38,-1,40,42,44,46,48,50,52,54,56,58,60,-1,-1,-1,-1,-1,-1,-1,-1,-1,-1,-1,-1,-1,-1,-1,-1,-1,-1,-1,-1,-1,-1,-1,-1,-1,-1,-1,-1,-1,-1],"split_conditions":[-8.168499E0,5.91331E0,-5.401874E0,-9.040588E0,-8.77802E0,-7.057851E0,1.26206E1,-1.60358E0,3.6104E0,4.92417E0,8.397163E1,9.61292E0,3.85166E0,-4.68136E0,-3.939506E0,8.123044E1,5.43264E0,-4.90414E0,-8.661891E0,-0E0,-1.3249E0,8.89725E0,-8.208659E0,-2.36823E0,6.58232E0,-6.036487E0,2.0335E0,4.30626E0,5.33103E0,5.85906E0,1.869438E1,-1.1652473E-4,5.383734E-4,8.514926E-4,-0E0,3.5560114E-4,-6.858663E-5,8.592188E-4,1.7476718E-4,2.0357703E-3,1.1698875E-3,1.268447E-4,1.0243835E-3,1.0347756E-3,1.5999522E-4,-2.8643225E-4,-4.271283E-6,4.8081958E-4,1.5758725E-3,-8.318506E-5,7.6419103E-4,-2.873623E-4,-4.8589805E-4,1.1897637E-3,2.6417623E-4,1.1209341E-3,2.1406266E-4,7.9748796E-5,-6.459653E-4,1.2233435E-3,-0E0],"split_indices":[7,2,7,7,7,7,2,2,2,4,0,2,2,7,7,0,2,3,7,0,6,2,7,3,4,7,6,2,3,4,2,0,0,0,0,0,0,0,0,0,0,0,0,0,0,0,0,0,0,0,0,0,0,0,0,0,0,0,0,0,0],"split_type":[0,0,0,0,0,0,0,0,0,0,0,0,0,0,0,0,0,0,0,0,0,0,0,0,0,0,0,0,0,0,0,0,0,0,0,0,0,0,0,0,0,0,0,0,0,0,0,0,0,0,0,0,0,0,0,0,0,0,0,0,0],"sum_hessian":[1.9372E4,3.089E3,1.6283E4,2.262E3,8.27E2,1.4069E4,2.214E3,7.95E2,1.467E3,2.79E2,5.48E2,5.485E3,8.584E3,1.7E3,5.14E2,2.4E2,5.55E2,9.85E2,4.82E2,1E1,2.69E2,2.87E2,2.61E2,4.823E3,6.62E2,1.53E3,7.054E3,1.237E3,4.63E2,4.36E2,7.8E1,1.24E2,1.16E2,5.31E2,2.4E1,2.79E2,7.06E2,1.45E2,3.37E2,2.9E1,2.4E2,2.08E2,7.9E1,2.33E2,2.8E1,1.898E3,2.925E3,6.15E2,4.7E1,1.229E3,3.01E2,5.16E3,1.894E3,1.68E2,1.069E3,4.32E2,3.1E1,1.64E2,2.72E2,6.7E1,1.1E1],"tree_param":{"num_deleted":"0","num_feature":"8","num_nodes":"61","size_leaf_vector":"1"}},{"base_weights":[-2.0660991E-4,1.0859405E-2,-1.9645402E-3,1.369927E-2,1.7663834E-3,-3.364471E-3,1.0012622E-2,5.808162E-3,1.725791E-2,-5.8733067E-3,8.445308E-3,1.5487575E-3,-4.1832165E-3,1.4769424E-2,1.8685752E-3,2.6943434E-3,1.816185E-2,1.5427471E-2,2.5993984E-2,4.3347687E-3,-1.2918059E-2,1.8299978E-2,1.3460005E-3,-3.2946384E-3,1.2432392E-2,1.7976144E-2,-4.3093665E-3,8.106364E-3,2.51779E-2,-3.4014143E-3,1.4951753E-2,4.4787518E-4,-1.7041393E-4,-0E0,1.0234792E-3,1.0790805E-3,5.9564126E-4,1.3447412E-3,-0E0,-4.250276E-4,3.7525647E-4,6.073953E-4,-8.1977184E-4,1.0264592E-3,1.5676515E-4,-7.79479E-5,9.72795E-4,2.3614288E-4,-4.203831E-4,7.834944E-4,-2.4554454E-5,1.7933929E-3,-0E0,-2.4223365E-4,5.745634E-6,-5.3084193E-4,5.18744E-4,1.4139588E-3,1.0183216E-3,-7.8428345E-4,-0E0,1.0281651E-3,1.1210161E-4],"categories":[],"categories_nodes":[],"categories_segments":[],"categories_sizes":[],"default_left":[0,0,0,0,0,0,0,0,0,0,0,0,0,0,0,0,0,0,0,0,0,0,0,0,0,0,0,0,0,0,0,0,0,0,0,0,0,0,0,0,0,0,0,0,0,0,0,0,0,0,0,0,0,0,0,0,0,0,0,0,0,0,0],"id":12,"left_children":[1,3,5,7,9,11,13,15,17,19,21,23,25,27,29,31,33,35,37,39,41,43,45,47,49,51,53,55,57,59,61,-1,-1,-1,-1,-1,-1,-1,-1,-1,-1,-1,-1,-1,-1,-1,-1,-1,-1,-1,-1,-1,-1,-1,-1,-1,-1,-1,-1,-1,-1,-1,-1],"loss_changes":[3.7854865E-1,6.727323E-2,2.817117E-1,5.440229E-2,3.3166844E-2,6.0952127E-2,6.629662E-2,2.2445949E-2,1.7604172E-2,2.2056855E-2,2.2567198E-2,1.1365673E-1,3.4905672E-2,7.2754994E-2,4.643592E-2,2.0384291E-2,5.4293834E-3,2.14189E-2,3.677234E-3,4.643904E-3,1.6313415E-2,2.335716E-3,1.292042E-2,6.083282E-2,2.9348984E-2,1.8871322E-2,3.0977815E-2,2.8883241E-2,8.713603E-4,1.8755205E-2,1.15096755E-2,0E0,0E0,0E0,0E0,0E0,0E0,0E0,0E0,0E0,0E0,0E0,0E0,0E0,0E0,0E0,0E0,0E0,0E0,0E0,0E0,0E0,0E0,0E0,0E0,0E0,0E0,0E0,0E0,0E0,0E0,0E0,0E0],"parents":[2147483647,0,0,1,1,2,2,3,3,4,4,5,5,6,6,7,7,8,8,9,9,10,10,11,11,12,12,13,13,14,14,15,15,16,16,17,17,18,18,19,19,20,20,21,21,22,22,23,23,24,24,25,25,26,26,27,27,28,28,29,29,30,30],"right_children":[2,4,6,8,10,12,14,16,18,20,22,24,26,28,30,32,34,36,38,40,42,44,46,48,50,52,54,56,58,60,62,-1,-1,-1,-1,-1,-1,-1,-1,-1,-1,-1,-1,-1,-1,-1,-1,-1,-1,-1,-1,-1,-1,-1,-1,-1,-1,-1,-1,-1,-1,-1,-1],"split_conditions":[-8.300759E0,6.24999E0,-5.237022E0,1.00055E0,3.5002E0,-7.760078E0,1.061028E1,2.6147925E3,7.64485E0,-9.365875E0,-9.040588E0,6.45544E0,4.51622E0,5.5949E0,-4.354433E0,-8.934262E0,4.80837E0,5.73906E0,1.487119E1,4.51622E0,-4.84209E0,6.80141E0,9.67823E0,5.70895E0,6.28911E0,2.3924622E3,-5.658421E0,4.45639E0,8.03697E0,5.35817E0,1.572198E1,4.4787518E-4,-1.7041393E-4,-0E0,1.0234792E-3,1.0790805E-3,5.9564126E-4,1.3447412E-3,-0E0,-4.250276E-4,3.7525647E-4,6.073953E-4,-8.1977184E-4,1.0264592E-3,1.5676515E-4,-7.79479E-5,9.72795E-4,2.3614288E-4,-4.203831E-4,7.834944E-4,-2.4554454E-5,1.7933929E-3,-0E0,-2.4223365E-4,5.745634E-6,-5.3084193E-4,5.18744E-4,1.4139588E-3,1.0183216E-3,-7.8428345E-4,-0E0,1.0281651E-3,1.1210161E-4],"split_indices":[7,5,7,2,2,7,2,1,2,7,7,2,4,5,7,7,4,5,2,4,2,5,2,5,5,1,7,5,2,5,2,0,0,0,0,0,0,0,0,0,0,0,0,0,0,0,0,0,0,0,0,0,0,0,0,0,0,0,0,0,0,0,0],"split_type":[0,0,0,0,0,0,0,0,0,0,0,0,0,0,0,0,0,0,0,0,0,0,0,0,0,0,0,0,0,0,0,0,0,0,0,0,0,0,0,0,0,0,0,0,0,0,0,0,0,0,0,0,0,0,0,0,0,0,0,0,0,0,0],"sum_hessian":[1.9503E4,2.665E3,1.6838E4,2.022E3,6.43E2,1.5084E4,1.754E3,6.38E2,1.384E3,2.93E2,3.5E2,2.137E3,1.2947E4,1.099E3,6.55E2,5.17E2,1.21E2,1.156E3,2.28E2,1.14E2,1.79E2,1.4E2,2.1E2,1.473E3,6.64E2,6.8E1,1.2879E4,6.77E2,4.22E2,4.62E2,1.93E2,2.63E2,2.54E2,1.3E1,1.08E2,4.08E2,7.48E2,2.18E2,1E1,1.6E1,9.8E1,1.8E1,1.61E2,1.16E2,2.4E1,1.77E2,3.3E1,5.66E2,9.07E2,5.37E2,1.27E2,3.1E1,3.7E1,1.1509E4,1.37E3,6.8E1,6.09E2,2.41E2,1.81E2,9.7E1,3.65E2,1.28E2,6.5E1],"tree_param":{"num_deleted":"0","num_feature":"8","num_nodes":"63","size_leaf_vector":"1"}},{"base_weights":[-2.104489E-4,3.2533586E-4,-2.0932257E-3,5.4596355E-3,-1.8202672E-5,-1.581381E-3,-1.5496663E-2,4.573988E-3,2.1281699E-2,1.1810556E-2,-1.5622661E-4,-2.093713E-3,7.0078913E-3,-1.7780276E-2,-0E0,1.1302485E-2,2.940441E-3,-0E0,2.9774403E-2,1.8119033E-2,-1.6531548E-4,-1.6456897E-3,5.0355936E-4,-2.3723638E-3,1.4212569E-2,9.390868E-3,-5.0589307E-3,-0E0,-2.085282E-2,8.983066E-5,9.5912704E-4,-7.5673906E-4,2.0153653E-4,1.9332385E-3,-0E0,1.7128134E-3,5.917651E-4,3.621817E-4,-1.5973272E-3,-1.1366536E-4,2.0870306E-4,1.5708833E-4,-3.589347E-6,-3.6519476E-5,-2.5033363E-4,1.1693597E-3,-0E0,-0E0,7.087005E-4,-9.748791E-4,2.4877346E-4,3.4623928E-4,-5.3346663E-4,-1.3043095E-3,-5.7638565E-4],"categories":[],"categories_nodes":[],"categories_segments":[],"categories_sizes":[],"default_left":[0,0,0,0,0,0,0,0,0,0,0,0,0,0,0,0,0,0,0,0,0,0,0,0,0,0,0,0,0,0,0,0,0,0,0,0,0,0,0,0,0,0,0,0,0,0,0,0,0,0,0,0,0,0,0],"id":13,"left_children":[1,3,5,7,9,11,13,15,17,19,21,23,25,27,-1,29,31,-1,33,35,37,39,41,43,45,47,49,51,53,-1,-1,-1,-1,-1,-1,-1,-1,-1,-1,-1,-1,-1,-1,-1,-1,-1,-1,-1,-1,-1,-1,-1,-1,-1,-1],"loss_changes":[1.983322E-2,2.722746E-2,2.8165655E-2,1.0867437E-2,2.195803E-2,1.8032013E-2,6.8846494E-3,8.687457E-3,9.760531E-3,1.350854E-2,1.3881079E-2,1.6938394E-2,6.979323E-3,6.3795336E-3,0E0,1.0451967E-2,1.3849257E-2,0E0,5.7376344E-3,5.8354326E-3,1.42395105E-2,1.5697166E-2,1.4973005E-2,1.6382793E-2,8.462682E-3,8.430598E-3,6.0406E-3,2.0552822E-3,1.5500933E-3,0E0,0E0,0E0,0E0,0E0,0E0,0E0,0E0,0E0,0E0,0E0,0E0,0E0,0E0,0E0,0E0,0E0,0E0,0E0,0E0,0E0,0E0,0E0,0E0,0E0,0E0],"parents":[2147483647,0,0,1,1,2,2,3,3,4,4,5,5,6,6,7,7,8,8,9,9,10,10,11,11,12,12,13,13,15,15,16,16,18,18,19,19,20,20,21,21,22,22,23,23,24,24,25,25,26,26,27,27,28,28],"right_children":[2,4,6,8,10,12,14,16,18,20,22,24,26,28,-1,30,32,-1,34,36,38,40,42,44,46,48,50,52,54,-1,-1,-1,-1,-1,-1,-1,-1,-1,-1,-1,-1,-1,-1,-1,-1,-1,-1,-1,-1,-1,-1,-1,-1,-1,-1],"split_conditions":[2.08716E0,1.9686881E3,1.356851E1,1.98175E0,-1.046985E1,3.31333E0,7.29729E0,5.46847E0,4.59654E0,5.61013E0,7.8395E-1,6.64192E0,8.55075E0,-2.69823E0,-0E0,5.25352E0,5.54001E0,-0E0,8.59756E0,9.7388E-1,2.4622886E3,6.24893E0,2.1675437E3,5.74991E0,6.33181E0,1.00055E0,1.028079E1,2.48868E0,6.12298E0,8.983066E-5,9.5912704E-4,-7.5673906E-4,2.0153653E-4,1.9332385E-3,-0E0,1.7128134E-3,5.917651E-4,3.621817E-4,-1.5973272E-3,-1.1366536E-4,2.0870306E-4,1.5708833E-4,-3.589347E-6,-3.6519476E-5,-2.5033363E-4,1.1693597E-3,-0E0,-0E0,7.087005E-4,-9.748791E-4,2.4877346E-4,3.4623928E-4,-5.3346663E-4,-1.3043095E-3,-5.7638565E-4],"split_indices":[6,1,2,6,3,6,3,4,2,4,6,5,2,3,0,4,4,0,2,6,1,4,1,5,4,2,2,6,4,0,0,0,0,0,0,0,0,0,0,0,0,0,0,0,0,0,0,0,0,0,0,0,0,0,0],"split_type":[0,0,0,0,0,0,0,0,0,0,0,0,0,0,0,0,0,0,0,0,0,0,0,0,0,0,0,0,0,0,0,0,0,0,0,0,0,0,0,0,0,0,0,0,0,0,0,0,0,0,0,0,0,0,0],"sum_hessian":[1.9484E4,1.5127E4,4.357E3,9.66E2,1.4161E4,4.205E3,1.52E2,9.22E2,4.4E1,1.54E2,1.4007E4,3.98E3,2.25E2,1.37E2,1.5E1,1.67E2,7.55E2,1.1E1,3.3E1,1.06E2,4.8E1,4.346E3,9.661E3,3.92E3,6E1,1.95E2,3E1,2.3E1,1.14E2,8.2E1,8.5E1,3.7E1,7.18E2,2.3E1,1E1,2.4E1,8.2E1,3.7E1,1.1E1,3.939E3,4.07E2,1.76E3,7.901E3,2.439E3,1.481E3,3.7E1,2.3E1,6.8E1,1.27E2,1.6E1,1.4E1,1.1E1,1.2E1,6.5E1,4.9E1],"tree_param":{"num_deleted":"0","num_feature":"8","num_nodes":"55","size_leaf_vector":"1"}},{"base_weights":[1.17607786E-4,9.136E-3,-1.6317673E-3,1.23339845E-2,2.9098282E-3,-2.8094098E-3,1.0958131E-2,1.9394038E-2,9.693786E-3,6.3047595E-3,-3.28774E-3,1.3795209E-3,-3.365608E-3,-5.7767737E-3,1.3161232E-2,1.4347583E-2,2.2051949E-2,6.097391E-3,1.5975963E-2,-0E0,1.2139975E-2,-8.950268E-3,3.7084948E-3,1.0022095E-2,-2.404055E-3,-4.0479777E-3,9.996204E-4,1.3605492E-2,-1.067621E-2,1.938939E-2,7.573165E-3,9.429414E-4,3.1564017E-5,1.1287873E-3,1.7283704E-4,-5.8078662E-5,4.909758E-4,5.2005437E-4,9.6536585E-4,7.0404337E-4,-1.1385284E-4,3.199817E-4,9.3068666E-4,-2.7620653E-4,-1.6556013E-3,-9.4279014E-5,5.4023473E-4,-2.1626827E-5,7.6262397E-4,-8.4337936E-4,-3.860802E-5,8.039271E-4,-2.0812625E-4,-1.1774166E-4,6.58846E-4,-0E0,1.0465154E-3,8.374721E-5,-8.863238E-4,1.4360372E-3,8.8534266E-4,-0E0,7.1996485E-4],"categories":[],"categories_nodes":[],"categories_segments":[],"categories_sizes":[],"default_left":[0,0,0,0,0,0,0,0,0,0,0,0,0,0,0,0,0,0,0,0,0,0,0,0,0,0,0,0,0,0,0,0,0,0,0,0,0,0,0,0,0,0,0,0,0,0,0,0,0,0,0,0,0,0,0,0,0,0,0,0,0,0,0],"id":14,"left_children":[1,3,5,7,9,11,13,15,17,19,21,23,25,27,29,31,33,35,37,39,41,43,45,47,49,51,53,55,57,59,61,-1,-1,-1,-1,-1,-1,-1,-1,-1,-1,-1,-1,-1,-1,-1,-1,-1,-1,-1,-1,-1,-1,-1,-1,-1,-1,-1,-1,-1,-1,-1,-1],"loss_changes":[3.083607E-1,6.1697602E-2,2.4119763E-1,3.5823464E-2,2.3256378E-2,3.4995288E-2,5.202505E-2,3.514707E-3,3.2308012E-2,2.699326E-2,1.5453127E-2,5.7356615E-2,3.9639637E-2,1.4761388E-2,4.006946E-2,1.0909624E-2,7.27728E-4,2.7517717E-2,6.9871843E-3,1.02638565E-2,1.1352301E-2,1.3834275E-2,7.3034484E-3,3.074332E-2,2.6452145E-2,2.5247112E-2,7.3251136E-2,2.7023363E-3,1.2955106E-2,3.8606822E-3,3.5338063E-2,0E0,0E0,0E0,0E0,0E0,0E0,0E0,0E0,0E0,0E0,0E0,0E0,0E0,0E0,0E0,0E0,0E0,0E0,0E0,0E0,0E0,0E0,0E0,0E0,0E0,0E0,0E0,0E0,0E0,0E0,0E0,0E0],"parents":[2147483647,0,0,1,1,2,2,3,3,4,4,5,5,6,6,7,7,8,8,9,9,10,10,11,11,12,12,13,13,14,14,15,15,16,16,17,17,18,18,19,19,20,20,21,21,22,22,23,23,24,24,25,25,26,26,27,27,28,28,29,29,30,30],"right_children":[2,4,6,8,10,12,14,16,18,20,22,24,26,28,30,32,34,36,38,40,42,44,46,48,50,52,54,56,58,60,62,-1,-1,-1,-1,-1,-1,-1,-1,-1,-1,-1,-1,-1,-1,-1,-1,-1,-1,-1,-1,-1,-1,-1,-1,-1,-1,-1,-1,-1,-1,-1,-1],"split_conditions":[-8.144193E0,6.1178E0,-5.08754E0,-9.040588E0,-8.594949E0,-7.728073E0,4.86296E0,8.098039E1,8.390669E1,8.258104E1,5.82475E0,5.66165E0,-5.658421E0,2.184626E3,8.597965E1,8.008666E1,2.8142024E3,5.42701E0,5.68516E0,-1.016751E1,1.33726E0,5.75974E0,1.36174E0,8.171566E1,7.992445E1,4.51622E0,5.88478E0,1.87065E0,8.200403E1,8.147001E1,-4.68136E0,9.429414E-4,3.1564017E-5,1.1287873E-3,1.7283704E-4,-5.8078662E-5,4.909758E-4,5.2005437E-4,9.6536585E-4,7.0404337E-4,-1.1385284E-4,3.199817E-4,9.3068666E-4,-2.7620653E-4,-1.6556013E-3,-9.4279014E-5,5.4023473E-4,-2.1626827E-5,7.6262397E-4,-8.4337936E-4,-3.860802E-5,8.039271E-4,-2.0812625E-4,-1.1774166E-4,6.58846E-4,-0E0,1.0465154E-3,8.374721E-5,-8.863238E-4,1.4360372E-3,8.8534266E-4,-0E0,7.1996485E-4],"split_indices":[7,5,7,7,7,7,5,0,0,0,4,5,7,1,0,0,1,4,4,7,6,4,6,0,0,4,5,6,0,0,7,0,0,0,0,0,0,0,0,0,0,0,0,0,0,0,0,0,0,0,0,0,0,0,0,0,0,0,0,0,0,0,0],"split_type":[0,0,0,0,0,0,0,0,0,0,0,0,0,0,0,0,0,0,0,0,0,0,0,0,0,0,0,0,0,0,0,0,0,0,0,0,0,0,0,0,0,0,0,0,0,0,0,0,0,0,0,0,0,0,0,0,0,0,0,0,0,0,0],"sum_hessian":[1.9496E4,3.176E3,1.632E4,2.087E3,1.089E3,1.4932E4,1.388E3,5.56E2,1.531E3,7.14E2,3.75E2,1.729E3,1.3203E4,1.56E2,1.232E3,2.07E2,3.49E2,9.85E2,5.46E2,3.39E2,3.75E2,2.15E2,1.6E2,5.34E2,1.195E3,1.1438E4,1.765E3,2.7E1,1.29E2,5.73E2,6.59E2,1.5E2,5.7E1,3.34E2,1.5E1,3.25E2,6.6E2,2.17E2,3.29E2,4.3E1,2.96E2,2.08E2,1.67E2,1.93E2,2.2E1,8.2E1,7.8E1,1.72E2,3.62E2,1.14E2,1.081E3,5.9E1,1.1379E4,1.378E3,3.87E2,1E1,1.7E1,4.2E1,8.7E1,7.6E1,4.97E2,3.07E2,3.52E2],"tree_param":{"num_deleted":"0","num_feature":"8","num_nodes":"63","size_leaf_vector":"1"}},{"base_weights":[2.360557E-6,9.800378E-3,-1.4759294E-3,1.5615483E-2,7.6953787E-3,-2.9385525E-3,8.378529E-3,1.1054231E-2,2.0556632E-2,4.1418625E-3,1.141561E-2,8.0099696E-4,-4.4983006E-3,1.3890657E-2,3.2089043E-3,-0E0,1.2439123E-2,-0E0,2.1344217E-2,1.0781498E-2,2.3367866E-3,-0E0,1.1842372E-2,-3.873474E-3,3.816548E-3,2.5567426E-3,-4.9240002E-3,1.8590504E-2,9.404E-3,-1.7444998E-3,1.1113604E-2,6.3379115E-4,-4.765064E-4,6.7141146E-4,-0E0,7.093814E-5,1.098578E-3,6.462987E-5,7.133561E-4,-3.609122E-4,2.109701E-4,4.312864E-4,-6.496838E-4,6.5319147E-4,2.682877E-4,-2.7240554E-4,4.5136953E-4,6.8971763E-6,3.6604723E-4,-2.4013016E-5,1.032183E-3,1.6663391E-4,-2.5721447E-4,1.2423695E-3,7.722358E-4,8.760265E-4,3.1301338E-4,1.2179972E-4,-4.5851088E-4,6.931712E-4,1.6766586E-4],"categories":[],"categories_nodes":[],"categories_segments":[],"categories_sizes":[],"default_left":[0,0,0,0,0,0,0,0,0,0,0,0,0,0,0,0,0,0,0,0,0,0,0,0,0,0,0,0,0,0,0,0,0,0,0,0,0,0,0,0,0,0,0,0,0,0,0,0,0,0,0,0,0,0,0,0,0,0,0,0,0],"id":15,"left_children":[1,3,5,7,9,11,13,15,17,19,21,23,25,27,29,31,33,-1,35,37,39,41,43,45,47,49,51,53,55,57,59,-1,-1,-1,-1,-1,-1,-1,-1,-1,-1,-1,-1,-1,-1,-1,-1,-1,-1,-1,-1,-1,-1,-1,-1,-1,-1,-1,-1,-1,-1],"loss_changes":[2.8236398E-1,2.884847E-2,2.4277815E-1,1.1621878E-2,2.3409039E-2,8.616148E-2,6.016648E-2,4.8721395E-3,5.1528215E-3,1.0444276E-2,4.5445636E-3,6.07774E-2,3.1477958E-2,1.8997952E-2,4.527995E-2,5.714643E-3,4.9940534E-3,0E0,1.3423115E-3,4.9743857E-3,1.3869494E-2,3.851762E-3,5.032733E-3,3.3778433E-2,3.3208758E-2,3.3830732E-2,1.8059418E-2,5.369395E-3,1.1444084E-2,2.2084504E-2,7.7065304E-3,0E0,0E0,0E0,0E0,0E0,0E0,0E0,0E0,0E0,0E0,0E0,0E0,0E0,0E0,0E0,0E0,0E0,0E0,0E0,0E0,0E0,0E0,0E0,0E0,0E0,0E0,0E0,0E0,0E0,0E0],"parents":[2147483647,0,0,1,1,2,2,3,3,4,4,5,5,6,6,7,7,8,8,9,9,10,10,11,11,12,12,13,13,14,14,15,15,16,16,18,18,19,19,20,20,21,21,22,22,23,23,24,24,25,25,26,26,27,27,28,28,29,29,30,30],"right_children":[2,4,6,8,10,12,14,16,18,20,22,24,26,28,30,32,34,-1,36,38,40,42,44,46,48,50,52,54,56,58,60,-1,-1,-1,-1,-1,-1,-1,-1,-1,-1,-1,-1,-1,-1,-1,-1,-1,-1,-1,-1,-1,-1,-1,-1,-1,-1,-1,-1,-1,-1],"split_conditions":[-8.322528E0,-9.290185E0,-5.401874E0,8.258104E1,8.329146E1,-7.35744E0,8.558947E1,4.65871E0,-9.31575E0,-1.3249E0,1.8653098E3,-2.36823E0,5.01932E0,5.8156E0,-4.792473E0,-9.950327E0,2.3341E0,-0E0,-2.04565E0,5.49545E0,7.8395E-1,1.84521E0,-8.411674E0,8.691102E1,8.387505E1,-5.923002E0,1.8466798E3,-3.23465E0,2.0924607E3,6.03963E0,6.18634E0,6.3379115E-4,-4.765064E-4,6.7141146E-4,-0E0,7.093814E-5,1.098578E-3,6.462987E-5,7.133561E-4,-3.609122E-4,2.109701E-4,4.312864E-4,-6.496838E-4,6.5319147E-4,2.682877E-4,-2.7240554E-4,4.5136953E-4,6.8971763E-6,3.6604723E-4,-2.4013016E-5,1.032183E-3,1.6663391E-4,-2.5721447E-4,1.2423695E-3,7.722358E-4,8.760265E-4,3.1301338E-4,1.2179972E-4,-4.5851088E-4,6.931712E-4,1.6766586E-4],"split_indices":[7,7,7,0,0,7,0,4,3,6,1,3,4,4,7,7,6,0,6,4,6,6,7,0,0,7,1,3,1,4,4,0,0,0,0,0,0,0,0,0,0,0,0,0,0,0,0,0,0,0,0,0,0,0,0,0,0,0,0,0,0],"split_type":[0,0,0,0,0,0,0,0,0,0,0,0,0,0,0,0,0,0,0,0,0,0,0,0,0,0,0,0,0,0,0,0,0,0,0,0,0,0,0,0,0,0,0,0,0,0,0,0,0,0,0,0,0,0,0,0,0,0,0,0,0],"sum_hessian":[1.9435E4,2.556E3,1.6879E4,6.65E2,1.891E3,1.4707E4,2.172E3,3.58E2,3.07E2,9.82E2,9.09E2,4.31E3,1.0397E4,1.041E3,1.131E3,4.4E1,3.14E2,1.1E1,2.96E2,1.97E2,7.85E2,3.2E1,8.77E2,1.677E3,2.633E3,5.78E2,9.819E3,4.96E2,5.45E2,6.88E2,4.43E2,2.1E1,2.3E1,2.97E2,1.7E1,1.4E1,2.82E2,6.1E1,1.36E2,1.2E2,6.65E2,1.9E1,1.3E1,7.24E2,1.53E2,1.502E3,1.75E2,1.299E3,1.334E3,4.91E2,8.7E1,2.43E2,9.576E3,1.53E2,3.43E2,1.42E2,4.03E2,4.32E2,2.56E2,3.17E2,1.26E2],"tree_param":{"num_deleted":"0","num_feature":"8","num_nodes":"61","size_leaf_vector":"1"}},{"base_weights":[1.3690474E-4,8.397981E-3,-1.4685096E-3,5.7585146E-3,1.6339807E-2,-2.9934107E-3,6.495544E-3,1.0714773E-2,2.0094393E-3,1.195746E-2,1.9802615E-2,-2.8439984E-4,-4.7775237E-3,1.39971655E-2,1.063558E-3,2.52575E-3,1.3682796E-2,1.1520544E-3,1.4958396E-2,1.5077859E-2,-8.9785655E-4,1.8045416E-2,1.4491937E-3,-3.1570026E-3,5.62023E-3,3.107067E-3,-6.1103906E-3,1.9561393E-2,9.1262255E-3,-3.9408472E-3,1.0755008E-2,6.3739927E-4,-5.5435576E-5,8.5319654E-4,4.723887E-4,-5.6077633E-4,1.2830082E-4,-1.8777258E-5,1.0798862E-3,8.718022E-4,3.970129E-5,-5.729464E-4,1.5623478E-4,9.975516E-4,2.115838E-4,-2.4570173E-4,8.4277824E-5,2.028157E-4,8.059015E-4,-2.2320157E-5,8.013108E-4,-3.1558677E-4,3.0243784E-4,1.3783874E-3,7.629641E-4,2.5298446E-4,9.398698E-4,2.7607966E-5,-5.660406E-4,7.0421176E-4,-1.0701568E-5],"categories":[],"categories_nodes":[],"categories_segments":[],"categories_sizes":[],"default_left":[0,0,0,0,0,0,0,0,0,0,0,0,0,0,0,0,0,0,0,0,0,0,0,0,0,0,0,0,0,0,0,0,0,0,0,0,0,0,0,0,0,0,0,0,0,0,0,0,0,0,0,0,0,0,0,0,0,0,0,0,0],"id":16,"left_children":[1,3,5,7,9,11,13,15,17,19,21,23,25,27,29,31,33,35,37,39,41,43,-1,45,47,49,51,53,55,57,59,-1,-1,-1,-1,-1,-1,-1,-1,-1,-1,-1,-1,-1,-1,-1,-1,-1,-1,-1,-1,-1,-1,-1,-1,-1,-1,-1,-1,-1,-1],"loss_changes":[2.5832835E-1,6.416714E-2,1.9707635E-1,4.3134145E-2,8.439034E-3,6.548471E-2,1.04507156E-1,2.3087278E-2,1.3626197E-2,1.5872478E-2,1.5822947E-3,9.212763E-2,8.659911E-2,2.6359499E-2,7.434671E-2,1.1617862E-2,7.7551752E-3,2.184484E-2,1.0071283E-2,8.133583E-3,3.6305888E-3,7.1317777E-3,0E0,3.159997E-2,2.6992887E-2,5.5598628E-2,1.728502E-2,1.2380987E-2,2.0722806E-2,3.407555E-2,2.0525675E-2,0E0,0E0,0E0,0E0,0E0,0E0,0E0,0E0,0E0,0E0,0E0,0E0,0E0,0E0,0E0,0E0,0E0,0E0,0E0,0E0,0E0,0E0,0E0,0E0,0E0,0E0,0E0,0E0,0E0,0E0],"parents":[2147483647,0,0,1,1,2,2,3,3,4,4,5,5,6,6,7,7,8,8,9,9,10,10,11,11,12,12,13,13,14,14,15,15,16,16,17,17,18,18,19,19,20,20,21,21,23,23,24,24,25,25,26,26,27,27,28,28,29,29,30,30],"right_children":[2,4,6,8,10,12,14,16,18,20,22,24,26,28,30,32,34,36,38,40,42,44,-1,46,48,50,52,54,56,58,60,-1,-1,-1,-1,-1,-1,-1,-1,-1,-1,-1,-1,-1,-1,-1,-1,-1,-1,-1,-1,-1,-1,-1,-1,-1,-1,-1,-1,-1,-1],"split_conditions":[-8.144193E0,6.13807E0,-5.518099E0,-8.887573E0,7.77642E0,-7.057851E0,8.03697E0,-1.60358E0,6.34154E0,-8.25385E0,-8.229435E0,6.9043E0,3.35461E0,8.486507E1,-4.738359E0,-9.950327E0,-9.290185E0,7.920875E1,5.43944E0,7.46823E0,5.6347E0,-8.34702E0,1.4491937E-3,8.531333E1,1.222422E1,-6.098766E0,1.108961E1,4.55894E0,-4.841395E0,1.19489E1,1.526934E1,6.3739927E-4,-5.5435576E-5,8.5319654E-4,4.723887E-4,-5.6077633E-4,1.2830082E-4,-1.8777258E-5,1.0798862E-3,8.718022E-4,3.970129E-5,-5.729464E-4,1.5623478E-4,9.975516E-4,2.115838E-4,-2.4570173E-4,8.4277824E-5,2.028157E-4,8.059015E-4,-2.2320157E-5,8.013108E-4,-3.1558677E-4,3.0243784E-4,1.3783874E-3,7.629641E-4,2.5298446E-4,9.398698E-4,2.7607966E-5,-5.660406E-4,7.0421176E-4,-1.0701568E-5],"split_indices":[7,2,7,7,2,7,2,2,3,7,7,2,2,0,7,7,7,0,4,2,4,7,0,0,2,7,3,2,7,2,2,0,0,0,0,0,0,0,0,0,0,0,0,0,0,0,0,0,0,0,0,0,0,0,0,0,0,0,0,0,0],"split_type":[0,0,0,0,0,0,0,0,0,0,0,0,0,0,0,0,0,0,0,0,0,0,0,0,0,0,0,0,0,0,0,0,0,0,0,0,0,0,0,0,0,0,0,0,0,0,0,0,0,0,0,0,0,0,0,0,0,0,0,0,0],"sum_hessian":[1.9424E4,3.17E3,1.6254E4,2.39E3,7.8E2,1.3653E4,2.601E3,1.017E3,1.373E3,3.59E2,4.21E2,5.444E3,8.209E3,1.084E3,1.517E3,2.8E2,7.37E2,1.296E3,7.7E1,2.95E2,6.4E1,3.65E2,5.6E1,3.674E3,1.77E3,1.176E3,7.033E3,4.95E2,5.89E2,9.94E2,5.23E2,8E1,2E2,3.95E2,3.42E2,1.25E2,1.171E3,1.9E1,5.8E1,2.47E2,4.8E1,2.4E1,4E1,3.14E2,5.1E1,2.711E3,9.63E2,1.55E3,2.2E2,9.17E2,2.59E2,6.927E3,1.06E2,1.63E2,3.32E2,4.23E2,1.66E2,6.1E2,3.84E2,4.08E2,1.15E2],"tree_param":{"num_deleted":"0","num_feature":"8","num_nodes":"61","size_leaf_vector":"1"}},{"base_weights":[-0E0,5.3776323E-4,-1.27127E-3,-1.2452729E-3,1.3274519E-3,-1.908493E-3,1.9916878E-3,-1.545386E-4,-5.076389E-3,2.9236495E-3,5.080232E-4,8.669724E-4,-2.8758578E-3,3.9039373E-2,7.17273E-4,-2.010708E-3,4.140416E-3,-6.123767E-3,1.3614932E-2,4.3869E-3,-0E0,3.1143727E-3,-2.6025772E-4,-3.244554E-3,3.9498224E-3,1.5874523E-3,-3.58784E-3,2.5325713E-3,3.698942E-4,-4.321248E-4,1.3846277E-2,1.1060852E-4,-1.6753444E-4,4.3092994E-4,1.4149574E-5,-3.8533163E-4,-0E0,1.2787784E-3,-0E0,1.6513934E-4,5.910109E-4,-4.6895412E-4,9.831747E-5,8.00644E-5,6.267449E-4,-5.1063014E-4,3.3209985E-6,-2.8339078E-4,1.503113E-4,4.915505E-4,1.8957375E-5,1.3440903E-5,1.004761E-3,-3.300525E-4,-1.140148E-4,2.815181E-4,-1.4023646E-4,-1.0352171E-4,9.110236E-4],"categories":[],"categories_nodes":[],"categories_segments":[],"categories_sizes":[],"default_left":[0,0,0,0,0,0,0,0,0,0,0,0,0,0,0,0,0,0,0,0,0,0,0,0,0,0,0,0,0,0,0,0,0,0,0,0,0,0,0,0,0,0,0,0,0,0,0,0,0,0,0,0,0,0,0,0,0,0,0],"id":17,"left_children":[1,3,5,7,9,11,13,15,17,19,21,23,25,27,29,31,33,35,37,39,41,43,45,47,49,51,53,-1,-1,55,57,-1,-1,-1,-1,-1,-1,-1,-1,-1,-1,-1,-1,-1,-1,-1,-1,-1,-1,-1,-1,-1,-1,-1,-1,-1,-1,-1,-1],"loss_changes":[1.3307873E-2,1.9236704E-2,1.2036313E-2,1.6830385E-2,1.2084987E-2,1.3281468E-2,3.948054E-2,2.5736773E-2,1.6953453E-2,1.3946716E-2,1.2945448E-2,1.5711885E-2,1.1769736E-2,4.108187E-3,1.4838259E-2,1.3073742E-2,1.5794333E-2,8.03306E-3,9.036098E-3,1.5677858E-2,1.9855315E-2,1.9505516E-2,1.6796665E-2,8.084044E-3,1.4074118E-2,9.721394E-3,1.1539035E-2,0E0,0E0,1.1470476E-2,7.152927E-3,0E0,0E0,0E0,0E0,0E0,0E0,0E0,0E0,0E0,0E0,0E0,0E0,0E0,0E0,0E0,0E0,0E0,0E0,0E0,0E0,0E0,0E0,0E0,0E0,0E0,0E0,0E0,0E0],"parents":[2147483647,0,0,1,1,2,2,3,3,4,4,5,5,6,6,7,7,8,8,9,9,10,10,11,11,12,12,13,13,14,14,15,15,16,16,17,17,18,18,19,19,20,20,21,21,22,22,23,23,24,24,25,25,26,26,29,29,30,30],"right_children":[2,4,6,8,10,12,14,16,18,20,22,24,26,28,30,32,34,36,38,40,42,44,46,48,50,52,54,-1,-1,56,58,-1,-1,-1,-1,-1,-1,-1,-1,-1,-1,-1,-1,-1,-1,-1,-1,-1,-1,-1,-1,-1,-1,-1,-1,-1,-1,-1,-1],"split_conditions":[1.92461E0,5.2457E-1,8.770754E1,2.4594407E3,2.2327693E3,5.28703E0,5.21567E0,2.310199E3,6.03963E0,6.05615E0,1.1374E0,2.3341E0,2.0833042E3,5.77313E0,6.65869E0,-2.31221E0,5.70445E0,5.94478E0,6.19994E0,5.96307E0,-3.50606E0,2.5465222E3,1.16743E0,1.00071E0,2.6835E0,7.97965E0,8.325714E1,2.5325713E-3,3.698942E-4,2.08716E0,5.04564E0,1.1060852E-4,-1.6753444E-4,4.3092994E-4,1.4149574E-5,-3.8533163E-4,-0E0,1.2787784E-3,-0E0,1.6513934E-4,5.910109E-4,-4.6895412E-4,9.831747E-5,8.00644E-5,6.267449E-4,-5.1063014E-4,3.3209985E-6,-2.8339078E-4,1.503113E-4,4.915505E-4,1.8957375E-5,1.3440903E-5,1.004761E-3,-3.300525E-4,-1.140148E-4,2.815181E-4,-1.4023646E-4,-1.0352171E-4,9.110236E-4],"split_indices":[6,6,0,1,1,5,4,1,4,4,6,6,1,5,4,6,4,5,4,4,3,1,6,3,6,3,0,0,0,6,5,0,0,0,0,0,0,0,0,0,0,0,0,0,0,0,0,0,0,0,0,0,0,0,0,0,0,0,0],"split_type":[0,0,0,0,0,0,0,0,0,0,0,0,0,0,0,0,0,0,0,0,0,0,0,0,0,0,0,0,0,0,0,0,0,0,0,0,0,0,0,0,0,0,0,0,0,0,0,0,0,0,0,0,0,0,0,0,0,0,0],"sum_hessian":[1.9444E4,1.3654E4,5.79E3,4.152E3,9.502E3,4.87E3,9.2E2,3.253E3,8.99E2,3.181E3,6.321E3,1.232E3,3.638E3,2.7E1,8.93E2,2.288E3,9.65E2,8.57E2,4.2E1,2.137E3,1.044E3,1.468E3,4.853E3,5.14E2,7.18E2,4.81E2,3.157E3,1.7E1,1E1,8.15E2,7.8E1,5.33E2,1.755E3,4.34E2,5.31E2,6.76E2,1.81E2,2.5E1,1.7E1,1.878E3,2.59E2,1.87E2,8.57E2,1.275E3,1.93E2,1.63E2,4.69E3,3.82E2,1.32E2,2.6E2,4.58E2,4.55E2,2.6E1,9.31E2,2.226E3,2.17E2,5.98E2,1.2E1,6.6E1],"tree_param":{"num_deleted":"0","num_feature":"8","num_nodes":"59","size_leaf_vector":"1"}},{"base_weights":[2.2690026E-4,8.36281E-3,-1.3204324E-3,5.7280287E-3,1.5443778E-2,-2.1540453E-3,1.2860739E-2,1.0325203E-2,3.034866E-3,1.3442201E-2,2.5819255E-2,-2.7937044E-3,1.4798488E-3,1.6322505E-2,6.261992E-3,1.8750142E-3,1.3832017E-2,-2.4681368E-3,4.320972E-3,1.9456364E-2,8.447414E-3,1.4315253E-3,-0E0,4.032266E-4,-4.1507403E-3,8.4930975E-3,-6.598889E-3,1.0055135E-3,1.1522212E-2,3.554177E-4,1.0971605E-3,-2.6367954E-4,5.014664E-4,5.283037E-4,9.0350857E-4,4.3006364E-4,-3.2766772E-4,-1.9390245E-4,2.8793627E-4,1.7558184E-3,8.410138E-4,2.434225E-4,7.7273813E-4,-1.6387702E-4,3.336876E-4,8.896249E-4,-2.1682538E-4,8.1067515E-4,1.940959E-4,-1.0781074E-4,-6.516763E-4,2.3451481E-4,1.102629E-3,8.277125E-4,-1.08677894E-4],"categories":[],"categories_nodes":[],"categories_segments":[],"categories_sizes":[],"default_left":[0,0,0,0,0,0,0,0,0,0,0,0,0,0,0,0,0,0,0,0,0,0,0,0,0,0,0,0,0,0,0,0,0,0,0,0,0,0,0,0,0,0,0,0,0,0,0,0,0,0,0,0,0,0,0],"id":18,"left_children":[1,3,5,7,9,11,13,15,17,19,21,23,25,27,29,31,33,35,37,39,41,-1,-1,43,45,47,49,-1,51,53,-1,-1,-1,-1,-1,-1,-1,-1,-1,-1,-1,-1,-1,-1,-1,-1,-1,-1,-1,-1,-1,-1,-1,-1,-1],"loss_changes":[2.4766031E-1,5.646999E-2,1.9368254E-1,2.7158342E-2,1.32128745E-2,3.6315642E-2,1.838106E-2,2.3206383E-2,1.0585639E-2,1.855351E-2,9.603664E-3,5.789861E-2,1.3095592E-1,7.241726E-3,2.7771957E-2,1.5392917E-2,5.015075E-3,1.1789906E-2,1.4415147E-2,7.21924E-3,7.974215E-3,0E0,0E0,9.106725E-2,3.6763787E-2,4.2142935E-2,2.8926663E-2,0E0,1.679067E-2,1.1346964E-2,0E0,0E0,0E0,0E0,0E0,0E0,0E0,0E0,0E0,0E0,0E0,0E0,0E0,0E0,0E0,0E0,0E0,0E0,0E0,0E0,0E0,0E0,0E0,0E0,0E0],"parents":[2147483647,0,0,1,1,2,2,3,3,4,4,5,5,6,6,7,7,8,8,9,9,10,10,11,11,12,12,13,13,14,14,15,15,16,16,17,17,18,18,19,19,20,20,23,23,24,24,25,25,26,26,28,28,29,29],"right_children":[2,4,6,8,10,12,14,16,18,20,22,24,26,28,30,32,34,36,38,40,42,-1,-1,44,46,48,50,-1,52,54,-1,-1,-1,-1,-1,-1,-1,-1,-1,-1,-1,-1,-1,-1,-1,-1,-1,-1,-1,-1,-1,-1,-1,-1,-1],"split_conditions":[-8.168499E0,5.83359E0,-4.841395E0,-9.040588E0,1.035965E1,-5.679184E0,1.163564E1,-1.60358E0,-8.7445E-1,-8.661891E0,1.572198E1,-7.346072E0,8.64028E0,1.84521E0,-3.939506E0,2.371399E3,-3.2555E-1,-6.55693E0,5.1608E0,-1.28679E0,1.73517E0,1.4315253E-3,-0E0,6.17437E0,4.58473E0,2.2832664E3,1.19489E1,1.0055135E-3,2.41497E0,5.33215E0,1.0971605E-3,-2.6367954E-4,5.014664E-4,5.283037E-4,9.0350857E-4,4.3006364E-4,-3.2766772E-4,-1.9390245E-4,2.8793627E-4,1.7558184E-3,8.410138E-4,2.434225E-4,7.7273813E-4,-1.6387702E-4,3.336876E-4,8.896249E-4,-2.1682538E-4,8.1067515E-4,1.940959E-4,-1.0781074E-4,-6.516763E-4,2.3451481E-4,1.102629E-3,8.277125E-4,-1.08677894E-4],"split_indices":[7,2,7,7,2,7,2,2,2,7,2,7,2,6,7,1,3,3,4,6,6,0,0,2,4,1,2,0,6,4,0,0,0,0,0,0,0,0,0,0,0,0,0,0,0,0,0,0,0,0,0,0,0,0,0],"split_type":[0,0,0,0,0,0,0,0,0,0,0,0,0,0,0,0,0,0,0,0,0,0,0,0,0,0,0,0,0,0,0,0,0,0,0,0,0,0,0,0,0,0,0,0,0,0,0,0,0,0,0,0,0,0,0],"sum_hessian":[1.9615E4,3.144E3,1.6471E4,2.303E3,8.41E2,1.5564E4,9.07E2,8.36E2,1.467E3,7.15E2,1.26E2,1.3258E4,2.306E3,5.84E2,3.23E2,2.54E2,5.82E2,2.63E2,1.204E3,3.14E2,4.01E2,1.14E2,1.2E1,3.929E3,9.329E3,1.241E3,1.065E3,3.13E2,2.71E2,2.4E2,8.3E1,1.29E2,1.25E2,3.44E2,2.38E2,6.4E1,1.99E2,1.69E2,1.035E3,3.8E1,2.76E2,2.76E2,1.25E2,2.466E3,1.463E3,7.3E1,9.256E3,4.55E2,7.86E2,6.4E2,4.25E2,1.71E2,1E2,3.7E1,2.03E2],"tree_param":{"num_deleted":"0","num_feature":"8","num_nodes":"55","size_leaf_vector":"1"}},{"base_weights":[-4.3726803E-5,6.9123018E-3,-1.8634675E-3,1.0109815E-2,1.9399747E-3,-2.6317553E-3,1.1570681E-2,1.5717765E-2,8.314925E-3,9.502825E-3,-2.9118423E-4,-3.3749328E-3,1.3622865E-3,-2.56589E-3,1.5488616E-2,1.1668198E-2,1.9924266E-2,1.480269E-2,6.6279536E-3,1.945127E-2,7.206807E-3,1.8766133E-2,-1.0734595E-3,-1.198452E-3,-4.5133447E-3,-3.3373241E-3,8.151112E-3,3.9293743E-3,-1.330119E-2,1.9664679E-2,1.0973186E-2,6.593615E-4,-1.3449036E-4,1.0271469E-3,-0E0,2.3519066E-4,8.342005E-4,-9.518269E-6,4.0781117E-4,2.6974496E-5,1.1472714E-3,9.2110224E-4,1.4811585E-4,2.4295587E-3,4.4445504E-5,-6.7431846E-4,-6.862325E-7,1.4404402E-4,-2.8753487E-4,-2.4971672E-4,7.836824E-5,1.2473008E-4,-3.7541482E-4,9.511681E-4,2.6518447E-4,-2.4434343E-5,9.08844E-4,6.2128E-5,-8.7917736E-4,6.371714E-4,1.1419848E-3,2.0967213E-4,7.3692645E-4],"categories":[],"categories_nodes":[],"categories_segments":[],"categories_sizes":[],"default_left":[0,0,0,0,0,0,0,0,0,0,0,0,0,0,0,0,0,0,0,0,0,0,0,0,0,0,0,0,0,0,0,0,0,0,0,0,0,0,0,0,0,0,0,0,0,0,0,0,0,0,0,0,0,0,0,0,0,0,0,0,0,0,0],"id":19,"left_children":[1,3,5,7,9,11,13,15,17,19,21,23,25,27,29,31,33,35,37,39,41,43,45,47,49,51,53,55,57,59,61,-1,-1,-1,-1,-1,-1,-1,-1,-1,-1,-1,-1,-1,-1,-1,-1,-1,-1,-1,-1,-1,-1,-1,-1,-1,-1,-1,-1,-1,-1,-1,-1],"loss_changes":[2.4577267E-1,6.2737405E-2,1.5842506E-1,2.1985948E-2,2.7719721E-2,4.35606E-2,4.7191747E-2,6.4201504E-3,1.812686E-2,5.6911632E-3,1.6393997E-2,2.9988706E-2,7.296447E-2,1.3191953E-2,9.052724E-3,7.8027733E-3,2.5145411E-3,4.8314407E-3,1.6334705E-2,1.6700551E-3,1.2659114E-2,1.793592E-2,1.4106216E-2,7.956083E-2,2.3950383E-2,3.2969385E-2,2.6504911E-2,8.324122E-3,6.140218E-3,3.336504E-3,6.418206E-3,0E0,0E0,0E0,0E0,0E0,0E0,0E0,0E0,0E0,0E0,0E0,0E0,0E0,0E0,0E0,0E0,0E0,0E0,0E0,0E0,0E0,0E0,0E0,0E0,0E0,0E0,0E0,0E0,0E0,0E0,0E0,0E0],"parents":[2147483647,0,0,1,1,2,2,3,3,4,4,5,5,6,6,7,7,8,8,9,9,10,10,11,11,12,12,13,13,14,14,15,15,16,16,17,17,18,18,19,19,20,20,21,21,22,22,23,23,24,24,25,25,26,26,27,27,28,28,29,29,30,30],"right_children":[2,4,6,8,10,12,14,16,18,20,22,24,26,28,30,32,34,36,38,40,42,44,46,48,50,52,54,56,58,60,62,-1,-1,-1,-1,-1,-1,-1,-1,-1,-1,-1,-1,-1,-1,-1,-1,-1,-1,-1,-1,-1,-1,-1,-1,-1,-1,-1,-1,-1,-1,-1,-1],"split_conditions":[-7.932169E0,6.04532E0,-4.792473E0,-8.934262E0,-9.290185E0,-5.658421E0,5.08913E0,-1.29665E0,5.42341E0,-5.2917E0,-8.0728E0,-7.124469E0,5.67036E0,6.11767E0,5.85906E0,2.84548E0,2.7942126E3,-1.93869E0,-5.43689E0,-1.016751E1,-1.016751E1,6.10402E0,-1.89616E0,5.81749E0,6.27869E0,2.3013167E3,-3.88559E0,4.95843E0,2.1194053E3,5.49039E0,1.42725E0,6.593615E-4,-1.3449036E-4,1.0271469E-3,-0E0,2.3519066E-4,8.342005E-4,-9.518269E-6,4.0781117E-4,2.6974496E-5,1.1472714E-3,9.2110224E-4,1.4811585E-4,2.4295587E-3,4.4445504E-5,-6.7431846E-4,-6.862325E-7,1.4404402E-4,-2.8753487E-4,-2.4971672E-4,7.836824E-5,1.2473008E-4,-3.7541482E-4,9.511681E-4,2.6518447E-4,-2.4434343E-5,9.08844E-4,6.2128E-5,-8.7917736E-4,6.371714E-4,1.1419848E-3,2.0967213E-4,7.3692645E-4],"split_indices":[7,5,7,7,7,7,5,3,5,3,3,7,5,4,4,6,1,6,3,7,7,5,6,5,5,1,3,5,1,5,6,0,0,0,0,0,0,0,0,0,0,0,0,0,0,0,0,0,0,0,0,0,0,0,0,0,0,0,0,0,0,0,0],"split_type":[0,0,0,0,0,0,0,0,0,0,0,0,0,0,0,0,0,0,0,0,0,0,0,0,0,0,0,0,0,0,0,0,0,0,0,0,0,0,0,0,0,0,0,0,0,0,0,0,0,0,0,0,0,0,0,0,0,0,0,0,0,0,0],"sum_hessian":[1.9454E4,4.022E3,1.5432E4,2.435E3,1.587E3,1.4605E4,8.27E2,5.75E2,1.86E3,3.71E2,1.216E3,1.2335E4,2.27E3,1.74E2,6.53E2,3.07E2,2.68E2,3.7E2,1.49E3,6E1,3.11E2,4.2E1,1.174E3,4.267E3,8.068E3,1.333E3,9.37E2,1.03E2,7.1E1,3.26E2,3.27E2,2.84E2,2.3E1,2.58E2,1E1,6.7E1,3.03E2,2.61E2,1.229E3,1.4E1,4.6E1,7.8E1,2.33E2,1.3E1,2.9E1,8.4E1,1.09E3,2.239E3,2.028E3,7.492E3,5.76E2,5.46E2,7.87E2,1.86E2,7.51E2,7.4E1,2.9E1,1.1E1,6E1,1.14E2,2.12E2,1.27E2,2E2],"tree_param":{"num_deleted":"0","num_feature":"8","num_nodes":"63","size_leaf_vector":"1"}},{"base_weights":[3.3032404E-6,-7.0230296E-4,1.2726983E-3,9.852225E-3,-8.3865284E-4,3.0153508E-3,-9.444331E-4,1.3460263E-2,-0E0,-1.5043098E-4,-2.636664E-3,4.175015E-3,-7.904727E-4,1.722492E-3,-2.8167886E-3,3.4682173E-2,6.150043E-3,3.3502773E-4,-6.963124E-3,-8.1919477E-4,2.7996043E-3,-3.4791406E-4,-5.1187705E-3,-7.4150733E-4,5.2107195E-3,1.1613111E-2,-1.9560878E-3,1.3753944E-2,8.242401E-4,-3.5850594E-3,7.780658E-3,2.2396522E-3,3.86581E-4,-4.2765858E-4,5.116568E-4,-8.107025E-4,-0E0,8.539529E-5,-8.275499E-5,2.0494685E-4,-2.8714104E-4,2.2664724E-4,-1.4448418E-4,1.380643E-4,-3.3802213E-4,6.464072E-5,-9.0388936E-4,4.5322908E-5,3.8027763E-4,1.2715555E-3,-2.16263E-4,-4.2254987E-4,-1.2771483E-5,9.511228E-4,-0E0,1.823367E-4,-1.2987736E-4,5.5029715E-4,-2.0473982E-4,-1.8247021E-5,6.677284E-4],"categories":[],"categories_nodes":[],"categories_segments":[],"categories_sizes":[],"default_left":[0,0,0,0,0,0,0,0,0,0,0,0,0,0,0,0,0,0,0,0,0,0,0,0,0,0,0,0,0,0,0,0,0,0,0,0,0,0,0,0,0,0,0,0,0,0,0,0,0,0,0,0,0,0,0,0,0,0,0,0,0],"id":20,"left_children":[1,3,5,7,9,11,13,15,17,19,21,23,25,27,29,31,33,-1,35,37,39,41,43,45,47,49,51,53,55,57,59,-1,-1,-1,-1,-1,-1,-1,-1,-1,-1,-1,-1,-1,-1,-1,-1,-1,-1,-1,-1,-1,-1,-1,-1,-1,-1,-1,-1,-1,-1],"loss_changes":[1.7421838E-2,1.6966246E-2,2.7166901E-2,6.553839E-3,1.4894268E-2,1.7695539E-2,1.5324274E-2,1.36993565E-2,1.657514E-3,1.7380614E-2,1.8505359E-2,1.590012E-2,1.2054579E-2,1.187783E-2,1.4361111E-2,1.4860444E-3,5.718671E-3,0E0,2.5168932E-3,1.5399171E-2,1.7829165E-2,2.1770205E-2,2.0961694E-2,1.9758865E-2,2.5148958E-2,1.763713E-2,8.295062E-3,5.870329E-3,1.1298325E-2,1.1990387E-2,6.4797592E-3,0E0,0E0,0E0,0E0,0E0,0E0,0E0,0E0,0E0,0E0,0E0,0E0,0E0,0E0,0E0,0E0,0E0,0E0,0E0,0E0,0E0,0E0,0E0,0E0,0E0,0E0,0E0,0E0,0E0,0E0],"parents":[2147483647,0,0,1,1,2,2,3,3,4,4,5,5,6,6,7,7,8,8,9,9,10,10,11,11,12,12,13,13,14,14,15,15,16,16,18,18,19,19,20,20,21,21,22,22,23,23,24,24,25,25,26,26,27,27,28,28,29,29,30,30],"right_children":[2,4,6,8,10,12,14,16,18,20,22,24,26,28,30,32,34,-1,36,38,40,42,44,46,48,50,52,54,56,58,60,-1,-1,-1,-1,-1,-1,-1,-1,-1,-1,-1,-1,-1,-1,-1,-1,-1,-1,-1,-1,-1,-1,-1,-1,-1,-1,-1,-1,-1,-1],"split_conditions":[8.543513E1,4.51622E0,2.4114731E3,8.20817E1,1.92461E0,6.14355E0,5.87677E0,5.77639E0,2.3150059E3,1.64178E0,5.65264E0,2.1116887E3,8.572749E1,4.93599E0,9.077662E1,1.41075E0,5.92556E0,3.3502773E-4,4.41015E0,8.085921E1,6.1372E0,2.237958E3,1.35323E0,2.0957827E3,5.7795E0,2.2653042E3,6.19748E0,2.7401646E3,1.83747E0,8.558947E1,9.31201E0,2.2396522E-3,3.86581E-4,-4.2765858E-4,5.116568E-4,-8.107025E-4,-0E0,8.539529E-5,-8.275499E-5,2.0494685E-4,-2.8714104E-4,2.2664724E-4,-1.4448418E-4,1.380643E-4,-3.3802213E-4,6.464072E-5,-9.0388936E-4,4.5322908E-5,3.8027763E-4,1.2715555E-3,-2.16263E-4,-4.2254987E-4,-1.2771483E-5,9.511228E-4,-0E0,1.823367E-4,-1.2987736E-4,5.5029715E-4,-2.0473982E-4,-1.8247021E-5,6.677284E-4],"split_indices":[0,4,1,0,6,5,2,5,1,6,5,1,0,5,0,6,5,0,4,0,5,1,2,1,4,1,5,1,6,0,2,0,0,0,0,0,0,0,0,0,0,0,0,0,0,0,0,0,0,0,0,0,0,0,0,0,0,0,0,0,0],"split_type":[0,0,0,0,0,0,0,0,0,0,0,0,0,0,0,0,0,0,0,0,0,0,0,0,0,0,0,0,0,0,0,0,0,0,0,0,0,0,0,0,0,0,0,0,0,0,0,0,0,0,0,0,0,0,0,0,0,0,0,0,0],"sum_hessian":[1.9385E4,1.2409E4,6.976E3,1.48E2,1.2261E4,3.931E3,3.045E3,1.15E2,3.3E1,8.908E3,3.353E3,3.033E3,8.98E2,1.234E3,1.811E3,2.5E1,9E1,1E1,2.3E1,7.29E3,1.618E3,1.766E3,1.587E3,5.11E2,2.522E3,6.9E1,8.29E2,7.7E1,1.157E3,1.698E3,1.13E2,1.5E1,1E1,1.4E1,7.6E1,1.3E1,1E1,1.782E3,5.508E3,1.415E3,2.03E2,5.91E2,1.175E3,2.63E2,1.324E3,4.53E2,5.8E1,9.17E2,1.605E3,4E1,2.9E1,1.59E2,6.7E2,5.6E1,2.1E1,6.5E2,5.07E2,5E1,1.648E3,3.9E1,7.4E1],"tree_param":{"num_deleted":"0","num_feature":"8","num_nodes":"61","size_leaf_vector":"1"}},{"base_weights":[7.753013E-5,1.7272832E-3,-4.3217427E-4,-1.8775036E-3,2.959925E-3,-5.807898E-4,6.9496143E-3,5.3891204E-3,-5.2088196E-3,3.9739353E-3,-0E0,-5.0758775E-3,-3.846554E-4,-0E0,1.4759353E-2,6.9862036E-3,-8.865389E-3,7.608262E-3,-6.440427E-3,-2.266755E-3,4.606354E-3,-2.2122231E-3,8.608391E-3,1.6005011E-4,-7.12366E-3,6.3741485E-5,-2.1041976E-3,-6.2511144E-3,6.956348E-3,2.1462543E-2,1.6049991E-3,1.7275506E-4,6.733338E-4,-0E0,-1.187811E-3,-4.7979606E-4,6.623395E-4,-1.3903873E-3,-2.8820234E-4,4.2886808E-4,-4.1302262E-4,-8.813965E-5,2.7343872E-4,3.140475E-4,-2.902534E-4,-1.1833745E-4,9.1245194E-4,-5.2533793E-4,3.7667336E-4,-6.828872E-4,-1.1442865E-4,-3.3596207E-5,7.103764E-5,1.3775255E-4,-1.9206239E-4,-5.327087E-4,3.1426732E-4,-4.8281412E-4,6.378455E-4,-0E0,1.291597E-3,7.5974374E-4,-5.330577E-4],"categories":[],"categories_nodes":[],"categories_segments":[],"categories_sizes":[],"default_left":[0,0,0,0,0,0,0,0,0,0,0,0,0,0,0,0,0,0,0,0,0,0,0,0,0,0,0,0,0,0,0,0,0,0,0,0,0,0,0,0,0,0,0,0,0,0,0,0,0,0,0,0,0,0,0,0,0,0,0,0,0,0,0],"id":21,"left_children":[1,3,5,7,9,11,13,15,17,19,21,23,25,27,29,31,33,35,37,39,41,43,45,47,49,51,53,55,57,59,61,-1,-1,-1,-1,-1,-1,-1,-1,-1,-1,-1,-1,-1,-1,-1,-1,-1,-1,-1,-1,-1,-1,-1,-1,-1,-1,-1,-1,-1,-1,-1,-1],"loss_changes":[1.647709E-2,2.0709012E-2,1.5610055E-2,2.8114859E-2,1.0725142E-2,1.226048E-2,1.4844104E-2,7.978585E-3,1.2655422E-2,1.053353E-2,1.609271E-2,6.9806147E-3,1.09547535E-2,6.5804888E-3,9.121694E-3,5.7441033E-3,3.8500843E-3,6.7006024E-3,7.220693E-3,1.47283375E-2,1.3464283E-2,2.1318616E-2,1.97245E-2,1.1736749E-2,1.2117008E-2,1.1071186E-2,2.4850626E-2,4.8093526E-3,7.467714E-3,7.3964745E-3,8.950141E-3,0E0,0E0,0E0,0E0,0E0,0E0,0E0,0E0,0E0,0E0,0E0,0E0,0E0,0E0,0E0,0E0,0E0,0E0,0E0,0E0,0E0,0E0,0E0,0E0,0E0,0E0,0E0,0E0,0E0,0E0,0E0,0E0],"parents":[2147483647,0,0,1,1,2,2,3,3,4,4,5,5,6,6,7,7,8,8,9,9,10,10,11,11,12,12,13,13,14,14,15,15,16,16,17,17,18,18,19,19,20,20,21,21,22,22,23,23,24,24,25,25,26,26,27,27,28,28,29,29,30,30],"right_children":[2,4,6,8,10,12,14,16,18,20,22,24,26,28,30,32,34,36,38,40,42,44,46,48,50,52,54,56,58,60,62,-1,-1,-1,-1,-1,-1,-1,-1,-1,-1,-1,-1,-1,-1,-1,-1,-1,-1,-1,-1,-1,-1,-1,-1,-1,-1,-1,-1,-1,-1,-1,-1],"split_conditions":[2.1675437E3,3.566E-1,9.077662E1,8.016026E1,2.08716E0,2.1904487E3,-7.539E-2,2.1427773E3,-5.98331E0,9.0724E-1,8.619047E1,4.1713E0,2.14749E0,5.83746E0,1.95665E0,2.0556602E3,3.33E0,-2.52804E0,-5.01512E0,-4.04181E0,-4.14949E0,3.89768E0,5.79492E0,-2.61606E0,7.38819E0,5.91131E0,5.27858E0,2.36404E0,2.3150059E3,8.9537E-1,9.150473E1,1.7275506E-4,6.733338E-4,-0E0,-1.187811E-3,-4.7979606E-4,6.623395E-4,-1.3903873E-3,-2.8820234E-4,4.2886808E-4,-4.1302262E-4,-8.813965E-5,2.7343872E-4,3.140475E-4,-2.902534E-4,-1.1833745E-4,9.1245194E-4,-5.2533793E-4,3.7667336E-4,-6.828872E-4,-1.1442865E-4,-3.3596207E-5,7.103764E-5,1.3775255E-4,-1.9206239E-4,-5.327087E-4,3.1426732E-4,-4.8281412E-4,6.378455E-4,-0E0,1.291597E-3,7.5974374E-4,-5.330577E-4],"split_indices":[1,6,0,0,6,1,3,1,3,2,0,2,6,5,6,1,3,6,3,3,3,2,2,3,2,5,5,6,1,6,0,0,0,0,0,0,0,0,0,0,0,0,0,0,0,0,0,0,0,0,0,0,0,0,0,0,0,0,0,0,0,0,0],"split_type":[0,0,0,0,0,0,0,0,0,0,0,0,0,0,0,0,0,0,0,0,0,0,0,0,0,0,0,0,0,0,0,0,0,0,0,0,0,0,0,0,0,0,0,0,0,0,0,0,0,0,0,0,0,0,0,0,0,0,0,0,0,0,0],"sum_hessian":[1.9439E4,4.634E3,1.4805E4,1.16E3,3.474E3,1.4527E4,2.78E2,3.55E2,8.05E2,2.606E3,8.68E2,5.85E2,1.3942E4,1.49E2,1.29E2,3.26E2,2.9E1,6.3E1,7.42E2,2.25E2,2.381E3,6.98E2,1.7E2,1.51E2,4.34E2,1.1013E4,2.929E3,7.7E1,7.2E1,8E1,4.9E1,2.22E2,1.04E2,1.9E1,1E1,1.1E1,5.2E1,1.7E1,7.25E2,7.4E1,1.51E2,2.7E2,2.111E3,1.99E2,4.99E2,7.5E1,9.5E1,5.6E1,9.5E1,1.75E2,2.59E2,7.094E3,3.919E3,7.56E2,2.173E3,6.3E1,1.4E1,1.4E1,5.8E1,1.4E1,6.6E1,2.7E1,2.2E1],"tree_param":{"num_deleted":"0","num_feature":"8","num_nodes":"63","size_leaf_vector":"1"}},{"base_weights":[6.178857E-5,8.827024E-3,-1.2045525E-3,4.7024167E-3,1.3425623E-2,-1.916648E-3,1.11272875E-2,9.979053E-3,1.4167628E-3,1.6716385E-2,9.599556E-3,2.5140655E-3,-2.6671095E-3,1.3217832E-2,-2.8598157E-4,2.9263403E-3,1.4782004E-2,-5.9527443E-3,2.8399627E-3,-0E0,1.711831E-2,6.0322876E-3,1.8084012E-2,-1.6599674E-3,1.358182E-2,-3.4223113E-3,1.1099351E-3,9.151425E-3,1.8907685E-2,1.3109781E-2,-8.38948E-3,5.207733E-4,-4.6781573E-5,4.1650035E-4,8.7747286E-4,1.8858534E-4,-6.602007E-4,3.8959517E-4,1.6772017E-5,8.770111E-4,-0E0,9.230302E-5,5.8914575E-4,-0E0,9.63824E-4,-1.8887917E-4,1.987688E-4,5.091668E-4,9.976615E-4,-2.2779459E-4,-1.0670501E-5,3.7809744E-4,-3.0965218E-4,6.533786E-4,-0E0,-0E0,9.6946815E-4,-0E0,1.1042146E-3,-1.0221954E-3,2.5036294E-5],"categories":[],"categories_nodes":[],"categories_segments":[],"categories_sizes":[],"default_left":[0,0,0,0,0,0,0,0,0,0,0,0,0,0,0,0,0,0,0,0,0,0,0,0,0,0,0,0,0,0,0,0,0,0,0,0,0,0,0,0,0,0,0,0,0,0,0,0,0,0,0,0,0,0,0,0,0,0,0,0,0],"id":22,"left_children":[1,3,5,7,9,11,13,15,17,19,21,23,25,27,29,31,33,35,37,-1,39,41,43,45,47,49,51,53,55,57,59,-1,-1,-1,-1,-1,-1,-1,-1,-1,-1,-1,-1,-1,-1,-1,-1,-1,-1,-1,-1,-1,-1,-1,-1,-1,-1,-1,-1,-1,-1],"loss_changes":[2.1671906E-1,4.4897705E-2,1.4829707E-1,2.1610022E-2,1.173757E-2,5.345937E-2,2.3248114E-2,1.4851842E-2,8.326994E-3,4.417911E-3,1.4125768E-2,1.07884005E-1,3.949304E-2,1.5183806E-2,1.4401101E-2,7.002592E-3,2.336856E-3,9.595815E-3,7.878626E-3,0E0,2.8111935E-3,8.172503E-3,2.401881E-3,1.9936103E-2,1.0619506E-2,4.132481E-2,1.072379E-1,1.8014006E-2,2.0697266E-3,4.602896E-3,1.1649525E-2,0E0,0E0,0E0,0E0,0E0,0E0,0E0,0E0,0E0,0E0,0E0,0E0,0E0,0E0,0E0,0E0,0E0,0E0,0E0,0E0,0E0,0E0,0E0,0E0,0E0,0E0,0E0,0E0,0E0,0E0],"parents":[2147483647,0,0,1,1,2,2,3,3,4,4,5,5,6,6,7,7,8,8,9,9,10,10,11,11,12,12,13,13,14,14,15,15,16,16,17,17,18,18,20,20,21,21,22,22,23,23,24,24,25,25,26,26,27,27,28,28,29,29,30,30],"right_children":[2,4,6,8,10,12,14,16,18,20,22,24,26,28,30,32,34,36,38,-1,40,42,44,46,48,50,52,54,56,58,60,-1,-1,-1,-1,-1,-1,-1,-1,-1,-1,-1,-1,-1,-1,-1,-1,-1,-1,-1,-1,-1,-1,-1,-1,-1,-1,-1,-1,-1,-1],"split_conditions":[-8.368229E0,3.35461E0,-4.841395E0,-9.229947E0,-8.77802E0,-7.775301E0,1.526934E1,-1.31287E0,7.920875E1,4.65871E0,7.98709E0,6.77992E0,-5.679184E0,-4.354433E0,5.87255E0,-4.25681E0,-3.08756E0,-8.887573E0,8.171566E1,-0E0,9.37256E0,8.441543E1,7.992445E1,4.97213E0,9.61292E0,8.632986E1,8.64028E0,6.11069E0,7.797877E1,-4.354433E0,6.28916E0,5.207733E-4,-4.6781573E-5,4.1650035E-4,8.7747286E-4,1.8858534E-4,-6.602007E-4,3.8959517E-4,1.6772017E-5,8.770111E-4,-0E0,9.230302E-5,5.8914575E-4,-0E0,9.63824E-4,-1.8887917E-4,1.987688E-4,5.091668E-4,9.976615E-4,-2.2779459E-4,-1.0670501E-5,3.7809744E-4,-3.0965218E-4,6.533786E-4,-0E0,-0E0,9.6946815E-4,-0E0,1.1042146E-3,-1.0221954E-3,2.5036294E-5],"split_indices":[7,2,7,7,7,7,2,2,0,4,2,2,7,7,4,3,3,7,0,0,3,0,0,2,2,0,2,4,0,7,4,0,0,0,0,0,0,0,0,0,0,0,0,0,0,0,0,0,0,0,0,0,0,0,0,0,0,0,0,0,0],"split_type":[0,0,0,0,0,0,0,0,0,0,0,0,0,0,0,0,0,0,0,0,0,0,0,0,0,0,0,0,0,0,0,0,0,0,0,0,0,0,0,0,0,0,0,0,0,0,0,0,0,0,0,0,0,0,0,0,0,0,0,0,0],"sum_hessian":[1.9454E4,2.465E3,1.6989E4,1.312E3,1.153E3,1.607E4,9.19E2,4.91E2,8.21E2,6.04E2,5.49E2,2.308E3,1.3762E4,7.84E2,1.35E2,2.08E2,2.83E2,1.21E2,7E2,1.3E1,5.91E2,3.96E2,1.53E2,1.67E3,6.38E2,1.1491E4,2.271E3,4.69E2,3.15E2,4.6E1,8.9E1,7.9E1,1.29E2,9.7E1,1.86E2,4.6E1,7.5E1,2.21E2,4.79E2,5.72E2,1.9E1,2.4E2,1.56E2,1.2E1,1.41E2,1.227E3,4.43E2,4.28E2,2.1E2,8.468E3,3.023E3,1.213E3,1.058E3,3.35E2,1.34E2,1E1,3.05E2,2.1E1,2.5E1,4.2E1,4.7E1],"tree_param":{"num_deleted":"0","num_feature":"8","num_nodes":"61","size_leaf_vector":"1"}},{"base_weights":[2.8789183E-4,6.2688664E-3,-1.2370921E-3,9.7503215E-3,7.936356E-4,-2.1699874E-3,8.895483E-3,5.5122385E-3,1.4943765E-2,-2.1076475E-3,1.5914239E-2,-2.5640614E-3,1.7768955E-3,1.3303642E-2,2.252327E-3,9.015713E-3,-1.6819171E-3,1.9381315E-2,1.2596161E-2,3.135092E-3,-8.960531E-3,1.856136E-2,-6.40944E-4,-4.172123E-4,-3.640543E-3,6.9922134E-3,-8.088343E-3,5.7890327E-3,2.0080427E-2,-1.6782008E-2,4.3990565E-3,-4.8238138E-4,4.898442E-4,2.3910518E-4,-3.7595336E-4,1.05865955E-4,1.0000204E-3,3.767848E-4,7.8415795E-4,-2.2994309E-5,5.0642184E-4,-1.4394613E-3,-3.6340102E-4,1.2052665E-3,5.178523E-4,2.6570668E-4,-1.4528188E-4,-1.3209258E-4,-4.361889E-4,-3.8110968E-5,1.0482699E-3,-6.236291E-4,4.54316E-5,8.283721E-5,9.1261836E-4,1.1754525E-3,7.574467E-4,-0E0,-1.165199E-3,2.5794056E-5,7.858838E-4],"categories":[],"categories_nodes":[],"categories_segments":[],"categories_sizes":[],"default_left":[0,0,0,0,0,0,0,0,0,0,0,0,0,0,0,0,0,0,0,0,0,0,0,0,0,0,0,0,0,0,0,0,0,0,0,0,0,0,0,0,0,0,0,0,0,0,0,0,0,0,0,0,0,0,0,0,0,0,0,0,0],"id":23,"left_children":[1,3,5,7,9,11,13,15,17,19,21,23,25,27,29,31,33,35,37,39,41,43,-1,45,47,49,51,53,55,57,59,-1,-1,-1,-1,-1,-1,-1,-1,-1,-1,-1,-1,-1,-1,-1,-1,-1,-1,-1,-1,-1,-1,-1,-1,-1,-1,-1,-1,-1,-1],"loss_changes":[1.7808554E-1,7.4594036E-2,1.45872E-1,5.1026747E-2,6.963073E-2,2.217567E-2,3.642519E-2,3.457304E-2,7.746622E-3,4.7316886E-2,2.0283557E-2,2.949299E-2,6.513454E-2,3.655991E-2,2.0410435E-2,1.3405718E-2,1.6571911E-2,1.5401244E-3,8.807525E-3,1.9299246E-2,1.5381511E-2,7.1294084E-3,0E0,6.1857194E-2,4.2427927E-2,9.262034E-2,1.8207917E-2,1.7240632E-2,2.5075376E-3,5.2074874E-3,1.9465584E-2,0E0,0E0,0E0,0E0,0E0,0E0,0E0,0E0,0E0,0E0,0E0,0E0,0E0,0E0,0E0,0E0,0E0,0E0,0E0,0E0,0E0,0E0,0E0,0E0,0E0,0E0,0E0,0E0,0E0,0E0],"parents":[2147483647,0,0,1,1,2,2,3,3,4,4,5,5,6,6,7,7,8,8,9,9,10,10,11,11,12,12,13,13,14,14,15,15,16,16,17,17,18,18,19,19,20,20,21,21,23,23,24,24,25,25,26,26,27,27,28,28,29,29,30,30],"right_children":[2,4,6,8,10,12,14,16,18,20,22,24,26,28,30,32,34,36,38,40,42,44,-1,46,48,50,52,54,56,58,60,-1,-1,-1,-1,-1,-1,-1,-1,-1,-1,-1,-1,-1,-1,-1,-1,-1,-1,-1,-1,-1,-1,-1,-1,-1,-1,-1,-1,-1,-1],"split_conditions":[-7.951282E0,6.04532E0,-5.051841E0,3.98792E0,7.98709E0,-5.518099E0,1.061028E1,-8.322528E0,-8.594949E0,-8.594949E0,6.98936E0,5.52128E0,1.020875E1,5.38634E0,5.06139E0,4.65871E0,5.64214E0,4.96198E0,2.2407957E3,3.55646E0,-1.89616E0,6.37762E0,-6.40944E-4,-7.043371E0,2.18011E0,5.632E0,5.90272E0,2.45193E0,8.12981E0,4.63552E0,-4.10824E0,-4.8238138E-4,4.898442E-4,2.3910518E-4,-3.7595336E-4,1.05865955E-4,1.0000204E-3,3.767848E-4,7.8415795E-4,-2.2994309E-5,5.0642184E-4,-1.4394613E-3,-3.6340102E-4,1.2052665E-3,5.178523E-4,2.6570668E-4,-1.4528188E-4,-1.3209258E-4,-4.361889E-4,-3.8110968E-5,1.0482699E-3,-6.236291E-4,4.54316E-5,8.283721E-5,9.1261836E-4,1.1754525E-3,7.574467E-4,-0E0,-1.165199E-3,2.5794056E-5,7.858838E-4],"split_indices":[7,5,7,2,2,7,2,7,7,7,5,5,2,5,5,4,5,4,1,2,6,5,0,7,6,5,5,6,2,5,7,0,0,0,0,0,0,0,0,0,0,0,0,0,0,0,0,0,0,0,0,0,0,0,0,0,0,0,0,0,0],"split_type":[0,0,0,0,0,0,0,0,0,0,0,0,0,0,0,0,0,0,0,0,0,0,0,0,0,0,0,0,0,0,0,0,0,0,0,0,0,0,0,0,0,0,0,0,0,0,0,0,0,0,0,0,0,0,0,0,0,0,0,0,0],"sum_hessian":[1.9468E4,3.968E3,1.55E4,2.414E3,1.554E3,1.4203E4,1.297E3,1.341E3,1.073E3,1.299E3,2.55E2,1.2937E4,1.266E3,7.7E2,5.27E2,9.11E2,4.3E2,3.54E2,7.19E2,7.28E2,5.71E2,2.37E2,1.8E1,4.352E3,8.585E3,8.35E2,4.31E2,3.73E2,3.97E2,4.8E1,4.79E2,3.1E1,8.8E2,1.96E2,2.34E2,1.8E1,3.36E2,2.86E2,4.33E2,4.72E2,2.56E2,3.9E1,5.32E2,1.33E2,1.04E2,1.305E3,3.047E3,7.193E3,1.392E3,5.33E2,3.02E2,2.97E2,1.34E2,2.87E2,8.6E1,2.2E2,1.77E2,1.4E1,3.4E1,3.64E2,1.15E2],"tree_param":{"num_deleted":"0","num_feature":"8","num_nodes":"61","size_leaf_vector":"1"}},{"base_weights":[1.0942133E-5,7.4168625E-3,-1.1005135E-3,9.298132E-3,-6.380849E-4,-1.6791397E-3,1.0594229E-2,4.89806E-3,1.3149837E-2,-3.148732E-3,1.6417447E-2,2.0748235E-3,-2.3289318E-3,-1.64192E-3,1.3687917E-2,4.0559615E-3,1.8533735E-3,1.707247E-2,8.833877E-3,6.019904E-3,-6.827002E-3,1.3289979E-3,2.5909755E-3,-3.9636316E-3,9.037992E-3,-2.9338945E-3,1.7374563E-3,1.0149381E-2,-8.369943E-3,1.6456544E-2,-8.923232E-4,8.994027E-4,1.2968322E-4,-0E0,9.049405E-4,2.826235E-4,8.633348E-4,-0E0,1.3230204E-3,2.0002159E-4,-5.4431823E-4,-4.740215E-4,7.3532376E-4,4.7950694E-4,-2.633603E-4,6.712837E-4,-1.8208793E-4,4.34453E-4,-1.5503431E-4,2.6517728E-4,-5.8688544E-4,1.2138056E-3,-7.567329E-5,-6.388893E-4,3.3793575E-4,6.5948186E-4,1.0541184E-3,-5.267867E-4,8.376433E-4],"categories":[],"categories_nodes":[],"categories_segments":[],"categories_sizes":[],"default_left":[0,0,0,0,0,0,0,0,0,0,0,0,0,0,0,0,0,0,0,0,0,0,0,0,0,0,0,0,0,0,0,0,0,0,0,0,0,0,0,0,0,0,0,0,0,0,0,0,0,0,0,0,0,0,0,0,0,0,0],"id":24,"left_children":[1,3,5,7,9,11,13,15,17,19,21,23,25,27,29,31,-1,33,35,37,39,-1,41,43,45,47,49,51,53,55,57,-1,-1,-1,-1,-1,-1,-1,-1,-1,-1,-1,-1,-1,-1,-1,-1,-1,-1,-1,-1,-1,-1,-1,-1,-1,-1,-1,-1],"loss_changes":[1.6118409E-1,3.9619505E-2,1.1381143E-1,3.3433005E-2,1.9064525E-2,3.9444387E-2,3.1170242E-2,2.2447867E-2,1.5847623E-2,1.4286187E-2,4.8826933E-3,9.9857755E-2,3.4065552E-2,1.2124157E-2,2.73254E-2,1.7554983E-2,0E0,1.07874125E-2,1.2017243E-2,1.2008488E-2,1.4269509E-2,0E0,4.90331E-3,2.1845002E-2,6.2503636E-2,2.2793487E-2,8.428156E-2,1.071566E-2,7.6234844E-3,4.4855177E-3,1.606029E-2,0E0,0E0,0E0,0E0,0E0,0E0,0E0,0E0,0E0,0E0,0E0,0E0,0E0,0E0,0E0,0E0,0E0,0E0,0E0,0E0,0E0,0E0,0E0,0E0,0E0,0E0,0E0,0E0],"parents":[2147483647,0,0,1,1,2,2,3,3,4,4,5,5,6,6,7,7,8,8,9,9,10,10,11,11,12,12,13,13,14,14,15,15,17,17,18,18,19,19,20,20,22,22,23,23,24,24,25,25,26,26,27,27,28,28,29,29,30,30],"right_children":[2,4,6,8,10,12,14,16,18,20,22,24,26,28,30,32,-1,34,36,38,40,-1,42,44,46,48,50,52,54,56,58,-1,-1,-1,-1,-1,-1,-1,-1,-1,-1,-1,-1,-1,-1,-1,-1,-1,-1,-1,-1,-1,-1,-1,-1,-1,-1,-1,-1],"split_conditions":[-8.322528E0,6.33806E0,-4.738359E0,2.53587E0,8.89725E0,-7.728073E0,5.06139E0,-8.34702E0,-8.738804E0,-3.23465E0,6.56569E0,4.97213E0,-5.494748E0,6.54323E0,1.572198E1,-1.016751E1,1.8533735E-3,4.96198E0,7.68965E0,6.72623E0,-9.648563E0,1.3289979E-3,1.035965E1,5.20197E0,6.15648E0,-2.21374E0,1.19489E1,1.2744E-1,-3.939506E0,-4.238897E0,-3.939506E0,8.994027E-4,1.2968322E-4,-0E0,9.049405E-4,2.826235E-4,8.633348E-4,-0E0,1.3230204E-3,2.0002159E-4,-5.4431823E-4,-4.740215E-4,7.3532376E-4,4.7950694E-4,-2.633603E-4,6.712837E-4,-1.8208793E-4,4.34453E-4,-1.5503431E-4,2.6517728E-4,-5.8688544E-4,1.2138056E-3,-7.567329E-5,-6.388893E-4,3.3793575E-4,6.5948186E-4,1.0541184E-3,-5.267867E-4,8.376433E-4],"split_indices":[7,5,7,2,2,7,5,7,7,3,5,2,7,2,2,7,0,4,2,5,7,0,2,5,5,2,2,3,7,7,7,0,0,0,0,0,0,0,0,0,0,0,0,0,0,0,0,0,0,0,0,0,0,0,0,0,0,0,0],"split_type":[0,0,0,0,0,0,0,0,0,0,0,0,0,0,0,0,0,0,0,0,0,0,0,0,0,0,0,0,0,0,0,0,0,0,0,0,0,0,0,0,0,0,0,0,0,0,0,0,0,0,0,0,0,0,0,0,0,0,0],"sum_hessian":[1.9503E4,2.556E3,1.6947E4,2.082E3,4.74E2,1.6157E4,7.9E2,9.85E2,1.097E3,4.19E2,5.5E1,2.361E3,1.3796E4,1.53E2,6.37E2,9.64E2,2.1E1,5.61E2,5.36E2,1.12E2,3.07E2,2.7E1,2.8E1,1.257E3,1.104E3,1.2031E4,1.765E3,5E1,1.03E2,5.41E2,9.6E1,8.4E1,8.8E2,2.9E1,5.32E2,3.99E2,1.37E2,9E1,2.2E1,7.7E1,2.3E2,1E1,1.8E1,1.03E2,1.154E3,8.26E2,2.78E2,1.61E2,1.187E4,1.402E3,3.63E2,2.6E1,2.4E1,8.5E1,1.8E1,3.32E2,2.09E2,6.6E1,3E1],"tree_param":{"num_deleted":"0","num_feature":"8","num_nodes":"59","size_leaf_vector":"1"}},{"base_weights":[1.1303484E-4,5.63632E-3,-1.2890628E-3,2.313752E-3,1.09776445E-2,-2.1743928E-3,7.858806E-3,6.2991483E-3,-1.6798356E-3,1.2101753E-2,-1.1451727E-2,4.354275E-3,-2.4264646E-3,2.3320927E-3,1.29453195E-2,9.610701E-3,4.7986995E-4,4.6197716E-3,-4.7427514E-3,2.0024823E-2,9.840985E-3,-1.985527E-2,2.476378E-3,6.5842406E-3,-1.6662354E-2,-3.1340397E-3,-6.4809225E-4,3.8072388E-3,-2.2042139E-2,9.4746856E-4,6.4019267E-3,3.3117938E-4,7.7822595E-4,-1.7126205E-5,1.3147243E-3,-7.905398E-5,6.29784E-4,7.178363E-4,-2.6915284E-4,1.5618866E-3,8.4204454E-4,2.3729993E-4,6.890994E-4,-0E0,-1.3305572E-3,-2.8757696E-4,9.072802E-4,5.405137E-4,-7.529288E-5,-1.3633695E-3,-0E0,1.3032193E-4,-1.9776382E-4,-1.4069167E-4,5.2415405E-4,-0E0,6.798487E-4,-0E0,-1.358269E-3,-8.130258E-5,5.9529045E-4],"categories":[],"categories_nodes":[],"categories_segments":[],"categories_sizes":[],"default_left":[0,0,0,0,0,0,0,0,0,0,0,0,0,0,0,0,0,0,0,0,0,0,0,0,0,0,0,0,0,0,0,0,0,0,0,0,0,0,0,0,0,0,0,0,0,0,0,0,0,0,0,0,0,0,0,0,0,0,0,0,0],"id":25,"left_children":[1,3,5,7,9,11,13,15,17,19,21,23,25,27,29,31,33,35,37,39,41,43,45,47,49,51,53,55,57,-1,59,-1,-1,-1,-1,-1,-1,-1,-1,-1,-1,-1,-1,-1,-1,-1,-1,-1,-1,-1,-1,-1,-1,-1,-1,-1,-1,-1,-1,-1,-1],"loss_changes":[1.5097347E-1,6.874578E-2,1.2489225E-1,3.9434947E-2,3.8098797E-2,2.3076363E-2,3.6589652E-2,2.284364E-2,2.3400655E-2,2.253829E-2,9.746148E-3,2.305061E-2,1.676201E-2,2.202705E-2,2.4726488E-2,1.1514619E-2,1.2391135E-2,2.0211937E-2,9.281481E-3,5.6620315E-3,2.0751394E-2,6.964611E-3,4.180124E-3,1.6913E-2,6.094234E-3,4.5897402E-2,9.373884E-2,2.2511186E-2,1.191888E-3,0E0,1.6202807E-2,0E0,0E0,0E0,0E0,0E0,0E0,0E0,0E0,0E0,0E0,0E0,0E0,0E0,0E0,0E0,0E0,0E0,0E0,0E0,0E0,0E0,0E0,0E0,0E0,0E0,0E0,0E0,0E0,0E0,0E0],"parents":[2147483647,0,0,1,1,2,2,3,3,4,4,5,5,6,6,7,7,8,8,9,9,10,10,11,11,12,12,13,13,14,14,15,15,16,16,17,17,18,18,19,19,20,20,21,21,22,22,23,23,24,24,25,25,26,26,27,27,28,28,30,30],"right_children":[2,4,6,8,10,12,14,16,18,20,22,24,26,28,30,32,34,36,38,40,42,44,46,48,50,52,54,56,58,-1,60,-1,-1,-1,-1,-1,-1,-1,-1,-1,-1,-1,-1,-1,-1,-1,-1,-1,-1,-1,-1,-1,-1,-1,-1,-1,-1,-1,-1,-1,-1],"split_conditions":[-7.951282E0,4.83473E0,-5.08754E0,-8.626054E0,6.80141E0,4.86296E0,5.50508E0,6.1178E0,5.67036E0,5.66165E0,8.73973E0,7.00713E0,5.94478E0,1.572198E1,1.061028E1,2.48012E0,6.98936E0,2.05024E0,-5.88284E0,5.60402E0,6.9043E0,-5.15689E0,2.3034697E3,-5.787207E0,-6.626714E0,-7.531386E0,-5.988719E0,-4.354433E0,-8.9701E-1,9.4746856E-4,1.11717E0,3.3117938E-4,7.7822595E-4,-1.7126205E-5,1.3147243E-3,-7.905398E-5,6.29784E-4,7.178363E-4,-2.6915284E-4,1.5618866E-3,8.4204454E-4,2.3729993E-4,6.890994E-4,-0E0,-1.3305572E-3,-2.8757696E-4,9.072802E-4,5.405137E-4,-7.529288E-5,-1.3633695E-3,-0E0,1.3032193E-4,-1.9776382E-4,-1.4069167E-4,5.2415405E-4,-0E0,6.798487E-4,-0E0,-1.358269E-3,-8.130258E-5,5.9529045E-4],"split_indices":[7,2,7,7,5,5,5,5,5,5,2,3,5,2,2,2,5,2,2,2,2,3,1,7,7,7,7,7,3,0,6,0,0,0,0,0,0,0,0,0,0,0,0,0,0,0,0,0,0,0,0,0,0,0,0,0,0,0,0,0,0],"split_type":[0,0,0,0,0,0,0,0,0,0,0,0,0,0,0,0,0,0,0,0,0,0,0,0,0,0,0,0,0,0,0,0,0,0,0,0,0,0,0,0,0,0,0,0,0,0,0,0,0,0,0,0,0,0,0,0,0,0,0,0,0],"sum_hessian":[1.9437E4,3.949E3,1.5488E4,2.447E3,1.502E3,1.4132E4,1.356E3,1.237E3,1.21E3,1.435E3,6.7E1,5.1E2,1.3622E4,6.6E2,6.96E2,7.77E2,4.6E2,3.85E2,8.25E2,3.07E2,1.128E3,4.6E1,2.1E1,4.66E2,4.4E1,9.704E3,3.918E3,6.27E2,3.3E1,3.54E2,3.42E2,5.3E2,2.47E2,4.43E2,1.7E1,2.1E2,1.75E2,2.1E1,8.04E2,5.9E1,2.48E2,5.04E2,6.24E2,1.1E1,3.5E1,1E1,1.1E1,3.14E2,1.52E2,2.4E1,2E1,1.199E3,8.505E3,3.288E3,6.3E2,4.57E2,1.7E2,1E1,2.3E1,1.32E2,2.1E2],"tree_param":{"num_deleted":"0","num_feature":"8","num_nodes":"61","size_leaf_vector":"1"}},{"base_weights":[-1.8903911E-4,6.4228857E-3,-1.4589044E-3,1.1660652E-2,2.8826632E-3,-2.3536053E-3,7.340401E-3,7.2485213E-3,1.4025756E-2,1.2557703E-2,1.8078459E-3,2.2347744E-4,-3.207993E-3,2.8927703E-3,1.1727286E-2,1.986054E-2,4.859269E-3,1.4339665E-2,-0E0,9.5064165E-3,1.0312473E-3,-0E0,8.168577E-3,5.592986E-3,-2.830602E-3,-3.7476548E-3,1.0823373E-3,6.921389E-3,-3.9336006E-3,1.4151782E-2,-0E0,3.8703196E-4,1.2588947E-3,4.780085E-4,-0E0,8.07922E-4,4.629802E-4,6.3912605E-4,-0E0,5.252035E-4,-3.4780674E-5,6.725389E-4,-3.2322252E-5,-1.8180962E-4,4.8343372E-4,-2.5807464E-4,2.670222E-4,-9.005398E-6,-2.1850884E-4,-1.9239234E-4,5.513413E-4,6.8600354E-4,9.1738635E-5,-4.9306866E-4,7.4922216E-5,3.646623E-4,8.2939875E-4,-7.0670375E-4,1.8107356E-4],"categories":[],"categories_nodes":[],"categories_segments":[],"categories_sizes":[],"default_left":[0,0,0,0,0,0,0,0,0,0,0,0,0,0,0,0,0,0,0,0,0,0,0,0,0,0,0,0,0,0,0,0,0,0,0,0,0,0,0,0,0,0,0,0,0,0,0,0,0,0,0,0,0,0,0,0,0,0,0],"id":26,"left_children":[1,3,5,7,9,11,13,15,17,19,21,23,25,27,29,31,33,35,-1,37,-1,39,41,43,45,47,49,51,53,55,57,-1,-1,-1,-1,-1,-1,-1,-1,-1,-1,-1,-1,-1,-1,-1,-1,-1,-1,-1,-1,-1,-1,-1,-1,-1,-1,-1,-1],"loss_changes":[1.628117E-1,5.6384325E-2,1.2807271E-1,1.0783538E-2,1.8038679E-2,3.295888E-2,2.7712397E-2,1.1051759E-2,4.2089373E-3,1.1723489E-3,1.8872002E-2,6.039406E-2,2.6130483E-2,2.1116644E-2,2.1321438E-2,7.022321E-4,8.020956E-3,4.533857E-3,0E0,4.83096E-3,0E0,1.0532138E-2,1.833108E-2,5.108045E-2,4.429118E-2,2.1624148E-2,6.0966898E-2,1.5191752E-2,9.60945E-3,7.7834576E-3,6.718466E-3,0E0,0E0,0E0,0E0,0E0,0E0,0E0,0E0,0E0,0E0,0E0,0E0,0E0,0E0,0E0,0E0,0E0,0E0,0E0,0E0,0E0,0E0,0E0,0E0,0E0,0E0,0E0,0E0],"parents":[2147483647,0,0,1,1,2,2,3,3,4,4,5,5,6,6,7,7,8,8,9,9,10,10,11,11,12,12,13,13,14,14,15,15,16,16,17,17,19,19,21,21,22,22,23,23,24,24,25,25,26,26,27,27,28,28,29,29,30,30],"right_children":[2,4,6,8,10,12,14,16,18,20,22,24,26,28,30,32,34,36,-1,38,-1,40,42,44,46,48,50,52,54,56,58,-1,-1,-1,-1,-1,-1,-1,-1,-1,-1,-1,-1,-1,-1,-1,-1,-1,-1,-1,-1,-1,-1,-1,-1,-1,-1,-1,-1],"split_conditions":[-8.168499E0,5.86301E0,-5.157885E0,8.137848E1,-9.950327E0,-7.385203E0,5.53199E0,5.31033E0,3.31333E0,5.9585E0,8.558947E1,5.69617E0,6.19139E0,6.07156E0,8.925152E1,-2.27744E0,7.945927E1,6.02356E0,-0E0,1.4882E0,1.0312473E-3,-7.85296E0,6.37762E0,8.166755E1,8.6258E1,8.157311E1,-6.269663E0,8.458806E1,-4.738359E0,8.9537E-1,8.975627E1,3.8703196E-4,1.2588947E-3,4.780085E-4,-0E0,8.07922E-4,4.629802E-4,6.3912605E-4,-0E0,5.252035E-4,-3.4780674E-5,6.725389E-4,-3.2322252E-5,-1.8180962E-4,4.8343372E-4,-2.5807464E-4,2.670222E-4,-9.005398E-6,-2.1850884E-4,-1.9239234E-4,5.513413E-4,6.8600354E-4,9.1738635E-5,-4.9306866E-4,7.4922216E-5,3.646623E-4,8.2939875E-4,-7.0670375E-4,1.8107356E-4],"split_indices":[7,5,7,0,7,7,5,5,6,4,0,5,5,4,0,3,0,4,0,6,0,3,5,0,0,0,7,0,7,6,0,0,0,0,0,0,0,0,0,0,0,0,0,0,0,0,0,0,0,0,0,0,0,0,0,0,0,0,0],"split_type":[0,0,0,0,0,0,0,0,0,0,0,0,0,0,0,0,0,0,0,0,0,0,0,0,0,0,0,0,0,0,0,0,0,0,0,0,0,0,0,0,0,0,0,0,0,0,0,0,0,0,0,0,0,0,0,0,0,0,0],"sum_hessian":[1.9448E4,3.12E3,1.6328E4,1.246E3,1.874E3,1.4832E4,1.496E3,4.51E2,7.95E2,1.77E2,1.697E3,3.664E3,1.1168E4,